1729 120
t 0.34495303 0.11610035 0.19923896 0.21261056 -0.31450003 0.21821833 0.46098873 0.26009107 -0.14100346 -0.3275252 0.45797732 -0.051019754 0.22664805 -0.25678295 -0.17594206 -0.13512933 0.051389422 -0.064923786 -0.42600244 -0.24422483 0.27351913 -0.32712752 0.09933472 -0.2163564 0.10091419 -0.038020536 0.008940048 0.33619973 -0.20290793 -0.23622265 0.021446092 -0.24784575 0.29671195 -0.26462024 -0.26666677 0.000115250325 0.34716395 -0.22475904 -0.32928976 0.03238755 -0.43704808 -0.086369276 -0.33866176 -0.03036134 0.24509263 -0.21523808 -0.18709092 0.31157357 0.21281439 0.2547553 -0.31267095 0.19452234 -0.17006536 0.20055138 0.4742921 0.37209365 -0.008963199 -0.124648675 0.2654485 0.07931415 -0.3105644 0.24833131 -0.30814195 -0.077495195 -0.11108997 -0.033407643 0.031699173 0.36439803 0.035833355 0.15052997 0.3592849 0.087083064 -0.10111846 -0.2750516 -0.00693844 -0.24499649 0.52879137 -0.37366086 -0.44481057 -0.26267326 0.020208243 0.017210059 0.07940914 0.55641884 -0.13041244 0.12508987 -0.14947286 0.060854457 -0.06979104 -0.19926028 0.5379917 -0.18363039 0.036308493 0.117404304 0.78488123 0.5777034 -0.23472145 -0.10078336 -0.2739543 0.190701 -0.19545719 0.13739091 0.09857556 -0.1483821 -0.039906256 -0.07005985 -0.10809198 0.16509184 -0.20730212 0.051928375 0.3727092 -0.016081532 0.10594503 0.16397987 0.3067025 0.20753656 0.07587221 -0.26308122 -0.043453414 -0.4339839
n 0.27546445 0.2788166 0.34056634 -0.15734376 -0.37470204 -0.15011607 0.28001285 0.10937206 -0.052402824 -0.056712706 0.54445195 -0.04256768 0.1537264 -0.22400759 0.041483168 0.09377019 -0.0862435 0.22849411 -0.5051343 -0.28938293 -0.007202751 -0.4488714 0.22868033 -0.07023121 -0.34646723 0.086340465 0.07997912 0.33454767 -0.20056288 -0.25679433 -0.031192707 -0.40478766 0.5329325 -0.17669845 -0.02092037 0.3110911 0.3931656 -0.47536355 -0.25774714 0.06619671 -0.14107364 -0.0121320365 -0.4340083 -0.19747537 0.4716732 0.12720558 0.10881417 0.110444345 0.1121805 0.31384212 -0.31814024 0.1651223 -0.050460353 0.2607925 0.17396057 0.5345168 -0.028681029 0.32786965 0.43799502 -0.502661 0.065993555 -0.031829935 -0.20497513 0.46370092 0.15796599 -0.23592934 -0.16206475 0.30847377 0.05108237 0.12677422 0.12215437 0.2928931 0.0881993 -0.15124215 -0.026102379 0.032035094 0.48983294 -0.35291263 -0.49904656 -0.063027784 -0.020171983 -0.007906425 -0.33544704 0.6260014 0.4392486 0.15508744 -0.3280318 0.025901498 -0.26100513 0.13522293 0.45271686 -0.10641574 -0.01948842 -0.22013684 0.5401693 0.38480446 -0.106124684 -0.11152888 -0.43641245 0.24965574 -0.038052026 -0.09510652 0.034942113 -0.207409 -0.18326661 -0.1761707 -0.15176417 0.61472154 -0.2628673 0.16077346 0.46291497 -0.06629107 -0.31610808 0.14459431 -0.17482513 0.6083036 0.2103337 -0.07667831 0.38622355 -0.43410686
m 0.2562856 0.15252738 0.32684076 0.1915497 -0.4577314 0.14422926 0.3917467 0.21629602 -0.1915027 -0.22909197 0.5472151 -0.0028318814 0.13290228 -0.36016303 -0.12195297 -0.22052138 -0.09923125 0.14532226 -0.50470024 -0.21442258 0.18789554 -0.40873906 0.20844837 -0.07890392 -0.14298558 0.09979201 0.011171396 0.31860897 -0.188208 -0.22456169 0.06384263 -0.20719123 0.38702607 -0.23098311 -0.15016387 0.18150485 0.36322847 -0.4296149 -0.3994466 0.0057495115 -0.23460498 -0.053230472 -0.3777878 -0.04000098 0.2617362 -0.08834034 -0.10688298 0.19438206 0.13944066 0.2583992 -0.32599717 0.26194936 -0.051801115 0.2557639 0.30304644 0.42162347 0.017654022 0.0740213 0.38809624 -0.22237626 -0.20758145 0.14459817 -0.29048052 0.30064234 0.0069450582 -0.063575335 0.005476676 0.43002683 0.1803978 0.0445487 0.30317727 0.23476085 0.04564553 -0.22065437 0.06407627 -0.18178749 0.70197046 -0.33603606 -0.53193974 -0.10790603 0.025782963 0.00016420754 -0.04705169 0.7427344 0.086222515 0.13686275 -0.2574455 0.11813506 -0.18687986 -0.050231155 0.48243776 -0.3286556 -0.0013776037 -0.10192687 0.60956186 0.47480297 -0.08343331 -0.1393194 -0.47136933 0.3026075 -0.05189937 0.13738632 0.17367293 -0.20795362 -0.15366915 -0.13296454 -0.24261087 0.19166873 -0.24162364 0.15363505 0.4708281 -0.019867893 -0.11140389 0.08562315 0.07651322 0.4065052 0.325795 -0.117203735 0.078906976 -0.51148206
w 0.26465884 0.2483104 0.53387874 -0.0958238 -0.5355282 -0.20542932 0.19635142 0.22527774 -0.11710472 0.012376465 0.7060135 -0.04107614 0.05898765 -0.345696 -0.021569725 -0.21709317 -0.20925035 0.36760032 -0.6666263 -0.30264366 -0.034614027 -0.53793144 0.48618025 0.14783095 -0.32340124 0.025031585 0.2167207 0.49664494 -0.096034765 -0.40386224 -0.112282164 -0.4454498 0.62496626 -0.27851504 0.11839481 0.24705939 0.34079754 -0.817175 -0.32341054 -0.074722104 -0.17143992 0.050163276 -0.57369334 -0.24668832 0.4956634 0.12665574 0.09529301 0.21926872 0.058159374 0.33094501 -0.26328126 0.3849492 -0.031514853 0.3486099 -0.03216988 0.62797356 0.27326596 0.5748926 0.5594015 -0.59525615 0.23877423 -0.083419375 -0.15695839 0.6861675 0.18174796 -0.2129636 -0.29233405 0.5154552 -0.065190375 0.10260028 0.08359882 0.36267245 0.16112001 -0.0453824 0.08390747 -0.03854665 0.6590603 -0.21370746 -0.5206014 -0.053612605 -0.08815027 -0.065557405 -0.49384412 0.9718501 0.4648986 0.15936393 -0.33898652 -0.1529731 -0.34042612 0.11590638 0.490081 -0.28364643 -0.045432873 -0.43491602 0.4422893 0.2270019 -0.032380074 -0.16602474 -0.64903367 0.28573287 0.17981747 -0.15553945 0.16893665 -0.069414966 -0.26785856 -0.12432552 -0.3431181 0.7066883 -0.2617577 0.19034104 0.46745658 -0.07561863 -0.38948286 0.19147144 -0.31599 0.9252451 0.32843536 0.104857266 0.5090397 -0.59283906
f 0.07688186 0.2667577 0.741665 0.52650046 -0.91126025 0.23257655 0.53080237 0.28551105 -0.3394696 -0.27266282 0.6823334 0.027298434 0.04332959 -0.684272 -0.22253726 -0.5583769 -0.34496242 0.20031722 -0.35477847 -0.020097958 0.39614946 -0.19355297 0.29226846 0.20648853 -0.077269785 0.06457423 -0.026255012 0.13320681 -0.22330259 -0.24175441 -0.14051487 0.016965259 0.65019447 -0.23227885 -0.17081223 0.09350707 0.2713788 -0.84424996 -0.4372788 0.08800452 -0.14956176 0.07992042 -0.18442337 0.07257052 0.084855065 -0.3853971 0.052479018 0.407993 -0.09872352 0.22085904 0.10683201 0.089317806 0.0021319261 -0.025756828 0.28407195 0.39644185 0.20146476 0.09697066 0.5260666 -0.57849276 -0.46974394 -0.32940418 -0.39028534 0.7690099 0.22097044 -0.07349422 -0.0030318869 0.5547693 0.3222878 0.030541677 0.5585517 0.40714866 0.6702549 0.13711026 0.20583516 -0.018384695 1.4272062 -0.6047473 -0.9561609 -0.047901265 -0.011258404 0.11136119 0.2142744 1.0072744 -0.062265914 0.20649862 -0.3115535 0.050931297 -0.7458321 0.005334248 0.64738315 -0.59306395 0.13183874 -0.076709256 0.6386416 0.7037838 0.048111584 -0.19033378 -0.7093909 0.54011726 -0.2091442 0.42590472 0.43516594 -0.2460586 -0.42728657 -0.5421723 -0.6549044 -0.18947184 -0.23314138 0.12309476 0.79326874 -0.101218864 -0.25734237 0.07705717 0.10899942 0.6893894 0.86500704 0.0034351866 -0.012145328 -0.5812972
j -0.01001406 0.22621068 0.89904267 0.7067725 -1.021743 0.31827882 0.48262933 0.3433712 -0.3814164 -0.2672976 0.677971 0.12524994 -0.08080939 -0.7806679 -0.28045443 -0.6987479 -0.4427488 0.26192692 -0.305814 -0.06480471 0.5006182 -0.11943675 0.3977259 0.35586533 -0.018439721 0.15647799 -0.0885114 0.12714821 -0.22296168 -0.2129153 -0.056912683 0.06173818 0.70380116 -0.1883311 -0.22517033 0.12639591 0.2338413 -1.0362 -0.5058188 0.08473962 -0.08361869 0.057194363 -0.1314005 0.09979118 0.013213879 -0.4261131 0.08323244 0.39624435 -0.27308494 0.22989842 0.13990676 0.14566334 -0.04956766 -0.08143421 0.22121708 0.35311538 0.23540089 0.054321036 0.55454576 -0.64093786 -0.620642 -0.45813197 -0.42404228 0.90609884 0.1822116 -0.03009657 0.004280917 0.5452271 0.3668957 0.055272445 0.6879352 0.53931504 0.8264977 0.13060619 0.26335037 -0.051630188 1.7199326 -0.633632 -1.0987208 -0.067504995 0.037816763 0.09849217 0.26993942 1.216137 -0.14826599 0.2717544 -0.35949335 0.038271878 -0.9025069 0.0013360006 0.80150634 -0.7858854 0.08317067 -0.0753789 0.68637174 0.716816 0.10387496 -0.18662152 -0.81394213 0.6363075 -0.26001424 0.59214795 0.55172735 -0.24163847 -0.5508524 -0.60044354 -0.749031 -0.35262805 -0.29179505 0.13253696 0.8524733 -0.07229654 -0.21015131 -0.006270648 0.23609686 0.7015799 1.071606 0.018745987 -0.17727649 -0.68526244
ḥr 0.15638731 0.26953456 0.6279896 0.3906341 -0.80068314 0.14814994 0.48529875 0.26907554 -0.32592663 -0.18546167 0.6443158 -0.015831407 0.028638626 -0.6029787 -0.18584718 -0.4646223 -0.23917596 0.09602192 -0.44359472 -0.062052336 0.32567218 -0.2934093 0.34325126 0.19248685 -0.026789194 -0.04573602 0.07602489 0.15020224 -0.1465794 -0.18974867 -0.15651684 -0.07836608 0.68168026 -0.25301027 -0.10795111 0.077787444 0.26677412 -0.7155881 -0.3784312 0.048822332 -0.11213724 0.06552787 -0.23602954 0.047821857 0.18543668 -0.31579152 -0.07651134 0.5245271 -0.035900675 0.20114566 0.065016285 0.12328063 0.082842164 0.05537307 0.27341 0.42841497 0.2487437 0.11016098 0.49398023 -0.5575774 -0.38893902 -0.21952201 -0.3317038 0.6322792 0.23894578 -0.10524561 -0.047450878 0.5733567 0.25274968 0.052775048 0.3979585 0.32958066 0.54449487 0.17827322 0.1613815 0.009845547 1.19145 -0.6072672 -0.79116493 -0.073660485 -0.075354345 0.137381 0.09453704 0.970575 -0.053897597 0.23406774 -0.18058535 -0.07452799 -0.70066136 0.061127268 0.60076284 -0.5264644 0.07473228 -0.09467727 0.6465427 0.6346202 0.03012496 -0.18911824 -0.6596417 0.42384177 -0.2155057 0.29982007 0.3424773 -0.18908788 -0.27272752 -0.41119355 -0.59813446 -0.06260453 -0.20653436 0.07526402 0.7576767 -0.14243671 -0.2596038 0.15051259 0.021091951 0.7248679 0.62226844 0.06353968 0.09954023 -0.59581137
pꜣ 0.23049164 0.2967379 0.25729033 -0.1818056 -0.35252145 -0.23459794 0.1906584 0.07195571 -0.05923382 -0.1234459 0.44978726 -0.07665703 0.18151745 -0.12280405 0.057566453 0.11386541 -0.09960327 0.25281146 -0.5292002 -0.32913315 -0.06430079 -0.45395908 0.21539924 -0.07246234 -0.39262834 0.03568787 0.035042103 0.33860245 -0.27114797 -0.25605205 -0.05912541 -0.35860214 0.51582366 -0.15357612 0.0169119 0.25489208 0.42316845 -0.46337685 -0.3030784 0.076594755 -0.115566984 -0.031931013 -0.42684436 -0.16938469 0.5135654 0.15120126 0.10548859 0.054131526 0.14461718 0.35781312 -0.3870077 0.14097035 -0.06431291 0.29430214 0.20208797 0.6006928 -0.06073952 0.35375544 0.46171513 -0.5643637 0.0845278 -0.0035735685 -0.23696314 0.52565867 0.17173903 -0.22867408 -0.1538527 0.38294035 0.041771278 0.10908995 0.16497956 0.30206293 0.03725223 -0.21614471 -0.056012362 0.04977134 0.48109552 -0.39051396 -0.494364 -0.106327996 -0.023461713 -0.047517035 -0.3842465 0.70443803 0.5260716 0.17086613 -0.3762697 0.082657136 -0.2229696 0.12533924 0.534181 -0.06894538 0.009413329 -0.21689612 0.5793688 0.50101644 -0.15092586 -0.13079154 -0.46134582 0.32683212 0.018225614 -0.07808528 -0.0017082293 -0.23969607 -0.228577 -0.20441425 -0.13041605 0.7103226 -0.26311165 0.20717992 0.47947693 -0.022589728 -0.32897884 0.18343334 -0.14865234 0.6084185 0.19914885 -0.1362919 0.41362706 -0.52090585
jw 0.16073269 0.2324162 0.6779898 0.6198055 -0.84265316 0.36323696 0.56281084 0.28245786 -0.2827469 -0.2546406 0.6645131 0.1018949 0.067376524 -0.7404245 -0.24714458 -0.4792634 -0.28609547 0.030876556 -0.3316455 -0.048518606 0.43349072 -0.18597743 0.24994439 0.16368414 0.08112305 0.10351558 -0.038277842 0.15983437 -0.113353394 -0.19075935 -0.073604025 0.00996093 0.5726274 -0.19797005 -0.29444653 0.09291029 0.23453987 -0.6265518 -0.40816334 0.12307311 -0.20182465 0.001137165 -0.1485834 0.03204526 -0.011419746 -0.43771482 -0.07117541 0.48077708 -0.1771225 0.14191917 0.0983576 0.16719754 -0.065537035 -0.11368882 0.3785601 0.27762252 0.13532701 -0.04575539 0.42433435 -0.32145616 -0.64163774 -0.24161907 -0.378617 0.51190597 0.09087012 -0.05016823 0.048786964 0.47558367 0.3850661 0.15529932 0.58283204 0.31574708 0.61100656 0.09874694 0.1653698 -0.058267962 1.3170258 -0.53316444 -0.85680157 -0.13634425 0.033356644 0.11961365 0.3246833 0.86243135 -0.28781798 0.19020903 -0.31325868 0.033041436 -0.6325064 -0.15453811 0.60536474 -0.6158724 0.0206045 0.050462205 0.6640258 0.60761744 0.01516078 -0.15811704 -0.6189809 0.38254 -0.35162356 0.46533602 0.44458258 -0.2233653 -0.4254246 -0.45184362 -0.57877964 -0.35248548 -0.20934525 0.111804165 0.669686 -0.048270665 -0.075003676 0.068371385 0.26182038 0.48691076 0.74771225 -0.020945892 -0.1954723 -0.4534453
r 0.07198479 0.23911466 0.7446255 0.4359906 -0.86386096 0.120989345 0.4101916 0.30280602 -0.30167854 -0.23413596 0.6738166 -0.019694034 -0.049016085 -0.58001626 -0.2294355 -0.52078855 -0.28689954 0.18154718 -0.3890211 -0.11918834 0.35775852 -0.23910494 0.4068392 0.23823543 -0.10697775 -0.0019891018 0.027598597 0.16618997 -0.21956538 -0.22549297 -0.09243046 -0.08510219 0.70343584 -0.25149047 -0.024641903 0.037715234 0.28469965 -0.89657843 -0.39480254 -0.0077560977 -0.09024198 0.07833843 -0.23432733 -0.00056660315 0.1902517 -0.32226104 0.065449834 0.41191402 -0.05460578 0.24262919 0.05977085 0.099903226 0.0934337 0.10450681 0.17849323 0.4532719 0.2892507 0.18886721 0.50342226 -0.66144335 -0.31134227 -0.27898875 -0.3115997 0.7389235 0.22695719 -0.11565265 -0.041402865 0.48290405 0.17274706 0.035850357 0.40688118 0.41519374 0.6046717 0.1476796 0.18897034 -0.012268664 1.2625383 -0.58185476 -0.8571958 -0.06412938 -0.058551747 0.10243061 0.02231603 1.0886862 -0.016593242 0.26353693 -0.22156279 -0.083470784 -0.74229425 0.16768135 0.66370624 -0.54407215 0.097751625 -0.13130417 0.6585614 0.63894194 0.045209933 -0.15953399 -0.7081911 0.5498358 -0.15132402 0.31283265 0.29619795 -0.18809545 -0.31346825 -0.430268 -0.6676257 -0.0117733115 -0.23173791 0.14100587 0.80219907 -0.13800585 -0.3029295 0.09591068 0.025344415 0.7704093 0.684332 0.0014934614 0.06787148 -0.644682
k -0.0647254 0.26473692 1.1029599 0.58124626 -1.1897585 0.12373971 0.4278838 0.44394925 -0.311275 -0.2514374 0.81133705 0.061560895 -0.19656369 -0.7969343 -0.28206757 -0.8200548 -0.5209577 0.41267353 -0.41675228 -0.17413162 0.46232355 -0.21809408 0.62152755 0.45933133 -0.17901473 0.11156801 -0.041775245 0.21362363 -0.23724271 -0.31334573 -0.15086178 -0.07568784 0.92573386 -0.24598429 0.038915515 0.0859864 0.29231563 -1.4371722 -0.45819753 -0.016166056 -0.032308828 0.2063772 -0.28144175 -0.0122902645 0.19245528 -0.39568147 0.2909362 0.42587048 -0.22442451 0.3002781 0.19448075 0.15534137 0.11100433 0.06498574 0.035787392 0.52664626 0.45105106 0.37698212 0.6905462 -0.99473125 -0.2766207 -0.5665487 -0.30787444 1.1562059 0.30966154 -0.15036502 -0.11788117 0.55648977 0.21048114 0.015953306 0.5169619 0.6537852 0.9397342 0.23979947 0.3252528 0.050781555 1.7130884 -0.68525434 -1.1716698 -0.0034161413 -0.040459577 0.09527534 0.009270415 1.4723659 0.0477586 0.31488502 -0.34030733 -0.1414641 -1.0546412 0.2887972 0.900855 -0.7977105 0.0982566 -0.30513492 0.6684722 0.6563555 0.18451469 -0.17611194 -0.92280513 0.77228576 -0.14099012 0.45301116 0.44203126 -0.21440217 -0.5697982 -0.6119516 -0.93750507 -0.04011368 -0.3380822 0.1388818 0.9654881 -0.1169534 -0.4762282 -0.017404156 -0.056922726 1.0514213 1.1246405 0.111150295 0.07307471 -0.76852584
ḏd 0.051666748 0.36837903 0.86228853 0.3043592 -0.932855 -0.104187645 0.31800127 0.22256948 -0.26828495 -0.09921266 0.7431283 0.035984848 -0.057718106 -0.5778395 -0.06820599 -0.61069554 -0.4498684 0.5588689 -0.5328095 -0.14473948 0.21333371 -0.34260038 0.5436883 0.3839132 -0.36032084 0.00606876 0.08305459 0.21302918 -0.22941728 -0.32341498 -0.23525807 -0.18036078 0.8340063 -0.20116471 0.21642138 0.21735305 0.3611414 -1.1898866 -0.3417551 0.005269788 0.030779518 0.2558733 -0.32564697 0.013018048 0.4136638 -0.09850287 0.24855915 0.3988853 -0.025474796 0.31092066 0.081860386 0.10432017 0.1538051 0.17636438 0.019591607 0.65394694 0.4089926 0.5489028 0.74134517 -1.059836 0.037071977 -0.4451073 -0.20660211 1.1293281 0.40972394 -0.17165759 -0.18334384 0.5981223 0.110134125 -0.04460489 0.25566304 0.6133121 0.71084946 0.20320667 0.26691478 0.14450993 1.3605886 -0.5971126 -0.9712941 0.16642931 -0.08166763 0.10223454 -0.21600676 1.2191445 0.4072339 0.20682733 -0.29437953 -0.0799892 -0.8458608 0.36527288 0.73882145 -0.5951948 0.06387901 -0.4442713 0.5130139 0.5624186 0.15751047 -0.22027847 -0.7947477 0.6205357 0.048393603 0.24405704 0.27668303 -0.12672345 -0.47105458 -0.45979393 -0.73066795 0.34723467 -0.283037 0.09021153 0.8103028 -0.17999017 -0.57204527 0.09101882 -0.3867838 1.0805136 0.953003 0.14971335 0.35188794 -0.6592611
s 0.29167563 0.3036787 0.58232844 -0.05689551 -0.62286925 -0.19472842 0.27339524 0.1997726 -0.120507866 -0.011371466 0.75249684 -0.11946827 0.048167594 -0.35192695 -0.06682842 -0.30545473 -0.13836955 0.40035987 -0.65016717 -0.25702778 -0.02854967 -0.5645557 0.5276631 0.160359 -0.3590843 -0.062042043 0.21848017 0.3434827 -0.1124732 -0.37746233 -0.24634586 -0.39996126 0.68033403 -0.30322677 0.24011281 0.16596702 0.4133087 -0.89941263 -0.27951193 -0.14067765 -0.15136123 0.1702447 -0.49297175 -0.20978309 0.5821547 0.11272648 0.13872086 0.31129083 0.16233271 0.26222527 -0.087988496 0.18196313 0.13572903 0.39082235 -0.028648654 0.63546556 0.36871013 0.6231982 0.5724447 -0.7436259 0.31173378 -0.081988946 -0.056130603 0.7629922 0.28633946 -0.26142332 -0.2824047 0.47897568 -0.13858244 0.0448546 -0.009007817 0.3428008 0.2501835 0.12566034 0.10039007 -0.013845112 0.66058993 -0.30488616 -0.57463086 0.06413342 -0.13519391 0.028857738 -0.5139996 0.9936989 0.45918822 0.16379964 -0.20603165 -0.19494434 -0.4663468 0.29168022 0.46474615 -0.27865073 0.01883206 -0.43755785 0.4637655 0.3281656 0.06606679 -0.20684615 -0.6728281 0.4013085 0.20672897 -0.18306006 0.08058664 -0.022545353 -0.22215842 -0.14103828 -0.48643547 0.68546087 -0.2727523 0.09691775 0.58730334 -0.18203263 -0.4834646 0.23523805 -0.5053302 1.0469601 0.42257532 0.11882978 0.59691244 -0.5766983
jmn 0.6712595 0.32764107 -0.13789372 -0.69006795 0.08713252 -0.43222976 0.24121922 0.058530174 0.13791358 -0.084896736 0.5117345 -0.18909328 0.4456123 0.17733613 0.277632 0.46156588 0.24872991 0.37982586 -0.9299111 -0.5749726 -0.33284473 -0.952042 0.15086527 -0.46941048 -0.61563534 -0.046164263 0.11394943 0.62046736 -0.18525873 -0.37765062 0.0057019154 -0.774646 0.38895506 -0.33687112 0.14961104 0.4096361 0.6757902 -0.19038047 -0.28678828 -0.021804834 -0.3480357 -0.13917145 -0.7869105 -0.338837 0.9677794 0.51701456 -0.03880872 0.01706472 0.61166817 0.520329 -0.86939675 0.18105619 -0.11308008 0.7861997 0.16390906 0.93350023 -0.16684084 0.4759007 0.5317572 -0.42691937 0.66301507 0.5678346 -0.09544617 0.1329157 0.022452421 -0.24497816 -0.22765654 0.40960377 -0.24731815 0.11633027 -0.15799728 0.13118131 -0.69272393 -0.58046645 -0.19526498 -0.14095004 -0.22575484 -0.3117105 -0.21894142 -0.17635466 -0.022542756 -0.18363437 -0.82718426 0.61006314 0.96233356 0.068197705 -0.34346738 0.11039426 0.28330392 0.10148794 0.48036543 0.2121412 -0.034749247 -0.38237146 0.83111656 0.45136178 -0.42008328 -0.18579888 -0.35007027 0.07774016 0.27318388 -0.5442203 -0.29117984 -0.1568593 0.0013224629 0.19604696 0.16186541 1.5410082 -0.31189522 0.18066663 0.34910288 0.014871172 -0.29448113 0.3680741 -0.3749725 0.6448604 -0.27111647 -0.39191794 0.9016822 -0.7102612
tꜣ 0.32015318 0.19912553 0.18189566 -0.13789009 -0.3579341 -0.092296846 0.3556483 0.13945238 -0.08907557 -0.20776175 0.5456348 -0.10105137 0.26311508 -0.2124181 -0.049313966 0.07355036 -0.08782612 0.06127249 -0.60197425 -0.2967637 0.06932327 -0.4564314 0.21713185 -0.1891997 -0.17576438 -0.025311457 0.118883826 0.32969788 -0.27924588 -0.25688806 -0.037417103 -0.37914008 0.5570057 -0.21873699 -0.03721718 0.12030732 0.40248898 -0.43392298 -0.2691673 -0.02037214 -0.16427195 -0.026702994 -0.4606828 -0.12089571 0.50983256 -0.024098422 0.014718899 0.16976239 0.22131334 0.33117813 -0.33565888 0.14104982 -0.051429767 0.27550513 0.31066993 0.6064401 -0.064849965 0.25566626 0.43649796 -0.43185923 0.04400134 0.04133966 -0.26888418 0.34875616 0.14541592 -0.21607988 -0.14760017 0.36971152 0.0029853242 0.12091224 0.19597898 0.28869665 0.02748263 -0.20531616 0.019911723 -0.058237832 0.5174285 -0.42856723 -0.49183536 -0.13828444 -0.04959589 -0.022627262 -0.27171558 0.6806316 0.35632968 0.1968956 -0.32034823 0.04687646 -0.19790894 0.031609084 0.5490768 -0.118076496 0.028612407 -0.15220012 0.7241229 0.596241 -0.1497827 -0.1010766 -0.39485285 0.3364765 -0.10512376 -0.070401475 -0.0023554112 -0.24297154 -0.101944834 -0.17740567 -0.14273037 0.6114707 -0.22417368 0.13284528 0.532864 -0.06686913 -0.20093696 0.19220993 -0.040764406 0.5772859 0.111845694 -0.17932197 0.37229067 -0.56490815
sw 0.7907481 0.09946877 -0.31293306 0.04941309 0.20500205 0.38379413 0.614337 0.21133842 -0.07020695 -0.4454446 0.49640572 -0.05672386 0.6456599 -0.13214129 0.014769446 0.2781339 0.26808903 0.05339987 -0.69202924 -0.3299033 0.16387261 -0.82043844 -0.08913712 -0.63383377 -0.031193031 0.10701884 -0.030119078 0.6603534 -0.1678781 -0.37733158 0.3057641 -0.6275001 -0.1282331 -0.39900786 -0.62117326 0.22328916 0.4837467 0.32553497 -0.6113884 0.23162483 -0.82555777 -0.42506695 -0.4444211 -0.105959654 0.42069802 -0.035969626 -0.30021903 0.13746683 0.43739522 0.31089917 -0.89111644 0.30779058 -0.6013334 0.48648852 0.7893911 0.55345786 -0.36714888 -0.21735339 0.2914214 0.64741796 -0.35468802 0.8489061 -0.47861248 -0.5062318 -0.38757262 0.16568723 0.10932306 0.4783382 -0.07546096 0.18434805 0.6147575 -0.1317816 -0.81262076 -0.71095383 -0.21346848 -0.7243195 0.22983228 -0.3139622 -0.3689636 -0.46768713 0.15105893 -0.19174717 -0.03874549 0.552264 0.02380278 0.046332918 -0.3686013 0.35272363 0.4804014 -0.6978609 0.7035886 -0.13814615 0.07520376 0.16410442 1.1675812 0.7660256 -0.5052106 -0.19184849 -0.25004286 -0.11998511 -0.058884643 0.03843446 0.08979663 -0.22629224 -0.09901501 0.2682195 0.20854364 0.51324105 -0.24339212 0.18944222 0.11745021 0.12153847 0.54619515 0.33040714 0.6323464 -0.020438867 -0.2053659 -0.7542552 -0.007663049 -0.7728409
pr 0.5508481 0.35197812 -0.043564644 -0.56263274 -0.0459013 -0.28352174 0.22264935 -0.0094784945 0.15102966 -0.042971123 0.51399803 -0.12115938 0.43543154 0.08037402 0.15545191 0.54129475 0.09806194 0.28814828 -0.7819041 -0.52680093 -0.25789857 -0.75212663 0.1382617 -0.38596213 -0.57519406 0.03763702 0.08250127 0.58446425 -0.20130982 -0.4096109 -0.030803852 -0.73334825 0.32648015 -0.30958247 0.0029370952 0.46850237 0.59704775 -0.16132356 -0.28133485 0.08284079 -0.3184316 -0.17313883 -0.7059402 -0.3925375 0.76467067 0.471047 0.036169045 -0.094388254 0.3912254 0.3972837 -0.7754263 0.24929892 -0.24156404 0.54848635 0.24188064 0.72594905 -0.19216365 0.46924004 0.40760994 -0.30705485 0.3957723 0.41274098 -0.161795 0.20540868 0.01618495 -0.30099759 -0.16643997 0.3347419 -0.1546586 0.15659633 0.041602954 0.1630944 -0.5584671 -0.45046932 -0.24716368 -0.20863062 -0.12329734 -0.20267257 -0.30373928 -0.15591505 0.0010451727 -0.1676252 -0.6551986 0.5647278 0.7693607 0.09665811 -0.4361646 0.13184132 0.32483897 0.04286129 0.44019866 0.20714664 -0.034135733 -0.34914896 0.74099106 0.38050607 -0.41801885 -0.15465213 -0.37461707 0.07552467 0.19994654 -0.41635337 -0.16268167 -0.2010497 -0.102943264 0.08764071 0.16266835 1.2419862 -0.33831292 0.24164334 0.2730621 -0.029102577 -0.22634527 0.33441392 -0.22882774 0.5464971 -0.18362956 -0.27572715 0.67124736 -0.51921993
pꜣy 0.061792877 0.26258835 0.7668121 0.39608553 -0.8903211 0.06575659 0.35941625 0.2585679 -0.25494832 -0.13977587 0.673954 0.054653693 -0.034778677 -0.6183459 -0.17430013 -0.4843719 -0.3701979 0.29148844 -0.46477968 -0.14273721 0.27998674 -0.24296063 0.4069583 0.27725375 -0.20304897 0.11957159 0.0052186297 0.20616691 -0.18169956 -0.26661104 -0.0991964 -0.09768422 0.71224463 -0.20515901 -0.02885726 0.20370291 0.3036504 -0.9272674 -0.39756668 0.048930615 -0.05198075 0.10242923 -0.2659071 -0.040456086 0.17446972 -0.1804989 0.12093382 0.35706952 -0.15193284 0.27273238 -0.0043974547 0.20826834 0.038118467 0.05317544 0.14982228 0.4407992 0.2474262 0.28510454 0.5150367 -0.7269713 -0.27485472 -0.34079492 -0.2937374 0.90228057 0.2313925 -0.13834947 -0.12543245 0.51664716 0.28129718 0.07910229 0.42316797 0.49649203 0.66332185 0.12248228 0.18012726 0.060852647 1.2859955 -0.51642674 -0.90275097 -0.015829502 -0.055258945 0.05300934 -0.013728888 1.0723791 0.1094379 0.27075437 -0.35908508 -0.04144257 -0.7043283 0.16028717 0.65459335 -0.57853734 0.041937236 -0.24875559 0.53571934 0.5193999 0.06283155 -0.18685652 -0.74055755 0.52613676 -0.14832366 0.31426004 0.35679138 -0.20933598 -0.44086403 -0.4956693 -0.6195434 0.03882773 -0.27946535 0.14043379 0.7453437 -0.07117083 -0.3831578 0.048059314 -0.0770919 0.7690761 0.80767006 0.10986193 0.075039335 -0.56011444
jr 0.10385069 0.15131532 0.40819237 0.384377 -0.5009772 0.24169767 0.33720785 0.20446827 -0.20428632 -0.1108393 0.42216197 0.12514606 0.052558478 -0.489537 -0.10313733 -0.24387935 -0.22746234 0.16313463 -0.29418752 -0.08427504 0.23970403 -0.19803628 0.20586595 0.111775376 -0.059514593 0.21412453 -0.006061517 0.223396 -0.15873508 -0.17014432 0.08719128 -0.13138758 0.33371547 -0.17015107 -0.31617165 0.18901978 0.17203997 -0.43497664 -0.37457746 0.15710187 -0.18500346 -0.052865572 -0.1611453 0.016560154 0.04670113 -0.19871387 0.018861001 0.20629624 -0.16390036 0.15072978 -0.14175959 0.2345284 -0.20011668 -0.008756921 0.2822932 0.25721002 -0.042354986 0.045472603 0.33700085 -0.16217345 -0.44293728 -0.11077068 -0.3725848 0.42501622 0.04234744 -0.0028808452 -0.007457196 0.36749297 0.26841646 0.124972045 0.4659549 0.2799774 0.28123453 -0.105308495 0.06268804 -0.09387784 0.9801542 -0.32603547 -0.63495797 -0.119329676 0.078124076 -0.015605292 0.1255749 0.6736301 -0.07894203 0.16952147 -0.3282884 0.11072574 -0.35733998 -0.18212116 0.56137085 -0.474893 -0.015650224 -0.008422377 0.48719418 0.47058964 -0.009368223 -0.12136864 -0.46709442 0.22909717 -0.19648272 0.35183555 0.35016125 -0.20993005 -0.30365458 -0.27950528 -0.3090207 -0.12618788 -0.2199812 0.16593188 0.38365546 0.006586324 -0.025628712 -0.012158806 0.2333058 0.32731038 0.50223523 -0.065661855 -0.13450718 -0.38823617
ꜥ 0.39337716 0.35056677 0.4551476 -0.41557577 -0.46137354 -0.43227082 0.2227848 0.16350971 0.05306799 0.04758177 0.7535352 -0.15104066 0.108687915 -0.14783072 0.08209745 -0.091615 -0.08119096 0.52353346 -0.8481983 -0.4057301 -0.18423374 -0.7899614 0.5613666 -0.025360705 -0.5824371 -0.10798938 0.24089095 0.5458836 -0.14479168 -0.4864572 -0.24146533 -0.6755382 0.7114858 -0.35027695 0.4492573 0.2919378 0.5436044 -0.9045616 -0.19931269 -0.18938999 -0.12658891 0.16569263 -0.73367906 -0.3711956 0.8291222 0.36749163 0.18047848 0.2201245 0.37913635 0.39499205 -0.32499504 0.19915141 0.104466334 0.5911287 -0.10670431 0.8214963 0.37805712 0.79867375 0.6006969 -0.8079059 0.7381877 0.09438703 0.054805763 0.6338671 0.29526174 -0.35507715 -0.38153332 0.44052526 -0.3196733 0.026259195 -0.20576088 0.36941177 -0.039324734 -0.018410534 0.0306848 0.008784617 0.30007583 -0.25265998 -0.43547815 0.051803917 -0.15759122 -0.05566245 -0.7932367 0.98022413 0.78504175 0.13975438 -0.21197845 -0.2520552 -0.22437994 0.46239775 0.46931314 -0.08935785 -0.033969387 -0.652397 0.5458998 0.22202116 -0.04625246 -0.1656195 -0.59307754 0.33826616 0.31976095 -0.45222652 -0.10254691 0.0037755235 -0.11353605 -0.013190428 -0.33909175 1.2745833 -0.34018826 0.13827889 0.5264999 -0.20812243 -0.6051788 0.26686957 -0.7127631 1.1253511 0.19951956 0.03474494 0.8629302 -0.597165
nb 0.2476652 0.2485624 0.5667812 -0.07726472 -0.5897685 -0.33051255 0.26790667 0.24036129 -0.18499067 -0.09519172 0.7105435 -0.11989359 0.0044512837 -0.3156868 -0.0037357383 -0.37471107 -0.17581636 0.44816586 -0.738848 -0.30555397 -0.015579069 -0.58009934 0.54762733 0.16277304 -0.35249582 -0.10176781 0.26774076 0.3921663 -0.17892823 -0.37248605 -0.13767408 -0.41493884 0.7456064 -0.23816876 0.29502428 0.16591552 0.3625303 -0.96414953 -0.29156685 -0.12774399 -0.10189979 0.19345924 -0.49072325 -0.15791239 0.6187411 0.046859328 0.14268814 0.3327071 0.20029804 0.38215536 -0.12893473 0.23244224 0.19742717 0.4246663 -0.035451725 0.76738584 0.42601687 0.6385536 0.68833834 -0.85195756 0.39739442 -0.11680925 -0.12547529 0.7383242 0.3110146 -0.18718347 -0.34768483 0.5239982 -0.15205576 -0.0015814806 -0.015319557 0.4514753 0.26892743 0.066262566 0.14762306 0.08300344 0.74743026 -0.4112926 -0.5984571 0.074514866 -0.10723169 0.02616201 -0.5586123 1.0565637 0.5185797 0.20182323 -0.23246099 -0.20388566 -0.52779037 0.3640365 0.5804858 -0.33537892 0.008934579 -0.5049061 0.52615714 0.3973988 0.07191826 -0.18848878 -0.6173064 0.40286624 0.20143451 -0.14652154 0.026747592 -0.04961134 -0.20022482 -0.14468329 -0.4781611 0.7928338 -0.25718462 0.0984011 0.6302999 -0.1140784 -0.49629897 0.18836258 -0.49191418 1.0753114 0.39595202 0.093853526 0.6062254 -0.75770104
ꜥꜣ 0.2577407 0.30094227 0.3280243 -0.31301042 -0.4055515 -0.27565986 0.1556833 0.08972439 -0.015135555 -0.025531147 0.6101656 -0.11352204 0.14318977 -0.17036256 0.007691878 0.15902857 -0.10866584 0.28976142 -0.62760353 -0.39808357 -0.10615922 -0.5837993 0.34269986 -0.049307395 -0.48020238 0.015573238 0.10735051 0.3707073 -0.21353069 -0.35239777 -0.1027687 -0.49703988 0.5414682 -0.25592294 0.11059907 0.27307442 0.45709082 -0.5981992 -0.27255043 0.0014686786 -0.0984334 -0.011325444 -0.52585804 -0.2980735 0.6197077 0.24949986 0.18955791 0.026549075 0.15394928 0.28767413 -0.40050697 0.19884604 -0.055973217 0.39007732 0.090737246 0.60553277 0.016574482 0.5487118 0.41542232 -0.5683401 0.30172855 0.036667094 -0.13209586 0.59096587 0.19874527 -0.29977438 -0.21301083 0.3431503 -0.08139327 0.120343894 0.03594148 0.2657835 0.013701455 -0.14044428 -0.047217146 -0.03006916 0.2965179 -0.21741061 -0.44218287 -0.049551282 -0.105171576 -0.09281598 -0.5627359 0.7984339 0.5891377 0.19613625 -0.32119012 -0.07356779 -0.18663338 0.27618235 0.41004795 -0.008195692 0.015250706 -0.36030364 0.47143966 0.30092806 -0.09513232 -0.15663399 -0.5228815 0.3074381 0.15856512 -0.26211908 0.0044534774 -0.18796729 -0.20665982 -0.12951346 -0.18547738 0.8549357 -0.28328568 0.26058486 0.44359702 -0.088279575 -0.40470362 0.23289484 -0.32666147 0.7946665 0.1236918 -0.030259332 0.51918507 -0.46778452
jn 0.14330502 0.32716957 0.6211162 0.22174913 -0.7663714 -0.058436558 0.37904695 0.1549435 -0.15448304 -0.17125499 0.6442677 -0.013600709 0.03449967 -0.41885772 -0.12656526 -0.3116007 -0.30989012 0.26783437 -0.46623185 -0.17743383 0.21360628 -0.30770478 0.31214306 0.14244151 -0.31403223 0.00047550665 0.035132233 0.19029579 -0.23531108 -0.243244 -0.18496503 -0.17726032 0.65811616 -0.21717052 0.08220432 0.13331157 0.42627102 -0.81303394 -0.3127335 0.047176883 -0.058967188 0.13766783 -0.35232213 -0.043925725 0.33239865 -0.10340593 0.14450559 0.31786498 0.025388375 0.23623477 -0.029673403 0.06394008 0.06901659 0.16559453 0.115509495 0.48833504 0.18161815 0.31995803 0.507694 -0.7335666 -0.09069006 -0.23132446 -0.24157332 0.8073547 0.30794105 -0.17840879 -0.0591663 0.43766066 0.19802226 0.021151228 0.2681589 0.38219452 0.43868208 0.10450475 0.12672988 0.024436656 1.0259892 -0.49795452 -0.7489877 0.052264575 -0.079634786 0.07854827 -0.10763308 0.9683124 0.26958355 0.1591372 -0.33653638 -0.01701713 -0.57403725 0.24972029 0.57590824 -0.39406043 0.037983947 -0.2908235 0.5269088 0.51185435 0.002726264 -0.14002188 -0.6385181 0.51930904 -0.07498937 0.15836407 0.20896696 -0.20265912 -0.35687846 -0.37357804 -0.5442603 0.27258667 -0.26301926 0.1487518 0.6725062 -0.18797682 -0.3881371 0.12716831 -0.19937931 0.80710673 0.6935587 0.0044097323 0.2192063 -0.4811904
nꜣ 0.07338925 0.1979068 0.68921626 0.24005459 -0.78429544 0.016093953 0.2183918 0.23830159 -0.2318557 -0.048536036 0.68469125 0.085357755 0.009748135 -0.58553016 -0.15881789 -0.37689877 -0.41217986 0.27630293 -0.48246294 -0.20086795 0.19663595 -0.31846768 0.42136014 0.26249763 -0.17907791 0.100802355 0.07917336 0.30418068 -0.12865932 -0.29333806 -0.05043563 -0.22887893 0.6612651 -0.23024993 -0.056252476 0.25568825 0.30693737 -0.8511554 -0.39109707 0.012968628 -0.016067795 0.0059728725 -0.38800105 -0.1164556 0.20134553 -0.07823276 0.10445271 0.20942919 -0.13928902 0.2679442 -0.12693755 0.3516359 -0.0318884 0.13611202 0.06015349 0.49691838 0.23314004 0.36407337 0.51180786 -0.6074835 -0.12036381 -0.26553956 -0.29512733 0.8071278 0.17130281 -0.14570217 -0.15974891 0.4913917 0.20031482 0.117536984 0.35691884 0.44322687 0.4864211 -0.0072618644 0.15429144 -0.0035155632 1.0747907 -0.3059943 -0.7399901 -0.0864801 -0.06683661 0.003335348 -0.13976716 1.0370879 0.21828935 0.24793147 -0.42143005 -0.07285312 -0.53564066 0.104830086 0.5214328 -0.49089646 -0.017207079 -0.3020761 0.48991647 0.3509495 0.016400399 -0.14385182 -0.74239 0.452659 -0.011727093 0.17265058 0.34544072 -0.15906113 -0.4259913 -0.3454679 -0.50652975 0.21050712 -0.24458888 0.25935903 0.6096068 -0.087421924 -0.29965025 0.10862786 -0.050268028 0.76534414 0.6094037 0.11450282 0.117916524 -0.54815584
ḫr 0.13853945 0.25760087 0.46697292 0.060155667 -0.5946106 -0.12060156 0.25879234 0.13532715 -0.15135668 -0.10617425 0.53323734 0.010078274 0.032184582 -0.3313751 -0.04241127 -0.15270665 -0.28786352 0.29855695 -0.48059398 -0.22279651 0.07912613 -0.37130252 0.3216511 0.121299446 -0.31919822 0.11443033 0.020826522 0.29598707 -0.26353067 -0.26826066 -0.034913268 -0.27648962 0.59461737 -0.1808517 0.016562287 0.23805712 0.39468104 -0.71038663 -0.34440196 0.05606679 -0.0744902 0.00093793316 -0.3840705 -0.13104653 0.37885058 0.051683903 0.15372142 0.16502891 -0.00343761 0.2917297 -0.2578141 0.220237 -0.06564819 0.21168588 0.15186712 0.4892254 0.06642581 0.31759855 0.48013437 -0.59393674 -0.07020927 -0.16169593 -0.24375129 0.71012235 0.21348086 -0.18652862 -0.16351181 0.41252378 0.1214039 0.07949915 0.25115946 0.40527928 0.28081813 -0.06600796 0.040216163 0.017878262 0.8400327 -0.36605147 -0.62553644 -0.044873834 -0.03902885 -0.03898732 -0.21034001 0.91508406 0.34449497 0.21298447 -0.37413365 -0.0044132774 -0.4338624 0.19242069 0.57681113 -0.30728495 -0.010588583 -0.27737877 0.4878796 0.4319426 -0.034065545 -0.10895067 -0.61286193 0.44642064 -0.0387089 0.091117844 0.15890084 -0.22466995 -0.3368536 -0.2965463 -0.3558214 0.41439486 -0.27598727 0.19548813 0.55340016 -0.053815376 -0.35473204 0.08791129 -0.09508853 0.69519126 0.4994711 -0.05194412 0.22324154 -0.5179033
tw 0.05609018 0.28409365 0.8736607 0.5414053 -1.0024388 0.16527586 0.53460795 0.3563589 -0.2272299 -0.24990158 0.71658516 0.030010918 -0.042417977 -0.6923596 -0.23776436 -0.5831179 -0.3822675 0.23463413 -0.34916478 -0.14219733 0.464593 -0.24208103 0.40503812 0.21696858 -0.12853685 0.09022513 -0.05596212 0.20291445 -0.23625374 -0.3102869 -0.13913453 -0.07939294 0.7769995 -0.26869464 -0.054300155 0.066042684 0.31075957 -1.0511386 -0.4049535 0.062388957 -0.092528604 0.15270717 -0.2660637 -0.008810119 0.1281313 -0.40091982 0.20003788 0.4142409 -0.13687728 0.23746052 0.118464075 0.10297759 0.047404483 0.05199447 0.13895994 0.4395777 0.29171044 0.20006396 0.5058327 -0.72102284 -0.299762 -0.4019783 -0.31049958 0.85343605 0.21860576 -0.13037711 -0.038919467 0.49776262 0.26245728 0.020609507 0.50521076 0.48567882 0.7121239 0.1780105 0.26204985 -0.017846754 1.3953067 -0.60686225 -0.9996065 -0.037043545 -0.029476138 0.07420542 0.13247593 1.1139501 -0.021376504 0.19511802 -0.3318998 -0.040409647 -0.7591868 0.1448797 0.74994826 -0.6255497 0.07885912 -0.19550548 0.67951643 0.6492418 0.03324726 -0.17535792 -0.74357486 0.56543297 -0.19019127 0.38317198 0.43848673 -0.21615446 -0.43800464 -0.52558804 -0.7336929 -0.0690918 -0.27514067 0.11953628 0.82085276 -0.12981836 -0.28890616 0.037863187 0.018364958 0.7807384 0.8989051 0.0038041414 0.028834047 -0.5515284
1 1.079993 0.12983577 -0.2578995 0.1663521 0.0939168 0.8128027 1.0142387 0.37857214 -0.0722937 -0.4107576 0.75573945 0.15721518 0.89786613 -0.5711859 -0.05812977 0.60179 0.3293158 -0.28109607 -0.9693064 -0.5514319 0.32359263 -1.000271 -0.1001775 -0.93478745 0.16171317 0.45833567 -0.04146726 0.99261737 -0.16852319 -0.52897763 0.56422615 -0.80810666 0.043522414 -0.5483121 -1.324741 0.5069168 0.4494177 0.4761181 -0.8351511 0.4768163 -1.0834628 -0.6605927 -0.6620763 -0.2429642 0.40211514 -0.27069986 -0.45591155 0.17384622 0.25345206 0.45420048 -1.1736171 0.6765654 -1.0786854 0.30586025 1.1949958 0.60783184 -0.71808094 -0.4143841 0.34127244 1.0440919 -0.806684 0.892972 -0.8886007 -0.76238346 -0.65885687 0.047373597 0.09502379 0.57577777 0.22689174 0.559896 1.0938226 -0.088393174 -0.9379222 -1.0269084 -0.36848706 -0.95445174 0.61396706 -0.48324916 -0.6358742 -0.8544047 0.35916284 -0.23763621 0.22923335 0.46936846 -0.27534425 0.13175179 -0.80304223 0.5777444 0.7047188 -1.2867545 1.0284767 -0.27533725 -0.13563162 0.33806053 1.6469384 1.0821303 -0.7035492 -0.27338037 -0.31139603 -0.38523102 -0.46829015 0.21595699 0.3923533 -0.532883 -0.17793813 0.18056598 0.33732882 0.42075717 -0.40422994 0.3321125 0.21803534 0.2447901 0.92707354 0.28695962 1.2062873 -0.27113816 -0.3036283 -0.93770677 -0.17497267 -0.8662563
rꜥ 0.8265937 0.26682156 -0.066558115 -0.7645455 0.08410805 -0.74231184 0.36186856 0.13300033 0.024384595 -0.01750058 0.71154916 -0.4134459 0.321644 0.18754067 0.31359202 0.1362212 0.28553158 0.42021778 -1.2144421 -0.56809825 -0.47355014 -1.1621023 0.60119665 -0.35210758 -0.53366745 -0.28880662 0.53304124 0.8317311 -0.25383028 -0.44195086 -0.05888053 -0.98955417 0.70953435 -0.39038536 0.46983448 0.18967175 0.56563973 -0.51060295 -0.3256227 -0.3095221 -0.337699 0.03693249 -0.95856893 -0.32045475 1.2766261 0.494896 -0.051442627 0.3285773 0.7765928 0.6868881 -0.73954606 0.29270583 0.21530584 0.97343 0.07642014 1.1919941 0.3683876 0.7530953 0.8347359 -0.7637892 0.99719787 0.51738894 -0.023083262 0.15694423 0.21339776 -0.31731677 -0.53204674 0.6497033 -0.6284078 -0.012652134 -0.4436631 0.34540498 -0.6286489 -0.25029498 -0.11653261 -0.06811083 -0.11596262 -0.47629625 -0.22291946 -0.087124266 -0.14515649 -0.095569365 -1.1167461 0.92368823 1.038335 0.13198987 -0.14970963 -0.28940487 -0.056337602 0.34148815 0.6779348 0.07879564 -0.1409523 -0.67952853 0.8674966 0.5013052 -0.3274733 -0.14952777 -0.41555128 0.123855695 0.3656573 -0.87750524 -0.44747838 0.031149754 0.1999659 0.27454463 -0.041854482 1.8917049 -0.3413537 0.048225567 0.52794504 -0.048713434 -0.5017084 0.43097743 -0.71060145 1.1907995 -0.41520578 -0.2377578 1.250928 -1.0580304
rdj 0.07480475 0.13857324 0.53953576 0.5412805 -0.705929 0.35096383 0.4854316 0.27570418 -0.19963834 -0.22677544 0.53676754 0.054954432 0.014507102 -0.60898644 -0.23094738 -0.39131862 -0.2733477 -0.011838445 -0.18458022 -0.046633795 0.40613693 -0.14196862 0.26689738 0.0955707 0.12094135 0.11606237 -0.043218195 0.054484345 -0.10490304 -0.12597814 -0.042308763 0.005005866 0.46212524 -0.17772624 -0.27459124 0.037875324 0.19149601 -0.61264116 -0.3220313 0.050307125 -0.14154449 -0.004350621 -0.105616994 0.04394346 -0.008148042 -0.42327845 -0.0037892656 0.35021418 -0.14449576 0.084446035 0.11643644 0.0594065 -0.043890357 -0.062453125 0.27931535 0.16595098 0.08914323 -0.046217967 0.2971949 -0.24839593 -0.48997056 -0.20689628 -0.29076526 0.44363153 0.09215076 -0.060324486 0.0765656 0.31180257 0.25968555 0.10506043 0.48200366 0.26403257 0.5127486 0.08631013 0.15889557 -0.089050554 1.0626363 -0.46857488 -0.7198654 -0.12465572 0.06032763 0.07539908 0.31619084 0.73343796 -0.25855798 0.182802 -0.20293406 0.021588465 -0.5264044 -0.12293073 0.52443004 -0.530472 0.055482477 0.0564522 0.58956885 0.50829035 0.057554238 -0.119964175 -0.4950399 0.3294864 -0.2919888 0.3856235 0.3700694 -0.20434558 -0.34283608 -0.375751 -0.49602968 -0.3285793 -0.19718376 0.099153906 0.5786505 -0.060110666 -0.020732323 0.021959376 0.26287302 0.36905563 0.60979444 -0.03167353 -0.19509494 -0.37654212
sn 0.086015075 0.2209764 0.777377 0.38982633 -0.87240624 0.014415816 0.40497917 0.2997695 -0.33199933 -0.21601169 0.7443426 -0.10886883 -0.036970913 -0.5862919 -0.18786363 -0.49882177 -0.40507564 0.18646112 -0.5245693 -0.06538353 0.3017735 -0.3310937 0.45019105 0.28963035 -0.259932 -0.0017505414 0.09536268 0.16422524 -0.22157843 -0.27820584 -0.069543876 -0.07144457 0.80598444 -0.26416942 0.045154266 0.050767433 0.30331424 -0.94640183 -0.4071726 0.07121712 -0.043718584 0.15139708 -0.24006428 -0.06436016 0.23680317 -0.2798403 0.10244699 0.4725577 -0.06533802 0.28101665 0.028406603 0.2495245 0.17990644 0.11891034 0.25189903 0.47082987 0.3003197 0.30741894 0.500534 -0.77797693 -0.28102317 -0.29179823 -0.36026046 0.8543897 0.31440136 -0.12709211 -0.12602599 0.58477426 0.25199494 0.04157833 0.3800579 0.5184986 0.5903513 0.21412292 0.22785033 0.06146221 1.2861538 -0.5790503 -0.9162745 -0.065456055 -0.14963937 0.11790234 -0.09794971 1.1719813 0.037298854 0.33811215 -0.3350605 -0.21518917 -0.74122417 0.24470013 0.6203022 -0.5428624 0.104835734 -0.30553773 0.55315167 0.65618014 0.06214425 -0.22851712 -0.8378585 0.659647 -0.14919062 0.23555069 0.24488188 -0.1941877 -0.39628512 -0.4955321 -0.7702509 0.12419525 -0.23186053 0.21351215 0.8737296 -0.11753056 -0.39495596 0.10543515 -0.121048085 0.9701306 0.6917091 0.1147767 0.12695375 -0.7492378
wn 0.13643721 0.3153591 0.65715945 0.35358655 -0.8114814 0.09861759 0.44729495 0.20454387 -0.2505562 -0.18653306 0.669702 -0.029973991 0.048149392 -0.5595888 -0.1598473 -0.4156494 -0.35256523 0.2669726 -0.4399457 -0.08378975 0.28067997 -0.31914434 0.28173387 0.21418078 -0.21596213 0.049038433 0.012778655 0.16920853 -0.22063988 -0.2570546 -0.16109435 -0.11396079 0.67391616 -0.24388137 -0.053545434 0.14744942 0.38841206 -0.7769845 -0.40410367 0.082905576 -0.09594519 0.10719932 -0.26705796 -0.01882689 0.21509875 -0.2132497 0.10112021 0.36379477 -0.023315815 0.23843634 -0.023866635 0.15143289 0.03810872 0.092216805 0.23041463 0.41866747 0.1661419 0.2154275 0.50007886 -0.6273993 -0.29506093 -0.26391497 -0.31416178 0.7727468 0.26533994 -0.13712552 -0.06783186 0.5237426 0.2424129 0.012384826 0.3917118 0.41081136 0.54389477 0.10698832 0.17299771 0.022444213 1.1810428 -0.49171492 -0.7745473 -0.0045721065 -0.07766967 0.062330503 0.026903523 0.9796228 0.119481795 0.19406217 -0.33515674 -0.0056728316 -0.6172248 0.12834798 0.56159425 -0.48191145 0.08588882 -0.21400404 0.59078825 0.585534 0.04148404 -0.14988266 -0.714798 0.5353107 -0.12618147 0.25260106 0.3449396 -0.23880807 -0.38379017 -0.46378478 -0.54760164 0.0575736 -0.2511032 0.13457203 0.68605626 -0.13211401 -0.3554689 0.10002277 -0.05096064 0.76208615 0.7441063 0.030260239 0.10011986 -0.5193825
wt 0.08183311 0.13402525 0.73287195 0.1663509 -0.6974637 -0.020338105 0.16445851 0.2563981 -0.27745742 -0.03624645 0.70960903 0.046930432 0.0026016564 -0.5655875 -0.17313865 -0.3881335 -0.40990436 0.30972987 -0.60517406 -0.26278526 0.19008937 -0.373446 0.4987999 0.2861101 -0.2458391 0.052406155 0.1663786 0.35510215 -0.16872104 -0.3386408 -0.008994446 -0.34391728 0.66829467 -0.26425 -0.050733194 0.20074797 0.26998317 -0.8987114 -0.37246993 -0.019449102 -0.029171173 0.03458 -0.39367425 -0.13708487 0.26434055 -0.024310816 0.10647979 0.19078629 -0.13349226 0.29624605 -0.23722547 0.49706033 -0.0116090365 0.19813447 0.06375561 0.59097457 0.24451764 0.5011583 0.47353393 -0.60062087 -0.00800781 -0.22105399 -0.32674733 0.785428 0.14603455 -0.12155203 -0.19509682 0.48777503 0.05059972 0.047608007 0.29966944 0.46875757 0.3639631 0.0033051698 0.19332683 -0.06307204 1.0281191 -0.26187274 -0.72583586 -0.099045195 -0.09957368 -0.07544798 -0.3009916 1.1781583 0.23388861 0.32708177 -0.41498762 -0.17872915 -0.45182976 0.1599555 0.5819039 -0.47427267 -0.03602577 -0.40340102 0.45397213 0.34489754 -0.025541589 -0.14105201 -0.7453045 0.51884174 0.098026045 0.08339207 0.2997565 -0.11104511 -0.32583827 -0.24587786 -0.4784263 0.34958428 -0.2713626 0.2754427 0.57635635 -0.06620787 -0.30585212 0.11365822 -0.06215252 0.88630176 0.48952273 0.12405919 0.19273964 -0.63862395
2 0.8031618 0.092880905 -0.22440791 0.221388 0.0674619 0.6381056 0.7941844 0.2464694 -0.05970781 -0.40398523 0.57959455 0.07702567 0.6819214 -0.40418166 -0.105780035 0.40629813 0.23630504 -0.19540092 -0.6934764 -0.37107354 0.2653284 -0.7243507 -0.099144965 -0.6892204 0.13736148 0.28553736 -0.04448523 0.69721967 -0.16894937 -0.3552685 0.39603648 -0.59459347 -0.0658469 -0.39446908 -1.002922 0.33284163 0.40843543 0.40767282 -0.67489547 0.36042646 -0.84906024 -0.5336389 -0.42392108 -0.15755637 0.23222834 -0.22999607 -0.36249694 0.15391578 0.18683305 0.2925701 -0.87740207 0.46610877 -0.8055576 0.24724585 0.9481724 0.4091756 -0.53554374 -0.40900874 0.19320174 0.8961051 -0.741867 0.73153096 -0.6746419 -0.62556475 -0.4938402 0.08494975 0.14050104 0.4382034 0.13701256 0.37559825 0.89593196 -0.11417843 -0.7087211 -0.7634002 -0.279397 -0.77574855 0.5006822 -0.3820807 -0.48882195 -0.61126673 0.2570325 -0.14361902 0.26809773 0.42944244 -0.3026134 0.10317164 -0.54951334 0.4226211 0.52477545 -0.9669876 0.75169677 -0.26041126 -0.04891871 0.3213905 1.2750114 0.8532966 -0.5427399 -0.20150656 -0.2752842 -0.23777841 -0.36697915 0.22437167 0.29255044 -0.38485974 -0.16884331 0.1219257 0.24109961 0.16896231 -0.28490555 0.2629425 0.1532812 0.19014339 0.7257709 0.24044363 0.97923785 -0.25147292 -0.18242666 -0.7257682 -0.25856668 -0.68270063
10 0.9776787 0.11208393 -0.44553652 0.017203117 0.28232634 0.57421535 0.78628796 0.22039905 -0.014896233 -0.46728036 0.6331586 -0.026198426 0.8253189 -0.21723652 -0.031181728 0.59381694 0.37804562 -0.15081301 -0.8702274 -0.5131402 0.14558768 -0.952965 -0.14596996 -0.8870394 0.027859615 0.25371328 -0.020322802 0.829628 -0.20113072 -0.43665832 0.43547952 -0.8125395 -0.16081329 -0.49055758 -0.95649785 0.37390846 0.5305508 0.546787 -0.756255 0.34209776 -1.0116283 -0.6104349 -0.6019156 -0.21550141 0.46338207 -0.05305694 -0.45168275 0.10132164 0.43046534 0.37341648 -1.1667256 0.51638925 -0.8630802 0.49121258 1.0479169 0.55050015 -0.621498 -0.37856236 0.25305247 0.98845226 -0.57083315 1.0277065 -0.6566882 -0.802414 -0.54553103 0.0824473 0.16032483 0.52367014 -7.290613e-05 0.36284092 0.8156348 -0.18264075 -1.0829959 -0.98346746 -0.37567094 -0.8939384 0.20576702 -0.35637972 -0.40271166 -0.66490173 0.24327701 -0.21002527 0.032017708 0.4600409 -0.1084839 0.06058916 -0.547298 0.5088982 0.7562121 -0.97462493 0.79846805 -0.09701419 -0.02223087 0.29273814 1.4904993 0.93711877 -0.6957759 -0.23174958 -0.2431959 -0.29397565 -0.24741104 0.04228986 0.1398383 -0.395309 -0.06899414 0.2931014 0.36161897 0.56580925 -0.3022361 0.30650693 0.103792615 0.22321437 0.7892376 0.3518945 0.9433212 -0.2172482 -0.43986025 -0.8816292 -0.08929425 -0.8190099
mtw 0.004215668 0.257778 0.94761777 0.596865 -1.0866307 0.18013673 0.5107403 0.4340619 -0.26529223 -0.26579612 0.80032784 0.08908363 -0.083631545 -0.7927933 -0.27998337 -0.66590375 -0.4209006 0.27836537 -0.42493355 -0.16823167 0.48207822 -0.23357396 0.5076408 0.27848554 -0.098711506 0.12821093 -0.04465349 0.20290703 -0.2039122 -0.3062831 -0.106634095 -0.11320183 0.84594226 -0.2423115 -0.016275309 0.07824542 0.29993483 -1.1966808 -0.4173001 -0.0072182184 -0.09257313 0.16973795 -0.2894432 -0.025343474 0.17432378 -0.42072672 0.21209435 0.43781888 -0.17939165 0.2277502 0.15064995 0.13479565 0.053994156 0.040323127 0.10016975 0.4717359 0.34644613 0.27702266 0.5628768 -0.8035336 -0.29211822 -0.4220797 -0.2946721 0.9166972 0.22007333 -0.15401107 -0.051132344 0.495556 0.26005343 0.071916796 0.5102855 0.5346717 0.77308106 0.1863659 0.27706325 -0.024815619 1.492073 -0.6266358 -1.0790352 -0.021777157 -0.0064097177 0.09451989 0.08744629 1.2500318 -0.0462071 0.23971228 -0.32885575 -0.09465962 -0.8919572 0.23047522 0.8430915 -0.73432046 0.082697935 -0.21015555 0.69962907 0.6124967 0.11270127 -0.1669414 -0.7934729 0.59897983 -0.1789217 0.4396912 0.3932628 -0.23032445 -0.47477466 -0.5107597 -0.84263796 -0.05678099 -0.31835842 0.13528544 0.88139635 -0.1323475 -0.31818315 0.020850651 -0.013873839 0.8408962 0.96389073 0.016034137 0.011190768 -0.6370105
nṯr 0.57433546 0.25954184 0.14715642 -0.6372386 -0.16698766 -0.63896483 0.19925885 0.13928199 0.021846384 0.020777497 0.69257694 -0.21506318 0.1524875 0.04185672 0.21844997 0.03987715 0.08129926 0.46229786 -0.98442155 -0.5045648 -0.32426405 -0.9135085 0.5301885 -0.17535964 -0.53795135 -0.19086555 0.39252463 0.63845325 -0.134204 -0.407627 -0.065310575 -0.7725644 0.72113323 -0.2951774 0.47355235 0.2487435 0.48784834 -0.6744683 -0.22293285 -0.2274398 -0.16329329 0.07530538 -0.80244774 -0.3463005 1.0176158 0.42260975 0.022515474 0.23777361 0.50901526 0.5596808 -0.55066293 0.2921188 0.21491954 0.79966056 -0.08426012 1.0198581 0.33430642 0.76322496 0.7551552 -0.8228549 0.8549302 0.24982426 -0.014773558 0.43064395 0.2804024 -0.281598 -0.47944048 0.5523386 -0.38205346 0.034995712 -0.38309005 0.37441003 -0.31202492 -0.18993711 -0.014140332 0.04472647 0.08536805 -0.39401194 -0.2720055 -0.051094376 -0.12501219 -0.063861325 -0.9893505 0.9249886 0.941157 0.1440233 -0.22657666 -0.22903907 -0.20027764 0.34086537 0.51567256 0.0043601915 -0.08917234 -0.6376815 0.66444695 0.3222563 -0.16352676 -0.13281646 -0.5208066 0.21975867 0.29750532 -0.63372314 -0.29846868 -0.06765718 -0.00048886315 0.12007793 -0.16397966 1.5657437 -0.2758368 0.07299605 0.5616057 -0.099582486 -0.5826405 0.32276133 -0.68508625 1.157584 -0.13144745 -0.09092375 1.0864687 -0.8985248
sꜣ 0.47635967 0.26416948 -0.010305696 -0.28784096 -0.12157498 -0.11140834 0.36875698 0.07483472 0.031313714 -0.21345583 0.46999693 -0.09553726 0.40064982 -0.03897305 0.07882645 0.2751419 0.097657815 0.14268857 -0.67757607 -0.3726485 -0.066460155 -0.62230134 0.033268936 -0.37577423 -0.33510736 0.02927872 0.01571515 0.45557582 -0.25628868 -0.2904318 0.060979296 -0.49315947 0.34484664 -0.2320669 -0.09275372 0.3125053 0.5254096 -0.17123404 -0.32838613 0.061177123 -0.32324025 -0.12566222 -0.53115165 -0.16248721 0.58007306 0.20677708 -0.056292117 0.063957684 0.35718432 0.35686707 -0.599543 0.15094608 -0.14611153 0.4530732 0.37705368 0.6133491 -0.20168689 0.16516542 0.35850227 -0.20605671 0.10133169 0.38633245 -0.23360632 0.12434402 0.029072572 -0.16427112 -0.063357465 0.36516875 0.017193774 0.14412479 0.13634938 0.15153743 -0.3953442 -0.41218534 -0.123112895 -0.14760806 0.10982928 -0.34786746 -0.32893157 -0.15930419 0.00270116 -0.07432025 -0.33473742 0.5214108 0.47514066 0.10591377 -0.33039388 0.18389145 0.12522179 -0.047764953 0.47977996 0.062294696 -0.01603107 -0.18022224 0.7424738 0.52512723 -0.31055766 -0.12275736 -0.29084033 0.15149756 -0.02394323 -0.1872855 -0.11531756 -0.2595993 -0.06993567 -0.006624287 0.072224416 0.81687176 -0.26769906 0.14607848 0.32717153 -0.005818365 -0.12027347 0.24366829 -0.055784218 0.38216427 -0.067148276 -0.3422711 0.41773927 -0.51813346
nty 0.12714314 0.18982434 0.57562524 0.16357099 -0.646525 -0.06677383 0.28014308 0.20993085 -0.22711691 -0.11064376 0.6127159 -0.03043847 -0.046205252 -0.4262839 -0.09337665 -0.40513423 -0.3010877 0.27728274 -0.46973234 -0.16731058 0.17734557 -0.33359474 0.43676326 0.20036884 -0.21889918 0.011464137 0.09232435 0.2444733 -0.1483708 -0.24178599 -0.06220612 -0.20198585 0.66937816 -0.18200566 0.094437264 0.1281425 0.2659487 -0.8456378 -0.32630932 -0.033543795 -0.013724246 0.07627707 -0.33326766 -0.04265872 0.3258568 -0.10191701 0.07810058 0.2845997 -0.021054778 0.27198198 -0.07907961 0.22472525 0.118969105 0.22094771 0.08586682 0.53007895 0.27093688 0.3567825 0.5183549 -0.67745626 -0.0032075327 -0.20569848 -0.23599441 0.68507403 0.2401449 -0.14164343 -0.1647791 0.49011967 0.07221231 0.027839877 0.19670704 0.43704882 0.42261 0.079294704 0.18904887 0.02620311 0.956464 -0.44571197 -0.63867784 -0.020260902 -0.05164021 0.04865085 -0.20085275 0.98458964 0.24359167 0.19929034 -0.25061914 -0.09700259 -0.581493 0.1833902 0.5651797 -0.42604375 0.03762447 -0.28689978 0.5060403 0.4578677 0.0461506 -0.13548203 -0.6427586 0.47283408 -0.022034397 0.118674085 0.18387786 -0.14040892 -0.30747643 -0.26142383 -0.5085683 0.31486118 -0.22298433 0.117567115 0.64531755 -0.10059869 -0.36594334 0.07507442 -0.1407635 0.81249803 0.5205263 0.055459168 0.25516796 -0.6331069
ḏr 0.5722702 -0.0013318793 -0.14654106 -0.0024863502 0.024770733 0.36971244 0.4686304 0.15809953 -0.06404277 -0.31803888 0.4225168 -0.04796042 0.4489395 -0.1349432 -0.02880894 0.18683505 0.27104044 -0.06633381 -0.5818444 -0.3285193 0.06950834 -0.6092181 -0.13574205 -0.59322155 -0.04860464 0.13275023 -0.13344826 0.42509282 -0.111826725 -0.2543882 0.2864995 -0.37815526 0.05924211 -0.3225157 -0.4409673 0.17010081 0.39189944 0.15950584 -0.5078913 -0.008884986 -0.5284096 -0.25099003 -0.47497222 -0.017339597 0.3601839 0.06290166 -0.4036145 0.061246388 0.35670742 0.33234525 -0.7432885 0.21588285 -0.3078964 0.39071012 0.6086779 0.391603 -0.36668715 -0.2690112 0.2376947 0.37832603 -0.26983693 0.6895271 -0.31795403 -0.38758504 -0.37633416 -0.018226413 0.14611495 0.36616695 0.10988788 0.19134344 0.37490985 0.006656431 -0.65707314 -0.7014608 -0.16990216 -0.47189867 0.092460275 -0.29469746 -0.249949 -0.4003687 0.16365804 -0.06133395 -0.083495766 0.36806253 0.07514817 0.10897616 -0.23311062 0.38514054 0.37934327 -0.46929395 0.48579463 -0.048128586 0.0020860294 0.17136651 0.9373902 0.5701512 -0.389399 -0.10904017 -0.18233342 0.012700468 -0.11122886 0.012433123 -0.09100512 -0.2436341 0.033556294 0.16828044 0.15944596 0.33823344 -0.24326733 0.18696807 0.27649543 0.12185739 0.35080713 0.16090113 0.43297184 -0.050223373 -0.24726376 -0.545247 0.029183475 -0.58530253
nfr 0.3243052 0.18151523 0.24283789 0.0044002566 -0.3269411 0.03806967 0.37304443 0.18751162 -0.03648744 -0.1250881 0.5118357 -0.008707052 0.18049361 -0.26690903 -0.02715715 0.01308344 -0.033166517 0.14111453 -0.5257662 -0.30645907 0.073718116 -0.45939642 0.21322346 -0.1652653 -0.1711986 0.10092708 0.043917827 0.3815497 -0.15566027 -0.26354718 0.027172122 -0.36928272 0.3943093 -0.25050542 -0.16282126 0.22772226 0.32271323 -0.3813633 -0.33431208 0.049743418 -0.23395893 -0.06790174 -0.3916893 -0.16413595 0.3456034 -0.016746892 -0.02036466 0.15858984 0.08956752 0.2744221 -0.34799045 0.2623869 -0.14590734 0.24344228 0.24673897 0.45332286 -0.043397542 0.17615205 0.33791527 -0.23490095 -0.06080762 0.111375555 -0.2506799 0.26167062 -0.008515369 -0.15150304 -0.09111951 0.34310007 0.044066742 0.13926335 0.27470824 0.21821107 -0.037452586 -0.19658764 -0.028894579 -0.16704498 0.50861377 -0.31460112 -0.4885192 -0.18002065 0.025720056 -0.039502226 -0.16056813 0.6027982 0.19297606 0.14864588 -0.3198511 0.059463214 -0.1122123 -0.079291776 0.4753597 -0.21111158 -0.04388951 -0.14635082 0.6308656 0.4200414 -0.15564083 -0.14589739 -0.40283963 0.1613708 -0.073592044 -0.0032809477 0.10465205 -0.20613086 -0.17461474 -0.11899434 -0.15197118 0.4112091 -0.24132235 0.13947542 0.38470662 0.0119423475 -0.09525472 0.13594422 0.06317192 0.42770505 0.18515949 -0.1349005 0.2139535 -0.48662174
sš 0.36054787 0.3342949 0.118078046 -0.4915191 -0.17683725 -0.37647226 0.123552375 0.009357408 0.07417974 -0.029020473 0.43908414 -0.08136934 0.2761346 0.05850206 0.17996265 0.35702413 -0.00073575834 0.3207516 -0.6630321 -0.45848486 -0.20424633 -0.6313958 0.19885059 -0.23663822 -0.5538123 0.038508616 0.031968098 0.4871996 -0.23929687 -0.3625695 -0.01597029 -0.5555547 0.46952954 -0.20897768 0.10782163 0.36435172 0.5082604 -0.34308097 -0.23701596 0.03879985 -0.14416534 -0.055328924 -0.62387526 -0.33024457 0.6773131 0.3999769 0.14166158 -0.038237635 0.27044123 0.41554347 -0.6068734 0.18699612 -0.1301488 0.44805774 0.1443087 0.6854366 -0.12830445 0.48167247 0.42814127 -0.563775 0.3996131 0.19416942 -0.12434144 0.43105367 0.12862466 -0.30885074 -0.21099582 0.31679732 -0.06392923 0.14481068 -0.021783294 0.24435794 -0.26772836 -0.3215173 -0.13880518 0.0074226465 0.06788701 -0.27532327 -0.3754456 -0.113280475 0.0008012435 -0.15242645 -0.61923254 0.6251811 0.7438576 0.1360375 -0.38519344 0.055164956 0.04824591 0.19187239 0.4709386 0.10799618 -0.059736554 -0.3292258 0.5645811 0.3745213 -0.27745286 -0.104561746 -0.40865353 0.20221408 0.14716107 -0.32961547 -0.14417239 -0.22196198 -0.15551919 -0.05060424 0.024345722 1.1070827 -0.29867768 0.21227057 0.37127775 -0.0059211724 -0.3834034 0.22887942 -0.28794247 0.6270333 -0.024592735 -0.21516229 0.61999124 -0.4733054
jrj 0.05853236 0.17883214 0.6368173 0.46231702 -0.7802335 0.19233623 0.38885126 0.27302822 -0.25843802 -0.23541208 0.59101605 0.03482049 -0.03945657 -0.58773434 -0.20474073 -0.50717974 -0.34139973 0.16925286 -0.3342038 -0.072444685 0.3341046 -0.1962324 0.37008122 0.22493978 -0.01126075 0.069002196 0.007878933 0.11871199 -0.16317956 -0.17263293 -0.041201714 -0.046821993 0.5723092 -0.19862786 -0.091275156 0.039962325 0.23838523 -0.807663 -0.37393174 0.019027859 -0.08905849 0.0596019 -0.167747 0.035348002 0.13543789 -0.31885186 0.0763506 0.38006893 -0.111437626 0.19066714 0.069533594 0.1152621 0.03533874 0.045693375 0.19156934 0.3475902 0.23806864 0.12668069 0.4585299 -0.51547956 -0.36079785 -0.24280229 -0.30801457 0.64127123 0.1970839 -0.06612709 -0.023701433 0.44358486 0.1925935 0.054345127 0.4304756 0.37854782 0.56110305 0.09904379 0.20563884 -0.031660423 1.1906039 -0.51256406 -0.7927838 -0.068157956 -0.0028237866 0.05663234 0.09850152 0.9854674 -0.08305841 0.23086946 -0.23107193 -0.04112522 -0.68326163 0.058634542 0.63971055 -0.5776689 0.068002395 -0.0809372 0.568283 0.5513805 0.088442765 -0.14371382 -0.6478643 0.47948724 -0.17500968 0.33696464 0.31648955 -0.18587978 -0.36643314 -0.40441078 -0.5922249 -0.12212324 -0.20734341 0.11402463 0.68364507 -0.06628082 -0.19384408 0.036925264 0.08343576 0.62495184 0.7026815 0.014773925 -0.030477142 -0.576733
jmy 0.20856547 0.332 0.7569172 0.003944015 -0.8135073 -0.25546902 0.2564723 0.21220161 -0.024920912 -0.08449207 0.66731054 -0.037069052 -0.006150546 -0.38560352 0.015672917 -0.28264835 -0.340558 0.4970024 -0.51862013 -0.30132425 0.18742238 -0.5146318 0.517988 0.08435693 -0.54805166 -0.047487184 0.04626249 0.40150744 -0.22832589 -0.41506568 -0.21622872 -0.41012615 0.7489876 -0.25950584 0.30747676 0.22482549 0.38636738 -1.0642811 -0.25786632 -0.0035555759 0.08064636 0.26520863 -0.5575724 -0.2689693 0.47948572 0.044481482 0.345092 0.14453907 0.052938923 0.34607303 -0.11642066 0.15733041 0.13857843 0.39864722 -0.1359199 0.6616871 0.28804514 0.6764756 0.5810751 -1.0101568 0.38491407 -0.26196846 -0.12188071 0.90846264 0.30975094 -0.3001211 -0.25883424 0.4300727 -0.057389177 -0.063766316 0.14849235 0.5534782 0.35548282 0.10559334 0.17106178 0.03689733 0.81799906 -0.38841042 -0.7811466 0.02506116 -0.034091696 -0.049644716 -0.41027445 1.0645722 0.538087 0.1469221 -0.40728587 -0.09645443 -0.45877013 0.458032 0.5389108 -0.37030175 0.02238428 -0.54645985 0.5368228 0.42857727 -0.05039726 -0.12760714 -0.68407184 0.56559634 0.1832216 -0.08040298 0.21728079 -0.1052305 -0.29312047 -0.29496557 -0.5103304 0.7069654 -0.37187222 0.21818073 0.71582323 -0.15051769 -0.57296854 0.14310011 -0.43631464 1.0430151 0.6147931 0.03775801 0.55660397 -0.58741504
dj 0.028234512 0.24019158 0.65507716 0.34715888 -0.78557485 0.0855299 0.30027407 0.24037045 -0.17524283 -0.13978653 0.5294161 0.05039204 -0.04222127 -0.4856927 -0.15126903 -0.45364663 -0.34235612 0.30043602 -0.35791656 -0.116233855 0.26454648 -0.21105258 0.30686775 0.22393465 -0.1849591 0.10109293 -0.056892443 0.17881739 -0.17793806 -0.22482705 -0.08644496 -0.092344776 0.60156703 -0.19376887 0.015404179 0.1420834 0.281888 -0.8503925 -0.34100133 0.02599761 -0.023589656 0.118455924 -0.26931334 -0.00923761 0.14930959 -0.15089917 0.1429782 0.27987528 -0.115917966 0.23775075 -0.018752763 0.1402223 0.051998276 0.078464374 0.09555826 0.3839024 0.19911847 0.23412979 0.4340701 -0.6292332 -0.19295678 -0.24512969 -0.24271597 0.75916743 0.2020305 -0.11459501 -0.060644496 0.42316785 0.23853725 0.04600941 0.3410394 0.40916815 0.52846354 0.05199355 0.1700624 0.024791326 1.0521235 -0.4320459 -0.7342599 -0.024645163 -0.034509648 0.038005047 0.004357442 0.9355032 0.10134793 0.21693045 -0.3239015 -0.010670041 -0.5990072 0.1551338 0.5877526 -0.51169264 0.021953352 -0.23129852 0.4816858 0.45375735 0.051063266 -0.13235113 -0.6267291 0.4872955 -0.11123853 0.28149223 0.27847564 -0.18243057 -0.3723207 -0.38917363 -0.53495437 0.059626754 -0.24897754 0.12731007 0.6089997 -0.08132973 -0.30698067 0.022517217 -0.079267375 0.6366979 0.7308964 0.025230387 0.05295099 -0.46005562
nswt 0.7560535 0.34752437 0.04159927 -0.7712913 -0.056930274 -0.6939767 0.21602912 0.120439276 0.05122704 0.0006649055 0.7027147 -0.30378953 0.31102732 0.15749754 0.3279209 0.18328609 0.24216777 0.4815201 -1.1511476 -0.63614804 -0.4329356 -1.1505632 0.5239782 -0.28506416 -0.57950544 -0.24324562 0.44090474 0.8224434 -0.111011535 -0.48698327 -0.087478764 -0.9557598 0.6270083 -0.34282187 0.44539896 0.32851365 0.57686645 -0.5316579 -0.31239203 -0.18026102 -0.35361505 0.07539565 -0.9720935 -0.4268512 1.1515703 0.5247336 -0.030532833 0.20321442 0.67188126 0.5964219 -0.708882 0.33223176 0.16341192 0.95794505 -0.016062684 1.1254851 0.2702317 0.8036803 0.78620064 -0.75140196 0.9744859 0.47423303 -0.009515167 0.25129482 0.20259263 -0.30411068 -0.5172155 0.61608034 -0.4538301 0.06755029 -0.42034313 0.2924008 -0.5509266 -0.30397913 -0.13547622 -0.016310468 -0.14141475 -0.3791117 -0.17052886 -0.08948081 -0.0648281 -0.09276964 -1.1491703 0.848318 1.0605539 0.11075289 -0.29014742 -0.18229067 -0.022019096 0.28371978 0.5654612 0.11611269 -0.11343476 -0.65745276 0.7898287 0.3736672 -0.24113153 -0.13685766 -0.44067806 0.09673745 0.411631 -0.7935197 -0.3413647 -0.0057048392 0.052652445 0.3030243 -0.008307907 1.8125777 -0.344146 0.074331306 0.4502628 -0.04529601 -0.51265615 0.4316446 -0.73681736 1.1656934 -0.31755525 -0.15471816 1.2417496 -0.93776274
wꜥ 0.18674986 0.15873545 0.44127533 0.40979436 -0.5949727 0.32244962 0.494719 0.24816151 -0.17965475 -0.21918853 0.5018412 0.07432787 0.1357567 -0.54414916 -0.18161924 -0.24028805 -0.17305191 -0.014225478 -0.32186687 -0.10221391 0.32936037 -0.22628045 0.15814991 -0.013133159 0.038171094 0.12328151 -0.04737079 0.18827273 -0.14788197 -0.18144967 0.008253159 -0.06661826 0.4189423 -0.19850716 -0.325976 0.12712729 0.22593991 -0.43804118 -0.38081676 0.122480094 -0.20341252 -0.05021897 -0.20222457 0.00951721 0.040804897 -0.30598307 -0.07181073 0.29845127 -0.087164335 0.16207458 -0.075676754 0.1606923 -0.15624122 -0.024619834 0.35838962 0.25592002 -0.034513947 -0.08530575 0.2989689 -0.14041112 -0.51395166 -0.07303464 -0.36401412 0.33177686 0.022625424 -0.06390467 0.045988623 0.39253017 0.28794003 0.14946982 0.5263143 0.23896196 0.31771904 -0.07047063 0.08218096 -0.14115562 0.9651079 -0.43305928 -0.67459357 -0.18446095 0.045025595 0.04372813 0.25362337 0.646245 -0.18905123 0.15719125 -0.31120703 0.11406787 -0.32645467 -0.20802195 0.5395569 -0.4376877 0.012882365 0.057470467 0.63548 0.5496867 -0.07755165 -0.1303109 -0.4783333 0.2729271 -0.28914467 0.3475025 0.34599257 -0.2369109 -0.29144987 -0.34398732 -0.33467814 -0.17528297 -0.21622968 0.12176254 0.5101004 -0.018036574 0.01952816 0.057057057 0.30997324 0.2794251 0.4759512 -0.09166202 -0.12526354 -0.40135095
ḫt 1.0121362 0.047970716 -0.3478893 -0.2755974 0.22021599 0.3715461 0.6371744 0.16817223 -0.005561497 -0.41355148 0.60621244 -0.07228351 0.75039583 -0.019558927 0.09120068 0.52484846 0.45578372 -0.0024704277 -1.0173755 -0.65094584 -0.015066095 -1.0684214 -0.13776335 -0.98223704 -0.24947888 0.18686046 -0.076340914 0.82647794 -0.16584946 -0.49414283 0.41796777 -0.8391814 0.061097752 -0.5232711 -0.6218309 0.38064423 0.6869238 0.3687957 -0.72672623 0.1328871 -0.8561886 -0.47755843 -0.80787784 -0.181671 0.7179272 0.2727751 -0.54886943 -0.017987385 0.6292899 0.56485116 -1.3596684 0.47125825 -0.5817321 0.7106959 0.9070694 0.7547826 -0.60509247 -0.21944878 0.40540272 0.5922409 -0.17810671 1.1610132 -0.49964103 -0.6864849 -0.592056 -0.075821124 0.13346285 0.60125875 0.046874195 0.3326116 0.4832412 -0.008375976 -1.2548033 -1.155162 -0.36301628 -0.75203687 -0.059091628 -0.40677664 -0.30838618 -0.63756543 0.26573297 -0.19939397 -0.34812078 0.5378461 0.32912946 0.11067037 -0.45011842 0.5509118 0.8039939 -0.7274261 0.7594131 0.08598201 -0.07952606 0.10157446 1.4819266 0.85635865 -0.71319145 -0.20862263 -0.2250421 -0.09842243 -0.03354074 -0.19715804 -0.1713124 -0.37057337 0.014191682 0.3987779 0.39253953 0.9582478 -0.43401328 0.3592285 0.30070055 0.19621718 0.4933361 0.3143255 0.63731414 0.03397398 -0.5836104 -0.88430995 0.1973659 -0.9260982
ꜣbd 1.0325701 0.14237839 -0.4313141 0.15342964 0.25463226 0.71732086 0.90530944 0.2726589 -0.09141608 -0.6110601 0.7551006 -0.0021573212 0.89022005 -0.3678235 -0.043310076 0.50979745 0.3810915 -0.1568701 -0.9145015 -0.4889686 0.27314806 -1.0580465 -0.12220553 -0.9202096 0.08170711 0.2624397 -0.021993848 0.8788657 -0.23442659 -0.5275967 0.4655309 -0.85851705 -0.20657493 -0.575057 -1.1288805 0.3477041 0.5740588 0.57456994 -0.9126196 0.46275255 -1.1817658 -0.6512835 -0.55967575 -0.18283772 0.4196621 -0.17882106 -0.47028962 0.20415284 0.39898282 0.35814473 -1.2046232 0.5758617 -1.008002 0.46866533 1.2185237 0.58621466 -0.6547876 -0.45682555 0.29805276 1.1402798 -0.8039993 1.098722 -0.7782927 -0.83782685 -0.60390097 0.14522885 0.17378259 0.6033475 0.013087448 0.36557716 1.0558624 -0.21902566 -1.0961802 -1.0048072 -0.36246827 -1.0297995 0.48160753 -0.45556593 -0.56315994 -0.74138165 0.26527545 -0.27406123 0.12503119 0.6746858 -0.23489174 0.06999812 -0.5868153 0.5644475 0.72017556 -1.16496 0.9801097 -0.263795 0.010085384 0.39188582 1.7211294 1.11475 -0.6964632 -0.3183675 -0.333996 -0.28155982 -0.3048054 0.16396567 0.29052207 -0.41367835 -0.16107617 0.24528576 0.2576154 0.48709574 -0.3340563 0.33809143 0.15342607 0.19749053 0.93671113 0.38303056 1.1589669 -0.16682151 -0.33453956 -1.0124317 -0.21997133 -0.9912463
tꜣy 0.1161578 0.1958057 0.6698382 0.5110963 -0.8463236 0.3136856 0.4904094 0.3402779 -0.27763945 -0.28716832 0.6821979 0.07422731 0.051618684 -0.68159485 -0.25433582 -0.4895075 -0.30173242 0.11753177 -0.44480467 -0.12974861 0.41877407 -0.2620857 0.3346093 0.1670272 0.0007315783 0.099005885 -0.042903487 0.19731423 -0.1843263 -0.24156033 -0.043448362 -0.093417265 0.60202026 -0.25601462 -0.18946716 0.10004249 0.32277074 -0.8137007 -0.42754897 0.05599097 -0.1902716 0.05705766 -0.24419507 0.04458916 0.16475827 -0.346041 0.02233417 0.43276772 -0.1053934 0.21040286 -0.0030232177 0.19695549 -0.064684734 0.04501273 0.33242333 0.37803355 0.16760807 0.09518804 0.4532837 -0.43445003 -0.4950964 -0.22613859 -0.3651221 0.63277155 0.13162276 -0.09405076 -0.028755238 0.47573534 0.27655494 0.10561108 0.52604985 0.3663143 0.53239846 0.03596715 0.16971543 -0.117078885 1.3229269 -0.5406571 -0.8662547 -0.11487497 -0.011617494 0.09085703 0.17885041 1.0461087 -0.12886162 0.26820323 -0.33660015 0.017967105 -0.60616255 -0.032216083 0.7089563 -0.62205124 0.07018463 -0.073789924 0.7009628 0.658009 0.04807765 -0.15036382 -0.7063886 0.5182215 -0.25414973 0.42622393 0.376466 -0.2301176 -0.37678328 -0.44062218 -0.6165411 -0.13203156 -0.25302368 0.10668831 0.7225258 -0.08717383 -0.13749458 0.0580719 0.17801662 0.5989422 0.71984196 -0.047773883 -0.087021604 -0.60771525
ꜥnḫ 0.2208093 0.25915828 0.5173096 0.03858155 -0.5614332 -0.06373494 0.35805187 0.2154991 -0.04688428 -0.12691411 0.65165824 0.008309039 0.10869363 -0.30240506 -0.04594162 -0.2355081 -0.17076266 0.40573397 -0.56745124 -0.28130323 0.13967231 -0.4509385 0.39133716 -0.0024243623 -0.2969448 0.05622023 0.083213195 0.30824393 -0.23619743 -0.37367532 -0.14817394 -0.3633473 0.5917335 -0.26495713 0.1567429 0.1841594 0.3445029 -0.84046006 -0.26315066 -0.10857171 -0.1380396 0.18221661 -0.45789444 -0.084896825 0.5056413 -0.017322078 0.15769632 0.21518607 0.120513774 0.23321506 -0.14015973 0.09414398 0.03095515 0.28701323 0.026183363 0.6129362 0.16849306 0.46490788 0.5126752 -0.62794864 0.25646257 -0.13603857 -0.13871236 0.67338747 0.20321561 -0.1804221 -0.14343399 0.3698642 -0.061074603 0.051884174 0.10264003 0.35909745 0.16756102 -0.0586838 0.17277408 -0.06992391 0.67319995 -0.35092673 -0.65793073 0.08791878 -0.06410787 0.018905997 -0.2992788 0.82663524 0.39641678 0.076241456 -0.23478487 0.027318839 -0.35365236 0.2548864 0.56609905 -0.2677319 0.04890428 -0.37404063 0.56218094 0.40443778 -0.034153726 -0.16908823 -0.48464677 0.34592113 0.0964731 0.038244136 0.07517937 -0.089712955 -0.2263921 -0.14636084 -0.408349 0.58805704 -0.23466022 0.06925137 0.5329807 -0.1853486 -0.29936764 0.17103791 -0.31772146 0.75140685 0.45110863 -0.075439475 0.42445913 -0.52974385
rmṯ 0.13687961 0.20510846 0.57441735 0.21033734 -0.6744522 -0.0006221624 0.27386957 0.23471367 -0.16631489 -0.06412805 0.6468462 0.017939163 0.03230717 -0.44818592 -0.105832696 -0.28071064 -0.33951926 0.2428228 -0.449894 -0.18577453 0.19799581 -0.3313135 0.3609638 0.17696366 -0.21457994 0.10495702 0.09012374 0.30140117 -0.18559259 -0.25092992 -0.03646669 -0.2503706 0.6039856 -0.2040032 -0.05414514 0.19042365 0.30691698 -0.78131765 -0.34858963 0.00059050607 -0.08320534 -0.007327575 -0.36286196 -0.08493215 0.27874386 -0.0793004 0.0957917 0.22957113 -0.08332111 0.22592115 -0.122380316 0.29180622 -0.03780311 0.15957946 0.12987435 0.4817483 0.17622566 0.30463293 0.4622187 -0.52968454 -0.1070976 -0.18116975 -0.2994873 0.7070754 0.17882448 -0.1130201 -0.116491266 0.4323329 0.13025773 0.08284267 0.24140891 0.33577514 0.36260593 0.009792896 0.17183082 -0.013944365 0.88259363 -0.28805986 -0.6047822 -0.08309689 -0.04449315 -0.008352127 -0.1455826 0.91698164 0.22182532 0.19005445 -0.3342269 -0.038659513 -0.46561986 0.08024066 0.49829388 -0.40917167 -0.0174149 -0.23361434 0.43029565 0.3727921 0.006980836 -0.10105332 -0.62990147 0.3996198 -0.016008845 0.1465102 0.26333064 -0.17008103 -0.3487792 -0.26663876 -0.41855225 0.23450796 -0.1938014 0.1970569 0.50827205 -0.08702995 -0.3080868 0.08147687 -0.08607814 0.6779595 0.52080965 0.05048837 0.14449775 -0.48727384
ḥḏ 0.42190546 0.21684887 0.17226428 0.14095278 -0.22391422 0.27373403 0.536768 0.12815124 0.0017546585 -0.011166434 0.43657976 0.16179095 0.31546488 -0.41772047 0.021869043 0.2654253 0.06523268 -0.051261697 -0.45226657 -0.28455392 0.07818838 -0.39741778 0.014311472 -0.28133234 0.008684038 0.29497492 -0.0078074154 0.43302238 -0.07795481 -0.19716412 0.108159035 -0.30105188 0.29681605 -0.16018537 -0.616715 0.4382356 0.2512941 -0.036925074 -0.37789965 0.20632012 -0.27136526 -0.19238782 -0.29746962 -0.11338227 0.10840951 -0.09850268 -0.18536155 0.14665161 -0.14291076 0.22907013 -0.35847634 0.3302351 -0.4354619 -0.08951219 0.44296634 0.27028814 -0.38655865 -0.1171345 0.22943477 0.1529058 -0.4998479 0.057083327 -0.3970291 0.041626014 -0.1808074 -0.18775147 0.036499728 0.33679196 0.3361543 0.3631717 0.5538716 0.14262517 0.01241944 -0.36813018 -0.15237483 -0.16683653 0.59233177 -0.2785342 -0.51151246 -0.34572372 0.17502591 -0.008629895 0.17703098 0.2131205 -0.0058610393 0.07871328 -0.47997832 0.3315546 0.032759327 -0.5087739 0.42434815 -0.2666069 -0.2074016 0.12484164 0.6450724 0.44526848 -0.2657024 -0.15543099 -0.25939614 -0.15840909 -0.33530104 0.20078714 0.30914158 -0.2970552 -0.24339701 -0.19899626 0.08791556 0.036946353 -0.22244866 0.16367894 0.2608222 0.12657727 0.15088524 0.04252101 0.36796826 -0.0050766543 0.20924853 -0.07543285 -0.04603658 -0.2315402
4 0.999089 0.13361706 -0.3342322 0.15275216 0.1552236 0.6567461 0.88502777 0.25749063 -0.07825628 -0.5004603 0.6856528 0.023284184 0.82645375 -0.3673846 -0.09086223 0.47448125 0.29609665 -0.1462335 -0.8757526 -0.46713468 0.26114744 -0.9257259 -0.12037647 -0.8316787 0.080874264 0.2513805 -0.013146812 0.8331209 -0.21406682 -0.4557002 0.4232938 -0.77521753 -0.08062178 -0.48466152 -1.0554514 0.37744647 0.552624 0.46546757 -0.81502056 0.38574907 -1.0019997 -0.6188009 -0.577576 -0.19714564 0.41362056 -0.17688619 -0.40571883 0.1700162 0.33630696 0.37654752 -1.1217016 0.5385242 -0.8685505 0.44804013 1.1133373 0.5823578 -0.5676076 -0.38450754 0.28555316 0.9715084 -0.70436805 0.9694838 -0.76974994 -0.72749734 -0.5418545 0.10589703 0.14393356 0.5600781 0.06298824 0.36812368 0.95301306 -0.13566521 -0.93604624 -0.9343272 -0.3374723 -0.9313951 0.45163694 -0.4410073 -0.5245498 -0.7015516 0.25265068 -0.20214066 0.16778702 0.5782649 -0.20980032 0.10349115 -0.5959661 0.46544167 0.628858 -1.0339758 0.888536 -0.24760331 0.0042518917 0.29103062 1.5339123 0.99412775 -0.68362314 -0.23987912 -0.34043586 -0.23035304 -0.30104205 0.14592561 0.24478716 -0.4355582 -0.15998879 0.22466369 0.28915244 0.4086523 -0.3222272 0.30997565 0.18191566 0.1975703 0.7635223 0.357274 1.025755 -0.17439142 -0.2813576 -0.88873667 -0.15630566 -0.89558756
3 0.85904837 0.11144268 -0.3255297 0.10825787 0.17072953 0.56335485 0.76823115 0.22148634 -0.05424944 -0.401794 0.5632961 0.02812379 0.701396 -0.30619714 -0.05540275 0.44247428 0.27093545 -0.1584516 -0.73070717 -0.3942021 0.19303416 -0.7862288 -0.106858514 -0.70868313 0.0979994 0.24206287 -0.0078900205 0.72615767 -0.1521645 -0.37055323 0.38153723 -0.6766933 -0.11070448 -0.39672288 -0.9501259 0.34498784 0.43538192 0.45409366 -0.68591005 0.34670085 -0.87899035 -0.54746675 -0.49113435 -0.157231 0.3319917 -0.15661255 -0.36636376 0.15113501 0.2626569 0.30612618 -0.94970447 0.45516348 -0.78423077 0.34196487 0.9526312 0.4619001 -0.5180094 -0.34098715 0.22514315 0.90131223 -0.6303624 0.81143385 -0.65282154 -0.6614369 -0.47714943 0.08461767 0.092858836 0.459168 0.057265747 0.36023608 0.7996328 -0.12700164 -0.81096864 -0.8111431 -0.31908643 -0.77038455 0.34736955 -0.35439053 -0.4216411 -0.6052859 0.22756423 -0.17363535 0.1679249 0.4198396 -0.20155214 0.080396794 -0.5111318 0.41555363 0.5633541 -0.938287 0.74449897 -0.20162305 -0.02222447 0.2722735 1.2764366 0.8151869 -0.5610069 -0.19396505 -0.24326196 -0.2641748 -0.28065392 0.122896455 0.21827638 -0.3749659 -0.122797616 0.20980494 0.28383735 0.342036 -0.25572228 0.24355061 0.09975754 0.16730069 0.6871482 0.27189526 0.9011805 -0.21048737 -0.2820302 -0.73081625 -0.15122075 -0.72888994
20 1.0770509 0.14904907 -0.40304884 0.034532722 0.21431631 0.6223989 0.9072032 0.26757672 -0.034274276 -0.5449008 0.74805844 -0.033443503 0.88797975 -0.27658817 -0.039593767 0.587045 0.4022451 -0.15999468 -0.9978747 -0.5823785 0.17872843 -1.0716087 -0.12130008 -0.9486939 -0.005418768 0.26853275 -0.034788452 0.93103427 -0.23498939 -0.505501 0.47311094 -0.89241576 -0.08039326 -0.5450615 -1.0411913 0.41362515 0.62487054 0.48542726 -0.86462945 0.36986983 -1.109048 -0.64352214 -0.6994139 -0.21248472 0.53805864 -0.051628947 -0.50187284 0.17554042 0.45716694 0.44480106 -1.2847346 0.58199537 -0.9125864 0.566973 1.1552098 0.6662048 -0.6475206 -0.40176845 0.32940736 0.9711726 -0.65118134 1.1063083 -0.74310184 -0.7983435 -0.58410054 0.058722176 0.15916602 0.62392944 0.053498127 0.40629724 0.90131813 -0.13472544 -1.1355177 -1.0763432 -0.3927042 -0.95943004 0.3468708 -0.47320485 -0.52291375 -0.7462682 0.28307983 -0.22604947 0.03924703 0.61982757 -0.0988127 0.091205016 -0.61798817 0.55824053 0.75858015 -1.0452327 0.95011234 -0.15672778 -0.041635945 0.29825538 1.6869705 1.0911677 -0.7645226 -0.27264273 -0.32020223 -0.25806496 -0.2847502 0.07622954 0.1774095 -0.46357742 -0.1046674 0.26733455 0.36363938 0.63779485 -0.3790464 0.34211707 0.21389093 0.24378584 0.81303877 0.38077906 1.0169529 -0.13901979 -0.4089674 -0.9653228 -0.08622804 -0.95459527
ms 0.71825165 0.14102806 -0.2804771 -0.3589321 0.15988496 0.029638276 0.42188302 0.12202048 0.012726707 -0.29590246 0.50247985 -0.14265598 0.540121 0.03450304 0.13306323 0.41877234 0.37518567 0.024600761 -0.82775784 -0.540577 -0.1653896 -0.8742202 -0.028014513 -0.7004476 -0.28694507 0.05366507 0.0072815204 0.6482429 -0.18018912 -0.34987098 0.23634744 -0.66913605 0.1301725 -0.3755496 -0.2742695 0.30555615 0.5300257 0.123524666 -0.49145672 -0.00077411224 -0.58022946 -0.25088045 -0.7140398 -0.21413133 0.7266302 0.27452272 -0.33589733 0.028524883 0.55587757 0.46869412 -0.98362625 0.3016565 -0.30774572 0.6609991 0.59669405 0.6685379 -0.36487615 0.0046049114 0.35988244 0.2171935 0.094785154 0.811115 -0.2674824 -0.3863361 -0.28236535 -0.11200631 -0.008060523 0.45951933 -0.070125215 0.22205697 0.16139974 0.04783295 -0.8996648 -0.77752167 -0.28684297 -0.4019864 -0.12401223 -0.35525 -0.18728976 -0.4226187 0.1337469 -0.11762779 -0.45837915 0.48418367 0.42179766 0.09101243 -0.3000311 0.31804982 0.48432827 -0.3114292 0.55100226 0.13385741 -0.047222 -0.027201504 1.028119 0.6038119 -0.48464343 -0.12703255 -0.17450012 -0.03330948 0.049056057 -0.32802895 -0.2497242 -0.25722033 0.1011831 0.25370455 0.28804037 0.9575327 -0.3404951 0.25203395 0.29071277 0.10260327 0.1599985 0.28448153 0.21338306 0.24062966 -0.4473541 -0.58620846 0.38412157 -0.7287494
5 0.812236 0.11792998 -0.26481596 0.070164 0.107438155 0.5441087 0.7581206 0.20259838 -0.012499886 -0.3370391 0.5575132 0.074188545 0.6874326 -0.32143578 -0.011643549 0.5167628 0.28931457 -0.17810875 -0.7439313 -0.4467704 0.1478161 -0.75912684 -0.15404686 -0.73367184 0.065440066 0.3305377 -0.04696569 0.72709334 -0.156355 -0.36576292 0.3957005 -0.62046206 0.0039441534 -0.36774918 -0.9511534 0.43090323 0.45689487 0.42945856 -0.6609888 0.30448934 -0.805265 -0.49936128 -0.52423555 -0.1505474 0.31466424 -0.07704987 -0.41024026 0.10555162 0.21393809 0.3501189 -0.95953363 0.48490322 -0.7679588 0.2744943 0.920364 0.44258836 -0.62165916 -0.34242 0.23714367 0.808982 -0.65315837 0.74241364 -0.62979263 -0.58353907 -0.50792545 -0.008931861 0.1304146 0.46922693 0.20028414 0.425379 0.75902003 -0.05971463 -0.76415956 -0.8504852 -0.33044654 -0.6680259 0.33935258 -0.35302803 -0.42317706 -0.60427254 0.23764995 -0.13306385 0.16615885 0.32074574 -0.1103841 0.0921903 -0.5730201 0.487188 0.56611425 -0.9197369 0.69255674 -0.17160279 -0.11872426 0.268976 1.2420474 0.7723769 -0.56364644 -0.18210112 -0.23539773 -0.28093055 -0.33217746 0.1381677 0.19789827 -0.40772468 -0.1478569 0.13205235 0.33872792 0.33021805 -0.2991125 0.26846153 0.15687908 0.18998428 0.6197073 0.21510614 0.83628345 -0.23170836 -0.24866082 -0.653317 -0.13806371 -0.61271256
dbn 0.8525313 0.10999198 -0.1465423 0.19436933 0.026194256 0.6538551 0.9398618 0.25015667 -0.015866458 -0.18704279 0.61546034 0.18523216 0.74393517 -0.526977 0.025792552 0.6175479 0.31020063 -0.35342348 -0.7822557 -0.55010533 0.11814727 -0.6932754 -0.17505138 -0.85926807 0.2036234 0.53923047 -0.049767066 0.81542754 -0.14196795 -0.35109657 0.43765685 -0.5596387 0.11013221 -0.35317108 -1.1852015 0.6385516 0.364953 0.48405647 -0.70736146 0.33344337 -0.7616693 -0.55228376 -0.55198556 -0.115158 0.14741348 -0.11559493 -0.59127676 0.09627292 0.03003764 0.42239597 -0.9165328 0.61873335 -0.8876114 -0.025435196 1.0425142 0.36434504 -0.83232236 -0.49220622 0.26452455 0.8134263 -0.9176548 0.61605185 -0.7014987 -0.56786096 -0.6387941 -0.12789415 0.18512096 0.54598933 0.48011026 0.6120324 0.9379334 0.04613694 -0.59930646 -0.9329919 -0.37357977 -0.5415243 0.5342003 -0.42047226 -0.6192384 -0.7518835 0.33152214 -0.067452416 0.317336 0.13224144 -0.18556327 0.12163841 -0.7682124 0.70459807 0.5546707 -1.14894 0.6819979 -0.2343914 -0.33935773 0.39135987 1.3066902 0.8003358 -0.6053716 -0.20961817 -0.1739746 -0.45728514 -0.5765459 0.25006738 0.3728765 -0.4946987 -0.18319184 -0.00915139 0.40937567 0.12682468 -0.37279388 0.30412182 0.204177 0.31786147 0.6881893 0.10298777 1.0004766 -0.39221168 -0.16075225 -0.49012148 -0.2750369 -0.45818138
ptr 0.029251939 0.19468918 0.64239705 0.5084092 -0.7650628 0.2015168 0.39152843 0.2839423 -0.28658032 -0.22960408 0.61112446 0.075325556 -0.013360149 -0.5706252 -0.1836124 -0.5562121 -0.37570786 0.29176825 -0.31996295 -0.06443798 0.36725834 -0.17742454 0.3462529 0.2764129 -0.07624669 0.09287335 0.004476394 0.1804062 -0.19918014 -0.21782279 -0.045713447 -0.05854114 0.5122608 -0.19517687 -0.10127472 0.10017147 0.24418612 -0.8305431 -0.3906918 0.08475382 -0.12046365 0.09159974 -0.16633447 0.0786707 0.13375942 -0.28666905 0.09569941 0.36133474 -0.11749499 0.19744574 0.028428359 0.1742379 -0.022930782 0.05841118 0.20938657 0.35932514 0.24068499 0.16036549 0.48652515 -0.50886863 -0.359654 -0.23534402 -0.337038 0.6997442 0.1882497 -0.007474405 -0.025118109 0.4635149 0.21772666 0.0034331696 0.44164678 0.37925497 0.5467137 0.08136618 0.22928204 -0.061670493 1.2476243 -0.48465222 -0.7939496 -0.004989 0.0010889597 0.055110864 0.11613203 1.0152364 -0.033239182 0.18902238 -0.2746013 0.013149813 -0.6465329 0.056451086 0.65534216 -0.5838291 0.087790474 -0.14026855 0.530484 0.54974574 0.07886133 -0.13467966 -0.62334 0.45791727 -0.121876284 0.41928285 0.3612756 -0.18293315 -0.39279863 -0.3835454 -0.5912597 -0.110383935 -0.21348487 0.105959855 0.6219466 -0.07789684 -0.19741029 0.04340153 0.07824754 0.61271787 0.79016614 -0.0073199724 -0.08728653 -0.56208074
tn 0.010312181 0.26786345 0.95912075 0.48663813 -1.0440071 0.1094319 0.40397188 0.36301953 -0.26460648 -0.2504301 0.7510141 0.03261472 -0.16208388 -0.66295975 -0.20760284 -0.64650077 -0.44292694 0.3429355 -0.44725475 -0.18411787 0.42474574 -0.24798861 0.5150112 0.3224292 -0.19106282 0.07762783 -0.013200864 0.26052213 -0.21920504 -0.32603806 -0.1398658 -0.12470142 0.7677202 -0.29704294 0.05084027 0.09204867 0.3171639 -1.2226075 -0.4023857 -0.00024627254 -0.041782275 0.23366863 -0.29062265 -0.033213414 0.20197089 -0.3030398 0.26052108 0.42955926 -0.16992244 0.2859304 0.11934959 0.17674349 0.08797298 0.13146304 0.060185257 0.5093264 0.38841096 0.323386 0.5864753 -0.85739005 -0.26754162 -0.4082973 -0.315613 1.0120561 0.30215868 -0.10798493 -0.09910844 0.49625763 0.20664518 -0.01513757 0.4634053 0.58855647 0.7189979 0.2101384 0.24749258 -0.038287073 1.5194722 -0.5883619 -0.99907726 -0.018290307 -0.046171978 0.06278222 -0.025193572 1.3110384 0.049734596 0.28751653 -0.3763908 -0.10388624 -0.8204558 0.24730264 0.7616604 -0.7051407 0.029568458 -0.28505594 0.60222304 0.621057 0.10928827 -0.18629035 -0.86394125 0.69114506 -0.10301116 0.38935715 0.44376817 -0.1958491 -0.4310622 -0.47730407 -0.8061114 0.023563348 -0.33511078 0.14321528 0.86824113 -0.1544079 -0.37892273 0.0013665665 -0.0555022 0.95215344 0.9570538 0.030897295 0.0892594 -0.6962167
nḫt 0.662671 0.20637472 -0.29832724 -0.3228999 0.1860195 0.036657583 0.4562313 0.08817178 0.087182686 -0.27995527 0.4297634 -0.09328737 0.54089713 0.040057175 0.09388223 0.5003517 0.29088145 0.03352335 -0.7110004 -0.45780692 -0.06496517 -0.7484264 -0.052498277 -0.6191535 -0.21928 0.04864124 0.039743714 0.5857083 -0.25638348 -0.31858063 0.1615617 -0.6362628 0.11224447 -0.2965009 -0.32194346 0.3077513 0.51169497 0.18154123 -0.39297584 0.11853724 -0.51670694 -0.28818664 -0.5526628 -0.20966332 0.61144894 0.19872014 -0.17752509 0.015787644 0.4614338 0.381797 -0.8455586 0.2516443 -0.37165347 0.49646205 0.5596399 0.6019773 -0.36271232 0.0021962165 0.29800925 0.1923108 0.026744314 0.6495537 -0.31333265 -0.31240395 -0.21425909 -0.09591225 -0.005966942 0.33667582 -0.10874552 0.18629377 0.2449159 0.0041818945 -0.7321989 -0.64549094 -0.23487197 -0.3952305 -0.09085465 -0.30816716 -0.2553563 -0.3349776 0.093807235 -0.13078791 -0.30242983 0.34093055 0.3809921 0.071923286 -0.3440973 0.28002563 0.44701293 -0.30373675 0.5298892 0.14629982 -0.040660758 -0.019113634 0.95554733 0.61888283 -0.50556654 -0.14799556 -0.14486764 -0.077854924 -0.039798386 -0.23498496 -0.1257329 -0.26762953 0.01970287 0.15621665 0.30723697 0.87113106 -0.2656713 0.17542471 0.18485263 0.08960689 0.18693627 0.28403023 0.2527164 0.10787955 -0.3530363 -0.52034074 0.32325116 -0.5631694
rꜣ 0.20914166 0.28769535 0.6035306 0.011447479 -0.58156574 -0.14803791 0.25372958 0.11338649 0.017920675 -0.03476736 0.5894193 -0.00046263923 0.039595697 -0.27750567 -0.038952637 -0.09889961 -0.22872491 0.3869533 -0.5086537 -0.33493292 0.13520165 -0.39584982 0.3322258 0.0069934907 -0.46334043 0.053519826 -0.012437575 0.34044448 -0.18016616 -0.39048335 -0.14617543 -0.37416032 0.5355338 -0.27017647 0.09106174 0.21186365 0.34576747 -0.7826149 -0.23570696 0.033341028 0.036394674 0.2013656 -0.46914005 -0.22168903 0.45038205 0.1251696 0.27176255 0.09788851 0.0059882454 0.23365729 -0.24329709 0.18256237 -0.009614298 0.3142046 -0.04644484 0.5869343 0.11937076 0.53875804 0.39923197 -0.7182498 0.25051042 -0.19968538 -0.17378825 0.73386776 0.1498943 -0.22469594 -0.13433377 0.31704625 0.02444755 0.009845545 0.20878471 0.39676496 0.19734111 -0.017279383 0.10427676 -0.074559316 0.67621636 -0.29695266 -0.6347408 -0.024928581 -0.045110136 -0.08437706 -0.3215857 0.8152064 0.48702532 0.12227351 -0.40284675 0.0073277736 -0.23754671 0.27528986 0.47152007 -0.2018663 -0.053810764 -0.40258032 0.4099803 0.34878385 -0.10915904 -0.17108157 -0.5788617 0.4329091 0.14868411 -0.011642879 0.17210725 -0.09603823 -0.22424908 -0.15335031 -0.37270942 0.603148 -0.28109473 0.20417982 0.46633002 -0.13044831 -0.36220402 0.09601412 -0.32692146 0.7928631 0.43201652 -0.009571479 0.3656747 -0.35553405
ḳd 0.63039917 0.15981118 0.00048845744 0.21539779 -0.10838108 0.47190478 0.76973325 0.2042934 -0.022224164 -0.17392032 0.53926575 0.13047756 0.50810736 -0.4691281 -0.013044649 0.38271147 0.19736801 -0.25400203 -0.59360355 -0.40464354 0.12668166 -0.55126846 -0.06649001 -0.5750181 0.147316 0.3808206 -0.03175035 0.54727924 -0.12341714 -0.23855565 0.27109948 -0.3948461 0.18592903 -0.24668472 -0.89723086 0.4665543 0.32575196 0.19910279 -0.5856904 0.24321197 -0.5227783 -0.3732225 -0.3913895 -0.07955987 0.11366084 -0.18486185 -0.4068966 0.19675364 -0.04861888 0.31748083 -0.6140689 0.43152356 -0.6239444 -0.032079495 0.78797066 0.33073238 -0.5913788 -0.32781082 0.23646308 0.47325143 -0.781937 0.37510073 -0.5729657 -0.26996374 -0.35392174 -0.13917086 0.13868882 0.45859692 0.41682142 0.46004528 0.75604457 0.07604538 -0.25072566 -0.60861737 -0.23866521 -0.3807208 0.61424905 -0.39538082 -0.5669508 -0.5438562 0.2523674 -0.03970191 0.27287817 0.24110061 -0.15341713 0.13384266 -0.5889416 0.5043102 0.23362416 -0.85230505 0.58965725 -0.29968944 -0.2354302 0.32269162 1.0489984 0.70149636 -0.4026778 -0.18515298 -0.2394385 -0.25542575 -0.4971413 0.2459796 0.31966925 -0.43517688 -0.19886316 -0.1391723 0.21039723 -0.005173791 -0.289611 0.22337349 0.26301685 0.21000654 0.42807156 0.08862181 0.7363292 -0.17787427 0.024584122 -0.3158121 -0.18616319 -0.39257005
šrj 0.19713736 0.14754616 0.29809132 0.17767902 -0.45082492 0.15989362 0.3475183 0.15892082 -0.16570356 -0.20364653 0.49815464 -0.035563115 0.15889482 -0.34194207 -0.15065026 -0.14007534 -0.15421887 0.045928553 -0.42303774 -0.13008222 0.19031179 -0.3136658 0.13783927 -0.02480078 -0.09984921 0.08071358 0.010690312 0.2057933 -0.15663593 -0.21249042 0.0024357445 -0.18437922 0.39999783 -0.19511108 -0.19058514 0.10019378 0.3252842 -0.3916756 -0.35337228 0.11466112 -0.22832319 -0.028677294 -0.23793605 -0.05724515 0.20939282 -0.1408414 -0.034374885 0.2341564 0.038988896 0.2067687 -0.22679703 0.19784299 -0.107952185 0.12947978 0.35661632 0.32150644 -0.017646423 0.08080321 0.2998875 -0.19597858 -0.31542554 0.015645314 -0.3181777 0.34872198 0.060428634 -0.081891395 -0.032187264 0.37507617 0.19775054 0.10485286 0.3569308 0.19334298 0.1401271 -0.10307375 0.018381078 -0.12576425 0.74725306 -0.340107 -0.51986706 -0.13356681 -0.02674917 0.042968005 -0.004262155 0.67473125 -0.0009619624 0.18724135 -0.31174812 0.04690606 -0.24044773 -0.053714793 0.44250962 -0.26908088 0.07597833 -0.085795775 0.57751614 0.52612746 -0.057899114 -0.13049361 -0.46606818 0.3148601 -0.18142322 0.18867569 0.16340686 -0.24670918 -0.25103295 -0.24911986 -0.29532835 0.11726726 -0.20570579 0.16106325 0.47207394 -0.05185951 -0.10753791 0.11020002 0.12780899 0.40394908 0.3451375 -0.119203806 -0.0027486242 -0.45282295
jry 0.1090976 0.17758305 0.49336892 0.2637524 -0.59020394 0.09086353 0.33171177 0.22500099 -0.13028443 -0.1758223 0.5120965 0.028035956 0.054425757 -0.41187415 -0.12099954 -0.24795479 -0.22963466 0.18592945 -0.36417204 -0.15715969 0.23031364 -0.24644302 0.24807958 0.0750209 -0.1543934 0.09267215 -0.019308014 0.21817693 -0.15408562 -0.22963247 -0.0057468447 -0.15427627 0.48033118 -0.19889295 -0.07312015 0.15318209 0.2852829 -0.6141507 -0.31252638 0.045475446 -0.13755864 0.01893507 -0.25889954 -0.06366792 0.18845166 -0.14975727 0.08558576 0.22357886 -0.025017867 0.21678865 -0.097552955 0.14819935 -0.051863417 0.10543832 0.16617785 0.34211925 0.10028726 0.16407041 0.3646303 -0.42253345 -0.18596748 -0.12793015 -0.23856895 0.51609415 0.10721326 -0.10148873 -0.033908617 0.35158747 0.17713435 0.096857294 0.33523124 0.31818205 0.30395833 -0.0035074109 0.10180268 -0.056685984 0.8388369 -0.38794118 -0.66036975 -0.08878584 0.008751236 0.000886917 -0.013512489 0.8020707 0.07575521 0.16651434 -0.2855213 -0.002042731 -0.39120758 0.068449706 0.5394065 -0.38772824 0.033771 -0.1602199 0.53400105 0.45038313 -0.04262957 -0.12655032 -0.51962423 0.36227623 -0.10762668 0.20462361 0.21381196 -0.21097392 -0.31087977 -0.29254633 -0.4223054 0.13177621 -0.22693133 0.14820038 0.5408544 -0.057560816 -0.17503732 0.0668796 0.047259293 0.5144991 0.5050074 -0.06881423 0.03417517 -0.44557515
wr 0.3335865 0.26712906 0.20041741 -0.19479322 -0.26979965 -0.084215134 0.3179958 0.10897336 -0.011034472 -0.17342569 0.52706426 -0.090024516 0.27102718 -0.15400843 -0.0360716 0.22971311 -0.0894048 0.1452484 -0.5693109 -0.33855897 -0.0032622826 -0.46300244 0.15158848 -0.19173361 -0.30906147 0.08486885 0.049178734 0.35381475 -0.2523299 -0.26479512 0.018596567 -0.44292897 0.46449846 -0.24762592 -0.11264248 0.2798339 0.4484191 -0.35229886 -0.3030877 0.082509816 -0.22006278 -0.093387336 -0.49608263 -0.21224247 0.52680993 0.09380233 0.05780942 0.068931065 0.19808172 0.29210725 -0.4365294 0.16602468 -0.15079336 0.31808278 0.3229802 0.56696767 -0.15390661 0.24743521 0.39301607 -0.32467255 0.015680451 0.106880374 -0.27937406 0.33140385 0.10589818 -0.2247828 -0.06270533 0.3264068 0.023917062 0.17324685 0.21646774 0.233984 -0.086932875 -0.2837142 -0.08868325 -0.08398545 0.3961981 -0.3703855 -0.46686342 -0.1916355 -0.009301465 -0.03907411 -0.29714653 0.66444516 0.3627062 0.16672033 -0.3773145 0.091775686 -0.07123369 0.037260804 0.5008514 -0.030254325 0.024432745 -0.16892001 0.7221136 0.49597368 -0.20153786 -0.12793802 -0.42716447 0.25639322 -0.061273657 -0.06977832 -0.0021633566 -0.2705621 -0.17823884 -0.13915034 -0.08967244 0.6328151 -0.24103613 0.22723112 0.42080107 -0.071771085 -0.16436762 0.2045628 -0.016713353 0.5197262 0.07654536 -0.21690272 0.3414719 -0.49744827
njw 0.26763603 0.21761867 0.20223542 -0.04008159 -0.30557522 0.037486006 0.3419254 0.13150571 -0.010839721 -0.19589172 0.48806277 -0.04789111 0.24933614 -0.19059071 -0.098437645 0.07731824 -0.07218232 0.117404625 -0.4151264 -0.26057264 0.118556134 -0.4322034 0.1542541 -0.20746408 -0.19179034 0.024914796 -0.012371705 0.28617516 -0.21502699 -0.2618992 -0.0046144086 -0.31558684 0.3311252 -0.21820854 -0.10788279 0.16771765 0.3589767 -0.35824656 -0.286508 0.016317323 -0.16648607 -0.01641949 -0.38132963 -0.10325105 0.3940318 -0.0076181362 0.049640402 0.055751562 0.122474425 0.19792122 -0.28326556 0.07997623 -0.13255782 0.25799102 0.23696978 0.46151903 -0.08634501 0.17922166 0.32734 -0.20872131 -0.015385657 0.08186669 -0.23953724 0.27349958 0.054233164 -0.15722945 -0.0048090965 0.23182534 -0.024706936 0.07564254 0.24164739 0.1578896 -0.07090748 -0.22961903 0.001998459 -0.18338402 0.35759872 -0.26250127 -0.39275068 -0.10533923 0.0060256333 -0.028202686 -0.14094168 0.5483696 0.25919154 0.09849373 -0.2995902 0.13325109 -0.06899326 -0.022757825 0.38372242 -0.121740244 0.04136438 -0.1000916 0.6137623 0.41839537 -0.16353303 -0.092636555 -0.3402452 0.24460769 -0.03434916 -0.038765885 0.08569671 -0.16984966 -0.14335689 -0.08044798 -0.087857604 0.43112054 -0.19668284 0.13398553 0.34456468 -0.07956032 -0.06797798 0.19041276 0.009772772 0.34688127 0.16783129 -0.21249235 0.21874973 -0.37595898
jrm 0.0721894 0.2476052 0.617774 0.3648641 -0.76750433 0.14452367 0.36663294 0.24141054 -0.22189924 -0.15275884 0.5823089 0.07823018 0.04366119 -0.56287163 -0.14449458 -0.35427514 -0.33930412 0.18500917 -0.36283025 -0.14211977 0.29978353 -0.22215278 0.295026 0.18365626 -0.13353145 0.102660306 -0.027736232 0.19279362 -0.19783047 -0.18861103 -0.0401257 -0.12530617 0.5752314 -0.18682672 -0.15420331 0.18999873 0.3010293 -0.72447085 -0.3618438 0.083961785 -0.07150544 0.0062003187 -0.26263985 0.004214075 0.15048811 -0.20282386 0.07633722 0.28321087 -0.124944635 0.22406028 -0.06902746 0.1953148 -0.04658932 0.049200233 0.20945667 0.39144808 0.10838688 0.14001715 0.44793126 -0.5352475 -0.35513565 -0.24689254 -0.34229177 0.6882903 0.16007558 -0.10003471 -0.020011893 0.4376806 0.30157828 0.101103134 0.42077047 0.37892023 0.50124425 0.009347342 0.15974908 -0.019120373 1.120127 -0.45749566 -0.7627992 -0.080782145 0.012138126 0.046919603 0.057997614 0.9339275 0.05859537 0.2234192 -0.36271885 0.022803036 -0.56747484 0.041676905 0.605541 -0.4930165 -0.002543975 -0.12858361 0.5627161 0.50779575 0.005669834 -0.13982598 -0.611839 0.43670854 -0.18696798 0.31010586 0.3266017 -0.21478233 -0.40246198 -0.39341453 -0.4724813 0.0064332867 -0.23835829 0.1742881 0.61510366 -0.06603533 -0.22329225 0.065328516 0.07233778 0.5909055 0.6865515 0.015833372 -0.008421877 -0.46545842
jy 0.16823432 0.08706511 0.20877394 0.28196633 -0.33484432 0.2560647 0.33726493 0.1884262 -0.14741504 -0.24440062 0.35922584 0.0042358153 0.123133086 -0.3152577 -0.15695429 -0.16967209 -0.09118697 0.016832357 -0.22815885 -0.078175016 0.25125805 -0.17768042 0.12608515 -0.048703372 0.06388983 0.050642863 -0.044455204 0.10123764 -0.1237662 -0.11642851 0.038070068 -0.0842403 0.20786136 -0.15828352 -0.21602055 0.027673295 0.20948046 -0.27807048 -0.2798998 0.040920783 -0.20692559 -0.07121783 -0.11652723 0.03158924 0.12320695 -0.22385666 -0.046848923 0.20727299 0.019705364 0.0919478 -0.10522275 0.06126641 -0.09211358 0.087246716 0.30021656 0.20417401 -0.014817502 -0.07477553 0.22789766 -0.029077465 -0.3164747 0.027708128 -0.24822883 0.13591446 0.01021559 -4.3326338e-05 0.07841752 0.23403884 0.08915345 0.082532786 0.34131843 0.121772505 0.112554014 -0.10805522 0.06679217 -0.16588087 0.61044073 -0.32347798 -0.42598924 -0.15578896 0.042290058 0.020462008 0.14864703 0.52101153 -0.13262385 0.11321597 -0.1363183 0.08303013 -0.20358965 -0.15589799 0.41624284 -0.26595318 0.07565765 0.09808116 0.5227057 0.4347785 -0.06268193 -0.10504917 -0.31317517 0.21518838 -0.17263909 0.22464062 0.1633024 -0.14562872 -0.17607374 -0.1593339 -0.21960227 -0.06814411 -0.1298034 0.08558985 0.33669046 -0.011330473 0.07814882 0.06879129 0.25028718 0.18987559 0.26213172 -0.1798258 -0.098126926 -0.35769892
nbw 0.4917063 0.14927976 0.09266318 0.18076834 -0.18882488 0.35976514 0.64030427 0.18772519 -0.024156887 -0.039863557 0.4568184 0.16833536 0.37012166 -0.4567291 -0.017506447 0.28717682 0.08684592 -0.17093717 -0.5001765 -0.31572944 0.098543294 -0.40260723 -0.002163981 -0.38815948 0.12742795 0.34527716 0.0118375905 0.48041752 -0.072296895 -0.2033114 0.18967853 -0.31972703 0.27384755 -0.18967453 -0.7538705 0.42508963 0.25065053 0.08168313 -0.45247763 0.1883037 -0.36612144 -0.26352215 -0.36632517 -0.097171426 0.07131206 -0.16044186 -0.30407292 0.15460885 -0.13008611 0.25436452 -0.4390332 0.39886907 -0.51968735 -0.11565726 0.57235396 0.27532256 -0.45699677 -0.21018368 0.25734693 0.29208028 -0.63641995 0.178928 -0.4608387 -0.09569398 -0.28882295 -0.16933967 0.054847404 0.39970863 0.39672643 0.41527143 0.6398726 0.11496286 -0.07734384 -0.44567093 -0.18277623 -0.21720248 0.60043657 -0.32682735 -0.54994154 -0.43382412 0.18918629 0.01014673 0.2656388 0.19794026 -0.10965328 0.105500005 -0.54968005 0.37356022 0.123172596 -0.6773364 0.5098966 -0.288965 -0.24379563 0.18993579 0.79868954 0.53009695 -0.31282926 -0.12768042 -0.26421875 -0.23712264 -0.43773702 0.2360061 0.32295156 -0.35793224 -0.24070434 -0.16891119 0.14443998 -0.011937031 -0.24068427 0.1734917 0.28190872 0.17203878 0.2590077 0.02374606 0.52484685 -0.08711009 0.13062087 -0.13899744 -0.11934202 -0.28744978
hrw 0.3212536 0.1182316 0.16328211 0.26940963 -0.2533577 0.23960648 0.3895963 0.14371705 -0.18441457 -0.18390384 0.37958604 0.007103547 0.20145147 -0.30071062 -0.070835456 -0.02440498 -0.07887573 0.0017163544 -0.36067748 -0.15218434 0.18861048 -0.32861444 0.07482047 -0.08822923 3.9705006e-05 0.17373988 0.03293029 0.35848475 -0.16487196 -0.20776486 0.13731371 -0.21580288 0.14297599 -0.25723335 -0.41556895 0.10373878 0.26647356 -0.12593894 -0.41410664 0.20268823 -0.3948828 -0.23608288 -0.24588566 -0.074623935 0.10840158 -0.18629526 -0.10023953 0.14825289 0.010081568 0.15446754 -0.35285783 0.29893455 -0.34609023 0.12815917 0.42556977 0.20391539 -0.17095199 -0.13452014 0.2604603 0.22022927 -0.4864037 0.1363796 -0.4089549 0.06953715 -0.074343346 0.041242734 0.035874344 0.34018067 0.14185803 0.18080273 0.49442747 0.105337955 -0.060862392 -0.2481716 -0.10380449 -0.25700665 0.69281507 -0.2607223 -0.39436588 -0.2710638 0.048623715 -0.09045973 0.1608479 0.52930474 -0.11501908 0.12531419 -0.38037726 0.13959591 -0.03640197 -0.37653533 0.512753 -0.3190992 0.005754877 0.07249185 0.6013166 0.47477648 -0.16312204 -0.09077111 -0.39492595 0.10395325 -0.18420613 0.23740558 0.30450046 -0.22927274 -0.20838404 -0.12605168 -0.12235168 0.0016352974 -0.21348062 0.16663839 0.22694796 0.058928393 0.19570006 0.065902434 0.43709666 0.17148626 0.19723162 -0.26966754 -0.14892873 -0.45347804
ns 0.4948156 0.2638479 -0.08100915 -0.38306 -0.03916925 -0.15406321 0.29336748 0.07371434 0.0727494 -0.15309966 0.43250427 -0.051355332 0.38309506 0.033856392 0.14164765 0.35040662 0.13628821 0.20077386 -0.6630438 -0.40534183 -0.11215512 -0.6265139 0.072596975 -0.38982257 -0.37453693 0.023282098 0.050830428 0.48759785 -0.20174424 -0.31472 0.042116854 -0.56463194 0.30371588 -0.23679984 -0.051033206 0.32721844 0.4440321 -0.12242366 -0.2702821 0.041813426 -0.30079386 -0.12854287 -0.5700702 -0.22535342 0.62817585 0.28267634 -0.018966831 -0.012812112 0.36591175 0.36170116 -0.6465257 0.17508766 -0.18153721 0.44587544 0.27696273 0.6155807 -0.16554412 0.23605517 0.40982684 -0.20618545 0.2628806 0.37556773 -0.21806341 0.09202616 -0.02209686 -0.170678 -0.0903316 0.3009799 -0.07304026 0.09649864 0.07182992 0.15573084 -0.48024115 -0.44065356 -0.14050731 -0.18990993 0.0075372406 -0.29799303 -0.2682787 -0.13961557 0.03941887 -0.0957901 -0.4207348 0.4219915 0.5712617 0.04482539 -0.342242 0.18393694 0.2056022 -0.022339994 0.46268997 0.09442027 -0.00816551 -0.23778987 0.72862065 0.4458995 -0.34679574 -0.12167874 -0.232198 0.06915088 0.048511177 -0.26581123 -0.121265 -0.22444807 -0.073182054 0.05364204 0.09958377 0.9465764 -0.25025186 0.12594782 0.28352764 0.011630462 -0.109941036 0.2585063 -0.08138457 0.36741045 -0.12214032 -0.33735037 0.5132568 -0.5214318
mꜣꜥ 0.6247068 0.20281045 -0.08962109 -0.47415107 0.06152896 -0.4399823 0.35098356 0.14062949 0.052271783 -0.09508149 0.54292154 -0.32454482 0.30612832 0.06453503 0.20567074 0.1831482 0.26440448 0.15435703 -0.87224036 -0.43540326 -0.293906 -0.86660326 0.39249095 -0.3423883 -0.30063525 -0.20791432 0.37616098 0.55728096 -0.1781468 -0.27230644 -0.08953745 -0.73625374 0.4582272 -0.23584919 0.21516672 0.12974365 0.4533487 -0.35788706 -0.2679063 -0.2021301 -0.30007267 0.07367849 -0.6702813 -0.1908081 0.9204071 0.25300553 -0.04721809 0.23509 0.5760836 0.4491177 -0.4709833 0.12273473 0.12162294 0.68940246 0.16163635 0.82759976 0.12635389 0.47556272 0.52450985 -0.5004166 0.6002663 0.4000414 -0.020291813 0.02425838 0.18768026 -0.1931921 -0.3523258 0.45582584 -0.40573093 0.032642163 -0.23529401 0.17073958 -0.42574772 -0.22262773 -0.078143924 -0.08206537 -0.052826393 -0.42562106 -0.1830688 -0.12775512 -0.046573203 -0.05247348 -0.75698346 0.58625877 0.69204 0.13449326 -0.13010329 -0.14911973 -0.073475316 0.17675635 0.502604 0.115461834 -0.11505697 -0.3832046 0.67299277 0.44923446 -0.23564894 -0.09998797 -0.21942474 0.0642295 0.2025265 -0.648563 -0.2977901 0.013503006 0.18247007 0.21420808 0.022548847 1.2973243 -0.22671996 0.05412612 0.3465037 -0.05942617 -0.2710966 0.35924613 -0.46415538 0.8260442 -0.3276956 -0.14751726 0.86918944 -0.7354909
