1729 100
t -0.19309194 0.1787932 0.09798362 0.48363853 0.41731265 -0.48490307 0.35767972 0.70382303 -0.4486541 -0.1327707 -0.21358483 -0.3653424 -0.086152636 0.25403577 0.1411837 -0.42359573 0.2916073 -0.19503497 -0.27113864 -0.62564445 0.117019884 0.25059718 0.31536832 -0.3208461 0.25638545 -0.28117502 -0.40241727 0.02128116 -0.6255284 -0.10007238 -0.0101315705 -0.20463328 0.30565682 -0.08738317 -0.32429567 0.6601055 0.10226263 -0.10809908 0.012922073 -0.37032536 -0.120285705 -0.3777126 -0.12150721 -0.07322325 0.31674942 -0.118754156 -0.36565486 -0.048975956 0.23049444 0.25388527 0.08774241 -0.28029057 0.028208114 -0.1066546 0.03807362 -0.060164064 0.35226437 -0.078367025 -0.4402629 0.079002135 0.04843737 -0.16597633 0.07531167 -0.31434697 -0.24865668 0.12857567 0.05322573 0.31319785 -0.5280102 0.31251338 -0.25062236 0.12978844 0.34462482 -0.13374886 0.36905614 -0.054848198 0.23057267 -0.11405101 -0.26603127 -0.30028215 0.009120456 0.11784552 -0.27203783 0.38758793 -0.19120564 0.043206748 0.26700115 -0.061759613 0.2742084 0.30978996 0.28468528 0.17753492 0.072614275 0.14303428 0.47592628 0.3042086 0.013072304 -0.11534793 0.18687874 -0.00466367
n -0.35623154 0.6968302 0.13450043 0.37510067 0.31995544 -0.8334816 0.15382731 0.6509028 -0.11274576 -0.39764878 0.08481765 -0.5188361 -0.10297809 0.289506 0.36072466 -0.124674864 0.3747044 -0.09720135 -0.18394017 -0.6998617 -0.10462614 0.21256205 0.15038937 -0.46447688 0.06121074 0.34021237 -0.5234027 0.022441987 -0.37728438 -0.035783466 0.44354078 -0.016632501 0.068055205 -0.21766484 -0.15801375 0.20656313 0.2354269 -0.1823883 0.041944265 -0.41190308 0.0021924044 -0.4086762 -0.0528758 -0.19736412 0.32839286 -0.48268855 -0.19619736 -0.12529619 0.2559304 0.24952449 0.25606087 -0.08102112 0.16915977 -0.18166588 -0.262781 0.18166927 0.3500022 0.16577272 -0.17214285 0.22076368 0.4134856 0.047328543 0.14439815 -0.06361678 -0.10720428 0.40843216 -0.12862617 0.51836485 -0.31441268 0.4634798 0.10301239 -0.0229217 0.2504297 0.25408727 0.33204624 0.1057184 -0.21201698 0.096603446 -0.109090716 -0.2771131 -0.4612491 -0.072355025 -0.34778738 0.33838588 0.101261824 -0.1955156 0.5492376 -0.086630926 0.38902184 -0.14225964 0.70896184 0.02360641 0.1453104 0.06820993 0.5497719 0.1728414 0.16900833 -0.2830011 -0.41879067 0.0054861372
m -0.1857711 0.34876087 -0.030870114 0.29509723 0.3592812 -0.6108198 0.31470704 0.7483326 -0.45676994 -0.26659465 -0.12465159 -0.43801668 0.101136774 0.18183644 0.32920676 -0.42947093 0.1609751 0.0044088033 -0.35756692 -0.690087 -0.083842054 0.04254499 0.2572771 -0.38372666 0.14838566 -0.27921918 -0.35912463 -0.13186628 -0.47274318 -0.02652088 0.33100307 -0.12651007 0.32167494 -0.19564416 -0.37947962 0.5965203 0.3466022 -0.10049999 -0.042306166 -0.39377812 0.173563 -0.40395793 0.026140077 -0.09937231 0.2851766 -0.19770643 -0.31937164 0.052341446 0.15783338 0.11201292 0.2249603 -0.36036158 0.14830486 -0.101430275 -0.25672862 0.042107232 0.21728411 0.031998895 -0.28936833 0.013606967 0.27815852 0.0005115548 0.35180935 -0.22455694 -0.33777964 0.22592722 0.029356355 0.3201426 -0.5801682 0.35389134 -0.16207603 0.043022014 0.34118557 0.06628816 0.4083751 0.18945248 0.116728775 0.071700566 -0.35646 -0.1878326 -0.106260926 0.00486109 -0.38409323 0.2787998 -0.17397782 -0.085196026 0.22716267 0.0609784 0.4701853 0.25310403 0.5827689 0.27201152 -0.0020308597 0.101185806 0.6958692 0.18221916 0.13887173 -0.33015296 0.12672317 -0.13371418
w -0.43210313 0.72656316 0.202514 0.18792759 0.349345 -1.0227066 0.45044464 0.6052321 0.18675777 -0.72808397 0.33939564 -0.36826056 0.08554526 0.30092275 0.4621575 -0.45290983 0.59399223 7.81757e-05 -0.497811 -0.57064456 -0.33941594 0.4619016 0.18120871 -0.35436314 0.14373785 0.2303685 -0.715601 0.014671567 -0.44918492 0.034188863 0.66249454 -0.003371403 0.04766654 -0.43303168 -0.30785623 0.3886529 0.4061206 -0.33099473 -0.05056179 -0.60467744 0.05150679 -0.46411213 0.07400239 -0.44969887 0.27681172 -0.6883154 -0.29897553 -0.013692651 0.14444187 0.24754743 0.42412698 -0.25205293 0.052493688 -0.39597553 -0.5116471 0.19451715 0.5025529 0.3935692 0.029408287 0.13641818 0.6013309 0.12051373 0.73708224 -0.17186388 -0.35032746 0.55496097 -0.23820125 0.5365652 -0.50500613 0.28580037 0.28735942 0.2836253 0.22713563 0.32051116 0.4382939 0.25573063 -0.46350574 0.095956914 -0.4745671 -0.17346032 -0.44620126 -0.052720074 -0.4665561 0.4597059 0.0075105927 -0.2532146 0.588144 -0.12722996 0.34200275 -0.16429923 0.833271 0.20150943 0.09355891 -0.09213023 0.8048799 -0.032394767 0.107588135 -0.42080927 -0.38397852 -0.13924657
f -0.08542058 0.44444013 -0.042012494 -0.044391632 0.33488163 -0.6563225 0.45946744 0.90045947 -0.80911505 -0.67339957 -0.015024491 -0.7630088 0.4060717 0.27536657 0.28777367 -0.48171768 0.116204716 0.23789462 -0.76056135 -1.2975483 -0.02302692 -0.14666925 0.23327617 -0.27612025 0.2517143 -0.39604726 -0.5907623 -0.32483765 -0.23175156 -0.21730702 0.59145254 0.07565213 0.6031889 -0.5377638 -0.28007433 0.88817567 0.80152994 -0.09743129 -0.1109326 -0.33859476 0.5583925 -0.62054646 0.19300157 -0.18010056 0.024183456 -0.5414994 -0.30951172 0.61352545 -0.030862326 0.33955294 0.4134936 -0.6309623 0.3322404 0.007855279 -0.57843506 -0.1598663 -0.015504271 -0.025713095 0.04219726 -0.18290578 0.72619826 -0.011018834 1.0337759 0.05805978 -0.46550032 0.46525013 0.07718863 0.32908267 -0.802964 0.39612693 -0.032899786 0.2984471 0.42213678 0.3589132 0.41002184 0.304001 -0.1185811 0.3693974 -0.40503666 0.13772184 0.071143925 -0.18055198 -0.42442563 0.051292058 -0.2383066 -0.0073050335 0.5010187 0.009428858 0.34339383 0.5177981 0.7192717 0.34900194 0.08359103 0.17863984 1.0767798 -0.036364105 -0.028349001 -0.75805044 0.21255076 -0.23887886
j -0.030350737 0.45990852 -0.049389087 -0.17135203 0.27658784 -0.90654236 0.5735034 1.0078846 -0.8546485 -0.948701 0.04310499 -0.9052373 0.56317663 0.22667529 0.28977573 -0.5254329 0.05687432 0.4276589 -0.97853273 -1.4491386 -0.10424259 -0.18696843 0.2943217 -0.33267418 0.18388788 -0.54886246 -0.59736663 -0.4707622 -0.07506757 -0.17652836 0.79985017 0.048912153 0.80464745 -0.7423715 -0.36942387 1.152657 0.9770809 -0.1331201 -0.120394185 -0.35399508 0.8580502 -0.74222124 0.28909394 -0.2516453 -0.045848295 -0.7058415 -0.31683543 0.816946 -0.06324933 0.41284332 0.4820987 -0.77366924 0.5435787 0.0623902 -0.77523595 -0.08082478 -0.0855197 0.09846625 0.1690028 -0.2561756 1.0088427 0.075453006 1.3225216 0.113834925 -0.50743127 0.5503309 0.074653335 0.27010143 -0.8709368 0.3604827 0.056629267 0.32167295 0.5033728 0.5342654 0.54506564 0.42359143 -0.19799128 0.4617273 -0.48131746 0.23752618 0.109141424 -0.15899864 -0.6024711 0.036188886 -0.33131823 -0.008146227 0.5291427 0.14137602 0.37302935 0.66741645 1.0217311 0.43704125 0.07876048 0.1853302 1.2569035 -0.0698459 -0.03730753 -1.0782124 0.3634166 -0.38605163
ḥr -0.095992275 0.29633114 0.031958777 0.13512278 0.50057834 -0.6007368 0.59644514 0.8414196 -0.82274514 -0.6168316 -0.040916353 -0.6798904 0.37228656 0.37625033 0.21707454 -0.5175686 0.2256083 0.12562113 -0.6611122 -1.1372576 0.053810444 0.003516814 0.19094943 -0.21048756 0.40135902 -0.41821298 -0.529812 -0.16272056 -0.31125906 -0.25544763 0.46997276 0.06937769 0.48144472 -0.4071937 -0.27772087 0.88414645 0.6247681 -0.13430393 -0.08602519 -0.45372498 0.2768789 -0.591454 0.20195799 -0.2660416 0.055053778 -0.40832508 -0.37459671 0.45487022 -0.014013482 0.34153464 0.32558337 -0.557337 0.14404161 -0.047935106 -0.41266787 -0.3118046 0.11888357 -0.016846556 -0.0904316 -0.18419814 0.51853603 -0.040255502 0.89890444 -0.030920492 -0.51856816 0.43218902 0.031635262 0.2311123 -0.7755897 0.31983146 -0.14964868 0.40513328 0.38755733 0.27935708 0.4332167 0.05918079 -0.04912851 0.29898596 -0.45371377 0.10157239 0.15015258 -0.19440411 -0.4423534 0.16739066 -0.21230009 0.039514787 0.50478745 -0.17654535 0.2536056 0.47159368 0.4094445 0.38496462 0.09780061 0.18842018 0.8749411 0.03332594 -0.052801054 -0.6156661 0.25611955 -0.14855814
pꜣ -0.3769384 0.7855688 0.16660656 0.4172854 0.29607075 -0.95456547 0.13739976 0.6408949 -0.047838997 -0.44518185 0.1114195 -0.50229484 -0.08441198 0.2403393 0.34445652 -0.1374714 0.42404386 -0.111635655 -0.1484947 -0.6769492 -0.15847814 0.25852555 0.0793604 -0.4481965 -0.035323318 0.46665326 -0.5470457 0.019861486 -0.4070373 -0.008296889 0.40813425 0.018645598 0.0045093796 -0.25186354 -0.13879986 0.10763588 0.20653982 -0.18938453 0.007980877 -0.43077317 -0.05238336 -0.40547892 -0.05645373 -0.18064019 0.39288273 -0.58308184 -0.2461876 -0.095543705 0.30773643 0.21640569 0.21888809 -0.009986739 0.2318314 -0.2250652 -0.3108153 0.24033141 0.30981228 0.19888602 -0.15461287 0.24273103 0.4895404 0.06464125 0.16169237 -0.026750447 -0.09080349 0.4119438 -0.20101681 0.63708824 -0.30803165 0.4609936 0.19034109 -0.0055740355 0.22971094 0.24396467 0.3432818 0.20551321 -0.2164577 0.068110876 -0.095531546 -0.31067646 -0.45780534 -0.033299908 -0.36954457 0.37442362 0.12399837 -0.22208676 0.55903685 0.02419741 0.3768076 -0.19765636 0.76566875 0.0069663767 0.12139323 0.11350348 0.5593083 0.14688274 0.21315148 -0.33032197 -0.46021953 -0.05697494
jw -0.048590776 0.2660348 -0.01566226 0.09196479 0.4696567 -0.52258503 0.5867572 0.85390824 -0.9704389 -0.6116091 -0.11272349 -0.79577005 0.49967903 0.29541716 0.2373425 -0.4919551 0.04156929 0.20117038 -0.81863296 -1.2030795 0.14855747 -0.10161449 0.2577761 -0.25091076 0.3407334 -0.57714397 -0.44946283 -0.2949986 -0.19136731 -0.2684488 0.44476825 -0.03930429 0.70082814 -0.46993434 -0.2774042 1.067091 0.6666037 -0.039320536 -0.08790601 -0.36049977 0.4439829 -0.56500435 0.2485695 -0.17751323 -0.006387015 -0.37835285 -0.28756216 0.61068755 -0.064805664 0.35651666 0.34367278 -0.63340455 0.30307874 0.0006769245 -0.38937014 -0.2790175 -0.02041623 -0.00048414737 -0.013996585 -0.23482318 0.5195314 -0.07805458 0.8984663 0.0074254577 -0.51991713 0.3803481 0.11543135 0.17451757 -0.8095684 0.33041912 -0.23732361 0.3235079 0.4843784 0.28213146 0.3974379 0.0767658 0.019069288 0.29338777 -0.44004497 0.17857265 0.20396513 -0.12407961 -0.4495306 0.012224124 -0.24171148 0.113717824 0.37199828 -0.06529472 0.22648245 0.65791065 0.4119706 0.3944212 0.069566734 0.19766723 0.8870731 0.077550426 -0.1112021 -0.62997574 0.477943 -0.18974622
r -0.13065799 0.4577845 -0.020728933 0.024293268 0.3862531 -0.8118941 0.52528924 0.8141498 -0.57338864 -0.80951345 0.16838843 -0.8329761 0.50707376 0.3846313 0.28203538 -0.49893603 0.34829047 0.22170621 -0.72775954 -1.2170452 -0.09701813 0.0307057 0.12494347 -0.31667268 0.3089146 -0.2900811 -0.6156837 -0.31956875 -0.30404073 -0.2490345 0.7388451 0.085299484 0.5038172 -0.5747745 -0.32584623 0.82604945 0.720165 -0.1466595 -0.053972475 -0.4783938 0.41399327 -0.5195044 0.18774648 -0.3561601 0.012759273 -0.60777575 -0.35088146 0.5742315 0.05459459 0.3427234 0.41455904 -0.55541205 0.24838413 -0.06257919 -0.56324565 -0.15236326 0.12027555 0.07688627 0.08415401 -0.12732618 0.77201426 0.07413698 1.1030694 0.04469877 -0.5053289 0.523018 -0.14615284 0.27293858 -0.7097614 0.348849 0.09655078 0.3360677 0.33171496 0.37069193 0.44856903 0.30224463 -0.29746157 0.30550566 -0.4690205 0.121767364 0.03508359 -0.18840325 -0.50193805 0.18063724 -0.20700805 -0.065276474 0.58214146 -0.1263446 0.3944021 0.43914887 0.71147335 0.41172016 0.09595407 0.2227097 1.0077164 -0.065484904 -0.08411467 -0.7648848 0.13460389 -0.29173666
k -0.08471978 0.68819505 -0.01875354 -0.29518417 0.27432644 -1.1604681 0.6145061 0.9138069 -0.5249906 -1.2488145 0.37041557 -1.1034261 0.7668805 0.3884515 0.36762503 -0.5998613 0.40814018 0.45437905 -1.0245383 -1.5146024 -0.2292624 -0.010818725 0.17650779 -0.38733733 0.22306302 -0.2857422 -0.8276524 -0.5463572 -0.22288741 -0.21411753 1.1076113 0.14279959 0.68478703 -0.91947716 -0.35457945 1.0449872 1.008505 -0.23456082 -0.098622605 -0.5920416 0.6916466 -0.7292467 0.26965848 -0.45312342 -0.118150815 -0.98637116 -0.33174244 0.8263565 -0.026293565 0.4612875 0.5824591 -0.75826067 0.44900402 -0.12818505 -0.88559675 -0.036696516 0.042312942 0.21195 0.3280206 -0.1586773 1.2446866 0.14816031 1.6120307 0.18471433 -0.5840711 0.8163116 -0.20880623 0.35636416 -0.823118 0.38870245 0.3579234 0.41441372 0.42486066 0.7075674 0.55443186 0.6466289 -0.627784 0.4335525 -0.60477406 0.2919324 -0.03549838 -0.19684716 -0.66434944 0.21311414 -0.23531759 -0.114551745 0.8180245 -0.030583711 0.4833435 0.4963374 1.2282338 0.5050546 0.15235779 0.22039099 1.3288945 -0.20063868 -0.07851087 -1.2123263 0.08551593 -0.52598614
ḏd -0.21170925 0.95035434 0.02373332 -0.13397616 0.26040632 -1.1758248 0.5363029 0.8015962 -0.3165763 -1.137287 0.45543024 -1.0042313 0.5686823 0.40453446 0.5019245 -0.41767436 0.4782705 0.33728015 -0.8657391 -1.4046321 -0.3072613 0.08168128 0.018588701 -0.4273615 0.13549879 0.058579545 -0.8206785 -0.4234142 -0.22133218 -0.24905722 1.068617 0.15966427 0.36008525 -0.7694231 -0.25905943 0.5747482 0.9023152 -0.16316794 -0.057396606 -0.5615244 0.48293114 -0.5471338 0.18163112 -0.39292476 -0.0524397 -0.9295515 -0.26816264 0.6510657 0.05262194 0.3785018 0.54711956 -0.5769627 0.33819082 -0.13372593 -0.85291314 0.10748255 0.16463682 0.24025126 0.35200182 -0.04528551 1.1406676 0.19810873 1.3795158 0.19786683 -0.4400212 0.85064256 -0.32975104 0.52261215 -0.6542691 0.38864282 0.42093632 0.38108668 0.35331398 0.64763045 0.4119833 0.64264 -0.7514426 0.3935252 -0.51898086 0.13522594 -0.22712134 -0.2622692 -0.51902014 0.16825406 0.0037551604 -0.21812963 0.7855526 -0.15331858 0.4751243 0.20397802 1.0896138 0.37925422 0.11801954 0.18620533 1.2415053 -0.22660293 -0.056828406 -0.9324645 -0.27987054 -0.4091138
s -0.46819735 0.78470117 0.20539047 0.16745533 0.34197268 -0.80825 0.41080126 0.4953381 0.23899038 -0.6761277 0.38795608 -0.48275304 0.114485525 0.4672413 0.4044983 -0.47801366 0.75783885 -0.10031479 -0.43428877 -0.65584874 -0.29388857 0.50974876 0.010567128 -0.2683552 0.24887498 0.38917825 -0.7884359 -0.028951274 -0.5679563 -0.057679202 0.651372 0.039214015 -0.072299466 -0.44621575 -0.24939157 0.20287178 0.28164765 -0.27948838 0.0147927515 -0.6841752 -0.22590211 -0.3157894 -0.0053974064 -0.4542776 0.15113378 -0.70827365 -0.2657886 -0.040858097 0.12574677 0.30697703 0.34742597 -0.24966732 -0.12973954 -0.4021567 -0.37393543 0.05256715 0.5716382 0.22909798 0.058389258 0.16192394 0.5549773 0.034496937 0.7635852 -0.09965292 -0.34053132 0.70381707 -0.32723054 0.5518311 -0.49033764 0.31646457 0.39005852 0.43888652 0.19588579 0.2722786 0.29517826 0.22513439 -0.6038443 0.041123204 -0.46473035 -0.19213812 -0.38011828 -0.17306921 -0.35319602 0.51322275 0.08941238 -0.29598954 0.71181697 -0.4085339 0.28987655 -0.20080628 0.63864076 0.20758642 0.1611201 -0.017495586 0.70020115 -0.060557786 0.010547917 -0.30617085 -0.5042725 -0.10822568
jmn -0.7633741 1.0661811 0.13917468 0.8328257 0.43370417 -1.1204227 0.07584812 0.59015185 0.44480667 -0.06072017 0.013308276 -0.24500875 -0.6544146 0.27453798 0.56806403 -0.15713501 0.7981375 -0.5995326 0.3639827 -0.2503695 -0.23574044 0.75923294 0.19586347 -0.6237349 -0.08850595 0.794567 -0.67298794 0.1399175 -1.1279304 0.09237532 0.3221039 -0.22722168 -0.38847655 0.11552258 -0.21674027 -0.29960358 -0.48061764 -0.17847818 0.1382886 -0.8304323 -0.77328765 -0.30371672 -0.41246617 -0.17966019 0.77955806 -0.3352369 -0.36918905 -0.96659875 0.6289101 0.01098559 0.111220464 0.23575345 -0.22630665 -0.44730854 0.14583199 0.52654815 0.9681731 0.15022938 -0.6738624 0.56581455 0.0015023561 0.033156693 -0.4670462 -0.4765499 0.0455244 0.43058935 -0.4047495 0.8877635 -0.14856988 0.5430652 0.08097693 -0.21307792 0.18001288 -0.05121859 0.43029004 0.23339869 -0.32619128 -0.33850148 -0.12249898 -0.9161177 -0.8595933 0.061598625 -0.22359398 0.91083676 0.40863946 -0.46332374 0.60546553 -0.067411505 0.64668363 -0.7415016 0.77700716 -0.01993703 0.13194528 0.036116265 0.3025778 0.3654439 0.4280791 0.2368019 -0.9539479 0.076817274
tꜣ -0.36257294 0.7435584 0.10632253 0.3867021 0.4787518 -0.9282459 0.28454888 0.6776504 -0.10991467 -0.5199409 0.1672126 -0.6220661 0.039890606 0.35711682 0.27944118 -0.2917029 0.5504419 -0.13979122 -0.13569024 -0.7086935 -0.05213032 0.28861797 0.025099888 -0.40427384 0.09294875 0.28999394 -0.56331193 0.005952601 -0.5486933 -0.11819128 0.4171565 0.005665231 0.043059085 -0.2819969 -0.22757006 0.24565396 0.2262351 -0.17219925 0.051573854 -0.5471843 -0.17016816 -0.41842556 -0.034037467 -0.26613864 0.40179318 -0.4968768 -0.3000204 -0.06840769 0.2865287 0.2531467 0.2647779 -0.0691732 0.103021 -0.29138651 -0.20955597 0.09010297 0.40866786 0.14567988 -0.256964 0.14408451 0.43735 -0.017263902 0.27912968 -0.07105201 -0.18924592 0.42164636 -0.22537176 0.4781019 -0.35360128 0.44221136 0.12802099 0.016612072 0.24799682 0.20788021 0.32834476 0.21343024 -0.26539683 0.045836862 -0.2043616 -0.26515198 -0.29147413 -0.053258866 -0.3689928 0.42089394 0.14094485 -0.15246168 0.64868873 -0.104963 0.39411134 -0.08310315 0.6643293 0.09390167 0.11829184 0.17317083 0.56153256 0.10522068 0.12343416 -0.34473428 -0.3837857 -0.059106987
sw -0.3302441 0.09389159 -0.052879747 0.98951614 0.68087214 -0.61925006 0.22007778 1.1304077 -0.46247348 0.5012164 -0.8463784 -0.18494982 -0.8240664 0.05343223 0.2871327 -0.42588925 0.029050576 -0.47104892 0.05207994 -0.45409438 0.10004938 0.34817854 0.7535702 -0.6836881 0.0055267694 -0.40385342 -0.27980906 0.041478027 -0.9871335 0.03356623 -0.39187416 -0.45021072 0.47086853 0.19965 -0.55705386 0.75512296 -0.4203226 -0.122808196 -0.17314437 -0.22182883 -0.03492274 -0.47343424 -0.25297394 0.25107422 0.7871714 0.21617435 -0.46672228 -0.76267195 0.6213582 0.024095003 -0.0016340537 -0.16827002 0.06437735 0.053625345 0.39241847 0.2375477 0.5983855 -0.18084826 -0.8754267 0.31111506 -0.40566233 -0.224979 -0.7455842 -0.67209536 -0.07953017 -0.14423424 0.2159298 0.49402583 -0.54617333 0.5012908 -0.74446833 -0.27410394 0.48791197 -0.49733186 0.66989946 -0.15056443 0.8812471 -0.42747477 -0.23314108 -0.7987815 -0.2957399 0.34258512 -0.31925705 0.50280553 -0.28559604 -0.0072096176 -0.08961596 0.3305352 0.5709301 0.29447678 0.4984536 0.0862466 -0.022667477 0.20225668 0.32548732 0.697445 0.32100183 0.47162187 0.2546122 0.11822786
pr -0.6332895 0.9289311 0.20565815 0.7927008 0.39708522 -0.9659688 -0.016776614 0.7553021 0.32577914 -0.019382067 -0.09232593 -0.25745255 -0.6410254 0.24125601 0.42299807 -0.069311365 0.49490267 -0.4753803 0.11269706 -0.37863156 -0.11199515 0.53944415 0.29858688 -0.5498255 -0.12704198 0.73205924 -0.56463104 0.15351394 -0.6912882 0.16657159 0.18925507 -0.17328572 -0.16687767 -0.0100566335 -0.18308192 -0.06842384 -0.26243877 -0.26775718 -0.0027375575 -0.50724435 -0.39784434 -0.34871012 -0.24970117 -0.10728577 0.6798147 -0.40725228 -0.2519111 -0.70844704 0.46633983 0.17541276 0.09917633 0.17860292 -0.0094965855 -0.29809535 -0.016125808 0.41517657 0.6358663 0.14713305 -0.4711246 0.52132136 0.14472836 -0.037229005 -0.42467833 -0.2719169 0.10689688 0.36859494 -0.19333905 0.8348543 -0.22582333 0.599383 0.06580863 -0.09747774 0.20204085 -0.014911213 0.38935494 -0.02305207 -0.020256056 -0.2104844 0.022879086 -0.67970484 -0.77076495 0.057490688 -0.3497812 0.6131042 0.19816764 -0.33644056 0.43951583 0.012873989 0.39119002 -0.5260611 0.7465337 -0.17396945 0.20173346 -0.0056721256 0.30367833 0.38351452 0.31266782 0.17401631 -0.7244412 0.15012448
pꜣy -0.1599913 0.628409 0.04599748 -0.03248853 0.3139385 -0.899494 0.47852945 0.7525179 -0.46469504 -0.884912 0.21432902 -0.8567198 0.5284758 0.35828203 0.36593658 -0.4532434 0.28784582 0.27310133 -0.7279461 -1.1551944 -0.1060436 0.00331908 0.09237293 -0.33014575 0.21024103 -0.14537205 -0.64546114 -0.31355786 -0.192612 -0.16865844 0.7552135 0.11853325 0.45053563 -0.6417132 -0.25268432 0.7646901 0.7594022 -0.16487733 -0.075308174 -0.48053974 0.4419675 -0.5853261 0.23640381 -0.31310225 0.031159092 -0.70936173 -0.31023133 0.55701387 0.03675064 0.33320993 0.46266085 -0.4816629 0.35556778 -0.13521385 -0.620548 -0.04262707 0.113247134 0.17703748 0.18397124 -0.06265321 0.8388451 0.08163487 1.0570319 0.119855985 -0.39840016 0.57264674 -0.13391621 0.37038288 -0.646295 0.36965054 0.18697488 0.29159528 0.35761636 0.50246507 0.4426099 0.37172517 -0.34958583 0.33735082 -0.4307967 0.14895414 -0.1290934 -0.17423289 -0.48646978 0.13862675 -0.10048965 -0.07835691 0.6137224 -0.092348896 0.39747924 0.32800046 0.8755381 0.35420826 0.119399436 0.1472345 0.99378496 -0.052614544 -0.054097015 -0.80165535 0.0051388615 -0.2867678
jr -0.018330052 0.28011638 -0.030199053 0.13894565 0.38937855 -0.7484999 0.47435868 0.833012 -0.590454 -0.5341303 -0.1026647 -0.4882153 0.19352455 0.16836025 0.22724666 -0.35832277 -0.009820893 0.26381642 -0.57791924 -0.8148827 -0.0029393553 -0.10165972 0.28808182 -0.35272676 0.14683498 -0.45256102 -0.37504542 -0.18831894 -0.09796204 -0.1087202 0.38426796 -0.046775773 0.54999775 -0.35302997 -0.28866616 0.78555626 0.48872736 -0.10477255 -0.06492955 -0.2271425 0.5398288 -0.5331451 0.23302107 -0.06544061 0.08904322 -0.36727065 -0.2145931 0.3229879 0.07135757 0.26409346 0.28434837 -0.45166814 0.35770303 0.013921768 -0.38987255 0.020848108 0.009973434 0.13217154 0.017152477 -0.10103268 0.48687702 0.062176865 0.5775866 -0.027428797 -0.3386688 0.2793971 0.16524586 0.17980313 -0.5443973 0.23353493 -0.12928937 0.07772071 0.4113619 0.24767488 0.42761904 0.11826189 0.094882675 0.2311364 -0.34440026 0.015127335 -0.039558508 0.032932363 -0.4644567 0.08488551 -0.1450684 0.035433058 0.268787 0.17539038 0.23247053 0.41074562 0.6290379 0.2541991 0.015451324 0.12855132 0.74573404 0.08465758 0.024363143 -0.5289943 0.2916085 -0.1409501
ꜥ -0.67168725 1.1591504 0.23624398 0.46103337 0.31956914 -1.1187195 0.33590412 0.43957072 0.62903214 -0.6339181 0.53125685 -0.42351806 -0.052463975 0.5126024 0.5463983 -0.3017219 1.000925 -0.26897478 -0.2109035 -0.4267184 -0.39201036 0.7426952 -0.05995712 -0.46772376 0.08512183 0.8118108 -0.84800416 -0.018179586 -0.7267222 0.014171125 0.7309542 -0.021081487 -0.34418187 -0.3363922 -0.24117185 -0.13762674 -0.027344188 -0.31584182 0.08981823 -0.83021176 -0.4795843 -0.1813102 -0.12825964 -0.47305295 0.32153705 -0.7310346 -0.30645216 -0.40330923 0.3271214 0.2385585 0.26435044 0.024390614 -0.2556173 -0.5348985 -0.26760444 0.34565914 0.8523228 0.33520576 0.0017899829 0.3664978 0.5167702 0.0643611 0.3995243 -0.1873768 -0.16322696 0.79808575 -0.59436023 0.70891297 -0.27396458 0.36243415 0.48836547 0.27372476 0.11400892 0.24277326 0.2958434 0.31320485 -0.7579234 -0.088737555 -0.36693823 -0.45354035 -0.7360575 -0.14399442 -0.3325699 0.68907154 0.32833216 -0.47335294 0.7808606 -0.4656048 0.4069645 -0.6365048 0.7651245 0.08330923 0.13276538 -0.018435633 0.5116824 -0.013521111 0.03570561 -0.10567781 -0.93904173 -0.03790977
nb -0.35102686 0.7219189 0.13140945 0.046574555 0.3666739 -1.0172132 0.50460184 0.4761903 0.16176082 -0.8842541 0.4796113 -0.6263894 0.321153 0.46755692 0.4509585 -0.5170015 0.7142292 0.0424714 -0.47608045 -0.7270118 -0.3249772 0.48358747 -0.042050052 -0.36833084 0.20789571 0.22587956 -0.752367 -0.16788816 -0.6270796 -0.15225092 0.81674653 0.03171839 -0.027289875 -0.47321692 -0.3023067 0.3077441 0.37588853 -0.23559059 0.0865823 -0.7684296 -0.0854897 -0.3972224 -0.00626483 -0.42413282 0.18267947 -0.75552624 -0.36153704 0.09861109 0.23117998 0.23952349 0.44178212 -0.29933158 0.016048359 -0.4073654 -0.51393086 0.17348799 0.5573589 0.27754277 0.051191278 0.075692296 0.68139535 0.17522842 0.8687223 -0.14316435 -0.44773006 0.7210524 -0.46778104 0.508534 -0.4265667 0.27014816 0.38417068 0.30536023 0.18818578 0.3753754 0.40797454 0.5238936 -0.7158834 0.10419062 -0.55396485 -0.14213306 -0.3602494 -0.13095261 -0.46131456 0.5176173 0.09317483 -0.27013332 0.7774399 -0.3022356 0.49412107 -0.11240485 0.8396537 0.36726364 0.07882862 0.08548796 0.8981459 -0.087655954 0.04571878 -0.53725475 -0.48258063 -0.2925467
ꜥꜣ -0.56078815 0.9616221 0.23045273 0.53202415 0.3171227 -0.97209597 0.13317114 0.5983576 0.28367117 -0.43993092 0.27438864 -0.4574177 -0.082276314 0.39001387 0.37265027 -0.26713747 0.71359587 -0.20683075 -0.16925383 -0.571016 -0.24351764 0.43487054 0.06970196 -0.43882993 0.06022124 0.6568067 -0.6993661 0.04012615 -0.51231277 0.05543028 0.53663474 0.02771312 -0.072865166 -0.366137 -0.19337374 0.036463458 0.104651496 -0.32040286 -0.014048955 -0.5909497 -0.24823295 -0.34430897 -0.052615967 -0.3749344 0.3707869 -0.714496 -0.2491829 -0.25628448 0.2998878 0.25507668 0.29783064 0.032750946 -0.0031298653 -0.35232896 -0.3202753 0.19619289 0.53701854 0.26191786 -0.15210575 0.33381298 0.52874476 0.049238216 0.2367209 -0.050213125 -0.11363085 0.5256939 -0.2840426 0.6686291 -0.34726384 0.51096237 0.34789413 0.13704082 0.15726885 0.21882375 0.37668025 0.14686364 -0.35489178 0.031197893 -0.17546341 -0.34647003 -0.5913931 -0.10424868 -0.39128166 0.49512923 0.08300321 -0.31444022 0.6603787 -0.17790018 0.34303033 -0.3100394 0.83078635 -0.026943535 0.18655495 0.03163857 0.4940551 0.09650756 0.16688074 -0.20619288 -0.66348934 0.009830974
jn -0.19174267 0.57452834 0.018638697 0.10845788 0.2933411 -0.72954 0.33240512 0.6902451 -0.38663343 -0.61599404 0.10996385 -0.74085134 0.32779622 0.33353722 0.34342486 -0.34538114 0.29585233 0.12540752 -0.51925945 -1.0560921 -0.08915367 0.108553894 0.06544536 -0.28103408 0.22909349 0.003960738 -0.6180559 -0.19469488 -0.28326318 -0.1387478 0.5770812 0.12053897 0.31606585 -0.48332095 -0.23221326 0.6101022 0.6398378 -0.15754941 -0.11296702 -0.40814647 0.24349535 -0.4828328 0.08388983 -0.28791782 0.14318149 -0.5491303 -0.2853831 0.37787056 0.08872831 0.2430462 0.3842987 -0.38389206 0.18963544 -0.06771593 -0.45281005 -0.009866818 0.16183218 0.053118546 0.049258053 0.013711452 0.63144493 0.02747034 0.83492285 0.09584725 -0.29738012 0.46607897 -0.15254198 0.39126787 -0.5830338 0.4091915 0.10788528 0.20762107 0.23268202 0.29661283 0.30259717 0.28499436 -0.35272816 0.20169169 -0.3513592 0.017919237 -0.13359526 -0.1413426 -0.31719092 0.12873465 -0.09134344 -0.06797634 0.5245861 -0.095365524 0.38502258 0.24256516 0.7036979 0.20873484 0.09231078 0.16024254 0.8034949 -0.061281834 -0.018795466 -0.5715283 -0.08274059 -0.18522461
nꜣ -0.26496768 0.61086726 0.11974318 0.18743755 0.32945418 -0.97586566 0.38179362 0.7981096 -0.23624527 -0.65306276 0.12371422 -0.5103696 0.18200783 0.2240921 0.40702465 -0.36204544 0.30992693 0.10035701 -0.5324638 -0.807805 -0.14389715 0.1622903 0.29034358 -0.44123077 0.08795595 -0.0149198705 -0.54115903 -0.086278215 -0.2099611 -0.0031548818 0.6199591 -0.008004561 0.3112091 -0.4641003 -0.3273497 0.61195713 0.5158174 -0.23444055 -0.12363631 -0.42626125 0.41951254 -0.5141448 0.19767725 -0.34495074 0.21423328 -0.6201407 -0.30917063 0.2037366 0.0864762 0.24692856 0.39231053 -0.3402974 0.29607797 -0.15359294 -0.56602347 0.15939559 0.20286466 0.3209123 0.007820625 0.012626515 0.65092456 0.07844673 0.660664 -0.046992578 -0.3095459 0.43186504 -0.045811545 0.3592381 -0.5454657 0.35863942 0.062411226 0.19465668 0.27609286 0.32568944 0.51569664 0.22945473 -0.12897937 0.2145969 -0.3322697 -0.023730757 -0.27440876 -0.08965744 -0.54807824 0.2151466 -0.15757301 -0.12314056 0.4369584 0.07996195 0.30894995 0.16948132 0.8502259 0.17845505 0.030865682 -0.024771418 0.8128561 0.03440574 0.13637595 -0.5047095 -0.080051064 -0.086850785
ḫr -0.30074218 0.72410816 0.09390395 0.27806902 0.24418248 -0.9772321 0.25088102 0.7248646 -0.19828214 -0.5751878 0.11208791 -0.5459475 0.0506658 0.22511028 0.3151638 -0.21210256 0.28487214 0.10225595 -0.4048338 -0.8106125 -0.187396 0.1141532 0.11436546 -0.38064933 -0.0032289992 0.16329263 -0.5071433 -0.13185482 -0.2251227 -0.033691682 0.54814786 0.060297836 0.24431619 -0.3629108 -0.17186575 0.3349117 0.43779716 -0.2126478 -0.015622191 -0.32486546 0.22194073 -0.48461372 0.08545574 -0.21003194 0.27597997 -0.6110895 -0.18537433 0.14665122 0.20972618 0.26700217 0.32623747 -0.1457305 0.31795204 -0.14340524 -0.40736446 0.19518952 0.21942575 0.23770465 0.0019708502 0.122616366 0.626271 0.09752891 0.42097202 0.03499641 -0.18120037 0.40049946 -0.12416377 0.44854835 -0.40583733 0.43469867 0.16279688 0.0011200544 0.30441463 0.33308837 0.38041604 0.26092148 -0.17916237 0.21330005 -0.20640203 -0.14548226 -0.3134408 -0.029360335 -0.41808715 0.25899267 0.026317397 -0.15392487 0.45148042 0.09221216 0.3374807 0.028267954 0.8797798 0.048747484 0.1242708 0.08596947 0.6936937 0.0724442 0.16639577 -0.5153902 -0.25440258 -0.14126132
tw -0.07330035 0.57083666 -0.02915788 -0.08037821 0.3309406 -0.85462266 0.5534101 0.93727535 -0.5927619 -0.8430892 0.13577114 -0.85282964 0.5124524 0.3302459 0.25250205 -0.54679036 0.33719957 0.26159525 -0.8746865 -1.3564473 -0.054651145 -0.021979447 0.20092069 -0.31883872 0.28885338 -0.31055608 -0.7438892 -0.40351513 -0.254382 -0.18265624 0.7615367 0.09412557 0.5898965 -0.6924829 -0.30266708 1.0043696 0.8287605 -0.18324639 -0.1475935 -0.5098904 0.4873202 -0.68591523 0.23459756 -0.33457363 -0.009217054 -0.7216201 -0.3305383 0.6207535 -0.02647589 0.4562161 0.41674888 -0.6736776 0.28632683 -0.06773142 -0.6749006 -0.14895156 0.05812981 0.070430115 0.05676442 -0.10355054 0.9173896 -0.011165371 1.2344348 0.114491835 -0.46413916 0.6199046 -0.04305853 0.3378542 -0.8205526 0.37362412 0.09794267 0.36404604 0.35746917 0.4093523 0.4523973 0.34142777 -0.36128682 0.36030298 -0.4756775 0.20985493 0.019667154 -0.13749899 -0.5658183 0.18142244 -0.23706517 -0.03823406 0.65250415 0.0011158355 0.3359069 0.4731948 0.83980083 0.35963675 0.17002885 0.16125175 1.0676624 -0.092179894 -0.096900724 -0.8761601 0.15037067 -0.31376857
1 -0.32644406 0.059050392 0.0188949 1.4230574 1.1887431 -0.94760305 0.5277674 1.7590642 -0.9578444 0.56856257 -1.2874153 -0.02206712 -1.1121863 0.03059296 0.25508076 -0.67732763 -0.080272526 -0.72212416 -0.0949876 -0.6740222 0.45555744 0.3131213 1.2490364 -0.9271036 0.02308923 -0.7596996 -0.4332492 0.21712299 -1.2257485 0.15409786 -0.6383659 -0.7118143 0.723093 0.41521505 -0.6790581 1.3650384 -0.662367 -0.20417126 -0.12100951 -0.3717801 -0.019276645 -0.95907825 -0.2077937 0.3893518 1.1199082 0.21683206 -0.50321835 -1.0386959 0.6827923 0.3410574 0.020651156 -0.27985626 0.25165948 -0.028544914 0.44621637 0.21305834 0.58533686 -0.15801612 -1.5193464 0.31432033 -0.5837097 -0.4335828 -1.1744306 -0.9456236 -0.16477576 -0.22826716 0.6819632 0.57430685 -0.8930198 0.7193462 -1.2097725 -0.39091244 0.81246895 -0.6592672 0.8836601 -0.5708032 1.4481919 -0.44294992 -0.13120113 -0.90654063 -0.28556454 0.6426825 -0.7721295 0.78779256 -0.25664982 0.11248605 0.006330358 0.65841067 0.5337839 0.45359018 0.5410684 0.031071775 -0.021596542 0.13923222 0.44454846 1.0073006 0.46526498 0.4581374 0.56764704 0.2886827
rꜥ -0.9282019 1.1817074 0.276698 0.76293814 0.74106634 -1.3947448 0.56771237 0.3885272 0.8652983 -0.57211 0.5314228 -0.40356717 -0.4032204 0.69325835 0.63842684 -0.55801266 1.4240814 -0.6712485 0.18691456 -0.2051288 -0.50065523 1.337575 -0.120058656 -0.58673555 0.23239796 0.88048935 -1.0308131 0.24776702 -1.5827559 -0.12193425 0.7051449 -0.15655729 -0.7794777 -0.08835472 -0.32606748 -0.34954908 -0.455141 -0.28678215 0.34467342 -1.4037023 -1.276606 -0.28935894 -0.47983366 -0.5675338 0.770361 -0.65653276 -0.5528405 -0.9117431 0.72866637 0.13612211 0.23991542 0.13403754 -0.44296557 -0.8114613 0.14504017 0.47097433 1.5620625 0.3693474 -0.53461295 0.5005901 0.1523199 0.0782335 0.01679261 -0.6348119 -0.33416465 0.87242746 -0.9370929 0.9945834 -0.21697284 0.4205666 0.39278063 0.21390118 0.18563415 0.039311733 0.428332 0.36463803 -1.0379883 -0.45016438 -0.63429606 -0.9856904 -0.8560926 -0.016303798 -0.30094588 1.3144778 0.60008967 -0.59465814 0.988819 -0.6213333 0.78729475 -0.8525868 0.8219135 0.20652461 0.19600934 0.042874828 0.6077502 0.27862397 0.29347202 0.10815518 -1.2783903 -0.13807094
rdj 0.014804114 0.23924303 -0.09800011 0.020138608 0.34743735 -0.47235036 0.46207288 0.7532857 -0.73373544 -0.52810925 -0.05685325 -0.6762723 0.46693575 0.2349758 0.08775181 -0.40026832 0.07552693 0.20013879 -0.651527 -0.96069014 0.11899078 -0.18113068 0.21569297 -0.14899334 0.2629452 -0.51412946 -0.35328838 -0.2976179 -0.08851067 -0.17441052 0.4359619 0.02648954 0.62299883 -0.48940063 -0.25124004 0.90135956 0.5694853 -0.07957924 -0.1221083 -0.29119667 0.41922346 -0.46526706 0.26530412 -0.20853546 -0.0694868 -0.32999817 -0.21636826 0.5244438 -0.10085349 0.33707616 0.2371535 -0.55155474 0.25266558 0.03337554 -0.34770158 -0.26897204 -0.078182474 0.005306884 -0.017203245 -0.19692686 0.55180323 -0.08930024 0.8203108 0.077133864 -0.39006603 0.32783392 0.08610855 0.06264015 -0.6239296 0.25147164 -0.09347704 0.26074535 0.37004676 0.28719917 0.3296119 0.08531334 -0.017362341 0.27796894 -0.34350044 0.20919143 0.21155475 -0.10198942 -0.42265183 0.018028291 -0.28497264 0.08782688 0.34784785 -0.024732184 0.16465273 0.56382054 0.4056287 0.31878865 0.037546884 0.18197231 0.6801024 -0.01584503 -0.1454876 -0.65697145 0.4189059 -0.17878726
sn -0.22019558 0.57762057 0.08497809 0.06282721 0.48233056 -0.8196412 0.49944314 0.7587968 -0.5849848 -0.87196404 0.18896013 -0.91254973 0.62736815 0.4918087 0.36407426 -0.61614865 0.40939376 0.17480582 -0.75517625 -1.2782216 -0.11090115 0.070011504 -0.0023640995 -0.2476546 0.3765112 -0.07561151 -0.69108313 -0.23966748 -0.3250218 -0.21170434 0.70469177 0.21598224 0.3463655 -0.63053364 -0.21300116 0.7657281 0.81376237 -0.25930715 -0.04640703 -0.5470585 0.22040164 -0.6203889 0.252424 -0.35062656 0.093835935 -0.7668744 -0.42229182 0.6569612 0.09159058 0.31856656 0.52125585 -0.44494596 0.2713953 -0.14258844 -0.67996347 -0.20050834 0.18865392 0.16710326 0.13534644 -0.060399316 0.82982606 0.0678322 1.1477846 0.116397716 -0.55858034 0.5297327 -0.23590544 0.4331188 -0.7890722 0.45786494 0.14518766 0.42285597 0.24170297 0.34447256 0.44412822 0.3475224 -0.33507344 0.38642576 -0.51851493 0.14374289 -0.07999608 -0.20233649 -0.5942305 0.15290986 -0.175931 -0.012969339 0.6357922 -0.13490269 0.5134496 0.37111703 0.8112008 0.44489408 0.105397716 0.2688814 1.0347232 -0.032057468 0.011615399 -0.8373937 -0.008580517 -0.3207884
wn -0.16587932 0.5841042 0.013437744 0.09949561 0.3216936 -0.7289725 0.43226257 0.74331325 -0.45236993 -0.61250126 0.12913696 -0.7452441 0.37057585 0.30339453 0.30685058 -0.41971186 0.29201758 0.14383127 -0.577423 -1.0993936 -0.064483084 -0.020347128 0.078084014 -0.30419296 0.2301002 -0.10944505 -0.612473 -0.24783066 -0.2720511 -0.17998968 0.6484902 0.09434181 0.4158873 -0.50379056 -0.24063237 0.6325315 0.6772886 -0.12762696 -0.09382674 -0.4209178 0.2675958 -0.5363698 0.19926678 -0.2789117 0.08346537 -0.57858384 -0.27700236 0.4029364 0.064962275 0.33151886 0.35566303 -0.3977245 0.22371562 -0.042210117 -0.50193614 -0.080955915 0.16722168 0.08848937 -0.00052310916 -0.006555543 0.69749314 0.027374694 0.8607667 0.07819319 -0.37790084 0.4525487 -0.091672346 0.32796165 -0.609575 0.3459258 0.08169352 0.20874256 0.29971218 0.34411865 0.3930804 0.23622967 -0.27961558 0.31715935 -0.36728182 0.015119885 -0.08664844 -0.17767791 -0.42685002 0.14938535 -0.14569914 -0.067911565 0.52286124 -0.089975044 0.35723302 0.25863102 0.675597 0.24598403 0.11074102 0.14694522 0.86814755 -0.013735765 -0.049502596 -0.64115226 -0.05524911 -0.18979076
wt -0.2700712 0.5061808 0.19734015 0.14149773 0.3645355 -1.003319 0.40000367 0.6317976 -0.014844281 -0.69791967 0.2200291 -0.56074566 0.28159064 0.33734325 0.36792204 -0.54066914 0.41673324 0.07145878 -0.53957033 -0.77576286 -0.19426459 0.3203061 0.25151044 -0.46443006 0.20986435 0.013358172 -0.6738543 -0.0797885 -0.39451116 0.037339073 0.6334515 0.033455078 0.28146476 -0.5130972 -0.37936774 0.68322575 0.47041705 -0.34375408 -0.06711773 -0.5261998 0.26989928 -0.5714922 0.18044014 -0.35221222 0.27709162 -0.68375057 -0.35041788 0.21968688 0.18642025 0.2241875 0.5076887 -0.27883613 0.2893488 -0.25404257 -0.6008913 0.16212702 0.29848486 0.37179878 0.003777962 0.11984095 0.7040545 0.1166031 0.73536766 -0.11271236 -0.31626782 0.3971768 -0.17859371 0.38759986 -0.5137121 0.38242194 0.1421067 0.22912335 0.21300611 0.3092089 0.5671885 0.31572983 -0.2784529 0.13543846 -0.39815152 -0.020446017 -0.3116272 -0.047545765 -0.60732704 0.26674166 -0.1658772 -0.10359813 0.5041704 -0.03742465 0.45947745 0.17710038 0.9684405 0.2590932 -0.006568677 -0.013798974 0.84527045 -0.03618485 0.04637099 -0.50803894 -0.1379503 -0.22100976
2 -0.19726758 -0.07240391 -0.0058213007 1.080289 0.9230087 -0.66835093 0.42356768 1.4648587 -0.88292223 0.4273549 -1.0481573 -0.092412814 -0.8090726 0.013934904 0.18882631 -0.5476608 -0.14760993 -0.53033 -0.15947989 -0.63712084 0.3757086 0.18094508 0.9721452 -0.6963059 0.11401611 -0.7621885 -0.30709705 0.14019632 -0.8857005 0.1020084 -0.5447236 -0.5549357 0.7147154 0.2423055 -0.5499327 1.2013804 -0.41244906 -0.18271044 -0.15947045 -0.24570207 0.06663491 -0.7657161 -0.10605127 0.3038579 0.8467923 0.20087877 -0.4299833 -0.6873565 0.49643797 0.29693186 0.01314175 -0.3153077 0.22345842 0.0480695 0.36818177 0.054169748 0.404538 -0.14910299 -1.1269329 0.2249983 -0.47784585 -0.3496535 -0.8204569 -0.7045436 -0.20358935 -0.20598713 0.57956094 0.41518995 -0.8004606 0.5547937 -1.013678 -0.24665777 0.67997205 -0.5285694 0.72098696 -0.49286526 1.2114332 -0.2937023 -0.17472157 -0.6514562 -0.110005006 0.47354648 -0.5836429 0.5426678 -0.32646194 0.17355359 -0.07012388 0.4938926 0.3981926 0.52888536 0.38755515 0.09195167 -0.019392349 0.15144882 0.4082511 0.8263853 0.3242277 0.32429147 0.613334 0.21292087
10 -0.3681363 0.073330075 -0.0015008193 1.314916 0.9578547 -0.80053294 0.37842762 1.5413992 -0.74384356 0.588686 -1.1419215 -0.11059927 -1.0183762 0.06451086 0.30168447 -0.58849645 -0.008656538 -0.7058947 0.025049021 -0.5660879 0.28212118 0.33699754 1.0321479 -0.81780994 0.07123549 -0.6382651 -0.31585833 0.07805346 -1.1947743 0.13643785 -0.5478838 -0.6146575 0.6214919 0.28058112 -0.66178876 1.0869298 -0.6112901 -0.1742946 -0.14928114 -0.36345392 -0.13968821 -0.6863458 -0.25893858 0.34017953 1.0370584 0.27998134 -0.51903427 -0.97887975 0.6917715 0.17583163 0.012848194 -0.19536805 0.100411594 -0.0024616756 0.49649715 0.19167447 0.59874743 -0.20389646 -1.2993681 0.3507933 -0.60756594 -0.33492127 -1.0563774 -0.86381876 -0.14474924 -0.19978178 0.43149742 0.5306093 -0.7695387 0.6286111 -1.0276221 -0.33882755 0.65244734 -0.63195884 0.8507932 -0.4177435 1.2391406 -0.5003655 -0.20031002 -0.92404264 -0.26759416 0.48796543 -0.53185004 0.6313702 -0.31718895 0.041170076 -0.064093485 0.48628923 0.62285584 0.40202808 0.52701455 0.0749471 -0.012439971 0.20994551 0.3987005 0.94131356 0.40186247 0.50513977 0.42494467 0.20770618
mtw -0.11967154 0.6253706 -0.07673609 -0.11836928 0.3723141 -1.0420833 0.59584385 0.97349113 -0.526462 -1.0277516 0.26369658 -1.0173693 0.6822824 0.4206324 0.29429713 -0.57615685 0.361017 0.36134362 -0.9072654 -1.322876 -0.058969527 -0.018257778 0.16146013 -0.34598634 0.25860983 -0.3409459 -0.7141703 -0.48444125 -0.25243688 -0.238169 0.89949745 0.063591376 0.6453186 -0.7776412 -0.3580113 1.0307486 0.82308936 -0.23145278 -0.0762372 -0.5715321 0.568908 -0.6481464 0.26918864 -0.45896718 -0.034030758 -0.7461996 -0.31354833 0.66768277 -0.0041962652 0.42649075 0.47334 -0.6975061 0.35200405 -0.10934237 -0.67887247 -0.10295978 0.10759484 0.15168881 0.19001816 -0.16458504 1.000609 0.048958413 1.3408717 0.12145937 -0.5258694 0.7261346 -0.15201621 0.31779522 -0.788204 0.38648227 0.21498793 0.3397273 0.43880185 0.53833 0.4922579 0.44628868 -0.4747857 0.35549203 -0.54990333 0.2515594 -0.044233855 -0.15377192 -0.6114396 0.24256894 -0.14672615 -0.07215937 0.7423342 -0.07166967 0.4065086 0.47813317 0.9448504 0.44059837 0.1416942 0.19969398 1.1386412 -0.056704193 -0.14263721 -1.0119 0.12719035 -0.3505605
nṯr -0.6573587 1.0426723 0.25743178 0.41641098 0.4368643 -1.2894442 0.41392443 0.3335427 0.5699523 -0.7632667 0.5609224 -0.50540555 -0.06518935 0.5284892 0.60997295 -0.35524163 1.0304316 -0.3113529 -0.012393779 -0.38352743 -0.43619636 0.92106605 -0.07657117 -0.5441159 0.11875325 0.7624609 -0.8398059 0.11239549 -1.0402023 -0.08272118 0.83117276 -0.02203861 -0.4944786 -0.2597727 -0.21901883 -0.24880637 -0.059914906 -0.31314012 0.19487733 -1.0540829 -0.726274 -0.31344706 -0.2750703 -0.54862815 0.50257045 -0.6977169 -0.37690923 -0.4940534 0.5202333 0.11081618 0.38432485 0.10032772 -0.24425893 -0.67665565 -0.19284746 0.3883705 0.96692014 0.39396834 -0.17866139 0.33689132 0.42813405 0.2360623 0.3628143 -0.34765 -0.32217845 0.80811113 -0.7486248 0.74637115 -0.21874061 0.37948996 0.45002338 0.12576973 0.13476689 0.33051366 0.36880678 0.4960788 -0.95285994 -0.17343055 -0.4936748 -0.52507687 -0.7553713 -0.10473985 -0.37505946 0.8859534 0.44250512 -0.5137681 0.91177976 -0.42448455 0.64867145 -0.6761186 0.8567844 0.22434212 0.16478118 0.005943083 0.63908565 0.03663305 0.21660851 -0.16205537 -1.0346038 -0.21925303
sꜣ -0.45824343 0.7522179 0.06889026 0.6656664 0.41544503 -0.8516149 0.09576859 0.73481876 -0.024884693 -0.067941345 -0.12023146 -0.38453242 -0.37529176 0.22765853 0.38208607 -0.16298233 0.38238823 -0.34340143 0.1525224 -0.4998273 -0.039720226 0.29673642 0.15307333 -0.4890045 -0.058873296 0.3990395 -0.46790883 0.098974004 -0.69728976 0.021083036 0.14806701 -0.13198675 -0.049606636 0.018290758 -0.22627468 0.101917185 -0.072974876 -0.14578311 0.02311885 -0.4959607 -0.3369059 -0.37014854 -0.19930947 -0.07323084 0.6533992 -0.2756965 -0.26755914 -0.48957312 0.45096183 0.12151202 0.12738828 0.10156557 0.05729959 -0.2352713 0.016426675 0.2772122 0.5054494 0.06039547 -0.51399475 0.32556102 0.10724002 -0.040614136 -0.3438509 -0.24865316 -0.0051068678 0.23292035 -0.13446094 0.6685955 -0.2730526 0.5191089 -0.050076943 -0.19710247 0.24561787 0.023194645 0.36587986 0.10885989 0.009525091 -0.10392919 -0.03972112 -0.5647206 -0.53284127 0.042512838 -0.28339833 0.5328521 0.20621137 -0.23409776 0.43810058 0.06630693 0.52256966 -0.26367602 0.6327574 -0.031399105 0.13361277 0.121434696 0.3980707 0.37704885 0.3105566 0.009122161 -0.4792118 0.085251965
nty -0.23676252 0.5622455 0.09356274 0.020975398 0.29149687 -0.84346616 0.44826055 0.56757104 -0.18097399 -0.7759272 0.291923 -0.6691789 0.3781454 0.3198847 0.3254197 -0.4189311 0.43107688 0.14186089 -0.52809954 -0.83016115 -0.22720282 0.21574971 0.054854985 -0.31240222 0.18335511 0.045020267 -0.6272921 -0.19820704 -0.38836643 -0.12601373 0.7126012 0.07962231 0.24958809 -0.5159012 -0.2842721 0.4911046 0.5288488 -0.22010385 -0.023275735 -0.54059327 0.15003423 -0.44687048 0.09177047 -0.3465422 0.1304734 -0.64055496 -0.2599206 0.3000263 0.124876745 0.2530729 0.4225171 -0.3422444 0.18843707 -0.23653622 -0.5184225 0.031032145 0.25260222 0.24555665 0.0894431 -0.02963884 0.7033605 0.12824698 0.89705896 -0.008666842 -0.41229054 0.5406898 -0.2997153 0.34743914 -0.5086051 0.2950725 0.2398728 0.24811828 0.26638466 0.3720914 0.39732537 0.4055148 -0.47460613 0.20965412 -0.4442037 0.030654538 -0.16483529 -0.12855844 -0.45581958 0.23874383 -0.03446581 -0.15148637 0.59873587 -0.15053613 0.38127148 0.093192846 0.7581978 0.3145698 0.06461182 0.094877414 0.8296231 -0.06981131 0.013973165 -0.6102121 -0.20928524 -0.2703478
ḏr -0.3372924 0.26794907 -0.04772161 0.7615989 0.4910345 -0.4691819 0.1656788 0.8731207 -0.48068556 0.2839223 -0.5185366 -0.27629176 -0.3240499 0.123364925 0.17642848 -0.43096477 0.05691287 -0.40150207 0.15908396 -0.3037525 0.1792822 0.042453397 0.43157628 -0.4641922 0.038098313 -0.32355064 -0.2466882 -0.057276268 -0.8027442 0.059934754 -0.1388804 -0.32104403 0.32502416 0.17779581 -0.37525877 0.53837484 -0.22303173 -0.07202859 0.013586975 -0.43076947 -0.20010653 -0.35984412 -0.17426164 0.11789681 0.5886956 0.20739098 -0.3254812 -0.54008484 0.4170947 -3.589886e-05 0.055218823 -0.13909215 0.12737612 -0.09708932 0.29931575 0.09100334 0.35617918 -0.0678346 -0.83889943 0.19870597 -0.34601834 -0.18899933 -0.4819049 -0.51568145 -0.13955896 -0.10102223 0.13723783 0.294516 -0.4627845 0.42846277 -0.5055009 -0.2870083 0.42341107 -0.29819977 0.39219943 -0.07197279 0.53479433 -0.20133555 -0.05078223 -0.5483976 -0.17765944 0.24077702 -0.2464879 0.37576178 -0.09292797 -0.05313865 0.107747264 0.19715452 0.5174096 0.1828491 0.34488732 0.12880793 -0.18677418 0.14637636 0.21862152 0.4978599 0.24765514 0.087872505 0.16078676 0.060536277
nfr -0.31322476 0.5213281 0.07456099 0.37994695 0.37990487 -0.79149693 0.2607082 0.6507318 -0.10741259 -0.2785585 -0.034707982 -0.37365153 -0.14906284 0.23822743 0.29915237 -0.3323335 0.34845772 -0.18987632 -0.17048821 -0.50335217 -0.028988205 0.3072788 0.23176163 -0.39980337 0.061801013 0.08129672 -0.50945747 -0.015057136 -0.53415793 -0.013105595 0.27114305 -0.124786936 0.12579814 -0.13927679 -0.24936165 0.3867756 0.034889944 -0.18573856 -0.0017300522 -0.49874216 -0.12682572 -0.42972726 -0.043065194 -0.13331106 0.3968668 -0.3369763 -0.26131424 -0.24812083 0.26924264 0.21186994 0.19169593 -0.11071526 0.112748116 -0.21531707 -0.11669716 0.13323216 0.4010316 0.11196712 -0.33073926 0.17337334 0.24259382 -0.01930596 0.07086837 -0.21124472 -0.16142175 0.33025798 -0.08516702 0.45487416 -0.38641313 0.37460738 -0.047678497 -0.0064852 0.28454903 0.07918485 0.3792615 0.11588606 -0.08343786 -0.017413158 -0.2328141 -0.32765716 -0.34697083 0.049942244 -0.38651335 0.46683836 0.07484217 -0.13873108 0.42505908 0.009734345 0.36613816 -0.04863243 0.60860664 0.11010775 0.07654457 0.043936927 0.49828574 0.24123499 0.1295168 -0.17370671 -0.21889143 -0.031186674
sš -0.6210081 1.1121392 0.18691282 0.6080261 0.2913854 -1.1597538 -0.004693745 0.6166326 0.3369837 -0.3264741 0.14447783 -0.39314693 -0.3830894 0.26933354 0.44175857 -0.09008989 0.5892597 -0.31916234 0.06521805 -0.44828656 -0.19624065 0.4634674 0.112263806 -0.5516525 -0.11484494 0.84240544 -0.5952769 0.11127334 -0.59506375 0.085844815 0.47832918 -0.022190157 -0.25148958 -0.13004898 -0.10577501 -0.2011206 -0.062176112 -0.22857341 0.072482176 -0.53858143 -0.32552642 -0.3371283 -0.19840962 -0.25953794 0.52165675 -0.6161178 -0.19198503 -0.45202574 0.40638256 0.17829287 0.1998455 0.1878102 0.10181382 -0.3605075 -0.18164988 0.4479214 0.53474575 0.28412208 -0.27816638 0.43502405 0.40004322 0.06463136 -0.14920807 -0.13400184 0.08623015 0.49995485 -0.32897922 0.7955566 -0.15101059 0.57255995 0.2802141 -0.07486134 0.1993163 0.21565342 0.33063886 0.17409118 -0.34362936 -0.04285209 0.012495611 -0.51810175 -0.78762734 -0.01157921 -0.38306546 0.5941071 0.3255414 -0.41199684 0.63659286 -0.0053648693 0.4139576 -0.5595514 0.8995961 -0.15286945 0.21228361 -0.0033118713 0.4030899 0.22894588 0.3318981 -0.113183334 -0.856839 0.026407667
jrj -0.09999808 0.3522577 -0.0529251 0.012727545 0.39231333 -0.6694551 0.47807556 0.7231049 -0.54285026 -0.6814015 0.073212236 -0.7238102 0.46206465 0.31247482 0.19300298 -0.47919336 0.2343498 0.21610764 -0.6358101 -0.96005815 -0.05544162 -0.013068736 0.12934525 -0.24996382 0.25368777 -0.37271866 -0.45157522 -0.2968233 -0.26170734 -0.19334276 0.55874974 0.05501134 0.5265044 -0.55858254 -0.3144401 0.8088408 0.56315285 -0.11897053 -0.074755535 -0.40449595 0.35501763 -0.4723612 0.20692183 -0.27293128 0.009482585 -0.48855326 -0.26866028 0.46466023 0.04746126 0.287687 0.34045094 -0.49193957 0.2579263 -0.0727643 -0.3986808 -0.1578375 0.09460434 0.08361953 0.032458257 -0.13723832 0.634872 0.0129586235 0.89304507 0.0162706 -0.45105568 0.4060685 -0.07347136 0.15799575 -0.62233436 0.2890748 0.043381996 0.24533837 0.3468288 0.33411708 0.40532893 0.24408965 -0.15935981 0.2379653 -0.4384596 0.08878439 0.096469045 -0.08382196 -0.44151813 0.10597789 -0.22295286 -0.003928256 0.4347823 -0.060611766 0.29280746 0.46904722 0.6211794 0.3502168 0.049437694 0.20955847 0.7705251 -0.02473196 -0.07863175 -0.6760558 0.22413155 -0.26186284
jmy -0.3716268 0.9326132 0.057154186 0.010003363 0.25015152 -1.1172664 0.37823984 0.6429257 0.2762144 -0.74806744 0.50240725 -0.6298405 0.21536824 0.3599527 0.38984287 -0.3584638 0.70916027 0.054448944 -0.5437847 -0.91108376 -0.28554893 0.3625653 0.06805988 -0.49027723 0.13316177 0.4429463 -0.83322406 -0.30016193 -0.40979016 -0.07759216 0.99222434 0.0939518 0.11031413 -0.58808273 -0.22291042 0.33019787 0.4285295 -0.32938823 -0.008916375 -0.68727446 0.12206283 -0.4806703 0.080970965 -0.5114103 0.1938498 -0.8760154 -0.3024142 0.2137904 0.1448878 0.3750731 0.3737154 -0.24088243 0.097561575 -0.25195292 -0.67937946 0.24863663 0.43672574 0.294957 0.10653055 0.24309467 0.9450166 0.11488014 0.94040763 0.06919853 -0.21125813 0.80345714 -0.41007534 0.62290245 -0.44920686 0.42034298 0.41823268 0.3094989 0.12863001 0.3925214 0.4071097 0.34171906 -0.73966926 0.15902597 -0.35202363 -0.13448262 -0.55200595 -0.13663639 -0.6012997 0.47851285 0.06547722 -0.3677398 0.8012532 -0.18789235 0.39822626 -0.233857 0.95728797 0.12937504 0.18264018 0.013096774 0.8239447 -0.10774705 -0.0134479 -0.62079936 -0.5742044 -0.27452058
dj -0.09929263 0.49899235 -0.034662414 -0.018270433 0.25960958 -0.82003933 0.38413668 0.7830027 -0.4769117 -0.7281654 0.12474503 -0.74338233 0.42996532 0.24699262 0.2573109 -0.34755567 0.13709226 0.28036505 -0.61241955 -1.0121605 -0.057463437 -0.116267994 0.13547021 -0.31145802 0.12089075 -0.23941898 -0.53135794 -0.29735392 -0.12959209 -0.12347635 0.61998004 0.072157875 0.53438365 -0.5191649 -0.26414892 0.7463183 0.68548167 -0.16588508 -0.09956347 -0.37229836 0.48652557 -0.5530842 0.19939514 -0.24240327 0.06633448 -0.5582489 -0.24974382 0.49277487 0.022673033 0.29181314 0.3771437 -0.4590789 0.39371616 -0.0421863 -0.5203677 0.015569598 0.032486685 0.13880633 0.12642339 -0.0745156 0.71286243 0.04858216 0.8821561 0.101577856 -0.3531751 0.44477075 -0.026514644 0.27707177 -0.56790376 0.3208712 0.10964224 0.12888926 0.37100202 0.42815158 0.3899761 0.29955027 -0.20732902 0.28240854 -0.34889117 0.113143176 -0.099962145 -0.065748654 -0.43410578 0.11117274 -0.1069702 -0.02010188 0.47874168 0.055648286 0.35188478 0.34981674 0.7923132 0.2825726 0.044001486 0.16071743 0.86791426 0.0033697952 -0.043231487 -0.76912564 0.081951596 -0.21493332
nswt -0.8184333 1.0661811 0.28936487 0.65922934 0.5890706 -1.3605318 0.420788 0.4103443 0.75608456 -0.5677317 0.44430888 -0.31646186 -0.37213376 0.51710826 0.64157987 -0.36644185 1.175258 -0.53952575 0.21501866 -0.22987363 -0.49167192 1.1520702 -0.05624182 -0.5886447 0.1570829 0.8982182 -0.91070235 0.23513323 -1.3264546 -0.045028023 0.64804935 -0.105501786 -0.6504213 -0.020929106 -0.28042507 -0.30168468 -0.36229438 -0.35632095 0.27793694 -1.1991746 -0.98874944 -0.3230497 -0.40460733 -0.51057106 0.7394137 -0.6515624 -0.43793008 -0.88865584 0.6518628 0.0858859 0.25792935 0.2074523 -0.37778983 -0.7076523 -0.0149343945 0.47451723 1.2619789 0.31287083 -0.4298115 0.47998986 0.2448922 0.18459226 0.006822582 -0.53944266 -0.29308796 0.79004467 -0.7574897 0.94248873 -0.16447306 0.43456316 0.3680088 0.10505216 0.14083871 0.15545858 0.48436576 0.38533887 -0.9045271 -0.35427862 -0.494655 -0.8652588 -0.8493612 -0.036261074 -0.3384243 1.1721947 0.5208868 -0.5686227 0.92986417 -0.4780862 0.6810099 -0.89377123 0.8356513 0.16024415 0.16989133 0.04337563 0.58932465 0.21663404 0.28321388 0.04301347 -1.2256931 -0.10385437
wꜥ -0.10282931 0.28707585 -0.016150864 0.25371495 0.42714176 -0.5785325 0.36568424 0.877682 -0.66398335 -0.30940512 -0.23434167 -0.46049842 0.118703865 0.1851018 0.17536542 -0.39724588 0.028945357 0.009234936 -0.4469021 -0.8234583 0.1395037 -0.06279577 0.3310832 -0.2845242 0.16548216 -0.41193217 -0.39095506 -0.11857004 -0.28063253 -0.07460645 0.22589932 -0.09305487 0.5340347 -0.2529688 -0.2807363 0.85319525 0.36793834 -0.11422137 -0.10816327 -0.28007492 0.29173714 -0.5502517 0.14140043 -0.084507205 0.21655203 -0.24812454 -0.2683547 0.20785573 0.05445115 0.29052898 0.22112693 -0.40318692 0.26896966 -0.01604237 -0.23193339 -0.09412137 0.0657563 0.016065614 -0.26631764 -0.066851966 0.33204022 -0.1184071 0.38536537 -0.08972183 -0.28032476 0.2086403 0.20592196 0.22968036 -0.6249326 0.37036783 -0.25701436 0.107161425 0.40512648 0.11577416 0.41703978 -0.015965512 0.2239118 0.16188408 -0.23619044 -0.04939294 0.003392028 0.01182228 -0.43872893 0.17766018 -0.18521474 0.059758943 0.28840858 0.11459325 0.24665564 0.41519213 0.47235718 0.19053662 0.038615353 0.11894413 0.61871433 0.18466583 0.038996723 -0.41454312 0.27281362 -0.07351421
ḫt -0.7068901 0.635684 0.057646118 1.4691554 0.85328054 -1.0051372 0.21368276 1.4222755 -0.474578 0.57240534 -0.85929555 -0.23906551 -0.8878007 0.14576033 0.42620376 -0.5414308 0.2778368 -0.8866725 0.3713521 -0.3836438 0.15148097 0.4161542 0.76792985 -0.8815154 -0.03808986 -0.18284093 -0.49527964 0.10399357 -1.4373409 0.14950065 -0.25630313 -0.6191256 0.2027324 0.41692388 -0.5331862 0.56382203 -0.62189925 -0.21694475 0.058842815 -0.7405084 -0.5764383 -0.54794776 -0.4660995 0.21265195 1.1362289 0.2695238 -0.506395 -1.1736037 0.7770155 0.051857173 0.019176703 -0.02104212 0.08908426 -0.21828707 0.5150604 0.34404123 0.7832625 -0.027005982 -1.4462767 0.5478092 -0.6398497 -0.22887817 -1.1632732 -0.9139359 -0.08076462 -0.09848783 0.12571022 0.714474 -0.617156 0.727675 -0.77860284 -0.47073892 0.6283357 -0.58264637 0.6900548 -0.23656423 0.81391835 -0.48595402 -0.028990159 -1.123579 -0.5996413 0.46766135 -0.49454638 0.82609606 -0.034937438 -0.1862836 0.16789733 0.37217095 0.8152426 -0.040805794 0.6563097 0.07016733 -0.16133335 0.15472609 0.32428786 0.9156749 0.55485785 0.4515829 -0.04014705 0.15280685
ꜣbd -0.38588884 -0.0678744 -0.0031501746 1.4832265 1.2425641 -0.85499024 0.5085727 1.7936484 -0.96637166 0.77220774 -1.4548619 -0.1805706 -1.2189465 0.061260115 0.30782658 -0.74630827 -0.049003698 -0.7815265 -0.060397927 -0.69592446 0.37211412 0.44463345 1.3155936 -1.0255284 0.15528613 -0.8893094 -0.3779258 0.06738227 -1.4231368 0.05287611 -0.72376513 -0.6615049 0.86185235 0.29851577 -0.83593005 1.4516021 -0.79168355 -0.21280482 -0.2568276 -0.36545306 -0.062900834 -0.85806996 -0.2527694 0.42699608 1.1188568 0.3028084 -0.66249925 -1.1653005 0.79995567 0.2456602 0.019916227 -0.31285784 0.09576926 0.072087646 0.63521814 0.12379562 0.7874266 -0.23516537 -1.5055654 0.3817743 -0.66680574 -0.43286514 -1.2020375 -1.0487316 -0.17821383 -0.22590771 0.56378967 0.5562905 -0.94298387 0.6975373 -1.3364098 -0.30744472 0.7862218 -0.79294235 1.0687234 -0.57941186 1.5903039 -0.66353774 -0.36059988 -1.0497817 -0.28289455 0.5918353 -0.6799915 0.72984093 -0.5057419 0.09056434 -0.09790736 0.5920039 0.6645432 0.5806016 0.55422693 0.142087 -0.008721423 0.3247801 0.4926958 1.1291901 0.40242267 0.6890867 0.650888 0.23673749
tꜣy -0.0827268 0.42182893 -0.026079841 0.045768924 0.4301747 -0.7640596 0.5051561 0.8353675 -0.6911449 -0.6994327 0.017793715 -0.79318094 0.47676915 0.3432098 0.26072353 -0.51508915 0.2150656 0.20366584 -0.698328 -1.1483511 0.025977027 -0.084043615 0.22600019 -0.33261758 0.22891672 -0.43897837 -0.54225355 -0.31278458 -0.3053295 -0.21719162 0.59461576 0.020703861 0.6133347 -0.5505567 -0.35795733 0.93102074 0.6452024 -0.1166547 -0.10893487 -0.42620665 0.43277785 -0.5667171 0.20454238 -0.28259593 0.049236838 -0.47757602 -0.31242496 0.49331152 0.015032224 0.36239663 0.37204587 -0.56518847 0.27590698 -0.06695862 -0.42582503 -0.13745233 0.03844451 0.07232172 -0.024552213 -0.16105342 0.6832976 -0.016377557 0.9330739 0.031263497 -0.42719856 0.42109686 0.028060997 0.20129494 -0.71082306 0.3589633 -0.052933794 0.24493106 0.4204313 0.3482159 0.44551635 0.250139 -0.12087543 0.2473063 -0.44452086 0.08782702 0.095778205 -0.12671317 -0.5032209 0.16885996 -0.22931291 0.012536909 0.50467914 -0.050666925 0.35823938 0.51359797 0.6874027 0.36813927 0.03565274 0.23636751 0.86859846 0.024454473 -0.093072906 -0.7032136 0.25170827 -0.27005208
ꜥnḫ -0.28477964 0.7381379 0.040236257 0.027255131 0.2113047 -0.8793939 0.3096795 0.59248537 0.07373247 -0.64992166 0.3113723 -0.5854509 0.14168523 0.33790335 0.39910853 -0.37619305 0.5360408 -0.022543639 -0.46156678 -0.79369503 -0.17998298 0.27642563 0.09116558 -0.41796103 0.076517686 0.23118871 -0.74429643 -0.25752464 -0.4266014 -0.110235475 0.6623027 0.0499268 0.065665215 -0.450556 -0.26282728 0.3127059 0.35952517 -0.22023952 -0.03921831 -0.5441689 0.060587827 -0.3971233 -0.00870328 -0.33979377 0.2251588 -0.574378 -0.24277572 0.09809445 0.15509996 0.31544203 0.3640838 -0.30135405 0.056575574 -0.25533438 -0.44959128 0.15085353 0.31532943 0.12870221 0.0114814695 0.13278122 0.6702269 0.05852642 0.7368031 -0.046459336 -0.20518479 0.6252445 -0.27139944 0.51403546 -0.42033878 0.34861824 0.32311055 0.13679251 0.19768241 0.30505753 0.22045372 0.42658016 -0.55462444 0.06859599 -0.30909574 -0.09578312 -0.32873628 -0.08143248 -0.40959585 0.3809367 0.15705691 -0.30310473 0.70104927 -0.07971497 0.39660725 -0.031806316 0.8203294 0.17471637 0.09724908 0.027575975 0.7950504 -0.020268612 0.020137513 -0.4463937 -0.41104427 -0.2187888
rmṯ -0.21508019 0.58527696 0.038578916 0.11482713 0.25999534 -0.8961979 0.37530255 0.7242389 -0.23949663 -0.66886157 0.21410646 -0.5757742 0.2468601 0.26800385 0.33941922 -0.35634142 0.30225438 0.16609548 -0.5977366 -0.85011876 -0.1704465 0.11848994 0.17758405 -0.33460826 0.13925809 -0.027546208 -0.52860975 -0.17546594 -0.1906622 -0.048105657 0.6501011 0.0731331 0.36553985 -0.5313315 -0.28367046 0.5552201 0.5676774 -0.18833514 -0.07752881 -0.4159008 0.40199232 -0.48131096 0.17171104 -0.3106111 0.1056136 -0.6201414 -0.24523096 0.3305102 0.08955105 0.23836504 0.38094994 -0.3545808 0.28656664 -0.17022347 -0.53119856 0.09751805 0.16555509 0.2723307 0.15142664 0.018861668 0.74325585 0.07322224 0.8071962 0.008344299 -0.32998484 0.4476516 -0.12644587 0.3767698 -0.54452324 0.3123269 0.17476377 0.1849884 0.2580804 0.38431796 0.4361621 0.28396386 -0.28047478 0.22784907 -0.36537993 0.027585939 -0.21142644 -0.08924297 -0.4883814 0.13336961 -0.15053709 -0.13987897 0.48424917 -0.015108292 0.344 0.1871527 0.83588564 0.21387452 0.10519093 0.06746306 0.8199359 -0.04538095 0.040696703 -0.56428146 -0.08753688 -0.18583366
ḥḏ -0.09414184 0.23058957 0.10701585 0.37556106 0.4723767 -0.5883354 0.27522817 0.9844381 -0.71558154 -0.0481115 -0.46409452 -0.043637577 -0.34162378 -0.024648912 0.16053441 -0.17598198 -0.2746913 -0.14538334 -0.29382467 -0.53879565 0.36064222 -0.084062144 0.49246433 -0.39225075 0.048214752 -0.3885933 -0.31374875 0.18233345 -0.13814904 0.06573314 -0.20199543 -0.28245434 0.43894526 0.11128268 -0.15472366 0.81784064 0.037855614 -0.06648821 -0.0102735665 -0.22611181 0.24975982 -0.70733774 0.13350467 0.19368336 0.48148462 -0.11131887 -0.14174165 -0.19959544 -0.0045054425 0.36998752 0.057402827 -0.24083363 0.37440377 -0.02119437 -0.11351043 0.06377559 0.06286137 0.10044067 -0.5426384 0.050257802 0.017792266 -0.18915151 -0.2897889 -0.24099408 -0.094810955 0.1406699 0.53382653 0.41166568 -0.49415457 0.3740546 -0.5450125 -0.07480094 0.496718 -0.025073627 0.38697425 -0.33748397 0.516948 0.12854345 0.03842367 -0.17309038 -0.17526574 0.20582813 -0.5346044 0.31515998 0.043057952 0.118888974 0.17955911 0.3415617 0.11417637 0.24937664 0.3201114 -0.026751313 0.019790187 -0.09330161 0.49067858 0.48732924 0.20892277 -0.21296133 0.2627403 0.26746732
4 -0.33920047 -0.0036320423 -0.015487761 1.3716764 1.082543 -0.83802134 0.47516683 1.672084 -0.84045374 0.5877739 -1.2258576 -0.15155408 -1.0527409 0.054318406 0.30917102 -0.64375514 -0.008553853 -0.68955773 -0.08225824 -0.6973022 0.34458733 0.41325846 1.1366498 -0.89858973 0.10884733 -0.72775704 -0.40824944 0.14261499 -1.2605379 0.11883008 -0.5879601 -0.66935813 0.7490259 0.2735271 -0.72359353 1.2606419 -0.59881234 -0.21289796 -0.18389578 -0.38315812 -0.08681198 -0.80440426 -0.22325872 0.35475564 1.0868379 0.25030634 -0.60384524 -0.98556113 0.7349565 0.22720097 0.033876777 -0.28709805 0.13692431 -0.0058444403 0.5034646 0.18732804 0.6851198 -0.21541484 -1.3477099 0.35739207 -0.59177864 -0.37531218 -1.0700573 -0.910601 -0.23320541 -0.19703653 0.49069077 0.5993451 -0.87197846 0.69666743 -1.1414256 -0.34315136 0.74996644 -0.64510125 0.9074578 -0.46985656 1.3729285 -0.4956333 -0.27847728 -0.94705117 -0.26505327 0.5651679 -0.60645026 0.71315074 -0.40933517 0.077793054 -0.07863117 0.49418408 0.6103925 0.47182208 0.57996494 0.105291665 0.0007135993 0.22823752 0.4974828 0.98127013 0.40543398 0.5261102 0.506594 0.21117274
3 -0.2568137 -0.07326481 0.0220542 1.1662787 0.962367 -0.7051986 0.43411884 1.4637717 -0.80533636 0.4967385 -1.0980399 -0.07710877 -0.930592 0.018081559 0.24447604 -0.5243421 -0.10728364 -0.5684205 -0.09910016 -0.55307555 0.33226982 0.3009543 0.98716456 -0.7569579 0.09355927 -0.71639186 -0.32151666 0.15258579 -0.99307346 0.091582075 -0.56969583 -0.5851629 0.6824691 0.2855415 -0.60596275 1.1550708 -0.48460978 -0.16023433 -0.15768725 -0.27588317 -0.0025777442 -0.7188706 -0.16122252 0.3280759 0.91729176 0.24376616 -0.50560594 -0.798067 0.5817693 0.23749666 -0.012266064 -0.25940138 0.17796865 0.03355161 0.41778722 0.13306944 0.5143309 -0.19177662 -1.1569238 0.2738682 -0.5357155 -0.33476737 -0.9482322 -0.7898269 -0.19563216 -0.22027285 0.52421343 0.45809564 -0.768446 0.5567883 -1.0468981 -0.28503117 0.67115337 -0.5622519 0.77514076 -0.4712833 1.2577181 -0.38196573 -0.19831169 -0.7766275 -0.17102507 0.5160847 -0.53824925 0.5979492 -0.35633734 0.1394027 -0.089151084 0.47773057 0.44208068 0.44394827 0.4194025 0.08974254 -0.004167069 0.17531635 0.38818622 0.87659746 0.32645458 0.42860046 0.54927486 0.21871544
20 -0.49208215 0.20772856 0.038019136 1.4714733 1.080727 -0.9770023 0.42013988 1.6775485 -0.722125 0.60631377 -1.1797254 -0.15768479 -1.1201755 0.106645115 0.37550157 -0.6428925 0.10411552 -0.80821735 0.05742534 -0.63866836 0.29373175 0.45319632 1.0755081 -0.9254944 0.07229593 -0.5602212 -0.42909658 0.13453662 -1.3874515 0.12757114 -0.54666054 -0.65012825 0.5867705 0.33385804 -0.68541867 1.098199 -0.6818859 -0.2305043 -0.12455129 -0.4996106 -0.2600456 -0.76576906 -0.317571 0.31181717 1.18524 0.23532273 -0.5794705 -1.1354127 0.8111888 0.20335117 0.04176637 -0.1915314 0.093938544 -0.06672836 0.5236478 0.25065917 0.7590902 -0.17362759 -1.4448936 0.43963212 -0.62221116 -0.33765748 -1.1826783 -0.95727277 -0.15486805 -0.13596009 0.39472893 0.68932384 -0.8276194 0.7308303 -1.0747077 -0.3659259 0.7254441 -0.66491145 0.92004853 -0.4380466 1.250086 -0.54925096 -0.24415469 -1.0701836 -0.40434223 0.5229447 -0.612796 0.8123943 -0.2706793 -0.0089354385 0.022879131 0.4791736 0.7129905 0.3058022 0.6454501 0.06874812 0.010163779 0.23074202 0.4739639 1.0310026 0.4763045 0.54433376 0.3002817 0.25297576
ms -0.58522177 0.6199762 0.11891246 1.0428263 0.5687254 -0.8685646 0.15353832 0.9057839 -0.17341192 0.19542232 -0.40447554 -0.2032353 -0.5937295 0.20562004 0.36533102 -0.35322857 0.3609124 -0.58344644 0.30765396 -0.252056 0.034194473 0.37874356 0.41855866 -0.628002 -0.025090951 0.18651468 -0.41496745 0.113208614 -1.053705 0.12215754 -0.084696434 -0.32425624 -0.036743354 0.2950034 -0.31246302 0.14344287 -0.42791077 -0.157439 0.095537975 -0.62754625 -0.52283144 -0.31646517 -0.31437993 0.053241372 0.76116586 -0.0006900862 -0.3474862 -0.85272855 0.6045026 -0.002807 0.018207977 0.06984863 0.015713401 -0.2973482 0.32350832 0.25826648 0.68122834 0.03731313 -0.9099683 0.4413852 -0.31252214 -0.10769768 -0.713729 -0.5982821 -0.086332515 0.11436883 -0.049580824 0.6041652 -0.3778488 0.5177853 -0.39962253 -0.29744306 0.3912814 -0.30587155 0.47947046 -0.05169821 0.32947952 -0.30950218 -0.051345076 -0.8506024 -0.49754328 0.3013453 -0.3212574 0.6716475 0.06389094 -0.23607054 0.2926199 0.11088463 0.60536313 -0.22257157 0.52851003 0.040167574 -0.08034059 0.0966932 0.27537972 0.56864744 0.38175482 0.22183062 -0.26886964 0.083187126
5 -0.27609703 0.12275426 0.05315284 1.0737975 0.83937126 -0.7356484 0.35213575 1.3734318 -0.7557091 0.4104295 -0.9587578 -0.043947857 -0.8197841 -0.004805996 0.24850987 -0.4339262 -0.12211448 -0.5403931 -0.035102595 -0.49117088 0.36137903 0.18296339 0.84108776 -0.6867356 0.02296847 -0.54693586 -0.33874434 0.19999218 -0.8241647 0.12134552 -0.5031344 -0.53655577 0.53052974 0.31919762 -0.47313926 0.9863057 -0.41059414 -0.16617796 -0.11662907 -0.28881374 -0.04488776 -0.7075068 -0.12426126 0.29435614 0.89406675 0.2011684 -0.40789467 -0.7808735 0.4699399 0.25191495 0.012852686 -0.17880766 0.23032616 -0.041680567 0.33709687 0.13026215 0.41571382 -0.081746206 -1.1280063 0.28234014 -0.47971082 -0.3149243 -0.9232524 -0.686822 -0.11745273 -0.18246132 0.5464948 0.4643964 -0.6737655 0.5499043 -0.9436304 -0.3041094 0.62523466 -0.47812146 0.6546449 -0.45635593 1.0983461 -0.25763202 -0.08425003 -0.6801027 -0.25848132 0.4660271 -0.5371681 0.5800027 -0.17858928 0.10222017 -0.021083986 0.4814868 0.38149485 0.31087187 0.4113573 0.03748311 -0.05786163 0.068072595 0.36009794 0.8091713 0.34837124 0.30644143 0.40866816 0.2960782
dbn -0.22187287 0.109498575 0.14637345 0.9947523 0.8977359 -0.7864136 0.44061038 1.5779576 -1.1918447 0.37617564 -1.124355 -0.012491807 -0.87865376 -0.11232427 0.196907 -0.4281796 -0.44754452 -0.53535086 -0.14453444 -0.5377299 0.5880034 -0.03705102 0.9340318 -0.63789403 0.025765998 -0.82782 -0.25457826 0.34412116 -0.5920237 0.10047744 -0.68747354 -0.62046057 0.6119052 0.4793413 -0.4141895 1.2462959 -0.29203767 -0.139128 -0.05042207 -0.2953554 0.16014004 -0.9618015 0.0034903507 0.4966979 0.9439318 0.2741529 -0.37504077 -0.69019866 0.27028462 0.4290476 -0.041579116 -0.32260022 0.51279163 -0.014162591 0.2586973 0.116332956 0.18834804 -0.0068998984 -1.2924863 0.14382389 -0.5376364 -0.39928156 -1.0540324 -0.7204251 -0.09303989 -0.15602931 0.87702405 0.5222464 -0.7550415 0.54182994 -1.2179883 -0.24457926 0.8550072 -0.46679464 0.6959297 -0.57415 1.32066 -0.15841638 0.04384743 -0.5960716 -0.17958763 0.5096016 -0.7403751 0.5521002 -0.037898358 0.22043683 -0.016607571 0.6584569 0.27679887 0.48473644 0.3210244 0.020260682 -0.1360381 -0.023104675 0.50853705 1.0061626 0.44440618 0.13983028 0.6782329 0.43713066
ptr -0.042942464 0.38074282 -0.0917456 -0.054087684 0.32310987 -0.7440001 0.48571005 0.7669584 -0.54472214 -0.72941655 0.086900674 -0.7196191 0.3894149 0.26582575 0.33489347 -0.459346 0.17556165 0.30536765 -0.7310425 -1.1026341 -0.1501798 -0.064065 0.21234936 -0.33943823 0.18916842 -0.3765822 -0.50329137 -0.37931666 -0.2302556 -0.17680414 0.63548416 0.042371098 0.54699904 -0.56737334 -0.34775826 0.78812414 0.6851116 -0.096001916 -0.09366482 -0.3366401 0.5353335 -0.49013165 0.2047058 -0.20929936 0.004373633 -0.5219694 -0.29126582 0.5317943 0.07722416 0.249018 0.4091177 -0.5717749 0.3187182 -0.013350385 -0.5351402 -0.02386405 0.0769947 0.08473544 0.115434594 -0.12677386 0.7209525 0.09076901 0.96715724 0.04736647 -0.41600493 0.4415054 -0.093120895 0.25665644 -0.6435134 0.2678283 0.041060653 0.22232474 0.3822703 0.36853898 0.43229762 0.36209527 -0.21745797 0.2587323 -0.4794386 0.083562195 0.022478934 -0.13385712 -0.4225037 0.07418519 -0.22643489 -0.036643192 0.43401748 -0.00332755 0.41300535 0.4763918 0.8013435 0.39491874 0.06599343 0.21243675 0.97638804 -0.049451645 -0.053223643 -0.67915654 0.17257512 -0.32161692
tn -0.13054068 0.5864352 0.027137082 -0.09913956 0.32963717 -0.90214795 0.6134926 0.7826111 -0.48778766 -0.95910674 0.22639342 -0.88872385 0.5539952 0.33962533 0.34656838 -0.5945705 0.37002927 0.30276215 -0.9146504 -1.3110317 -0.17447166 0.05899761 0.14309324 -0.31203923 0.23760867 -0.2655031 -0.75592554 -0.41815305 -0.30918157 -0.19021057 0.87485474 0.09319019 0.57933277 -0.7301215 -0.35158482 0.94201046 0.84803885 -0.20502551 -0.11534868 -0.5339094 0.4923237 -0.67348343 0.23816061 -0.3598998 0.0057234024 -0.770771 -0.3250285 0.6236922 0.010183444 0.44715577 0.46910948 -0.6382504 0.30655196 -0.15376936 -0.714774 -0.073160395 0.09893418 0.19916473 0.14681011 -0.06958523 0.9630803 0.10863777 1.3202459 0.08978134 -0.5302568 0.62082016 -0.11269894 0.37276313 -0.7663252 0.37596273 0.20865303 0.3640619 0.36298236 0.45687774 0.47756878 0.40175536 -0.45350337 0.3453849 -0.5471625 0.138333 -0.043744292 -0.1383496 -0.6119305 0.23493767 -0.20181423 -0.07360333 0.64504445 -0.031637143 0.3977752 0.38351634 0.94989747 0.3834261 0.13833669 0.19437431 1.0642945 -0.13641492 -0.07743711 -0.93554157 0.0887952 -0.41347548
nḫt -0.48602787 0.5354858 0.097543776 0.975269 0.6161436 -0.846297 0.11443737 0.94899374 -0.08513372 0.25096136 -0.43258315 -0.2232379 -0.7482213 0.19294645 0.35981634 -0.23902653 0.33977297 -0.6063488 0.27612922 -0.39721373 0.077149995 0.48066935 0.44218296 -0.61130327 -0.05606852 0.20249167 -0.4029617 0.19165502 -0.9944068 0.09056854 -0.1347928 -0.33222678 0.026312837 0.2296881 -0.3319251 0.27248862 -0.47089022 -0.16924234 0.025098784 -0.51649785 -0.46682632 -0.42550352 -0.32268766 0.110357575 0.8639681 -0.027740415 -0.35857716 -0.8451735 0.5958458 0.0993979 0.040581513 0.11928196 0.006649366 -0.21667528 0.3267133 0.33718646 0.7063568 -0.03587149 -0.8763822 0.4177913 -0.24353996 -0.14949936 -0.8007155 -0.51175016 0.015171927 0.1236569 -0.025536176 0.69035417 -0.32979223 0.5696668 -0.39658535 -0.30788547 0.3487488 -0.28125986 0.5098859 -0.08210791 0.36521474 -0.34311464 -0.058592834 -0.8448423 -0.49996057 0.23936263 -0.32338038 0.7180427 0.11866569 -0.15321432 0.29811025 0.16511627 0.55702 -0.18818855 0.5882133 -0.07871948 0.07194665 0.1512115 0.265342 0.62539136 0.3485914 0.32156223 -0.3252713 0.16526867
rꜣ -0.37209696 0.89408076 0.17611861 0.1882315 0.12918457 -0.86433315 0.22437356 0.5267381 0.30428073 -0.47537994 0.2619858 -0.46447074 -0.07042143 0.28489527 0.40259194 -0.32405144 0.56317294 -0.146735 -0.39848784 -0.7576347 -0.18639785 0.43639344 0.11104525 -0.45051256 0.08043225 0.5463412 -0.82896036 -0.14089498 -0.4297279 0.0793949 0.642808 0.10967353 0.009767601 -0.39571685 -0.1531447 0.26526448 0.32933015 -0.20897104 -0.10044651 -0.53384817 -0.07986164 -0.4589864 -0.08447378 -0.30474868 0.31554368 -0.7608284 -0.21742825 -0.0045829616 0.21812153 0.34297767 0.27757716 -0.16711757 0.078293495 -0.29431874 -0.51416373 0.2875811 0.4103713 0.2266331 -0.039450075 0.36477783 0.67130584 0.053200595 0.56062704 0.0010171974 -0.03289267 0.57338595 -0.27269593 0.67628187 -0.38041466 0.45142773 0.35418802 0.23250593 0.090663865 0.21435015 0.2704354 0.2152894 -0.52204317 -0.00057848403 -0.18504134 -0.18366863 -0.4999348 -0.10974988 -0.46262193 0.3584404 0.13874753 -0.3623097 0.6346758 -0.07445685 0.32760975 -0.22667684 0.87624204 -0.010466652 0.19860451 -0.08963758 0.54213625 -0.01579177 0.1341128 -0.29546133 -0.54385257 -0.15222324
ḳd -0.15433483 0.120975226 0.08844061 0.72457546 0.7631854 -0.70677906 0.39272484 1.3284763 -1.0420716 0.16355556 -0.8461859 -0.1237309 -0.5624895 -0.014455632 0.13777651 -0.3711839 -0.34968868 -0.3645481 -0.19513379 -0.59022135 0.4817686 -0.03806158 0.7072045 -0.49531117 0.0694315 -0.66687924 -0.27772227 0.24661332 -0.420964 0.04883903 -0.42827755 -0.41243958 0.56614465 0.2755665 -0.35878953 1.0887154 -0.11128693 -0.08432733 -0.051822968 -0.29339316 0.18240388 -0.8289886 0.054676227 0.32840312 0.7321692 0.1263276 -0.2859835 -0.47022265 0.14071484 0.38825628 0.012998689 -0.28081912 0.42567253 -0.036109325 0.1153744 -0.013808929 0.121666335 -0.005976024 -0.96472746 0.059548646 -0.26762992 -0.29521313 -0.63071847 -0.5123279 -0.12332915 -0.057622045 0.71326274 0.41054064 -0.6812497 0.44596285 -0.9206368 -0.15620188 0.68292236 -0.23860328 0.565369 -0.43956995 0.93618286 -0.0273464 -0.028722847 -0.40283298 -0.101941966 0.33018798 -0.61566263 0.40892494 -0.023848722 0.17667288 0.12592657 0.45340395 0.19246422 0.4239903 0.2697176 0.049794316 -0.040082008 0.011984114 0.5039835 0.739654 0.3216573 -0.029597556 0.5114688 0.3515101
šrj -0.16588286 0.42736435 0.030819302 0.29105586 0.38221774 -0.6259521 0.28219593 0.71912205 -0.48750702 -0.37979388 -0.08919271 -0.5477933 0.1528633 0.2316373 0.23309581 -0.37729436 0.16686682 0.006439414 -0.3630241 -0.8072361 0.02565013 0.00640799 0.20663425 -0.3085066 0.13420185 -0.1661266 -0.37607858 -0.12834077 -0.32791373 -0.06805992 0.27538973 -0.03814896 0.3577894 -0.29801244 -0.25230083 0.5802851 0.34649047 -0.157453 -0.07006182 -0.28524715 0.18704243 -0.46417317 0.07894241 -0.15320197 0.1984882 -0.35039014 -0.24570757 0.14284201 0.14483792 0.2301139 0.24879475 -0.27738038 0.17587169 -0.044805307 -0.2524073 -0.039846364 0.10743425 0.019582795 -0.13882421 0.008863361 0.39846173 -0.02461068 0.3673732 -0.043189403 -0.25810203 0.22713356 0.056431476 0.29389864 -0.5474867 0.38430333 -0.072242275 0.08907144 0.3084595 0.15604283 0.35290638 0.09439152 0.064637244 0.13977441 -0.263816 -0.05506387 -0.06410061 -0.044675596 -0.3879078 0.19946867 -0.1456389 -0.0180051 0.32691443 0.033032853 0.35509434 0.27858838 0.5408255 0.17151843 0.044987723 0.17564113 0.5816847 0.15630037 0.0779479 -0.36960444 0.04920149 -0.07967394
jry -0.17003202 0.48962697 -0.008314589 0.16362385 0.2787942 -0.7694814 0.29065642 0.7332479 -0.3856649 -0.54108113 0.03800065 -0.63914 0.2515572 0.23763706 0.2667119 -0.32590172 0.1997825 0.12771037 -0.49735534 -0.8607032 -0.04275368 0.013932726 0.16878414 -0.31993845 0.123763464 -0.08888883 -0.49683934 -0.22208583 -0.23508216 -0.06667463 0.4833664 0.03654647 0.37682262 -0.43426302 -0.23750848 0.6093389 0.46924317 -0.17182088 -0.09190162 -0.34630716 0.30627295 -0.47340447 0.13898773 -0.21870516 0.12023123 -0.48911402 -0.23381907 0.28338012 0.09031163 0.2632933 0.31604216 -0.35149843 0.27674633 -0.094161294 -0.42512608 0.0019470123 0.09993966 0.10187326 -1.8898834e-05 0.029041447 0.59306383 0.019737907 0.61392266 0.016479842 -0.26178843 0.39066657 -0.07124492 0.33146873 -0.5177735 0.36342576 0.04356513 0.115499094 0.2750263 0.27059177 0.37833682 0.21081176 -0.15427867 0.21278584 -0.27232313 0.0010199549 -0.16402592 -0.05803132 -0.4307674 0.16243519 -0.12893525 -0.06431043 0.42886445 0.032370023 0.34353653 0.22478941 0.71934414 0.18669727 0.09689583 0.14231986 0.70703983 0.055674843 0.034968093 -0.5491124 0.0076638726 -0.1776651
wr -0.43779293 0.71741885 0.15004827 0.63160485 0.40699857 -0.9051133 0.11803222 0.78443927 -0.10855575 -0.3014958 -0.027691338 -0.52648705 -0.17821872 0.30120814 0.2926195 -0.23118545 0.42731288 -0.25208852 -0.10757302 -0.6521652 -0.07570399 0.25311294 0.16805217 -0.45293158 0.011099369 0.36836475 -0.5610285 0.07156647 -0.5394543 0.004126691 0.2536233 -0.056215327 0.0727638 -0.16725633 -0.22890803 0.24988051 0.098549545 -0.2493269 -0.0068812794 -0.42495078 -0.1714033 -0.41130295 -0.07912024 -0.18222016 0.47512683 -0.46872315 -0.2679167 -0.23089804 0.35942975 0.27047274 0.20141238 -0.0020310155 0.11844128 -0.2213199 -0.1590721 0.16283387 0.37354127 0.09812067 -0.35576606 0.2524406 0.34901318 -0.026295712 -0.002322359 -0.10632872 -0.11328955 0.2911065 -0.10653389 0.569617 -0.35552236 0.54711616 0.08207919 -0.06687678 0.26524603 0.113364644 0.3834741 0.094635695 -0.046889268 -0.008845937 -0.07957954 -0.36248094 -0.39697745 0.03274045 -0.3937599 0.41705102 0.05212337 -0.18684807 0.503329 0.018589657 0.39201936 -0.11814649 0.7007645 -0.003285793 0.1580795 0.12569615 0.474528 0.28002116 0.20996179 -0.18115507 -0.3899987 0.026974885
njw -0.33652425 0.59578705 0.008115426 0.3745259 0.3454001 -0.7078983 0.09301617 0.68785864 -0.013604093 -0.20041429 0.0024838476 -0.38264424 -0.1743678 0.1935508 0.24757378 -0.21589813 0.3913996 -0.22650224 -0.071420416 -0.5604241 -0.0687443 0.21702184 0.16755727 -0.4234019 -0.015601587 0.24015826 -0.49070606 -0.023052558 -0.44119215 0.011892351 0.28977573 -0.059202075 0.08379906 -0.23943861 -0.23886885 0.29089427 0.022776809 -0.20141613 -0.0320128 -0.3932804 -0.070777446 -0.33009988 -0.09379676 -0.2019421 0.44794774 -0.33958793 -0.21015573 -0.23091322 0.23020597 0.22486985 0.1575874 -0.05721264 0.055327233 -0.12712741 -0.13529359 0.16881463 0.27952626 0.075284936 -0.3392779 0.25010878 0.32569766 -0.055910744 0.07916005 -0.11048271 -0.057821006 0.29282573 -0.048433594 0.47356585 -0.2878973 0.42745987 0.06008517 -0.01292589 0.15363398 0.055831574 0.2684566 0.09538353 -0.08812255 -0.03713964 -0.05829742 -0.33171734 -0.33756465 0.012425467 -0.35591945 0.39295825 0.04051895 -0.20351712 0.43941543 0.05394612 0.31200367 -0.059192862 0.5504408 -0.056235403 0.121459104 0.06776893 0.39337295 0.16177572 0.150623 -0.13935198 -0.28211197 0.035688348
jrm -0.1492292 0.47681132 0.0008332559 0.13837805 0.30484095 -0.7797871 0.3484476 0.74513376 -0.47731563 -0.547189 0.036980685 -0.5990087 0.21890028 0.20153451 0.29687235 -0.26607168 0.15180555 0.14490692 -0.50347596 -0.91164595 -0.07703654 -0.0059541278 0.20988466 -0.32289597 0.111523 -0.12942399 -0.43160173 -0.15292308 -0.15810105 -0.09043326 0.5343637 0.018029064 0.414555 -0.3955957 -0.23214793 0.6484465 0.56625503 -0.1443841 -0.08552892 -0.3449691 0.41684633 -0.51312864 0.1385822 -0.21201646 0.12855144 -0.45850918 -0.24737868 0.3427049 0.059687883 0.22144252 0.33162326 -0.3823515 0.32498038 -0.036159303 -0.4714604 0.040235374 0.084223896 0.14803936 -0.021076966 -0.04229877 0.5836818 0.055948164 0.62222606 0.040094137 -0.26126987 0.35549158 -0.0023643926 0.29865164 -0.52643234 0.34919325 -0.010277247 0.11372729 0.30072686 0.34231764 0.39546826 0.17955294 -0.11718465 0.25728422 -0.25496784 0.026868599 -0.13403584 -0.10625761 -0.4175744 0.113334455 -0.15171212 -0.04005737 0.40453228 0.05854353 0.32461587 0.28467083 0.69056505 0.21137217 0.073548414 0.10319658 0.7561876 0.033157006 0.051202454 -0.5818888 0.052153938 -0.12778005
jy -0.05328053 0.08363181 -0.047348533 0.20152336 0.3316249 -0.30720192 0.29007956 0.6184306 -0.54976946 -0.16435844 -0.2148942 -0.43444923 0.10800904 0.14742674 0.10311118 -0.34884423 0.053210102 -0.00230111 -0.33857006 -0.64008135 0.09605474 -0.045927845 0.24560107 -0.23198324 0.14264138 -0.3915065 -0.23583372 -0.17184062 -0.32105517 -0.09920847 0.14393635 -0.094223805 0.45622513 -0.23201324 -0.269869 0.65357935 0.23514664 -0.05419408 -0.07526305 -0.19979301 0.18074968 -0.35477614 0.053402945 -0.029242652 0.14354672 -0.11477491 -0.21766548 0.1648178 0.10900559 0.19394399 0.16545732 -0.344289 0.16743393 0.01045364 -0.07951646 -0.108062 0.06571386 -0.07059652 -0.23432495 -0.064243674 0.18086822 -0.072619215 0.30031243 -0.12698571 -0.2527092 0.12612832 0.09774268 0.12728746 -0.48533586 0.24101341 -0.21553451 0.06708079 0.3112276 0.0123208435 0.32454997 0.04846895 0.1997152 0.061051663 -0.22848937 -0.07824644 0.10593232 0.028793292 -0.28722936 0.1043284 -0.24615994 0.061443448 0.16650648 0.045816354 0.26400068 0.42785835 0.32828668 0.23145692 0.015451021 0.16472355 0.45926 0.14291862 -0.011609145 -0.27874845 0.32276717 -0.11408492
nbw -0.14427198 0.17290053 0.1141756 0.55562234 0.6049138 -0.64384884 0.37832597 1.1394055 -0.8828565 0.030103475 -0.63953024 -0.06268242 -0.4122474 -0.039746046 0.16227813 -0.28505778 -0.27876127 -0.2616673 -0.26492292 -0.54428995 0.41529602 -0.03801878 0.5599685 -0.41713792 0.078359984 -0.5352803 -0.33555335 0.24883585 -0.30719852 0.062344853 -0.31715566 -0.343791 0.46822083 0.19305016 -0.25932172 0.93416506 -0.005143045 -0.0854706 -0.030589776 -0.28563204 0.16751882 -0.773468 0.10838913 0.22901456 0.6020374 0.029614529 -0.25338444 -0.26936424 0.050695725 0.36938667 0.049315766 -0.27389464 0.40453598 -0.06271391 0.0049479124 0.015723716 0.10256232 0.07024006 -0.7673871 0.05299515 -0.16340873 -0.26966736 -0.42588088 -0.38807434 -0.13058855 0.053973425 0.6087239 0.4011827 -0.60060275 0.3946892 -0.6899923 -0.08182214 0.60868263 -0.1107633 0.46342316 -0.3651522 0.6964686 0.06575514 0.009136596 -0.27642897 -0.10400351 0.29565924 -0.54224926 0.38139173 0.019795854 0.15578507 0.15954395 0.39130586 0.15534742 0.32959604 0.30153298 0.059115797 -0.052125543 -0.06149898 0.4860038 0.5920054 0.24615279 -0.1629112 0.40770304 0.30844986
hrw -0.08702227 0.08079597 0.06961311 0.43946043 0.44568953 -0.48286417 0.33815283 0.7119308 -0.4757335 -0.06689041 -0.35979098 -0.13314255 -0.2458039 0.0650598 0.16237834 -0.3750467 -0.008436022 0.008309248 -0.31895024 -0.49478617 -0.014242104 0.1289398 0.33677006 -0.30475143 0.15526356 -0.42120966 -0.31538048 -0.031554293 -0.3199478 0.01151999 -0.021206984 -0.1279167 0.46354663 -0.10255343 -0.29464778 0.68778104 0.14650622 -0.1599292 -0.073607296 -0.12374472 0.26239294 -0.4787228 0.09615988 0.04826375 0.3306341 -0.13111228 -0.274747 -0.018654468 0.1960393 0.21711707 0.16162689 -0.19930948 0.18463048 0.0051715346 -0.07202369 -0.003982969 0.19273964 0.0692226 -0.2512979 0.012942582 0.07663593 -0.013804287 0.039955042 -0.2617778 -0.2553262 -0.011633209 0.23648062 0.19488417 -0.49040326 0.22945257 -0.29346886 0.0020329636 0.34668025 -0.07700052 0.44593263 -0.10897959 0.42466182 0.0039054744 -0.29906595 -0.2660964 -0.03230522 0.19788817 -0.3442461 0.15714692 -0.20853071 0.05804999 0.030272251 0.2237219 0.18819015 0.3083102 0.41659033 0.09025667 -0.019302899 0.067439795 0.4619277 0.2526417 0.09492301 -0.14628153 0.27174976 -0.014864786
ns -0.42959931 0.7085065 0.08021435 0.65055966 0.3931326 -0.84841204 0.03882108 0.694223 0.092660956 -0.0015504053 -0.14200862 -0.29669145 -0.53027123 0.17441307 0.41206732 -0.07502318 0.36397645 -0.4130256 0.2014569 -0.39209816 -0.081292 0.4136069 0.29029486 -0.5381016 -0.14241153 0.420695 -0.4275485 0.11427661 -0.7161919 0.08687906 0.20086788 -0.20255934 -0.101316676 0.06608523 -0.21835642 0.01461597 -0.20079003 -0.17308511 0.07608031 -0.49736613 -0.33385262 -0.319171 -0.28314745 -0.045741387 0.6539426 -0.18344751 -0.24762692 -0.63621503 0.46723056 0.062104907 0.12051505 0.14484657 0.011195459 -0.22317277 0.05408874 0.3635761 0.55290645 0.064162515 -0.5143261 0.37869224 0.042218715 0.012049854 -0.44906166 -0.2986227 0.019438215 0.26535296 -0.1668405 0.64441264 -0.21026586 0.50214684 -0.0783959 -0.27209377 0.1988636 0.011337465 0.33616218 0.092655346 -0.03253092 -0.21822871 -0.053926785 -0.59549344 -0.57785195 0.08934005 -0.23250932 0.58296233 0.24103843 -0.25528902 0.39389277 0.10653687 0.491632 -0.37095585 0.6745168 -0.10961298 0.1268081 0.045316417 0.3680136 0.35103992 0.3096069 0.08728324 -0.5385282 0.04694446
mꜣꜥ -0.6447621 0.77290064 0.1344425 0.48261565 0.5948632 -0.95340604 0.40816298 0.44452056 0.49032313 -0.43530786 0.3254039 -0.25419456 -0.26936746 0.49901304 0.385458 -0.38809907 0.96690375 -0.43431935 0.16799615 -0.2533095 -0.22560444 0.80604464 -0.12102678 -0.3579676 0.24643898 0.5576213 -0.64011955 0.16316888 -1.0980817 -0.12260809 0.3650798 -0.05033408 -0.45314854 -0.06507783 -0.21158698 -0.10737898 -0.27438167 -0.22612351 0.19637512 -0.93836236 -0.83980936 -0.23583692 -0.2364741 -0.35169166 0.6094036 -0.45579198 -0.3512038 -0.5480808 0.51670223 0.097192995 0.10270387 0.107116394 -0.29091066 -0.4822194 0.1098922 0.22309779 1.0184165 0.15403993 -0.42798305 0.26890066 0.16918936 0.027111068 0.014427418 -0.41733474 -0.22192217 0.6408406 -0.5501346 0.66829 -0.17232159 0.2988751 0.18018565 0.13242902 0.1090994 0.040550318 0.3368415 0.24107726 -0.63845736 -0.27248582 -0.39686692 -0.6843486 -0.4328465 0.0032608833 -0.23687582 0.8912819 0.40585658 -0.30874735 0.759035 -0.4721209 0.48695984 -0.45048916 0.51994956 0.13001521 0.09979489 0.13567795 0.40399402 0.23514149 0.16322544 -0.032801356 -0.7672122 -0.066652596
nꜣy -0.19688377 0.6270483 0.04514196 0.04937535 0.38703224 -1.0175143 0.54550564 0.84199286 -0.43279535 -0.8826096 0.21293925 -0.7892003 0.4999954 0.3374785 0.3818888 -0.54355836 0.34114444 0.24961738 -0.7524935 -1.0974383 -0.12820394 0.0788322 0.21217452 -0.36013708 0.23109443 -0.21030101 -0.65393883 -0.3071944 -0.2728076 -0.11853023 0.8062485 0.06773081 0.4733021 -0.6356371 -0.3529902 0.8623514 0.74282134 -0.23578648 -0.10285232 -0.56101 0.47354624 -0.61630267 0.23132539 -0.41292018 0.07213832 -0.7143225 -0.3551319 0.49566275 0.059393536 0.30817434 0.48625454 -0.535196 0.31783712 -0.16093677 -0.68942165 -0.009980088 0.15552042 0.23096192 0.10005247 -0.07532446 0.8647888 0.11178576 1.0582169 0.0115078315 -0.44743732 0.55674917 -0.118232764 0.32671636 -0.7135325 0.36703834 0.12941769 0.3100466 0.33766457 0.45869702 0.51689017 0.37063023 -0.33342397 0.32329753 -0.4973832 0.10759727 -0.12638 -0.15695675 -0.61406434 0.20839438 -0.20563893 -0.081576444 0.6097069 -0.052905176 0.42153418 0.3471635 0.9385254 0.3776641 0.059761185 0.11011365 1.0313553 -0.06105985 0.007036323 -0.8026054 0.021037886 -0.28504556
ꜣḫ -0.21611303 -0.10954126 -0.003801499 0.83621436 0.7701719 -0.5118791 0.33679986 0.994349 -0.42635703 0.36646375 -0.74795747 -0.13257827 -0.6993715 0.115667745 0.20377097 -0.43723783 0.09920507 -0.45857722 -0.06510695 -0.4374513 0.1594957 0.40569654 0.66928923 -0.54087347 0.15451095 -0.42325056 -0.273615 0.05545962 -0.92961335 0.027766213 -0.36121422 -0.38467002 0.43831375 0.11002307 -0.4940165 0.7745689 -0.4217941 -0.10381812 -0.13548571 -0.2513987 -0.17222573 -0.4233164 -0.17592923 0.18362729 0.6872544 0.107395545 -0.41816083 -0.6257946 0.58630186 0.13018578 -0.01109361 -0.17000008 -0.027812015 0.010800298 0.41823024 0.081753105 0.56291187 -0.21374983 -0.7981822 0.20416793 -0.39958286 -0.22794686 -0.6041651 -0.620823 -0.21655008 -0.061485205 0.19039541 0.33956513 -0.52067786 0.39301065 -0.71463245 -0.17176567 0.40957803 -0.41006652 0.57731825 -0.21222663 0.7857867 -0.3924179 -0.30931363 -0.67471373 -0.08016421 0.33608887 -0.32098466 0.46780473 -0.29176313 0.04916897 -0.041822843 0.19501624 0.40607372 0.32143933 0.3222894 0.10856559 0.03250712 0.22153623 0.30870095 0.59692156 0.18700583 0.40419593 0.26703346 0.036275934
ḥmty -0.1971662 0.30346793 0.07936908 0.54532963 0.5270581 -0.6604913 0.26865005 1.003101 -0.6304542 -0.0075515667 -0.46757108 -0.17076273 -0.32257077 0.024486693 0.18995126 -0.25191584 -0.12053646 -0.22038046 -0.17190017 -0.5661318 0.27456605 -0.021431243 0.464742 -0.4427467 0.040244125 -0.27180043 -0.29238692 0.15819164 -0.3163427 0.033110026 -0.17020951 -0.25645143 0.35751265 0.110722005 -0.22103275 0.7015526 0.013917642 -0.11792186 -0.039580796 -0.25213683 0.13853186 -0.6139775 0.04061134 0.11825224 0.5235783 -0.09074001 -0.20461799 -0.24706307 0.14095311 0.26777768 0.0700185 -0.19227678 0.3090158 -0.0295441 -0.035387468 0.0940918 0.12697393 0.07373044 -0.5924444 0.107696004 -0.009944901 -0.18680748 -0.31773388 -0.29191157 -0.09937178 0.07050189 0.35868743 0.38468966 -0.48139474 0.41567716 -0.49077773 -0.11966842 0.46865693 -0.07673573 0.40745246 -0.23323555 0.5310225 0.025776185 0.0025042312 -0.2575783 -0.18456028 0.1807599 -0.48983327 0.29354608 -0.012756846 0.08208559 0.17616561 0.3292469 0.25428098 0.21202351 0.39111987 0.0021198967 0.019941563 0.023649754 0.42250833 0.4580481 0.26127732 -0.116911836 0.20688482 0.20064366
ḥtp -0.48606446 0.571259 0.13079959 0.73727036 0.44936857 -0.7692779 0.14187591 0.66565275 0.08495468 0.06354449 -0.21139637 -0.21264042 -0.51281387 0.20450984 0.40754396 -0.26299435 0.4064141 -0.46569806 0.1471621 -0.24386235 -0.10283949 0.50543797 0.31704625 -0.50580645 -0.04225384 0.24263345 -0.45094135 0.12113475 -0.8550315 0.08036562 0.098600574 -0.28994098 -0.0940162 0.11394114 -0.30062214 0.082512446 -0.29150158 -0.17356616 0.06574277 -0.56452125 -0.43838492 -0.28331986 -0.29836333 -0.08449967 0.61636543 -0.090315394 -0.33376777 -0.7062566 0.4905547 0.061581697 0.101037495 0.082371905 -0.072174974 -0.31022343 0.15659705 0.31068042 0.6526266 0.06660701 -0.5887808 0.3716948 -0.15147343 -0.019129056 -0.43041217 -0.47846115 -0.10287688 0.19424355 -0.15353699 0.5809073 -0.29777426 0.43842041 -0.1585085 -0.18118952 0.23593248 -0.14105761 0.39800632 0.008144885 0.072122104 -0.2673552 -0.17643522 -0.644042 -0.53543365 0.14401184 -0.26368988 0.6415212 0.11702336 -0.25485477 0.30792865 0.027552681 0.5030447 -0.3172996 0.516373 0.033317372 0.057316072 0.03478367 0.31991914 0.38122094 0.28574106 0.21398143 -0.39845958 0.05102249
smtr -0.09345445 0.35280967 -0.11240116 0.22159289 0.27393836 -0.61636764 0.28093237 0.81143594 -0.3605277 -0.1870335 -0.16179326 -0.31978196 -0.13138045 0.054291863 0.3691827 -0.24350373 0.016873697 0.059108067 -0.39169705 -0.77735174 -0.12129454 -0.04382122 0.36210388 -0.40748468 0.0070473626 -0.27000096 -0.3269707 -0.24088526 -0.2738845 -0.0058930805 0.29413456 -0.06681482 0.43035132 -0.24755515 -0.39488623 0.5463176 0.34685618 -0.0399096 -0.14874989 -0.17092791 0.45760062 -0.4055536 0.091561384 0.0034653225 0.26084527 -0.2060108 -0.25814843 0.05577218 0.17467956 0.13706222 0.18173134 -0.33051145 0.18264177 0.115779325 -0.26328337 0.1851014 0.13957405 -0.02665986 -0.17078684 0.021717489 0.32816926 -0.023335103 0.29130012 -0.11454811 -0.17471792 0.18928567 0.08949369 0.28400654 -0.48612404 0.3261471 -0.15449624 -0.06653547 0.30619264 0.05803649 0.39835373 0.2090902 0.17603527 0.06058069 -0.30596796 -0.16002208 -0.10028436 0.015366365 -0.28582442 0.07010589 -0.21643335 -0.08127904 0.0841001 0.26023418 0.39953133 0.2709527 0.6819823 0.12166579 0.028443808 0.11749257 0.7203769 0.16544637 0.100129165 -0.24612987 0.017708024 -0.070792995
hꜣb -0.095928416 0.5994825 0.008849264 -0.20434046 0.20552519 -0.8679084 0.44100043 0.5957436 -0.27547577 -0.9504969 0.35894057 -0.8550701 0.59632325 0.35138342 0.2693383 -0.38116693 0.3246445 0.376498 -0.7517813 -1.0747184 -0.18789668 0.014279242 0.030499978 -0.27857414 0.13956334 -0.0830877 -0.58449453 -0.401024 -0.123344645 -0.1772331 0.8517888 0.109754786 0.43541467 -0.70496154 -0.21322395 0.6232711 0.7361523 -0.14320251 -0.02453747 -0.42655954 0.4504478 -0.44019505 0.20345327 -0.36169514 -0.10396697 -0.7356723 -0.19675906 0.6253707 0.01996146 0.30453387 0.4364076 -0.5078087 0.33599892 -0.09389005 -0.6487125 0.005643081 0.05314725 0.19808818 0.32205993 -0.1049453 0.9467499 0.1354008 1.1827381 0.19459268 -0.3794923 0.62922496 -0.20856903 0.27473265 -0.52852356 0.27760074 0.3379317 0.304237 0.30490804 0.53190494 0.35060403 0.4763692 -0.5472824 0.30743945 -0.42679045 0.17969434 -0.07210583 -0.17515102 -0.46800357 0.10256987 -0.10965123 -0.11626084 0.6125665 -0.108751155 0.31641853 0.3174466 0.86097515 0.3566777 0.1097805 0.16698824 0.9427421 -0.18356612 -0.099701986 -0.84647334 -0.03143894 -0.3857562
jt -0.19481066 0.42744613 0.03657013 0.20813064 0.30513278 -0.6743743 0.30412325 0.58488387 -0.29614937 -0.4254579 -0.008843197 -0.49273878 0.12006466 0.20673592 0.26877663 -0.27628425 0.19425465 0.0120654795 -0.3107744 -0.6694967 -0.058937922 0.13677332 0.17999159 -0.3118018 0.09804189 -0.08108673 -0.4045334 -0.092796735 -0.31989676 -0.07992344 0.39097893 -0.04382045 0.25675514 -0.24542603 -0.23820488 0.47821498 0.30358732 -0.15569799 -0.013386389 -0.38541558 0.14396864 -0.44117373 0.036717217 -0.19551562 0.18924828 -0.3671829 -0.24204186 0.0997186 0.12825735 0.17779501 0.27414966 -0.25190824 0.1785686 -0.12327385 -0.27590993 0.06664592 0.21325871 0.09779731 -0.109240755 0.022623103 0.39847547 0.041838434 0.39557424 -0.08190628 -0.24007355 0.30002245 -0.0650069 0.3078755 -0.43546087 0.2916255 -1.1935266e-05 0.08164932 0.26724416 0.22637472 0.36934862 0.18007828 -0.14404058 0.113307945 -0.24976215 -0.10652359 -0.19316795 -0.05272919 -0.3507254 0.2616499 -0.03684079 -0.08584797 0.40445927 0.013927693 0.33672604 0.114374295 0.57351154 0.2029098 0.08552849 0.09562388 0.6124296 0.10296679 0.07367325 -0.37212983 -0.041977398 -0.12270784
ḥry -0.33132905 0.5296649 0.10014139 0.54542524 0.44411358 -0.7841668 0.19880515 0.8106299 -0.24602053 -0.17346609 -0.19904949 -0.38411015 -0.24255644 0.20123301 0.28944746 -0.28124875 0.2352822 -0.19880481 -0.11282941 -0.553715 -0.00992559 0.2006924 0.32241023 -0.45402417 0.030126413 0.076261565 -0.43670082 0.019617025 -0.5432978 0.020623542 0.18940753 -0.14262457 0.19035049 -0.068536565 -0.25802186 0.4030271 0.058233045 -0.1980737 -0.025024494 -0.39926606 -0.04804421 -0.4387272 -0.078037806 -0.09736471 0.4418291 -0.28990886 -0.25861594 -0.25906724 0.31351382 0.20358647 0.17975034 -0.1273223 0.18153709 -0.16938792 -0.09029317 0.1563595 0.3483871 0.08864874 -0.39140657 0.18694293 0.18823859 -0.036546834 -0.0660682 -0.24956314 -0.14994057 0.21039882 -0.00911224 0.4730026 -0.42242572 0.45316392 -0.13901743 -0.076695554 0.30706996 0.015968341 0.4071284 0.034429695 0.11529446 -0.007866295 -0.13094582 -0.36898705 -0.3231036 0.06607409 -0.4129192 0.4102072 -0.008585639 -0.1167267 0.36856616 0.10182845 0.38313007 -0.00048463244 0.62324166 0.060484733 0.06474812 0.10186808 0.49297923 0.30494797 0.19798963 -0.15680262 -0.15412371 0.015325383
ꜥḥꜥ -0.22733057 0.5290589 0.07053819 0.16232951 0.38106683 -0.72762245 0.44317502 0.69184625 -0.38934186 -0.60940254 0.11344284 -0.6628666 0.32668278 0.3456939 0.30312914 -0.4593995 0.3578726 0.07960919 -0.5375767 -0.9590785 -0.057491936 0.12579313 0.088256225 -0.2808582 0.22010638 -0.04141075 -0.5899347 -0.19144303 -0.35420197 -0.15820412 0.5222381 0.05427816 0.2891385 -0.4207777 -0.23403084 0.58326584 0.5214439 -0.1729862 -0.044957463 -0.453155 0.13500744 -0.46585122 0.10968431 -0.26561257 0.124413885 -0.5354758 -0.30309135 0.33373034 0.12140411 0.3064981 0.35272956 -0.36340955 0.16355628 -0.14709015 -0.433217 -0.060304057 0.22699991 0.11852748 -0.013493049 -0.0036199722 0.573904 0.024159154 0.74096334 -0.026121432 -0.39836487 0.45762458 -0.14896983 0.38220313 -0.6062396 0.3639328 0.0646157 0.2761787 0.3105958 0.26309076 0.36730078 0.2212202 -0.23488446 0.21355905 -0.39786556 -0.00053051574 -0.0949237 -0.10404679 -0.43381688 0.21547121 -0.0808206 -0.07106959 0.5056296 -0.12307213 0.35532972 0.2173577 0.6250435 0.27916044 0.08872984 0.16398722 0.79421705 0.031068496 0.012915966 -0.5245943 -0.04067652 -0.20544313
sp -0.1397084 0.46634844 0.10807724 0.035428964 0.44000623 -0.6842894 0.5362951 0.5949491 -0.43729505 -0.7929655 0.17959203 -0.7153248 0.5781029 0.44049513 0.3073302 -0.5548073 0.31961644 0.19990622 -0.60018384 -1.0093293 -0.04919763 0.0644154 -0.0452534 -0.1856376 0.3422339 -0.125587 -0.5504943 -0.23924442 -0.3029338 -0.19559522 0.57378924 0.1860923 0.25188154 -0.53837967 -0.20214674 0.6848642 0.68598515 -0.16661352 -0.043653827 -0.5464751 0.1709452 -0.51431066 0.22696988 -0.27083868 0.12569416 -0.6291724 -0.36389238 0.5376452 0.13540232 0.22786441 0.44156402 -0.34176543 0.2225425 -0.15756123 -0.590147 -0.19616817 0.13383836 0.11829131 0.05211308 -0.0408347 0.6478794 0.11977642 0.9666604 0.022303278 -0.51296675 0.45514265 -0.22072919 0.39763615 -0.64272743 0.3644526 0.090348944 0.4052603 0.21194394 0.26381522 0.42196426 0.32990596 -0.29146776 0.2653746 -0.4831303 0.14702037 -0.005800118 -0.19387303 -0.529471 0.10663759 -0.08140124 -0.06496564 0.56556886 -0.13992523 0.4655424 0.335473 0.6408068 0.4375531 0.045457885 0.23294027 0.8662732 -0.026399776 -0.012380583 -0.63042206 0.029351242 -0.28167242
md -0.12185652 0.44647223 0.049672425 -0.10201989 0.2654327 -0.8043088 0.38833094 0.6001651 -0.23490143 -0.735931 0.21988334 -0.6759865 0.42961758 0.29431295 0.24992353 -0.44169277 0.26718327 0.24961235 -0.5942369 -0.901126 -0.12460382 0.057085104 0.1080454 -0.3419282 0.15464489 -0.11642174 -0.52206707 -0.26047477 -0.19753025 -0.088798605 0.6747223 0.08097867 0.36458045 -0.5733604 -0.28672 0.65394545 0.5699729 -0.20194522 -0.034029 -0.39478686 0.40275496 -0.462001 0.2079116 -0.28870663 0.042217035 -0.6695325 -0.23792873 0.43855265 0.092269145 0.25104383 0.43178234 -0.41707474 0.34101796 -0.08524329 -0.59610474 0.0549817 0.092733935 0.2193755 0.11868708 -0.05114664 0.7723461 0.12061105 0.8890021 0.050724525 -0.34224355 0.43933547 -0.14710166 0.25892666 -0.47554073 0.27379647 0.20856832 0.21725897 0.23190601 0.39716864 0.4112972 0.37532958 -0.3187124 0.2819491 -0.36392415 0.091633946 -0.11544561 -0.10536775 -0.49996102 0.11299211 -0.16961962 -0.072572365 0.5215632 -0.026696987 0.3629168 0.2990512 0.8457247 0.27926335 0.01989346 0.08112171 0.8176604 -0.081741825 0.0022844686 -0.6777185 0.0045771943 -0.24839446
mw.t -0.34836325 0.5471065 0.06930235 0.52509683 0.4072626 -0.7772418 0.17446515 0.65783215 -0.13755864 -0.14859094 -0.13361523 -0.3813793 -0.23509462 0.22983417 0.3508211 -0.2724495 0.35920537 -0.2609535 -0.040486235 -0.5239452 -0.042111415 0.28823617 0.23945966 -0.46468297 0.015599396 0.15259258 -0.4541991 0.034406494 -0.6573323 0.0052477373 0.20334044 -0.13778475 0.056627724 -0.07488411 -0.2599468 0.24898814 -0.024245244 -0.17604525 0.0168345 -0.448509 -0.19827363 -0.4062163 -0.16025254 -0.1275164 0.495406 -0.26844618 -0.2987858 -0.36334753 0.36793306 0.13455033 0.18124658 -0.049641505 0.036987633 -0.18551524 -0.038157497 0.20162308 0.42350405 0.040315554 -0.40185803 0.25074285 0.14594436 -0.032191973 -0.090383396 -0.2599701 -0.13751663 0.25781128 -0.070834965 0.5067792 -0.3581712 0.44137153 -0.080862515 -0.09049278 0.27819335 0.011900167 0.359401 0.11632083 0.007215781 -0.10031908 -0.15205641 -0.4450714 -0.39202517 0.0387116 -0.2985213 0.4783897 0.087493435 -0.1788259 0.37211508 0.049173944 0.4717363 -0.11163109 0.594336 0.0814529 0.100788996 0.10329724 0.4416052 0.27675325 0.2180808 -0.042338695 -0.2795213 -0.005128676
jḫ -0.1026747 0.62895066 0.01639168 -0.13040678 0.20070863 -0.8934545 0.3930585 0.65819556 -0.3231671 -0.8605947 0.28760466 -0.7642602 0.4692706 0.2921848 0.33604565 -0.3536816 0.28596893 0.3142094 -0.7028869 -1.1072028 -0.18753022 0.0008008439 0.048224095 -0.34332636 0.12658015 -0.02774758 -0.58658034 -0.34857687 -0.10885798 -0.19363853 0.8128555 0.14234841 0.39258754 -0.61512095 -0.21330217 0.5701886 0.71505785 -0.17286609 -0.047513563 -0.39338088 0.5131762 -0.47491324 0.18695919 -0.3256561 -0.039585873 -0.74335635 -0.23022556 0.561978 0.04189881 0.3051666 0.41769898 -0.46241698 0.35060504 -0.07243179 -0.6580215 0.05346216 0.04905713 0.19630656 0.29651356 -0.075199075 0.92269516 0.15250945 1.0558759 0.15085278 -0.3424661 0.6319162 -0.17856285 0.34657028 -0.53082293 0.29443413 0.2777873 0.24432056 0.29114935 0.50729394 0.36518338 0.4397147 -0.48179412 0.33766052 -0.37437448 0.16141799 -0.1395097 -0.1717618 -0.4694786 0.121281765 -0.0553466 -0.14753018 0.6319913 -0.05456178 0.37668014 0.22856732 0.9028368 0.31446168 0.08975477 0.14671491 0.9899465 -0.124349944 -0.03959541 -0.805665 -0.09370705 -0.31075373
wy -0.25842634 0.4754856 0.03936483 0.37288544 0.51619977 -0.8196344 0.36411992 0.73199314 -0.18005115 -0.24832544 -0.094979845 -0.36918995 -0.13770734 0.23820268 0.30707908 -0.4376791 0.35784683 -0.17064844 -0.20944984 -0.57775354 -0.044392154 0.28500938 0.31142864 -0.46847117 0.088546745 -0.024414675 -0.5341134 -0.057540655 -0.6968928 -0.07908142 0.297759 -0.16218665 0.16288878 -0.07807794 -0.32624224 0.4735889 0.05445231 -0.14543399 0.073323235 -0.4924668 -0.061088394 -0.47936755 -0.08351773 -0.09471821 0.41997543 -0.29375967 -0.27293503 -0.19822614 0.31801307 0.19207464 0.19311643 -0.24928072 0.062913 -0.20505178 -0.12006824 0.16787346 0.45324957 0.03981221 -0.44846627 0.11972021 0.23428403 -0.04932942 0.12045417 -0.29955402 -0.18599802 0.298391 -0.044177357 0.41852215 -0.41131225 0.38479346 -0.112205826 -0.036242373 0.31195337 0.047406554 0.36664793 0.14102557 -0.013568969 -0.10161948 -0.29407075 -0.35099378 -0.25619555 0.105143525 -0.4265087 0.50044197 0.09114098 -0.14617477 0.4474733 0.03563675 0.44891447 0.035471145 0.6000678 0.13666217 0.060060203 0.107208915 0.58129585 0.21876127 0.14230976 -0.20272097 -0.15914062 -0.08646176
ḥw -0.49755844 0.69050545 0.11678028 0.58770686 0.52414656 -0.8408481 0.20620371 0.63260543 0.09966382 -0.18145223 0.015605791 -0.33168375 -0.33136714 0.32067883 0.33662894 -0.27416632 0.5950927 -0.39621362 0.11369064 -0.395042 -0.06382713 0.48432514 0.09927422 -0.4495046 0.089978665 0.39969918 -0.48090652 0.14430693 -0.8177052 -0.023787437 0.20383228 -0.1310684 -0.1823441 0.005029564 -0.24363728 0.08932324 -0.192663 -0.17905405 0.12020795 -0.62691915 -0.4976666 -0.347885 -0.19683966 -0.16121824 0.598873 -0.32185522 -0.29060927 -0.48477635 0.4313759 0.140967 0.077644035 0.047914486 -0.04583774 -0.28433228 0.043528914 0.25244436 0.64521134 0.12645014 -0.5187976 0.25039375 0.13077147 -0.05924253 -0.23482753 -0.29891044 -0.063600354 0.3392322 -0.26107943 0.59533024 -0.23174909 0.4149288 0.028931504 -0.030195432 0.2055622 -0.0071518314 0.31221622 0.077821344 -0.15840352 -0.1752322 -0.16582762 -0.5557415 -0.38451058 0.032187052 -0.2774433 0.65488654 0.22589894 -0.2003704 0.528558 -0.13089268 0.4346161 -0.24669419 0.5247354 -0.015608333 0.08400513 0.09313574 0.3488558 0.32579058 0.25943992 -0.024429323 -0.506474 0.053272977
