1746 20
t -0.78596556 0.60153306 0.6208532 0.15430078 0.22944473 -0.62303835 -0.07523954 0.88059807 -0.26726294 0.113154344 0.6737134 -0.8278559 0.23887046 -0.16129445 0.06832351 -0.68346894 1.3593093 -0.1356973 -0.26761892 -1.6824614
n 0.1101304 0.5225272 1.2291114 -0.09209037 0.19537134 -0.017878607 0.60287815 0.78590906 -0.4634947 0.30844203 0.35674602 -0.33106932 0.9551715 -1.1839663 0.59103674 0.683259 0.6772867 0.33115166 -0.59348255 -1.2346787
m -0.55004495 0.85392416 0.68530494 -0.25863996 0.17037691 -0.441892 0.043727152 1.0018383 -0.31816366 0.18209156 0.46972835 -0.31295544 -0.0056056706 -1.1135277 1.0903589 -0.32919294 0.95554185 -0.28977403 -0.78388274 -1.3046904
w 0.139134 0.3088437 1.5166577 -0.68330216 0.12934923 0.1320127 1.6749704 0.45492357 -0.6669391 -0.130267 0.15475722 -0.08105061 0.27595297 -1.4307361 1.0957648 0.80985826 0.83645755 0.015531508 -0.83310586 -1.8729383
f -0.77941334 1.2459464 1.0110592 -1.2118971 1.6517559 -0.68753994 0.7417725 1.0451963 -0.35430712 0.5993621 0.9350579 -0.35805288 0.096293755 -1.7982371 1.1167048 -0.594734 0.24500276 0.04223949 0.009317596 -2.217119
j -1.3206545 1.6792511 1.342726 -1.5776575 1.9442708 -0.72538 0.8232553 1.2198942 -0.48208743 0.40393278 0.52816 -0.61476755 -0.024539234 -2.0287566 1.153078 -0.55839515 -0.14395604 0.98281854 -0.12380973 -2.4566913
ḥr -0.52646726 0.99068564 1.2292259 -1.1792208 1.8238136 -0.46205044 0.4116252 0.89606416 -0.19245227 0.55427194 0.7997011 -0.6324236 0.13119224 -1.253802 0.6055112 -0.35101926 0.9818399 0.23683242 0.47625205 -1.8607395
pꜣ 0.5369046 0.16651848 0.9965317 0.17768176 -0.10930305 0.3849858 0.8303336 1.0167674 -0.7355174 0.51290685 0.50473535 -0.40473372 1.1466863 -1.1958054 0.8095974 0.70787024 0.80985165 0.5252044 -0.7656004 -1.2475622
jw -1.1331149 1.5042601 1.030646 -1.2276024 1.6078639 -0.5825349 0.71668 0.981528 -0.10727691 0.38080016 0.8940363 -0.88811135 0.08195299 -0.9592311 0.45957378 -0.7307913 0.4494823 0.37969115 0.30341536 -2.0144775
r -0.7504953 1.0725676 1.3735921 -1.2776344 1.6030923 -0.5804891 0.5415149 0.5786981 -0.2519273 0.33238554 0.39451742 -0.23111738 0.17272781 -1.678406 0.9445691 -0.4906095 0.57699007 0.41764045 0.037420586 -2.3788571
k -1.185922 1.57002 1.7599012 -1.6820158 2.103908 -0.4966968 1.0580968 1.144167 -0.9244472 0.34574148 0.007332201 -0.46557122 0.4449938 -2.5675988 1.3996096 -0.6251146 -0.16810976 1.336426 -0.25748718 -3.3855035
ḏd -0.22565836 0.71600175 1.2784661 -1.4172468 1.7527089 -0.53065586 1.8194637 1.2224972 -0.7664988 0.67857945 0.24854358 -0.013586231 0.43026882 -2.7365448 1.3244338 -0.083348125 -0.09001335 0.6857068 -0.3277836 -3.275661
s 0.3811749 -0.22554964 1.3240846 -0.32324168 0.65381724 0.058143713 1.6409621 0.38754618 -0.7631416 0.13011983 0.058948927 -0.02412964 0.37390265 -1.6352693 0.9366188 0.50657666 1.144142 -0.29536626 -0.46635187 -2.1301239
jmn 1.434082 -0.8941436 1.186971 1.4735204 -1.3764901 0.66770047 0.79352087 1.3015546 -1.5414511 0.22185789 0.63830894 -0.45754486 1.5097368 -0.9622906 0.8384822 1.4309365 2.3772306 -0.26210055 -1.7802994 -1.0481681
tꜣ 0.5358358 -0.2328744 1.0674329 0.197331 0.24232414 0.0055175303 0.4500331 0.57001334 -0.6049158 0.34607103 0.6202806 -0.43425632 1.2593342 -1.267681 0.82659256 0.5846154 1.5618484 0.22073467 -0.23028162 -1.6821407
sw -0.9567485 0.92418927 0.6724928 0.73069376 -0.673726 -0.39221466 -0.9379054 1.1755415 -0.71243393 -0.21843834 1.9654711 -1.3149275 -0.17245477 -0.10659521 0.5161406 -0.46213806 2.510792 -0.5937159 -1.3642076 0.18352531
pr 0.7554381 -0.28330398 1.5248327 1.1082048 -1.237966 0.75395906 1.1169852 0.93256885 -1.1299747 0.21259424 0.6826219 -0.5574905 0.67500645 -0.92201835 0.7399123 1.3166189 1.6296731 -0.29665115 -1.4482864 -0.20941138
pꜣy -0.39334685 1.042866 1.4000843 -1.0430006 1.2585166 -0.22314778 1.1006912 0.81834 -0.50013685 0.40512002 0.36541322 -0.1951734 0.2130396 -1.9006544 0.8834427 -0.051529113 0.27029744 0.6459963 -0.15439469 -2.3467145
jr -0.85446435 1.3542094 0.9110135 -0.9081377 0.5309127 -0.4809743 0.23366155 0.73654014 -0.21463361 0.058449853 0.691174 -0.7516178 -0.11313132 -1.0650082 0.5496953 -0.18491323 0.23643975 0.6806906 -0.35571647 -1.1940118
ꜥ 1.0900066 -0.74364185 1.5143625 0.12996171 -0.11514657 0.24321136 1.9402939 0.5029918 -1.0803545 -0.08707642 -0.2719797 0.23192295 0.73290944 -1.7727151 1.3695238 0.9960655 1.4806299 -0.39185354 -0.9230123 -2.2633357
nb 0.36123428 -0.37585503 1.1585021 -0.5384049 0.5992651 -0.18079348 1.4269112 0.29012898 -0.8378144 0.3229373 -0.22548671 0.12911133 0.38045454 -1.8228903 1.0751815 0.42242336 1.2172111 0.009038951 -0.4121968 -2.9028127
ꜥꜣ 0.6762755 -0.14485043 1.6399118 0.29843968 -0.27567196 0.36425 1.3140723 0.60092115 -1.0052925 0.10189664 0.33260107 -0.13564941 0.78978074 -1.4104598 1.1015705 0.8829337 0.9917006 0.13666308 -0.73718774 -1.2042814
jn -0.20443739 0.726166 1.0267454 -0.49351123 0.9568829 -0.3543219 0.95681494 1.006209 -0.35500583 0.34476382 0.48412544 -0.14410101 0.5388577 -1.8669084 1.12674 -0.20019266 0.32862833 0.10508986 -0.35834533 -1.9818714
ḫr 0.010113409 0.67295605 1.2177658 -0.39423224 0.2975867 -0.041931123 0.80871636 1.0634532 -0.63785917 0.4273715 0.20993626 -0.33127895 0.7387773 -1.5777881 1.029459 0.49522135 0.19596365 0.89358383 -0.62710637 -1.7277493
nꜣ -0.5938816 1.0856656 1.6285357 -1.2742932 0.64859223 -0.31771424 1.5143614 0.47434992 -0.46799028 -0.22695209 0.56510764 -0.38076475 0.19084066 -1.6671686 1.2997612 0.2318227 0.335144 0.6011458 -0.5360172 -1.6051708
tw -1.0094064 1.3794582 1.3372399 -1.505988 1.4409846 -0.6548111 1.0396605 1.110974 -0.6305256 0.19546093 0.31707788 -0.36723235 0.027476136 -2.2206721 1.0552032 -0.72427136 0.04050368 0.5328127 0.044912424 -2.7347424
1 -2.0035362 1.7158276 1.9385321 0.8389492 -1.4897012 -0.085836776 -1.1722306 0.9429402 -0.8087309 -0.19763108 3.1340187 -3.037216 -0.6413684 -0.16490446 -0.06666169 0.3328712 3.6462426 -0.49375626 -1.4265794 0.43070582
rꜥ 2.149767 -2.1776342 1.4883207 0.7857073 -0.5702659 0.27975288 1.6825142 0.68900007 -1.5568944 0.018780097 -0.10351965 -0.46854132 1.677862 -1.0880102 0.6904702 1.510356 3.5619247 -0.6579515 -1.560787 -3.3177469
rdj -0.9962619 1.1869177 1.2138026 -1.1398569 1.5653083 -0.43053088 0.33968052 0.81840986 -0.43915114 -0.040535033 0.66656977 -0.6663746 0.05416402 -0.8996725 0.45302618 -0.57830936 0.33552155 0.6025616 0.3655833 -1.4015201
sn 0.079031914 0.9864925 1.408384 -1.1658401 1.3551154 -0.44713134 0.57959574 1.0859485 -0.3488644 0.68384457 0.6556511 0.17073978 0.168464 -1.8134321 1.2708676 -0.1359653 0.5030527 0.1311511 0.3897433 -2.943715
wn -0.07142175 0.76471776 1.0749274 -0.7957384 1.0684016 -0.22578676 1.1448203 1.0586911 -0.5435806 0.47490567 0.42794028 -0.24240516 0.5861292 -1.5621166 0.89848125 -0.04025363 0.43179435 0.39818692 -0.14665149 -2.1415613
wt -0.45626464 1.0005488 1.8912221 -0.9089696 0.55874574 -0.19203971 1.1868018 0.03430622 -0.46001583 -0.13416186 0.52737886 -0.23939212 -0.08790817 -1.6843833 1.1464438 0.43995658 0.53341883 0.19229434 -0.41887036 -2.0864882
2 -1.7924227 1.6663617 1.3293968 0.3768948 -0.64025205 -0.31484842 -1.2043805 0.9654815 -0.6653968 -0.22599183 2.2221458 -2.2923856 -0.74922097 0.11812459 0.0008226566 -0.42380702 2.501389 -0.3615026 -0.956709 0.09347427
10 -1.2828678 1.2653803 1.3815678 1.2266526 -1.2659913 -0.13152094 -1.429847 1.3052648 -1.0674616 -0.26577568 2.412282 -2.1031723 -0.34826136 0.31031707 0.30478042 -0.38826656 3.3981113 -0.48572358 -1.4152449 0.36811247
mtw -0.93972725 1.2074689 1.55905 -1.483256 1.7174964 -0.71242404 1.1649754 0.8558233 -0.6809582 0.1973569 0.22243544 -0.35569206 0.15596803 -2.436182 1.3130826 -0.5271639 0.15549639 0.8186409 0.01602839 -2.9891324
nṯr 1.7520573 -1.1492263 1.5395536 0.5095551 -0.3086359 0.46365938 1.6103778 0.38395986 -1.2028575 0.10482678 -0.22921301 -0.15873662 1.5773168 -1.558116 1.0885856 1.4746355 2.2465076 -0.06692946 -1.178691 -2.669874
sꜣ 0.78297436 -0.08839618 0.8755698 0.93266493 -0.9346744 0.4205951 0.17854549 1.1446264 -0.8925306 0.4062482 0.6607412 -0.58919805 1.2016213 -0.9503595 0.72289526 0.70645773 1.862153 -0.2292018 -1.124445 -0.8287233
nty 0.016707487 0.516521 1.2225825 -0.71713406 0.9793983 -0.34846714 0.7436557 0.61538994 -0.37505996 0.14297129 0.1476565 -0.22686443 0.64064586 -1.6438602 0.94880295 0.16698918 0.61831844 0.43091866 -0.30330777 -2.287933
ḏr -0.14549012 0.48189282 0.37409055 1.0882899 -0.5756 -0.10311852 -1.1718616 1.2583481 -0.8156312 -0.4843492 1.1792088 -1.2723113 0.11663142 -0.32840517 0.51047146 -0.19823968 1.8780175 -0.7969599 -0.8173935 -0.36665455
nfr -0.12154037 0.26616496 1.0478603 0.20273343 -0.2665276 0.04096113 0.4447515 0.6195256 -0.61719185 -0.0054621906 0.47765145 -0.716118 0.23878337 -0.7355231 0.4726666 0.4298182 1.3820336 -0.11850027 -0.630421 -1.1089307
sš 0.81208503 -0.1698298 1.3673776 0.9525135 -0.8290741 0.7181308 1.0363722 0.82732284 -1.1134533 0.37411648 0.44477284 -0.3873295 1.2799317 -1.2012355 0.9690627 1.3291796 1.0668224 0.1506218 -1.3672253 -0.85121554
jrj -0.64162755 1.0153173 1.2311119 -1.1145821 1.5756283 -0.48654467 0.27847782 0.72759396 -0.3771338 0.099966995 0.49133664 -0.45845097 0.22338586 -1.2774118 0.8178122 -0.5129891 0.42100102 0.62707835 0.14725055 -2.0807316
dj -0.5217955 1.1094959 1.0222055 -0.919977 0.9505131 -0.23783569 0.62154776 0.84565526 -0.3878157 0.020712622 0.28774795 -0.35000142 0.2463742 -1.7829814 0.97888374 -0.23580465 0.067094825 0.66610116 -0.17732501 -1.8314689
[?] -1.0154061 0.9400293 1.5594815 -0.58187085 0.41987708 -0.28516272 -0.022070406 0.90776217 -0.7766352 0.2980232 0.1653443 -0.7105225 0.40331233 -0.7427187 0.42019245 -0.3974869 0.6569269 0.1554155 -0.6475774 -1.5272119
nswt 1.5904733 -1.5302141 1.7033355 0.8622764 -0.7138768 0.59237784 1.5450224 0.4605426 -1.3922588 0.13247377 -0.3048866 -0.37611765 1.5720975 -1.2774324 1.1559615 1.7626692 2.8384657 -0.26725805 -1.4269562 -2.3170774
ḫt -0.29106024 0.3896587 0.850398 2.2725892 -1.8228241 -0.09413243 -1.4322355 1.9778594 -1.5027012 -0.5566339 1.9026576 -2.2723925 0.39885318 -0.05910642 0.4578925 0.4702163 3.4295657 -1.131234 -1.8034453 -0.3471207
ꜣbd -1.8215712 1.883038 1.640073 0.8507362 -0.7311194 -0.46823165 -1.8122212 1.6525776 -1.0832411 -0.33578703 3.17311 -2.5260627 -0.44639066 0.4045301 0.15837064 -0.42673516 4.052932 -0.4522968 -1.3970757 0.33915356
wꜥ -1.1146504 1.5833727 0.9844126 -0.80385405 0.9629609 -0.39803126 0.047031835 1.0622721 -0.24379693 0.25178024 1.10038 -0.9635092 -0.10595567 -0.8403906 0.48835155 -0.4965234 0.6188913 0.3366212 0.061618317 -1.1632743
ꜥnḫ 0.18377277 -0.06675833 1.1803564 -0.2283757 0.035914984 -0.27080253 1.2361027 0.45080173 -0.67388904 0.10765716 0.19061856 0.16971003 0.31679064 -2.0942163 1.1126825 0.19657172 0.96124834 -0.32150814 -0.58318424 -2.0878446
tꜣy -1.0579959 1.3960838 1.3194778 -1.1052301 1.6284981 -0.60200655 0.37480128 0.9704957 -0.35905236 0.35729396 0.6406413 -0.56284016 0.0836254 -1.5961354 1.042765 -0.67975974 0.39565998 0.7185188 0.16940187 -2.1568115
rmṯ -0.2692578 0.92941755 1.3622022 -1.1534696 0.7815998 -0.40516356 1.1147428 0.6702561 -0.3059324 -0.09902847 0.46203664 -0.041518196 0.39390606 -1.7029647 1.274716 0.15720078 0.20364013 0.4692553 -0.37101367 -2.0100367
ḥḏ -1.1612511 1.340916 1.2242725 -0.3926466 -0.44272026 0.11179745 0.37411475 0.8907083 -0.13114837 0.09258983 1.2605573 -1.4219522 -0.1088396 -0.15434645 -0.0884578 0.81756043 1.0940307 0.074891776 -0.67944604 0.18104756
4 -1.7825139 1.6552567 1.5099006 0.92839533 -1.0721784 -0.3857928 -1.4200027 1.3166147 -0.9878456 -0.18925983 2.6833692 -2.6231894 -0.60770214 0.24559653 0.16220698 -0.3514964 3.4960828 -0.55510974 -1.357147 0.22956103
3 -1.5011356 1.3387845 1.3654699 0.6744718 -0.9768604 -0.22307289 -1.1029822 0.98619163 -0.7635548 -0.22392423 2.2203767 -2.1575923 -0.5446239 0.275404 0.0803269 -0.014076145 2.9268527 -0.40851516 -1.1773949 0.20131822
20 -1.2241615 1.4227515 1.5388775 1.4312744 -1.4827404 -0.031866457 -1.4138722 1.6326714 -1.1385387 -0.1362643 2.6333067 -2.493486 -0.08963367 0.18371516 0.27163485 -0.1903875 3.9599597 -0.6430576 -1.6220127 0.0025448531
ms 0.57170284 -0.024438024 0.6526038 1.8400358 -1.4442948 0.122945435 -0.65062016 1.4104239 -1.2611941 -0.19522837 0.9880138 -1.2073623 0.7852604 -0.21834028 0.60732913 0.43345952 2.3741648 -0.81550014 -1.4533349 -0.60658944
5 -1.4683506 1.463505 1.2464138 0.61470175 -1.1480584 -0.19953841 -0.96651965 1.3421528 -0.65981674 -0.21391816 2.15792 -2.427901 -0.3064767 0.18609627 0.0048486525 0.26439494 2.6971512 -0.34483698 -1.2094742 0.24104753
dbn -2.207936 2.2078602 1.2321872 0.33176327 -1.1853026 -0.0945642 -0.57145107 1.6497875 -0.45913747 -0.1292406 2.5624094 -2.937624 -0.4325098 0.5134517 -0.73828286 0.47107023 2.479185 -0.04628511 -1.1181912 0.80778724
jmy 0.1385865 0.2387016 1.4699858 -0.8376317 0.80933636 -0.07700305 1.5784944 0.71702594 -0.8690805 0.21442646 -0.28322387 0.062431276 0.45505604 -2.2758856 1.3725324 0.3069702 0.44491005 0.5147347 -0.35178852 -2.934133
ptr -0.91657054 1.343919 0.92513925 -1.2094668 1.407519 -0.62568074 0.4559008 0.83549756 -0.22502637 0.31439897 0.5265156 -0.30026287 -0.124682136 -1.7299778 1.134832 -0.7404379 0.12764093 0.5017509 -0.29371616 -2.1938148
tn -0.8605192 1.2054414 1.7194679 -1.4415406 1.4797882 -0.34289977 0.9715178 0.9151672 -0.43092096 0.19608045 -0.05726762 -0.46012095 -0.0021962035 -2.2485244 1.1487291 -0.5256591 0.36200958 0.7691016 0.0034500635 -2.9823384
nḫt 0.18270747 -0.06946887 0.90149015 1.4647052 -1.0685599 0.33499393 -0.43946207 1.1766424 -0.9473845 0.18926527 1.0667293 -1.1350057 0.9115382 -0.20090483 0.22805955 0.37518585 2.4584007 -0.4208245 -1.1695312 -0.22752003
// 1.2292182 -0.8288467 1.1836891 0.3445744 -0.41692695 0.2510499 1.5105623 0.31106025 -0.98993194 0.45332778 -0.09371036 -0.02692341 1.1364356 -1.7435081 1.0507908 0.83721703 1.9049636 -0.4186115 -0.8054321 -2.2410145
ḳd -1.7000781 1.7153293 1.2849722 -0.23303086 -0.2850374 -0.16107753 -0.24865355 1.1726301 -0.37504318 0.03461078 1.8652494 -2.08624 -0.088510424 0.02989673 -0.31420663 0.34585792 1.9129758 0.09388336 -0.64083236 0.16906288
šrj -0.30780795 0.9255263 0.85522085 -0.10041971 0.59486985 -0.16967396 0.115554065 0.8001493 -0.37438104 0.4290103 0.79544395 -0.45371786 0.46436104 -1.085166 0.87395746 -0.23803185 0.8434364 0.2885403 -0.005174916 -1.2468132
jry -0.5481323 1.081583 0.9841846 -0.54728544 0.5214462 -0.2543479 0.3729155 0.72913045 -0.5120233 0.12299098 0.53384185 -0.30472064 0.11377137 -1.2373208 0.8751166 -0.10677009 0.34415728 0.36674023 -0.25197566 -1.4708833
wr 0.51559234 0.24616575 1.3059459 0.45044667 -0.1332455 0.3240609 0.49342445 0.7787453 -0.6698071 0.4494911 0.83330756 -0.3489398 1.0568532 -1.2799146 0.9884267 0.5920664 1.1189896 0.19947177 -0.65965915 -1.2129052
njw 0.02658537 -0.044633646 1.2564307 0.26328975 0.060852297 0.10158548 0.52540076 0.5843853 -0.5448675 0.07944201 0.63070947 -0.22972596 0.5085377 -1.1974527 0.8569219 0.35338062 1.1040845 -0.019580144 -0.5003863 -0.43030533
jrm -0.4413634 1.0549197 1.1795688 -0.7469513 0.99341273 -0.3090396 0.7906827 0.85725266 -0.2900241 0.18752836 0.4811183 -0.4167787 0.36514845 -1.4404067 0.9964248 0.016398689 0.40017515 0.5509772 -0.31933087 -1.7547406
jy -0.8151525 0.80900496 0.6311927 -0.24231088 0.79150504 -0.36840868 -0.27224076 0.76132894 -0.23921114 -0.006039962 0.838428 -0.56062746 -0.060827833 -0.49241057 0.26165873 -0.7309168 0.7501605 0.1645122 -0.0019248199 -0.7290252
nbw -1.2811855 1.7432092 1.0898367 -0.56485707 -0.16786465 -0.08332312 0.15284696 1.0438515 -0.048155207 -0.18166101 1.6093125 -1.9383513 -0.36236656 -0.07271522 -0.3829654 0.64035696 1.3284549 0.16990203 -0.4795199 0.09935104
hrw -0.83697814 1.4882084 0.98486257 -0.5917632 -0.006981841 -0.20970996 -0.09820882 0.595019 -0.049840026 -0.029597782 0.5970034 -1.0506986 -0.28387132 -0.63492346 0.2405903 -0.39626905 0.9856555 0.43208098 -0.33097762 -0.6170818
ns 0.78506774 -0.3834381 0.85778147 1.1021998 -0.8935227 0.41123256 0.19534753 0.8219058 -0.80589586 0.27269036 0.6661785 -0.57441926 1.097193 -0.8456477 0.59014773 0.5962372 2.035668 -0.31306344 -1.2151449 -0.552966
mꜣꜥ 1.1159601 -1.5569323 1.2749364 0.8579666 -0.1984765 0.24201888 0.76966035 0.39788496 -1.0078921 -0.008262044 -0.14928932 -0.59993196 1.5211686 -0.7405528 0.54226154 0.9272274 2.9072464 -0.39089862 -0.7788925 -1.9615756
nꜣy -0.5296765 1.1240203 1.6150317 -1.2546824 1.1462345 -0.3505703 1.3258053 0.72555083 -0.6125973 0.032594617 0.36541158 -0.23135267 0.27231532 -1.9187691 1.343868 -0.116540775 0.40913883 0.6294224 -0.32718477 -2.5483098
ꜣḫ -0.89424866 0.567693 1.0523047 0.89088607 -0.5114065 -0.24562778 -1.0068712 0.67459625 -0.7817678 0.14783585 1.4070691 -1.5216635 -0.268307 0.21959916 0.09067486 -0.5552706 2.4890988 -0.3599078 -0.70900285 -0.020860728
ḥmty -0.71867985 1.1333511 0.8811854 0.056254208 -0.60709566 -0.0060944315 -0.09418405 1.090309 -0.3997818 -0.030459085 1.2772186 -1.36827 0.18446457 -0.07688961 0.024564408 0.56666315 1.321592 -0.0054040863 -0.7902922 -0.032343697
ḥtp 0.6329448 -0.31658137 0.8408213 1.1063031 -1.0204984 0.4366098 0.11242801 0.70337903 -0.9135128 -0.07273811 0.47336054 -0.7451449 0.7830223 -0.5418538 0.5617242 0.68197685 2.240675 -0.47903058 -1.2137895 -0.67053926
smtr -0.6296335 0.9270425 0.54610074 -0.64111423 0.22538507 -0.60191983 0.3486856 1.0948968 -0.24418955 0.19354251 0.99330574 -0.18202041 -0.2374275 -1.1983976 1.2178316 -0.37520212 0.4599121 -0.30568674 -0.80715525 -0.85489464
hꜣb -0.6233686 0.7984215 1.1910111 -1.136615 1.4483106 -0.370086 1.0174885 0.62718827 -0.5045255 0.32462326 -0.08154731 -0.10241712 0.28105548 -1.9267154 0.8676577 -0.2825147 -0.2256339 1.0094076 0.023298632 -2.515016
jt -0.24391328 0.5731554 0.97806835 -0.32311425 0.43993515 -0.07708698 0.39232603 0.75419897 -0.4974904 0.19892098 0.36169174 -0.5648136 0.35992807 -0.9237574 0.5281503 0.29422903 0.5954461 0.4167188 -0.38073692 -1.3526171
ḥry 0.010087563 0.54100263 0.98633915 0.23324317 -0.22194509 0.15470442 0.31945837 0.6672079 -0.6390128 0.09165369 0.6500206 -0.669613 0.5027271 -0.8946182 0.6345598 0.39953044 1.1383252 -0.013447815 -0.78195447 -0.96983474
ꜥḥꜥ -0.020843465 0.528849 1.0897967 -0.65356714 0.9533397 -0.21924858 0.90493727 0.7378107 -0.42307556 0.4596293 0.42955536 -0.2947468 0.44469345 -1.4866941 0.9044877 0.03546681 0.70878494 0.08101785 -0.14418434 -2.2507908
sp -0.01823809 0.88985085 1.2374966 -0.9413664 1.0922664 -0.28049925 0.5080238 0.7011714 -0.10241701 0.5645321 0.48811185 0.16354406 0.14496683 -1.5973297 0.88573223 -0.26578248 0.75094837 0.1377873 0.39989704 -2.5746722
mw.t 0.37890458 -0.085770264 0.8429673 0.586881 -0.5248561 0.12476426 0.1751142 0.7731793 -0.78700966 0.17744724 0.73987037 -0.5485005 0.79963785 -0.8368188 0.7272537 0.5605278 1.6779053 -0.24416675 -0.94335896 -1.0279083
md -0.5574377 0.94492257 1.2773225 -1.1167531 1.2583447 -0.4483353 0.88422674 0.33954185 -0.41811204 0.14762613 0.2363999 -0.2863646 0.24846731 -1.6702926 1.0570558 -0.1033821 0.11580807 0.61068803 0.014453059 -1.9869344
jḫ -0.4269633 0.88411635 1.2146097 -1.139076 1.2091845 -0.4882285 1.147045 0.7749832 -0.5410059 0.4848292 0.20093079 -0.063520774 0.2988976 -2.2170334 1.223613 0.0109415995 -0.14073913 0.7555822 -0.29252577 -2.5445433
wy -0.02717709 0.09634934 1.0238905 -0.055748805 -0.115068085 -0.26950505 0.36887208 0.28893286 -0.38549075 0.22735126 0.9236978 -0.4829167 0.4436122 -1.2642628 0.78518254 0.25206396 1.7101272 -0.26842868 -0.70738363 -1.452549
ḥw 0.60823876 -0.5735792 0.91589284 0.727204 -0.32436955 0.2332697 0.28840008 0.7104795 -0.6820618 0.091796234 0.59157485 -0.7600672 1.2479919 -0.41844067 0.4615275 0.80226123 2.1939604 -0.102858916 -0.6916951 -0.98245925
jṯꜣ -0.45818257 0.925562 0.9027595 -0.5907726 0.27632204 -0.17855348 0.69494295 0.607675 -0.106007546 -0.093060195 0.78413206 -0.35375223 0.12920134 -0.65694565 0.6032064 0.24169166 0.37902686 0.12946059 -0.4267992 -0.70839775
jnj -0.74997413 0.9706477 0.9191918 -0.93181 1.0683262 -0.3494194 0.5474639 0.6832019 -0.25790477 0.054189455 0.512072 -0.5896202 0.05058072 -0.9092687 0.47169665 -0.21604434 0.2257336 0.5033644 0.13687554 -1.1823405
mḥ -0.8795074 1.1000406 0.7769841 -0.514703 0.4309915 -0.35151383 -0.20681088 0.6863188 -0.1517276 -0.0850271 0.9437587 -0.7712381 -0.282923 -0.6789833 0.37423176 -0.3935947 0.81422156 0.15675902 -0.121068425 -0.89616615
ḥnꜥ 0.20002374 0.16546436 1.2872051 -0.5213463 0.7099226 -0.1455745 1.0361946 0.4981831 -0.51424956 0.34249166 -0.015426305 -0.08946503 0.60338193 -1.6944937 1.0581542 0.4001691 0.73657703 0.24790525 -0.29655322 -2.4667368
bꜣk -0.11788552 0.48525664 0.6200296 0.5880218 -0.37755573 0.01303275 -0.24312747 0.9693602 -0.627043 0.02582022 0.8073318 -0.7813769 0.36797315 -0.42162484 0.49787974 0.043193985 1.0977261 -0.095128916 -0.7118007 -0.60271376
6 -1.3462743 1.2769444 1.1066507 1.0455161 -1.0144447 -0.20219289 -1.2150731 1.2625444 -0.8194831 -0.24925338 2.2131817 -2.1428 -0.27301893 0.31187403 0.15046667 -0.17542046 2.991623 -0.570333 -1.2338557 0.26830506
ḫꜥ 0.033690073 0.3175255 0.9088375 1.2307202 -1.1869098 0.31870943 -0.29007757 1.128116 -0.8655053 -0.052800115 1.2313987 -1.154464 0.5952313 -0.33092442 0.44291857 0.42805418 2.4130907 -0.5715584 -1.3144199 -0.11351341
šmj -0.8797581 1.2948364 0.9633276 -1.1745899 1.5357039 -0.4729225 0.45779777 0.8366994 -0.23068757 0.3650397 0.65877783 -0.516735 0.10122842 -1.271406 0.5782031 -0.43704328 0.034988824 0.57980514 0.20604965 -1.784503
nn -0.8216691 1.5260692 1.5404356 -0.9414207 0.8791026 -0.3775989 0.5225095 0.9080756 -0.38661274 0.36608523 0.41606125 -0.91739005 -0.013113783 -1.9043958 1.0292767 -0.20511778 0.88758695 0.40915757 -0.21827635 -2.3719423
ḥꜣ -0.23845485 0.2044842 0.70192426 0.14710125 0.23237492 -0.035478383 -0.25660858 0.6363329 -0.44543976 -0.026208268 0.6091062 -0.72404885 0.43538508 -0.49174035 0.27645195 -0.011019041 1.2828875 0.067257 -0.30485114 -0.7756757
mn -0.08724655 0.1272177 1.0061696 -0.24993986 0.45510468 -0.2825432 0.46538034 0.59742 -0.5926662 0.06709002 0.2834358 -0.37588397 0.29952124 -1.0943512 0.76023585 -0.045657657 1.0716517 -0.032984175 -0.43011877 -1.6513214
js 0.056015838 0.40430677 0.8901223 0.082562126 -0.04092905 0.06264461 0.31478778 0.61036706 -0.35294157 0.04675648 0.75552493 -0.42919034 0.55999035 -0.7154161 0.7146998 0.24766168 0.9690505 0.18707973 -0.56992304 -0.7651406
8 -1.3631288 1.2813935 1.1597257 0.9572559 -1.0536902 -0.22270097 -1.0923533 1.1096317 -0.85687894 -0.19396082 2.1420355 -2.2217124 -0.34688187 0.108811125 0.17146201 -0.17047633 3.014348 -0.46576598 -1.2318408 0.059103977
bw -0.16821787 0.67002654 1.030145 -0.245136 0.42569983 -0.19135223 0.6361105 0.86036474 -0.55708736 0.3534688 0.43742335 -0.42040607 0.56268185 -1.5402478 0.8676248 0.253725 0.5071707 0.3954941 -0.7082566 -1.6739775
šsp -1.1078936 1.2294905 1.2105203 -0.23414646 -0.25843644 -0.08833141 -0.30609798 0.47476473 -0.17050394 -0.14074644 1.7402053 -1.4076085 -0.32976323 -0.5961797 0.13104957 0.10999637 1.5475299 0.008957977 -0.5306287 -0.3454882
twj 0.4509323 -0.1745028 1.143489 -0.5707699 0.6415316 0.012252409 1.3527238 0.40430802 -0.64893675 0.3845357 -0.27908984 0.10945544 0.73562086 -1.706848 1.1485612 0.4313499 0.84769696 0.1858502 -0.57251954 -2.6637878
tm -0.5736091 0.9303907 1.3285543 -1.1019974 1.1835794 -0.4462056 1.1390986 0.7529791 -0.59194255 0.3325622 0.26062372 -0.11128834 0.14996897 -2.1017125 1.0684577 -0.2815484 0.1983432 0.39736775 -0.20997684 -2.5545893
ṯ -0.6987368 1.0689741 1.171378 -0.97281474 1.1572897 -0.32369617 0.656018 0.8924349 -0.4118882 0.3739163 0.39486673 -0.41727048 0.2991921 -1.8323616 0.9465889 -0.40559328 0.21302295 0.43844548 -0.15567431 -2.3120368
wsr 0.80936563 -0.9623333 1.0906504 0.96814364 -0.9272035 -0.03153152 0.3431135 0.79311925 -1.2111471 0.014079879 0.6471482 -0.9055262 1.0749841 -0.20815979 0.2346239 0.7464132 2.9323237 -0.50230896 -1.2400383 -1.5398415
bnr -1.3277527 1.3542254 0.88903475 0.457474 -0.4663799 -0.20491078 -0.7738521 0.89599293 -0.53533465 -0.060309783 1.8275754 -1.6742388 -0.31559214 -0.16510884 0.061861575 -0.41402885 2.033873 -0.16205993 -0.67225 -0.007460297
ḥꜣty -0.035639778 0.32921836 1.1772313 -0.2704039 0.38186377 -0.09367019 0.90851086 0.7176468 -0.599093 0.24094102 0.34267667 -0.063380614 0.4696719 -1.6262617 1.0010301 0.17198123 0.5204857 0.27332932 -0.45667392 -1.6465268
ẖꜣr -0.9929468 0.9470019 0.87936103 0.77265644 -1.0100641 -0.07759493 -0.7354649 0.92756706 -0.6810495 -0.19066265 1.4324617 -1.8022684 -0.016228937 0.08050183 -0.026989847 0.38189262 1.9584982 -0.20162947 -0.69362324 0.19476785
ḫnsw 0.29199454 -0.008747308 0.63588256 1.2777902 -1.0782145 0.22880407 -0.43434367 1.0716147 -0.9022909 -0.098764785 0.91180414 -1.0409868 0.46335974 -0.37392706 0.4840856 0.5751218 2.1712723 -0.57280463 -1.2886192 -0.3794372
dd 0.105974294 0.03979764 0.62886405 -0.32724664 -0.036170654 -0.29037005 1.1294125 0.6745888 -0.6332639 0.12260632 0.59798855 -0.06395952 -0.016128022 -1.4591209 1.0091071 0.25805184 0.699361 -0.44710216 -0.72688293 -1.5322933
(j)m(y) -0.108975835 -0.14805737 2.0258129 0.92981714 -0.6825991 0.64819366 1.0604837 0.6244905 -1.1978602 0.31584716 0.15505055 -0.16417779 0.42710426 -1.4369701 0.60755247 1.4397421 1.0324099 -0.2995998 -1.2109538 -0.2509018
r(ꜣ) 0.117827736 -0.20630719 2.264703 0.40691677 -1.2965373 0.9395868 1.5543246 0.63262385 -0.59594715 0.2985221 0.33431396 -0.24311046 0.2572872 -1.1340816 1.0831486 0.7749009 1.4597408 -0.38483125 -1.4637899 -0.17233695
mry 0.7872507 -1.033862 0.8659574 1.0059475 -0.83124036 0.17731126 0.16491717 0.5115145 -0.9398154 -0.10374166 0.2453378 -0.61713815 0.79003125 -0.21851696 0.40892318 0.69133294 2.4320107 -0.5652626 -0.9528867 -0.95095646
bwpw -0.89100325 1.3452069 0.9901648 -1.3122396 1.1609503 -0.5826547 0.65150636 0.9595297 -0.26077834 0.23338631 0.76961493 -0.30609864 -0.21200554 -1.7823204 1.1431097 -0.60301036 0.14967257 0.45858586 -0.41643384 -1.8687506
wꜥb 0.44348752 0.1252091 0.955494 0.55546635 -0.6784777 0.1524309 0.23882754 0.88717777 -0.71139747 0.19102697 0.82480484 -0.5901833 0.76873887 -0.5943994 0.54245836 0.72537905 1.5983174 -0.1259673 -0.8717555 -0.6626192
7 -0.96611995 0.89764 1.0310595 0.7822603 -0.7330378 -0.15090263 -0.7653497 0.95608604 -0.69725066 -0.0695073 1.6472585 -1.606256 -0.13891988 -0.05667314 0.29203597 -0.1402319 2.4440238 -0.38868037 -1.0147787 -0.091993436
1/2 -1.2335715 1.2169433 1.2202486 0.5616737 -0.9986105 -0.06926923 -0.6279596 1.2874067 -0.7775013 -0.03844726 1.7953429 -2.1825612 -0.09936746 -0.17351103 -0.044332307 0.5430653 2.4228818 -0.22752714 -0.9816363 -0.05066168
wꜣḥ -0.20284018 0.39875594 0.7661342 -0.5143165 0.44468105 -0.26237622 0.6573974 0.5672476 -0.2805273 0.10738892 0.32069623 -0.13787009 0.2119986 -0.99938 0.5640282 0.05702222 0.41951492 0.13155806 -0.36865428 -1.2794605
nw -0.32663897 0.4395639 0.98162776 0.01642337 -0.093818374 -0.16258173 0.57089263 0.6367547 -0.47746497 0.01708806 0.732381 -0.2923253 0.31964996 -1.1067432 0.8568913 0.10826233 1.1181387 -0.22690804 -0.5320613 -1.1052108
rꜣ -0.447624 0.7345235 1.0571225 -0.47132903 0.52896774 -0.29962027 0.46809348 0.6696402 -0.32397392 0.14701118 0.69486487 -0.4249485 0.14932854 -1.1492658 0.7133276 -0.034402106 0.83717024 0.11297605 -0.27702066 -1.3648103
bꜣḥ 0.3772736 -0.06273445 1.103213 -0.15140572 0.22950403 0.12374924 0.836299 0.27151242 -0.5555298 0.18521808 -0.13245869 -0.084183656 0.49981883 -1.1965911 0.8484458 0.38883233 0.8203936 -0.012256647 -0.42963544 -1.5430772
ḥm.t 0.06778037 0.34497407 0.9567476 0.10265554 0.3181982 -0.08008512 0.41522425 0.7638155 -0.5184497 0.32658827 0.63814247 -0.533123 0.54618627 -1.1182917 0.8431444 0.11388552 1.310567 -0.04946927 -0.41631255 -1.5477993
ty -0.06534561 0.22053708 0.7981463 -0.110666595 0.14719994 -0.25158763 0.23601286 0.6168586 -0.5062423 0.24799722 0.49816868 -0.41368577 0.23424225 -0.70645 0.32361975 0.13775003 1.4380707 -0.19800161 -0.54533124 -1.4504883
sḏm -0.28616124 0.5542012 0.8985253 -0.9000989 0.99980503 -0.3643494 0.85964084 0.4936632 -0.33719835 0.30856025 0.16806008 0.006753925 0.18230668 -1.572626 0.82795167 -0.010309726 0.15722133 0.34588212 -0.11552321 -2.1665626
ptḥ -0.041507695 0.24957569 0.8570689 1.413702 -1.2597563 -0.054771487 -0.7522617 1.3379668 -1.1232482 -0.2191075 1.2278109 -1.489984 0.34917802 -0.385487 0.6120199 0.23603934 2.4372492 -0.7850238 -1.434 -0.5816398
stḫ -0.025621224 0.481618 1.2498021 -0.20656508 0.46591607 -0.07829306 0.732572 0.8759611 -0.74605024 0.34291825 0.60538816 -0.7167103 0.49458724 -1.4258146 0.81801856 0.20981944 1.0917488 0.098099 -0.46602485 -1.8889097
ḥm-nṯr 0.9583452 -0.43213475 0.8120042 1.135048 -1.1199995 0.4480746 0.29972047 1.0072197 -0.98048455 0.07428832 0.3555072 -0.65274733 1.051301 -0.473566 0.34854844 0.83496404 1.6655636 -0.1230917 -1.2961973 -0.5315236
ḫpr -0.24084184 0.53629375 0.95968294 -0.3932241 0.5728153 -0.16796362 0.70201653 0.6938642 -0.49583676 0.2743079 0.36412382 -0.3733797 0.34157395 -1.1241491 0.65071046 0.013212058 0.8852225 0.09244959 -0.3334322 -1.721759
gmj -0.75924444 0.9363895 0.87338275 -0.75970745 0.80316514 -0.41174513 0.18649049 0.64342403 -0.21222314 0.14395395 0.6589697 -0.63354045 -0.046000965 -0.69706255 0.33977365 -0.24808678 0.44527093 0.3289656 0.015837846 -1.0831076
ꜥn -0.46958482 0.83668995 1.0504588 -0.5563712 0.5543378 -0.2674613 0.56827635 0.7974984 -0.37717414 0.23093203 0.6417575 -0.56750697 0.24934117 -1.1165866 0.6163875 0.026312781 0.6618798 0.28410506 -0.39473882 -1.5143855
šmw -1.3234761 1.215512 1.113019 0.7361283 -0.9535351 -0.24915794 -1.0423572 0.9977306 -0.77864593 -0.0840422 2.0240881 -1.9404384 -0.49580768 0.16179712 0.1388561 -0.47576764 2.6167037 -0.35227188 -1.1015967 0.2851024
bn -0.42985898 0.8417358 1.00299 -0.6177175 0.771316 -0.36712763 0.5253187 0.821616 -0.40117338 0.22892132 0.45646793 -0.3782683 0.20270589 -1.3693869 0.7480055 -0.200626 0.527914 0.3785981 -0.22684024 -1.8067902
ḥsb -0.82495946 0.77083826 0.76371986 0.51668394 -0.45545372 -0.16094805 -0.74662685 0.52275217 -0.4232301 -0.13880798 1.3870449 -1.2880123 -0.27750847 0.20256735 0.035958286 -0.24300288 1.9007343 -0.34290522 -0.6799017 0.34276825
kwj -0.31447256 0.7240701 0.9643651 -0.7470037 0.76818067 -0.36124468 0.6596136 0.70755374 -0.4331306 0.2557136 0.26113373 -0.24329922 0.24797195 -1.6695623 0.8506762 -0.12366864 0.42890745 0.41766956 -0.25931385 -2.162304
50 -0.7727315 0.83781123 0.9197206 1.2536706 -1.3484527 -0.058886293 -1.0641057 1.4035486 -0.98771274 -0.23439023 1.6165684 -2.0120897 0.087256625 -0.118802495 0.33842042 0.19551605 2.636639 -0.6579288 -1.3623782 -0.17955893
sḫr -0.45453393 0.71318394 0.90430397 -0.7540883 0.7818103 -0.3281078 0.64669 0.7182038 -0.39257237 0.28083754 0.2832748 -0.18500575 0.21800049 -1.498443 0.76841664 -0.073147304 -0.012562401 0.44599408 -0.2713471 -1.705825
ḫꜣꜥ -0.58094925 0.9001414 0.91483015 -0.5203547 0.708923 -0.35555536 0.30803043 0.7892966 -0.3068815 0.23065412 0.5534923 -0.4064454 0.16709155 -1.1850497 0.66292685 -0.2058401 0.32751805 0.36234283 -0.3583302 -1.4595652
dmḏ -0.99164295 1.1506348 1.0376105 0.48542115 -0.84446776 -0.047056437 -0.4175635 1.0243216 -0.59299266 -0.078046344 1.6039861 -1.73863 -0.061846223 -0.050097622 0.06474988 0.29177523 2.2076833 -0.2703074 -0.97338146 -0.1108327
jnk -0.3843189 0.79358745 0.9882524 -0.41403815 0.61900145 -0.28044218 0.30841953 0.7552695 -0.39946494 0.28059232 0.51166093 -0.42078713 0.25483853 -1.2545046 0.66488993 -0.081729524 0.6503048 0.28450644 -0.3258715 -1.6079268
100 -0.8863121 0.98320395 0.97297657 0.9998638 -1.1160024 -0.06909957 -1.0004675 1.2443323 -0.87199306 -0.14817823 1.5459048 -1.8944334 -0.05345097 -0.008315882 0.24708427 0.096229814 2.4307122 -0.52720976 -1.2474108 -0.112314254
jb -0.20137504 0.50694615 1.0134408 -0.26043972 0.30386555 -0.20387253 0.3945699 0.680088 -0.43316242 0.24456346 0.4430174 -0.5489569 0.41735145 -1.144864 0.7487645 0.026206717 0.96150327 0.1533548 -0.506244 -1.627651
ꜥš -0.15750754 0.5690703 0.9867617 -0.39171356 0.593187 -0.20404091 0.61458087 0.78160375 -0.49388885 0.27963004 0.49411315 -0.36816812 0.38447747 -1.2484124 0.68953794 -0.022420911 0.6609487 0.1571116 -0.16453828 -1.6680199
9 -0.93432826 0.79640895 0.8965554 0.7459863 -0.8381343 -0.12426629 -0.88951385 0.8555833 -0.7079549 -0.15897624 1.5499133 -1.6076146 -0.18924993 0.19048616 0.16144471 -0.09810787 2.3282826 -0.4776503 -1.0478756 0.10980788
mj -0.3479259 0.6424856 0.84342766 -0.2744142 0.36255828 -0.14014558 0.3001916 0.77625877 -0.32471073 0.14130208 0.48298675 -0.57932884 0.21022965 -0.94301957 0.59350574 0.056972455 0.92894363 0.049209706 -0.3212133 -1.2479078
ḥrj -0.037228886 0.26678678 0.99451596 0.7186264 -0.73410267 0.16424483 -0.06967756 0.9669149 -0.71738446 0.11395038 0.9397613 -0.89380276 0.52065855 -0.4735094 0.4090248 0.39492646 1.8050052 -0.17887208 -0.9044147 -0.51029444
rḫ -0.3865902 0.6264243 1.0391488 -0.46783066 0.62634945 -0.22628047 0.44284064 0.5727169 -0.42883983 0.21910912 0.31510696 -0.24669741 0.1880958 -1.2068424 0.66772455 -0.13607167 0.46978366 0.31606644 -0.24487108 -1.508428
jm -0.45983073 0.7269056 0.8855517 -0.5126719 0.55997837 -0.17232086 0.3801561 0.67240244 -0.31114873 0.21023616 0.40610912 -0.34345108 0.21407412 -1.0892092 0.6537258 -0.041467626 0.52709794 0.23324873 -0.34336212 -1.4233392
ḏḥwty 0.27222323 0.119752534 0.96712494 0.5662416 -0.43558756 0.13714261 0.4124413 0.8510946 -0.8026398 0.18676715 0.50241995 -0.672401 0.64665556 -0.9882455 0.6629737 0.4662037 1.250627 -0.19692053 -0.7957534 -1.1117651
jp 0.19275884 0.033310566 0.65815866 0.8101141 -0.6965768 0.20427588 -0.27788335 0.7775508 -0.7026847 -0.08756066 0.84057605 -0.8107483 0.5626366 -0.34978583 0.38692856 0.34598544 1.6123382 -0.20398112 -0.8583459 -0.08642569
ḥm 0.051001832 0.13604505 0.84683824 0.008890044 -0.023339897 -0.062094305 0.702457 0.64692813 -0.53257376 0.17283626 0.41170388 -0.3606507 0.3341582 -0.858354 0.5583421 0.25171903 1.0381937 -0.16669598 -0.62910247 -1.1106936
30 -1.0209638 1.1309645 1.0594399 0.5999746 -0.9085184 -0.15353957 -0.7506508 1.1121861 -0.6307571 -0.16937889 1.6088393 -1.7858611 -0.13696423 -0.048380528 0.1717854 0.13549416 2.1310947 -0.2858653 -0.95834357 -0.14722964
ḥḳꜣ 0.34672162 -0.28295732 0.99558115 0.44971237 -0.40390632 0.0257786 0.49454516 0.645736 -0.7725007 0.037725296 0.5013818 -0.65255475 0.71435726 -0.7245266 0.61254424 0.6428714 1.7036855 -0.18678169 -0.843453 -1.2893971
šꜥ -0.7768609 0.85489666 1.0170004 -0.8429772 1.1816863 -0.40555736 0.22025914 0.4481343 -0.17227106 0.17201273 0.2543474 -0.48628303 0.12814885 -1.1359143 0.6088142 -0.49761254 0.15254308 0.55890447 0.20424874 -1.5394752
km 0.1452292 0.13993213 0.9434715 -0.10381918 0.301079 -0.04244858 0.3795866 0.62591976 -0.54340404 0.15274796 0.42550257 -0.37210158 0.5367119 -0.86793303 0.5723802 0.31064418 0.97827876 0.07688249 -0.34613913 -1.263531
tpy 0.6730498 -0.4513613 0.8791384 0.92258525 -0.791357 0.3597931 0.15381038 0.8882416 -0.8410095 -0.12926246 0.61158097 -0.6069355 0.88666135 -0.48208332 0.34650075 0.8979327 1.7496132 -0.23058936 -1.0904069 -0.6534231
ḥs 0.8030983 -0.59443563 0.9901561 0.15346996 -0.015585593 0.24234343 0.9260148 0.066721074 -0.6209943 0.020439673 -0.3080746 -0.016432568 0.55225724 -0.95990145 0.7908394 0.69356203 1.1323174 -0.15708284 -0.50835776 -1.2791029
psḏ 0.029946238 0.24372715 0.79900765 -0.26253223 0.5094348 -0.11283628 0.3385636 0.4690189 -0.32316542 0.2871115 0.42747617 -0.3595111 0.45139715 -0.99652743 0.6081196 0.01959713 0.83036953 0.09565458 -0.16977471 -1.482361
wḏꜣ -0.4488688 0.6769188 0.8454429 -0.5909733 0.4534624 -0.30457094 0.41043416 0.65574473 -0.35212985 0.010832635 0.43699887 -0.37698835 0.039306946 -1.1691806 0.70065385 -0.09416857 0.52472466 0.20655751 -0.2423471 -1.5265754
ds -1.2248602 1.138691 1.0554342 0.78756356 -0.9192882 -0.1220719 -1.002504 0.99710065 -0.6646394 -0.08611862 1.9370782 -1.9395971 -0.17026718 0.054420814 0.11585371 -0.20706049 2.5641909 -0.47088966 -1.028597 0.17658675
wꜣs.t 0.43236282 -0.26340345 0.8318806 0.652259 -0.6683695 0.1952573 0.35912037 0.6294346 -0.7477463 0.0470261 0.46992484 -0.56212854 0.5494688 -0.5349048 0.6039752 0.6017069 1.6618413 -0.31622088 -1.0222499 -0.6479446
ḏꜣ -0.76516116 0.7853468 0.61887276 0.4508755 -0.41397223 -0.18790646 -0.61239064 0.819653 -0.49667674 -0.11894576 1.1442178 -1.2010399 -0.075546585 -0.06731443 0.1378106 -0.11613052 1.3945025 -0.26114377 -0.607397 -0.14827083
kꜣ 0.25551617 -0.020689704 0.9008449 0.26617306 -0.15858392 0.074422464 0.46473986 0.54212046 -0.63882065 0.11301515 0.38311386 -0.5332835 0.50929034 -0.8018251 0.54286283 0.46478784 1.4531666 -0.1397039 -0.6102156 -1.23882
mšꜥ 0.16869971 -0.010706661 1.4128785 0.3379409 -0.4378549 0.40278128 0.99019855 0.6308447 -0.7660303 0.14379258 0.121313214 -0.12978266 0.381795 -1.1387058 0.77801347 0.7933521 0.86229104 -0.13539669 -0.84363526 -0.7609346
ꜥḏꜣ -0.31833673 0.46027228 0.8784485 -0.8502973 0.9024894 -0.43835786 1.1276436 0.47292948 -0.46151316 0.33419558 0.19582684 0.0022547722 0.014659914 -1.7540256 0.89422745 -0.008255676 0.06805581 0.19670895 -0.20787157 -2.050424
ṯꜣty -0.09493977 0.13641372 0.8838953 0.09312855 -0.037916426 0.0616236 0.54457366 0.60398877 -0.5527683 0.11785022 0.33854976 -0.17278318 0.30444193 -0.9817597 0.6040787 0.3707729 0.6468023 -0.005857985 -0.62858486 -0.7935371
šd 0.11316426 0.01425675 0.70894843 0.3181646 -0.17796797 0.047677714 0.26949888 0.50584006 -0.5186896 0.08513776 0.4080344 -0.41693217 0.41475096 -0.73870736 0.5944982 0.20561443 1.0856271 -0.05031713 -0.5726154 -0.9597519
mw -0.33068562 0.5737511 0.9938243 -0.24688388 0.27176297 -0.16563289 0.25553992 0.6703407 -0.4240291 0.13913794 0.5550965 -0.6683691 0.2887643 -0.85444295 0.44200575 0.03736066 0.87073284 0.03506376 -0.3843191 -1.1517507
ps -0.52734715 0.63312376 0.9992499 0.68361354 -0.8771425 0.02220286 -0.41497883 1.004029 -0.65342754 0.003640198 1.4526788 -1.4109071 0.25627378 -0.30118877 0.28563038 0.1981498 2.1642609 -0.2539454 -1.0744239 -0.2038289
ḫ -0.26226038 0.5603624 0.870593 -0.2840313 0.35228673 -0.19384545 0.3750363 0.30587655 -0.36237696 -0.026904363 0.36090988 -0.44249418 0.15785809 -0.82725155 0.5188617 0.03896431 0.65260434 0.03825201 -0.20225286 -0.94866
rnp -0.2242136 0.4887339 1.0081608 0.024576716 -0.188544 0.014027392 0.17784588 0.45488024 -0.49047953 -0.011476625 0.5852936 -0.7376421 0.13996153 -0.65902597 0.5612359 0.22120385 1.1833913 -0.06298441 -0.47311303 -0.7521976
ḥb 0.20310836 0.15664327 0.70443046 0.58784604 -0.6258181 0.2185737 0.047611553 0.7741391 -0.64680463 0.100489706 0.7113353 -0.65271544 0.52650976 -0.5252551 0.5044603 0.4715373 1.293272 -0.24725887 -0.8590376 -0.48540485
mnjw -0.1331897 0.53431356 0.9554546 0.17239963 -0.1004709 0.029554788 0.41461977 0.90764546 -0.59255594 0.26221493 0.74812937 -0.5632338 0.4169232 -0.98127985 0.6361393 0.34907672 0.88291436 0.015362842 -0.7412057 -0.88010573
ḫtꜣ 0.110350505 0.38962042 1.0998468 -0.09028074 0.106498174 -0.038917873 0.53090036 0.72270465 -0.5826474 0.24778071 0.64841276 -0.41593125 0.64365375 -1.1609926 0.8248922 0.28255445 0.8604071 0.26987243 -0.43958333 -1.4068547
bḏn -0.60414505 0.91646224 0.6247932 -0.65755695 0.32206234 -0.6066168 0.38011003 0.87245476 -0.24519284 0.11514446 1.0056058 -0.26636013 -0.23562892 -1.2594438 1.0518159 -0.45754263 0.48819542 -0.2523543 -0.7362663 -1.2072788
wḥm -0.77297586 0.9671584 0.66514415 -0.3850716 0.25765318 -0.38506508 0.0027214806 0.7891582 -0.18772493 0.08093146 1.097014 -0.55415404 -0.27494842 -0.77774775 0.6677782 -0.3272255 0.80717736 -0.1127706 -0.50293094 -0.8306987
rn -0.41642478 0.677932 0.9439791 -0.19363391 -0.08398734 -0.07220543 0.24953532 0.63972586 -0.4645425 0.06157723 0.62154263 -0.68195283 0.16932657 -0.739022 0.4983874 0.15444027 1.0479431 -0.0037570503 -0.6313501 -0.9279527
sꜣw -0.2710138 0.50101143 0.8228644 -0.043680128 0.01960322 -0.10675297 0.35013506 0.6105043 -0.39307752 0.13095397 0.57974184 -0.46022543 0.24846931 -0.8149934 0.5514629 0.13710018 0.81848484 0.12509233 -0.52897495 -0.96654445
wnmy -0.8735498 0.98914856 1.0191269 0.57768434 -0.81328136 0.0070600067 -0.48940083 0.80522126 -0.5630626 -0.009522734 1.6321981 -1.6463455 -0.09673829 -0.24283276 0.1308311 0.06955657 2.1542432 -0.2480399 -0.9514872 -0.09849456
wꜣḏ -1.0307233 0.9861797 0.93432283 0.44348988 -0.62240225 -0.13684012 -0.5532766 0.63219744 -0.5698933 -0.14019795 1.4446936 -1.4849159 -0.12961546 -0.25800475 0.1673636 -0.06803631 1.991264 -0.17712525 -0.83234376 -0.10968548
ẖr -0.50440115 0.80113524 1.1164801 -0.2914395 0.28981757 -0.2286055 0.332118 0.7637173 -0.4474026 0.19279416 0.6711639 -0.63675684 0.14016663 -1.0848432 0.6835611 -0.06854603 1.0207772 0.06731814 -0.4241455 -1.3704547
sr -0.069438964 0.33128506 0.9330588 -0.11193619 0.04113972 -0.058263227 0.6244735 0.58124167 -0.43773815 0.010773863 0.45676017 -0.28455803 0.32804143 -0.9268443 0.747056 0.33066323 0.7464434 -0.0074813683 -0.48305315 -1.0238482
pn -0.58964574 0.67533654 0.92341655 -0.08931971 -0.25800174 -0.17177498 -0.11187704 0.70358366 -0.3961356 0.023185171 0.7829329 -0.9061737 0.033633493 -0.37361863 0.46654326 0.09926222 1.29238 0.049424194 -0.6378604 -0.54907227
300 -0.3721889 0.5144174 0.7145061 1.087621 -1.0900549 -0.03702981 -0.80142015 1.1256187 -0.82070845 -0.25025728 1.2397105 -1.4788632 0.0631533 -0.017881807 0.2593512 0.1317611 2.124987 -0.5479028 -1.1046282 -0.12428714
wsḫ -0.89165175 0.92594635 1.2223226 0.14228655 -0.46394405 -0.005242752 -0.3553083 0.5600525 -0.46721786 -0.0160642 1.5761164 -1.384252 -0.015189283 -0.5751603 0.1269894 0.19670011 1.8689586 -0.25152218 -0.7990658 -0.3740839
ky -0.3666596 0.6567894 0.8997884 -0.28100342 0.41544983 -0.20981953 0.4471377 0.6805104 -0.4502677 0.21139432 0.503151 -0.4747917 0.24381696 -1.0575168 0.57879204 -0.030451674 0.60567933 0.22572725 -0.37657008 -1.3862234
mjtt -0.3055734 0.59251165 0.80073076 -0.2272063 0.24473621 -0.12109786 0.20829885 0.516038 -0.39618483 0.04976447 0.44443092 -0.41402256 0.17048734 -0.8878392 0.60732263 -0.007158015 0.62807065 0.12433442 -0.3684406 -0.9927566
spr -0.5889027 0.74795234 0.6276036 -0.5128268 0.7731247 -0.30074078 0.19133046 0.5527497 -0.2512759 0.1576591 0.3640945 -0.42853385 0.055877876 -0.7479234 0.41440764 -0.35499907 0.35812294 0.3551844 -0.02430241 -1.2205108
mrw -0.9372745 0.83062375 0.86776894 0.57415813 -0.68362576 -0.0050005163 -0.647151 0.5819707 -0.4957595 -0.08888771 1.415734 -1.4190079 -0.20872308 -0.009966427 0.049918253 -0.14586638 1.859677 -0.23311402 -0.72857195 0.1426002
mḏꜣy -0.09816302 0.34018472 0.7779038 0.15496877 -0.12559067 -0.024749776 0.16007656 0.5287758 -0.42889073 0.06934268 0.52168715 -0.5240105 0.37533894 -0.58286804 0.53273565 0.19793618 0.84647614 0.13903323 -0.5137963 -0.65781116
ḥn -0.35833275 0.64175975 0.7771132 -0.5024826 0.4451906 -0.21615209 0.4585236 0.49668506 -0.25887012 0.11275064 0.39353684 -0.33112654 0.16731255 -0.9339259 0.51484114 -0.03723887 0.3188614 0.29989883 -0.273594 -1.1671394
200 -0.6950492 0.7843115 0.8391106 0.75467056 -0.8732868 -0.15388821 -0.6878527 1.0443075 -0.7373303 -0.086876884 1.3546385 -1.530233 -0.03344419 -0.061625052 0.19575234 0.096554 2.038834 -0.38133126 -0.9483029 -0.19533995
smḥy -0.83332187 0.7853913 0.9345081 0.50790936 -0.72092074 -0.088207684 -0.5589925 0.70690423 -0.52202266 -0.0689229 1.3985802 -1.5148913 -0.1406838 -0.12576373 0.06712058 0.024909845 1.9816139 -0.3641647 -0.8720566 -0.08889186
špsy 0.335222 0.07460666 0.84553295 0.26642227 -0.400972 0.22419037 0.48581067 0.38209215 -0.64570016 0.07712256 0.37676343 -0.36674362 0.4611567 -0.80207133 0.66360086 0.54803413 0.94258976 -0.1136871 -0.6733928 -0.7653171
snb -0.16229632 0.40790293 0.87638736 -0.45153975 0.4386684 -0.15265642 0.62095684 0.48101446 -0.45730734 0.02916026 -0.009080996 -0.18510027 0.26736644 -1.2586662 0.75022537 0.005058744 0.35866773 0.27360108 -0.30228606 -1.6607822
pḥ -0.40094748 0.60102725 0.8025422 -0.44329602 0.45390457 -0.22790976 0.4720272 0.3591326 -0.28920826 0.10500138 0.30486703 -0.241251 0.19759853 -0.9069839 0.62572455 -0.10674725 0.32015324 0.2085662 -0.23330326 -1.2607136
wnn -0.2595281 0.5224232 0.78973126 -0.32460785 0.5584987 -0.16150771 0.3450196 0.5014661 -0.35343584 0.2151367 0.28383872 -0.37113038 0.29254436 -0.9473606 0.57476383 -0.043685213 0.5249537 0.2869402 -0.19655421 -1.3962771
ḳnw -0.30625808 0.56790864 1.111165 -0.3639471 0.11110747 -0.019778764 0.43265164 0.47667778 -0.43148887 0.108230606 0.20857568 -0.6074932 0.08766917 -0.98626083 0.65167886 0.16068277 0.82020354 0.16427104 -0.4457446 -1.2578794
ꜣs.t -0.18115395 0.38250574 0.8583066 -0.10368781 0.17969655 -0.11550957 0.3145381 0.6052502 -0.43448174 0.2314564 0.4923174 -0.4678022 0.3181714 -0.92723244 0.5910162 0.041803546 0.9841927 -0.039633457 -0.35791296 -1.1410103
ꜥḏd -0.17369188 0.55185395 0.80983853 -0.27701157 0.5212664 -0.13333544 0.35293424 0.60445696 -0.3994306 0.2036807 0.47175837 -0.29428998 0.24792331 -0.95885575 0.69803417 -0.021155613 0.5751247 0.19319546 -0.17675488 -1.1925403
m-ḫt -0.58682764 0.94494456 0.7990693 -0.46852264 0.0610648 -0.20450175 0.050219763 0.5692287 -0.24898756 0.17855309 0.4326714 -0.7338494 0.03340293 -0.6985236 0.500928 0.056720953 0.6614926 0.29478133 -0.37613386 -0.94357353
jḥ -0.5625738 0.7617965 0.8393029 -0.34219506 0.27507734 -0.14556627 0.2534948 0.6273549 -0.29169676 0.11968812 0.57178277 -0.45799467 0.063844666 -0.7854139 0.5198942 -0.079838224 0.5657299 0.074899256 -0.33498052 -0.8590262
mntk -0.32868615 0.57105184 0.7775488 -0.22811233 0.29353917 -0.19124149 0.34169474 0.67016417 -0.46984884 0.16141032 0.45622253 -0.42076725 0.29400536 -1.0137743 0.58692515 0.036070783 0.66596 0.1881489 -0.46409208 -1.278641
ṯꜣ -0.25432593 0.51355714 0.75524676 -0.17115742 0.16135953 -0.12126558 0.2867011 0.5813587 -0.38522485 0.081265636 0.4455755 -0.4643839 0.30743474 -0.74378186 0.5336547 0.08184257 0.73416954 0.10149036 -0.4745192 -1.0024723
40 -0.7682087 0.88943034 0.79700506 0.5511972 -0.70877105 -0.10339222 -0.53513575 0.9621917 -0.6224091 -0.12885143 1.2866359 -1.4114816 -0.07655811 -0.12797375 0.14154041 0.15622206 1.8111069 -0.279845 -0.8823961 -0.22555548
pw -0.44458473 0.6681012 0.93356144 -0.32110366 0.22157858 -0.23994856 0.28033206 0.6513703 -0.43542916 0.172099 0.58825004 -0.5609826 0.11762401 -0.8774133 0.52037317 -0.06783625 0.89117163 0.059268 -0.44446933 -1.1816604
rmw -0.54381514 0.7074031 0.74248886 0.5844868 -0.80048454 -0.09946366 -0.59021693 0.8688212 -0.5999807 -0.060906388 1.2623011 -1.3622922 0.03044067 -0.019897256 0.15313523 0.17673276 1.7996118 -0.34672788 -0.92239857 -0.15296873
ꜣꜥꜥ -0.0986399 0.4539332 0.6009622 0.08881754 -0.13348354 -0.02821031 0.044492938 0.74743533 -0.4212374 0.14077856 0.6871912 -0.54509604 0.3454898 -0.5210663 0.32866272 0.14703982 0.9434138 -0.07245564 -0.5010807 -0.65045893
ḥnw -0.24290366 0.4437299 0.7621722 -0.065401375 0.043692816 -0.117773026 0.25082192 0.54024917 -0.34583086 0.09869565 0.6995163 -0.61461985 0.24100637 -0.7374022 0.4488559 0.19131453 1.1003233 0.0346851 -0.49296388 -0.8435709
ḳnḳn -0.43122333 0.5538813 0.6224635 -0.34811318 0.14913072 -0.33596602 0.25958523 0.6607294 -0.26255295 0.05064311 0.7477614 -0.36814764 -0.020694224 -0.83699614 0.7427608 -0.22123258 0.6026035 -0.17286378 -0.5051734 -0.92944694
dmj -0.23235242 0.5894846 0.96884805 -0.13928299 0.21964127 -0.15290904 0.17202847 0.7835942 -0.49216503 0.20600888 0.6615275 -0.6110885 0.30492598 -0.8529495 0.53598905 0.1034654 1.0355375 0.05409617 -0.41137004 -1.1879301
mnṯw 0.025117852 0.30479416 0.9734392 0.32326686 -0.29710385 0.12400975 0.2289847 0.8212225 -0.72350925 0.11834515 0.66539603 -0.6299901 0.43775043 -0.8075007 0.60346144 0.3486878 1.2506362 -0.0876642 -0.8054322 -0.92281073
ḏrw -0.27843228 0.55144584 0.6494848 -0.31361797 0.3883823 -0.18911889 0.34216103 0.4598451 -0.27898198 0.07785852 0.29861492 -0.34087017 0.16279623 -0.7954152 0.47622338 -0.07923855 0.4922427 0.12442012 -0.20189331 -1.1712283
wḫꜣ -0.37670663 0.5003518 0.61209446 -0.37634057 0.46957135 -0.25140592 0.18894689 0.5279473 -0.23571952 0.11836883 0.34956202 -0.40428603 0.12169114 -0.7468663 0.4171021 -0.08387873 0.41073343 0.20420116 -0.1438994 -1.1015509
ṯry 0.20705208 0.03364597 0.766891 0.24928394 -0.2318806 0.16300078 0.49924406 0.4844718 -0.5223863 0.11118092 0.17066595 -0.21939214 0.58112836 -0.7935808 0.5146168 0.4375779 0.6191919 0.07266195 -0.58612037 -0.7315257
nḥḥ -0.12403538 0.33961254 0.6461898 0.039896246 -0.02112001 -0.112365775 0.25200224 0.5783581 -0.47257382 0.09747487 0.48685813 -0.4747962 0.28338453 -0.64513534 0.46916845 0.13621305 1.0453625 -0.09473984 -0.44994727 -0.9716246
rd -0.3511135 0.40479288 0.6472074 -0.17617965 -0.0116721345 -0.26023108 0.2686167 0.3982763 -0.24064735 0.06005139 0.61934364 -0.4596025 0.11766698 -0.81196827 0.5019257 -0.17992392 0.8505384 -0.3072238 -0.472889 -1.1006848
jꜣw 0.035329193 0.14485851 0.8614968 0.00022270279 0.15415934 0.123069905 0.45601282 0.35388112 -0.40829778 0.09121639 0.22968541 -0.26737496 0.2421037 -0.73241717 0.57874906 0.31715763 0.7686898 -0.027395789 -0.32473215 -0.9944106
twk -0.28677228 0.46757317 0.75533354 -0.35000223 0.42602262 -0.15529671 0.50192654 0.45996192 -0.3173691 0.09534646 0.26631555 -0.22514974 0.24593426 -1.028784 0.5734719 -0.015067905 0.45427674 0.15174317 -0.234584 -1.2805139
tj -0.4524399 0.7413103 1.008105 -0.25702792 0.3020359 -0.19294076 0.36363924 0.7695132 -0.51151973 0.13275449 0.6254676 -0.61677533 0.15339321 -1.0763307 0.68753093 0.052161086 1.0543015 -0.054555483 -0.46297398 -1.4470344
ḏbꜥ -0.8001463 0.90510786 1.2953278 0.1194079 -0.49076408 -0.0751716 -0.12887122 0.5752881 -0.4861955 -0.043104913 1.5870918 -1.420034 -0.087582596 -0.7841315 0.31636474 0.23625559 2.000013 -0.29527053 -0.8329498 -0.68392855
ḥms -0.35811132 0.6968125 0.89820546 -0.24666314 0.23725793 -0.17155309 0.20664072 0.7045314 -0.32069522 0.16305235 0.65670234 -0.50455034 0.20406866 -0.88443124 0.62091905 -0.016137874 0.78870547 0.029215027 -0.39591125 -1.1370322
gm -0.23648281 0.40908483 0.7039657 0.0538331 -0.08441127 -0.13350078 0.09602643 0.5208271 -0.37073508 0.022706658 0.5954259 -0.5213897 0.17073545 -0.46045646 0.41230085 0.092205375 0.94840527 -0.0028026209 -0.49268052 -0.70952946
tp -0.23790842 0.4919486 0.7576557 -0.20436601 0.23765536 -0.1922249 0.23283713 0.62848246 -0.37854543 0.17558591 0.53034985 -0.45388076 0.27439043 -0.7839634 0.54209477 -0.004939467 0.8707424 -0.0063735163 -0.360503 -0.9962273
stp 0.8303183 -0.9125329 0.8451782 0.7178791 -0.60258436 0.15628056 0.50600713 0.41642606 -0.84452975 0.022169815 0.123481594 -0.47522256 0.8681333 -0.3620478 0.38282716 0.8693072 1.905743 -0.29349023 -0.83176255 -1.0373333
yꜣ -0.4440657 0.62462354 0.78413224 -0.4313872 0.4021642 -0.15888566 0.32039672 0.5370178 -0.31062844 0.13226072 0.30345565 -0.37417355 0.073776916 -0.9768192 0.550496 -0.07839835 0.43028346 0.24639148 -0.27706712 -1.233343
ꜥḳ -0.36639565 0.6040025 0.75634855 -0.21636769 0.3408328 -0.120427825 0.26674044 0.5298753 -0.32627028 0.14783499 0.52543616 -0.47275263 0.11785086 -0.7183018 0.45839548 -0.09001392 0.6394634 0.060667366 -0.2315509 -0.90079457
dwꜣ 0.17138827 -0.06997011 0.6705419 0.17554192 -0.045878418 0.10311813 0.3954637 0.3992094 -0.5010333 0.051153846 0.30480728 -0.31818447 0.38440672 -0.67868763 0.462661 0.3040814 0.9629917 0.007179632 -0.52453566 -0.87358695
bj -0.7599048 0.7636561 0.6978315 0.4489324 -0.3879239 -0.06642918 -0.5772362 0.6888207 -0.49956322 -0.021032812 1.1525769 -1.1582214 -0.038307935 -0.07489916 0.19007389 -0.12819457 1.6836095 -0.282267 -0.61642265 -0.05067236
my -0.3733509 0.5382876 0.57301486 -0.33412057 0.38680032 -0.23643954 0.21163552 0.47281355 -0.32304803 0.14206561 0.44385415 -0.36194843 0.085017934 -0.80346406 0.43493262 -0.09784685 0.31809667 0.19752438 -0.18970333 -0.9594083
ṯꜣw -0.08535444 0.33227655 0.72276163 0.23132525 -0.27088127 0.019495994 0.22769663 0.694725 -0.5184906 0.08729868 0.64087194 -0.5560636 0.35376218 -0.61833024 0.5429522 0.2470749 1.0679947 -0.0908497 -0.71495 -0.7553112
ẖnw -0.25384894 0.47458133 0.63326174 -0.21893187 0.2609017 -0.11398358 0.26125824 0.40272525 -0.26124412 0.041386325 0.41589698 -0.35761586 0.20208198 -0.7207278 0.43301138 0.015184686 0.6154912 0.050885964 -0.25619256 -0.9465732
ḫrw -0.19039842 0.4276423 0.7789381 -0.09645079 -0.04181877 -0.10381027 0.2530018 0.6227321 -0.38744336 0.13730448 0.5811937 -0.5005546 0.25433362 -0.6894744 0.5233098 0.18093914 0.90653896 0.06392721 -0.45488286 -1.0016705
ḥr-sꜣ -0.50807774 0.8421576 0.8432399 -0.54616916 0.2681235 -0.16639616 0.2101907 0.49892092 -0.27029446 0.2054066 0.26934928 -0.6214829 0.018705865 -0.8693856 0.47544336 -0.07655305 0.5320067 0.17895772 -0.21087077 -1.0446934
mnw -0.37959176 0.4632297 0.6450126 0.35064206 -0.3600919 -0.08816403 -0.3430713 0.6343142 -0.4847867 -0.03656287 0.8554315 -0.75265396 0.07605281 -0.1876718 0.22684368 0.028769698 1.3320276 -0.23161323 -0.7095986 -0.30681825
ṯꜣj -0.3153974 0.4671651 0.5696971 -0.2475811 0.3402555 -0.16727626 0.12958787 0.36307243 -0.27536362 0.0543634 0.41061515 -0.3555485 0.056229014 -0.4730966 0.31890026 -0.16476968 0.46349 0.1785173 -0.1375103 -0.7106534
smw -0.6677936 0.7463814 0.8112972 0.38153243 -0.4836159 -0.050046246 -0.38187486 0.66408163 -0.5039938 -0.08123528 1.114794 -1.1384757 -0.05882881 -0.25161517 0.25959417 -0.06961626 1.6920155 -0.2721652 -0.7522499 -0.25511038
šꜥd -0.30408305 0.45173267 0.5174041 0.1787173 -0.25393087 -0.06389706 -0.09748722 0.6236133 -0.37884933 -0.04632859 0.52500343 -0.6239444 0.048609905 -0.25827578 0.30095726 0.08020373 0.90024406 -0.067880616 -0.4323522 -0.4423429
sšr -0.120258056 0.40511674 0.6892372 -0.3486001 0.3672055 -0.19087552 0.2865124 0.36088502 -0.2974084 0.10623502 0.18724097 -0.1443532 0.15782335 -0.787416 0.593408 -0.020085892 0.4011051 0.1435192 -0.18022232 -1.1850386
thꜣ 0.330496 -0.07586619 0.65489024 0.27296147 -0.18423901 0.14916587 0.3167224 0.49756333 -0.49696967 0.09693985 0.18083866 -0.17003861 0.59086704 -0.70418 0.44749877 0.3492946 0.5930281 0.16818208 -0.59425735 -0.74190176
sbk -0.04603765 0.3168504 0.66638654 0.326734 -0.38454384 0.06557124 0.09032418 0.70646805 -0.57676655 0.14883703 0.6189134 -0.63462144 0.3095146 -0.57935447 0.4379517 0.27774084 1.1174791 -0.07397221 -0.66423845 -0.69217205
wp -0.4443982 0.60455996 0.718149 -0.1297935 0.23829366 -0.21120332 0.03593303 0.51084805 -0.316778 0.10521795 0.5154224 -0.61096716 0.08230601 -0.5516979 0.36601853 -0.03712671 0.70577294 0.07832608 -0.30975074 -0.81207585
1000 -0.33754992 0.4994104 0.6924205 0.4685556 -0.54117393 -0.043503698 -0.2528954 0.7161682 -0.5549391 -0.02988472 0.8955337 -1.0084803 0.06709274 -0.2333382 0.27199143 0.23032509 1.3347676 -0.12537749 -0.7109086 -0.5191246
šwyty -0.13327628 0.34258536 0.6720052 0.36066526 -0.47716525 0.030261738 -0.051018395 0.70102274 -0.43803915 0.05962119 0.7051693 -0.6898447 0.2331526 -0.3641782 0.3001424 0.26292017 1.1665486 -0.1620619 -0.68295205 -0.3543752
ḳꜣ -0.0078313975 0.18837875 1.0215003 0.076613635 -0.14250018 0.08701591 0.38650525 0.43948272 -0.51016325 0.020000538 0.32417533 -0.41095474 0.20864019 -0.8218654 0.5746776 0.30614012 0.999171 -0.119039744 -0.6294619 -0.9615991
sḫ -0.4122318 0.6018137 0.812991 -0.22682428 0.26437178 -0.10268664 0.16546434 0.47866306 -0.33142394 0.09072177 0.5921149 -0.50158066 0.053489078 -0.71248275 0.45446128 -0.049601305 0.7101674 0.010549747 -0.27991846 -0.83405155
dy -0.28931832 0.47747526 0.6553682 -0.24833898 0.2955231 -0.15597382 0.17071803 0.5063558 -0.28048983 0.12813315 0.39343205 -0.43779066 0.08427443 -0.6765097 0.3635844 -0.029291335 0.596833 0.08879275 -0.22063123 -0.9107903
ꜥrḳy -0.5714744 0.6722943 0.6683738 0.46576792 -0.47055975 -0.1520581 -0.507958 0.7560363 -0.5755066 -0.03761694 1.1406026 -1.1535488 -0.1419191 -0.15229371 0.2341186 -0.012307302 1.5509202 -0.25961128 -0.7233287 -0.18915096
t) -0.2582694 0.43024138 0.69903594 0.087762736 -0.24592233 -0.13519372 0.17326696 0.6943398 -0.48781827 0.14011818 0.7629897 -0.63260686 0.15903373 -0.5854758 0.38791066 0.12713058 1.005067 -0.12194232 -0.6209324 -0.7153351
mḥr -0.081125416 0.2558033 0.5447788 -0.031164534 -0.027359825 -0.11592619 0.25046572 0.3705167 -0.26550558 0.052192602 0.42618838 -0.31686807 0.17522612 -0.5264052 0.33360195 0.112252206 0.6674147 0.049033187 -0.36801866 -0.69933194
jṯꜣy -0.077553615 0.2835329 0.55392706 0.2571403 -0.38188252 0.022752522 0.036241546 0.50846744 -0.30145684 0.051213227 0.50056005 -0.52338433 0.25035194 -0.36166865 0.311075 0.19750932 0.84633267 -0.010437942 -0.46140766 -0.27229595
gmy -0.25548416 0.45548716 0.67700046 -0.25006977 -0.049901735 -0.18994561 0.21465573 0.49578974 -0.2781341 -0.012098415 0.5461901 -0.43051043 -0.018901138 -0.49482736 0.4512334 0.026246054 0.6503008 -0.032176726 -0.40404534 -0.5627876
grḥ -0.28290138 0.6014296 0.7484426 -0.2229043 0.17155077 -0.19212884 0.1853054 0.5305486 -0.35031703 0.10823308 0.50899 -0.53014064 0.21134837 -0.7028108 0.48024625 -0.046163313 0.780044 0.11161857 -0.31585258 -1.004399
wꜣ -0.07978548 0.3379873 0.71167475 -0.052871738 -0.040795986 -0.03422648 0.30679616 0.4592278 -0.38531935 0.029082924 0.41017875 -0.28843707 0.18773063 -0.62789255 0.46980807 0.21489787 0.66679156 0.0014152476 -0.47367725 -0.7894342
ṯbw -0.5041848 0.6085708 0.7915247 0.2250334 -0.35051 -0.10579142 -0.209258 0.68461937 -0.386839 0.046043087 0.8832591 -0.99946374 0.08394566 -0.33062205 0.2505375 0.17832805 1.2169262 -0.048604533 -0.54893154 -0.32676664
nfw 0.11959154 0.087344244 0.53614205 0.26199335 -0.24349146 -0.013612922 0.21952394 0.45940864 -0.3961826 0.15446286 0.44008344 -0.24612032 0.287616 -0.4881507 0.37196508 0.24325594 0.7383302 -0.048364762 -0.46910098 -0.46496955
ḥbs -0.45270133 0.67681587 0.71394646 -0.08528932 -0.058985863 -0.07933022 0.09914418 0.57569313 -0.30342886 0.015407061 0.6049034 -0.6931269 0.029907623 -0.52814776 0.34526223 -0.00890185 0.792005 0.05252799 -0.36820832 -0.6374362
p -0.080115974 0.28294492 0.7660324 0.031399492 0.08972473 -0.0354278 0.22746998 0.51430756 -0.42516494 0.12518351 0.39796197 -0.54403275 0.3999199 -0.8375575 0.55349064 0.20664276 1.0062623 -0.010264035 -0.46660993 -1.1140691
ḥꜥpy 0.027986726 0.30191612 0.85338795 0.3253589 -0.35397318 0.07308131 0.24901164 0.7313552 -0.66561633 0.17773728 0.61148673 -0.66658777 0.48895043 -0.76359314 0.47363698 0.29615268 1.2672138 -0.044968013 -0.7058325 -0.8946404
smj -0.036302485 0.3192614 0.6384573 -0.1406258 0.22685884 -0.046700336 0.36464277 0.407706 -0.2889911 0.11219137 0.22661844 -0.22213589 0.21030429 -0.7118667 0.43942523 0.0662817 0.37259668 0.059526507 -0.22048986 -0.8154823
ꜥḥꜥw -0.013830939 0.026329245 0.6490517 0.0143410545 -0.0026945332 0.10170331 0.37174243 0.19288102 -0.3790111 -0.037524503 0.15445346 -0.25082093 0.043623835 -0.6363068 0.4356215 0.18661954 0.5937333 -0.087626226 -0.3096947 -0.7412685
st -0.26755938 0.37703148 0.62715715 -0.119737774 0.04554786 -0.11523484 0.19738425 0.5097229 -0.32292268 0.075611934 0.40014753 -0.49104476 0.20363608 -0.63801616 0.4163651 0.03156029 0.7749172 -0.02523209 -0.37006053 -0.85305303
mr -0.20903246 0.44545564 0.76478535 0.2138624 -0.37717655 -0.059842117 0.0066185137 0.58613485 -0.5300968 0.062035292 0.6998928 -0.74634606 0.26651043 -0.5096926 0.43219823 0.1958435 1.2219808 -0.036172736 -0.63451874 -0.6574477
šꜣꜥ -0.37823418 0.4191636 0.6270657 -0.016746255 0.1443242 -0.20598231 0.06458646 0.50080854 -0.261946 -0.005668249 0.5108039 -0.5545571 0.021875245 -0.4555299 0.35039037 -0.008544717 0.7095718 0.043244336 -0.30894247 -0.62106276
ḥmww -0.09070143 0.21350926 0.50732046 0.2514874 -0.2571748 0.0517402 -0.011611458 0.47277758 -0.3789835 0.024829032 0.50946134 -0.45071572 0.31313676 -0.27404717 0.20701374 0.23507294 0.906557 -0.03291506 -0.42210144 -0.38065645
sḥn -0.23229405 0.4438299 0.62864983 -0.28357556 0.29573226 -0.10178124 0.24366798 0.4934132 -0.29612345 0.07995067 0.26210403 -0.27419937 0.14565979 -0.6862485 0.42354414 0.032503318 0.3678553 0.11046713 -0.21299174 -0.8760779
mk -0.31682763 0.57879806 0.7072511 -0.07360875 0.0315265 -0.12090085 0.080245726 0.5808923 -0.41933012 0.1049888 0.6243412 -0.61334187 0.14505024 -0.5821102 0.41395336 0.029487982 0.99025726 0.017624727 -0.39200094 -0.82799834
ꜥḥꜣwty -0.14799295 0.4256125 0.70253456 0.13175692 -0.11498485 0.03770717 0.17726643 0.57798755 -0.44448125 0.045851786 0.53766 -0.55429745 0.26346907 -0.5300937 0.32524058 0.24671152 0.836443 0.019655403 -0.4211831 -0.7009803
wj -0.21320869 0.34843975 0.676773 -0.26644439 0.22859798 -0.10452813 0.3986499 0.5100621 -0.3104142 0.15553181 0.188096 -0.23897482 0.2411898 -0.9444864 0.5072336 0.0123265805 0.48483795 0.16312294 -0.3140408 -1.1000932
mꜥḥꜥ -0.23630163 0.44436646 0.6858506 -0.1490352 0.1502263 -0.14927611 0.30355024 0.34140217 -0.2789738 -0.0011397739 0.43711445 -0.4255011 0.18210618 -0.58688325 0.44912565 0.08690789 0.58598804 0.05168392 -0.27887872 -0.62474865
nḏm -0.13589753 0.42836663 0.68749046 0.05951638 -0.060790803 -0.035941437 0.1579619 0.557634 -0.35969618 0.054681543 0.6295481 -0.5431663 0.20800397 -0.5821801 0.4010855 0.16668661 0.8643334 -0.06857507 -0.4524866 -0.7008117
ḏbꜣ -0.4211485 0.53924 0.4729715 -0.06910247 0.08187547 -0.08916753 0.0004820376 0.4265904 -0.25413927 0.01209829 0.5163984 -0.50164 0.041540194 -0.32477084 0.21587528 -0.0192681 0.6184576 -0.016291272 -0.2866629 -0.3810465
ḫtm -0.273101 0.38958648 0.65201616 -0.121946044 0.09869016 -0.1637608 0.16939922 0.48144364 -0.26691028 0.11141994 0.5236862 -0.45755196 0.2524057 -0.5953453 0.4225566 0.06849868 0.69062376 0.042447716 -0.3414876 -0.7914023
sd -0.07682554 0.32895586 0.7802958 0.2318966 -0.25354466 0.0017225499 0.14969772 0.58741325 -0.5209782 0.07209852 0.5130199 -0.60200465 0.35424602 -0.5022741 0.39737105 0.2694238 1.0371711 -0.01860331 -0.50553125 -0.61319923
wḥꜥ -0.113794334 0.32627162 0.78434205 0.12951231 -0.15558144 0.043785397 0.09396919 0.6040827 -0.49415377 0.107260786 0.59455633 -0.5363849 0.27580845 -0.54498214 0.4367157 0.14118728 0.92344874 0.035238404 -0.5060118 -0.660528
wdpw 0.41298816 -0.16315083 0.7741037 0.3881987 -0.45530492 0.1764472 0.47263938 0.37569806 -0.5056307 0.002232356 0.2673894 -0.34539735 0.49412796 -0.5333946 0.4417309 0.4837309 1.1111102 -0.13285948 -0.6794745 -0.55105364
šmsw -0.1296387 0.3769351 0.7360251 -0.012017973 0.06409647 -0.0024493837 0.27433798 0.5283234 -0.40670285 0.11818894 0.36885503 -0.37621856 0.2727735 -0.74919003 0.51953435 0.16027188 0.64669764 0.05402831 -0.4148313 -0.86743367
ḳnj -0.20228222 0.44549248 0.5420384 -0.40311205 0.32654563 -0.19219139 0.2718083 0.3880044 -0.19317037 0.058081 0.20028497 -0.1607028 0.007279683 -0.8140708 0.4451922 -0.15153852 0.26086226 0.15866128 -0.049402002 -0.97524726
grg -0.22246946 0.4764423 0.6055517 -0.27695975 0.28611752 -0.19978717 0.31844422 0.5280096 -0.26215357 0.10852011 0.32364222 -0.34118116 0.1528507 -0.7065056 0.46161664 0.014929805 0.48299223 0.1172078 -0.22723909 -0.9713013
pš -0.1298914 0.34074926 0.3357417 -0.13805315 0.008168126 0.022158418 0.11873407 0.33176315 -0.1770374 0.06758276 0.39340922 -0.363928 0.04353819 -0.23666425 0.16968207 0.11024886 0.31472448 0.086640604 -0.20542042 -0.27611575
psn -0.58143145 0.5817521 0.6344615 0.40670946 -0.4056471 -0.07380673 -0.4857853 0.57230616 -0.45466113 -0.08919136 1.018279 -0.9382856 0.010077357 -0.12171989 0.24927944 -0.11933422 1.523823 -0.2378716 -0.6418454 -0.09832764
wbn 0.025164567 0.075228736 0.6374869 0.08765146 -0.13560115 -0.03661719 0.28959653 0.36547622 -0.45134056 0.08013134 0.2858936 -0.41487285 0.25380507 -0.6288277 0.4015217 0.2238069 1.0385103 -0.06998758 -0.51103705 -0.8171637
sḏr -0.40236482 0.61069363 0.74467665 -0.06711933 0.10396964 -0.11040018 0.055109717 0.5453765 -0.36011732 0.068689175 0.6208258 -0.511902 0.06337832 -0.6349511 0.4184153 -0.047509745 0.750339 -0.012828202 -0.3301932 -0.738205
ḥtr -0.38253647 0.6264104 0.80497867 -0.30154553 0.20386055 -0.15202023 0.32176265 0.50428325 -0.3018877 0.04263128 0.5175533 -0.50357974 0.09201031 -0.69814545 0.47161117 0.0580069 0.62614053 0.09252974 -0.2826229 -0.86886096
60 -0.48602048 0.49207267 0.5047303 0.47514692 -0.46855226 -0.101798035 -0.38927335 0.7107323 -0.39894128 -0.09739734 0.83685607 -0.95206386 -0.030856093 -0.07682535 0.19557595 -0.00085654843 1.2823702 -0.26925588 -0.57380384 -0.21163282
ḳrḥ -0.64680564 0.73400354 0.8392648 0.44204038 -0.44467753 -0.1667179 -0.5194674 0.80271804 -0.49502245 0.0022066936 1.1001028 -1.2140012 0.014119772 -0.28167555 0.3067088 0.06400148 1.5718433 -0.21993382 -0.67108643 -0.41673365
gr -0.3794923 0.50877464 0.5164358 -0.37188235 0.36233962 -0.15506405 0.26736423 0.45798427 -0.18667494 0.103344895 0.2887612 -0.20332706 0.08414443 -0.7269265 0.44278574 -0.08371694 0.35662833 0.10284724 -0.18305078 -0.9054314
jst -0.25398642 0.4644928 0.64344263 -0.119958185 0.2472211 -0.14030404 0.1337117 0.4873407 -0.33433068 0.16884942 0.4468905 -0.44403812 0.11194301 -0.6899067 0.47069326 0.023659432 0.68858033 0.048933953 -0.23614128 -0.9141582
sbꜣ -0.32123244 0.4722305 0.54596525 0.003561319 0.013065922 -0.04119298 0.05710428 0.45533276 -0.2682381 0.009691726 0.5437231 -0.5402198 0.043638833 -0.3571786 0.24855432 0.045880396 0.7350554 0.037615884 -0.35684994 -0.4456146
ẖdb -0.41021475 0.53598034 0.61657244 -0.4378319 0.44887972 -0.2371961 0.22054967 0.42979956 -0.21429448 0.14577317 0.2838858 -0.31004176 0.054798108 -0.7449748 0.38745004 -0.17365249 0.29707438 0.19674756 -0.08467059 -0.9363832
šm -0.22880785 0.4078422 0.6529475 -0.26160148 0.35136035 -0.12055976 0.27397612 0.43474406 -0.23574644 0.09976097 0.29174182 -0.313872 0.17049101 -0.7472788 0.35536617 -0.01263863 0.41000044 0.17586249 -0.23539881 -0.9108879
kr -0.1273119 0.3142471 0.6084046 0.18453775 -0.10877221 -0.04332729 0.029981185 0.50943047 -0.37235665 0.009537861 0.48059607 -0.47437945 0.26286712 -0.43628398 0.3243785 0.11335571 0.7740335 -0.034610663 -0.42140087 -0.5121969
ꜣny -0.24513938 0.27848488 0.673157 0.47630647 -0.4615279 0.051786542 -0.14087869 0.658436 -0.49945068 0.068082295 0.86411285 -0.76435786 0.23547798 -0.214954 0.30191728 0.14724988 1.4043976 -0.13177755 -0.67944545 -0.39074224
ẖrd -0.13928057 0.32488304 0.62868994 -0.12895218 0.115232855 -0.03910542 0.30543002 0.3543812 -0.30941164 0.03578047 0.2930546 -0.3388417 0.149265 -0.61495805 0.45345366 0.07244179 0.45769075 0.026868632 -0.30847856 -0.7755731
rdy -0.19078484 0.28411886 0.40710807 0.13362321 -0.14775045 -0.05803956 -0.022498013 0.29858372 -0.27194163 -0.08319068 0.42643267 -0.44004452 0.066231415 -0.22864635 0.121446125 0.09906775 0.6481549 -0.04528173 -0.2993394 -0.16556305
šmꜥy 0.27572352 -0.12384583 0.5132594 0.42424214 -0.26723528 0.17903636 0.0574143 0.3481045 -0.459766 0.12079583 0.270404 -0.3906074 0.42239702 -0.412279 0.36963707 0.28389323 0.8582983 -0.015724123 -0.51590276 -0.3434774
ꜥšꜣ -0.054305166 0.22705907 0.76797754 0.037856635 -0.19368193 0.010472895 0.30804595 0.33698195 -0.39534432 0.048628874 0.27623025 -0.3715258 0.20834109 -0.62485963 0.48036364 0.20895639 0.8197524 -0.060976706 -0.4173248 -0.7324413
mtr -0.26170298 0.41498482 0.4468151 -0.072565846 0.11548526 -0.061220683 0.07696955 0.41453668 -0.2017442 -0.002310375 0.34449765 -0.39987874 0.106811985 -0.42914522 0.27568775 -0.019344032 0.4553623 0.026316062 -0.2437187 -0.66730845
ꜥm -0.27030125 0.37358895 0.54062045 -0.2668332 0.40529293 -0.19978693 0.17461134 0.4115735 -0.21411085 0.13084489 0.21984008 -0.25567487 0.11671248 -0.59963465 0.41486782 -0.103128634 0.22165628 0.12956452 -0.0745077 -0.9043647
bjty 0.25493833 -0.114477575 0.6694438 0.39666268 -0.41754854 0.099040926 0.28660533 0.41879135 -0.5694139 0.08372868 0.41762054 -0.5245036 0.46751162 -0.36824366 0.27896872 0.41586614 1.3179712 -0.19943833 -0.65342003 -0.8384202
ym -0.1864291 0.3817818 0.72085553 -0.05487479 0.17415144 -0.08251701 0.1580014 0.58563393 -0.3903944 0.1278962 0.51641804 -0.3822698 0.23737067 -0.701884 0.4771226 0.0770584 0.6989718 0.031383228 -0.34308353 -0.8998936
400 -0.3298845 0.43661606 0.40410173 0.5731152 -0.5916089 0.0006485054 -0.46388206 0.6994581 -0.45005092 -0.06521823 0.7131055 -0.9203737 0.02570361 -0.052357342 0.2172978 0.07586255 1.1651185 -0.25398844 -0.63563794 -0.16012642
wpwty -0.045968816 0.2609609 0.63008285 -0.02712826 0.13914886 -0.03181968 0.31534734 0.5059703 -0.35223454 0.06578594 0.36170888 -0.36066687 0.20754261 -0.69183284 0.4630936 0.15967973 0.6583361 0.08833078 -0.43056327 -0.93292546
jnr -0.28954455 0.4890469 0.6544793 0.021054536 -0.15015481 -0.06439925 0.115687504 0.5153047 -0.3339097 0.094886616 0.56039494 -0.5735576 0.07168311 -0.5516546 0.35593098 0.04392933 0.82998043 -0.078478605 -0.453073 -0.6470513
sṯꜣ 0.04773651 0.17380705 0.3087002 -0.028798826 0.0396414 0.01686692 0.08891392 0.1529677 -0.14652625 0.053628586 0.19522761 -0.07544753 0.16663438 -0.21356733 0.23018603 0.18575713 0.2973156 0.073699154 -0.21536152 -0.21552508
sꜥḥꜥ -0.316167 0.4175346 0.41350782 -0.26132822 0.29618758 -0.18661918 0.24282192 0.46403784 -0.20058611 0.14120771 0.2793239 -0.24445768 0.0823038 -0.65829027 0.34371656 -0.10994988 0.25808522 0.079299405 -0.16165674 -0.7243503
sḫm -0.08366861 0.2619159 0.6284191 0.08979259 -0.067890555 -0.033470318 0.10183384 0.44188505 -0.37836805 0.07682251 0.39982176 -0.42401296 0.1502723 -0.47220305 0.28545746 0.08718579 0.8067275 -0.07462827 -0.3660389 -0.5772629
snṯr -0.11500229 0.20887068 0.5309525 0.43073598 -0.47212738 -0.0021440005 -0.08367988 0.5749172 -0.45253092 0.09908815 0.7697094 -0.6765526 0.23003 -0.33871245 0.19130665 0.188837 1.2456523 -0.16331159 -0.60797423 -0.26148525
500 -0.2590627 0.40792516 0.5345695 0.3836205 -0.41659063 -0.067251906 -0.19052805 0.6554619 -0.4626924 -0.04994263 0.655844 -0.80407953 0.06555707 -0.20431134 0.20694986 0.091409765 1.0722507 -0.2148592 -0.5944614 -0.3549413
jḳr -0.076184936 0.43595776 0.61301595 -0.22664125 0.26584473 -0.1201416 0.19857806 0.43092382 -0.14766741 0.1752989 0.42057458 -0.1546415 0.060987804 -0.5408055 0.3422718 -0.025134452 0.554664 0.018657774 -0.026170565 -0.94931924
nhꜣ -0.25980204 0.45505255 0.53277016 -0.1275099 0.15271133 -0.08992193 0.17425936 0.36323327 -0.26103917 0.07708043 0.35341352 -0.34249467 0.117254145 -0.56124794 0.27481443 -0.03287449 0.46601084 0.08561118 -0.2574143 -0.6416574
ẖry -0.2689308 0.49299103 0.5958919 -0.11916899 0.09715297 -0.15717861 0.13657595 0.50759494 -0.3657214 0.008288884 0.4360947 -0.46554506 0.14013642 -0.5166279 0.34991717 -0.000106746396 0.74966115 0.016927732 -0.37620002 -0.73594135
80 -0.4728377 0.5787673 0.5908152 0.14298108 -0.19359306 -0.104828134 -0.18796942 0.5410714 -0.37269908 -0.024526445 0.73797506 -0.7984022 0.008308181 -0.21732935 0.2317077 0.039655562 1.0624244 -0.09911975 -0.45655468 -0.3026155
gs -0.18366997 0.3918771 0.58049387 -0.10390557 0.101150595 -0.095525615 0.17530203 0.4435175 -0.33997646 0.041833304 0.45934993 -0.43623766 0.15687536 -0.5759133 0.3553053 0.016944053 0.6958913 -0.0046338392 -0.2789087 -0.8328454
rwj -0.35885164 0.43800548 0.56227 -0.37797195 0.406346 -0.22489548 0.23999485 0.3257823 -0.24907848 0.09782521 0.23232119 -0.3165749 0.12772878 -0.68854874 0.37755933 -0.18832581 0.23907673 0.20250249 -0.084339276 -0.8782589
ḥy -0.16570954 0.26659203 0.5078041 0.102232926 -0.15224442 0.008156301 0.055403125 0.35400242 -0.2954656 0.05921913 0.44174346 -0.45639995 0.106305145 -0.2793172 0.25611392 0.12200031 0.762935 -0.08487167 -0.31899852 -0.40188056
ḏw -0.22508015 0.4497726 0.57748836 -0.15460448 0.17743625 -0.12134369 0.20766798 0.38272884 -0.29121998 0.0848798 0.380426 -0.45456082 0.16081348 -0.5218288 0.32801333 -0.0043680165 0.56128913 0.0638753 -0.26928076 -0.693787
rsy -0.21195371 0.31863713 0.49172342 -0.015456557 0.124555364 -0.1347891 0.07428213 0.36330312 -0.21565597 0.0699595 0.3179719 -0.35290727 0.067043476 -0.46835446 0.2740066 -0.005217069 0.51938933 0.016168851 -0.2581589 -0.5502626
sjp -0.3247984 0.37696624 0.46826357 -0.059546523 -0.10150023 -0.10263678 0.093957864 0.33630663 -0.20624675 -0.05372645 0.4691764 -0.5145767 -0.040255554 -0.29473045 0.24483702 0.120478906 0.5835814 0.027800767 -0.323037 -0.27881452
mḏꜣ 0.07628435 0.022818714 0.4099541 0.2274995 -0.19238256 0.067727216 0.10744594 0.29234532 -0.36252934 0.07571184 0.24158804 -0.30424163 0.22791418 -0.36172357 0.20795037 0.29062167 0.70213646 -0.11732025 -0.42432988 -0.4456612
twt -0.20008536 0.30444828 0.4462059 -0.050343644 -0.026776172 -0.04240397 0.1298075 0.27201352 -0.22564037 0.050518986 0.38176477 -0.36689514 0.11408155 -0.40858895 0.1848918 0.045089297 0.432887 0.031954646 -0.23542607 -0.37251416
swḏ -0.1338209 0.272524 0.42296955 -0.21056466 0.15124494 -0.0428172 0.19427775 0.3686928 -0.20427983 0.048312977 0.20453274 -0.27545747 0.12488947 -0.50964713 0.31890234 -0.010044054 0.37265486 0.14676106 -0.22351046 -0.7055115
wnm -0.28920016 0.43220204 0.53877825 -0.17580499 0.16606577 -0.101102255 0.13851306 0.3665052 -0.20077339 0.049260788 0.39174762 -0.41283405 0.03336554 -0.4555388 0.28104204 -0.026211517 0.5277017 -0.0014185975 -0.18989402 -0.7048401
sy -0.28069812 0.35068083 0.49374902 -0.09619198 0.13948163 -0.1344834 0.08700459 0.38261262 -0.20531611 0.024249336 0.34464893 -0.34574258 0.098061346 -0.47182548 0.30969784 -0.053233787 0.43250015 0.020100005 -0.23353569 -0.62411785
nnj -0.249939 0.30903786 0.53102934 -0.17972533 0.28227863 -0.07889489 0.17333908 0.41746718 -0.30209917 0.03374852 0.20686656 -0.24708816 0.115579665 -0.5854408 0.3885869 -0.023035152 0.3865675 0.10017297 -0.21787661 -0.8128765
btꜣ -0.30606154 0.4269033 0.46684086 -0.28181818 0.25767323 -0.16548666 0.18494505 0.3254347 -0.14750515 0.11052587 0.18469828 -0.1638946 0.023382457 -0.6114118 0.33735433 -0.13165767 0.2558487 0.06205749 -0.16973661 -0.76231056
rwḏw -0.061457098 0.29962674 0.57820094 0.022950668 -0.09564137 -0.051834725 0.20833588 0.40274638 -0.26212382 0.07590899 0.3959656 -0.33930296 0.17668211 -0.43154663 0.40015388 0.19242 0.5298365 -0.000392966 -0.33822078 -0.51088357
mdw -0.20051049 0.4131768 0.64890623 -0.057949893 -0.011011469 -0.12942068 0.17821503 0.4905098 -0.3608544 0.07692519 0.44770452 -0.3807517 0.18066238 -0.5595271 0.40855145 0.112224564 0.70147634 0.009877185 -0.4204867 -0.70818144
ḥḥ 0.061078098 0.069848076 0.42576212 0.13765056 -0.21448971 0.06898358 0.1814177 0.18946634 -0.33839542 -0.064284965 0.20919709 -0.21318294 0.18864751 -0.34961805 0.28981188 0.25131086 0.49406126 -0.111224055 -0.26872772 -0.35941467
ẖnm 0.074839935 -0.008874463 0.48242632 0.18355756 -0.23995835 0.08872938 0.16448961 0.3240482 -0.3248612 0.07286856 0.22220662 -0.26421803 0.23747891 -0.50514823 0.32978657 0.30468485 0.74268144 -0.13817137 -0.44231847 -0.6199842
ḏnḏr -0.36362225 0.52448773 0.5099583 0.381941 -0.41204864 -0.05683775 -0.37522197 0.58802813 -0.49171558 -0.09030113 0.7214346 -0.8483697 0.027489455 -0.10313474 0.25021583 0.04076999 1.0983493 -0.1878331 -0.6085173 -0.19192638
ḥnḳ -0.43469885 0.5105354 0.6627517 0.20297144 -0.25730535 -0.09007574 -0.21152097 0.5546396 -0.36258247 0.0013958055 0.7721082 -0.7413227 -0.019688146 -0.25073543 0.18952592 0.03487267 1.0957452 -0.13359588 -0.43962878 -0.3332399
pḏ -0.096895844 0.25997257 0.49802506 0.1100076 -0.075558975 -0.01497234 0.19469798 0.36036932 -0.28308293 0.0874673 0.2966241 -0.3474938 0.2300261 -0.38457075 0.33481383 0.16000625 0.58215964 0.031166313 -0.2907166 -0.45863444
ḏd( -0.04898157 0.17315795 0.3675823 0.1005673 -0.16807449 -0.013024374 0.14352028 0.28808022 -0.32893372 0.079225734 0.40623647 -0.39079735 0.09758859 -0.32521075 0.21220483 0.203242 0.5815116 -0.059655182 -0.35911623 -0.3580331
fꜣj -0.3073153 0.42575827 0.4507526 -0.19959255 0.1893953 -0.06543699 0.19527213 0.37920353 -0.20081459 0.06615925 0.3741533 -0.33546802 0.09553242 -0.5155511 0.3392654 0.018616982 0.4297273 0.06627545 -0.1891123 -0.6969575
rwḏ -0.39950725 0.49422428 0.5487434 0.19693908 -0.35070074 0.014003853 -0.18490191 0.5422751 -0.2838641 -0.06002568 0.76302814 -0.8060086 0.03432586 -0.14819293 0.06418824 0.15233967 1.0383571 -0.07478727 -0.5325145 -0.24754393
dnj -0.3500403 0.41121218 0.31991082 -0.036247637 0.056697145 -0.011198847 -0.032418013 0.3045686 -0.13237263 0.03258112 0.37385634 -0.4477732 0.020712443 -0.13921435 0.09027456 -0.06355829 0.41860887 0.08680641 -0.112532556 -0.15911159
njwy -0.34222686 0.37228876 0.39318678 -0.18473358 0.12510993 -0.11796172 0.055675976 0.32963964 -0.14441952 0.07309119 0.25650766 -0.2438358 0.0036983006 -0.33041152 0.18617569 -0.09042598 0.29363763 0.048211835 -0.0890935 -0.39154574
ḥmsj -0.2033097 0.3538743 0.4276418 -0.21800631 0.2933777 -0.09815424 0.12693344 0.2920007 -0.18617222 0.12491168 0.26568875 -0.2730771 0.054844804 -0.40999904 0.28208914 -0.10069405 0.30315807 0.030558797 -0.07438676 -0.57841
ꜥḥꜣ -0.16852923 0.35509017 0.49580464 -0.056199517 0.00693123 -0.07719273 0.13764367 0.42584482 -0.31518716 0.097629935 0.37847003 -0.40452555 0.11334142 -0.49262232 0.25917047 0.055892132 0.5933291 0.05000111 -0.24837448 -0.62729836
ḥꜥ -0.22629757 0.3668718 0.5143992 -0.19138159 0.22564246 -0.12615678 0.29815307 0.3904173 -0.25593626 0.09850365 0.35846186 -0.31077805 0.10674458 -0.6251053 0.3828012 0.014789324 0.3630683 0.025405576 -0.2719533 -0.8065983
wšb -0.25083643 0.40723866 0.45266882 -0.1986711 0.20964478 -0.038690135 0.16424389 0.37937298 -0.24579665 0.07724952 0.34360594 -0.28521535 0.08958383 -0.45954385 0.27632517 0.050191667 0.33075356 0.14004682 -0.1421856 -0.5548076
1/4 -0.35279125 0.37442908 0.5604295 0.23101477 -0.29262164 0.006363295 -0.14691384 0.47485808 -0.34832954 0.066937655 0.67051095 -0.66728765 0.11928762 -0.361158 0.27222544 0.11137445 0.99093366 -0.12435913 -0.40872714 -0.39934924
ḫšb -0.11392073 0.18127236 0.36806884 -0.31371397 0.242139 -0.18728341 0.41894275 0.25617993 -0.23998734 0.11382449 0.11019401 0.013034144 -0.0048068594 -0.73282576 0.33005863 0.01913085 0.1774311 -0.046762373 -0.17710859 -0.83425933
šw -0.07456705 0.26236218 0.62335145 0.06379501 -0.054044038 -0.023854304 0.20218743 0.5256114 -0.44128546 0.13681084 0.32842547 -0.40225518 0.22849621 -0.6396469 0.39946353 0.1506621 0.84402466 -0.03615542 -0.41533092 -0.8827219
bd -0.2542123 0.21054602 0.3154695 0.07069642 0.01811369 -0.010371601 -0.14997533 0.27688223 -0.18604316 -0.0023151566 0.30520895 -0.36142758 0.013935518 -0.13123284 0.049965218 0.01227737 0.3986667 0.02741611 -0.15061986 -0.09046007
wsjr -0.15699688 0.2252153 0.46259978 -0.03883198 0.1456199 -0.024161141 0.20187372 0.39477077 -0.29224515 0.08059269 0.34304264 -0.31534055 0.1924479 -0.43724558 0.28624392 0.053488933 0.5017807 0.06917518 -0.18475029 -0.7130217
hꜣy -0.1597448 0.3512457 0.4219142 -0.08533264 0.19071764 -0.09557283 0.1992448 0.36227646 -0.20441994 0.11142431 0.31039953 -0.20060171 0.053779062 -0.48177138 0.28208423 0.024347037 0.3440467 0.00789656 -0.17453077 -0.52446353
sḫty -0.10255625 0.21280935 0.47652456 0.28679496 -0.23316714 0.07330399 -0.025029792 0.4058767 -0.3336384 0.075553186 0.41136748 -0.38207877 0.118300565 -0.19463354 0.1905316 0.17360967 0.7318826 -0.060692847 -0.3766293 -0.19096622
prj -0.2423546 0.38001704 0.38079503 -0.11298262 0.21471149 -0.12956207 0.08886871 0.29052714 -0.19337572 0.10473739 0.28498104 -0.32008326 0.1278682 -0.44557688 0.2651503 -0.011771508 0.37325054 0.027689923 -0.1085497 -0.5537454
hꜣj -0.25107947 0.38380966 0.39806032 -0.051831722 0.11848544 -0.07227423 -0.055961728 0.36471766 -0.15136652 0.024730923 0.4252424 -0.33220062 0.0002073211 -0.22301708 0.16359058 -0.07928416 0.47657228 0.069865964 -0.092362255 -0.41191447
nḥsy -0.105727874 0.29623103 0.39992562 0.03836245 -0.067047425 -0.056532133 0.057594206 0.39536512 -0.2616828 0.048816524 0.38469917 -0.28064474 0.19603299 -0.35822466 0.28802705 0.07290256 0.51849484 0.00021674455 -0.33912286 -0.4452112
hꜣw -0.19062108 0.35780817 0.48652798 -0.14528495 0.06875514 -0.08425172 0.13484155 0.3599664 -0.17461923 0.03338276 0.31119066 -0.29215348 0.01844877 -0.37895206 0.32302314 0.076642275 0.47313756 0.020979697 -0.224175 -0.5460829
ḥsmn -0.4129543 0.56561625 0.6399795 0.08721844 -0.21015723 -0.059408523 -0.066038 0.5552845 -0.29079184 0.026620481 0.707481 -0.737033 -0.025974771 -0.34954166 0.22413464 0.12543179 0.9613167 -0.07778227 -0.43054527 -0.39224574
rs -0.18844528 0.38456616 0.6694941 0.12376582 -0.17096311 0.0032406852 0.11141136 0.58061695 -0.38124573 0.1332629 0.54737186 -0.5792167 0.28898928 -0.44499362 0.27660814 0.17125708 0.9058553 -0.035954367 -0.39737073 -0.60625774
twn -0.17318782 0.3146058 0.5255198 -0.13168144 0.18523218 -0.037946895 0.30926853 0.32860398 -0.26197436 0.040148154 0.2729322 -0.25222006 0.1358727 -0.5430782 0.3252762 0.041651867 0.57867914 0.057600014 -0.24513099 -0.7961297
jwnw -0.03048681 0.21348731 0.46588236 0.085462235 -0.09671043 0.0035583333 0.15430322 0.39527282 -0.30472833 0.063019164 0.25167266 -0.3357522 0.14455585 -0.4670783 0.3126887 0.11624511 0.58493626 -0.090575494 -0.37884971 -0.6402278
bjn -0.27257842 0.46779683 0.58995986 -0.17139444 0.24148306 -0.095092334 0.15687852 0.42462862 -0.26202488 0.048652433 0.4258194 -0.42010173 0.061264046 -0.5409115 0.3621129 -0.02903116 0.5116197 0.031499106 -0.18236153 -0.70323867
jnḥ -0.30271044 0.3246994 0.3539398 0.2544699 -0.28630945 0.005738867 -0.22302021 0.34361625 -0.20656076 -0.09470964 0.5876709 -0.5237506 -0.009153583 -0.013954297 0.06087624 0.041536573 0.87798417 -0.1335716 -0.3259868 -0.042061698
nḫw -0.1296789 0.24793446 0.3361816 0.2661027 -0.21503226 -0.031266853 -0.16165248 0.36125243 -0.2928839 -0.011903759 0.4624706 -0.4239522 0.053041026 -0.19071528 0.17367288 0.06124513 0.8230352 -0.18981425 -0.3739239 -0.13788076
ꜣbw -0.22062086 0.29293337 0.50040734 -0.02577035 0.058314253 -0.059029225 0.07912805 0.34778908 -0.20551814 0.06521929 0.37281996 -0.34755024 0.049879286 -0.32679498 0.21506533 0.03151888 0.56092423 0.012728228 -0.22373238 -0.47526762
nꜥꜥ -0.5094012 0.649003 0.6687573 0.13359518 -0.38746002 -0.0082778875 -0.17335758 0.5749688 -0.36319157 -0.024291433 0.8062909 -0.88639885 -0.025656601 -0.19775125 0.13921462 0.1437962 1.0845162 -0.10044621 -0.5713736 -0.23966917
kꜣmn -0.09438057 0.26434514 0.31355765 0.07122415 -0.0005624454 0.024855755 0.07380827 0.3088815 -0.19199459 0.121755525 0.31983256 -0.25453004 0.12987454 -0.27808696 0.22433618 0.09950492 0.411367 -0.029600814 -0.19742171 -0.39389944
kꜣry -0.10025192 0.23437206 0.469505 0.13162938 -0.18666245 -0.03520526 0.07966741 0.38665426 -0.3332401 0.08620114 0.41839713 -0.3841901 0.18147236 -0.3942055 0.30519187 0.15025274 0.68057644 -0.022547247 -0.36813498 -0.3630007
wḏ -0.13143511 0.26668093 0.41846764 -0.09385933 0.14046513 -0.08543803 0.18747884 0.21140008 -0.11468577 0.084508315 0.21768153 -0.16782911 0.06918532 -0.39206463 0.21492368 0.05239288 0.3324275 0.07449389 -0.1739947 -0.58139116
wbꜣ 0.0809636 0.067170024 0.30875906 0.029183744 -0.104734175 0.032469265 0.09385379 0.21805467 -0.19780172 -0.03994951 0.17452234 -0.22573185 0.14039487 -0.31003106 0.15881112 0.110164195 0.41320944 -0.05551347 -0.233615 -0.35549808
šnw -0.025657134 0.17539896 0.56227744 0.09166768 -0.11242971 0.074984185 0.23428671 0.28361297 -0.33508945 0.031671345 0.23183782 -0.26502207 0.13517307 -0.35320005 0.25238025 0.24627158 0.61784697 -0.03411982 -0.39688537 -0.43282053
mntf -0.21602574 0.3706931 0.49247596 -0.12821345 0.10440315 -0.09039471 0.13533457 0.38236672 -0.24012046 0.08353526 0.4159286 -0.35080183 0.084342845 -0.5492254 0.3702756 -0.04942968 0.57934517 0.053970907 -0.2814483 -0.71351063
ḏꜣḏꜣ -0.11904922 0.20751937 0.4772378 -0.030014351 0.06512921 -0.052777674 0.078043774 0.3649661 -0.19944787 0.0905427 0.30682713 -0.3208325 0.099318735 -0.4076577 0.23897702 0.09514529 0.5102907 -0.04069818 -0.2835729 -0.47754556
ꜥrḳ -0.27379903 0.40888894 0.43423587 0.04005059 -0.032649085 -0.039099574 -0.07012108 0.34278452 -0.20496586 0.031094566 0.36678305 -0.4385935 0.037503537 -0.28193972 0.13439018 0.030029485 0.58121175 -0.032702472 -0.29185668 -0.3053468
ꜥḳw -0.3109699 0.3981304 0.3869914 -0.08658145 0.119603954 -0.14496882 0.018737737 0.27936196 -0.12760408 0.0620325 0.32037187 -0.35629398 -0.023292052 -0.26224726 0.21990214 -0.07644272 0.44603652 -0.00092912465 -0.14778273 -0.41952482
nt -0.20442925 0.2824565 0.6518103 -0.022921488 -0.023498204 -0.052928545 0.18928105 0.39890864 -0.32159573 0.10078807 0.38951185 -0.4446006 0.16689016 -0.54064226 0.3762058 0.16190618 0.82218415 -0.012680686 -0.43278918 -0.7771687
kš -0.085082434 0.2168065 0.37768668 -0.069698304 0.045750238 -0.06212366 0.13912542 0.37418208 -0.2755248 0.14534423 0.2567296 -0.23556127 0.0806966 -0.4746855 0.28236005 0.014456234 0.38260844 0.04669051 -0.2634872 -0.61165214
nkt -0.29751083 0.38681138 0.4919997 -0.18381149 0.1993496 -0.16841133 0.14796677 0.4137923 -0.20368709 0.05079404 0.30375513 -0.30923557 0.14343885 -0.49521255 0.29523745 -0.06983714 0.44843408 0.07830121 -0.20329869 -0.70891804
dwꜣw -0.14562993 0.27067915 0.43168592 -0.15486604 0.1282698 -0.06176434 0.12732339 0.3928454 -0.22994459 0.015485713 0.26932225 -0.3349226 0.06774974 -0.4406883 0.32775563 0.018807884 0.49935466 -0.0031709913 -0.2168441 -0.66593647
jnn -0.33126247 0.40185776 0.4429768 -0.23159464 0.1704021 -0.18490863 0.12510926 0.3118662 -0.2174541 0.050276015 0.28254333 -0.29111966 0.0013568463 -0.4385978 0.32444146 -0.04849432 0.38764355 0.12507261 -0.20979357 -0.55683315
ꜥḥwty 0.052418686 0.08603738 0.48032892 0.16456832 -0.21656199 0.09896319 0.06372527 0.3669934 -0.31991473 0.111366525 0.38534224 -0.37764117 0.2920121 -0.32310003 0.24850205 0.20488182 0.67574334 -0.08019942 -0.40812412 -0.3300945
pnꜥ -0.039683405 0.12987106 0.329598 -0.05968054 0.05068819 0.0039069485 0.1578509 0.29412767 -0.16023076 0.021670405 0.17296004 -0.24549632 0.23562214 -0.3971733 0.21453758 0.019100495 0.41304222 0.023461455 -0.27126417 -0.4843275
ꜥnḳ -0.258221 0.284521 0.3985071 0.17345032 -0.19203424 -0.020693623 -0.24204706 0.33378267 -0.22413684 0.027146954 0.46507284 -0.49815443 0.01644754 -0.053460818 0.1382197 0.026816998 0.699536 -0.03850166 -0.27067637 -0.081681445
sm 0.025791189 0.03726516 0.37424338 0.21761124 -0.21682139 0.026096348 0.08828642 0.28446567 -0.25420403 0.017176528 0.23476262 -0.3481809 0.19531672 -0.23298444 0.19283445 0.14787608 0.69793713 -0.013660741 -0.30406028 -0.39058554
šn -0.3174813 0.4738641 0.5342973 -0.14132614 0.05150023 -0.096023425 0.0064041056 0.40068376 -0.22294742 0.04953644 0.37328774 -0.39385664 0.10024872 -0.5049596 0.34152952 0.035807345 0.66005707 0.0027304525 -0.24872653 -0.63449585
wḏj -0.23223378 0.34280458 0.44683084 -0.11755216 0.11309914 -0.113953754 0.117203936 0.35503435 -0.22146584 0.12097864 0.28976378 -0.322405 0.07460495 -0.49352416 0.28718027 -0.034318756 0.47401688 0.104553275 -0.25873062 -0.5864089
ṯꜣy -0.16965422 0.23490055 0.40702102 0.063268475 -0.044101156 -0.07974194 0.070503704 0.40734938 -0.22239573 0.04463384 0.29856673 -0.35422543 0.12761196 -0.36204082 0.2509521 0.040060833 0.5248273 -0.003881863 -0.28805736 -0.42588195
sḫꜣw -0.16081244 0.28726536 0.35454908 0.073105626 -0.09967378 -0.06743524 0.04138787 0.3035429 -0.16583712 -0.00255435 0.40594336 -0.33534306 0.08754248 -0.17681122 0.2035267 0.10558197 0.57239753 -0.01507408 -0.29116312 -0.30628425
600 -0.31901935 0.33950105 0.3423402 0.32931507 -0.37809825 -0.02847301 -0.2530389 0.4115637 -0.2615651 -0.028235905 0.5792862 -0.6223703 -0.002585493 -0.061319754 0.08108393 0.022911347 0.8452658 -0.17428806 -0.4133304 -0.14346959
šꜣw -0.12071244 0.23720583 0.37026054 -0.17699593 0.16592571 -0.069783635 0.14196426 0.24932432 -0.17843094 0.1100152 0.110117406 -0.12230351 0.06916931 -0.37248725 0.2709623 -0.029852234 0.21047507 0.089875385 -0.16190481 -0.55503345
ꜥḳꜣ -0.13543281 0.24009126 0.37855488 -0.12595579 0.1833238 -0.09540134 0.16744347 0.22642985 -0.1462745 0.114177935 0.26289004 -0.22375536 0.043957405 -0.4365207 0.23924208 0.03297067 0.24735774 0.08737246 -0.18387203 -0.46497175
rj -0.18425818 0.2910008 0.24485534 -0.19993539 0.17854625 -0.08553381 -0.008063665 0.20311452 -0.043978613 0.03835986 0.26135 -0.20901005 0.013197195 -0.22730896 0.17649364 -0.06262723 0.14700875 0.04989932 -0.056526635 -0.2676583
msw -0.31248394 0.44445395 0.43983296 0.08270158 -0.13764809 -0.11525281 -0.20143726 0.37841326 -0.18643174 -0.04447809 0.58993554 -0.580265 -0.02149298 -0.07501122 0.08274766 0.03720139 0.7076958 -0.054881558 -0.35840985 -0.17709976
šnꜥ -0.2583724 0.36961272 0.46994486 0.099535786 -0.15332663 0.0103370035 0.01014975 0.37701228 -0.29724005 0.077352785 0.48293677 -0.48803824 0.10284408 -0.36858723 0.27145785 0.111025535 0.6544696 -0.059397206 -0.3162355 -0.4101171
šmꜥ -0.35774407 0.4315653 0.35536715 0.07685324 -0.10355913 -0.037535787 -0.12207275 0.3170765 -0.16033998 -0.0933222 0.5577312 -0.61449456 -0.028483225 -0.04497489 0.07308587 0.050468076 0.69991 -0.06938701 -0.26728275 -0.14942877
wdḥ -0.14672513 0.25800747 0.35572952 0.024794383 0.021365818 -0.031283244 0.12948674 0.2798881 -0.20047766 0.05645685 0.32152525 -0.30939478 0.0968327 -0.28174183 0.151921 0.09813769 0.4370949 -0.059667826 -0.24240965 -0.37098932
rš -0.33818555 0.32067102 0.07255267 0.11875461 -0.15216826 -0.08951927 -0.29613706 0.25381386 -0.12677169 0.026690653 0.4528767 -0.32683215 -0.1309269 0.112171166 0.06341115 -0.22021537 0.49159428 -0.096310906 -0.18932731 0.09377853
šbn -0.41981658 0.52129686 0.5535674 0.21407938 -0.30594414 -0.049711317 -0.15129651 0.45132667 -0.2805533 0.02299058 0.63967025 -0.77604544 0.031848982 -0.21268232 0.15621863 0.145476 0.9541953 -0.13166372 -0.42757663 -0.28086752
wꜥw -0.174106 0.35023242 0.48563573 -0.10390008 -0.022006348 -0.05385428 0.21420294 0.2816627 -0.16711022 0.012598623 0.32343635 -0.27524605 0.13776566 -0.3306091 0.24029952 0.09442737 0.40860698 -0.027636502 -0.20873508 -0.46866181
70 -0.31305546 0.3351632 0.40046164 0.19727008 -0.32476786 -0.054104082 -0.31634992 0.41937137 -0.26634094 -0.073361196 0.61362606 -0.61827344 -0.00962168 -0.04974204 0.055072404 0.03073804 0.8359469 -0.14538267 -0.38966554 -0.096612036
jhw -0.18814215 0.4105727 0.41090626 -0.06965147 0.14310412 -0.12570801 0.085315764 0.3587209 -0.224848 0.055328842 0.38886857 -0.32927257 0.025642755 -0.41546476 0.31685674 0.017784625 0.4074811 0.0070345136 -0.1583062 -0.50541514
dꜣjw -0.32217574 0.3379498 0.40284213 0.10296843 -0.12334641 -0.08765933 -0.040848657 0.3583553 -0.23320565 -0.020909518 0.5169776 -0.49723879 0.03694519 -0.24584569 0.1477876 0.036384743 0.6655543 -0.051894505 -0.2780228 -0.26387334
jꜣd -0.14393955 0.29305258 0.39906618 -0.068807945 0.13992652 -0.040484786 0.021660887 0.3173521 -0.21029638 0.03779176 0.19999045 -0.32356423 0.074659094 -0.32993093 0.23886469 -0.01999991 0.36680332 0.062441587 -0.13114072 -0.41731498
ḳnd -0.063518755 0.14215775 0.40737635 -0.07636971 0.1029546 -0.031169457 0.19594799 0.26726016 -0.21275231 0.09026041 0.23190874 -0.19683053 0.12925686 -0.3385452 0.259436 0.01995678 0.4419403 -0.031962037 -0.17978376 -0.5367365
šmm -0.20685436 0.2986613 0.32038283 0.18557224 -0.29147092 -0.017122697 -0.13810387 0.40354878 -0.2788263 -0.017791633 0.40770787 -0.5182495 0.07113673 -0.16112807 0.19611894 0.041251715 0.6488926 -0.112437785 -0.29153895 -0.2320496
snjw -0.32281125 0.3137172 0.2449434 0.04177519 -0.24506766 -0.07702385 -0.1685074 0.20085163 -0.16282098 0.012225407 0.41437832 -0.4872136 -0.103192635 -0.02148274 -0.08398192 0.048344497 0.43153572 0.03002647 -0.1630679 0.045387574
nwn -0.17101027 0.21779953 0.2967179 0.2637949 -0.33364528 -0.02254355 -0.18404 0.28693902 -0.25760326 -0.00610418 0.50898004 -0.49771336 -0.0037472397 -0.0010312289 0.12192922 0.02748338 0.76524943 -0.17647399 -0.385325 -0.046478692
700 -0.20854336 0.25653222 0.37866765 0.28988948 -0.31385845 -0.026640717 -0.13086322 0.4747889 -0.3067984 0.00025774265 0.4891089 -0.52968013 0.104973 -0.213117 0.25390348 0.04276343 0.7978113 -0.13308665 -0.37705356 -0.30824062
sgnn -0.1450489 0.28326738 0.3447618 0.092324294 -0.08406977 0.009338882 -0.04054353 0.25718084 -0.1590586 0.030736247 0.3071391 -0.35230786 0.016118266 -0.18488963 0.17971045 0.031062463 0.55222595 -0.04047995 -0.20260818 -0.25490928
ṯnw -0.25762242 0.3162381 0.34639442 0.0011941271 0.032065377 -0.044996716 0.015600533 0.38039982 -0.1872365 0.10588975 0.31371656 -0.32082504 0.070730165 -0.33250168 0.20136243 -0.017672783 0.48119077 0.064953886 -0.2110756 -0.43215483
ꜣḫty 0.18934436 -0.12381816 0.22486727 0.0069054174 -0.057417918 0.044481717 0.2120759 0.15052691 -0.21646242 0.06003358 -0.024923334 -0.026965281 0.23430845 -0.26817238 0.18065941 0.14188135 0.3994206 -0.017315514 -0.21849468 -0.45944834
jwnꜣ -0.19857898 0.3850218 0.38293165 -0.1910688 0.21200852 -0.0820913 0.097830914 0.26190487 -0.14792216 0.091683686 0.25016612 -0.20491622 0.029469376 -0.39699143 0.2787915 0.0004031687 0.27371094 0.1001619 -0.13056457 -0.5794702
ꜣḥ -0.2466013 0.34914967 0.54626495 -0.04278969 0.08739822 -0.036393765 0.12155159 0.34989238 -0.28044453 0.005122807 0.34747458 -0.40737116 0.108110614 -0.34423277 0.24571344 0.039926853 0.528013 0.047235776 -0.22739328 -0.4481629
rḫty -0.006236974 0.13074256 0.448694 0.25282392 -0.2247375 -0.003921296 0.10402819 0.36222973 -0.32399425 0.037443075 0.37565157 -0.38451073 0.14375077 -0.3270381 0.26389447 0.23874742 0.8000957 -0.05938037 -0.4048029 -0.36462453
90 -0.282824 0.32302448 0.3569608 0.2688802 -0.2339334 -0.057562735 -0.24495678 0.43142664 -0.2047651 -0.066864505 0.5256551 -0.5232521 0.0030324042 -0.05882114 0.068800956 -0.0035080076 0.722277 -0.17439868 -0.40058145 -0.12962794
smn -0.17598288 0.3019712 0.46324986 -0.07115182 0.016631471 -0.09338485 0.17172632 0.3802534 -0.25323686 0.09695891 0.28205457 -0.24516337 0.11727434 -0.46272826 0.2893493 0.04402241 0.53439164 -0.040572513 -0.23439877 -0.5509902
ḳn -0.20645732 0.33048403 0.36026123 -0.05767193 0.012635362 -0.12243027 0.010683829 0.35342905 -0.16240887 0.065387815 0.31349006 -0.30318084 -0.0032610681 -0.22614662 0.17420724 -0.026051642 0.44501337 0.016905392 -0.20069651 -0.36161506
rwhꜣ -0.26514345 0.36842477 0.36618376 -0.14561474 0.12191675 -0.09485993 0.073302284 0.2947699 -0.12218893 0.09601266 0.27847546 -0.3169061 0.007194391 -0.3155198 0.18456864 -0.097794056 0.34776992 0.039806824 -0.18161492 -0.44553778
ꜥw -0.15346141 0.4047476 0.4504916 -0.20301843 0.16328964 -0.11176549 0.1787331 0.26037467 -0.24814126 0.03353186 0.28960824 -0.24593598 0.03999133 -0.5177914 0.2742457 0.023355883 0.35323325 0.059870664 -0.13059278 -0.65871525
šnb 0.02748762 0.09365033 0.2728088 0.109298855 -0.14890994 -0.026156703 0.057836957 0.19713952 -0.1377724 0.040587746 0.25188902 -0.16024779 0.15924318 -0.22208485 0.16047351 0.15336472 0.3239493 -0.028770633 -0.29385102 -0.18779153
tr -0.18982892 0.31542656 0.35966164 -0.062848255 -0.051292546 -0.078916624 -0.02284714 0.29674107 -0.12534499 0.011848656 0.35929325 -0.29578054 -0.00841556 -0.25527555 0.19239663 0.042520437 0.4386458 0.046013523 -0.23238726 -0.3484739
thj -0.227405 0.2899374 0.2777109 -0.14076942 0.054832023 -0.0764023 0.10171784 0.22029342 -0.11468391 0.023424989 0.27562162 -0.19844754 -0.011854669 -0.32555312 0.15881717 -0.012947054 0.29893282 0.08463027 -0.101607054 -0.3056685
ꜣṯp -0.18523633 0.32813725 0.4267644 -0.12244303 0.17319581 -0.13851538 0.087248325 0.28626886 -0.21870145 0.11370984 0.24179342 -0.30468014 0.069928646 -0.3639809 0.30310968 -0.06633186 0.39959952 0.036363266 -0.18915932 -0.5616904
ḳbw -0.3469244 0.33911213 0.35832787 0.09911735 -0.14049454 -0.061532777 -0.10064811 0.34441137 -0.20609267 -0.005689101 0.45075026 -0.44780427 -0.041784093 -0.16818127 0.10652456 -0.056553047 0.62437296 -0.08570704 -0.2561293 -0.12432975
snj -0.05399153 0.03164966 0.3491542 -0.11678179 0.11834197 -0.05433903 0.16648261 0.1364866 -0.1408711 0.012463755 0.07268306 -0.15082309 0.11052411 -0.2980785 0.20086671 0.051261216 0.3599224 -0.027495667 -0.1066996 -0.4788845
pḥty -0.05869147 0.17517123 0.43743816 -0.0037786302 -0.02342903 0.0101977 0.2076806 0.28977704 -0.27683854 0.1207213 0.25046864 -0.28445923 0.16595896 -0.4767851 0.24126256 0.13677296 0.49300864 0.025356133 -0.20388585 -0.5773138
jdnw -0.10258592 0.13344692 0.45957005 0.055263307 -0.05949044 0.009236362 0.06672573 0.29953447 -0.20368648 0.025921078 0.3007968 -0.31081578 0.16347383 -0.33585575 0.19951995 0.06753521 0.54988635 -0.033577174 -0.3083213 -0.3928907
ḫnr -0.055664707 0.2639239 0.50319 0.04550329 -0.010041245 -0.027394138 0.14048915 0.3566914 -0.3025436 0.05784173 0.29362324 -0.28926632 0.18873072 -0.40889028 0.28150904 0.09219446 0.50523925 0.010010779 -0.28939098 -0.5183073
nby -0.076253235 0.20157972 0.32694227 0.06562482 -0.10410809 0.015055824 0.09926168 0.3446346 -0.2113522 0.007569398 0.326029 -0.25509435 0.16494225 -0.24871558 0.21303692 0.13494848 0.50343883 -0.071891695 -0.28551507 -0.34958243
pꜣw 0.048591476 0.17280233 0.5487675 0.11879209 -0.20145154 0.0006605389 0.11820166 0.45513663 -0.3661235 0.0020126577 0.2997843 -0.38859066 0.26499385 -0.41367748 0.33005115 0.22362997 0.7228421 0.0019628739 -0.41066942 -0.5891951
mḥty -0.11612551 0.2874401 0.38435405 -0.03557511 0.052457035 0.0023089785 0.09996226 0.25991085 -0.19387417 0.023553738 0.2533281 -0.3081594 0.081960775 -0.36308837 0.23342542 0.014512944 0.45706064 -0.0049519646 -0.21256287 -0.3901757
ḫnty -0.014372084 0.1703087 0.34767127 0.1877233 -0.13525644 -0.019231625 0.042235106 0.3028951 -0.23647536 -0.006706103 0.37031186 -0.3101275 0.09250209 -0.23298456 0.21054746 0.07301334 0.5876949 -0.10208867 -0.2845813 -0.34401438
ḫy -0.007303042 0.1072727 0.37271112 -0.019395392 -0.021677412 -0.023142096 0.15181819 0.2446712 -0.15441561 0.07327911 0.19985867 -0.23000799 0.13948756 -0.34244734 0.19033282 0.09106733 0.38852724 -0.023730915 -0.17352538 -0.36520478
wjꜣ 0.08874023 -0.003916765 0.24556454 0.12962307 -0.1620193 0.036519304 0.057198122 0.17002293 -0.15986282 0.024944013 0.17638066 -0.12578823 0.1850648 -0.2231188 0.19246878 0.10589214 0.44753033 -0.08943229 -0.17322645 -0.30425423
ḫꜥw 0.05436969 -0.016037691 0.23587966 0.07646156 -0.022488017 0.02550331 0.16554092 0.15415092 -0.13404855 -0.013279082 0.08522611 -0.17203304 0.09561724 -0.24669175 0.18130258 0.09470465 0.43545672 -0.110386066 -0.20139107 -0.28357545
bꜣ -0.062099215 0.1082792 0.340502 0.0155777875 0.03772926 -0.056414887 0.10167973 0.20939858 -0.18500756 0.07922544 0.2166286 -0.27260542 0.060327586 -0.26781356 0.18361436 0.0042910906 0.4913437 -0.0616634 -0.22057185 -0.44670966
jwd -0.22371748 0.33311698 0.34774143 -0.00484532 0.11677375 -0.11555279 0.099832 0.29927334 -0.16028239 0.06831953 0.31499314 -0.3184867 0.07152153 -0.31319413 0.23324463 -0.020000523 0.38882518 -0.0048059477 -0.19461162 -0.50953305
3/4 -0.2185025 0.23435333 0.3321623 0.114249416 -0.1854574 0.016936328 -0.12680171 0.31769168 -0.20965724 -0.0067191147 0.37741843 -0.46221116 0.0067628613 -0.100039616 0.13229679 0.08213425 0.6247354 -0.10947257 -0.2802768 -0.17665389
jtm -0.0072503733 0.102791965 0.37652668 -0.024911735 0.00953485 0.0028920665 0.17851248 0.23483248 -0.27125123 0.100422844 0.23088984 -0.22782196 0.118262894 -0.39571086 0.20415439 0.071455166 0.48279867 -0.03728084 -0.19232418 -0.5597059
mꜣꜣ -0.25654694 0.29858539 0.47960183 0.07537174 -0.028307674 -0.060739677 -0.022625161 0.3780029 -0.21595451 0.043773342 0.3864811 -0.44692892 0.10968062 -0.28804433 0.17358069 0.042733897 0.652587 -0.00022610556 -0.29022786 -0.48011726
jwtn -0.16763785 0.34232876 0.4702591 -0.02570149 0.090286195 -0.08387432 0.037450895 0.45322877 -0.2550079 0.062452298 0.43207315 -0.34187374 0.15404023 -0.4877927 0.26889756 0.018233117 0.5937062 0.0032782832 -0.30079907 -0.58152956
jpp 0.2152461 -0.11184746 0.34199035 0.025895007 0.03501868 0.059499852 0.3629013 0.07580235 -0.17678942 0.06806393 0.012213682 -0.06606301 0.13664599 -0.3392722 0.18479112 0.18502662 0.32493865 -0.042307254 -0.2197906 -0.4533778
