1746 50
t -0.26321965 0.111843884 0.02984838 0.25327617 -0.0037933176 -0.4641878 0.9120425 0.8441272 -0.55708987 -0.47515672 -0.060121577 -0.4447587 -0.18813637 0.3411983 -0.74310064 0.020037482 0.29559427 0.3123251 -0.84405947 -0.37562743 0.59031326 0.28847462 0.948456 -0.15203804 0.17766385 -0.03459437 -0.22109549 0.117279716 -0.77701676 -0.30527925 0.017341787 0.049706284 0.012511312 -0.14533082 -0.36684504 0.13692091 0.3360514 0.25933126 -0.2728459 -0.13045552 0.24900125 -0.22346675 -0.13404019 0.09631088 0.78361106 0.2900133 -0.26613152 -0.044292763 0.6239209 0.061063737
n 0.38412315 0.348589 -0.47652122 0.24720871 -0.014316127 -0.65802276 0.96036994 0.6711506 -0.5237503 -0.4932227 -0.27746165 -0.49874642 -0.01400598 0.031500157 -0.1605739 0.02275426 -0.020405354 0.51032233 -0.54436785 -0.5500065 -0.07653293 0.2830553 0.19812863 0.3247415 1.049765 -0.18263073 -0.50214887 0.3337854 -0.77141345 -0.36310107 -0.3235813 0.04433161 0.54534304 0.32105455 -0.41878173 0.38526943 0.52497053 -0.36582676 0.30505532 -0.21212184 -0.057777576 0.11690638 -0.15809737 -0.06596844 1.1481338 0.15994428 -0.1645475 -0.052096013 0.2375205 0.0341329
m 0.32443404 0.26639244 -0.15995805 0.10816251 0.09532309 -0.7126548 0.7339514 0.7640137 -0.5170995 -0.5406579 -0.16704734 -0.79713064 0.08510023 0.2268659 -0.38347164 0.06657594 0.39311397 0.43430397 -0.9177813 -0.31301162 0.009538962 0.18076687 0.71612275 0.012395755 0.26487812 0.037798 -0.6180479 0.18995188 -0.83226687 -0.072437875 -0.1637052 -0.20990936 0.25062686 -0.030613152 -0.42573312 0.31971833 0.57315093 -0.17933063 -0.0057235765 0.07865271 0.28053266 -0.15711765 -0.10160711 0.24627212 1.0028851 0.5305474 -0.06317068 -0.03698163 0.15072417 -0.022197885
w 0.8007157 0.43940267 -0.38303602 -0.05971315 -0.18190429 -0.6822737 0.91100174 0.8929808 -0.28473273 -0.5246934 -0.6199306 -0.7429018 0.09961551 0.10286853 -0.35504976 -0.10183995 0.43619686 0.36971542 -0.448777 -0.5365069 -0.2481478 0.24140996 0.6203826 0.7090694 0.94709337 0.045774855 -0.73581517 0.14378412 -1.0034916 -0.05918269 -0.5211106 0.05523403 0.7837569 0.34242588 -0.5862142 0.48553988 0.65040267 -1.031018 -0.1945613 0.015126403 0.018755235 0.12645476 0.09086657 -0.162943 1.1255816 0.5776924 -0.07240059 0.2667018 -0.03381926 -0.012452089
f 0.6636703 0.90439886 -0.4422059 -0.39149365 0.01674492 -1.1476333 0.73521906 1.0999249 -0.29846522 -1.1846486 0.12975425 -0.77683693 0.3611991 0.09282421 -0.49079543 -0.6966448 0.56162703 0.26594976 -1.3044138 -0.42597112 -0.15704532 -0.005787177 0.71199614 0.09933427 -0.119926415 0.15218829 -0.3750289 0.68367213 -1.6758602 -0.24983294 -0.42333475 -0.47197422 0.48522562 -0.14426108 -0.51271296 0.6067837 0.5918313 -0.3951967 -1.0498096 0.20368312 0.14908437 -0.22498411 -0.050815877 0.3808249 1.56581 0.58919305 0.092804484 0.3820947 -0.13460684 -0.16871746
j 0.77409863 1.0534014 -0.5422906 -0.6429658 -0.08475876 -1.3987719 0.7050991 1.2674744 -0.25061122 -1.495089 0.14794908 -0.9167556 0.34017393 -0.043421417 -0.7813466 -0.7278058 0.75186175 0.18311234 -1.6674215 -0.1672946 -0.2627601 0.040312156 0.9782869 0.19155957 -0.23098284 0.26608443 -0.5655659 0.72193915 -2.198408 -0.260836 -0.5356924 -0.56678975 0.62773556 -0.13269769 -0.6062285 0.6266709 0.4618295 -0.5306452 -1.1752912 0.39167082 0.17333224 -0.3732692 -0.07650927 0.32974085 1.6774844 0.6497843 0.11982332 0.74075824 -0.19779441 -0.17279238
ḥr 0.2890737 0.90396726 -0.22370857 -0.25665423 0.11297097 -1.0952942 0.76911473 1.0469812 -0.2210654 -1.1610514 0.1240384 -0.5590523 0.24145937 0.2031574 -0.43531972 -0.44366848 0.54513913 0.08876937 -1.0140417 -0.41305462 0.17686856 0.12986307 0.9375418 0.25825062 0.15582636 0.2391625 -0.285567 0.70456105 -1.3025131 -0.2458436 -0.2743082 -0.29387358 0.33884606 -0.15519115 -0.47172576 0.55536294 0.7212537 -0.34280595 -1.1365505 0.32389864 0.41957766 -0.16670237 0.08459714 0.18519324 1.5149742 0.62673193 -0.10540674 0.10806697 0.08898026 -0.11928073
pꜣ 0.41055354 0.2482121 -0.5484985 0.31188673 -0.11907892 -0.6154252 0.9527662 0.82189727 -0.62912285 -0.54585916 -0.1604496 -0.3928836 -0.013578804 0.06014014 -0.14221427 0.005290355 -0.16467339 0.5326613 -0.6698659 -0.6934294 -0.08595932 0.29212755 0.11712462 0.41611755 1.0919131 -0.2542645 -0.540897 0.4697401 -0.809723 -0.3635789 -0.34044483 -0.0026733594 0.45795247 0.37613353 -0.3339975 0.36361194 0.5554984 -0.20553422 0.28521252 -0.389988 -0.09308973 0.043974746 -0.31440106 0.02507087 1.0693297 0.048390016 0.0058228415 -0.10510981 0.2253579 -0.020574449
jw 0.32175255 0.9478758 -0.31025192 -0.5325196 0.09826608 -1.0208883 0.60661936 1.1417747 -0.19819179 -1.1167042 0.16313653 -0.57830596 0.11580064 0.15313049 -0.84593713 -0.58468026 0.4928124 -0.075236365 -1.1148689 -0.1947143 0.25585243 0.016626736 1.123717 0.05097664 -0.31530112 0.10727714 -0.37032214 0.6198729 -1.6930175 -0.14313313 -0.15968458 -0.30694905 0.37452397 -0.32770306 -0.46689036 0.4140372 0.2796421 -0.14415829 -1.3267585 0.43574554 0.3071053 -0.34820956 -0.02121921 0.31328893 1.3759562 0.45592234 -0.19186148 0.34699067 0.117052935 -0.16278684
r 0.62791264 0.8881185 -0.2554527 -0.29706186 0.0025978251 -1.1621798 0.85418415 0.9638666 -0.15525778 -1.2038028 0.049687847 -0.6023622 0.23315704 0.02270289 -0.5759318 -0.46009424 0.6077126 0.23767506 -1.2892746 -0.39892212 -0.078526236 0.12387535 0.8049637 0.2860102 0.25269344 0.31938884 -0.39459443 0.62817454 -1.4975778 -0.33300114 -0.5245633 -0.28148463 0.5289302 -0.12192205 -0.43353173 0.5561928 0.62830245 -0.42945388 -0.90860665 0.2456496 0.35639673 -0.30771056 0.0037773321 0.2969638 1.4941818 0.57970923 0.10527217 0.39109224 -0.058624443 -0.066608734
k 1.2800134 1.2601833 -0.62371075 -0.49544868 -0.121634625 -1.691104 1.2970072 1.4131618 -0.12153858 -1.736072 -0.08783016 -1.0063287 0.48979607 -0.105786815 -0.5568148 -0.89175373 0.7671637 0.27699932 -1.710885 -0.4314915 -0.6246062 -0.048303157 0.8802622 0.5423546 0.360637 0.4571838 -0.6261424 0.805908 -2.144388 -0.33346987 -0.8919485 -0.5406982 1.019306 -0.026405059 -0.4044991 0.84042007 0.8504202 -0.98467183 -0.9569349 0.41620806 0.19454195 -0.42535323 -0.14075562 0.21106525 1.8900104 0.7360547 0.2864308 1.0573406 -0.42492 -0.16755116
ḏd 1.3841897 1.0062665 -0.60307395 -0.067379154 -0.16991168 -1.4862624 1.2204057 1.0028731 -0.222562 -1.4509649 0.047852594 -0.7925557 0.60267127 -0.05283034 -0.025959168 -0.7020753 0.4248022 0.50954884 -1.224446 -0.85226315 -0.6617046 0.06237945 0.3201936 0.65333223 0.6894384 0.46509376 -0.65833914 0.99654585 -1.492695 -0.4405591 -0.8643357 -0.5552411 0.9750578 0.118933976 -0.25914815 0.7739994 1.0218253 -0.9778049 -0.6637393 0.1781718 0.045393836 -0.018234901 -0.17481977 0.21722977 1.8585047 0.6861488 0.30607402 0.5771375 -0.38511688 -0.2596178
s 0.8814694 0.6162192 -0.4015032 0.23549165 -0.07474475 -0.8405531 1.1671689 0.6956463 -0.26158994 -0.7267082 -0.39042857 -0.6327863 0.3440067 0.2800194 0.05498949 -0.16349208 0.39525548 0.42743066 -0.3456408 -0.94663125 -0.28424177 0.22621772 0.42995572 0.6927998 1.1222495 0.30178043 -0.50202644 0.27749237 -0.52375764 -0.22721365 -0.4738591 -0.026759235 0.71971226 0.32208937 -0.38013107 0.515297 0.89991456 -0.9848897 -0.18890028 -0.038860157 0.08034641 0.13422307 0.26333797 -0.0836726 1.2990172 0.7132835 -0.09232822 0.0731998 -0.13458137 -0.08889362
jmn 0.3197649 -0.47115603 -0.37449613 1.4241775 -0.079873666 -0.32936707 1.7579526 0.33222383 -1.2005355 -0.006579919 -0.7136976 -0.8963888 0.2200946 0.5168187 0.42948896 0.98495144 -0.27582508 1.2818923 -0.20916067 -1.2570697 0.08270494 0.6739333 0.03406573 0.48263595 2.215794 -0.2924989 -0.8489219 0.12559707 0.5149887 -0.31923902 -0.23599048 0.17397189 0.20585461 0.5390839 -0.34893423 0.26880985 1.3755147 -0.29323804 1.6575005 -0.7936208 0.089100495 0.4078626 -0.17075957 -0.10430452 1.2643003 0.3411938 -0.27069083 -1.1404138 0.70251054 0.055899173
tꜣ 0.4360944 0.2812099 -0.29847872 0.5397009 -0.1382103 -0.6209692 1.323228 0.7310276 -0.5509667 -0.75597155 -0.27468684 -0.4292543 0.12769994 0.18755212 -0.10415526 0.14409746 0.070148334 0.66799664 -0.61933964 -0.84732586 0.10213029 0.30205727 0.33840796 0.41004026 1.3026923 0.053872652 -0.53059065 0.39015907 -0.50356585 -0.21545702 -0.4087288 0.04492079 0.3655946 0.19078358 -0.22034574 0.44691196 0.663362 -0.35915664 0.2654686 -0.2820965 0.19155574 0.020833703 -0.15046112 0.052002806 1.1996309 0.3255861 -0.062298015 -0.24188957 0.32077268 -0.065568544
sw -0.8411639 -0.5138199 0.19033746 0.46658674 -0.00069383904 0.12135583 0.8190025 0.7717348 -1.3253555 0.042159513 -0.46643615 -1.1755202 -0.091661565 0.58857715 -1.0273814 0.9778561 0.1212569 0.68695545 -0.87220865 -0.64353657 1.0621734 0.8741081 1.273954 -0.5189332 0.012786962 -0.38886723 -0.73612434 -0.63819534 -0.51252 -0.25576913 0.5800088 0.081620455 -0.6836437 -0.090836994 -0.90921754 -0.15271874 0.3531583 0.9738373 0.45872366 -0.32750973 0.5041073 -0.14155176 -0.07202577 0.32960775 0.9265073 0.16330446 -0.77473265 -0.87396234 1.288887 -0.02368679
pr 0.066488154 -0.15791048 -0.35093147 0.9065079 -0.007241385 -0.13651928 1.293973 0.468638 -1.146499 0.12921266 -0.5967014 -0.7604793 0.023206815 0.31104574 0.056071218 0.6568673 -0.3464284 0.84584373 -0.14502862 -0.93518573 0.088021904 0.644938 0.13073146 0.31432962 1.6150836 -0.4929205 -0.7686706 -0.13349551 -0.0061178952 -0.3840266 0.02391446 0.16473804 0.26082766 0.6200084 -0.5712106 0.20003808 0.762131 -0.06907942 1.1953241 -0.69752735 -0.12557288 0.3433826 -0.11036757 -0.11202209 1.1166745 0.05250521 -0.48838982 -0.6652705 0.797148 0.05494673
pꜣy 0.8723793 0.7978668 -0.5299235 -0.21185414 -0.050635245 -1.1782335 0.97146297 1.0529573 -0.25436035 -1.1081707 -0.0680204 -0.7509129 0.33158576 -0.0020457215 -0.404439 -0.54366827 0.32678357 0.29308024 -1.1170107 -0.37535357 -0.4362054 0.061658267 0.547564 0.4674551 0.41586298 0.07344238 -0.5663701 0.6096878 -1.524581 -0.25806573 -0.55607945 -0.32442987 0.7970927 0.13468818 -0.40417027 0.60379654 0.62656385 -0.69716704 -0.58858377 0.18637377 0.06455869 -0.109336086 -0.16308044 0.15571502 1.5022738 0.46870947 0.10153262 0.526939 -0.08543499 -0.13610357
jr 0.294329 0.46701053 -0.31246337 -0.44558242 -0.036784384 -0.76628065 0.3121674 0.96824604 -0.3395609 -0.84603983 -0.10023687 -0.659894 0.002206511 0.031395465 -0.8004626 -0.25682405 0.3779111 0.027287383 -0.9709646 -0.18084502 0.022723593 0.16234359 0.75952345 0.10513466 -0.12346956 -0.03227327 -0.5705764 0.26207364 -1.5025164 -0.1289522 -0.120962 -0.16920798 0.35330692 0.047286037 -0.6015998 0.29517782 0.10695214 -0.19685197 -0.6407334 0.23037015 0.1824302 -0.1773526 -0.1646278 0.13094214 0.98884714 0.27529666 -0.21654756 0.49201596 0.121162444 -0.12911104
ꜥ 1.09041 0.5550629 -0.48058587 0.7991549 -0.110169016 -0.8948918 1.5725815 0.53119737 -0.4330102 -0.59178525 -0.6167622 -0.64637655 0.52025086 0.2797652 0.30520108 0.099585585 0.15769693 0.7581548 -0.12744795 -1.296729 -0.3849851 0.3818705 -0.0327804 0.8754648 1.9607028 0.284702 -0.6211968 0.3845175 -0.047551002 -0.3617325 -0.6062444 -0.046076614 0.82224166 0.56332815 -0.21290533 0.53082275 1.3345782 -1.082664 0.5286117 -0.20491073 -0.070162274 0.40295818 0.18972763 -0.083315894 1.5746392 0.6345425 -0.12028883 -0.031576138 0.12634733 -0.05490392
nb 1.2042181 0.6010237 -0.36347386 0.34302258 -0.20841366 -1.1836551 1.5682132 0.7482533 -0.2807258 -1.025886 -0.4197035 -0.78793895 0.5987272 0.13150331 0.22405022 -0.15823789 0.41318372 0.693822 -0.56139725 -1.1183636 -0.47825348 0.13863336 0.3109512 0.8564538 1.4831681 0.50509214 -0.5739472 0.5174799 -0.57637334 -0.31482172 -0.7924635 -0.041782483 0.86365527 0.2936982 -0.048112728 0.6477523 1.1807654 -1.1355494 0.03210477 -0.0761438 0.11413612 0.10998933 -0.02702897 -0.047413357 1.4389071 0.69507796 0.17803913 0.21411644 -0.22079225 -0.17092326
ꜥꜣ 0.7725425 0.4375961 -0.54514873 0.41319695 -0.0676888 -0.66220397 1.1946703 0.7262364 -0.39371645 -0.53666073 -0.55377525 -0.48955083 0.17774166 0.124456264 0.032364257 0.12733321 -0.03324706 0.50328887 -0.35300216 -0.9784277 -0.31832805 0.41238013 0.07428716 0.72092676 1.5513885 0.033160605 -0.576537 0.2883519 -0.5402977 -0.27552474 -0.5038641 0.11824828 0.7935491 0.58782417 -0.40524226 0.52058023 0.77573586 -0.83943975 0.4174429 -0.15661165 -0.02088138 0.17835905 -0.054367103 -0.027769292 1.2614112 0.34177676 -0.014589284 -0.016205003 0.07155455 -0.013977159
jn 0.7399271 0.76472473 -0.42389715 0.045198232 0.0013296568 -1.0928272 0.95063984 1.0309902 -0.5416142 -1.0396948 -0.026561495 -0.65875787 0.24243028 0.116088755 -0.21631666 -0.4493228 0.28734466 0.33643305 -1.006883 -0.5956349 -0.23333183 0.025124583 0.40896416 0.22599596 0.38098326 0.07238586 -0.4988372 0.6381127 -1.101534 -0.30901995 -0.46166897 -0.3944137 0.49951267 0.122097924 -0.34561518 0.5477203 0.75351655 -0.4041679 -0.4918976 -0.034496997 0.03745067 -0.12152498 -0.032685343 0.28859952 1.3472699 0.47110572 0.045363493 0.22163814 -0.024640024 -0.062325045
ḫr 0.71790093 0.45344839 -0.5424051 0.017728228 -0.10656513 -0.8112021 0.7842685 0.9327803 -0.40556955 -0.7957293 -0.18384093 -0.45743895 0.14472067 -0.042432167 -0.3351286 -0.18686575 0.1553579 0.35605365 -0.96446306 -0.47044733 -0.31807917 0.21199179 0.2886044 0.46825764 0.7333912 0.001387237 -0.61539763 0.5123653 -1.2145811 -0.27021262 -0.4769808 -0.14178072 0.5960198 0.3039853 -0.36657473 0.47811133 0.4199142 -0.5370258 -0.016716186 -0.0059747556 0.034687825 -0.095108725 -0.30573544 0.11231812 1.2219907 0.21445322 0.07225746 0.29148802 -0.063721195 -0.08281052
nꜣ 0.92727625 0.6419581 -0.42592433 -0.34822425 -0.15433411 -0.86185586 0.7929695 1.0750115 -0.18605949 -0.85185164 -0.39111397 -0.779575 0.06911325 -0.060569134 -0.48140603 -0.29443812 0.38126642 0.37765074 -0.7790089 -0.46838772 -0.45830017 0.21093564 0.5487371 0.6412172 0.76220816 0.09345127 -0.81704277 0.40899694 -1.4662395 -0.06778767 -0.685727 -0.11100098 0.8686037 0.3253814 -0.6570217 0.575543 0.47117102 -1.0273584 -0.36191222 0.1639746 0.0075766104 0.04452564 -0.14464816 0.028747266 1.3136996 0.4565 0.037404235 0.4239424 -0.107301086 -0.023752533
tw 0.9515132 1.0725332 -0.44760197 -0.5021966 0.028897455 -1.4887786 1.0278733 1.2739017 -0.16948591 -1.4653984 -0.06361401 -0.83414084 0.42090923 0.042997833 -0.6272836 -0.88289297 0.75949717 0.13283469 -1.5335406 -0.3789387 -0.2252815 -0.027792873 0.8237791 0.25223443 0.072512515 0.37021235 -0.38757023 0.6668133 -1.9133955 -0.33602494 -0.6299635 -0.4326025 0.7108753 -0.029371416 -0.39963368 0.6859765 0.81706876 -0.6453684 -1.1413734 0.37995166 0.19223058 -0.42888528 0.033408612 0.25952882 1.7161716 0.67409414 0.13401324 0.7961619 -0.14507079 -0.14022058
1 -1.521075 -0.55308354 0.11391925 0.1126352 0.08590449 0.23787518 1.0483619 1.0993493 -1.7406111 0.046312872 -0.8694985 -1.4722317 -0.49781182 0.62221456 -1.847273 1.2080836 0.25954998 0.6330876 -1.0141089 -0.5563086 1.8695962 1.0347024 2.1373496 -0.47376677 0.24555078 -0.955182 -1.1461439 -1.110201 -1.2402 -0.10204065 1.1641967 0.5742174 -0.611566 -0.16536786 -1.368773 -0.26425508 -0.20022577 1.3740226 0.41136637 -0.42111972 0.61585706 -0.18638623 -0.06160299 -0.008565896 1.2968658 0.03578829 -1.4793811 -1.0846158 2.087714 -0.042497575
rꜥ 0.7487664 0.0012725202 -0.35936344 1.7194246 -0.25086135 -0.8469494 2.5378184 0.532107 -1.0098538 -0.36260435 -0.87173134 -0.8940026 0.52168554 0.7285474 0.6698786 0.7713279 0.19468231 1.5541389 0.05234551 -1.9424505 0.059614897 0.6067066 0.2095843 1.1809623 3.0967002 0.46242633 -0.74154645 0.35215762 0.8209398 -0.45531502 -0.64805734 0.3007844 0.55637324 0.5571 -0.044121474 0.56084627 2.011401 -0.8503538 1.236031 -0.846011 0.36434355 0.6287614 0.168269 -0.29969287 1.6283818 0.8561768 -0.09809808 -0.93651897 0.4858854 -0.0021044873
rdj 0.3112574 0.8071449 -0.170785 -0.5545356 0.12992965 -0.81205314 0.55105066 0.8939848 0.010428532 -1.0793625 0.101497635 -0.4739229 0.13318188 0.05875315 -0.7121011 -0.38944462 0.4949642 -0.17669448 -0.98895675 -0.11305202 0.22854608 0.08034114 0.90124416 0.015528366 -0.23751451 0.21757577 -0.25854468 0.36843362 -1.2758892 -0.12497355 -0.19267614 -0.25869626 0.29245946 -0.23955889 -0.36511943 0.28784284 0.26552942 -0.14040765 -1.0148379 0.5002199 0.31760186 -0.34764573 0.078705385 0.24200542 1.041676 0.40663847 -0.16033372 0.37828794 -0.024487255 -0.082864225
sn 1.0278033 0.9284019 -0.47258297 -0.20136137 -0.06887494 -1.3188223 1.2921066 1.2711406 -0.25812575 -1.1089888 -0.13886078 -0.6784144 0.37561828 0.08672304 -0.38717166 -0.54244924 0.39587465 0.15126912 -1.2151437 -0.56350094 -0.37881905 -0.056228492 0.71233726 0.48745865 0.5542366 0.12869498 -0.4071195 0.6419612 -1.5144691 -0.2889143 -0.67894983 -0.20351979 0.72723514 0.017518938 -0.18604493 0.66745 0.7247036 -0.6951683 -0.73340034 0.12764317 0.30709913 -0.1932851 -0.061246578 0.30771396 1.47899 0.49514526 0.2948966 0.5159249 -0.2167984 -0.086412445
wn 0.7278223 0.84635663 -0.4739856 -0.12967518 -0.029786097 -1.0694588 0.7177627 1.0396005 -0.35798094 -1.020132 -0.04044361 -0.7099439 0.16610447 0.16279632 -0.4041833 -0.5698909 0.3502497 0.257778 -1.0343926 -0.3855425 -0.3174284 0.1020425 0.46350193 0.2817327 0.2634946 0.10887243 -0.514859 0.73052865 -1.3980545 -0.28918022 -0.5587727 -0.4123567 0.5817577 0.17210713 -0.46891865 0.59878474 0.684043 -0.64221275 -0.7844848 0.23490277 0.158483 -0.16855979 -0.13932455 0.3010903 1.3922096 0.61574924 -0.020381263 0.27243102 -0.06409726 -0.18647103
wt 0.86995345 0.5954331 -0.2727136 -0.08277585 -0.21913461 -0.7432335 1.1423303 1.0316496 -0.13544019 -0.7793568 -0.44344047 -0.9045 0.1056731 -0.039943583 -0.40191668 -0.20227809 0.30745998 0.44398764 -0.8783384 -0.4832662 -0.5670608 0.2025358 0.6597614 0.56993926 0.905191 0.12907779 -0.8039283 0.23373769 -1.4228829 -0.22196189 -0.7038477 -0.041231234 0.81251794 0.38924336 -0.57856345 0.59202373 0.4173345 -1.109695 -0.124188356 0.12645921 0.0705199 0.016331205 -0.23047084 -0.013526826 1.2593043 0.5649403 0.08653139 0.59035933 0.01890488 0.017996022
2 -1.1090959 -0.37585992 0.17016965 0.0050729574 0.13853529 0.08767369 0.67782027 0.9678348 -1.257012 -0.020637266 -0.57106733 -1.1134013 -0.3646987 0.51762974 -1.5533143 0.82552224 0.2290996 0.30971444 -0.93763983 -0.311878 1.3856268 0.81688976 1.7203478 -0.49825007 -0.13527793 -0.61914533 -0.72442406 -0.75031096 -1.1024014 -0.10254515 0.8678225 0.30788293 -0.53463227 -0.2093446 -1.0742215 -0.1830085 -0.109246105 1.0251 -0.029762475 -0.22656609 0.5341976 -0.2710568 -0.04171948 0.14355356 0.9551234 0.052456062 -1.0701175 -0.7218387 1.4880552 0.025116753
10 -1.2435032 -0.68115693 0.24357812 0.46480513 0.15802437 0.249299 0.9703046 0.85024714 -1.590372 0.19150993 -0.69643116 -1.288149 -0.32566246 0.6680628 -1.4454179 1.2324283 0.0821996 0.62591654 -0.8716577 -0.503251 1.4719709 1.1199328 1.6893442 -0.58155715 0.18563247 -0.70888066 -0.92537445 -0.8710576 -0.7115032 -0.25167456 0.9535178 0.29280323 -0.8222469 -0.15160646 -1.2030523 -0.30751255 0.076226704 1.1761602 0.55580366 -0.40928504 0.6229519 -0.13211651 -0.045227893 0.17278871 0.99144626 0.11725123 -1.1905754 -1.0758227 1.6866624 0.042077545
mtw 0.93662494 1.1366841 -0.43973732 -0.6106744 0.040008683 -1.4954174 1.0677378 1.2355536 -0.09368871 -1.5978744 -0.021978894 -0.83726966 0.42267892 -0.031738453 -0.63087225 -0.81555414 0.7487455 0.12958167 -1.4989537 -0.35219958 -0.26395094 -0.068062276 0.8581041 0.27469364 0.048044927 0.3773154 -0.4940686 0.59741074 -1.9101238 -0.28345332 -0.5793569 -0.39971268 0.7559323 -0.14629686 -0.33604783 0.68404627 0.5768659 -0.6314816 -1.0092357 0.4586883 0.2160068 -0.48163596 -0.016977416 0.26115337 1.6904527 0.5551169 0.07627615 0.8704793 -0.21405931 -0.18438797
nṯr 1.0471857 0.2543431 -0.42558688 1.1230775 -0.11783341 -0.8723614 1.9593136 0.62972933 -0.6778498 -0.4667841 -0.8105781 -0.8151356 0.392843 0.43345052 0.5106908 0.4671414 0.13774909 1.1868641 -0.042841658 -1.4207406 -0.22749764 0.35853451 0.18408106 1.1358278 2.4830923 0.34406173 -0.6908626 0.5218707 0.26677492 -0.23616415 -0.79199016 0.19284067 0.78106105 0.44106522 -0.014529505 0.6261218 1.6095452 -1.0484723 0.96837234 -0.4190337 0.20432007 0.41812894 0.040324006 -0.32706517 1.422993 0.7278567 0.034339204 -0.45765692 0.13977823 -0.15527141
sꜣ 0.17415826 -0.13569687 -0.39648914 0.912936 0.025613429 -0.4104789 1.335576 0.6465137 -1.0459297 -0.22759059 -0.40309972 -0.70188606 0.13005927 0.38443598 0.053897485 0.47143948 -0.1762105 0.94466984 -0.40348125 -0.75454795 0.19578148 0.39946353 0.17490107 0.16425484 1.3257226 -0.2814504 -0.71794635 0.08636498 -0.041750535 -0.2936493 -0.024572883 0.043692224 0.14731719 0.3408559 -0.34165716 0.27873522 0.82317996 0.028392237 0.95290756 -0.6028769 0.03817856 0.10097472 -0.16199273 0.09338229 1.0631346 0.21921311 -0.30189526 -0.7022154 0.7189719 -0.08885462
nty 0.78651154 0.5875507 -0.4064267 0.046247713 -0.13124004 -0.87377465 1.004559 0.8795408 -0.1800864 -0.89838374 -0.20940636 -0.5458781 0.28508812 0.10724053 -0.30788776 -0.16261475 0.39759248 0.40409172 -0.89239514 -0.5064522 -0.21161531 0.11883301 0.53619653 0.49005497 0.7290137 0.23421621 -0.5161414 0.54771924 -1.0843976 -0.14408018 -0.6583273 -0.18618532 0.6000233 0.084237725 -0.18200675 0.5237649 0.643539 -0.72568595 -0.3343766 0.07555217 0.19762357 -0.113462165 -0.07879898 0.12773009 1.172173 0.5050975 0.17842229 0.28429982 -0.11891255 -0.07899179
ḏr -0.43727604 -0.40197226 0.17808515 0.5600889 0.28485548 0.22637984 1.0228578 0.4940441 -0.84401846 -0.004660621 -0.43486604 -0.9201731 0.025924185 0.48452255 -0.5674956 0.9147345 0.15950952 0.50832796 -0.8483945 -0.27245378 0.6739399 0.5866308 0.98232347 -0.5113589 0.0703105 -0.33022615 -0.7709353 -0.56851643 -0.24740693 0.10971886 0.35444993 0.07563725 -0.37349504 -0.19087872 -0.7173804 -0.022541467 0.16636978 0.4762172 0.77496755 -0.25445914 0.51928025 -0.032691818 -0.036269713 0.31920236 0.9061332 0.34815568 -0.57000315 -1.0570761 0.8905797 0.002881595
nfr 0.1316474 0.17251267 -0.27554843 0.22820017 0.011522772 -0.5048049 0.9277985 0.70093364 -0.59255743 -0.41138017 -0.3268808 -0.7226497 0.10580857 0.24775231 -0.374376 0.13981767 0.15513134 0.36180332 -0.6095614 -0.4255677 0.16177213 0.28752896 0.60971075 0.16556631 0.65135765 -0.13477139 -0.5022275 0.06969295 -0.6397782 -0.1713274 -0.055580754 0.016872913 0.23435184 0.13631503 -0.39802113 0.23018584 0.51173246 -0.1556827 0.076008305 -0.14756387 0.139538 -0.026474493 -0.029761186 0.033185087 0.9201934 0.26531672 -0.3325026 -0.10141122 0.44638076 -0.026161034
sš 0.48427355 -0.019837013 -0.5775727 0.80335206 -0.05790586 -0.4009959 1.2084676 0.62713 -0.81813854 -0.19634461 -0.44706044 -0.5173393 0.07505536 0.15326805 0.20054768 0.32670432 -0.3112883 0.8440991 -0.38194242 -0.9021062 -0.19875556 0.4295593 -0.19848195 0.5430133 1.6766833 -0.36750263 -0.6632 0.26702243 -0.24258927 -0.392338 -0.36374122 0.051153753 0.50047165 0.5875412 -0.3360788 0.37506524 0.7737991 -0.31157848 1.1259872 -0.5361722 -0.11226622 0.2298539 -0.36840725 -0.042228334 1.152215 -0.02649974 -0.1659305 -0.38879687 0.3867006 0.046394475
jrj 0.57011485 0.7701855 -0.28476235 -0.3163416 -0.017483162 -0.9311298 0.7868996 0.98468184 -0.16125502 -1.1508576 0.02888751 -0.56354034 0.2581468 0.06729922 -0.6186606 -0.33292794 0.49474752 0.054857053 -1.1622467 -0.33091375 0.037679974 0.119192295 0.8114089 0.19202407 0.085309446 0.28539667 -0.41692185 0.48208654 -1.3698099 -0.15575166 -0.4028682 -0.29556176 0.4214416 -0.1627532 -0.40701675 0.47857982 0.40789285 -0.3554729 -0.87919366 0.3884993 0.3063977 -0.28526786 -0.0021643224 0.3165222 1.2715557 0.50651586 0.039055556 0.37418455 -0.124897316 -0.10699308
dj 0.73351103 0.74214894 -0.4145394 -0.2883982 -0.020733213 -0.99135697 0.71214706 1.0346578 -0.24736597 -1.0320808 0.015689364 -0.7088284 0.3131075 0.009373741 -0.53897846 -0.5379472 0.45028877 0.084076725 -1.2214527 -0.12607071 -0.31687942 -0.006415634 0.58523303 0.18212478 -0.04437774 0.118683204 -0.57169986 0.44815484 -1.4915929 -0.12352886 -0.41259325 -0.389587 0.59405994 -0.0260588 -0.37199453 0.47237468 0.40960658 -0.5187007 -0.6877303 0.2525598 0.08114974 -0.29453355 -0.09530986 0.2543901 1.2260847 0.4063177 0.06790541 0.52673686 -0.15375593 -0.13996696
[?] 0.3291371 0.5178937 -0.4107111 -0.087565534 -0.05513541 -0.8798058 0.7745806 0.96047896 -0.5924771 -0.85287714 -0.30388024 -0.6346404 -0.086478375 0.22407308 -0.78144956 -0.13320592 0.4564143 0.2953031 -1.0657153 -0.20311987 0.23608993 0.29737547 0.8488821 0.008741876 0.15237278 -0.12272147 -0.46861663 0.28473935 -1.2329017 -0.06373255 -0.27987942 -0.23515029 0.3474437 0.011475706 -0.5887191 0.2900307 0.3587951 -0.09961979 -0.49399552 0.17507458 0.37145463 -0.34818876 -0.088299215 0.16542912 1.0954919 0.3293827 -0.24258871 0.28891125 0.20807697 -0.07093475
nswt 0.8149966 -0.00023234723 -0.45381197 1.5017078 -0.17128277 -0.81375915 2.0949035 0.57125133 -0.98697627 -0.34017745 -0.94608086 -0.89793473 0.40690055 0.55528206 0.6686142 0.72744036 -0.048947193 1.3646506 0.14438376 -1.6236485 -0.0658909 0.5938343 0.024359185 1.1312442 2.8730142 0.22818261 -0.8291162 0.3791328 0.60371274 -0.36359516 -0.7021457 0.31420228 0.58126205 0.57905436 -0.13531125 0.54231346 1.7607579 -0.9682703 1.2423167 -0.6449169 0.18899107 0.50910956 -0.042642105 -0.36071035 1.4370801 0.646602 -0.12636362 -0.7764891 0.37833795 -0.12200619
ḫt -0.8647369 -0.9559751 0.16850758 1.0965977 0.37246707 0.39998195 1.552041 0.7570729 -1.6533422 0.3477375 -0.9526552 -1.455494 -0.27560428 0.8182413 -0.86383444 1.5795127 -0.033356745 1.0441161 -0.98270255 -0.62771463 1.1264251 1.0443498 1.4138013 -0.583344 0.70693743 -0.7101443 -1.2726983 -0.85659283 -0.26123455 -0.070068456 0.6151639 0.36489743 -0.5330983 -0.033574793 -1.1303954 -0.1629409 0.4117164 0.8656557 1.6720031 -0.67602944 0.65507686 0.08222035 -0.26514396 0.2067593 1.2930354 0.25575942 -1.0070242 -1.660514 1.6444582 0.09000225
ꜣbd -1.5295511 -0.6645045 0.32286665 0.39655316 0.033838995 0.18103056 1.1237283 1.1134087 -1.862432 0.040080618 -0.84360754 -1.5795783 -0.3435899 0.8290983 -1.7482979 1.4740112 0.32166988 0.6258517 -1.0637172 -0.7711443 1.8940052 1.3418659 2.174493 -0.7211695 0.07461982 -0.6930285 -1.0683298 -0.9499465 -0.9124168 -0.32387677 1.1624357 0.33813304 -1.0514573 -0.2445846 -1.4221953 -0.4018504 0.25626537 1.5040712 0.32887626 -0.2994886 0.8605269 -0.16063602 0.031973228 0.15109546 1.292601 0.09493341 -1.4413332 -1.1925589 2.02552 0.07621237
wꜥ 0.031472147 0.5349021 -0.17873824 -0.4089417 0.06022928 -0.66661143 0.5441468 1.085003 -0.39872515 -0.82126266 -0.006851227 -0.64027405 -0.007938426 0.18719214 -0.90743226 -0.28461698 0.43631917 -0.016690375 -1.0806247 -0.020203633 0.34692964 0.16117774 1.0295773 -0.1207458 -0.23892188 -0.115342095 -0.42065814 0.21843016 -1.5007365 -0.08746247 0.04259241 -0.1767422 0.16918722 -0.15811446 -0.61945474 0.30424187 0.09565487 0.11804336 -0.83479905 0.2493398 0.28563985 -0.3309969 -0.061525267 0.21002162 1.0972695 0.32997188 -0.24337576 0.16600598 0.35580826 -0.074740484
ꜥnḫ 0.8592155 0.54081684 -0.35398582 0.14957519 -0.14249769 -0.99177706 1.2812661 0.67959005 -0.4815828 -0.89158916 -0.3260954 -0.7459596 0.374727 0.14417747 -0.08739651 -0.26717022 0.39687127 0.6419287 -0.72501504 -0.82459015 -0.34291956 0.085840404 0.17006001 0.47789755 0.8620234 0.18305545 -0.48093656 0.26561022 -0.6627188 -0.36861578 -0.38333094 -0.14501159 0.60703593 0.26268345 -0.1376165 0.47114605 0.98961467 -0.721415 0.16112374 -0.14792691 -0.04753998 -0.03561168 0.13340075 -0.0034644536 1.3023465 0.5025136 0.037722416 0.2091082 0.05689636 -0.15740976
tꜣy 0.5818227 0.91160625 -0.31581473 -0.37822953 0.064744174 -1.0461429 0.9000529 1.1717286 -0.17529523 -1.2383177 0.07434206 -0.6753696 0.19232175 0.09210066 -0.7007134 -0.4361463 0.49192274 0.029694337 -1.3040792 -0.22872034 -0.009620062 0.077572115 1.0025291 0.15605445 0.012354485 0.22691688 -0.4945728 0.5350319 -1.6163627 -0.21573105 -0.28610957 -0.34868816 0.47256047 -0.12471647 -0.42858955 0.48824924 0.39492965 -0.3057548 -0.8756371 0.41056263 0.34799382 -0.38773367 -0.05140065 0.30002314 1.4488031 0.49401537 -0.021522183 0.4057598 0.03382256 -0.17208515
rmṯ 0.7790448 0.6685084 -0.41107777 -0.26915917 -0.119891524 -0.8247621 0.66654783 1.0296689 -0.25089446 -0.8479371 -0.23409204 -0.60300666 0.13232781 0.05771015 -0.5371689 -0.2303067 0.44828188 0.2774321 -0.9063799 -0.46471226 -0.22420661 0.15952381 0.5432972 0.30516428 0.39953226 0.10890051 -0.6377964 0.32601663 -1.2434905 -0.045219168 -0.46473363 -0.19777505 0.56452554 0.0977214 -0.527045 0.5272076 0.47610816 -0.65812945 -0.47184265 0.14083369 0.07508069 -0.1111475 -0.012704993 0.15745498 1.1458501 0.39081472 -0.027053796 0.38406834 -0.064961664 -0.069829926
ḥḏ -0.51471716 0.14765236 -0.33558542 -0.39251876 0.07671574 -0.39378703 0.16994277 0.7694571 -0.9266907 -0.23287271 -0.12924488 -0.6913799 -0.34311664 0.20143424 -0.8192805 -0.023970647 0.092107415 0.0607494 -0.5543719 0.100187406 0.5430954 0.23810034 0.8389587 -0.16099313 0.16410653 -0.8277905 -0.58608454 -0.074544124 -1.2514133 0.0494054 0.52544475 0.13502005 0.06933177 0.13208897 -0.9043455 0.0288377 -0.04140204 0.36520278 -0.27949923 -0.16572066 -0.12281092 0.09004055 -0.046143156 -0.1388058 0.8599983 -0.1199415 -0.9399083 -0.16360047 0.9019206 0.03630832
4 -1.4420422 -0.62800914 0.19641364 0.39670733 0.13227098 0.20934099 1.0383724 1.0659723 -1.7978561 0.13718092 -0.7354818 -1.4355352 -0.33888954 0.6966077 -1.754988 1.240063 0.18862756 0.5844961 -1.0705779 -0.62502885 1.7170777 1.1456977 2.0280116 -0.6460495 0.04884295 -0.7930067 -1.0027534 -0.8895283 -1.0403649 -0.23182233 1.0565304 0.39915523 -0.802142 -0.14539912 -1.3431226 -0.25457367 0.045067012 1.3599821 0.2935104 -0.40100154 0.68522906 -0.24147955 -0.09010736 0.19890305 1.1676112 0.06882912 -1.2921653 -1.1193202 1.9557545 0.03302614
3 -1.185242 -0.5281994 0.17681302 0.22409412 0.07882053 0.1845778 0.74799657 0.86223924 -1.4596434 0.11233954 -0.63845676 -1.1715871 -0.34574738 0.5366575 -1.4772469 1.01362 0.18972747 0.4381891 -0.82014155 -0.45709413 1.4149729 0.9266799 1.6603935 -0.47465476 0.05551817 -0.68181616 -0.8040877 -0.76239073 -0.9086646 -0.15037242 0.9049079 0.38868427 -0.62640935 -0.10036139 -1.1264253 -0.25503004 -0.0008310866 1.1262306 0.22654599 -0.32535762 0.5284066 -0.16604094 -0.04969411 0.061638724 0.90847236 0.0062209256 -1.083641 -0.8672005 1.6192371 0.04051639
20 -1.3019805 -0.6962477 0.16328885 0.6081844 0.17964186 0.17581026 1.2221106 1.0535388 -1.8453392 0.19433607 -0.7722485 -1.523 -0.33620507 0.7777683 -1.5599647 1.304895 0.11558027 0.7654454 -1.0198368 -0.61040235 1.5648664 1.2176806 1.8350577 -0.5924152 0.3506881 -0.809397 -1.126673 -0.88611287 -0.82718056 -0.29853353 1.0339001 0.31453344 -0.8326685 -0.10653834 -1.3362528 -0.30731216 0.21977118 1.2942965 0.7059409 -0.5376885 0.6230531 -0.13759425 -0.12904282 0.15201698 1.2223123 0.13422795 -1.3243015 -1.2254673 1.9360397 0.025307922
ms -0.4393993 -0.685536 0.032898456 1.0027839 0.2579928 0.11193173 1.3143803 0.5041217 -1.1535324 0.2738556 -0.66242206 -0.96221787 -0.057934113 0.5276118 -0.28663808 1.0251315 -0.1812758 0.9336022 -0.51972926 -0.7055141 0.6288189 0.7299302 0.67825675 -0.20721072 0.9377107 -0.4532327 -0.8823692 -0.44756964 0.115098625 -0.21587798 0.23911953 0.23484673 -0.20904085 0.12763603 -0.59689355 -0.052116882 0.536238 0.38889882 1.3804421 -0.61283594 0.34942678 0.18333259 -0.15394872 0.05842751 1.0270619 0.25511676 -0.481664 -1.1438997 0.9455842 -0.025300635
5 -1.0614434 -0.48715326 0.025275644 0.1632665 0.14714451 0.13049646 0.74255806 0.95700496 -1.4450117 0.12067989 -0.6332104 -1.1601734 -0.39970565 0.5595743 -1.4497927 0.9040173 0.1344833 0.4045286 -0.8007332 -0.2724383 1.339541 0.8213561 1.5974995 -0.4426177 0.16462277 -0.8594484 -0.9238858 -0.7223419 -1.0234839 -0.054233007 0.9382594 0.38562587 -0.45882374 -0.047435135 -1.2065814 -0.18107918 -0.04997922 0.98346806 0.30755922 -0.38497213 0.38776642 -0.080328435 -0.08131972 0.023846453 0.98055005 0.04134221 -1.1733662 -0.92553407 1.616376 0.0116121005
dbn -1.369801 -0.38234472 -0.0908034 -0.2814167 0.23229074 0.0035872275 0.4034197 1.1289289 -1.54637 0.15132646 -0.4721275 -1.2003393 -0.62829065 0.5538285 -1.6194223 0.525275 0.00453741 0.22390702 -0.66732115 0.2666311 1.422723 0.61606556 1.7731984 -0.50876176 -0.08635549 -1.2685646 -1.0003815 -0.72322047 -1.4639118 0.14561662 1.1292675 0.31550553 -0.5242914 -0.015841365 -1.4657652 -0.29951212 -0.3100071 1.0439087 0.068534814 -0.36903206 0.20469154 0.08202839 -0.14154214 -0.1782177 0.97116715 -0.1465369 -1.5193076 -0.8937827 1.7980535 -0.020567574
jmy 1.1240983 0.84835285 -0.525836 -0.026178211 0.01307955 -1.2545795 1.2287159 1.0410861 -0.2865633 -1.1780044 -0.3431991 -0.80497307 0.49034593 0.11274163 -0.18261613 -0.56882405 0.54324454 0.27209067 -1.0409815 -0.70224345 -0.4826199 0.0438158 0.4343339 0.59577423 0.82300794 0.41117987 -0.5861893 0.6189916 -1.2527784 -0.37432668 -0.7089472 -0.26332003 0.81753844 0.20979318 -0.17352107 0.6052242 0.92023295 -0.95048976 -0.37993413 0.23481297 0.024334637 -0.21964327 0.021398256 0.11179335 1.4794408 0.6496809 0.110153034 0.6263268 -0.2554249 -0.21038546
ptr 0.6576967 0.70911497 -0.3882549 -0.27809802 -0.055667356 -1.1125053 0.6797404 0.98777217 -0.24101365 -1.1191301 0.07769399 -0.8284735 0.347854 0.063175336 -0.58139116 -0.49249297 0.49172762 0.20845097 -1.3233683 -0.29404935 -0.14144103 0.15182735 0.6948467 0.118318856 -0.19761734 0.23146108 -0.5103586 0.5409291 -1.5297861 -0.24782382 -0.4612234 -0.45225456 0.4367701 -0.113082655 -0.42786795 0.5342305 0.48912296 -0.30503386 -0.84731275 0.291294 0.18614295 -0.25043425 -0.07835328 0.37496832 1.3306078 0.5422 0.11524081 0.47365287 -0.15453368 -0.17161848
tn 1.0320334 1.0980848 -0.5279897 -0.4196285 -0.048890747 -1.4119155 1.0264026 1.3642927 -0.24590455 -1.4222592 -0.1220429 -0.89274746 0.4044658 -0.03160285 -0.7304981 -0.7963786 0.69428647 0.00031172475 -1.4899606 -0.3768476 -0.3313632 -0.05798584 0.82641333 0.45090356 0.14477578 0.38533014 -0.63402057 0.6257093 -1.998357 -0.35500503 -0.58471334 -0.39999443 0.8056059 -0.034987144 -0.38442826 0.56672466 0.6414561 -0.7079267 -1.0065922 0.43952194 0.18090396 -0.4919988 -0.017097132 0.28651857 1.5702881 0.6421604 0.16989155 0.893008 -0.27240866 -0.1977913
nḫt -0.51294947 -0.45233074 -0.10979678 0.99548906 -0.018640373 -0.00037151313 1.2609982 0.527534 -1.3203024 0.14229515 -0.42873958 -0.80880225 -0.11848848 0.44967532 -0.41955754 0.87446684 -0.2297085 0.9255309 -0.47703642 -0.79125714 0.66904926 0.69814235 0.55889153 -0.12541585 1.1328894 -0.4969482 -0.7082168 -0.25031877 -0.0027742304 -0.35347906 0.25916168 0.21132457 -0.29369113 0.22661845 -0.6386025 -0.011312835 0.5655704 0.5555095 1.0518676 -0.6693626 0.19302426 0.12611546 -0.14881249 0.08309823 0.9932422 0.046583686 -0.65449876 -0.9726155 1.1304766 0.027194144
// 0.75256205 0.20545577 -0.38135165 0.9749346 -0.14814083 -0.90667915 1.6334949 0.46457255 -0.6550342 -0.5899242 -0.49564156 -0.7835323 0.5196748 0.36535823 0.3898685 0.1261942 0.13595119 0.99720335 -0.24896641 -1.1587341 -0.20135833 0.22739707 0.0278678 0.7089015 1.8240709 0.1488231 -0.5564563 0.4782545 0.024960406 -0.29028672 -0.5527722 0.022713672 0.6148297 0.38966057 -0.054707337 0.5585143 1.4372296 -0.74330646 0.6759479 -0.4901427 0.07047563 0.18118937 -0.002001309 -0.09910491 1.4084065 0.61 -0.037888337 -0.281951 0.2512523 -0.10092005
ḳd -0.9083523 0.027984383 -0.08518962 -0.31972596 0.12886754 -0.1856429 0.31971034 1.0337371 -1.0911537 -0.20331444 -0.21754193 -0.8398423 -0.41489893 0.43326667 -1.1832099 0.28847098 0.106359795 0.10468396 -0.6601441 0.1839049 1.0911107 0.47053763 1.4143006 -0.35566112 0.01399527 -0.84373796 -0.7637195 -0.36775953 -1.2352852 0.14071436 0.82770103 0.13392213 -0.32337272 -0.11118155 -1.0927762 -0.09164035 -0.19714725 0.7211594 -0.22054386 -0.09611691 0.2676629 -0.028093597 -0.05796378 -0.08755242 0.91077334 -0.048652783 -1.1689516 -0.5417555 1.2532197 -0.08000323
šrj 0.2916904 0.34116024 -0.29231158 0.02035744 0.033586092 -0.5884768 0.7967484 0.9028293 -0.39985678 -0.6422502 -0.10298113 -0.49415392 0.037171755 0.14557937 -0.43786418 -0.02575214 0.12024108 0.21747501 -0.7761944 -0.41291463 0.063275 0.20160092 0.6602972 0.08350848 0.35366806 -0.07247266 -0.45425606 0.24732816 -0.90570045 -0.16919857 -0.12046755 -0.11074828 0.2823718 0.01352261 -0.33821785 0.30971858 0.29820222 -0.1449726 -0.1706073 0.02727406 0.2595173 -0.1965755 -0.16131479 0.16908668 1.0328218 0.2589079 -0.0810371 -0.024203707 0.22005095 -0.09184435
jry 0.45259073 0.47000962 -0.3030567 -0.10632067 0.044024616 -0.7932904 0.7886591 0.93066585 -0.39469156 -0.72464556 -0.14544131 -0.64472926 0.1904433 0.10549985 -0.46528283 -0.2773256 0.30297372 0.24133344 -0.97077364 -0.2685792 -0.09087997 0.106611885 0.5909679 0.10206003 0.1728454 -0.028436804 -0.47491965 0.27147388 -1.134686 -0.21272331 -0.21055129 -0.2290474 0.37883744 0.04685096 -0.35019532 0.38753003 0.4418108 -0.25744376 -0.34288394 0.12551847 0.10186014 -0.2029335 -0.0969795 0.17083839 1.1107594 0.3178955 -0.007708796 0.31030607 0.121507786 -0.10638122
wr 0.28631818 0.24062572 -0.39771837 0.4310613 -0.04910831 -0.53488994 1.1748862 0.83439726 -0.6739178 -0.6091622 -0.30991742 -0.41589203 -0.032386906 0.23926222 -0.21764888 0.22085431 -0.08683972 0.5410047 -0.62606066 -0.7219228 0.0708842 0.3654491 0.35459515 0.3334256 1.178865 -0.1637076 -0.5318305 0.2566362 -0.6275115 -0.25599366 -0.19623904 -0.027431559 0.34477428 0.26554167 -0.31377867 0.39158067 0.5314324 -0.1592546 0.4246915 -0.31105483 0.07408859 -0.010827277 -0.19224328 0.05345323 1.1784741 0.2189852 -0.1287168 -0.20145209 0.3412281 -0.043083094
njw 0.24831486 0.35982025 -0.26495352 0.2233683 -0.044074263 -0.39310014 0.9431062 0.52196217 -0.6367668 -0.51928246 -0.31328216 -0.57550764 0.0077258074 0.14877471 -0.19741453 0.2858395 0.06854008 0.4397818 -0.4772849 -0.57964635 0.10953471 0.29451716 0.17657141 0.18117502 0.9439552 -0.16899434 -0.5098869 0.10048685 -0.33160776 -0.19689658 -0.044627782 -0.039020166 0.2317162 0.2051588 -0.28330216 0.2433138 0.4857221 -0.15245542 0.42193213 -0.17844151 0.032766547 -0.03093598 0.005484654 0.06786654 0.83415407 0.21274681 -0.35546732 -0.30054274 0.4271825 0.046723578
jrm 0.5672916 0.6407718 -0.42706588 -0.22797894 -0.07077824 -0.94956726 0.69874907 1.015437 -0.28246206 -0.97174716 -0.002469664 -0.6409266 0.11752892 0.01128492 -0.4399686 -0.3748282 0.29582548 0.30978534 -1.0416939 -0.24651283 -0.1575483 0.11170916 0.5795824 0.26030013 0.27316135 0.04833555 -0.5738021 0.48461002 -1.3793964 -0.19344814 -0.46469042 -0.27458057 0.5770069 0.068717584 -0.5041458 0.526333 0.43626344 -0.46404535 -0.56891483 0.13292114 0.11782565 -0.14697023 -0.14023915 0.17374249 1.2682627 0.4091296 0.04918243 0.32079822 -0.016199881 -0.066752814
jy -0.04807637 0.30028895 -0.025608398 -0.14710972 0.10617402 -0.41612503 0.5121317 0.5878181 -0.20344822 -0.6517285 0.07944767 -0.4046508 0.07043935 0.14948985 -0.6051377 0.047730144 0.26999098 0.04736883 -0.86860186 -0.14895046 0.38945684 0.1924962 0.7946768 -0.16675629 -0.20818439 0.12058893 -0.22744252 0.14662346 -0.821857 -0.09069693 -0.0025052044 -0.16515526 -0.04649923 -0.22591746 -0.2714919 0.12605296 0.16988738 0.21063258 -0.49090296 0.20893374 0.34134954 -0.27460548 0.0048373374 0.27662414 0.70924884 0.30341914 -0.18489642 -0.012688537 0.15722178 -0.01674177
nbw -0.69933885 0.0028780727 -0.2251086 -0.36682045 0.06488082 -0.25535432 0.2622105 0.9136949 -0.9953569 -0.19848767 -0.21688032 -0.7218738 -0.3833331 0.33073485 -1.0939212 0.1190198 0.09139975 0.08315823 -0.54564947 0.19931541 0.90192986 0.34905457 1.2221637 -0.23565479 0.069209225 -0.89021146 -0.6421599 -0.24710655 -1.306505 0.13611844 0.6883422 0.20069839 -0.090016805 -0.019705575 -0.9399797 -0.049679834 -0.18206194 0.49862948 -0.32170504 -0.19076863 0.0041809673 0.040939394 -0.058200102 -0.16115238 0.8603188 -0.03344404 -0.97829634 -0.36857513 1.1467694 -0.042424902
hrw -0.12806764 0.15559009 -0.16689473 -0.29001623 0.057471555 -0.29204395 0.19681121 0.8888401 -0.6955698 -0.42113915 -0.38860825 -0.5633702 -0.21512589 0.14363442 -1.0033253 0.20280375 0.27044567 0.011243655 -0.72568566 -0.16898686 0.4248674 0.3823773 0.89188254 0.013201064 -0.10895316 -0.19880317 -0.4977673 -0.17524849 -1.1591533 -0.016536409 0.11094221 0.023652649 -0.11077967 0.15237452 -0.7647125 0.019213814 0.026731059 0.14012286 -0.30943474 0.09631925 0.29737672 -0.16105181 -0.05129584 0.096105285 0.65598965 0.21734238 -0.45549458 0.11690114 0.4509029 -0.09625708
ns 0.12862921 -0.11892188 -0.3512231 0.8878413 -0.03765075 -0.2950928 1.241091 0.42885005 -0.9924803 -0.053215638 -0.3753315 -0.77591807 0.11942124 0.2956244 0.017554082 0.5696884 -0.11692341 0.9541748 -0.28417405 -0.77502286 0.16896085 0.41079095 0.09519146 0.2366187 1.2534262 -0.26471943 -0.63921 0.024824658 0.02431648 -0.33238256 -0.11741758 0.0734745 0.20347242 0.2650569 -0.37273726 0.27091125 0.8511873 0.06001748 0.9348143 -0.5248031 -0.012676157 0.20953748 -0.11854264 -0.06400696 1.0397116 0.12289612 -0.2984462 -0.60319203 0.65425444 -0.0036550555
mꜣꜥ 0.3613438 0.05490675 -0.26395476 1.1389441 -0.17807132 -0.67150587 1.7664561 0.41800067 -0.63340235 -0.46100527 -0.58595335 -0.52103597 0.24182367 0.4483812 0.41092756 0.4588807 -0.026439132 1.119591 -0.0131720295 -1.3960439 0.24319679 0.47253668 0.11344717 0.75399303 2.258979 0.30492908 -0.45122308 0.19797286 0.61241865 -0.32426992 -0.5150853 0.2321514 0.2575216 0.33603734 -0.051451273 0.278935 1.2254721 -0.53431267 0.7731754 -0.5863008 0.14168866 0.42274988 0.19056702 -0.110131815 1.2692734 0.5773202 -0.063889086 -0.6305797 0.4313141 -0.015040582
nꜣy 0.94467473 0.8094822 -0.3926112 -0.35989055 -0.055297066 -1.1622293 1.0580777 1.2376302 -0.23089996 -1.1731963 -0.28227535 -0.87710494 0.23050618 0.035491645 -0.588177 -0.4175432 0.55828506 0.29049343 -1.1281881 -0.43531656 -0.35376823 0.1336996 0.8381174 0.4291343 0.42778665 0.24788891 -0.6981499 0.41980746 -1.6165731 -0.12652995 -0.62127894 -0.20169078 0.7984709 0.08824082 -0.55511475 0.60774344 0.5473906 -0.8740803 -0.69720894 0.32622695 0.21233729 -0.19911413 -0.08418793 0.20532069 1.5104674 0.58211315 0.053285167 0.5129978 -0.11514054 -0.10908253
ꜣḫ -0.9561883 -0.51296246 0.23814143 0.58800703 -0.007078029 0.124863274 0.77357954 0.5234848 -1.2087119 0.115439504 -0.4934976 -0.9222587 -0.11500507 0.5574266 -0.96985143 1.0069016 0.045070592 0.52768475 -0.56077325 -0.6138385 1.135534 0.8871435 1.1950554 -0.37163132 0.31283838 -0.3153751 -0.57084686 -0.5129638 -0.24558216 -0.20177235 0.63299906 0.2684829 -0.72896504 -0.122672915 -0.7091447 -0.22699754 0.27885437 0.9152838 0.3237595 -0.37137294 0.50935555 -0.10093347 -0.0074553913 0.122999705 0.6873377 0.12384709 -0.75326747 -0.83201694 1.2200791 0.011376129
ḥmty -0.48483527 -0.08226099 -0.203567 -0.05154593 0.052640803 -0.18387994 0.4502572 0.7515244 -0.83216727 -0.13796477 -0.24994491 -0.65175974 -0.29724184 0.26043355 -0.8093733 0.18246478 0.0010414755 0.29293108 -0.58643174 -0.039447103 0.6319823 0.32056603 0.8835348 -0.17659463 0.24758485 -0.63630736 -0.5769271 -0.19710076 -0.96749955 -0.031333193 0.40291446 0.13937503 -0.042207636 0.04279525 -0.71425015 0.031471383 0.00494209 0.4484976 0.04451143 -0.2296216 0.08728958 -0.012099604 -0.103471056 -0.021293528 0.7867919 -0.027788302 -0.6351124 -0.39524734 0.89580613 -0.0405143
ḥtp -0.01122779 -0.32382888 -0.0836008 0.91373855 0.0270036 -0.09054094 1.2172443 0.42991853 -0.9586633 0.11389766 -0.57144284 -0.7971441 0.103411674 0.43364367 -0.09075356 0.7390982 -0.0407321 0.83842707 -0.24557634 -0.70892376 0.34087813 0.5120333 0.42342305 0.17256708 1.1202527 -0.2135376 -0.6675827 -0.1589964 0.1521253 -0.17328477 0.047118697 0.16133597 0.096411444 0.17122206 -0.39682525 0.1143311 0.76030564 0.04663295 1.026039 -0.47685978 0.1809194 0.12917635 -0.10063141 -0.04227395 0.86600214 0.2887269 -0.38602224 -0.7919638 0.6937251 -0.004560173
smtr 0.24127156 0.21465583 -0.28993353 -0.09097976 -0.1251773 -0.49386415 0.34227753 0.52776533 -0.7803684 -0.44903198 -0.10770363 -1.0307229 0.14998525 0.1349062 -0.5606532 -0.060250133 0.38903487 0.42288828 -0.8281742 -0.34003118 0.12188949 0.39024734 0.50238514 -0.11457651 -0.2107873 -0.08481567 -0.6613332 -0.029975135 -0.90394926 -0.15955326 -0.111751 -0.3135239 0.027048396 0.05427071 -0.6249177 0.32629627 0.4114688 0.06298871 -0.3173387 -0.06596454 0.06549876 -0.019661568 0.046895314 0.3784562 0.99807566 0.38259053 -0.21470481 -0.16559139 0.3300316 -0.13303389
hꜣb 0.9559895 0.9044467 -0.45344925 -0.31560603 -0.07099688 -1.1885866 0.8539335 0.9463385 0.009859582 -1.2867097 0.07494077 -0.59447503 0.3331991 -0.07309596 -0.36570403 -0.6423273 0.43105638 0.11271008 -1.2525172 -0.32967934 -0.51952827 -0.028832475 0.54971033 0.39921778 0.18230641 0.36099467 -0.48010767 0.7118557 -1.6130047 -0.34463742 -0.6966526 -0.38800967 0.7900613 0.0046305726 -0.215306 0.5745541 0.46458754 -0.70335317 -0.7387495 0.34220657 0.068429604 -0.2974831 -0.20711298 0.172696 1.3104874 0.44802147 0.23338252 0.8502488 -0.4153338 -0.1450132
jt 0.37233984 0.35111725 -0.3143364 -0.018540401 -0.030070866 -0.7317157 0.7633682 0.7679408 -0.3512157 -0.6554666 -0.21392763 -0.5647706 0.08711761 0.10329386 -0.28613925 -0.13198414 0.19536653 0.3418032 -0.6709272 -0.3336951 -0.04297805 0.16335408 0.5931579 0.22543675 0.50580007 0.052277643 -0.47742328 0.33846724 -0.9333509 -0.1755375 -0.24978484 -0.1055111 0.38552412 0.082342125 -0.35240075 0.3526597 0.4737178 -0.29048133 -0.19047688 0.022024062 0.13252442 -0.05442241 -0.14414385 0.027821897 0.9872022 0.30499682 -0.06515118 0.117220595 0.1239528 -0.10975144
ḥry 0.06419519 0.09298483 -0.23102239 0.22980738 0.05558884 -0.37956223 0.8264452 0.72005 -0.68942374 -0.3795272 -0.35741666 -0.6562615 -0.03808674 0.2045148 -0.4534472 0.25593105 0.056660533 0.44604978 -0.63496757 -0.4039711 0.21786535 0.38735837 0.6251259 0.08702339 0.5741991 -0.23934968 -0.6014875 0.006843541 -0.6732467 -0.1513777 -0.049917754 0.04733049 0.13175699 0.18129176 -0.48174283 0.1810557 0.38910753 0.043103177 0.20085202 -0.19737053 0.22183333 -0.036873918 -0.07944681 0.047854297 0.95799536 0.2443388 -0.30753636 -0.24727456 0.4564656 -0.05761274
ꜥḥꜥ 0.6434379 0.6833277 -0.3586659 0.003083854 -0.00073505525 -0.95525485 1.0288116 0.8878482 -0.29533502 -0.9415806 -0.14535896 -0.5771389 0.29851368 0.16682549 -0.27165136 -0.3288813 0.32847986 0.31649962 -0.8513693 -0.6543971 -0.12748218 0.126482 0.5042713 0.3814799 0.63196635 0.17477526 -0.40458325 0.54641396 -1.0530478 -0.2814307 -0.44794095 -0.16619764 0.4994779 0.05837375 -0.254714 0.5170666 0.68137157 -0.5155408 -0.4410345 0.040558994 0.19423969 -0.10098457 -0.040853813 0.13272169 1.2965804 0.48833838 0.058867753 0.19062164 -0.004694756 -0.11653727
sp 0.8636056 0.7693596 -0.37591425 -0.20925745 -0.0898663 -1.1407667 1.1035944 0.96416116 -0.20019244 -0.92511696 -0.05384222 -0.53723335 0.33534342 0.024486369 -0.39129806 -0.5501772 0.32067004 0.06754147 -1.0061268 -0.38078862 -0.17349532 -0.042937994 0.6608731 0.5276615 0.43646458 0.14263491 -0.30682242 0.5316586 -1.2694544 -0.2724651 -0.46484005 -0.07857255 0.5220275 -0.076660395 -0.092920765 0.5076044 0.47714707 -0.5069101 -0.747766 0.24358599 0.34222388 -0.1841817 0.0062994505 0.19455956 1.0914522 0.45220867 0.28355566 0.3502441 -0.09240469 -0.18569267
mw.t 0.13750556 -0.034803223 -0.23412152 0.5037999 0.054915063 -0.41153997 1.0849346 0.60227704 -0.75397366 -0.28539908 -0.31294262 -0.6619994 0.07402833 0.2922953 -0.21068813 0.3970126 0.05515928 0.6311214 -0.55376697 -0.5969698 0.21316244 0.35310444 0.5208232 0.08046035 0.81936365 -0.15845253 -0.58664584 0.046450667 -0.2995962 -0.22161983 0.021864412 0.009622482 0.10259622 0.15011775 -0.31911078 0.21671872 0.61723334 -0.009246106 0.51938206 -0.31555104 0.2190934 0.004453964 -0.10662268 0.054137867 0.9512609 0.29314423 -0.2957319 -0.46414405 0.5177429 -0.046840828
md 0.80293906 0.74776816 -0.36939514 -0.2621796 -0.15219276 -0.86960816 0.87252975 0.9179738 -0.017771365 -1.0090765 -0.072802596 -0.62904036 0.24986394 -0.07640103 -0.35003108 -0.37631318 0.32233077 0.21510121 -1.0576223 -0.35967115 -0.47158873 0.06779285 0.53456134 0.3463055 0.4362233 0.14059299 -0.5305984 0.45830497 -1.4386606 -0.25833943 -0.6262762 -0.18043749 0.65135664 0.12551773 -0.3471897 0.51641405 0.3267311 -0.7808132 -0.5268848 0.17826995 0.059063636 -0.1873468 -0.20389228 0.16256478 1.1698285 0.40502328 0.14829892 0.56541234 -0.27003008 -0.09189734
jḫ 0.9842438 0.848104 -0.56015116 -0.30922943 -0.06924709 -1.2675642 0.8492183 1.0133873 -0.1444202 -1.2427388 0.01776931 -0.6841349 0.3609271 -0.04439068 -0.28118873 -0.6365887 0.4420682 0.29647976 -1.1545869 -0.5176626 -0.52140224 -0.010424081 0.37249887 0.37751055 0.3766808 0.23002486 -0.5084894 0.71911544 -1.5233307 -0.38200787 -0.6789134 -0.3659078 0.790603 0.090625785 -0.3089292 0.6015215 0.61283976 -0.7639029 -0.6549167 0.20579852 0.01872422 -0.16972594 -0.18207578 0.20891538 1.4606823 0.43042812 0.1994398 0.68833953 -0.3137613 -0.15191174
wy 0.22785239 0.18549855 -0.18799269 0.39046645 -0.09833619 -0.53101385 1.2047749 0.54107594 -0.57261235 -0.5841241 -0.41055086 -0.8165668 0.22503252 0.28808683 -0.33004642 0.18138434 0.2933888 0.7078463 -0.50986 -0.83620495 0.31842363 0.20669295 0.5740195 0.3616021 0.85155153 -0.061519843 -0.5486159 -0.0069608153 -0.52242255 -0.1843933 -0.21418805 0.10024645 0.31001335 0.0888317 -0.23498543 0.36635295 0.6995914 -0.14426395 0.2875514 -0.2293907 0.19963329 0.054000806 -0.08761353 0.0044361935 1.2017325 0.5044518 -0.281018 -0.22797674 0.44232324 -0.059997294
ḥw -0.04251027 -0.0037314224 -0.1701547 0.78353655 -0.09537664 -0.2968296 1.3201221 0.5283041 -0.7123417 -0.38040295 -0.34149075 -0.38766322 0.01761442 0.30670145 -0.07950641 0.4888045 -0.068004765 0.74870807 -0.25457168 -0.8785518 0.39053124 0.4532035 0.33149225 0.27136654 1.4595301 -0.06971853 -0.4931611 0.09142586 0.0526874 -0.31253436 -0.17487133 0.20225814 0.049197398 0.2443475 -0.24555683 0.2296672 0.65847605 -0.03718677 0.61989254 -0.47198102 0.18857491 0.15707654 -0.08309561 -0.055872988 0.9892362 0.2628674 -0.24495633 -0.68359303 0.5850497 0.012007493
jṯꜣ 0.23049739 0.32979283 -0.28692582 -0.2611781 -0.06508272 -0.48096132 0.33444422 0.66815126 -0.31969497 -0.43782857 -0.17369972 -0.511121 -0.04457725 0.05157919 -0.5280338 -0.08456317 0.19572034 0.21612032 -0.5269903 -0.23105012 0.07496314 0.21611647 0.5518542 0.17141837 0.23842289 -0.13010405 -0.52243894 0.1183635 -0.9933385 -0.04190792 -0.13719949 -0.090234704 0.29978642 0.12892534 -0.5392629 0.24804567 0.23711738 -0.2804233 -0.3549806 0.03953322 0.05256242 0.016564904 -0.028471198 0.079215236 0.8410716 0.22124293 -0.23211798 0.14895096 0.14772727 -0.034715734
jnj 0.3377281 0.6451598 -0.2994049 -0.4110518 0.059753228 -0.7740455 0.4611191 0.8047793 -0.17255782 -0.80797595 0.011906877 -0.5043246 0.1397408 0.07771734 -0.50528157 -0.39615262 0.37678322 0.016616896 -0.7933345 -0.075973816 0.074006066 0.06416282 0.7134032 0.14816627 0.0020253365 0.015358575 -0.36109892 0.36511466 -1.2184916 -0.08084813 -0.16961093 -0.2168297 0.39341137 -0.075302884 -0.41046676 0.35864002 0.2815433 -0.24162748 -0.7672675 0.28268337 0.10101523 -0.1538834 0.021155851 0.10363354 0.9647929 0.35215512 -0.16136022 0.3280623 0.017045684 -0.09328218
mḥ 0.0005771575 0.29087663 -0.1425863 -0.3085186 0.06794005 -0.48593265 0.49778196 0.7639159 -0.37937617 -0.6130207 -0.09561722 -0.6506014 0.044428363 0.16085877 -0.7448234 -0.069080204 0.35456598 0.050723247 -0.8884977 -0.059237313 0.3215363 0.17789486 0.8576279 -0.12061753 -0.210082 -0.08417827 -0.37070972 0.0043177083 -1.0886494 -0.06704099 0.039545942 -0.1063544 0.047647458 -0.15138927 -0.43423253 0.15626226 0.1290871 0.12126928 -0.47086722 0.15603086 0.24342035 -0.25881898 -0.031883378 0.14319533 0.79206806 0.21527831 -0.25088167 0.13938512 0.29817808 -0.08748552
ḥnꜥ 0.90408677 0.6778334 -0.4647721 0.18140167 -0.10562948 -1.0605221 1.2212856 0.91253304 -0.27987805 -0.9329549 -0.27623177 -0.6397213 0.3378851 0.08844296 -0.113797896 -0.29085734 0.3399394 0.45418707 -0.8095294 -0.7231909 -0.34841514 0.11275129 0.42848995 0.5909907 0.99577117 0.2407927 -0.5554355 0.5623001 -0.99795556 -0.29190034 -0.6492064 -0.14186138 0.69219947 0.1597526 -0.1857652 0.58116955 0.8126229 -0.82623047 -0.20798932 -0.008213057 0.14646329 -0.035132296 -0.10064362 0.074056625 1.3607535 0.579073 0.18132497 0.28689426 -0.10845802 -0.10895462
bꜣk -0.15979795 -0.1812357 -0.042269483 0.32670626 0.15029483 -0.075849 0.73171836 0.5425112 -0.6630868 -0.12840158 -0.28036192 -0.5715995 -0.07355265 0.26936454 -0.37077728 0.46342596 -0.0040032715 0.4015379 -0.5965303 -0.3496383 0.38038084 0.35794953 0.6396309 -0.13966027 0.30779606 -0.27933204 -0.53842074 -0.13651913 -0.4036668 -0.09089346 0.10723341 0.050396677 -0.05738013 -0.035281956 -0.45616376 0.06044896 0.21372217 0.2356339 0.49552277 -0.18055978 0.25785094 -0.042298034 -0.18502882 0.13853793 0.75337917 0.1640687 -0.31183127 -0.48069993 0.541949 -0.058917403
6 -1.1651832 -0.5585428 0.19791365 0.318358 0.16741271 0.19971463 0.83971834 0.85501796 -1.4558928 0.15493374 -0.6053514 -1.1750833 -0.32404914 0.56787515 -1.3685689 1.0346036 0.10982918 0.47623512 -0.83774626 -0.39766985 1.3744684 0.90735495 1.5945028 -0.5811803 0.100601 -0.69100696 -0.8123136 -0.7781428 -0.7678555 -0.17359829 0.8745327 0.33981442 -0.6774917 -0.13297369 -1.0956599 -0.240296 0.022201806 1.1038092 0.38455144 -0.38279372 0.53844434 -0.16826655 -0.066380545 0.17354041 0.89286005 0.06622655 -1.0898955 -1.0045295 1.5646349 0.047233675
ḫꜥ -0.38624507 -0.41751283 -0.10415106 0.7843125 0.086177304 -0.04940278 1.123957 0.5665394 -1.2535844 0.13770427 -0.47464785 -0.9467364 -0.08418169 0.45470104 -0.42563313 0.86991066 -0.07305642 0.7674949 -0.49746075 -0.5761779 0.5523077 0.6539213 0.6736457 -0.15173982 0.8346259 -0.5309533 -0.75375026 -0.37324736 -0.16306756 -0.1459756 0.3280142 0.14319287 -0.24926414 0.14732929 -0.6706255 -0.012491919 0.5607573 0.50024927 0.9613395 -0.5468186 0.20739213 0.124191314 -0.12869649 0.07734466 0.9588746 0.15878344 -0.6692071 -0.89686495 1.0751606 0.017070374
šmj 0.49776557 0.76454365 -0.29680148 -0.3777975 -0.005020571 -0.9188151 0.6030242 0.89861983 -0.13760361 -1.0307462 0.04753506 -0.5254719 0.20404068 0.06617902 -0.5371268 -0.4081443 0.40682966 0.049930762 -1.048982 -0.2865163 -0.004310346 0.050536502 0.75391865 0.15294142 -0.030655848 0.18892796 -0.3785816 0.5375839 -1.4116476 -0.20055395 -0.35819095 -0.27229485 0.42114362 -0.10326624 -0.37613338 0.40948012 0.35251886 -0.3022342 -0.9301808 0.30177653 0.24723966 -0.22005941 -0.057706736 0.24406141 1.1463608 0.4556811 0.038924687 0.3796281 -0.141156 -0.081942976
nn 0.540013 0.669689 -0.39900097 -0.22639975 0.07599363 -1.027895 0.8431955 1.330835 -0.669762 -1.0836688 -0.3255754 -0.92478263 0.08958495 0.2016007 -0.81776124 -0.31405637 0.50486195 0.20933922 -1.2721972 -0.42533326 -0.02377998 0.20684953 0.9212857 0.28914616 0.2597062 0.06396198 -0.76813155 0.31667465 -1.6928964 -0.2564039 -0.28485158 -0.2303284 0.43887806 0.19857816 -0.72259814 0.46203634 0.53814876 -0.44042307 -0.62067485 0.1342865 0.34051868 -0.2946445 -0.13424018 0.28311718 1.475808 0.62017745 -0.25550413 0.34914863 0.19080912 -0.17563471
ḥꜣ -0.09242086 0.082439974 -0.101139076 0.16887511 0.006397001 -0.3617607 0.7133002 0.5940282 -0.4465224 -0.42286983 -0.18808068 -0.4641257 -0.0075350353 0.2288667 -0.407286 0.19596925 0.12581463 0.29120165 -0.60850656 -0.32583886 0.3942538 0.28000766 0.6598248 -0.05048334 0.3537258 -0.05057884 -0.42735156 -0.02361222 -0.46953368 -0.15302584 -0.018711308 0.012298162 -0.045959774 -0.0619038 -0.32834342 0.08354967 0.23905037 0.1143386 -0.048884314 -0.06690109 0.22102775 -0.080197655 -0.024490252 0.1295686 0.81721836 0.24377146 -0.2318145 -0.24983999 0.41915074 -0.013291521
mn 0.48616552 0.3654471 -0.2499353 0.25013497 -0.043374773 -0.71683455 1.0100778 0.6552857 -0.48974383 -0.67659944 -0.29948533 -0.7141891 0.23473653 0.21145786 -0.23265249 0.026750255 0.37053052 0.51193696 -0.66496783 -0.6157028 0.025911624 0.20868887 0.49118948 0.3073855 0.7150066 0.14851749 -0.50702363 0.18934855 -0.57392055 -0.13125491 -0.3116333 -0.05942442 0.2997376 0.11893128 -0.30510867 0.3791466 0.7306867 -0.37640944 -0.023354407 -0.07613684 0.24050428 -0.03589179 0.013504849 0.106003426 1.1567454 0.5470626 -0.14391735 -0.08607901 0.16850498 -0.08833931
js 0.2913933 0.14947693 -0.28662616 0.12487608 -0.12258815 -0.37511557 0.75170773 0.7138941 -0.43526238 -0.3718479 -0.23936097 -0.36805293 -0.028979415 0.14817479 -0.36448708 0.14561796 0.07058113 0.31200102 -0.5485434 -0.4443817 0.118435495 0.27751118 0.3751138 0.2710609 0.7256981 -0.1290096 -0.48873276 0.1154028 -0.60802776 -0.1279797 -0.1411732 0.059651524 0.31655523 0.15632649 -0.34896958 0.2774612 0.30226126 -0.17257825 0.14475924 -0.116314076 0.13382638 -0.019996697 -0.119536154 0.06084246 0.7686633 0.1640896 -0.080377914 -0.06734854 0.26682663 -0.02654936
8 -1.2125218 -0.6323001 0.23242721 0.37205702 0.16847081 0.22153185 0.92747355 0.92060584 -1.4879603 0.18531361 -0.6788842 -1.2784165 -0.3213312 0.6031535 -1.416393 1.0822645 0.115832865 0.60280013 -0.85999537 -0.48544997 1.4046048 0.9381766 1.6183834 -0.5125808 0.19382344 -0.6945871 -0.88810563 -0.8326314 -0.7474528 -0.1635233 0.9103289 0.37972683 -0.7040804 -0.11424463 -1.1263387 -0.26750413 0.07051976 1.0801227 0.5260483 -0.39757204 0.5819158 -0.13913752 -0.06881673 0.14873797 0.9482512 0.08298494 -1.132094 -1.0298097 1.6728865 -0.0006409793
bw 0.5935943 0.4528112 -0.4386305 0.0023816144 -0.012969318 -0.80883074 0.83234155 0.92653495 -0.5300126 -0.7298605 -0.17362477 -0.59838504 0.1289763 0.08222296 -0.33596662 -0.14528808 0.18708074 0.4194902 -0.9878425 -0.5140293 -0.09065078 0.17373136 0.44434404 0.2508589 0.6108668 -0.08390376 -0.60073835 0.37282622 -1.0949292 -0.2870107 -0.42047906 -0.17591551 0.5180069 0.12149446 -0.41936162 0.46398452 0.49081272 -0.30893877 -0.07476625 -0.03228086 0.09096847 -0.13338156 -0.15549727 0.17846411 1.3123028 0.22653574 -0.0061572124 0.12988544 0.124449 -0.045205068
šsp -0.5570332 0.04733309 -0.12000135 -0.13157032 0.008398116 -0.15910086 0.6961716 0.7936595 -0.74808764 -0.39520904 -0.31875136 -0.83875674 -0.19149251 0.32419482 -1.1215371 0.42422062 0.3112654 0.29815426 -0.7859696 -0.30965534 0.92314804 0.41978696 1.238017 -0.13697506 0.06418312 -0.50083524 -0.6998091 -0.35340768 -1.061837 -0.04910132 0.38272783 0.16245106 -0.15429053 -0.14796777 -0.76044786 0.02503804 -0.044056688 0.5524136 -0.092044435 -0.005591544 0.3297272 -0.14353895 -0.060331736 -0.033946574 1.0676167 0.20116557 -0.74351484 -0.30600175 0.9013018 -0.028118892
twj 1.0109416 0.6023546 -0.4725008 0.31243262 -0.13846621 -1.0372478 1.2151859 0.757718 -0.3177475 -0.83612406 -0.3185734 -0.67782974 0.43890226 0.12840602 0.026768722 -0.2186698 0.37531102 0.57628345 -0.6656401 -0.78988737 -0.31058463 0.12399675 0.32883233 0.6503552 1.092709 0.37762627 -0.47444898 0.63595265 -0.6785684 -0.25643396 -0.70385337 -0.18019558 0.70958215 0.12761413 -0.0674377 0.5560826 0.9696125 -0.8407292 -0.10302135 -0.049584825 0.0895605 -0.011682454 0.00157479 0.040359445 1.2366576 0.62094015 0.15195419 0.18677473 -0.22850157 -0.15746547
tm 1.0181637 0.8473475 -0.46812603 -0.26079372 -0.016935745 -1.2472451 1.079353 0.95133466 -0.21568814 -1.2011116 -0.14231932 -0.78601956 0.3704676 0.008181372 -0.34515506 -0.59376496 0.528533 0.35552156 -1.0944436 -0.5460048 -0.42248535 -0.00054272864 0.5138962 0.42766467 0.4287155 0.29462868 -0.4873485 0.51176167 -1.4148654 -0.30154127 -0.5745137 -0.28257155 0.7470277 0.06537052 -0.36315587 0.58642334 0.71112776 -0.78317696 -0.5880096 0.16678452 0.083656445 -0.17755242 -0.026361348 0.16937675 1.5525444 0.55177873 0.09626998 0.58447784 -0.17982322 -0.17987283
ṯ 0.7443071 0.7404875 -0.38414747 -0.19745038 -0.0018044484 -1.101777 0.920132 0.98036474 -0.16926286 -1.1182114 -0.08832194 -0.6793433 0.26489717 0.024982406 -0.38618776 -0.5037393 0.41792247 0.22771017 -1.0864469 -0.39079502 -0.28798273 0.078260936 0.5698966 0.31110445 0.33719653 0.2116233 -0.4995378 0.51126885 -1.412474 -0.26636714 -0.4668451 -0.25710437 0.6687066 0.050213076 -0.35815823 0.54760945 0.5870152 -0.5435626 -0.59141356 0.17197436 0.1441558 -0.22081415 -0.087436125 0.13932331 1.386929 0.50061184 0.05598241 0.55131686 -0.10300826 -0.13520479
wsr -0.12471009 -0.18665913 -0.065396525 1.0553712 -0.1533408 -0.2418558 1.6034707 0.48433718 -0.9381958 -0.16744952 -0.5177091 -0.60653955 0.030025696 0.47387266 -0.08645657 0.70143783 0.007157982 1.0432225 -0.27943793 -1.159926 0.5569594 0.6105399 0.5238977 0.36266682 1.8114622 -0.028266698 -0.5578996 -0.09919513 0.27934837 -0.36432076 -0.021542925 0.3361042 0.014924719 0.3679458 -0.43229556 0.25022298 0.9482898 -0.030111717 0.8017305 -0.6934284 0.3199388 0.29391208 0.05619569 -0.015908768 1.0953554 0.43461004 -0.47360376 -0.86198664 0.89759487 -0.0003475599
bnr -0.9478437 -0.38131526 0.13512099 0.078471124 0.0850763 0.06818442 0.69507295 0.8546741 -1.0928048 -0.024960103 -0.5049212 -1.0040663 -0.24526355 0.42805266 -1.2296593 0.6993305 0.15532586 0.37786302 -0.8548368 -0.2969325 1.1464881 0.66862684 1.3955741 -0.44031808 -0.101991214 -0.53876615 -0.65367645 -0.619431 -0.8814324 -0.16717456 0.65826297 0.23001279 -0.48318884 -0.1570736 -0.8648383 -0.17252572 -0.05115436 0.8657711 0.15190992 -0.17860438 0.52617997 -0.16394229 -0.11132909 0.09004141 0.889426 0.08470018 -0.87098217 -0.652431 1.2834287 -0.077396154
ḥꜣty 0.7033639 0.4716349 -0.41031155 0.12108114 -0.10060286 -0.78347075 0.95861363 0.766784 -0.36931643 -0.77281964 -0.17869346 -0.53804517 0.15775041 0.08074943 -0.16786726 -0.14149982 0.19735534 0.38999578 -0.8279088 -0.5748025 -0.26557273 0.1957002 0.3592316 0.35255197 0.75620794 0.051088363 -0.4933798 0.3490378 -0.915598 -0.26418665 -0.45478588 -0.15796773 0.5424324 0.23460995 -0.32688567 0.43187743 0.5804154 -0.53631663 -0.042232506 -0.04774892 0.08491391 -0.08679119 -0.068597086 0.14796403 1.1816128 0.3816747 0.017563967 0.22429971 -0.040388897 -0.011206948
ẖꜣr -0.77231157 -0.34741288 0.057892054 0.16880472 0.07680573 0.009168104 0.6644548 0.7246355 -1.1069344 0.043438796 -0.5963875 -0.80330276 -0.3506813 0.39586982 -0.9637469 0.6210094 0.057927907 0.47199196 -0.40396196 -0.2193793 0.96912634 0.53735167 1.1573725 -0.3236919 0.26774663 -0.5331432 -0.6950758 -0.62021524 -0.58234406 -0.018384907 0.68132323 0.32672402 -0.36612475 0.065767065 -0.7929495 -0.18172036 -0.040704697 0.7280163 0.5180808 -0.37635702 0.34936342 0.0092309285 -0.012887676 -0.09460631 0.6408751 -0.010521881 -0.82063985 -0.7110077 1.2524341 -0.12933369
ḫnsw -0.27406266 -0.41891518 -0.030781703 0.6290665 0.16462824 -0.039357573 1.0490985 0.49682072 -0.94140404 0.094086714 -0.48805466 -0.80594504 -0.020819848 0.43218735 -0.29343006 0.7990465 -0.00391983 0.68946964 -0.5151353 -0.54639983 0.45303386 0.5243073 0.6728179 -0.08511975 0.79097474 -0.33596364 -0.7193461 -0.2776459 -0.12316827 -0.14000496 0.2323009 0.20594665 -0.1342068 0.07318617 -0.5701693 0.014695212 0.46288392 0.28576663 0.95462495 -0.42957535 0.25933412 0.11060565 -0.18922384 0.0060664257 0.87852186 0.16560179 -0.47148106 -0.84762084 0.812309 -0.018607115
dd 0.7417425 0.34770983 -0.362999 0.1524661 -0.08170579 -0.7375072 0.99655145 0.56712466 -0.50627863 -0.638733 -0.33293587 -0.78829974 0.33801422 0.08509688 -0.045431428 -0.13422197 0.29583934 0.60513526 -0.5185811 -0.7467321 -0.16141051 0.18020916 0.17465088 0.3516143 0.713975 0.12986977 -0.6041787 0.1707302 -0.6240147 -0.21713036 -0.32080618 -0.17212102 0.45524067 0.2400693 -0.308946 0.4564423 0.752153 -0.513901 0.068911046 -0.18833405 -0.06451721 0.12912591 0.018924978 0.044202182 1.2239759 0.431505 -0.12819527 -0.014285137 0.16472873 -0.17002457
(j)m(y) 0.362184 0.29736483 -0.33771566 0.40826485 0.0074634324 -0.6511854 1.1025475 0.3981107 -1.0177282 -0.13409851 -0.68914694 -0.7880713 -0.13594888 -0.038367916 -0.118230864 0.2143886 -0.028147766 0.5489066 -0.34672943 -0.9086932 -0.341574 0.43448135 -0.27140322 0.27744085 1.5310642 -0.47054228 -0.48150164 0.22023201 -0.455155 -0.16057043 -0.35437617 0.23357238 0.43246403 0.6774986 -0.56912756 0.28609443 0.60642105 -0.25489107 0.83769125 -0.64479816 -0.076186694 0.36800998 -0.18348478 -0.22686215 1.026563 0.05474791 -0.61102575 -0.31814492 0.5030286 0.35538793
r(ꜣ) 0.25338134 0.41419905 -0.35685903 0.49694964 -0.17673342 -0.5856533 1.2110043 0.47114304 -1.1243147 -0.45272842 -0.53150535 -0.96763366 -0.26079616 0.16397785 0.06674932 0.2947116 -0.15582167 0.924427 -0.18832688 -0.7420193 -0.25640267 0.27672458 -0.27392286 0.67011064 1.7315809 -0.5427914 -0.51755786 0.31086555 -0.12284468 -0.5044111 -0.36987332 0.049056876 0.28927833 0.73757416 -0.3319072 0.14348383 0.99908304 -0.49895075 1.1404421 -0.6798074 -0.17245391 0.21045141 -0.031219875 0.106515616 1.0738673 0.04909231 -0.6141004 -0.19126219 0.6658213 0.2828378
mry -0.023167176 -0.26307312 -0.081993476 1.0177687 -0.053808786 -0.1825938 1.3004342 0.29885325 -0.7984761 -0.026848715 -0.52640367 -0.59686583 0.107423715 0.44621718 0.1005646 0.70111275 -0.030912276 0.9184082 -0.051918413 -0.9956691 0.35999206 0.5873677 0.29413414 0.2943514 1.4992939 0.04934881 -0.49050105 -0.1523925 0.459502 -0.29839858 -0.0652825 0.2363009 -0.018599559 0.2830774 -0.26978222 0.140455 0.86127704 -0.087462835 0.8432781 -0.52803326 0.21814333 0.2681317 0.03891876 -0.07121048 0.9032137 0.37671414 -0.29781607 -0.7900948 0.68199533 -0.013223403
bwpw 0.67725796 0.7445586 -0.40095043 -0.3503053 -0.055552963 -1.0298915 0.6325037 0.98475677 -0.32219738 -1.1381166 0.027348261 -0.82981044 0.26958886 0.022284131 -0.55622923 -0.5047162 0.54721224 0.27302805 -1.2713853 -0.33689043 -0.21641661 0.09040045 0.69567126 0.14001139 -0.088353276 0.1739537 -0.5892642 0.4281704 -1.5432613 -0.20130515 -0.45364115 -0.43005145 0.46076086 -0.04838891 -0.5198067 0.5305213 0.48574927 -0.40164068 -0.7669964 0.26608613 0.15851472 -0.21108004 -0.03413028 0.34460545 1.3666109 0.5293539 0.008654841 0.45721886 -0.06955445 -0.16472445
wꜥb -0.040027738 -0.1563581 -0.22625619 0.49455154 -0.0371304 -0.23838608 0.950462 0.57910323 -0.89088714 -0.10974768 -0.3880524 -0.60987884 -0.054590996 0.28271234 -0.25261384 0.41412187 -0.11326198 0.6662383 -0.41562968 -0.64346683 0.28606483 0.44865412 0.43798453 0.10523613 0.90504694 -0.34738973 -0.6383111 -0.058462933 -0.33444405 -0.24088286 0.054096658 0.0989775 0.05176422 0.2699521 -0.496132 0.18396306 0.50995123 0.099893935 0.6015502 -0.409284 0.11537049 0.15507603 -0.11444253 0.035547633 0.9466572 0.1263145 -0.36809394 -0.5016345 0.67786187 -0.029220223
7 -0.86409783 -0.41893008 0.13073197 0.33564177 0.105852455 0.08859459 0.8293014 0.7658057 -1.2406398 0.033541646 -0.52251655 -1.0320156 -0.24166533 0.4768622 -1.0919571 0.8151964 0.09626323 0.46031794 -0.74155074 -0.44688913 1.0850527 0.7701437 1.2930276 -0.37344688 0.2042241 -0.5554439 -0.7281062 -0.5770389 -0.7009943 -0.1854019 0.6450435 0.253028 -0.4790401 -0.08888329 -0.90847397 -0.14946699 0.124312215 0.83195436 0.3287416 -0.32016698 0.43690714 -0.13839214 -0.053608604 0.14354776 0.85254323 0.11230909 -0.8860073 -0.79962236 1.2830698 0.04220322
1/2 -0.81035024 -0.28227022 -0.0723041 0.035616443 0.11978348 -0.1744945 0.73037267 0.984405 -1.2846245 -0.066210896 -0.59806496 -0.96104115 -0.3799977 0.42065832 -1.2022762 0.54422396 0.15420902 0.48183715 -0.6677061 -0.18546654 1.0491948 0.6011334 1.3823248 -0.3150702 0.3372812 -0.7226953 -0.848572 -0.5464651 -0.98227125 -0.044986088 0.7296072 0.32335356 -0.31642315 0.083528005 -1.0011021 -0.05976025 -0.022873893 0.7213677 0.32894844 -0.3864976 0.3245483 -0.06558697 -0.038618967 -0.04476667 0.92985266 0.05136785 -0.97860783 -0.6956652 1.3474516 -0.12596805
wꜣḥ 0.41721588 0.38117984 -0.24345908 0.02019951 -0.039789215 -0.6186235 0.60050756 0.5703839 -0.26573136 -0.562209 -0.11384402 -0.5106614 0.15240178 0.110151395 -0.20834668 -0.123382755 0.22477584 0.26177463 -0.54948837 -0.4174163 -0.06377081 0.16918625 0.3554665 0.24500228 0.35977766 0.09986246 -0.3643759 0.268435 -0.7398215 -0.13326913 -0.25015542 -0.13794161 0.36017078 0.093872294 -0.30989107 0.340037 0.43853202 -0.34393942 -0.23730521 0.013404037 0.09716372 -0.04234916 0.0036742159 0.11427629 0.9127897 0.356184 -0.061421633 0.124626234 0.0353939 -0.077695906
nw 0.31076378 0.28726074 -0.22622794 0.11577658 -0.0050682025 -0.52985203 0.9145138 0.6601201 -0.61681366 -0.5253849 -0.30734596 -0.6356399 -0.01258888 0.18716922 -0.3961547 0.11483337 0.19763581 0.46105433 -0.6200307 -0.4692931 0.118420154 0.22972961 0.4801934 0.11068428 0.65714806 -0.08545829 -0.5132705 0.12121606 -0.6755962 -0.20643722 -0.08677917 -0.041016523 0.18833496 0.20899373 -0.35921693 0.29071298 0.49570692 -0.1289586 0.13387917 -0.18733214 0.14739032 -0.056435093 -0.062200952 0.11553309 0.95378095 0.34022012 -0.32037896 -0.08105072 0.36907074 0.016866181
rꜣ 0.44604945 0.46173102 -0.2695278 -0.10375224 -0.057057485 -0.6907359 0.8271761 0.81022304 -0.33204713 -0.7364977 -0.1952986 -0.6370792 0.1136098 0.10341762 -0.45632777 -0.17183703 0.30329284 0.23959646 -0.88030714 -0.44093594 0.017014079 0.2162487 0.6304134 0.19068015 0.35011148 0.040217016 -0.5314607 0.20026554 -1.0742701 -0.14463162 -0.2489038 -0.081035495 0.3885078 0.054969966 -0.40689507 0.4013664 0.4139348 -0.30871603 -0.37673247 0.06381138 0.17311779 -0.14471395 -0.08749884 0.15047285 1.1295475 0.37883312 -0.07654137 0.16109776 0.16431901 -0.060295552
bꜣḥ 0.7104674 0.42242342 -0.31929314 0.2780621 -0.0864048 -0.70568484 1.0088668 0.6032834 -0.31532025 -0.582297 -0.33502072 -0.59773415 0.27069682 0.13632467 0.041741047 -0.0794198 0.2178545 0.44147277 -0.50610393 -0.57089 -0.33551756 0.14212832 0.16882028 0.48535007 0.9298372 0.12033186 -0.44774523 0.32720616 -0.49089703 -0.12916887 -0.5030304 -0.09441071 0.5236034 0.26950547 -0.17152882 0.39755142 0.7365463 -0.71057236 0.09890275 -0.048085116 0.08982925 0.047141086 -0.015379875 0.0057297945 0.95381576 0.43970716 0.04481654 0.12747858 -0.025035093 -0.039407384
ḥm.t 0.345897 0.32709432 -0.2904561 0.20910464 0.014033832 -0.6471986 1.0179675 0.78836614 -0.53817654 -0.61553663 -0.26647308 -0.5973807 0.07309428 0.21409528 -0.3133376 0.04343787 0.14291622 0.42013177 -0.66465235 -0.56438386 0.07674516 0.2668254 0.5648051 0.24147403 0.7354932 -0.047392175 -0.5383576 0.23580424 -0.68379885 -0.2180241 -0.14694867 -0.031246109 0.33241248 0.156976 -0.3457548 0.332315 0.5610064 -0.21535033 0.08517489 -0.13389426 0.20514819 -0.05026625 -0.09203845 0.0996358 1.1103135 0.36159518 -0.17977075 -0.14850609 0.31391123 -0.06451508
ty 0.14671032 0.23883048 -0.119278915 0.33105534 -0.10209792 -0.59233695 0.9556698 0.5448498 -0.56583124 -0.50030065 -0.30367047 -0.58598137 0.13446365 0.25139788 -0.2041242 0.12512337 0.26907638 0.526639 -0.45647988 -0.72670925 0.19136147 0.2853955 0.49661252 0.2612435 0.7517844 0.09044526 -0.35963675 0.19997753 -0.4196303 -0.22389051 -0.15631682 0.0092984075 0.12602347 0.07547822 -0.22765672 0.2375919 0.7205355 -0.16018367 -0.024416372 -0.22153527 0.2358541 0.024106802 0.019861085 0.041380495 0.9730058 0.37817165 -0.18805066 -0.21421285 0.34485912 -0.011445786
sḏm 0.7697421 0.6449469 -0.37310576 -0.08931345 -0.10456668 -0.90661144 0.7919766 0.728688 -0.12565856 -0.8942114 -0.0077564535 -0.5366604 0.27491754 0.0029522693 -0.1601727 -0.43485662 0.29774466 0.27130765 -0.79201484 -0.47272354 -0.3813622 0.026439385 0.3502586 0.35725635 0.4367644 0.22341225 -0.3720277 0.50787127 -1.0330553 -0.24965174 -0.5525695 -0.25655958 0.5939408 0.075854294 -0.21009892 0.46525356 0.526743 -0.6182527 -0.43192458 0.1214059 0.08081086 -0.08960663 -0.10364603 0.1292124 1.0865281 0.432312 0.1829235 0.39095038 -0.17060699 -0.085526176
ptḥ -0.5869902 -0.576533 0.05856829 0.83187425 0.2662096 0.12154403 1.2306123 0.6111236 -1.1734725 0.1356177 -0.59365904 -1.0307453 -0.16570494 0.5646046 -0.5466758 1.0324668 0.046496194 0.82108957 -0.7486514 -0.527106 0.732041 0.68966115 0.9695696 -0.30569902 0.6692454 -0.48736557 -0.9148068 -0.51607925 -0.19791272 -0.0797009 0.41153604 0.23040095 -0.37510696 0.070805535 -0.76778734 -0.08080767 0.37126687 0.52854383 1.1771834 -0.5014724 0.4290299 0.015009081 -0.21431305 0.17516072 0.9875765 0.2793824 -0.67210734 -1.1639922 1.0892855 0.04050087
stḫ 0.46052122 0.44578567 -0.37904283 0.16321318 -0.0011048004 -0.85186374 1.0909287 0.9254029 -0.5817308 -0.81272256 -0.25385216 -0.7268684 0.17321646 0.19688557 -0.3155442 -0.12746297 0.25930962 0.47682327 -0.8803257 -0.6314682 -0.014719688 0.23300622 0.53452396 0.31657755 0.7597929 0.029372774 -0.59242576 0.38532746 -1.0205112 -0.2834609 -0.3472038 -0.09035414 0.40413073 0.13127662 -0.41242233 0.45841512 0.622945 -0.37581256 -0.14963129 -0.11778538 0.1681527 -0.06390634 -0.10323987 0.1125436 1.3086631 0.4361312 -0.07303586 -0.005330504 0.19459106 -0.08274123
ḥm-nṯr 0.11892332 -0.32629183 -0.16813417 0.84338325 -0.030517725 -0.18929169 1.137197 0.34626606 -0.8768096 0.12177729 -0.46549684 -0.6774044 -0.017257351 0.316126 0.09240875 0.72841 -0.19271411 0.8535939 -0.13629523 -0.7427393 0.1424716 0.4367943 0.15126032 0.21590814 1.3116138 -0.27103463 -0.628531 0.037475158 0.18003778 -0.24712761 -0.11341123 0.15304212 0.11681574 0.25532886 -0.33493802 0.16507037 0.7631249 -0.03579113 1.0468291 -0.5631494 0.13398531 0.1897663 -0.13037942 -0.054562308 0.79783666 0.25162753 -0.23712236 -0.773053 0.58474666 -0.012692199
ḫpr 0.42779136 0.44228762 -0.27822286 0.12794074 -0.032670643 -0.7941933 0.8874061 0.7937824 -0.40841404 -0.72890264 -0.2244553 -0.64604515 0.17288226 0.20193075 -0.3348487 -0.12264254 0.2805524 0.34169304 -0.7124174 -0.52569914 -0.009976742 0.19327788 0.558286 0.34058604 0.60360754 0.12401579 -0.46982786 0.34784287 -0.85267645 -0.21568632 -0.31358615 -0.10013141 0.37897757 0.12177146 -0.35899585 0.37835103 0.65575993 -0.39193958 -0.25479695 -0.03413913 0.17352024 -0.047987893 -0.014989993 0.085099384 1.1418804 0.4462837 -0.10016398 0.07582999 0.16281675 -0.06792084
gmj 0.17267329 0.53224695 -0.19711113 -0.38367963 0.02812144 -0.64367145 0.42162687 0.72495 -0.21672755 -0.7349879 0.038007706 -0.46493292 0.083747774 0.09413749 -0.6033795 -0.28639668 0.3776943 -0.0035177525 -0.7945721 -0.05553416 0.18013975 0.0789555 0.7421337 0.05533692 -0.0903891 0.04170259 -0.33889922 0.24036579 -1.1272035 -0.076856256 -0.08257656 -0.14899915 0.24707109 -0.13502935 -0.4141923 0.24178353 0.19349325 -0.09317756 -0.7183139 0.23573701 0.21424852 -0.18096954 0.027844882 0.16182321 0.87309915 0.32615572 -0.14954202 0.22488841 0.07411719 -0.06227449
ꜥn 0.28977835 0.4593504 -0.32672343 -0.13661754 -0.0061499695 -0.7364586 0.66171956 0.87444323 -0.45674613 -0.7311231 -0.1213078 -0.6467477 0.093755975 0.10808617 -0.5185663 -0.21664242 0.2944468 0.22622408 -0.84864527 -0.33709818 0.03895509 0.18939704 0.6484321 0.13978975 0.25110582 -0.039473537 -0.5177975 0.28160232 -1.1406564 -0.19301493 -0.19424905 -0.13374668 0.31055915 0.037426017 -0.45877513 0.35829183 0.36627388 -0.22846216 -0.39551514 0.026419245 0.13086098 -0.10160055 -0.10473857 0.111192346 1.1157414 0.3132554 -0.16443777 0.16271421 0.19490515 -0.09289245
šmw -1.060939 -0.53049517 0.18574125 0.37489766 0.10688261 0.16768754 0.74105257 0.80773115 -1.4080448 0.16799541 -0.5643378 -1.165892 -0.24938743 0.5263767 -1.3240863 0.9795472 0.15908359 0.5043151 -0.84905213 -0.43783408 1.2227223 0.9401201 1.4527514 -0.52294564 0.008958994 -0.5566703 -0.80696464 -0.7176245 -0.73487025 -0.23267634 0.7708897 0.27087104 -0.675121 -0.09035846 -1.0244173 -0.23411417 0.0954428 1.0672296 0.34490347 -0.31688645 0.4929986 -0.17664842 -0.052385997 0.18173818 0.88091004 0.06558875 -0.93874 -0.83260345 1.4724852 0.020840904
bn 0.5380898 0.5551114 -0.33245233 -0.17476216 -0.0035941713 -0.85982245 0.7770905 0.8760399 -0.3000789 -0.8508977 -0.08047118 -0.6284473 0.17236449 0.06631082 -0.4808595 -0.28315154 0.40376586 0.21195473 -0.9948669 -0.35151598 -0.104501605 0.14046545 0.6099358 0.2018287 0.21530427 0.1406724 -0.43915704 0.36956596 -1.2130346 -0.21108973 -0.3217422 -0.21302074 0.45281303 0.007696256 -0.3773662 0.44725648 0.47069854 -0.37640476 -0.522833 0.11815654 0.20037052 -0.19104126 -0.078675196 0.19871193 1.1698735 0.45075637 -0.008785261 0.32217124 0.024381563 -0.101264775
ḥsb -0.7594172 -0.3765677 0.18836364 0.250642 0.00676195 0.20771499 0.49263778 0.48350343 -0.91193277 0.11609894 -0.4161624 -0.6835552 -0.1970247 0.3846266 -0.8424033 0.73828894 0.087405704 0.28606898 -0.42961767 -0.32614225 0.88189733 0.6037712 0.9843868 -0.3248262 0.04876776 -0.3887984 -0.46633315 -0.5030275 -0.3408036 -0.10108549 0.5495759 0.2129064 -0.49755085 -0.09137563 -0.6631912 -0.18935068 0.049968757 0.74321204 0.21830991 -0.17826551 0.35249725 -0.072488636 -0.00037626806 0.08062743 0.4779456 0.00989692 -0.6649906 -0.6193519 0.9976506 0.044927537
kwj 0.61398613 0.5964249 -0.3246615 -0.1393495 -0.015613987 -0.9501078 0.7954656 0.8307878 -0.32881787 -0.905309 -0.11115852 -0.68394697 0.24962181 0.03451657 -0.3704967 -0.35327443 0.41503516 0.27843603 -1.0029137 -0.34727886 -0.14543995 0.075536735 0.5040632 0.25109568 0.2712298 0.17979044 -0.4531328 0.44124463 -1.1899164 -0.21305233 -0.36883104 -0.28467667 0.4594216 0.04052685 -0.3038421 0.4521935 0.5860705 -0.3972616 -0.4418592 0.11225459 0.14999418 -0.22186059 -0.07192932 0.19578531 1.1651595 0.46418655 0.056456216 0.35652176 -0.058953606 -0.098019205
50 -0.7693974 -0.589984 0.1487046 0.47907418 0.24392067 0.17546572 0.99852335 0.743246 -1.2997577 0.10623324 -0.7013793 -1.1129018 -0.30211192 0.53113854 -0.9756951 1.0138482 0.11287292 0.6805497 -0.8687181 -0.3752742 0.98715866 0.787756 1.3067554 -0.47008842 0.33615667 -0.60058755 -0.95765007 -0.6367251 -0.6017888 -0.065735996 0.5946146 0.24972905 -0.44086495 -0.021388387 -1.0043379 -0.10935727 0.11376959 0.7228765 0.8708706 -0.4110878 0.50550663 -0.02059421 -0.13705426 0.11955726 1.0501269 0.17856173 -0.87244636 -1.0589017 1.3267261 0.009785414
sḫr 0.588443 0.5470659 -0.34015304 -0.22806387 -0.06418808 -0.8059847 0.5800112 0.7226376 -0.1890213 -0.8224026 -0.035330962 -0.47567746 0.20360385 -0.037495583 -0.30157685 -0.3351041 0.29592097 0.1919083 -0.8885834 -0.30625078 -0.26510522 0.08513706 0.38899893 0.2564252 0.19188468 0.13597557 -0.43063214 0.45398986 -1.1326737 -0.1601962 -0.40766364 -0.23764962 0.45625192 0.036086354 -0.307449 0.39262518 0.36548534 -0.45405686 -0.4263944 0.12571271 0.07413169 -0.12871136 -0.10309909 0.16554852 1.0668017 0.34687504 0.0538174 0.39113483 -0.12354584 -0.10969003
ḫꜣꜥ 0.29481176 0.4363543 -0.25102875 -0.20424527 0.007999953 -0.682607 0.58496386 0.8011914 -0.3450502 -0.67714524 -0.04189185 -0.5691253 0.07774566 0.06412662 -0.47018233 -0.2227282 0.306086 0.18110396 -0.92772096 -0.24843246 0.065459155 0.15545143 0.5993373 0.098524794 0.069850385 0.0051143137 -0.4115936 0.32986194 -1.1050786 -0.21049987 -0.18993223 -0.16900773 0.31936803 -0.003891921 -0.38228482 0.3178577 0.33769503 -0.12713541 -0.4490965 0.1090321 0.18433015 -0.17982662 -0.11713557 0.19472006 1.0081147 0.2782116 -0.069800615 0.16537018 0.13055907 -0.026993765
dmḏ -0.7275052 -0.30573696 0.024844207 0.19839506 0.13669403 -0.014480158 0.7068168 0.81682473 -1.1585405 0.040470883 -0.5162549 -0.9432226 -0.3084826 0.4486733 -0.98721105 0.6491355 0.083872736 0.4435034 -0.60432506 -0.26198885 0.9142079 0.66796035 1.1977652 -0.29337984 0.28499374 -0.6336239 -0.78920037 -0.5188114 -0.7802231 -0.056017574 0.5985613 0.22033396 -0.32727405 -0.009388212 -0.93393743 -0.10167583 0.09513631 0.63595396 0.3611264 -0.3015875 0.35686004 -0.011898021 -0.06393085 0.02775088 0.8995157 0.10348568 -0.90562993 -0.6863935 1.2087474 -0.027151788
jnk 0.46360597 0.49550492 -0.31500113 -0.08224731 -0.0020900972 -0.8055035 0.78605974 0.873529 -0.34385765 -0.79238003 -0.13141662 -0.61709845 0.16892305 0.075487606 -0.45393634 -0.2425093 0.31625417 0.25167742 -0.93807584 -0.35776734 -0.04187878 0.14701253 0.63040155 0.20378019 0.27938893 0.06080179 -0.46822622 0.33426633 -1.1436843 -0.2311669 -0.26702508 -0.15706041 0.39014855 -0.004214526 -0.3657267 0.35953668 0.41417342 -0.26987594 -0.3663129 0.081438534 0.20109539 -0.17273653 -0.1293972 0.19007248 1.1150464 0.39246246 -0.0279795 0.2120684 0.09816075 -0.12664443
100 -0.7339964 -0.47270203 0.09148086 0.42313114 0.22568065 0.07960631 0.96782714 0.81112254 -1.2282443 0.07391255 -0.6117732 -1.1056716 -0.31330952 0.49905282 -0.9640418 0.89564425 0.09491017 0.59675306 -0.81921375 -0.34787694 0.93371475 0.74046344 1.2714216 -0.4174967 0.29659426 -0.6107991 -0.85964626 -0.55791104 -0.68623245 -0.03912519 0.5974032 0.21950732 -0.3496008 -0.04586834 -0.97359496 -0.09341112 0.16013166 0.6850614 0.72786677 -0.41482493 0.42363876 -0.032267746 -0.14956357 0.1439996 1.0311905 0.20837997 -0.8145649 -0.97091734 1.266944 -0.008883725
jb 0.35211083 0.38298064 -0.30727005 0.08203244 -0.026161354 -0.68420285 0.86422306 0.80420643 -0.43590623 -0.63142306 -0.21982417 -0.6092169 0.09424921 0.16367552 -0.43509024 -0.05254668 0.2233816 0.34075436 -0.7866026 -0.44858482 0.018775526 0.20223223 0.5571432 0.25300846 0.4664867 0.0015024579 -0.5356253 0.22623442 -0.94660974 -0.18763807 -0.2181091 -0.08557665 0.36985022 0.0967268 -0.34202597 0.35537252 0.47283664 -0.24543121 -0.1866774 -0.050547592 0.18689239 -0.12816218 -0.083738625 0.10163402 1.1220552 0.35196584 -0.09032445 0.049712118 0.23218793 -0.09792642
ꜥš 0.4023324 0.5144474 -0.31620383 0.020674977 0.024508487 -0.7619732 0.9238013 0.89445657 -0.39777228 -0.77694386 -0.15956816 -0.5720282 0.12643322 0.16354159 -0.41333073 -0.20106429 0.287136 0.30613527 -0.8429035 -0.49190652 0.024559572 0.17582415 0.5723562 0.23483522 0.50712407 0.019830814 -0.4452747 0.36784655 -1.037494 -0.25768515 -0.30802128 -0.12327218 0.36637118 0.05673967 -0.35270673 0.41222894 0.55254704 -0.3119383 -0.29907787 0.0039221672 0.18864235 -0.1273212 -0.061102774 0.13949318 1.1953214 0.40130782 -0.060926802 0.11358379 0.16967122 -0.083399184
9 -0.77513254 -0.4014512 0.08988847 0.34610695 0.08652483 0.08562091 0.7368682 0.62540805 -1.0925771 0.09147787 -0.49960247 -0.8963242 -0.21084236 0.42335415 -0.93268377 0.80608046 0.085658796 0.46315148 -0.6036135 -0.41082084 0.9289958 0.6890434 1.0978775 -0.306667 0.28320178 -0.47523317 -0.67567486 -0.53638583 -0.5314863 -0.15457891 0.5804004 0.27967995 -0.43602446 -0.016272811 -0.78327316 -0.12768327 0.15688875 0.6986097 0.41854426 -0.30819142 0.38261008 -0.05286632 -0.06149586 0.07851829 0.7596733 0.09531515 -0.7962786 -0.76571995 1.1744846 0.013287677
mj 0.2717739 0.33007815 -0.26809874 0.008809204 -0.0032801807 -0.6864179 0.7851259 0.7711254 -0.5127743 -0.61974233 -0.17631738 -0.5690805 0.07552792 0.13208123 -0.41457725 -0.087903194 0.24301253 0.3290857 -0.74757177 -0.3426082 0.11468466 0.17207804 0.61881983 0.17631611 0.41588044 -0.06553849 -0.46206474 0.20572323 -0.86721593 -0.13714847 -0.12517123 -0.05873904 0.28232494 0.061139077 -0.3832885 0.32853442 0.4412675 -0.16788828 -0.21468896 -0.0816679 0.16784166 -0.09989547 -0.08253125 0.08877381 0.98809785 0.32332316 -0.18476684 0.01655246 0.2894926 -0.0968517
ḥrj -0.25480226 -0.20305665 -0.1594277 0.48814258 0.0038436297 -0.19798364 0.93095756 0.6090335 -0.9484944 -0.075577706 -0.39016297 -0.7027806 -0.11365137 0.32056075 -0.4281835 0.52901703 -0.011512357 0.6160142 -0.49553993 -0.5312282 0.4543565 0.4883 0.60121685 0.006434987 0.75481033 -0.3741358 -0.6434258 -0.15015289 -0.37808773 -0.20593253 0.20367391 0.11768765 -0.09244313 0.17719676 -0.58266354 0.08886282 0.44320673 0.25954142 0.5941703 -0.39824164 0.19767675 0.06440296 -0.13768192 0.01625935 0.9130913 0.11044319 -0.47778922 -0.60185075 0.8050006 -0.0033963232
rḫ 0.52260184 0.4965668 -0.28022403 -0.18112929 -0.0123181725 -0.7459059 0.61719316 0.7466252 -0.19443768 -0.7261778 -0.116052374 -0.48976484 0.12906125 0.01693433 -0.3892821 -0.2736506 0.3010812 0.14656463 -0.8157078 -0.2977814 -0.10997424 0.12772577 0.47484535 0.2684457 0.2812051 0.11420795 -0.3806108 0.34844592 -1.0237521 -0.15458335 -0.3642316 -0.16830078 0.4344439 0.043762643 -0.32631156 0.38637537 0.3937951 -0.373791 -0.43840942 0.15833978 0.14251998 -0.13995586 -0.06298493 0.15055014 0.98785347 0.3124867 0.030657029 0.29454502 -0.010380919 -0.046757996
jm 0.36620742 0.43497318 -0.25554648 -0.075062685 0.014324354 -0.6795747 0.65484345 0.72669107 -0.29096016 -0.7013374 -0.12127109 -0.5349473 0.103116654 0.069829166 -0.41160446 -0.16933306 0.30576503 0.21308827 -0.79339826 -0.31637785 -0.025598958 0.13379748 0.5359836 0.18942346 0.23500717 0.094077125 -0.40098426 0.31287083 -0.9988814 -0.16529974 -0.25719413 -0.16569579 0.32753012 0.0062832823 -0.3594194 0.34568435 0.3818743 -0.23477185 -0.3716226 0.09288052 0.1787537 -0.1575399 -0.07689422 0.15679267 0.9940145 0.3482832 -0.033826545 0.17188595 0.05081717 -0.080185495
ḏḥwty 0.17345808 -0.0064010513 -0.30990782 0.52670634 0.040241342 -0.3796082 1.0342479 0.64942074 -0.70146203 -0.2485353 -0.40336436 -0.62312686 0.08717081 0.23765585 -0.14889933 0.30964667 -0.017822947 0.6290797 -0.5282208 -0.6498308 0.09459215 0.36619908 0.309915 0.17457084 0.9864724 -0.19973856 -0.6351661 0.063521646 -0.39300463 -0.2539613 -0.15333837 0.058609277 0.19715202 0.30417845 -0.40299135 0.25382605 0.5628602 -0.15880637 0.62513345 -0.3588908 0.106098406 0.065191984 -0.17756574 0.009974856 1.0425617 0.19810925 -0.17800751 -0.4103412 0.43501797 -0.024357352
jp -0.25668576 -0.27862895 -0.110998735 0.63662827 0.051106922 -0.0006835044 0.87910354 0.41249433 -0.8579402 0.072684444 -0.37642244 -0.6247022 -0.03477165 0.321351 -0.23333341 0.66622835 -0.09371431 0.6071655 -0.2829397 -0.4784892 0.44636738 0.44712713 0.44626278 -0.014870448 0.7730182 -0.32228228 -0.56233186 -0.2438983 -0.013189786 -0.10066973 0.18303627 0.13219191 -0.12815996 0.11565909 -0.4101685 0.050684955 0.40467513 0.27412605 0.80088204 -0.43077654 0.16354685 0.06403635 -0.06619587 0.0074724103 0.6706555 0.08317485 -0.40303367 -0.7178127 0.71549064 0.007842232
ḥm 0.2848819 0.24804287 -0.20629402 0.23458257 -0.026452964 -0.48870537 0.7477833 0.5728939 -0.47820058 -0.38930252 -0.30180106 -0.541843 0.0862676 0.21649241 -0.1761772 0.04092574 0.1423876 0.3959061 -0.42754555 -0.55261 0.030936869 0.2541123 0.35121626 0.26468194 0.61078674 -0.012649856 -0.43376568 0.14001691 -0.44837332 -0.19166207 -0.1838544 -0.051043946 0.23313685 0.18006723 -0.35804632 0.25187132 0.57411534 -0.2348962 0.042694997 -0.12870376 0.1303829 0.050838064 -0.011435654 0.036950704 0.8857216 0.3469028 -0.19422658 -0.13691112 0.27672252 -0.064941324
30 -0.8153542 -0.3687247 0.08827688 0.18109047 0.14764543 0.079639584 0.7094727 0.75158215 -1.1185039 0.05272981 -0.558864 -0.92638075 -0.3319738 0.4453674 -1.0528202 0.68156445 0.0903197 0.42570186 -0.6430706 -0.22625497 0.9735391 0.6225537 1.1997161 -0.35862392 0.19380602 -0.6236476 -0.7219061 -0.562981 -0.74886477 -0.046832167 0.64535946 0.25142512 -0.39070722 -0.008892325 -0.9131968 -0.1472527 0.012536712 0.7173282 0.40424043 -0.34600964 0.34315047 -0.04890155 -0.06377169 0.044688568 0.81988543 0.07889101 -0.860719 -0.72439814 1.220971 0.008027694
ḥḳꜣ 0.14106323 0.041066926 -0.21805692 0.62141407 -0.038775858 -0.42244175 1.2360405 0.60606873 -0.6892729 -0.3254976 -0.4331507 -0.6317028 0.10604571 0.34660843 -0.13162431 0.4279872 0.069443524 0.7108541 -0.3998131 -0.8448881 0.23595743 0.46115413 0.44631976 0.33214292 1.2134775 -0.012443305 -0.56851375 -0.016940717 -0.19277017 -0.23363692 -0.07959236 0.13643366 0.19278568 0.25280458 -0.38796064 0.23849441 0.70613736 -0.16632918 0.52985984 -0.37997872 0.19996335 0.12287442 0.0054029822 -0.040081963 1.0576491 0.34833643 -0.25049883 -0.4345974 0.50768787 -0.033537958
šꜥ 0.37557524 0.61539835 -0.28095487 -0.20275876 0.02300865 -0.7224336 0.5449553 0.7561907 -0.15871121 -0.80900997 0.00907825 -0.4723861 0.15052933 0.036799 -0.46474797 -0.3398874 0.36077842 -0.009287959 -0.8796848 -0.15455002 -0.05215438 0.024340935 0.5935981 0.1159257 0.040205766 0.16128337 -0.37492716 0.37129614 -1.1134181 -0.19764046 -0.24523577 -0.20430708 0.35557687 -0.09272168 -0.27903453 0.3087451 0.23013717 -0.21262097 -0.54332083 0.23883878 0.20011225 -0.29615676 -0.04900524 0.1725822 0.9214651 0.3394782 -0.008820934 0.3642552 -0.08480529 -0.072374046
km 0.22945082 0.23466621 -0.19415216 0.22529355 -9.3177856e-05 -0.4882191 0.91350925 0.6272687 -0.39781907 -0.5190574 -0.24605106 -0.49698353 0.11163208 0.2250059 -0.26988184 0.15717503 0.11761129 0.42791432 -0.5641625 -0.5831903 0.14171812 0.2955367 0.4556429 0.2489542 0.730762 0.059522618 -0.41564584 0.12318971 -0.510519 -0.16431154 -0.16205001 -0.0121817915 0.2434826 0.09943926 -0.27116784 0.29384476 0.4903183 -0.19258602 0.09950761 -0.14467987 0.1892428 0.0025298395 -0.06169433 0.041718245 0.9654414 0.3216522 -0.075557336 -0.13893467 0.29258698 -0.06886522
tpy 0.012924897 -0.3204002 -0.15500608 0.8454864 0.0016795569 -0.11693314 1.0610107 0.3936544 -0.9163411 0.047281314 -0.4935411 -0.7918425 -0.0094877845 0.42539492 -0.041481845 0.68123686 -0.031246401 0.74204654 -0.28351846 -0.66165376 0.27080187 0.5209577 0.40265954 0.14764102 1.1143559 -0.21707858 -0.6794228 -0.11165251 0.027653567 -0.22759624 -0.0020456058 0.16413319 0.0141762225 0.22435857 -0.4424332 0.12122307 0.7212877 0.06679426 0.8993425 -0.453176 0.17215015 0.23413189 -0.09329327 -0.057166323 0.9029685 0.22062646 -0.353562 -0.76896054 0.69250965 -0.0034017728
ḥs 0.56953585 0.17647828 -0.21563762 0.5507576 -0.059351265 -0.39581466 0.9555512 0.2963267 -0.2933264 -0.22350669 -0.47300315 -0.46430454 0.24877042 0.20578639 0.26056212 0.23238361 0.06415074 0.48258552 -0.032099783 -0.6624538 -0.2347944 0.21784455 0.038282733 0.53888726 1.1765047 0.1530472 -0.36345646 0.14719059 0.1304239 -0.11619954 -0.38017762 0.060942475 0.41857913 0.33154675 -0.07872153 0.314858 0.7421675 -0.6409912 0.4978962 -0.16284402 0.08680539 0.15857029 0.07576443 -0.1366816 0.6740963 0.40190193 -0.028674783 -0.14796835 0.011911046 -0.05841492
psḏ 0.3735056 0.40916377 -0.20832758 0.14747803 -0.024420902 -0.64047426 0.9168222 0.6789602 -0.36257938 -0.6833295 -0.13590735 -0.45841482 0.13489059 0.16821082 -0.2210398 -0.10077329 0.22527878 0.3523643 -0.65961355 -0.52506775 0.04558098 0.14442705 0.44500157 0.25979352 0.63199854 0.115850404 -0.38700825 0.31440735 -0.6511401 -0.2165471 -0.3065458 -0.09782433 0.29457855 0.09211273 -0.21841703 0.33716854 0.5459309 -0.30814406 -0.16225335 -0.040710114 0.21014488 -0.065183796 -0.043609794 0.09491434 0.9845916 0.40229896 -0.037058704 -0.021947978 0.15646985 -0.054399587
wḏꜣ 0.4015425 0.41171756 -0.2524362 -0.10205831 0.0243101 -0.69454974 0.7302185 0.77125597 -0.3958995 -0.67709464 -0.25130677 -0.6943922 0.1629882 0.118641436 -0.44333214 -0.19179142 0.34815627 0.27450693 -0.78971845 -0.29180828 0.004666411 0.122601405 0.5880679 0.14680976 0.284443 0.07329964 -0.4339321 0.16940324 -0.9789704 -0.17293957 -0.19464277 -0.13540079 0.32016754 0.07203664 -0.3358442 0.3008379 0.46624896 -0.27963376 -0.2609038 0.068160586 0.10060835 -0.14109145 -0.028138053 0.07748209 0.9792417 0.34837723 -0.10880888 0.24407446 0.16899732 -0.08065453
ds -0.9481403 -0.46911588 0.19078928 0.23530999 0.14023447 0.117807455 0.83317935 0.8239148 -1.195782 0.024257878 -0.5595538 -1.0655994 -0.27533337 0.4916072 -1.1959162 0.842071 0.10619951 0.49493694 -0.8046868 -0.3638446 1.1597216 0.7565934 1.3785677 -0.4529389 0.10635594 -0.5531923 -0.76215756 -0.6448123 -0.69478476 -0.16718295 0.73648405 0.25188395 -0.5685431 -0.09760681 -0.9425853 -0.1983919 0.056506943 0.8659573 0.3938052 -0.2890525 0.5272263 -0.13523585 -0.08726804 0.14361936 0.8980735 0.098549336 -0.93796027 -0.82545936 1.3499584 -0.03634911
wꜣs.t -0.042735774 -0.18997131 -0.13924943 0.6200887 0.011472038 -0.1614743 0.94245493 0.39345548 -0.749637 0.0013187056 -0.44155088 -0.6333115 0.05186491 0.32833004 -0.10706356 0.531063 -0.020557774 0.64334583 -0.19648954 -0.613403 0.28627825 0.43906054 0.32617623 0.16121998 0.9201096 -0.18071702 -0.55280787 -0.11196883 0.020211356 -0.15814152 0.014899202 0.12997197 -0.019294497 0.20999046 -0.33300176 0.09198213 0.59102225 0.012954376 0.7158103 -0.37731564 0.12068661 0.13762824 -0.075456955 -0.012801674 0.6981642 0.23546304 -0.34470454 -0.54674083 0.5877938 0.041555524
ḏꜣ -0.44698927 -0.2157061 0.079735175 0.14542948 0.10537797 0.049221396 0.51248866 0.4930518 -0.6552283 -0.017245982 -0.3208304 -0.60282725 -0.18194817 0.26094937 -0.65461785 0.5012677 0.06966802 0.31388167 -0.53512645 -0.19485678 0.57324123 0.44504955 0.81250495 -0.24816477 0.07681537 -0.32323232 -0.4935294 -0.2841478 -0.49798292 -0.04148701 0.34907037 0.14608991 -0.2242733 -0.059990082 -0.5610901 -0.04331484 0.01997349 0.42455733 0.26166973 -0.15185693 0.30342594 -0.061725244 -0.077166036 0.10508605 0.6004637 0.11481186 -0.46517557 -0.48759606 0.7137246 -0.013899447
kꜣ 0.21268386 0.07640883 -0.18754579 0.4606639 -0.010735949 -0.42361686 1.056115 0.58875513 -0.6424831 -0.34211412 -0.43135694 -0.6337655 0.115213946 0.29655415 -0.19222893 0.26685148 0.08620319 0.58859265 -0.38817015 -0.67026365 0.16875301 0.32402042 0.4237561 0.31358185 0.9639441 -0.07517492 -0.5129232 0.04589466 -0.33032656 -0.18817846 -0.15384749 0.10074694 0.20817313 0.20071195 -0.34600863 0.27351794 0.6589303 -0.19225301 0.34642044 -0.29017526 0.16329858 0.09268375 -0.037637368 -0.0036125996 0.9958576 0.3339987 -0.24535151 -0.27997974 0.4580623 -0.06621522
mšꜥ 0.3496169 0.27041337 -0.32644895 0.31951544 -0.04927913 -0.5336895 0.8722505 0.46144894 -0.69757974 -0.29061386 -0.42542264 -0.60038525 -0.021210248 0.05089226 -0.10808658 0.09951428 -0.0045877025 0.53364086 -0.38029203 -0.5776792 -0.20014398 0.27418262 -0.01439388 0.3080137 1.0694839 -0.2573816 -0.43821332 0.18176122 -0.4170402 -0.22218175 -0.27191186 0.05841027 0.35145295 0.38275707 -0.3240553 0.23581868 0.57909817 -0.27767345 0.560827 -0.33469492 -0.06611369 0.16527593 -0.1397694 -0.020242324 0.890876 0.10915014 -0.28585708 -0.106458366 0.34301665 0.11663752
ꜥḏꜣ 0.8212991 0.68290377 -0.36326393 -0.13388216 -0.07137999 -0.96365833 0.8234147 0.62251896 -0.10988601 -0.8782641 -0.11220826 -0.5843371 0.36349905 -0.0048831254 -0.08388681 -0.50185317 0.3827342 0.32672706 -0.7174348 -0.5885646 -0.39468527 0.05195243 0.16320375 0.38586295 0.46409842 0.27255872 -0.36711812 0.4431194 -0.94665617 -0.30770144 -0.5035484 -0.24568199 0.58659613 0.11237579 -0.23567812 0.504467 0.64915335 -0.7156285 -0.36853525 0.03713259 -0.012685114 0.0073207812 0.038176533 0.08424082 1.1677707 0.429543 0.11080506 0.41709685 -0.19162017 -0.13743018
ṯꜣty 0.32624462 0.18770343 -0.2411279 0.22607645 -0.07062897 -0.4722437 0.72823596 0.4901589 -0.54393154 -0.38556045 -0.26824477 -0.53375214 0.04479227 0.07617493 -0.1743141 0.06516045 0.07183698 0.4427568 -0.46257484 -0.49788952 -0.056385916 0.24276723 0.18616346 0.2246623 0.7118224 -0.088780835 -0.43593416 0.21439776 -0.51579404 -0.22324982 -0.24692976 -0.015109051 0.23769855 0.21950847 -0.33642867 0.2422177 0.518776 -0.24385405 0.24562497 -0.21247543 0.06623298 0.07223381 -0.10668898 0.0164271 0.82985836 0.22231425 -0.1653154 -0.057388585 0.25670147 0.047842935
šd 0.22127716 0.06773425 -0.18978256 0.36725482 -0.0057911198 -0.39584062 0.8259176 0.4950297 -0.58070934 -0.24654305 -0.34183022 -0.60603863 0.11291171 0.22289215 -0.165894 0.1999238 0.116595134 0.4716485 -0.43291903 -0.5185932 0.10170739 0.25930253 0.36116114 0.22091132 0.7016988 -0.06496149 -0.462737 0.067239396 -0.35525814 -0.17026109 -0.1287179 0.041818827 0.20312129 0.11538335 -0.29058963 0.19350033 0.5373183 -0.16619195 0.31697103 -0.17712282 0.09730736 -0.0066577983 -0.06355465 -0.0049270047 0.8363099 0.21418494 -0.1953136 -0.2315138 0.3560846 -0.044697072
mw 0.08835714 0.22788392 -0.17328705 0.06979242 -0.00433931 -0.48791522 0.7170913 0.6667469 -0.4856975 -0.46297127 -0.24259833 -0.6368803 0.029552683 0.2051177 -0.5101539 0.09303891 0.25427136 0.31615195 -0.6897184 -0.3501992 0.24087417 0.2572912 0.6615627 0.061507337 0.33188504 -0.074263945 -0.45822194 0.08241054 -0.76387817 -0.13476111 -0.07492194 -0.04354134 0.18422426 0.022159137 -0.42576554 0.23393755 0.3388245 -0.037523195 -0.093072265 -0.06536499 0.22343364 -0.09839342 -0.03799585 0.08803814 0.9251243 0.26134574 -0.26348528 -0.080120794 0.37130046 -0.044565767
ps -0.49843177 -0.2589983 -0.0038836543 0.34541318 0.059946593 -0.06681135 0.7911323 0.66866136 -1.0464394 -0.019027036 -0.47332624 -0.8158306 -0.13593967 0.36367798 -0.72753227 0.6042362 0.013384815 0.5123111 -0.56319195 -0.47224754 0.7516054 0.57057047 0.86755085 -0.18569623 0.4048038 -0.41278407 -0.6110053 -0.3637897 -0.5048075 -0.20898278 0.4136529 0.21731134 -0.23123983 0.057463437 -0.6633488 -0.02318353 0.24358058 0.51172584 0.41331473 -0.33754006 0.308148 -0.015075398 -0.08819721 0.026646309 0.829757 0.0800047 -0.67938864 -0.61327654 1.0200815 -0.052105807
ḫ 0.27321386 0.2725072 -0.15631083 0.02839784 -0.016593447 -0.42100552 0.64122957 0.57823944 -0.24038438 -0.4509879 -0.20983125 -0.48561743 0.07209045 0.07832955 -0.26672503 0.03336397 0.19487904 0.250315 -0.5247238 -0.34412196 -0.05947268 0.16893308 0.426872 0.18350369 0.45630562 0.0030744916 -0.40406808 0.10344574 -0.65551615 -0.10371211 -0.20470199 0.0071481974 0.28212237 0.12781149 -0.3243336 0.26472935 0.32493666 -0.33120108 -0.044465046 -0.022814374 0.12512091 -0.0252765 -0.07783554 0.060827967 0.7862256 0.2620971 -0.105974995 0.03877009 0.14821814 -0.02173726
rnp 0.112345845 0.12757608 -0.13405903 0.08721798 0.00022534383 -0.32089865 0.7079469 0.6324862 -0.46472043 -0.32353845 -0.32963642 -0.5870693 0.02069355 0.16242145 -0.44533768 0.20020522 0.13278507 0.27754334 -0.52671796 -0.37518132 0.18758096 0.31404912 0.5621527 0.11169046 0.4959895 -0.12432213 -0.5299281 -0.049506042 -0.63759464 -0.1342363 -0.0073819994 0.07205934 0.14904681 0.15134253 -0.44149062 0.15998524 0.27837166 -0.106711276 0.12254332 -0.10811754 0.18789548 -0.057182364 -0.06777167 0.06957016 0.8238058 0.25201458 -0.25748688 -0.105130725 0.38712662 -0.029242322
ḥb -0.018143658 -0.1152989 -0.16113825 0.38575825 0.05315306 -0.21440987 0.8403417 0.49058726 -0.73058283 -0.115791954 -0.33913907 -0.6202857 -0.0019496337 0.26491925 -0.23460811 0.36632884 -0.006281169 0.49667406 -0.42483604 -0.41519463 0.218976 0.32086274 0.4252261 0.053225715 0.6010958 -0.28218013 -0.52586204 -0.093727544 -0.32260555 -0.14330512 0.040133614 0.076801315 0.033469193 0.16698001 -0.36930048 0.11188909 0.417077 0.0772092 0.49551082 -0.29345497 0.15374066 0.04211695 -0.088603206 0.0504579 0.79856706 0.16564636 -0.3076546 -0.43805775 0.52581084 -0.042652108
mnjw 0.21992813 0.19473992 -0.30850837 0.17623514 0.0155332675 -0.49751973 0.79086685 0.7296555 -0.65107477 -0.40401715 -0.25106332 -0.66072553 0.051047552 0.17489874 -0.30801323 0.067604564 0.10267213 0.43465665 -0.6635444 -0.4945628 0.08379173 0.2828284 0.42131615 0.12119793 0.59401184 -0.16674465 -0.52568555 0.1513276 -0.75071377 -0.22673205 -0.11045531 -0.0550139 0.24017055 0.17133036 -0.46580935 0.28819892 0.46047154 -0.07623376 0.16957828 -0.19539262 0.07584208 -0.040049527 -0.11614633 0.12552741 1.0428854 0.19705816 -0.21240069 -0.1480411 0.39033136 -0.048824944
ḫtꜣ 0.32008862 0.31663138 -0.33190173 0.1870631 -0.047997847 -0.5839938 0.98236376 0.85357106 -0.5045805 -0.667829 -0.2517499 -0.5460435 0.04038754 0.15980564 -0.31655827 0.035132512 0.087984465 0.44512516 -0.7308138 -0.5956762 0.063931026 0.31672737 0.48347333 0.27760342 0.76803386 -0.067642264 -0.5097819 0.21960011 -0.87599134 -0.20151874 -0.20795636 -0.03682291 0.40056437 0.19925006 -0.3530657 0.3762055 0.5001693 -0.27612945 0.08864073 -0.1312462 0.10857964 -0.07608344 -0.17429459 0.06167135 1.1114479 0.27623522 -0.055256065 -0.024537526 0.24225952 -0.06377597
bḏn 0.30905882 0.29187536 -0.22103325 -0.106161766 -0.06942019 -0.6012965 0.5353422 0.70855975 -0.61538243 -0.62516636 -0.17056651 -0.9056132 0.19514416 0.107392326 -0.54717416 -0.08504952 0.38839126 0.38472226 -0.85864216 -0.43914363 0.104976 0.22279793 0.5551079 -0.024097953 -0.029414468 -0.034413535 -0.5820646 0.017154157 -0.9285258 -0.05045716 -0.092597246 -0.22973968 0.15325439 -0.022110136 -0.51887983 0.36406082 0.39454105 -0.048252944 -0.32424948 -0.05603825 0.10460079 -0.030669998 0.05752412 0.2810506 1.0535643 0.43234214 -0.20109314 0.0071590138 0.24461575 -0.097148724
