1902 50
yetmdelEwi -0.81435573 0.080317035 2.439032 -0.14060897 -1.882287 0.6416595 -5.418411 -0.35712156 2.1057134 3.0243464 0.60372823 4.6896367 -0.99789464 -1.4209535 1.5136625 -0.4947867 0.3739112 -0.66729146 0.040909592 -1.436427 4.1565523 -1.930325 0.8447033 1.4682878 3.3197556 1.0500427 -0.027549597 0.40038502 1.1445673 -2.0565596 2.1975393 1.1437743 -1.3877883 3.1434128 -1.412034 0.97080904 -1.6598341 -2.239046 1.7270945 -4.062844 -0.079088606 0.2796892 -5.6748023 -0.55611575 -0.9584554 3.2250638 -2.2162302 0.10999479 3.2829573 0.8668
wEmnitX -0.09926175 0.22808349 1.2567186 -0.121148825 0.019994566 1.3340082 -4.354975 -1.2759973 3.7625225 4.5417957 0.7908276 3.9257228 -1.6944503 -1.729932 1.8089434 0.6127876 1.4766555 -0.7393898 0.90247977 -0.7336619 4.6983333 -2.0609384 1.0599372 -0.41768232 2.3219852 1.1706263 0.8131834 1.7611359 0.5835115 -3.4116523 1.6000329 2.398909 -1.0501252 2.3640513 -2.107921 0.40725532 0.543993 0.46811232 -1.380459 -3.9546204 0.0037170404 -2.670174 -4.001252 -3.1759396 -2.1935337 4.0336413 -0.6755709 0.5088733 3.565949 0.6337559
aribet -3.2367558 -0.9061591 1.7028168 -1.1558326 0.5724867 -0.5683439 -4.145871 0.59200275 1.0588014 2.2473247 -1.6930873 2.5620577 -4.4506626 -1.5301347 -1.1498586 -0.88246655 -0.6852541 3.2547646 0.4875226 -1.6244738 4.8780866 1.2109973 -0.21150742 1.244749 1.6043435 0.5065789 -2.0852957 2.449785 1.8195742 0.1760813 3.182555 -0.15731543 1.2030255 1.3920425 -0.89964837 0.6649864 -2.2577584 -3.3791945 2.2735245 -3.076729 0.010886604 0.15181048 -7.045901 1.8480426 -2.5444643 2.5610785 -1.6636983 -1.5547272 3.916466 0.34454155
ateqi 3.9230652 3.1903 0.8216838 0.21589234 -2.6448536 -0.48726085 1.6720166 0.40680015 -1.6276288 0.045988813 1.8163352 2.42786 0.089154385 -3.1482017 1.6638036 0.05185972 1.8934485 -1.1617206 1.3264154 1.199626 -2.0508113 -3.736356 0.09818766 2.097048 -0.6452689 1.3060532 0.7616712 -1.9385264 2.0300937 3.4978843 -1.0959256 -4.200608 -3.0454717 0.84775025 1.0279882 1.3063251 0.28939295 -0.6675884 -0.24396378 -0.9238426 -2.458928 1.7508978 3.1521454 -1.4893605 0.3242238 2.4785542 4.8268595 -0.5916468 -4.0468545 -1.9971575
belElEke 1.3558542 3.4050756 -0.0462792 1.0196519 -1.7577349 -2.0877554 4.2794366 -2.4633913 -4.044147 0.32785967 -0.99631906 1.1837857 0.22740765 1.4258046 3.5601006 0.039597947 2.2747881 2.0203686 1.1461897 1.6488789 -1.4784132 -1.3312906 -0.08336639 -1.6348631 2.6613595 0.65541387 0.44939473 -0.6661186 2.4120762 4.4822655 0.08128368 -3.2964795 -0.8148277 -1.4181703 0.3190218 0.15964447 0.80714893 0.11887137 -0.27386752 -0.14079227 3.0992477 2.5179179 2.0471022 -0.28645253 0.50049824 -0.14509317 2.8096917 0.71034443 -4.1959224 0.84468555
mdetEwi 2.8421097 2.2942936 1.0358548 -1.7573899 -2.3368118 0.8772439 -2.8681746 2.3217008 1.36835 2.8561761 4.7530437 1.8859949 -0.62898254 -5.909143 -0.87073886 -0.43194923 -0.8575116 -1.5001299 -0.8042993 0.3794181 -0.88034284 -3.3468485 -1.6829855 3.8307416 -3.4892476 3.9523375 4.2410893 0.18942448 0.858155 0.23061562 -1.6933209 -3.5691428 -2.7649462 1.1736344 0.953445 0.9664847 -2.8301704 -3.1833117 2.0198157 -1.6527257 -4.298207 -0.35376745 2.6025107 0.8962776 1.9324608 3.4091074 1.4921492 -1.338044 -1.7731133 -3.1231377
terikelEwi -1.6648803 -0.31201997 0.068203785 0.010425892 -1.1233598 2.2153583 -2.7615752 -2.4391882 1.8882533 1.6815513 0.35975707 -0.8434782 -0.3720934 0.7605877 3.4501684 -0.8930146 3.3239167 -0.83386767 -1.045182 2.7637002 1.4108111 1.3715165 1.8769152 -0.5802262 -1.6042459 -3.448465 -1.2060635 3.086464 2.8420334 -3.5729616 1.6740786 1.9896976 -1.0996509 -1.5146918 -1.2370712 -0.39809254 2.5333524 4.833373 -3.4647653 -0.27727214 2.7643905 -0.077755086 -2.5596354 -2.983551 -0.47394258 0.54969734 5.458662 -2.0549405 -1.7281818 -0.029140789
SmlE -2.4467132 0.45577398 -0.95422876 -1.972635 -2.8952234 -1.7222399 -5.8519044 1.1089364 2.7366505 -2.5856223 3.4055388 5.317179 -3.5876086 -2.7490275 1.8535376 -2.6236618 1.1159139 1.5792679 -0.9143899 -1.096148 4.9720325 -1.9030682 0.8498853 1.100163 1.6241878 1.7615827 0.7054321 2.5386186 1.140471 2.9121535 1.0363003 1.3361948 1.1507143 1.092937 -0.23915726 -0.049010675 1.0661498 -1.5871276 -0.4197042 -2.3313458 -3.7657492 -2.043132 -6.049141 -0.81885016 0.7825654 1.0999899 0.90552753 -1.3275176 0.680148 0.18407892
qE 0.7712561 0.36464155 -2.8652601 0.6758866 -0.9529851 -1.3773103 -1.4492285 2.862816 -4.005141 3.078982 -1.7430218 -1.982673 1.2344836 1.585496 -0.005796026 -1.6334028 1.6041977 -2.1333365 -2.6088462 -0.55598986 -0.47144094 1.0754801 0.45680985 2.0778842 2.2690442 -2.0020194 1.977525 -1.1049671 -0.6516515 -1.7985548 2.1267474 0.5644805 1.6207082 -2.3711782 -0.1310342 -0.7379954 -1.3483038 2.6577582 0.7263124 3.4842606 2.1627684 -1.0804535 1.8259951 0.15234993 0.63646555 -0.9953877 1.7894839 -0.6204793 3.7937703 -2.0454805
Sklte -1.4807519 1.1985813 0.8982866 -0.8572558 -0.64756405 2.6192534 -3.1582713 -3.5051963 1.3154941 3.755872 -1.9293417 0.4509362 -2.9664142 1.3587273 1.542717 0.22414924 1.9487839 2.1136386 4.2785835 0.97570103 2.5464895 0.2020526 2.4922752 0.38235363 4.145749 -1.9605738 -0.5637787 -0.039895076 1.7005243 -3.2177525 3.2055597 2.1986318 -1.9572421 1.4258739 -1.6860931 -2.7605531 -0.70059764 0.3021983 -0.6592286 -5.482868 2.2906365 -2.8623965 -3.4114075 -3.0821593 -1.5214828 1.6385792 2.7157712 1.573845 3.7348146 1.2173777
wi 2.241024 2.321739 1.0978417 -0.60415846 -5.4426107 0.031156564 2.0611687 1.934679 1.4626123 0.72998565 0.846854 1.8017306 1.0922116 -3.636996 2.3621445 -2.599693 -0.9628025 0.08312227 1.6733954 0.9357557 -0.7458207 -1.7903094 -0.09918186 1.9457668 -2.6654003 1.812472 3.7010088 -1.5323108 0.2793372 2.8297863 -1.185902 -7.9509788 -2.5393758 -3.3567886 1.5138158 5.7740374 0.29894388 -0.009610379 -0.2761153 0.04421473 -0.32771358 -1.3852997 1.6051391 -0.08876583 1.1092749 -0.777617 3.7206256 2.7292674 -1.572126 -0.66953665
wESi 2.9818947 -2.2981312 0.9963432 3.6223247 -0.91043663 -2.16033 1.6303235 -1.7241018 -1.2651595 -0.88283455 4.555002 -1.4423953 5.7060556 -0.6736755 3.240607 1.6339495 1.1180918 -5.4070024 -4.144057 -1.2341484 -2.040672 0.4845691 0.8253015 -2.4142044 0.13377026 0.5303084 -2.2047093 3.5751684 -0.5662028 -1.6311873 0.9971336 1.890277 1.0674759 0.4268371 1.5643846 -4.2728815 0.6674277 1.6808743 0.0651453 3.8227136 2.3031151 2.4718843 -1.8715084 -1.7426744 0.4954726 0.19576572 -0.910478 -0.7537288 -0.5039803 -0.76047814
wES 0.5539066 0.86756957 -2.381366 -1.4599795 -0.44403604 -3.030535 1.8977445 1.0439471 -4.269803 -0.5779003 0.25751397 0.8459388 1.1922288 3.447495 -1.5204238 -0.5560548 -0.26610288 -3.5632765 -3.375374 0.5660843 -4.051523 1.0716873 2.5020413 0.6302541 -0.7708963 0.56860304 0.73977125 -0.122408226 -2.1101906 1.8384378 5.2514772 2.7808483 3.3500085 -1.4114205 -2.395182 1.1969422 -3.991872 -0.66289806 -1.7747643 0.83358645 2.0696516 1.2574642 0.73077494 -4.900864 -0.053323597 4.3851357 -0.72821873 0.14951216 -0.4573395 -2.351796
qEwi 2.3739486 1.3859634 -4.5104084 -0.656141 0.5174926 -3.5125892 -2.1605277 -0.9864352 -5.2863183 -0.119585074 0.108654186 -1.3791088 -0.15269272 2.4507804 2.9565048 -1.2638563 -0.88253707 -4.759241 -2.3617187 -1.7011602 1.1262643 -0.259045 0.32092738 -0.91426736 1.170034 -0.39429328 1.4162136 -0.8764332 -0.49886382 2.7935567 0.04559788 1.5074419 -1.8200524 -5.319009 1.3807791 -4.777045 -0.3313807 3.2747726 -0.95126957 2.1648242 -2.4577155 0.46705255 -2.114725 -3.0636032 -1.9606248 -1.6100688 0.9452393 -0.29781282 -0.69865537 1.8479662
yetmdelE 3.9584281 3.070795 1.2731199 1.007415 -4.9067225 0.35160676 1.8940649 -0.33138224 0.31551483 -0.22113901 2.102763 2.990615 0.18223482 -3.47613 -0.09926958 3.5520663 2.845403 -2.4912436 1.7843393 -3.7937489 0.37861067 -4.8364906 -0.90167344 0.9184613 -2.4735339 3.7538857 0.83865255 0.1820678 2.3246863 4.8692 -4.0417495 -3.4839692 -2.8467162 -3.1287522 1.2546976 0.047029532 -2.855936 -0.3909778 0.51411533 1.3305157 -2.3034296 -0.06801383 3.773883 -0.45601386 1.9478196 4.428493 2.6397114 0.051491126 -2.5528848 -2.331121
aqebetEwi 0.33993524 0.83387667 2.8246646 1.4258591 1.5074029 0.096105725 2.4886312 -1.0375125 -5.006936 -1.8383172 -0.68859935 -0.5666833 2.236939 4.437977 3.4743063 1.5181961 2.3732939 2.1514761 -0.08928877 1.199977 0.71975267 -0.2997179 -0.38206616 -2.3236852 3.2474744 -2.1125245 -1.2803472 2.5338857 2.5311136 -1.1451875 0.2503078 -3.7308133 -2.0541933 -0.5854637 0.716774 -0.20333049 2.701419 2.4062018 3.9412124 -2.1150541 4.300509 2.7030344 -0.3689549 0.51090145 1.8845716 0.3564009 -1.9490495 -1.7878872 -2.6248121 1.4972672
l -1.625511 2.2349865 -0.025926357 -1.6585972 0.63309354 0.9976797 2.635788 -1.0078102 -1.3673314 -0.8172975 1.8957808 -1.8505824 -1.0343385 -1.4058276 0.3249146 -0.23218057 -1.3499197 -0.09210978 -1.2385441 2.3758202 0.90754855 0.21930638 1.8061479 -1.6138136 -0.8284694 2.2418015 0.8700179 -4.6796217 -0.1718003 -0.81384087 2.721977 0.79075366 2.9388902 1.2781403 -0.14131008 2.7344997 -1.1429571 2.1098363 -0.22227614 0.63077074 0.7374487 1.9916265 -0.69115484 -4.5920773 2.889371 -1.3345267 -0.28178328 1.0977857 1.479929 -0.893438
qEre 2.0479753 -0.06421014 -0.32943687 -1.914386 0.42099464 1.152594 -6.307636 2.4068608 1.388303 1.7859819 2.247202 2.913357 0.939214 -2.7782185 -2.1354542 -1.5630546 -1.9056599 -2.8645496 -0.87914884 -0.7352501 -3.8699472 -4.421567 -1.6740352 3.648511 -4.101654 0.99365866 1.1875739 0.1518436 -1.5496314 -1.3017668 -3.6457896 -2.4917345 -0.5832556 -1.0003487 2.045573 2.8091435 -0.49285686 -1.837686 -0.057771932 3.3187068 -4.5568876 -1.5053382 3.047209 3.0965505 -0.05596604 6.3221917 3.524933 0.13037091 1.5663621 -1.2635387
tedxelEwi -0.79086584 1.8041598 -3.3729486 2.345596 -0.14468056 -0.20456351 -2.6370895 0.035748083 2.3011222 1.1909857 1.4249108 1.889549 -0.8275111 -2.1540077 2.3097382 3.4497497 1.6142411 -3.656353 4.6171565 0.811137 -1.6385313 -0.07674678 -0.36115682 -3.5678246 3.2534797 -3.5992024 2.6560762 0.8257504 1.8898562 -4.540081 3.1701207 3.2887359 -0.551988 2.4651263 -0.4464979 -2.2730548 2.1301422 2.4154615 -1.4563922 0.7455097 -0.8647604 0.96672124 0.24106726 -3.681828 1.1728786 1.3997972 3.0046763 3.779418 2.5710557 0.96253645
pqr 5.3524632 3.6602244 4.327011 -0.6728066 -0.66945344 -0.39349827 3.9265535 0.27250525 -2.1172352 1.8024236 -2.3763568 3.7237582 2.2813332 0.4747676 0.03585352 -3.5880208 1.7095582 -1.5703684 1.380987 0.59506494 -3.174057 -0.36087686 -0.026936324 -1.3214636 -0.62345576 -2.0673034 0.33144864 -1.9817058 4.511755 4.0179524 -0.5172429 -2.3604774 0.43736205 -0.8610619 -1.2768389 -0.5069792 -1.1955831 1.263095 1.4055295 -1.2229798 2.259319 3.458661 4.7224627 1.2155151 2.493345 -0.007741789 2.3831334 0.7459983 -1.8142782 -0.06550293
qe 2.407782 2.0300798 0.60392463 0.21677317 -1.8973396 -1.0447041 0.96779954 -1.7414562 0.011761417 -0.05152912 1.5644928 -2.167723 3.8721483 -2.0005758 3.805375 -1.0551978 0.757975 -4.3896503 -2.0147095 -0.98002845 -0.18793602 0.21900684 -0.22126806 -2.4348583 1.0711095 -2.2861404 -0.20958918 0.260024 -0.10104358 -5.92914 -1.7155913 4.5327854 0.9521688 2.2334833 -0.58815855 0.66604614 2.1679516 4.169205 -2.8355029 1.1804988 0.9586871 0.9413576 -2.4903953 -1.3524009 -2.5948315 -1.1512493 0.59499186 3.2500181 0.54340816 0.7306077
yete -2.9445896 -3.4771438 -0.5447647 -1.7961328 3.1432688 -3.2024124 -3.5970724 -0.42035782 3.998628 2.4018824 -2.3219595 0.3587008 -2.5523736 0.29369694 -3.528408 -1.4123861 -2.4043505 0.3072422 0.5278798 -2.1806757 1.8475592 1.5924276 -1.9153036 4.2870326 1.502376 2.1543465 1.3997513 0.8036527 1.3469677 -0.28011486 0.0548006 2.8098183 4.4429975 3.958258 -1.8174266 -0.3845113 -0.7520641 -3.8467703 3.1419394 -1.8426905 -0.51245946 -0.1119772 -6.606041 2.179726 -2.043147 3.0427623 -1.1664243 -1.9717405 1.326707 0.4517638
smle 4.021211 1.518838 3.0219033 0.025031261 -1.1208812 0.20031014 -2.680476 4.874787 2.9762805 0.51068884 2.3052099 2.4743145 -2.532898 -3.459915 0.08653135 -0.65197563 -1.8218536 -2.9306533 0.079845615 -3.1867871 -2.140356 -1.4265147 -0.7561645 1.3202041 -4.368099 2.6192336 1.3024639 0.08117189 0.45593622 -2.177731 -4.7006207 -3.9566627 -1.5939095 0.004508822 0.22137952 0.69193274 -0.92959523 -1.2852416 0.090178765 -4.9836574 -5.3414717 -1.6802028 3.2227707 0.7808586 -1.1307682 3.812128 1.6159444 -2.1440055 -2.8533883 -5.1581717
ble 0.7944695 -2.261579 1.9964848 1.4903638 0.04770861 1.4406555 -6.133275 2.6090906 3.7236686 -1.8472415 0.72852784 1.7274243 0.73853666 -1.5663233 -2.3968196 0.80104446 -0.114020854 3.67294 -2.2343025 1.1874112 1.8581161 1.8160505 -1.5946604 4.5579 -3.8072178 2.2780335 -1.8465161 2.000443 1.6777952 -3.3281157 -0.49201885 0.8157397 0.92541283 -0.12327721 2.229247 -1.7074255 -2.3352003 -3.7260935 2.9047718 0.6432409 -2.4925005 -1.1124887 -6.9789815 1.9964341 -1.1432383 0.86189556 -2.3728366 -2.7421205 0.7692067 -2.0641513
tedeqeli -0.7172615 -3.1632867 2.745087 -3.1887188 2.7231448 3.1198063 -5.4371643 2.1281745 3.5757205 1.0876656 1.7286655 -2.2398145 -3.6246889 -1.9661419 -2.2998586 -2.7288396 -0.8161826 -0.4720337 -1.6280673 -2.330224 1.8310815 -0.561022 -2.8119116 5.2029724 -1.9993755 -0.0821357 -3.778241 2.3285952 0.42136297 0.23733406 0.2039947 -2.5457916 -0.51588815 2.416883 -1.8204811 -1.1872238 -0.09000279 -2.902783 1.0096909 -1.4999759 -2.3786173 2.7467747 -5.1261125 1.3151274 -2.156036 -0.4957347 0.85299945 -5.150766 1.3442606 2.4653904
trqye.yetmde 3.075679 1.1331679 -0.8335932 -0.43779796 2.5357695 -4.008205 3.3000667 -1.8917935 -3.5262485 0.53185767 -3.5181186 -1.0704087 3.4795377 2.3738828 2.6638973 0.50735325 1.889308 4.0358257 -0.71978176 2.4229224 0.45530745 0.43384415 -1.6117177 -1.9513875 3.960808 -0.8841199 -1.0916802 0.8891844 2.886735 1.6173699 0.62333983 -2.1490738 -1.5500615 0.22297852 -0.10562215 -0.50281465 2.7295334 0.6506885 0.4968425 -0.27913502 3.4509876 0.24354188 1.5052317 1.1610239 1.1284142 -0.8980552 0.90832996 1.4390546 -1.3837936 1.606933
kemxr -2.8804226 -0.9295208 1.4647293 -2.531361 1.776403 -1.5042495 -5.645275 -0.9912321 1.2691892 1.9694668 -1.7309115 0.72982246 -2.7972476 -3.6254523 -0.44283825 0.19600032 1.1140962 2.0869374 -0.05064654 -2.096624 2.2720203 -0.7381059 -0.83920264 4.370778 0.82943904 0.7705624 -4.4921813 0.8830174 -0.34612292 -2.216226 1.3824176 -0.97457606 5.132478 2.0152678 2.047861 -1.2057282 -0.5936658 -2.446538 1.3338823 -2.9475336 -5.218354 -0.40497148 -3.902966 5.3842564 -1.0830055 -0.20727837 -3.8200068 -1.9695411 3.1773365 -0.8128568
ateqiSitkemEli 4.7278824 2.4100716 -1.5442526 -3.863868 -0.6159251 -0.98409784 5.0865526 1.3163857 -2.171513 2.7452505 1.0129935 2.7723837 -1.4425149 -1.00074 2.1242244 0.6020412 1.7415098 -1.5439321 1.074026 0.97639173 -3.134184 -3.2847936 0.03559148 -2.070827 1.2249764 4.728132 0.76540184 0.114927016 0.5706201 1.1901791 1.158182 -4.435299 -2.119129 -0.32603446 3.2926507 3.122559 0.9121533 0.44006065 -0.61388 -1.1272595 3.1904762 1.6953369 3.4506485 0.9358302 1.7132635 4.1744833 5.8837366 -2.4318101 -4.379912 0.8134773
kde 3.892807 1.7589617 1.6192741 -1.286356 1.2433823 1.7465605 -3.3280013 4.531846 4.1920176 2.772251 1.7903802 1.5492525 -0.16711718 -8.385027 -1.5069107 0.09532434 -1.0621251 -3.2402966 1.4575016 -2.165412 2.3646214 -0.16854705 -1.6267384 2.5825453 -4.000503 2.2167203 2.380467 -0.602108 3.5374203 -1.3094282 1.1898556 -1.196046 0.7973594 1.0552404 1.4072306 1.0927398 1.8139305 -3.9660623 0.873641 2.360101 -4.2528253 -0.6000484 1.5854723 1.3634826 -0.19693089 2.978315 -0.556882 -1.6451831 0.2873132 -2.2688868
yetmdelEwiateqi 1.5233101 3.5297012 2.0990045 -0.8432114 -2.7661738 -2.7166982 1.5407583 0.4985573 -3.3670242 0.103631236 1.7967387 -0.24819708 0.90454 -1.0310256 3.1179695 3.7868729 -0.7673594 -1.0142342 3.7274146 0.36343667 -4.3806987 -4.8541 0.83684236 2.1462858 -1.2551194 1.1846892 4.1911774 -3.2458773 2.341593 1.9118758 -1.5313246 -3.5469527 -0.3425418 -0.39531937 2.7755892 -0.8680468 1.4553461 -3.342327 -0.7451242 -1.1655723 -0.6038999 0.8329712 4.9562798 2.4581442 2.6255572 0.48874274 4.7457 3.4407802 -5.4362884 -0.52618587
qEresmle -4.894133 -0.15718003 0.33991593 0.88137513 -2.900843 2.153898 -3.6861475 0.8720256 3.2882922 4.1336384 -0.5952233 -0.7151722 -1.6324779 -5.7950344 -0.39722443 -1.2143804 0.48525268 -1.1926962 -0.38941014 -1.3382888 -2.5909007 -0.5614828 -2.323999 3.0278518 -3.392425 1.7101526 1.0869926 3.145729 2.8615198 -2.7980413 -4.0275273 -2.2422917 -0.6646451 1.8533802 0.40467528 3.0831094 0.8564879 -5.330801 1.8414464 2.825337 -6.068115 1.7678692 -0.34822002 0.60799307 -0.51755434 -0.030885506 -1.4632504 -3.37774 -0.3885668 -3.0967946
atiyete 5.6770353 2.3475668 2.6982086 -0.25100031 -2.267851 2.4889588 2.0076525 2.5096307 1.906558 1.5256019 5.892959 2.943574 -1.5514634 -4.3151364 2.228726 -1.8222265 -0.37261376 1.243306 1.3332793 -0.8334644 -4.6262774 -3.6187363 1.0711756 1.4255121 -1.2441998 6.538887 3.5493522 -2.4328232 1.2774128 2.2738028 -4.448302 -2.2320714 -1.4856203 2.6839352 -0.59848064 1.5738719 -2.3140821 -2.3605275 0.73213434 1.1199152 -4.974843 1.4100355 0.6445549 -0.2524195 0.6394818 4.5439625 3.5918102 3.5631025 -1.2845958 -2.4237614
mXli 0.59752506 -2.2136714 -0.5290073 2.1932867 0.28768104 1.8351752 -4.4443855 2.1976204 1.5262198 2.6027527 1.3175502 0.8000855 -3.9631517 -5.3999214 -3.0451746 0.7417476 -2.0149257 -3.6122196 -1.5909771 -0.6554401 -0.42649752 -2.388838 -3.0642297 3.000166 -4.1385255 4.757811 -0.30744165 -0.2044086 3.6477346 -1.3841544 0.47139296 -1.2652097 -0.64746845 0.14794898 4.312209 3.6397004 -2.5794022 -5.15979 -1.7264495 -2.242828 -5.5778265 -1.5666919 -1.661852 1.1515138 1.9837992 1.0207651 -0.41052493 0.840306 -1.5086197 0.9495498
wetemtr -5.7209744 -2.1560562 -0.5508995 -2.3089938 1.3725914 -0.91605437 -5.1683593 -2.1439235 -1.0792916 1.0340787 1.444046 2.0693312 -2.6227715 0.48679632 -1.4125407 -0.68667996 -2.2146182 3.6195936 0.27362943 -1.6481467 5.8131437 4.2531238 -0.9115646 1.2233601 -1.2228788 0.5077858 -0.74056226 -0.5220085 2.2317567 -0.6338316 1.4462998 -0.5717626 0.078941934 1.0055926 -1.5966393 0.28729883 0.3871591 -4.648555 -1.2995746 -1.4175439 -0.19864741 -1.6086385 -4.166895 3.3369873 -3.6195395 1.7479976 -4.885491 -3.5621676 1.9472677 2.2790878
dskemxr 0.8136896 3.0769181 -0.2750664 0.10437707 -0.5572681 -4.3505116 6.4160523 -3.6376417 -4.596481 -1.9002172 -0.7537361 1.0360292 1.8322637 2.61574 0.757831 -0.55047995 0.70608556 0.799748 3.5242221 0.030366875 -0.22637068 -1.7539779 -1.3532512 -3.56596 1.3113033 0.38690045 -1.5839609 -3.432747 2.0604887 1.2159023 1.1099898 -1.7228918 -0.4692711 -1.7420983 1.8385928 1.4894738 0.60902166 0.70747876 0.5010363 -1.142327 3.356738 0.11238613 1.0784819 -0.31260064 0.8311304 -0.8885528 2.2405035 1.611445 -2.7862818 -0.45157745
qEriteyli 2.0795004 3.0351305 1.63123 1.4057705 1.0826137 -3.4367425 5.272382 -2.270742 -3.6781914 0.4362069 -2.1276157 1.0315411 -1.6504936 2.1816752 2.740428 1.5666624 1.6296755 2.514186 2.1946168 0.5638639 -0.5788911 0.25144526 0.20858648 -0.8334355 3.2760093 0.23515539 0.50855124 1.0382351 1.701692 2.9392712 0.6771541 -1.7953755 1.5971136 0.5297669 2.0710926 0.5271525 3.1539614 0.6574391 1.2911456 0.6984613 4.314194 1.9954914 1.8761729 -0.28919423 1.1835765 -0.64626366 -0.3342955 1.116882 -0.52957636 -0.23950276
tlmenkeli 4.94921 -0.417527 1.3802135 1.2693226 -4.969446 -0.28813607 6.1803937 1.058685 -4.4700522 -0.4160605 0.98408216 -0.5255888 0.14245321 0.93613696 2.1194084 -0.156825 0.80351573 2.2791946 2.6286333 1.850858 -2.0895329 -2.5080745 -1.0515496 -0.3634733 -0.23051071 2.1511037 -0.48615664 -0.62260264 1.5664281 2.9393451 1.6712582 -4.247693 0.058161423 -1.549779 -2.0395756 -1.9051036 0.42658636 0.43485975 0.03534424 -0.871557 3.3168085 -0.35433418 4.8512964 0.032539535 -1.8858169 1.04629 2.4488015 1.0574682 -0.21042827 -1.7086685
abyetli 2.795699 1.6409075 1.7187612 0.4129198 -3.863526 -2.4260337 3.1581275 -1.775614 -2.9151413 0.9164832 0.17950001 5.615945 2.3715916 4.187315 1.6945124 2.9754686 2.1730244 1.4280053 0.9642961 3.2154212 -0.56323874 -0.9505324 0.8424843 -0.19782926 2.4433 0.9105261 -0.19992569 -2.1314003 0.1406138 2.7017167 -2.9574814 -3.112255 -1.4547836 0.07654884 2.627177 0.5294252 -0.97818214 0.008713766 -1.0332148 -0.88534206 4.5370255 0.73484796 1.3558143 -1.4381317 0.35707182 -0.88988465 2.6826084 1.5727475 -0.47964615 -0.05923583
mklisye 3.4976056 5.6764874 1.3547379 1.3379173 -3.1121383 -0.61647516 -0.16167247 -2.09573 -1.9414849 -0.59923536 3.9138784 2.039899 -0.22725043 -0.12839532 3.0829866 0.11035632 2.485403 -2.6695313 1.2679617 1.2106094 -1.9319234 -1.1504693 -2.402202 -1.9820762 -0.4648905 4.8278737 0.8831253 -3.2825205 1.0337635 3.924903 -0.3580193 -6.160437 -2.9121401 0.9233882 0.98554826 1.8994609 -1.2603935 -2.7073202 0.026812313 1.6880119 -3.3771489 1.0479666 5.991231 2.8611724 0.5369004 0.97270834 3.2916093 -0.39204985 -1.5827456 -2.349606
deletenkeli -1.3926888 0.48806512 -1.527688 -1.18799 -2.6404216 4.210218 -4.601677 -0.4135554 3.2534716 1.4788368 2.2358463 -0.019985544 -0.23113748 -3.292477 -3.1196067 0.06342574 -5.140353 -1.5029436 -1.6869642 -2.8302727 2.0087025 0.38474697 -1.0850517 3.2842357 -3.580331 1.1666573 0.4120131 0.7170344 0.30519322 -0.22274746 0.46766067 -0.17378815 1.2369362 1.979108 2.056526 -0.35232502 0.6954797 -3.6938076 3.7708063 -3.5473201 -5.4561677 2.1159236 -5.5019274 3.3351996 -2.162002 1.194705 -0.5884872 0.22215718 2.8900034 -2.8721118
nkbli -3.9248495 0.43202117 1.3998654 1.9344351 2.1793172 2.6286852 -4.23114 -0.040309213 4.2955217 -0.27118176 3.6363473 2.2248323 -0.83833927 -6.8856764 -3.406781 0.5845493 -1.3483433 -0.9451812 -1.3759003 -3.2520525 0.12578009 -1.2007271 -3.6470635 2.7519507 -1.6727854 0.6081316 1.9772156 -1.377855 -0.6709704 -1.9787842 0.75700194 -4.271388 -0.14388344 1.5035955 -1.2630557 1.2712756 -1.9404982 -1.9062412 3.572127 0.30228162 -6.263409 -1.4441968 -3.7047722 1.5154251 -0.30898798 1.5362583 -0.64129573 -0.040431835 -2.0748188 -0.60921
mlidns 3.6155176 -0.61544025 1.7277571 -3.6574218 -1.8672931 4.513477 -1.6473446 2.0232778 -0.036549818 0.7608075 3.5708697 4.453118 -0.016934816 -3.587437 -2.2206922 1.1399426 0.20151624 -2.4851608 1.4609861 -0.17623949 -1.1557518 -3.2981625 -3.1503744 3.7315474 -0.2806407 4.873507 4.6523347 0.19331653 0.96053064 -0.61703897 -2.570647 -2.3649466 -0.8192187 -0.41214678 -0.44328034 2.242088 -0.4469317 -1.3609577 -1.5519241 -1.0055782 -6.4763646 1.5169361 2.9951887 2.1499302 0.48782498 2.2475543 3.3408282 -1.2163168 -3.181116 -5.11714
twteNtkeli 2.190312 6.069706 0.92188936 -0.71552676 -3.3910415 3.3668773 -0.8968545 3.0593784 0.24282752 0.60976577 4.417614 3.8570802 3.0664513 -2.879946 -0.55427533 -2.7145252 3.475076 0.31939852 -0.29749262 0.01031674 -2.825663 -2.427612 0.06484602 3.0536022 -2.3642292 5.272646 3.1110651 -1.0797921 1.2996554 2.3167748 -0.9857235 -3.6150146 0.98791385 -1.1153457 2.843494 -0.67522246 -0.5915925 -2.6170409 -0.6625963 -1.6634071 -1.8406165 -0.99541533 4.4923277 -1.7819781 0.20808713 2.9740577 3.4961703 0.19514307 -4.61714 -3.8927555
sbewyenkeli 4.187925 3.0363472 -3.8328266 -0.6813193 -3.3298323 -1.868069 1.1480228 -1.0085609 -3.6709313 -1.218042 0.5272737 4.299989 -2.9006906 -1.8674297 -0.93553245 -0.49923676 1.1150508 1.7750713 1.9198964 3.5664515 -2.4368198 -2.0428674 0.7403942 -1.0422715 -0.20975289 0.24974976 2.608056 -1.6788161 3.6186144 3.2676642 -2.3388326 -4.6035986 -2.7716434 -0.15093578 1.0849941 0.86892617 1.0704136 -0.44216692 2.0633664 0.07245736 0.805937 0.41438258 4.1816225 -0.24755518 0.798653 2.9342782 0.9489373 2.5255632 -6.6167593 -3.7655187
adEtrqli 3.061752 4.1262174 3.5425196 0.4426327 0.1882492 -0.20645604 3.8692312 -0.49346623 -3.377908 -1.6945174 -0.6246801 -0.8219062 -0.02581681 -1.9109893 3.1178749 -0.097466804 -0.95335865 0.9739731 1.6727146 4.4623938 -2.099257 0.06518031 -0.21711011 0.16524434 0.9620134 2.1566525 -0.99153495 -1.656789 2.2582965 2.5252075 -3.210063 -1.1487621 -3.6310716 -3.7545269 1.4165256 1.8461825 -0.23199779 -0.76395756 -2.4267335 0.76134676 3.3069828 1.4234222 3.6033494 -2.3867981 0.8443103 2.3327696 4.341081 -0.41680422 -4.3252516 -3.8790276
brtEye 2.9507062 1.6091106 -3.1679304 2.1638505 -0.15606678 4.1576424 -3.4309993 -5.3668976 2.1622279 0.6376091 -5.4773273 3.0078666 -0.20173515 1.6762215 3.7260604 -0.3845267 -1.6375804 -1.1432203 3.9173698 1.9546111 0.43323666 -1.3811827 -1.0680656 -2.2844915 2.8939373 -1.5736043 -3.1862276 0.9422146 -0.12091867 -4.167512 -0.29885197 5.2486043 -2.7844203 -1.59741 -1.4878888 -1.9214216 2.0747223 2.979555 -0.47201923 -2.9982138 0.0906581 -6.290158 -1.4638921 -4.16119 1.8562233 4.465134 1.5530716 2.2514858 2.0932863 2.444407
tNlxe -1.2056972 -0.1407153 0.006155817 -2.8619769 0.50545526 2.7108305 -3.3939052 -2.0584488 3.9381802 1.3857913 -5.3450847 0.75286126 -3.1509616 2.2135382 1.3641922 1.034765 2.295784 0.084034696 5.5503407 0.65047663 4.635062 -1.22602 1.9494752 -1.4520141 0.6393298 -2.4082117 0.12971409 -1.1835417 1.6398197 -5.101259 1.7937875 0.833317 -2.6011567 -1.8644044 -1.2727782 -3.9255316 0.9560422 -0.30479944 -0.6101441 -3.6353426 1.6696781 -0.35071856 -2.533746 -5.653606 -1.6036499 1.2980207 -0.41469276 2.1750183 1.3534964 -3.421793
arEr -2.2641122 -2.100112 2.702669 -0.95419884 -1.0064204 5.0883355 -1.2596865 -0.1901377 2.3745177 1.0614932 -1.4808226 1.9135497 -2.8168457 3.4780285 -1.056509 0.9165976 2.016601 0.1626684 5.602411 4.3811464 1.8962189 -0.1227557 -1.4031963 0.5844359 4.0254703 -3.8553295 -0.75958216 -1.7938745 1.85774 -2.6541178 1.0875438 0.10235526 0.03803772 1.1124295 -1.763244 -1.9732426 -1.4478853 3.4418283 -2.7943568 -3.7241952 0.7181828 -2.9036753 -3.8018072 -1.0859189 -2.2506146 3.6671157 2.7703886 2.282025 1.7082604 2.3008904
atE -1.754778 -2.1848905 1.1284099 2.5134678 -2.910872 -2.0589979 -1.2045081 -0.10617244 0.2992493 -2.6247196 1.4357209 0.94701284 1.6264819 2.3606734 0.30364126 0.35034484 -1.7805933 4.19537 -2.2045758 0.07530202 -0.6012002 0.531223 -2.0885484 -1.2486762 -2.2067327 -3.3543663 -0.9911299 -1.3463593 -0.69211864 -3.7273145 5.672791 0.50820124 0.36730078 4.9958057 0.26424503 -0.44458938 1.7434857 -2.0687912 0.470885 0.19922921 0.0626675 0.43818876 2.7873352 1.1680343 5.1538315 1.2938845 4.6463213 -0.6612653 -0.09333479 -1.0935112
yi 2.6529374 1.3101391 0.7621784 2.825327 -0.37971476 -0.09914084 2.5074983 -0.6600348 0.740308 1.0767952 0.37325922 -2.1286402 0.9790991 0.2347593 2.5768867 -0.32105765 -0.13069342 -5.2567124 -3.4386833 1.5104128 -0.24783 -3.1092765 -0.34237686 -1.5281775 -0.15456869 -0.95553666 -0.025300756 4.5606527 -0.6470799 -4.527345 -1.3664335 2.1983483 0.5550676 1.5985776 -3.146247 0.07474578 2.5828588 3.4194455 -0.4624033 3.8135626 0.098048635 -2.3620007 1.8566636 -4.4202967 0.4493013 -2.3913279 -1.1380782 2.0975184 1.6058365 2.9672098
SEre 2.6405506 0.7956485 -0.26716235 1.3765347 -0.7895408 -2.5510528 0.95958894 -1.192808 -0.72097975 -0.1452971 1.4035891 0.31324938 3.3767617 -0.8171126 0.76935565 0.46905482 2.702672 -5.327223 -3.5806553 -1.6479855 -0.654812 -0.42287058 -1.9786419 -4.808465 -1.0566484 -1.2831405 -3.408837 2.968052 -0.8572937 -2.0982819 -1.7794253 3.4321153 0.26614127 1.2049288 -1.8278457 1.3572288 2.7206275 2.447518 -0.650469 2.0914679 -1.6293515 -0.29346982 1.9482138 -5.368849 -1.1795509 -1.4239222 -3.2108727 0.62713516 -1.1130426 2.3451262
qewi 1.4522299 -0.21529523 -0.8164729 3.432371 -1.085353 2.6606376 -2.3078043 -2.9380393 1.8819523 0.7674304 -0.1265311 0.68994135 0.26376405 -0.34869704 4.584494 1.8577383 3.637029 -1.2237562 -2.0253196 -0.09431098 -0.70569795 -3.3037627 -0.28045 -0.81439483 0.54765934 -0.24959308 1.2525858 -0.8473759 -0.93815625 -3.8387492 -0.11581724 1.9123762 -1.7660825 -2.3799434 -0.5586089 -1.6305808 2.4132452 4.6422863 -4.1472797 -1.2077688 -0.61100656 -2.3972332 0.15825115 -5.572874 -0.8864114 -2.2279027 -2.0844247 2.508002 2.9037929 3.3551073
tpEteNteli -5.182265 0.64775085 2.4373536 -1.3355374 2.615719 1.4913306 -1.8565627 -2.3481512 1.3011271 2.411171 -5.5422096 4.6651845 -0.36578014 1.7051735 -0.5212636 -1.0908815 0.298287 1.9948523 -0.16088809 0.18986556 2.2136643 -0.7361781 2.2343345 -2.5516808 -0.49343023 -0.27082023 -1.3058357 -0.061036006 1.9403309 1.3677955 4.3258624 -0.37118274 3.8352098 -0.82042176 -3.638433 -1.7609801 -1.936165 -3.064136 -0.56065774 -2.253643 4.4675584 -0.5574951 -6.988516 2.9768004 -1.2337209 0.44855297 -0.100809984 -2.6623292 5.2702656 2.180274
Sklte.lxeye 3.9705367 3.911644 1.51901 -0.79268664 -0.08237191 3.2755215 -2.774557 -4.2539067 2.775421 -1.6513832 -1.8225089 1.1312517 -2.4471023 -1.2062099 -1.463724 2.128832 2.0901625 0.9745515 -0.118200704 1.6483868 1.1914085 -1.5575874 0.57197344 -2.9024036 1.8050305 -5.209549 1.5739112 1.1623366 -0.73395896 -2.8906703 -0.75155956 4.2057304 -1.7235491 4.415954 -0.67162967 -4.2955685 0.51383066 5.1446915 -1.3866137 -2.5552511 1.4043958 -4.2387986 -0.47383624 -8.000073 0.55367863 1.043363 -0.53416085 1.394804 3.398405 1.0627807
SkltesskemXer 0.15572001 3.363095 -0.46709582 1.4151641 0.9056536 2.556752 -0.95629454 -1.6148555 6.3657603 1.87283 -0.46032283 -0.42400652 0.4535914 0.6159429 3.4920578 -1.9081587 4.3153205 0.34483507 5.1485057 2.8005443 0.63048404 0.6760173 1.3024555 0.151218 0.26265165 -1.6207969 -0.86797076 -0.7523023 -0.94318277 -2.445309 3.2656348 -0.19898997 -3.7696147 1.9794408 -3.172808 -3.7727773 0.06556794 3.264824 -2.150489 -4.1631727 0.60471207 -4.906632 -4.4563775 -7.227685 0.22461072 2.6996229 -0.7505493 3.7662175 4.187687 -0.92226547
adeqeyitbre -3.7098217 -0.7595311 3.8098035 -2.5290267 0.3154443 0.5602893 -4.3076982 -2.3905473 0.72911006 4.1282735 -1.9882387 2.1902812 -0.7404411 -0.5027995 0.14311342 -1.1707937 -1.8878314 3.9669242 3.2698176 1.4035412 4.9228344 4.1520424 1.0291381 -2.6582065 2.8462288 -0.38737124 -4.9155188 0.3923176 0.088048376 -0.5966925 2.8659408 -0.46733573 1.0279353 2.3511424 -1.5831797 -2.497342 -0.13712263 0.100245 2.0533073 -2.3305821 4.036212 -1.4144863 -4.3404174 0.34399348 -0.046317175 2.6920333 1.8397588 1.4754543 -1.1186517 0.44609463
dkelikeye 0.1473479 1.3979646 0.3932888 -0.49467215 -0.026260711 3.0750537 -4.0177007 -5.268409 3.3157902 3.4747415 -1.970649 1.0450627 -3.4789095 1.6170644 -2.178096 1.8607928 3.3680756 3.633713 6.151712 1.7321599 3.5967953 1.3878539 2.860215 0.8708976 3.5320895 -0.86937064 -2.209366 0.51671666 1.4906181 0.82152605 5.2599163 1.4737033 -0.051714092 -0.15521441 -2.944788 0.11678004 -0.37899333 0.5897959 0.36893958 -3.2532895 2.5950472 2.0008569 -2.768113 1.2404137 -1.5126945 3.549398 -0.41859224 -0.43924555 -0.15358022 1.0132883
sskemxr -3.7029803 -0.7552681 1.3958538 -1.6892122 1.3694863 -1.1695588 -3.6070766 1.5352317 0.18679227 3.4086447 -1.7850525 0.41391426 -2.1429188 0.027573409 -2.5993292 -1.5586468 -3.0035005 5.8088474 2.8974357 1.7583343 2.0710056 -0.618841 -0.42460883 -0.33913952 3.5889208 -0.7566436 -0.061203916 2.8417065 -1.1019453 1.8595002 4.3931527 0.15412946 0.91307056 -1.9471266 -0.6137628 -2.7506807 0.040382598 -4.564869 1.1821978 -3.1989703 1.9696915 -1.0729382 -5.8165727 2.269336 -3.7640705 1.2386056 -4.2876616 -0.12730508 1.6204361 2.4662838
ameqemeteye -1.1816093 0.52374244 -0.41259894 -0.16206211 0.12281413 4.130844 -0.21353664 -2.8818405 0.36873034 2.1758416 1.0358931 1.2874756 1.5855525 0.8162646 0.14494258 -0.9098782 4.0000153 -4.2551894 0.87432986 1.1105055 1.5156116 -0.93394923 0.021849897 -0.07536773 2.9105456 0.17260082 2.5660992 2.020761 1.8381252 -4.302409 -2.333927 4.8778377 -4.3784704 1.1979029 -0.6709715 -2.0106797 3.395429 2.457029 -2.8087184 -0.5774657 -1.7234445 -3.1380606 -0.44154954 -4.5225086 1.6122522 1.4486285 -1.2583159 2.949734 1.768245 -0.6159226
pte.Eye 2.5844626 1.5978572 -0.33336347 4.269777 -0.17025144 0.9843404 1.2183398 -2.7270155 3.29801 1.8007755 0.5986775 1.3827479 0.5868633 1.1637585 2.214863 -0.27563685 1.2467858 -4.5749054 -2.2067714 1.9057032 1.3808892 0.45911068 -2.2157545 -1.8832524 -0.727843 -1.0325153 2.992025 0.72492003 -2.3979614 -5.0182877 -0.16759597 4.420893 -3.7261052 0.72387654 0.055192325 1.6485993 2.1100085 4.576344 0.24042384 -0.6848897 -1.344617 0.55464524 -0.48410022 -5.0123606 -1.4408728 0.624512 0.43957418 1.7532597 2.1074576 0.5707065
adilxeyye 0.42399108 1.6782768 1.5025768 2.072771 -1.6512053 2.4709632 -0.38788062 -5.2179832 3.3250332 1.3967819 1.929143 -0.18857759 -1.0062056 0.39136103 0.51941115 -0.05825507 0.67763644 -4.1390944 1.8610086 1.1660523 3.2833247 -3.0847726 0.74703074 -3.0960371 2.9333656 -2.3398407 -1.3097051 -2.004685 -1.2513165 -3.3999918 3.7938323 4.052614 -0.730414 0.42043328 -0.53293073 -1.6132356 1.4909588 2.5097685 -2.60305 -2.8282893 -2.8696947 -4.636238 -0.24156946 -5.482463 1.2580526 -1.067562 1.174389 1.623495 -0.50179183 -1.2999831
tmNteleb -2.345165 -0.7788106 -1.1653798 4.4414454 -0.60455525 1.4034088 0.033253673 -5.094409 0.45847553 2.5103626 1.10286 0.73446184 2.0944848 -0.8713109 -3.15032 -1.4788952 -1.4532027 1.8355274 3.6613245 -0.9558873 1.3691838 -1.4772365 -1.1810883 -0.34724057 5.602661 0.13089395 -1.410962 -1.2988911 -3.9526143 -1.850437 -0.7329691 -0.7678054 -1.1349567 5.10834 -1.0959283 -0.2347516 1.4919903 1.5332861 0.88870823 -1.9303818 -0.5136436 4.9670815 0.81168175 1.8328744 6.274071 -0.25079715 -0.25607443 -2.9423685 -3.050271 -1.3534193
mXe -1.7903606 -3.8754282 3.1130998 0.8945939 -1.2816455 -0.543059 -4.809626 -2.0364554 5.149277 0.69681096 1.1726531 -2.7464926 2.4744227 -1.1744843 -0.004880179 -2.1863778 -0.3516914 0.71383125 -1.8000485 -0.5475698 0.39176634 2.2840672 -0.6043621 -2.4821045 6.13361 -1.1083019 -0.4143145 -0.85087544 0.7908982 1.1787363 1.8613703 1.5025048 -0.919316 1.0450462 -1.4056233 2.4144592 2.0048392 -1.3199466 -1.3793792 -0.8777814 0.49561188 0.9019159 2.910402 -0.7405024 4.78248 1.8981088 2.8909445 0.7430154 0.058205884 -2.038541
wetNyiNqeli 0.061906114 2.1541004 -0.34192508 0.9159145 -0.675526 -2.368509 0.87742525 3.9214926 -4.109361 0.30130348 1.4763575 -1.6607845 1.1023751 2.7466776 2.6795588 0.3805276 -1.816053 -3.2658238 -3.5741632 2.9354393 -3.7167208 4.3276734 2.2038343 1.6675069 3.6204605 -0.09163122 -0.11638478 -0.23349218 0.6182687 1.6207585 4.301464 -0.34739158 0.7788247 -2.8559365 -2.3152568 -0.8603661 -3.52965 3.02091 1.9757901 3.856493 0.5148782 1.8930224 -3.1554441 -4.338105 -0.41299984 0.858076 0.03656081 -0.09734725 -1.2575971 -3.088911
smlEwi 0.93005836 -4.078493 -2.160314 -0.16095023 0.66444945 -0.31832635 -1.0874162 1.8479674 -0.38920495 -2.1588585 0.7014219 2.580897 1.0254287 1.3766326 1.2841214 -3.860811 0.025483789 2.9756463 2.3375225 -0.4395246 0.4621501 0.6351148 0.107894704 -1.0632083 2.933537 -2.4894707 -3.9369252 1.4444875 -0.76965696 -2.3141155 -1.5450239 -2.3095303 1.9853706 1.1127257 -1.827265 -2.716517 1.3027731 0.48055133 3.479201 -1.7217257 3.0766177 1.7637548 2.1645164 1.1645128 6.357081 -1.892828 3.599832 -2.3210056 0.4645503 1.7768149
at -2.9514554 -2.546665 3.8972144 1.546193 -0.9110565 -0.67491865 -2.010791 -0.09363661 0.8061097 2.554755 -0.38653243 -0.2652949 -0.7737577 0.63414747 -1.5543578 -0.38165602 -1.6199126 3.2060664 -5.427438 -0.18994558 -0.52449477 0.12020303 0.8578366 -1.2882237 2.4817367 -1.3065352 -2.0556233 -4.365562 -2.9511783 0.8240766 3.389791 -0.79516023 -5.533709 3.7399235 0.9761195 1.7101676 -0.10225438 -1.0106263 -0.41079932 0.41204065 -1.2209654 4.335899 0.7117073 -3.4867642 4.0753 1.4183887 2.3802278 0.6046128 1.3181107 -3.337679
SEreyi 1.0010419 -1.4185302 -1.6924005 1.4225769 -1.6527317 -5.512693 3.2839096 5.0657477 -1.4167618 -1.7329755 1.4581374 -1.305875 1.4805899 1.4686737 0.9414061 0.89662284 3.3074863 -4.1076145 0.18282549 1.6356987 -2.0052512 2.9125876 1.3681135 -0.1734563 2.514281 -0.20466226 1.7371165 -0.3222561 -0.3614686 -0.9118938 3.1613402 1.3264225 -1.8874468 1.0281608 1.8432727 -0.45044002 -0.13807586 5.6165085 0.38673696 -0.055212557 -4.8349586 2.2019994 -4.1745625 3.1376464 1.3125925 0.71648157 1.5526218 -0.24575129 1.9662722 -0.20957726
tdxelEwi -0.39521453 2.401047 -4.831395 0.52560455 2.0435944 -2.2380548 -1.4831398 1.740646 0.11708616 -0.05828886 -1.9642342 -2.6399794 2.660419 3.3961186 2.5809703 1.7209907 0.37149584 -0.9578811 -2.4021506 -0.69550973 -0.99744666 2.2288888 -4.6305275 -2.0965898 3.9871697 -1.9620814 0.85043114 -0.042350356 1.907751 -3.847828 5.4818764 -1.1243447 2.8015263 -2.3432815 4.6654277 -2.721044 -0.6667504 1.8887922 2.6559522 3.2449281 -3.8300436 -1.0916067 0.32217613 -0.368178 -1.2116786 1.8195375 0.99571985 -1.5617357 1.9812683 -0.8375692
SEri -0.36543438 0.30713683 -1.8074931 1.4903936 1.5819092 -5.2412944 -1.0916758 5.7543373 -3.1399965 0.057190463 3.2321613 -2.0951328 4.3731723 5.2228904 2.8776898 -0.5033849 0.13709655 -0.799486 -4.5487823 2.14221 -0.60622627 2.1702578 -0.40237483 3.4785943 1.3861545 -4.9433994 3.6978385 -1.9696525 -1.4374593 3.0545382 2.1316566 1.6630992 3.1745086 -2.2485638 -1.4266692 0.8543721 -0.15712574 1.9285275 2.2364826 -0.528458 -0.74257135 -0.35242212 -1.7308165 -2.493527 2.1035273 3.084885 0.35865253 -1.3872334 -2.0610528 -2.664489
li -2.4412947 1.3450897 0.59443176 -4.4356585 1.1245736 -2.3505094 3.44513 1.0299661 3.889597 0.6485614 3.5866163 -2.280783 -1.2742002 -0.13748258 -2.3071244 0.7406134 -0.72206575 -2.2916594 -4.2818556 3.5501044 -1.897007 -0.13738936 0.5026477 -0.57789785 0.9933662 3.8571076 -1.2183378 -7.1869507 -0.42495406 2.0143447 0.23430751 -1.4567057 0.850563 -3.6733856 2.3122942 0.6655896 1.1879197 1.8282858 3.0861619 2.4152827 0.42471546 0.55848485 2.8668113 -1.2962221 0.5340931 -0.1129285 -0.2923319 -0.31000763 -0.59022146 -1.6304035
s -0.08147076 -1.5058252 0.21911761 -2.4931657 -2.7238839 -3.1636088 5.436986 -1.6266975 0.07730996 -1.1307281 4.6079965 0.47064185 -2.1494455 -0.4100084 -0.305513 -0.16079512 -1.0394233 0.06059826 0.4109634 1.8994519 -0.39163178 0.7835548 0.0672478 -1.6099944 -0.5092768 1.8561221 2.9782243 -2.9607546 -1.0994262 1.6341964 2.5487778 1.1759387 0.93284094 -0.0070674773 2.8780403 -1.3386456 -4.2900333 -1.3531522 0.45493323 -0.27778083 -2.3158529 3.054893 1.2874177 -2.9864824 2.9627347 -1.109335 -0.2784474 -2.809073 3.064749 -0.16764462
lE -0.7924147 0.027724205 -3.5647888 -4.1317673 -0.26079124 -2.20933 3.1321054 0.9522974 0.72624874 -3.5496795 -0.37136838 3.157905 -3.5165792 -0.3235053 -3.2155507 2.0034695 -1.3017621 1.7008165 -0.08941509 2.2543957 -1.2728382 -3.2042816 1.6531743 -1.7461598 0.21963896 1.4215236 -0.6736148 -4.318277 -3.9694815 0.16802502 -2.6038702 -0.021173472 0.95339024 -0.77918535 1.7834849 -1.2021246 -0.30683082 0.59289557 3.489431 0.037100874 0.404604 3.767574 2.3036342 -2.161574 2.603568 0.008218999 -0.013363294 0.9764515 2.2200124 -1.2773736
xrpxN -3.1780658 2.3653324 -3.2068875 3.1682496 2.6057615 0.34605643 2.220786 -0.9251699 -1.5934714 3.0875273 2.3391454 -0.4415324 1.8448014 -1.185284 1.0577502 -0.25998148 -1.7295063 6.032597 0.19148713 -0.86247367 3.6230643 -2.404571 -3.1619565 4.8029795 1.9822271 -2.1354122 -2.3892639 -2.669455 -1.7598 -2.7297194 -2.8404326 1.8342425 1.8705422 -0.2489994 -2.254042 1.2755952 4.5179157 4.0460753 0.1746657 -3.3357685 -1.9603764 3.91766 1.8755234 2.123353 -0.5512168 -0.06421956 1.4773319 -0.83993155 0.11516312 1.3136743
mrebqE -1.2165722 0.1841403 -1.9717731 -1.4791642 3.7047715 -5.840084 0.019077905 1.1597395 1.9116906 1.6644217 -0.5921015 -2.2089775 -0.04790399 4.467249 -0.18106747 -2.1801274 0.3477228 2.3551395 -0.5712615 -0.3311898 2.3542752 -1.4790366 1.824249 -0.2083446 5.583419 -1.0971543 3.3257055 -2.3752556 1.4085689 -0.9705053 2.1638951 -0.90883535 -0.17329523 -0.8987334 3.1666155 -4.143823 1.294824 4.3386436 2.501334 -0.42698368 -2.524614 0.5361273 0.34902504 -0.1329118 1.7854388 0.2142357 2.2885091 0.24149714 2.198678 -1.3530666
xSxslitEwi 1.8375766 -3.8255076 1.5688372 0.065080784 2.7113626 -2.6210995 -2.3068862 -2.211455 -0.44768065 -0.7054979 1.4624047 1.1553799 -1.4625006 -1.4647223 0.19265397 -1.4762053 -1.9113541 1.739135 1.0778517 2.9688177 -0.92726225 0.5574053 0.65229505 -4.3924394 3.8267577 1.9862646 0.39845917 -1.9208556 -4.724709 -0.5645176 2.8445663 2.2134597 -2.9435637 -0.86785114 1.2573968 0.38918048 1.2273428 0.34961215 -1.8216196 -4.0281944 -5.075661 3.9033196 -2.7459693 4.159948 0.5816223 -1.0862243 3.432433 -1.0578341 -0.8104603 -1.6730438
mxe 1.294067 -1.8182447 2.2891695 2.2285335 -2.7571123 -0.32114047 -1.188211 0.07010153 -0.31848323 -0.5954357 0.5953712 -0.14686085 -1.369684 2.8328607 2.7874599 0.54943717 -4.2697034 1.5013198 -4.8372664 -2.921896 -2.900515 3.5569003 2.6174324 -2.9877565 3.7265184 -3.156291 -1.9025412 -0.18002565 -3.346486 -0.042553555 -0.34076986 -0.4369888 -2.164995 -0.57511073 -0.5352214 1.5583528 2.1000504 -2.3086374 -2.7661498 -2.4426396 -1.0848235 0.46774185 2.574474 1.6065215 2.0231931 1.3173063 -0.60141873 0.84083223 -1.8829813 0.04402619
pestE -1.9019269 -1.7935612 -0.4193473 1.7778083 0.40621263 1.0422447 1.7431005 -3.2089555 0.32093984 -0.78008384 -0.92371875 -2.9392626 0.8546721 1.7483115 -1.6761628 0.85136664 1.042157 2.4497771 -1.2388204 2.7290602 2.5069027 -1.3244996 5.263535 -2.5405571 1.1777055 0.77620256 2.6800406 -0.8821361 2.3164299 -0.5425314 0.87833756 0.7145326 2.6028101 0.68347543 1.3183696 0.37405595 1.5382186 3.8911726 1.5498589 1.3418221 0.2683199 0.5392494 1.59692 -6.4220057 2.3580344 -0.3786076 0.9315609 -1.0126622 5.1862736 3.0781312
lEwi -5.297296 0.13808785 1.4158431 0.98943406 0.7800328 -1.8102227 -2.633267 0.08623084 0.46414447 0.68352056 -0.11618345 -0.09746043 -0.31735834 -0.43764412 -4.215394 -1.452535 -4.098643 1.5040778 -2.986012 -0.46750814 0.2503813 0.22635669 -2.4712021 -0.41986838 1.8727764 0.27478886 -1.8949838 3.179846 -2.3965719 1.223303 4.078744 1.8786527 2.2597141 -1.4859302 -1.0801218 -1.4243352 2.254301 -3.240781 1.5886216 0.854414 1.8157836 0.9168839 -5.8849144 5.9015007 -1.874929 -3.309296 -3.4567842 -2.0126607 1.2858813 1.8391689
yetmde 0.23966531 -2.263486 -0.49692932 -3.051644 2.2439249 -1.1514516 0.043795127 -3.3878474 -0.5828409 0.83239764 -1.0175574 -2.265021 -0.47964036 4.488251 0.9102037 -1.133913 2.4235911 4.244518 5.3613467 -0.26575112 2.882866 2.9652724 0.9977267 3.1587074 1.0863055 0.49052444 -2.069156 -4.8084283 1.349664 -3.2518475 -2.8239722 -0.92544115 0.6073145 0.99619704 0.0876356 -3.4844503 0.39409947 0.87618816 0.73564804 -3.3769884 1.1182184 1.9480528 1.1438547 3.155266 -2.5328104 1.3647667 -0.10215614 -4.2897625 -0.6093055 2.6823452
1 1.7432935 4.0233665 1.1443133 -0.7654817 5.84734 -2.5961294 -1.4014584 0.3076615 -1.7922685 -2.8911533 0.58167493 -1.6011598 0.7601084 1.8242254 2.1424873 -1.5438819 -1.4353031 1.1012521 -1.6739703 1.712678 -0.047497068 -1.5631574 0.6813822 -0.25594255 -0.85317284 1.6592644 -2.061219 2.1882436 -3.510042 -3.0735276 0.25412682 -2.2074718 -1.0340244 1.8843359 -0.17695373 3.4895504 -0.5330073 -0.029312167 -1.4629852 -0.1595531 2.170424 2.7802188 -2.25197 0.9102598 3.1178846 3.6499896 0.29214534 1.9955461 -0.3567437 -1.3751154
te -0.5771931 0.7474908 -1.0477357 -4.6889825 -1.2268872 -4.4515834 2.0330162 0.38090813 1.5461894 -3.0745203 -0.9286361 0.79527 -0.48765445 2.1169467 -1.7693374 -1.6826843 -3.674725 -2.571013 1.1611816 1.9016827 -1.5729834 -0.014833509 4.1948905 -0.24642427 2.7100296 3.3671443 1.9140801 -2.683991 -3.7614532 2.2552958 0.6965082 0.758162 -0.65771085 -2.8892655 1.2987915 0.49253955 -1.3863894 0.5978218 2.8518157 1.5425373 2.8595662 2.4350095 -1.499767 -1.9509008 4.437541 0.5312142 -1.1416525 0.12567504 1.2766033 -2.3528264
t 0.7217209 0.21656659 1.1529645 -2.3606656 2.7278948 3.1886528 2.8175297 -1.1371138 0.20362109 -5.3369393 -0.8383235 -1.3445975 -1.7228299 -3.6438832 -4.4121337 1.6486158 -2.7735739 1.958715 2.2858198 1.001932 0.45342582 5.4093947 2.8483827 -0.25569925 1.9010574 1.3961477 4.3265624 -3.3566766 -3.3884003 1.0934346 -4.158642 3.9146037 0.029692166 0.20501097 -0.6965898 1.8930646 0.48907173 -1.3503367 -1.2665131 -2.6402624 4.5738044 1.1353121 1.0062629 -3.0453353 4.5282826 0.29002395 -1.3295302 -1.2012271 1.1541207 -1.8984349
kelw -2.6029007 1.5872027 3.4394593 1.94858 2.455723 -1.9756638 -0.20052195 -3.9370437 -0.03845799 1.5233792 -2.014143 -0.14004202 2.1814432 4.115908 -0.15462384 -3.1619327 0.344559 3.091749 1.3540171 -4.067172 2.0985346 0.15721193 0.30561092 1.2197577 5.933243 0.6091601 2.2753417 -2.0334654 -4.840766 -1.5277033 -0.45853987 1.044157 -1.726228 -1.9371756 -0.51821315 0.6237122 4.032882 2.1539943 4.7274823 -5.815361 -1.902216 3.1347687 4.246338 -1.8864539 -3.0603797 0.2995523 0.8595379 -2.0651135 0.1822922 2.7179468
tedxeli 1.9588716 4.5859346 -1.7788683 1.7358978 -1.6353872 -0.7503012 5.036782 -2.7656975 -1.396185 1.526092 -1.4917895 0.36229345 1.5572021 -1.1654308 -1.4070342 -5.454518 -1.8193482 -0.68724215 -0.9193959 0.06436561 1.8738958 -1.6263683 -1.2065706 -0.28882226 2.6663625 -0.69575465 1.7127423 -1.9471835 -0.6973216 -4.318779 1.0918772 4.3629723 -1.7803879 0.36130512 5.322323 -4.2342825 0.4674429 3.9634635 -2.7606237 -0.1661677 0.19870228 -1.160467 0.6499601 0.63920176 -1.9321779 2.4142623 2.2595685 -2.0436625 4.028902 -2.3149405
ye -1.7663153 -2.6763406 -0.6484254 -2.3488197 4.2067327 -3.0795283 3.3825116 -2.2837846 2.1456487 1.3515556 3.2041364 0.10915749 -0.5907178 1.8395734 -1.34395 -0.008901327 -0.114562064 1.4621603 -2.4209778 3.1581686 1.2299694 -1.184058 1.1744713 -0.67023396 -0.4271565 -1.6670917 -0.021007031 -2.2053618 -1.1605942 -0.6827251 3.208578 -0.7893719 -0.8632199 -3.552806 2.8844736 -1.7176806 2.2269216 2.3618932 3.250014 -3.7831888 -2.5778117 1.3001454 1.5403523 0.5645253 0.36426088 2.6359463 -2.771695 -0.17941245 -2.2283447 0.42754298
lX 1.0345489 -1.9956667 1.7785782 3.336206 -0.99067456 -1.9984545 1.9791241 -1.6870526 -2.8533998 1.7043389 3.5199795 -0.3101235 -1.1487578 -0.29795122 4.494972 0.8604322 -1.126856 0.65872645 -2.4006863 -2.6942992 -2.2711794 4.691198 -0.13935031 -2.1639888 3.0851998 -3.0252771 -2.0442526 -1.6194404 -2.2321496 -1.3609961 -2.558276 -0.2939549 -2.3666222 0.18491505 -1.6886098 1.4001528 -1.0873735 0.6492754 0.30705777 -4.245661 -1.2698791 -0.12464519 0.28598246 3.7620103 0.61025614 1.2061734 -1.8995174 -1.7645692 -2.5778582 2.0816848
pElmES -1.6760627 -0.6365626 -3.8155859 -0.22762646 1.6526698 -3.260347 -2.1933653 1.486499 1.7255092 -0.64794564 0.13267642 -2.5390193 -2.34457 2.7463186 -1.2361087 0.7442958 0.38698718 1.133195 0.70813394 -1.8955069 -0.4143704 -1.1681461 -0.245081 -5.010523 2.0988958 -1.4141405 -1.5795959 -2.1355531 0.9024583 -2.0716574 -0.67188257 1.5393482 0.7555028 -1.1203128 0.96370804 -2.1311147 0.49925792 -0.98176175 -2.5405679 -0.016953098 -0.49595308 -0.22380765 -3.0672402 1.731416 0.9650119 -0.49467698 0.35971904 1.2550571 0.26235038 3.7394457e-05
ant -2.064315 1.2076844 -0.7968843 4.059352 -0.51241595 0.4087834 3.2379057 -3.6215744 1.6893189 2.7562914 -0.8864354 0.31613958 4.34764 0.6679836 -1.3931043 -2.0228589 2.0706913 0.90359396 5.507394 -1.0233271 3.7082813 -0.567359 -0.23775558 3.5754259 1.8956954 -1.9640372 0.10322353 -1.0037498 -1.4060456 -0.78836685 -2.150132 -0.6825603 1.5882373 2.6783736 0.5045791 0.77526116 2.2043555 2.4941218 -0.17345887 -0.49903455 2.3031144 2.8311608 -0.5360064 2.0228658 3.5421424 1.3466138 -1.751025 -3.629812 -2.3814254 1.174991
SEni -3.1521566 0.082699284 0.45667043 4.4767475 -0.56084317 2.530795 -0.8166671 -5.1713657 0.5129066 0.97351485 1.6432528 1.6763043 1.7855833 -1.9296789 -2.8690953 -1.2856257 -2.2795417 -0.75464594 2.376245 1.0742861 -0.20549625 -0.51741296 -2.9226077 -0.3498698 3.0555475 -0.8686711 -1.846298 -1.0939218 -2.5270014 -0.36417684 0.40757912 -1.5989277 -2.2958438 4.197373 -1.6302515 0.8142369 0.9265523 0.1301628 -0.08914808 -1.1630405 -1.3524961 2.8041952 0.039603446 1.4051977 6.061164 -1.2977691 -0.90714324 -0.87855685 -3.3987374 -1.0035379
wkite -2.24972 0.009539087 -1.4238837 4.2431498 -1.4237856 2.0035338 0.29695845 -4.7028723 0.000482702 1.7013291 2.1514268 2.2712762 3.1889508 -1.8006508 -2.515251 -1.4362417 -0.08258638 0.44131494 4.834546 -0.88847005 1.105642 1.1837876 -2.2489014 0.6356057 4.0930786 -0.32819346 -2.0487347 0.14950278 -4.1662655 -1.4434277 -1.1572171 -1.7171521 -1.0702171 4.187233 -1.4484361 0.055690363 1.0368445 1.8822596 -0.17261386 -1.9472089 0.62985986 3.6485183 0.4682473 2.9018636 5.312571 -0.5317187 -0.9404901 -1.7037492 -3.8838584 -0.41647208
yikidke 2.617112 2.2094471 -2.518114 -1.3379693 3.226666 -2.6304119 0.77654284 0.78699785 -1.8445239 -2.0926273 1.8220662 0.1839408 0.43399763 -0.16030027 1.687617 -1.7440413 -0.5287491 -0.40565157 -0.33904064 3.2460353 -0.1475727 -0.4848698 2.883781 -0.7446845 0.24885854 -1.1620805 -2.076305 0.47384351 -2.240267 -2.116288 -0.24897414 -2.7741218 0.73264694 1.2220457 -0.14232498 3.456913 -0.9007285 -0.7004097 -3.0094604 -0.39050317 1.1068604 3.7487094 0.9201325 2.2344124 1.6288117 3.2501853 1.2387449 1.7961376 -0.79266214 0.4144308
apEte -1.6918097 -0.49128476 -1.5248529 -2.2640283 1.214283 -5.329878 0.81403285 1.4749919 3.0895135 -0.52539444 2.790286 -3.654601 1.0744437 3.544398 -1.7706035 1.1097652 1.8234069 -2.156178 -5.128064 1.6958182 0.55247396 0.9570331 1.9404751 -0.36517707 1.676993 0.93995035 1.4055696 1.1008868 2.6926577 0.9571305 0.29394934 -3.6573703 1.0966582 -2.2869844 0.64761233 -1.0295796 -0.88207877 0.46346125 0.92662627 2.107336 0.98521584 2.0742817 1.453766 -1.3319793 -1.4153575 -2.0496485 -0.20162049 1.5343726 0.7440214 -0.59975046
wetrri -0.2756019 1.7388144 -3.3187604 1.0247723 1.9419553 -1.1556716 2.2419264 3.0546436 -5.880612 -0.22446331 -1.4551231 -2.55391 2.353696 -0.47583252 2.1265264 -0.7006992 2.5035486 -2.842241 -0.88778025 -0.41013587 -2.471531 -0.12629771 1.9451586 -0.31582752 1.4046186 -2.5706615 1.9322194 -4.278205 -1.0399956 -0.030449921 0.6678734 1.0263264 1.2098075 -1.3021642 -0.053849027 0.100804344 -2.1075568 1.71747 0.6932286 -0.14587346 -0.66151524 2.1696181 -5.7964044 0.36239874 -1.3718398 1.8403645 0.5817594 1.9699253 1.1325966 -0.90672326
qetrri -1.9428587 3.0605028 0.83583087 1.7821022 2.7897491 -2.166554 -1.4808929 3.7000964 -3.8902545 0.12259358 0.88176763 -0.7480876 1.8690422 4.3062015 1.9849144 0.034251165 -0.6511806 -4.6548314 -2.1075912 1.510168 -0.50245357 1.9387705 3.8697522 2.2978961 1.8099401 -1.9335911 1.0533608 -5.241578 0.41423863 2.2312348 6.035192 1.4064717 -0.20683295 -2.9345608 -1.5577146 -1.4075897 0.15702488 1.3544496 2.245591 -0.7056553 -0.73391604 4.173459 -3.4984717 1.3419573 -0.53498334 3.3151343 1.3353243 1.6723309 -0.6125034 -3.4290495
kdite -0.8839109 1.3198858 0.5975026 -2.5493164 -1.0104934 -1.7390597 0.9972281 -0.21090397 -1.6603918 0.34441084 1.4441048 -2.5810497 -0.4435299 -0.04571151 -1.0741174 2.1602376 -0.22235249 -0.61002433 0.8534773 0.2983938 -1.4903108 -2.2173395 0.92299265 -1.595081 1.7859449 -1.026474 -1.5347314 -0.61817926 2.0486948 -1.998686 -1.9945303 3.8816435 2.190501 -1.3531795 -0.91269124 1.2549922 -2.480634 -0.1716482 -0.113851085 -3.108435 0.69683295 1.0120128 0.045962397 0.33981833 -0.08746732 2.43872 -1.4542663 -6.022646 -1.9465383 1.4534404
blye 1.0927281 1.0200833 -1.4827265 2.166056 0.6454968 -0.82808053 2.5315926 -0.3395564 -2.3585298 1.3581499 -2.0540376 0.4135191 2.7043347 -2.5825963 4.465345 -1.279148 -0.0018695106 -1.4430312 -1.3509235 -0.6082065 1.4196486 2.4591053 -0.2724403 1.4853728 2.411101 -2.1568153 2.4100451 -0.19312191 -0.6272689 -0.7531146 -0.022909403 -0.96487147 -1.1111002 0.9809184 3.0674734 -3.1431432 1.9949075 4.4023747 -1.9547005 0.890021 -2.2144573 1.0744754 -0.07968261 1.496328 -0.06371554 1.73935 2.2575417 1.876331 2.6985314 -0.27907285
mete 2.936934 1.414536 -1.6833909 -0.21323822 0.758934 0.5157562 0.5721155 -1.0596666 -1.084547 -2.4581335 1.1763155 0.24204776 1.727853 1.7021062 -0.6552558 -1.4125185 -0.15850556 -1.150097 1.8056246 3.0919676 0.3489153 -1.078674 2.080243 0.051346254 -1.2544235 0.55824846 0.06345244 2.7437344 -1.3424741 -0.005305942 -0.5856909 -1.5821699 2.6813908 -2.167006 1.834625 1.136283 -0.22855139 -0.5904866 -1.1684105 -0.49297675 -0.70849156 2.1099715 2.3546557 1.6313816 -1.3457366 0.78061265 -0.575422 1.661623 0.64589924 1.405287
mlekeyEs 0.015872452 -0.29845482 -3.1807644 -0.43974072 1.9801049 1.1778953 -1.8241622 1.7163467 -0.44761026 -1.6399637 0.6628046 -2.2843194 2.1899264 3.417332 -1.97607 1.1735212 1.8407638 2.2460415 -0.93479794 0.958072 -0.2625101 0.37121397 -0.649451 2.1408312 1.55271 0.79731846 -0.17519611 -3.5193598 -1.1815156 -3.681262 2.338982 -3.510901 -2.4386654 1.7758656 -2.0536313 -0.24432379 7.637217 1.0944356 -0.40940145 -2.6823068 -0.3453596 -0.41017118 -0.30102292 1.5947424 -1.6841162 -0.43745145 -1.1286391 -1.1736706 1.9612306 -2.882583
....s -1.3466128 0.20431903 -3.3372405 0.5688453 0.81712717 -1.4696634 -0.17852029 1.4199461 0.9520479 -0.7911197 -0.8516276 -1.8182739 -0.934908 1.3992603 -0.795413 -0.35226732 0.16429676 2.4011364 0.505486 -1.1932003 0.76281047 -0.96544224 0.75028634 -4.091369 0.3073571 -1.5079172 -1.9082327 -2.2106597 1.597584 -1.0215625 -2.0083954 0.8488816 1.0237832 -0.25688526 -0.4786181 -0.735694 -0.4905033 -1.1459528 -2.3700252 -0.33510023 0.506888 0.1773509 -1.6787337 0.7667338 2.730169 1.5605015 -0.7969769 0.04414443 0.3209526 1.6922257
kiSri 2.022141 -0.33530736 0.03240684 -1.0787926 1.4648607 -3.2010248 -0.25802532 0.55035865 0.00032566342 0.580053 -1.412636 -2.7113986 -0.45175117 -0.49520957 2.547745 0.97880095 0.26840287 2.248221 0.52273077 1.2168394 0.5575331 -1.0239012 -1.5995786 -3.4580896 -2.0841846 0.14369534 0.3063542 -0.016889436 1.7912635 -0.32594207 -1.8301668 0.21703939 0.4329348 1.5815154 -1.1158226 -1.9634258 0.026958607 0.23609689 -1.841807 1.2890502 1.1542076 0.057038423 -3.256167 -1.0184659 1.5078903 -0.84379005 -1.9119085 -3.1886294 0.23357531 1.4101778
. -0.6101666 -3.142343 -1.9457302 3.0814557 1.8394525 -2.0389318 -1.2618607 0.59932864 -3.6380854 1.7336599 2.0481105 -0.90412736 0.60824585 -1.1792086 0.4520801 -2.2301428 1.6086489 0.041247424 -0.5001426 0.33974972 1.5182958 2.0520184 -1.3587637 -1.988763 1.2193664 -0.34366667 0.7707152 -2.6123927 -0.58379465 -0.410682 0.29129836 -1.9305156 0.44486684 0.9475681 -1.4125175 -0.16036084 -2.1200175 2.593622 2.5197 -2.0428364 -0.13571435 1.6514516 0.6693477 2.0927992 1.6860887 0.70855546 1.7275296 -1.3674456 -0.115122445 0.7629761
XlXili 1.8573442 1.4179821 0.24415089 -3.3921623 -0.12252514 -1.9420378 2.151532 1.3356524 0.20269573 -0.21414725 1.8160119 0.81869096 -4.1736164 -2.6901004 -3.28125 1.9807597 -0.579504 1.8557808 -3.4535859 -1.7468015 -3.265367 -1.0471288 0.36947754 -2.2832835 0.30356857 -2.124622 -2.8554394 -0.08251875 2.6149714 -0.43897367 1.5676724 2.0537205 -0.18441224 -0.81111985 1.7160453 -0.15676898 2.3185909 0.12670483 0.3859519 0.248675 2.9396427 -2.4336095 -0.78118193 2.4495358 0.38008547 1.0845515 0.3689446 0.2996311 0.21092671 0.67256373
trqlXli -0.104459316 0.85452163 -0.37092203 -3.4369342 1.8298432 -0.4325018 -1.1236511 0.45049253 0.71612597 -1.096081 0.54052335 -1.4490982 -2.9523973 -0.51878375 -4.1014376 3.5012133 -1.502269 3.2654495 -1.3444378 -0.31274518 -0.9022248 -2.924973 1.058158 -1.7834871 1.3951626 -3.2535667 -2.7628453 1.8966577 2.2941964 -1.9426769 -0.08538675 0.5158611 -1.2968622 -2.6139543 1.3721678 2.1718788 2.6484873 1.6866839 2.3649216 -1.9106885 0.7852544 -2.8956146 -5.083505 1.6569867 1.7452879 -0.5457279 -1.470242 -0.41257858 0.76334536 0.22734846
trq -1.2308607 0.79761946 -0.334224 -2.8607295 1.8937184 -0.47046527 -0.851283 -0.11818264 0.6632003 -1.3292849 0.6026572 -0.7731639 -2.8593903 0.28041852 -5.179167 3.6942792 -1.0435604 2.7357845 -0.2200845 0.28800353 -1.8389409 -3.5713475 0.49739155 -0.9370056 1.8728935 -2.7604752 -3.0419235 1.8345796 1.9759316 -1.7243346 -9.5114054e-05 1.6872071 -1.7303791 -1.7749242 0.85515267 2.21017 2.5826833 0.69048786 2.700087 -3.10567 0.06289007 -1.6635194 -4.712634 1.30662 1.6314672 1.2028222 -2.4413724 -1.2616621 -0.5854723 -0.9078296
apN 0.83109826 -0.067807555 -2.5976684 1.1433301 -1.5859706 -0.8821942 2.2254922 -0.8629416 -2.2730439 1.4303019 -2.1351285 -0.8649136 2.3075166 -1.3735348 1.0531263 -0.5943596 0.1086815 -1.1449847 -1.5888234 -0.090570636 2.6119123 1.1916108 1.10324 0.8125377 2.0335398 0.10960647 0.4242726 -0.10037704 0.058917437 -1.1602771 1.148686 0.19307673 0.0271931 0.30623698 3.9621086 -2.917235 0.51359 4.0696716 -1.0750635 -0.41461363 -2.6820474 1.2867388 1.3130802 0.99470806 1.0341183 1.7078862 0.8684994 0.5748665 0.3638333 -1.7989535
keN -0.21702975 -0.31478798 0.44263527 -2.395728 3.542297 0.26090315 2.1415815 -1.8776046 -0.76552975 -2.9748373 1.8303516 -0.66938126 -0.5088194 -1.6717125 -0.93409514 1.2704165 0.1012941 1.7428002 -1.8773239 -0.15316229 0.6975712 2.1413333 1.0279027 0.3777273 1.6888251 -0.027736984 1.4519438 -3.3049078 -4.0301423 0.594383 2.0872326 2.5588443 0.03415683 0.4733646 -2.522201 3.3376012 1.1109942 -3.2757118 -0.87009203 -1.3043959 2.9537666 0.46392 -0.8269065 -0.73724216 4.481045 0.5304315 -1.289516 2.2065446 2.1913514 -3.3947968
perite -0.55816025 1.2775477 -1.93198 0.23160592 -0.950535 -2.414096 1.1658032 -0.17679553 1.7169539 0.32117337 0.72476614 0.12985237 -0.005040183 -0.78445125 0.29861835 0.34162846 -3.1514552 3.5979648 1.1385115 0.08917155 -0.55074966 -0.15965262 -1.2265013 -1.7522678 -1.5282651 -0.46961093 -1.6463165 -1.6814092 -1.2202413 -1.9917302 -1.1040105 1.9277436 -0.7653075 1.4293008 -1.3865294 -1.6138235 1.718532 4.217091 0.54600614 -1.2426283 3.0764089 2.7615879 -3.496168 1.8933825 1.6884384 1.5860523 1.6583959 -3.4603074 1.6801758 -1.0687457
piSiXekes 0.6973968 -1.1986697 2.521587 1.2056782 -1.484648 0.17344433 -1.0004157 -1.4850717 -0.5436943 -0.12704779 1.6084704 0.27124974 -1.7641735 1.7417008 1.170358 -0.13783294 -2.5291727 0.5353801 -3.3378956 -2.1260655 -1.9039793 2.9444816 1.1785568 -0.7139241 1.792799 -2.0736077 -0.6823826 -0.63556165 -3.8378274 -0.28386214 1.6364715 -0.21245788 -1.125689 -0.5391885 -0.73301744 2.1933186 1.7296853 -1.1708989 -0.56216335 -1.6041169 -0.31646368 0.91406053 1.6487291 1.5427079 0.94690895 1.1110153 -1.6968424 1.526669 -0.78191775 -1.2650543
teketi -2.850751 1.0448482 3.4667559 -2.907063 0.26374474 0.03943106 1.2497506 1.6057583 -2.2282422 -1.2537506 0.46238777 -2.9392357 -1.0505786 1.0770705 1.2621164 0.75292003 0.25570148 2.341848 -1.5916263 -3.06399 -1.5187439 2.4095075 -0.50943434 2.014867 0.6932237 2.332449 1.6853937 0.6804868 0.46675536 -1.2210541 0.33353418 -1.2814457 -1.0908567 1.5438737 1.676653 0.44097757 3.5974343 1.145491 3.2375598 -3.1345315 0.3067263 0.51333684 0.8579452 -1.681059 0.77871746 2.224152 -1.6463606 0.88380814 3.0013514 -0.74073607
SSEr 0.20295466 -2.0438895 -2.1987634 -0.28858238 2.1634316 -0.88549054 -4.2018127 -0.21011433 2.2451437 0.68826306 -0.64049107 -1.3511988 -1.3077935 2.557789 0.17821692 3.0090637 0.32257384 1.0699512 -3.8785741 0.8580814 0.03552006 1.9445224 -1.0125685 -3.2761316 3.182324 -1.2999799 2.4481611 -1.7927581 -1.477938 -2.0976565 2.2180512 -1.7286079 -0.023313522 0.8638118 1.2046571 -1.2589304 -1.4147782 0.07141318 -0.046879362 -0.06264959 0.35751367 0.21431236 -3.4908278 0.55492115 0.3030383 -1.0696523 3.5270467 -1.3791755 0.0656212 -1.901465
adblis -0.5451681 1.418089 -1.1245953 -0.37779677 -1.2053663 -3.0227225 -0.2457794 -0.13875107 0.83589894 -0.038875263 0.009152977 -0.90054744 -0.6775313 -1.2567424 -0.76926434 1.0540057 -2.0111556 2.7913694 1.2687883 0.71473795 0.7176015 -2.0260413 -0.71408784 -1.236125 -1.6152928 0.21652836 -1.5543077 -1.9307438 -0.13221698 -1.6760664 -2.0080395 1.3806967 -1.4527036 1.3205901 -2.1335247 -2.1994326 1.1374453 2.8054461 0.6056161 -0.76233923 2.6017172 2.8290377 -1.4146938 1.1734129 0.7050519 0.21570075 0.87098557 -3.4585586 2.301158 -0.5801957
tmdelEwi -2.6740303 0.5431396 -0.43454042 -2.9661758 2.317138 -3.0983083 2.3111093 -1.6170019 2.059889 2.0133674 -0.7331574 -1.4841826 -1.5301228 2.54575 -3.236233 0.45817557 -0.1333685 1.0776625 -2.0499575 -0.64638436 0.52620757 -3.287278 2.1664674 0.09670091 -0.24757256 1.1578933 0.6888511 -0.3776433 4.0558286 -1.0352 -0.3032716 -0.92818815 -1.0236428 -3.6175687 1.5786206 -1.923899 1.9115316 3.6672025 5.063936 -0.36684394 -0.29023966 -1.2140311 0.27139774 -0.7728086 2.1959665 -0.21265581 -3.4704096 -1.63985 1.3246417 0.51342547
axid 2.5633938 -0.090535 0.19465455 -1.8240958 2.78414 -1.660005 0.8385146 -0.051047903 -0.7969248 -1.6102699 -1.4538505 -3.1134248 -0.1090727 -0.1996718 1.0466857 0.9617401 0.28457904 1.6927139 0.23068398 2.0790827 1.6482775 -0.31394243 -0.33521608 -2.4321892 -1.1507046 1.1888237 1.59214 0.8056793 0.38453263 0.1022882 -0.0011786903 -0.3231751 -0.25560597 2.5804021 0.18460242 0.23914312 -0.029516956 -0.5345485 -1.5388459 1.6925055 0.95147145 0.37492472 -1.9673384 -1.9105285 2.2217052 1.5261431 -3.3814263 -2.3959403 2.0778272 1.2677917
kiN 2.2904902 0.13558733 0.61384237 -2.2157247 3.1872835 -1.1281404 1.1600457 -0.34633392 -1.4541329 -1.8907526 -1.2731302 -3.4181402 -0.19852512 -0.25422376 0.57167524 0.3791013 0.37675983 1.3233325 0.33215067 1.858962 0.963836 0.012144897 0.070968 -2.39284 -0.6364392 1.4060469 2.3311157 1.3333527 -0.5880226 0.2032434 -0.01676835 0.022801677 0.36209065 2.9959803 0.4854728 0.9957129 -0.62926817 -0.90706 -1.4167972 1.2937356 1.4761013 0.31240374 -1.8918674 -2.297037 2.9030154 1.9966303 -3.4952037 -1.8090616 2.1144052 1.4204515
nbrlis 1.0930583 0.537555 1.6476094 -3.6864533 2.685202 -0.30918428 1.6838506 0.38587722 -2.588927 -2.759927 -1.0622519 -4.191442 -1.1777738 -0.16652171 1.0853814 0.21002418 0.6377489 0.89238393 -0.019122563 1.2983267 0.226154 1.1741248 0.7784002 -1.169269 -0.68036735 2.4643645 2.7718542 1.7397368 -0.64768076 0.08418911 0.3805081 -0.49462688 0.4518571 2.4755266 1.5425411 1.6671538 -0.22951037 -0.896918 -0.19409327 0.7372817 1.402705 0.11432922 -1.2490493 -3.056719 2.781703 2.312425 -4.030094 -0.2423057 2.8470118 1.0680817
belebeltEr -0.35771936 0.7232416 3.007243 -3.772672 2.4741292 0.84592426 1.3649174 0.46567944 -2.9547112 -2.9803586 -0.5552701 -4.0875936 -1.4240817 0.0917808 0.68202335 0.05307348 0.24651225 1.0968904 -0.19397487 0.030103344 -1.0576414 2.2887778 0.53451836 -0.29020247 -0.21684192 3.6863222 2.2170875 2.395648 -1.4450009 -0.2052683 1.1189122 -1.1467133 -0.047740877 2.9658055 1.9435025 2.4068637 1.507035 -0.8270033 0.79064405 -0.3751986 1.1288863 0.12620996 -0.9564477 -3.0824564 2.8604708 2.9514592 -3.560428 1.288178 2.8624408 -0.19088063
kditelEwi -1.3787003 0.2195441 -0.92647386 -0.39530045 2.159979 0.27691582 2.0890517 -1.2533329 1.8415357 0.5579339 1.6005621 -0.5616056 1.1332116 1.039169 -1.2305442 -0.8912076 0.3933253 -0.057722833 -0.45543328 0.7760319 1.0047336 -3.3994875 0.6842454 0.7467021 0.67295986 -3.1152213 -1.4457715 0.37576213 1.9852307 -0.75934803 -1.7716026 -2.042902 -0.25191054 -0.34547806 0.7250058 -2.4831738 1.3827212 2.2262678 1.7728505 0.81014127 -0.887647 2.97875 -1.2220689 1.6601918 3.9806192 0.7493393 -4.8294115 -0.4824364 -1.9650491 1.6985801
dbretelEwi 1.1255063 -1.1064861 1.7545532 1.8521653 -1.1715063 0.6424554 -0.81565285 -1.0486487 -1.3041425 0.6219106 0.75976366 0.054103456 -1.8083642 1.6200793 2.4789977 -0.97873265 -2.442226 0.60935605 -2.6162438 -2.8426306 -1.5237218 2.7393897 1.0368503 -1.4322441 1.9778328 -2.6889462 -1.2437207 -1.3550723 -4.046346 -0.5636202 -0.41914278 -1.4414444 -0.8505858 0.16873716 -0.81424373 1.5222263 0.40802026 -0.89292765 -0.36678705 -0.7099478 0.29158342 0.69797206 1.752922 0.69367003 1.3681564 0.78770036 -2.173884 0.85966176 -0.7171246 -0.17119338
temeykdi 1.3358077 -0.4986193 1.1273853 2.7725685 0.23704572 0.49045077 0.42933872 -1.5367571 -2.191245 1.3994783 0.89680564 -0.46293384 -1.7866187 0.72539204 3.0235763 -0.59092706 -1.6723586 0.7322658 -2.0906386 -3.119185 -1.4024158 2.2966814 0.52826756 -1.0142416 2.8230114 -3.0332675 -1.1136293 -2.4275553 -3.778886 -1.809376 -1.8013248 -2.0059025 -0.711298 0.57389927 -0.5409051 1.0876065 -0.11207163 -0.3175316 0.5268782 -0.23835021 0.7928093 0.010940476 1.765753 1.9684997 1.3271701 0.7209608 -2.024356 -0.6215153 -1.3047795 0.98848367
.....aSrli -1.1425011 -1.8451573 -2.0544086 0.50733894 3.0538533 -1.6795449 -2.769336 0.17723711 -3.2302418 0.1832035 0.9084888 -2.0625942 0.06782424 -0.96156657 -1.8008168 -1.142987 2.4223223 0.31097433 1.983892 0.8565798 1.6904864 0.56509197 -2.460337 -2.4070709 0.7888733 1.2638619 -0.88875616 -0.40656245 -0.09757915 -1.3685498 -0.27036437 -0.47776666 0.592115 1.929174 -2.3149333 1.0733784 -0.22854526 -0.67905265 2.8151796 -2.4036617 0.2967587 -0.57015556 1.7100661 1.1749036 3.454266 0.012506792 1.2174839 -2.4422894 0.5899322 0.28874055
pSixrkes -0.18005149 -0.68061537 2.6446462 0.21423574 -2.3023143 -1.2767074 -1.0371506 0.16739413 -0.06209961 -0.90336233 0.8071166 -0.89505625 -0.33931148 1.9607682 0.17160366 1.1593657 -1.14411 0.34136447 -2.3003488 -0.9027518 -0.8190104 2.4932592 0.36355996 -0.99991184 -0.5899807 -0.13488412 -0.016126078 0.80802816 -1.2395972 0.6981024 1.9440624 0.99781376 -1.2660422 -0.48483545 -0.34609026 2.4912217 1.8302757 -0.64216256 -2.1637952 -2.5568104 -1.2430716 0.81113905 1.0911206 0.7197542 -0.21336344 1.8181368 -1.4198121 1.8103653 -0.28109556 -1.1644987
tetelitreli 1.8399905 1.538741 0.38404083 -2.8458073 0.59193224 -1.2889382 0.58138394 0.36976427 0.5390193 -0.45750052 1.7946844 -0.18663436 -3.5776706 -0.9713018 -2.5884135 2.606903 -0.00042615941 1.7669417 -3.0726788 -0.77716607 -2.6139727 -1.3469797 -0.14354394 -2.5764155 0.071216516 -1.3726784 -2.3148868 0.13486013 2.956313 -0.5906254 1.5243638 1.7484177 0.21608585 -0.14628464 1.7979746 0.44187397 1.054783 0.036797684 -0.2543705 -0.042116508 1.7454876 -2.4381492 -2.3240788 1.793904 -0.10613083 1.421548 -0.17556338 -0.44291648 -0.45584175 0.53535575
tereke 2.6226666 3.9350274 -0.96804863 -1.0855837 -1.8808502 -0.7894338 4.6165075 -2.5394566 -0.6306962 0.16072057 -2.038393 1.4958862 -1.3825457 -4.696822 0.4257323 -1.8697218 -1.2267733 -1.7965763 -3.091158 -1.2607327 0.16217953 0.53178775 -0.62862796 -0.9455314 0.7011672 0.79245704 -0.23816784 -2.290782 -1.1704191 -0.6369889 -1.0401345 2.7072966 -0.21933416 0.59095323 4.091402 -2.5757775 3.1880193 2.998745 -2.7135546 1.1409618 0.44043642 -0.06910759 2.0169048 0.8400195 -1.9340429 1.1901534 1.6049209 2.2174394 1.2147619 0.86437356
Sklw 2.5929847 3.8265839 -0.598899 -1.7078283 -2.2105105 -1.0001495 4.587606 -2.1233044 -0.8882188 -0.0894382 -0.9889749 1.6922648 -2.0083604 -4.5887995 0.16626805 -1.2014861 -0.88759357 -1.413986 -3.701305 -1.7564038 -0.6823425 0.27027094 -0.66727424 -1.2028291 -0.16355157 1.2795799 -0.4849363 -2.7025044 -1.2492491 -0.14457038 -0.8888398 2.9700143 -0.32578006 -0.049526 3.6046448 -2.1688333 3.003307 2.5610664 -2.3692682 1.4736419 1.6209681 -0.35456786 1.7916546 0.07560082 -2.3749354 0.7976836 1.2053012 2.0435004 1.3145577 1.0739349
weXEke 2.7517717 3.794875 -0.31678575 -2.4763844 -2.1827857 -1.0114119 4.363002 -1.170679 -0.23968707 -0.6495936 -0.320374 1.652698 -2.5961833 -4.627373 -0.23099422 -0.87316465 -0.7118464 -0.86598825 -3.8846326 -1.8149827 -1.6256807 0.19490781 -0.79872465 -1.4475329 -1.0961097 0.7732271 -1.5003785 -2.2520475 0.3075759 -0.1715364 -0.95309615 3.1464953 0.33616236 -0.081345275 2.293944 -0.8527452 2.2555313 2.270323 -2.2067864 1.4202113 3.082858 -0.3243171 1.1915337 0.75477827 -1.9939336 1.0989465 1.5227721 1.4821306 0.4193148 1.441852
Xt.temeylX 2.3465 2.6770108 0.52249527 -3.212427 -1.6567233 -1.2123065 3.2228363 -0.7001672 -0.26885837 -0.79010755 0.8270079 1.4976355 -3.1008348 -3.8241298 -0.9200745 0.10414753 0.17174812 0.35498515 -4.6543202 -1.6723585 -2.3057396 0.15130845 -0.29202676 -1.4184483 -1.061284 0.19109325 -2.101878 -1.3227174 1.3320198 0.37003356 0.39836505 2.6581693 0.03317879 -0.15939154 1.9021236 -0.078876875 2.0199397 1.4318298 -1.6941348 1.0664493 3.571697 -1.1280831 0.4999499 1.0340664 -1.2714589 1.4367441 1.2393036 1.0364661 0.070270516 1.32306
lqEye 1.0831653 -1.5066949 -0.8789908 2.482803 1.4390234 -1.080074 0.55323625 -0.9901618 -4.86526 0.5069994 2.253829 -0.60667753 -1.3274237 -0.26778367 2.220114 -2.0105586 1.0073264 0.15212172 -0.4432219 -1.269509 0.24372116 2.785093 -1.5839818 -0.54565966 -0.4036287 -1.8361524 -1.2714252 -3.1992948 -3.0177698 -2.3260744 -0.44229257 -2.6533425 1.8612481 2.293562 -1.7769033 -0.11844005 -1.2655869 0.2173666 3.637257 0.6701633 2.300626 -1.2171618 2.500286 1.3303378 2.53057 0.4229736 -0.9657189 -0.67916906 0.23701112 1.7395945
StelEwi 1.3584121 -0.26842782 0.15931532 2.982922 0.4969968 0.4840729 0.57835996 -1.6168305 -2.7455652 1.5733818 1.3467666 -0.30843684 -2.1865828 0.5580208 3.0312479 -1.1015384 -0.57497776 0.9653578 -2.3045866 -2.875153 -1.3611525 2.2695549 -0.0039037752 -0.9120405 2.0613139 -3.1705542 -1.6461824 -2.7565892 -3.6644406 -2.0723405 -1.7476022 -2.6083739 -0.263923 1.9911735 -0.8416146 0.30129832 -0.45516166 -0.3045478 1.8506807 0.53753173 1.1943728 -0.47069177 1.782221 1.5074265 1.3601241 0.3038725 -1.8075019 -0.5866421 -0.70118463 1.3307941
temeylX..qEye -1.726209 -1.1404524 -2.0584571 0.8635532 2.2300153 -1.9591837 -2.2062278 -0.74194413 -4.0752296 0.17034271 1.0465002 -2.7714562 -0.420985 -1.0556165 -1.07833 -0.17682862 2.4748166 -0.2412642 2.7379875 1.1823337 1.536121 0.23201495 -2.3646753 -1.446803 0.6493138 1.1772768 -0.8181845 -0.9404372 -0.22940302 -1.5271069 -0.86111885 0.52724576 0.55130726 1.4288111 -2.0449805 1.4357092 -1.0276951 -0.66625994 2.2088182 -2.6031487 -0.34005967 0.2660066 1.7701906 0.99651235 2.0195627 0.94523823 0.74566627 -3.3794262 -0.24759057 0.69363916
mteli -1.0817932 0.47541347 -0.07032688 -2.5537782 1.3770899 -0.24678054 -2.2108006 0.58976966 -0.14980218 -2.0213773 0.5948624 -1.5036376 -1.6389456 0.49300367 -4.0389166 3.480841 -1.127767 1.9353273 0.7914875 0.21999082 -1.8971517 -2.8009386 -0.020753996 -1.4980314 1.9747236 -1.4760375 -3.2118094 2.3727558 0.43113235 -1.7055516 0.17487416 2.3212812 -1.7645292 -0.9577498 -0.43493307 2.6314287 2.8391602 -0.74268675 1.4527445 -3.6167712 0.20979609 -0.75984037 -4.0667143 0.8899933 1.5207412 1.3993051 -0.80328184 -1.80385 -0.13973373 -1.859494
peleklia -1.5652893 -0.20322903 -1.6777369 0.07765658 0.43789038 -1.9576788 -1.0255781 0.9039585 -3.8879664 -1.239755 -0.15359077 -1.9500011 0.1238266 -0.2030958 -0.646249 1.6756818 1.394918 -0.7768112 3.4810684 1.2269922 0.7057659 -1.350501 0.49609622 -0.46971622 2.1858869 0.71059495 -1.1037114 0.23346855 -0.13226414 -2.054073 -3.3297987 1.1941389 -0.12626392 -0.09225067 -1.8117855 2.6993647 -1.3891743 -0.75061107 2.093624 -3.7746968 -0.7643827 2.2230337 0.46443668 0.1311114 1.0017841 1.0651098 -0.045187015 -4.3611245 0.3418958 1.6426065
prSn -1.4014202 0.20024282 -1.2628535 -0.28175005 0.47926074 -1.024282 -1.1066566 0.71647006 -3.7007606 -1.7127081 -0.0120725315 -1.959076 0.07216978 0.4239248 -0.81291884 2.633158 0.89926934 -0.49146825 3.5407984 0.78096855 0.59943473 -1.6166286 1.1767083 -0.01252031 2.9117296 -0.031874582 -1.6300619 0.8806647 -0.18297724 -1.9518944 -3.1584373 1.3731302 -0.0818888 -0.48327532 -1.900211 2.8776104 -0.6745613 -0.80813843 2.2088306 -3.7498493 -0.8213143 2.1763122 -0.4133429 0.2115269 0.9258938 1.6041278 -0.7487301 -4.211144 -0.16932046 1.128757
lXlEwi -1.6547158 0.17177826 -0.83607477 -0.56990516 0.49081743 -0.99325246 -1.3799763 0.722095 -2.767478 -2.0062516 0.077227496 -2.0333085 0.0019241733 0.92206424 -1.355753 3.3155158 0.2795528 -0.31269807 3.1539485 0.5528941 -0.65424395 -2.1721418 1.1740655 -0.29027542 2.8627524 -0.36408678 -2.0551105 1.1306919 -0.055257987 -1.987178 -2.6705012 1.7831602 -0.69937795 -0.72992086 -1.3405907 3.062997 -0.36657277 -1.6043237 1.9838873 -3.9720557 -1.1849644 2.1776671 -1.2795017 -0.17326653 1.3057352 1.7827291 -1.1872766 -4.0708184 -0.34464204 0.06799061
yiwl..wi 0.008664457 -2.0342355 -0.87105215 1.7358061 2.9229543 -1.643171 -1.6174644 0.11863469 -3.839962 0.4884866 1.4006052 -1.5243468 -0.037056316 -1.0383266 -0.11623813 -2.1301413 2.2083492 0.72173107 0.32641935 -0.46825576 1.9198188 2.1233847 -3.1190825 -1.9050089 0.10548029 1.0554823 -0.64473385 -2.0200834 -1.6947261 -1.223899 -0.4476028 -2.6311522 0.26862186 2.632706 -2.4978652 0.5584108 0.097095 0.5254834 3.5356472 -1.3746495 1.245829 -1.4908798 1.975218 1.5171486 3.356529 -0.36003205 0.46001747 -0.7578893 1.2163087 1.3845322
tmeylX 0.98829997 1.0201066 -0.117261976 -2.6448183 1.102795 -0.7930077 -0.29868034 0.30941045 0.88154954 -0.48366636 1.1881834 -0.7143372 -2.9483933 -0.72960967 -2.8672936 3.1762028 -0.5797617 2.5230427 -2.0824473 -0.4116482 -2.209403 -1.8496866 -0.17144465 -2.2257133 0.078225955 -1.7695688 -2.1730337 0.89614785 2.3356197 -1.072222 1.1154401 1.2865793 -0.86142874 -0.9878626 1.5635511 1.136656 2.0741756 0.40779886 0.3920371 -0.8276596 1.2811762 -2.3194115 -3.7992 1.3868564 0.18578056 0.9410161 -0.6342277 -0.2908331 0.41650835 -0.2717873
abesye -1.5136398 -0.06634264 -0.4450608 -2.7326722 0.76880634 -0.34634802 -2.3574014 1.5405678 -0.32488385 -3.0876484 -0.18929015 -1.223125 -1.0797453 1.337814 -3.7136729 3.530016 -1.3343687 1.443624 1.7326486 0.9399724 -2.0574114 -3.6885295 0.5146241 -1.5462127 2.3053908 -1.1996299 -3.0529578 2.410966 0.93153375 -1.3179466 -0.97939956 2.3152182 -1.413518 -1.4730725 -0.8610263 2.3301604 1.5426226 -1.3182997 1.6680403 -3.748175 -0.65904945 0.9300525 -3.54028 -0.18237445 1.9851468 1.4428725 -0.748701 -2.7030127 0.13975269 -1.5228311
mrxeli -0.9260427 -1.7868835 -1.8409783 1.0161654 3.26656 -1.6491144 -2.577258 -0.625548 -4.07613 0.5416922 1.4589778 -2.074784 -0.075331554 -1.4236695 -1.3158338 -1.5578848 2.780548 -0.10991334 1.7527548 0.33199835 2.577181 0.86869866 -3.2023973 -1.7501217 0.5498018 1.5511334 -0.58800215 -1.0332623 -0.87102354 -1.2286363 0.005165312 -1.4317842 0.44063187 2.3067653 -2.5387223 1.1098126 -0.10370135 0.15306464 3.7289255 -2.1029449 0.6223048 -0.6068979 1.7009041 1.2964998 3.3310103 -0.27726957 1.0284475 -1.9774904 0.7648243 1.1763893
kwt. 0.8741938 -2.4365065 -0.6236374 1.616892 2.1873877 -1.3351818 -1.4048616 -0.41293684 -4.193708 -0.076336674 1.6966327 -0.63331467 -0.5478547 -0.9058715 1.3082626 -2.5184014 1.4989961 0.51074046 -0.46972892 -0.6795375 1.0089552 2.3963892 -3.0362124 -1.8700248 -0.24845304 -0.16443498 -1.4061472 -1.8622056 -1.9651928 -1.5876014 -0.2814054 -2.9189692 0.7830713 2.333271 -2.6176577 0.17581436 -0.4806566 0.43448168 3.7190175 -0.69238687 1.5948937 -1.2169242 2.165769 1.2481177 3.4097753 -0.41055372 0.1353621 -0.41394708 0.60834926 1.3265855
akdiye 0.7567703 1.6928197 -0.6197563 0.9720931 -0.32374036 0.2844276 1.9399115 -1.8230394 -1.212622 0.7286157 -1.757158 1.3022007 1.5746853 -2.2477362 0.4812633 -1.3867781 -1.0522748 -1.4136822 -1.3629502 -0.39594117 0.7914103 1.1971296 -0.8243264 0.91139835 2.0017931 0.53625596 0.90323544 -0.78971595 -2.3378396 -0.5630252 1.1875107 0.7083163 -0.8751109 0.67149365 2.7167292 -1.9283298 2.868989 2.1925962 -1.2347566 -0.3056447 -0.92192763 0.7054977 0.84760755 0.57141024 -0.794713 1.385198 1.239709 2.4863 1.065959 -1.7028593
widelXye -0.005843423 -0.4409833 -0.8132588 1.757011 0.36567003 -0.28975347 0.49573183 0.62824786 -2.1855278 1.0920768 -0.8307351 -0.6921453 1.8134347 0.029869378 0.5073537 0.7247805 0.39052385 -0.3369816 -0.4037171 -0.31124413 0.9410499 1.2377313 -0.35656086 1.2255976 1.933485 0.19904804 0.69891566 -0.05970394 -1.2558534 -0.66274613 1.8698295 -0.37065646 -0.45246306 0.9596638 1.6249173 -1.0619615 1.6808192 2.7081769 -0.2752154 -0.677372 -2.6958404 1.5326315 -0.1918078 1.2719053 1.5291802 1.2887374 0.9741219 1.4172536 0.70019984 -2.4311697
bekelXye 0.96206284 -0.17500064 0.77552974 2.085495 1.2431208 0.90163386 0.20450714 -1.5791246 -2.4503787 0.6592836 1.2622298 0.5670359 -0.9317542 0.39910606 0.79343355 -1.3911582 -0.49616435 0.04150053 -1.1920091 -1.4808977 -0.8756586 1.9576494 -1.0580447 0.11321809 1.7230736 -1.1865643 -1.2249278 -1.7347525 -3.7581584 -1.1523724 0.27294043 -2.0591738 -0.21026155 1.4517307 -0.79463553 0.56634665 0.9852894 -0.25058964 2.3192995 -0.06826986 1.3762363 -0.43450037 1.571042 0.98176736 1.2883027 0.13786554 -0.6802289 0.5801975 -0.7827757 -0.48881036
apelEye 1.3309906 1.818951 1.0981195 -1.7322068 -0.2265449 -0.21001354 1.3339498 -0.59282434 0.029749071 -0.26519054 0.525777 1.3777589 -1.8241426 -1.9883611 -2.7928975 0.6408725 -0.10366241 0.030885423 -2.2106347 -0.41701126 -1.9564539 0.058695436 -1.2297367 -0.528464 0.10799819 0.72803384 -1.1093165 -0.25299183 -0.026592117 0.42828688 1.9243616 1.5650284 -0.7652618 0.10896277 0.8606715 0.73934156 2.6922224 0.12814422 -0.41675413 -0.20012587 2.113064 -0.92307246 -0.15553996 1.1326902 -0.9591471 1.2087432 0.8708763 1.6472175 -0.41186523 -1.0885159
pXEye -1.186747 -0.32199898 -0.03947705 0.71015 0.54099315 -0.3213797 -1.8233467 -0.083651215 -2.8858023 -0.8795535 0.0945605 -0.79945123 0.5382451 -0.22954977 -1.6018778 0.6531274 1.1584558 -0.9539861 2.414686 1.0123552 0.5233566 -0.061674573 -0.76419765 0.5037065 1.579359 1.5390188 -0.8074406 0.45442986 -1.3755606 -0.7616184 -0.34614715 0.6366161 -0.6112044 0.64770555 -1.8897678 2.2339704 0.7669656 -1.2251638 1.9271426 -2.9311764 -0.4842751 1.2682647 0.9554872 0.19096774 0.56814086 0.88643163 0.73391163 -1.3358884 -0.5154736 -1.1549034
tebwe -0.8859013 2.0682685 0.33947915 -4.005143 -2.0068536 -2.1686656 3.4495826 1.1143943 0.6053069 -0.46022746 2.9811847 0.57057714 -1.8568963 1.3554592 -3.2260113 -0.760565 -1.2586629 -0.68852 -0.90291286 0.93912774 -2.2586658 -1.1142517 -0.8360016 0.52342916 0.6309375 2.262501 -0.06913372 -3.707878 -2.988638 2.2884755 1.9466088 1.5305841 2.3937159 -1.4598156 1.9230458 1.8622197 -0.42135188 -0.927103 0.6510056 0.18355644 1.8477201 1.0606068 2.8352816 -1.3796377 1.8315326 1.5217613 -0.70169175 0.3484032 0.6039634 -1.2583371
xe -1.7532707 2.7627802 0.07536991 -4.103681 -0.1236569 1.8465273 2.816515 0.207676 -1.728808 -3.4306178 2.239927 -1.3900986 -1.3713068 0.5547949 -1.9600346 -1.884544 -1.4597808 0.9225015 0.6702775 0.9719114 0.51270664 -0.49144304 0.4095611 0.3524956 -0.65743566 1.3615651 1.8625613 -3.336435 -4.697054 0.7881275 1.9895403 2.58502 3.2987092 -1.0678945 0.10572451 4.859455 -0.5534333 -1.3819817 -0.17137961 -1.2266921 2.5001044 0.81665814 0.64393055 -3.7689874 3.712083 1.3659707 -2.3783977 0.8620202 3.229664 -0.034372006
2 0.50430274 -1.6509876 0.46685314 -0.49299347 0.81844777 0.17812191 4.142199 -1.7223171 0.5806321 -0.922357 3.198459 0.56517303 0.15262619 -0.93308485 -0.8560149 1.85617 0.40307602 0.28847295 -2.6956398 0.9971531 -1.631486 3.00902 1.3697459 1.2070098 3.4118812 -0.7898036 -0.93608046 -1.0157877 -3.3530269 1.4992431 2.9650214 0.74651563 0.32623017 -0.23441812 -0.90058285 3.1777992 0.6452262 -3.460769 1.1981457 2.226979 2.5310707 -0.6833029 0.2565568 -1.0144498 3.7732325 0.30303785 -1.0485291 0.13421609 3.179091 -1.9346632
dE 0.25028563 -1.9439205 -0.5161932 -0.08871924 2.3528755 0.62454534 3.2667031 -2.011928 -0.2840381 -1.3904991 1.9060339 0.06077687 -0.44427037 -0.40577307 -0.2642601 1.3645998 0.11649209 1.9119899 -2.526434 -0.8575305 0.927839 2.4602957 1.8659483 1.4614954 1.3641683 -2.1584303 1.0987021 -2.409548 -3.7889345 0.29795513 0.9676705 0.40226406 -0.2815087 -0.82008994 -2.2338426 1.9783089 1.1450846 -3.0867584 -1.0074029 -0.6712638 1.6352818 -0.47189602 0.8003449 0.79072297 3.7909088 -0.14706296 -1.3495307 1.5836732 2.7246225 -1.3261013
ate -0.05711798 -3.4446301 1.9647108 0.6566952 -2.8523858 -0.47746414 -2.5878594 -1.180001 0.53090155 0.20513764 0.80216837 -1.3967621 1.1446204 0.112179905 -0.82323986 0.5558808 0.7284404 0.020738801 -1.5652335 -1.3711358 0.6160818 0.43573344 -1.4786124 -0.75046015 0.105174325 2.6949492 -1.1156389 0.14852065 -2.1069937 2.062955 3.9175434 0.7537362 -2.295608 0.3475105 -0.22555755 1.96401 1.868017 1.5102018 -0.13607056 -0.28818938 -2.44808 2.703274 0.32254952 -0.022226542 4.2461777 -0.90999836 1.9542651 1.2811314 0.7363103 -1.2134136
mlElEwi -1.4426771 -1.7305248 0.8474481 3.244343 -0.7569888 2.177949 -1.5946147 -2.5496426 1.5604095 1.1390557 -0.07103198 1.4602455 1.0145004 -1.6530254 -2.3023689 -1.4779118 -2.794065 0.19522242 0.9612382 -0.2903866 0.52417815 -0.70173514 -0.5341865 -0.6210325 3.0935705 0.30924198 -0.31735548 -0.59339195 -2.6818244 0.5607063 0.39682722 -0.79881966 -1.6431011 3.2333884 -1.0965445 -0.2206439 1.5774904 -0.85879815 -1.4766697 -0.27636006 -1.5532432 2.0307994 -0.5826003 0.17825721 4.1441116 -1.57045 1.0001591 -0.31518218 -2.2561202 -0.6523606
Nqeli -0.2029261 -1.5990068 0.5424093 2.1005287 -0.031074736 -1.5131968 0.058961537 2.9107425 -5.1981 0.14993472 1.1067551 -1.0473174 1.2864285 1.0707624 -0.8757281 -0.11214807 1.2086123 -3.0068438 -1.8814191 0.1196861 -2.6323032 1.128298 -0.19233374 0.93413395 -0.85929954 0.6075527 -1.1320131 0.22402912 -3.3072252 2.1295843 2.3843563 -0.29550493 -0.13651156 -1.3902411 -2.7026296 2.2530735 0.75419635 1.1124398 1.7549044 1.452157 -0.36230108 -0.39600843 -2.9882143 -1.09813 2.2240756 -0.46660665 -0.839848 0.94741726 -2.657166 -2.030093
terikeli -0.1630256 3.441662 -4.4475727 1.4982562 0.39006707 -0.80483454 2.742293 1.3095874 0.086463705 0.9178474 0.35698545 1.5676498 1.9560757 1.2882628 1.1000988 -1.6675164 -2.142959 0.16572203 -0.21535431 -1.8785838 -0.086419545 0.9078873 -0.1147916 -0.095996924 3.7738595 -2.6558561 2.0574892 -1.3514959 0.16836211 -3.582184 0.8672967 0.77874744 0.32089213 -0.74143374 2.6683645 -1.9379617 -0.9764579 2.3025553 -0.95523924 0.73539513 -0.29483438 2.8023634 -0.75018585 -0.23563875 -0.35005283 0.77161986 1.801338 0.14502612 2.9066827 0.40185705
SSimete 1.6994102 2.8877032 -3.4742284 2.6422982 2.4902945 -2.3664813 -0.88986146 0.16854991 -0.8554554 3.0619779 0.89718646 -2.852163 -1.0233265 1.1751299 1.2889509 2.560567 2.291206 -2.324119 1.2291217 -0.35620868 2.3629007 -1.2992054 0.014834018 -1.0498924 2.6904287 -1.7210069 0.38801235 -0.84211254 1.2838031 -2.6144743 -2.6918197 -0.8728286 1.5516863 -0.76799107 1.790021 -2.3867824 -0.16017155 -0.18421464 0.3466832 0.9329131 -0.83604646 -2.5501077 -0.75790375 1.6502279 -1.2463223 -2.3882465 1.0870776 -2.633373 0.4001402 2.8030078
yed -3.1735764 -0.06635434 3.2888305 -1.8024158 -0.612363 -0.175307 0.8537744 1.5451005 -0.6799718 0.58789104 0.24268617 -1.8164171 -0.67636895 1.3803442 0.7843404 1.0939602 0.14340754 3.0801103 -1.8033819 -4.047979 -1.0878114 2.2030017 -0.91429293 1.459598 2.3056557 1.2275147 0.8247636 -1.4935352 0.6514059 -0.9396345 -0.583633 -1.2285434 -2.1908674 0.6194453 0.38818237 -0.8372992 3.9878106 1.7479112 2.425644 -3.7813683 -0.30906874 0.9072001 1.4713157 -1.0788349 -0.06338564 0.44289225 -0.7522375 -0.5775568 1.4701495 -0.46600142
mnE -1.1716189 0.11336669 -0.8919297 0.7454866 -0.13978258 0.94958764 2.7334864 -1.9088929 0.9271625 0.5541295 1.2216939 1.1436332 2.6018107 0.038166273 -1.2169333 -1.8837762 -0.01833697 -0.7431461 1.7345394 0.46072385 1.1401184 -1.5467309 0.023466304 1.8447449 1.0497925 -2.0345426 -0.48496974 0.50498706 -0.9394491 -0.25014332 -1.4302895 -1.9247003 0.4802627 1.3322057 0.24997865 -1.5429894 0.1674659 1.9854943 0.14191693 1.4662861 -0.077767074 3.67681 -1.1136338 1.2425768 5.716123 0.1136536 -3.2711134 0.11627047 -2.1709702 0.64584976
tlt -2.9932833 -0.38671616 3.1295698 -1.1085075 -0.45549345 -0.42439967 0.16064046 0.6849492 -0.13230346 0.64454937 0.4713347 -1.2027042 -0.3970467 1.4907415 0.7012002 0.6521044 -0.07918365 3.1368523 -1.77004 -3.8431656 -0.80967605 1.7979579 -1.3623866 1.3404496 2.7018468 0.8287488 0.7469466 -1.5409012 0.57472503 -0.820795 -0.27546176 -0.9509121 -2.5473306 0.5401604 0.017728053 -0.9713157 4.0752034 1.4915059 1.7751688 -3.8352442 -0.8390885 1.1335632 1.9525721 -0.73881537 -0.025716309 0.44479194 -0.08661688 -0.7412671 0.8997092 -0.43066493
qEleb 0.8168771 0.040334787 1.8002429 0.029549208 3.2077887 -0.8803029 -2.69727 -1.3771278 0.5425491 -1.0623162 -0.06252548 -0.99391264 -0.44147342 1.3188865 0.5439883 -1.0440297 -1.6009792 1.3099135 -2.5834422 0.19099563 -0.068966076 -0.19103256 -0.68781006 -1.6145688 2.2102282 0.3914674 -1.5418912 1.2505041 -3.5424619 -0.7298111 0.8005563 -0.23935732 -2.946875 0.03642368 -0.8625716 2.764107 -1.2727087 -1.5225945 -0.9901404 0.06067142 1.3234833 1.8550558 -1.0933688 0.54539293 3.0678983 2.2178478 1.4843476 1.0835779 -0.65216476 -1.00071
mrs 0.66600823 -1.0983537 2.7236385 0.5437503 1.9388592 -0.5500445 -4.0894914 -2.4598935 1.2262533 -1.1456814 -0.14590143 -0.60917735 -0.32237536 1.8041584 0.17278926 -1.0110257 -2.2343798 1.6491206 -3.1140049 -0.02835345 0.43365133 0.13086969 -1.0188197 -2.0044777 2.2196407 0.59369683 -0.7593033 0.66900384 -3.740859 0.086065196 2.1267853 0.044541005 -3.468865 -0.20588145 -0.6342294 3.021366 -0.765845 -1.5166312 -1.225389 -0.6075979 0.1382993 2.7191546 -0.18037239 0.36651096 2.819443 1.7372578 2.5922859 1.1950445 -0.8949464 -1.2758197
diket 0.8823055 -2.0444891 0.101701364 0.16819295 -1.7057006 -0.75304866 1.1256175 0.9466458 -1.7008605 -0.40773448 2.1317651 -2.79638 1.0100113 -0.19644588 -0.85642886 0.9711099 2.6523502 -1.7436335 0.5805331 -2.3784342 -0.28694293 0.6031783 -1.4035367 1.6176925 -0.019675544 3.4580014 -2.1910062 0.91951394 0.05172871 0.303205 1.4458617 0.59642303 -1.7891002 0.75904346 -0.9135207 0.44245705 2.4453752 2.8583047 0.86815 0.61535925 -0.7771181 0.049210545 -1.2915766 1.3145549 4.5819464 -1.0890251 -0.5053254 0.044618785 1.3389158 -0.74143404
kdiyEsmli 0.29825208 4.71045 -1.3244048 0.034962602 -0.52962154 -0.08621887 -0.7574046 0.97115386 -1.1825 -0.2578076 -1.2036946 -1.057986 1.364252 1.4175378 -1.4780314 0.8995806 -1.6595081 -2.8296967 0.1308903 -0.13350716 -2.1530745 -0.28493127 -2.5043712 -0.98918414 2.0952806 -0.44031298 -2.4181342 -1.4495385 -0.3170587 2.9563375 0.80103993 0.12514934 1.3199152 0.610572 -4.5345173 1.4516478 -0.39382505 -2.2333753 1.6109456 -1.6426098 2.0901031 -0.3234517 -0.308374 -2.1042445 2.3135192 -0.43148538 -2.3778002 0.40109414 0.91347426 -2.047979
16 -2.9430296 -1.0175178 3.1387188 -0.61837703 -0.6474071 -0.8176675 -0.45485657 0.089114495 0.257458 0.15053758 0.8143217 -0.7824115 -0.17292465 1.8445202 0.5212361 0.10272226 -0.4816152 3.1398284 -1.862094 -3.1399124 0.02708078 1.4878732 -1.0441977 1.0319588 2.6120803 0.6450104 0.31363052 -1.9666132 0.3036067 -0.57458377 0.31634328 -0.6816243 -2.747245 0.6634121 0.04607516 -0.7548013 3.905914 1.3664302 0.9012237 -3.8168633 -1.2282044 1.6758485 2.6362307 -0.31862226 0.17307647 0.5547825 0.43792832 -0.72076535 0.50047445 -0.6813032
bi -0.6448683 -1.4579934 1.3120902 2.6691902 -1.041905 0.80186695 -1.6382574 -2.2067451 0.7835743 0.44416514 -0.97381806 0.5914552 0.85393 -1.1432148 -1.7838626 -1.2926733 -3.4328876 -0.22214775 0.35566762 -0.7390128 0.13588455 -1.0755918 0.22191665 -0.61011773 3.8846986 0.6937511 0.31181896 -1.3091223 -2.2779458 0.3604457 0.89547414 -0.07511392 -1.0939394 3.2615955 -1.1908039 0.073307 1.7726583 -1.8362825 -0.5616627 -0.18537909 -1.3127649 1.7527381 0.1412894 -0.826472 2.9557285 -1.5126642 1.424438 -0.6015486 -0.9357414 -0.36201942
Ames -0.2701189 1.3806541 -0.1811859 -1.0385553 3.8544002 -2.8747027 0.24536164 -0.67671305 -0.496812 -3.195356 0.98011357 -1.492668 0.16431837 -0.17096129 0.08262116 -1.3330199 -0.5850997 0.0630817 -1.5207906 1.522762 -0.17762986 -0.9622252 0.9481269 0.85151565 1.0271964 0.91981584 -2.392408 0.7933357 -1.928603 -2.035824 0.71823394 -0.75067693 -2.4338062 1.5171382 -1.4938892 1.0523335 -0.23301682 0.11664945 -0.25341272 0.32942626 0.9151196 1.7398105 -0.2812696 0.82610816 2.361479 3.6933892 -0.053169467 1.4835603 -0.5133218 -0.021686766
dEtlxe 0.13847905 -3.2149122 0.65250427 0.1583498 -3.047111 -1.436763 -0.79829735 0.19929415 -0.5240034 -0.43179286 1.5465755 -2.3703504 1.5260155 -0.16434641 -0.6661085 1.0539742 2.1001673 -0.95181984 -0.57053167 -1.4964551 0.34708658 0.44821906 -1.6414386 0.65080535 -0.99572974 3.20163 -1.9586442 0.5411927 -0.78396565 1.4026351 3.9290154 1.3017476 -1.6940511 0.8408924 -0.14264613 1.1938182 2.7608902 2.8555973 0.490343 0.4414249 -2.5812469 1.7193669 -0.21442288 0.6524798 4.471819 -0.9563309 1.2336205 1.1179191 1.5827063 -0.9741711
kdiqEreye -0.15373273 1.1467427 -1.2098404 -1.4219768 0.49038616 -3.3515317 -0.16695145 2.678279 1.0361257 -0.7718944 3.27941 -3.6911974 1.8283142 1.7962523 -0.82026255 2.0777965 2.6522353 -3.7974167 -4.317647 0.68455285 -0.4769193 1.9422529 -1.3710296 -1.2219149 1.9506973 -1.2841829 -0.32297024 1.3041631 2.033059 1.0382384 2.3343658 -0.7639311 0.49099737 -0.791767 -0.1230116 0.3132622 -1.4953169 -1.4147196 -0.39221498 2.1268387 1.0674776 1.9115255 1.0944877 -2.45846 -1.0684701 -0.7711623 -0.15749273 0.70401603 0.94476086 -0.56225795
A..tEwi 2.817567 0.25208402 1.0576092 1.7025858 1.4397726 1.0930355 -0.7207735 -0.31715214 -1.9470214 1.7840327 -1.1591009 0.97871596 0.40973017 1.4128324 -1.1679084 0.10481035 -1.4056348 1.7358376 1.5261942 -1.7721962 1.0525544 0.22247982 -1.6117545 -2.4339647 1.0778766 -0.27446875 1.8276567 0.77198607 -3.3527646 -0.52857715 0.6253766 3.1540766 -0.43963936 -0.98881054 2.0068839 0.90542513 2.9263928 -0.5347385 -0.08547552 -0.8771916 -1.0055636 0.3557278 -2.7876773 -0.24607405 0.63094765 -2.194595 0.25642392 -0.39686906 3.5241292 -1.222249
...rEskl 2.815911 -0.10092621 1.2359287 2.0323431 1.2015779 0.77338606 -0.26552472 -0.070576094 -2.6622295 2.2101383 -1.1168737 1.6626204 0.6172752 1.4175336 -0.56960285 0.13942112 -1.600616 1.7235162 1.2293905 -1.9292746 0.45095897 0.8187697 -1.040581 -2.1800835 0.65702426 -0.106340826 2.3411226 0.41509807 -3.7948987 -0.13213049 0.9665818 3.5415983 -0.6110301 -1.2902526 1.9640931 0.2797155 2.4268222 0.25900537 0.5627733 -0.50217736 -1.1234633 0.7489443 -3.63842 -0.77525353 0.8350754 -2.264529 0.20706306 -0.88724154 3.0398734 -1.3881919
abryeterikelEwi -1.8214839 -0.7399831 0.37683952 -3.226526 0.36838806 -5.6365485 0.5809129 0.63581663 1.8322154 -0.46731424 1.7893732 -3.4704118 -0.5646569 1.9071562 -2.30211 1.2914746 1.2145512 -2.1963794 -3.795687 0.25002742 0.7793418 1.8112926 1.2888031 -1.1258284 2.2815113 2.6388586 0.43707845 0.08365686 1.535705 -0.64059585 1.9495704 -1.6636233 -1.2655969 -2.2179682 1.3784992 -0.7161206 -1.5428281 0.823744 1.5238394 -0.16863528 0.34953398 1.370039 1.8760415 -0.48663792 -1.9026887 -0.8743531 0.20786226 0.5672484 1.4763002 -0.7509789
antxSxslis 2.6862838 -0.12467331 0.8502756 0.91115886 1.13917 1.4213848 -1.5780355 -0.6775143 -1.3627684 1.5283695 -0.916149 0.6208021 0.12259153 0.36506826 -2.5117922 -0.2049498 -1.2137635 2.3703089 2.281351 -1.4982207 1.3890887 -0.1186114 -1.8894812 -3.372167 1.2436126 -0.34658134 0.9200292 1.1911284 -2.7018602 -0.6707443 0.34253335 3.0612762 -0.44982618 -0.80130464 1.8491416 1.9106103 3.5243022 -1.3373625 -0.3906912 -1.4487041 -0.36240962 0.34933725 -2.0459492 0.7820494 0.76318705 -2.3508108 0.4889678 -0.85263234 3.6887639 -0.985433
qE....eyetdxelEwi 3.0908606 -0.34460104 1.0731282 2.193907 1.3726417 -0.024485426 0.43095508 -0.07260087 -3.222675 2.4988577 -1.3876482 1.9172386 0.5185302 1.4756935 0.3353837 0.14483052 -1.8185763 0.6243359 0.8836864 -2.1221256 0.15249953 0.76955163 -0.77381235 -1.5412098 1.3710235 0.17454354 3.135894 -0.18854138 -4.542781 -0.34202695 0.89611226 3.5549192 -0.29953516 -1.7037532 1.8873392 -0.71011454 1.9133282 0.66924506 0.8878774 -0.42863053 -2.0598304 0.5104994 -3.4260688 -1.0246986 0.847945 -2.3251827 -0.079094425 -0.81685215 2.874499 -1.2522795
SlEtey -2.0692894 -1.157992 0.55051935 -3.802138 1.7218251 -5.9204907 0.3549139 -0.84933156 2.1922672 0.5758403 1.0611554 -3.2514942 -1.7601379 3.2271056 -2.5040076 1.1225547 1.0821226 -1.2156626 -3.4771163 0.24228002 1.6791127 -0.09034707 1.7303149 -1.2296287 1.2884175 3.8269603 0.9163343 -0.95477974 1.1059171 -0.7264672 0.8571148 -2.0918276 -2.0436552 -4.115477 2.0442703 -1.2047933 -0.096782304 1.6278714 3.4418125 -1.1421797 -0.30877006 0.27405366 1.6222942 -0.4378641 -1.2915219 -1.4511276 -0.93224853 -0.0803396 1.2969594 -0.10436386
qEwiPtsnye 3.2101505 -0.97022027 1.1448919 2.0419652 1.4797189 -0.010483399 -0.35048625 0.13747233 -2.900803 2.1915858 -1.536352 2.3537571 0.57162124 2.600422 1.0653067 1.033407 -1.8138798 0.5127978 -0.83732 -1.7273344 -0.47722885 2.0798028 -0.7796196 -1.1757926 1.4917384 0.3029197 3.6044583 -0.5018064 -5.1992464 -0.39835492 2.1433744 2.5923824 0.013856758 -1.3652884 1.5748805 -0.44968212 0.81464565 0.48469764 1.2477235 -0.030317686 -1.165061 0.65177107 -4.1146903 -1.7716794 1.2585856 -2.1229432 0.9252648 -1.1124823 2.0767388 -2.2837276
Seriqetrri 0.10301689 1.4397771 -1.5467696 -1.3905916 0.4133954 -2.5567048 -0.34052944 2.310954 0.41013706 -1.1076366 3.5016918 -3.1495242 2.1377475 1.7300193 -1.2419896 1.4938192 2.3257246 -4.075233 -3.3601592 -0.09027755 -0.6867255 1.1710328 -1.8495481 -0.43263754 1.56088 -2.1241264 0.22229668 1.2938887 1.5795218 2.0879955 2.199382 -0.44177404 0.2523679 -0.804267 -0.7702401 0.21438737 -0.8693963 -1.7443994 -0.10203022 1.7373548 1.6327891 1.8227731 0.44168925 -2.9120936 0.03394152 -1.057375 -0.9317701 0.45560768 0.84703106 -0.5375252
pEqe 0.079721645 -3.3199146 1.1634736 0.23784746 -3.0045805 -1.1029603 -1.8075446 -0.30350292 -0.18807368 0.119070865 0.9778369 -2.2136893 1.4230914 -0.19807214 -0.6301772 0.9814691 1.3284935 -0.5618982 -1.2280201 -1.4527768 0.51388586 0.4776805 -1.4615774 -0.2517273 -0.45586342 2.7081938 -1.5830327 0.48536322 -1.3866379 1.9623804 3.9507692 1.266784 -1.659235 0.32182422 -0.24171315 1.3711083 2.3048341 2.6611433 0.04971014 -0.07820691 -2.7065918 2.190611 0.32054517 0.43029815 4.243018 -0.88773483 1.482074 1.4720163 1.123102 -1.1805413
mrbqE -1.0723323 0.08446308 -2.5405157 -1.5124153 2.3496315 -1.1689248 1.5281525 -1.0209469 1.5048791 1.6734642 -0.13788284 -1.5410212 -0.5840406 0.7354707 -0.7735735 -0.72522336 0.82199085 1.6711413 0.036208004 0.14351487 0.8925633 -2.7330935 0.7067705 -0.4675258 -1.0792136 -1.5885845 0.41074458 -0.1625726 2.381261 -1.5082966 -2.1980193 -1.0103365 -0.21775082 -1.4677548 1.2722284 -2.5486279 0.8920448 3.3125243 1.8560861 1.0472068 -0.08838375 0.12826233 -1.1629952 1.1202979 3.5436852 -0.2852234 -2.1237822 -2.0422204 0.0135970805 1.4558355
.1(?) -0.7459773 0.9731009 2.5852318 -2.8241916 1.0885063 1.4763354 1.5065368 0.14011404 -2.3680332 -2.085416 -0.2286152 -3.2787309 -1.305351 0.46779743 -0.22722603 0.40687227 0.091869906 0.639752 -0.41803506 -0.5237794 -1.163164 2.0517554 0.35519525 -0.032329295 0.27173468 2.9979887 2.3444068 1.5703686 -1.2166365 0.31883833 1.2211201 -0.32559785 0.8959371 1.0260113 1.6780268 2.1421971 1.2106209 -0.88646024 1.8073658 -0.80349326 0.8182814 -0.48311123 -0.28214365 -3.302783 2.5206954 1.7073493 -2.6488423 1.1197053 2.9106379 -0.37900373
bSxrkes -1.152954 -1.8052214 2.0191169 1.2799797 -1.231825 -0.66306883 -1.928747 -1.8487462 0.7092689 -0.9853586 0.50120556 0.27020648 0.40573502 1.0653983 -0.9007674 -0.79753065 -1.2636582 1.232133 -1.329587 -0.40518552 0.9752294 0.28464797 -0.28215212 -0.6563683 1.1632023 0.38626835 0.6175861 -1.6659162 -1.0188142 0.82028425 1.9216279 0.5595439 -1.8303529 -0.12427724 -0.44232243 0.4097332 1.5014062 0.06592039 -0.8028005 -1.6284763 -1.7921771 2.0554228 2.1606882 0.033119425 1.0515367 0.013262433 1.313604 -0.38864058 -0.62411195 -0.16389194
SXekes -2.1115646 -2.0108614 3.0523076 0.14943813 -0.8170443 -1.0744138 -1.6073117 -1.08851 1.0982583 -0.631666 0.786898 -0.66919327 0.5957969 1.472082 -0.51674956 -0.40506256 -0.5530623 2.841108 -1.7253577 -1.9373456 0.88470805 0.99392444 -0.67584133 -0.21354143 2.294803 0.553068 0.5406649 -2.5846543 -0.17796667 0.22237901 0.6889323 -0.1200528 -2.9269905 -0.39583924 -0.6727609 -0.0135814985 3.3388155 1.2438587 -0.7324819 -3.4187832 -1.9412143 2.5846827 3.0025253 0.08209869 0.5803479 0.34165817 0.8767036 -1.1590997 -0.096020184 -0.131355
yikidbitelEwi -2.7380714 -2.0245452 2.9567897 0.15625079 -1.1271778 -1.0277088 -1.1753148 -0.81509984 0.8197328 0.20136972 0.9348663 -0.43332484 0.12237545 1.3606722 -0.3136813 -0.092568934 -0.6089967 3.0289536 -1.8961337 -2.2897778 0.36463648 1.3131118 -0.86910015 0.43975258 2.723601 0.23769698 0.41382948 -2.90848 0.17105113 0.34048176 0.44028106 0.0037718648 -3.0748987 -0.05275943 -0.43144634 -0.5862617 3.5078928 1.557812 -0.05539656 -3.4596584 -1.4525677 2.3748674 2.8551652 -0.21647052 0.85422075 0.19385517 0.5213621 -1.4132701 0.12115343 -0.63322204
59 -2.9487371 0.8386716 3.192589 -2.3965561 -0.55636734 -0.17986195 1.5226033 2.1523747 -1.7229365 0.41656223 0.537918 -2.5221322 -0.87496626 1.2683601 1.0837649 1.7788857 0.8470017 2.8780723 -1.4540007 -4.124658 -1.2657455 2.7123291 -0.9900156 1.8780438 0.9406324 1.8302191 1.0733384 -0.593026 1.1919346 -1.5321267 0.027128648 -1.3744835 -1.034625 0.8626593 0.79956806 -0.9740598 4.0532627 2.0646944 3.2326179 -3.6122308 -0.028885843 0.16960652 0.78215015 -1.1576132 -0.10284832 0.47387347 -0.7179158 -0.17732714 1.7303661 -0.60326624
1(?) -2.197104 1.1849396 3.1237898 -2.4404752 -0.10315405 1.2310114 1.639102 0.49385202 -2.1314828 -1.2252979 0.13359156 -2.610351 -1.1948911 0.7063784 0.060966603 0.6978677 -0.38061947 1.3427174 -0.9208913 -2.6101003 -2.001563 2.5075567 -0.06539931 0.96678585 0.8455839 2.4645884 2.0335138 1.4587696 -0.38663027 0.054118235 0.7962866 -0.17315593 0.46257347 0.342001 1.77234 1.3224552 1.870375 -0.011651846 3.255593 -2.1483865 0.21686903 -0.3550758 0.5079019 -2.8230782 1.2202202 1.40811 -1.9629309 1.2999972 2.8278356 -0.23873356
bXeyedlis -1.3511562 1.0169474 2.6549041 -2.4288697 0.31634182 1.4185029 1.6534144 0.3359132 -2.4185448 -1.4765867 -0.043948 -2.8825386 -1.2700715 0.53735405 -0.15918717 0.5393729 -0.058892537 0.8135032 -0.76871204 -1.6388441 -1.5385162 2.3517053 0.37238798 0.63035405 0.6882646 2.6952114 2.0199716 1.3905141 -0.81696254 0.06205141 1.0514284 -0.31890827 0.80130196 0.83806145 1.7553238 1.9088446 1.7576703 -0.50852996 2.5262372 -1.5538511 0.58389413 -0.37754726 0.23323396 -3.1546545 1.876721 1.5635877 -2.2200887 1.3982532 2.7156978 -0.6231757
kiSrisqtile 1.4456542 0.029181622 1.2280638 -2.101556 2.375894 0.05488434 1.1250695 -0.06411274 -1.4993862 -2.066724 -1.078416 -3.1787136 -0.44334644 0.32040414 -0.14957403 0.5450233 0.35904852 1.068027 0.22718012 1.4411283 0.515724 0.4400148 0.29518825 -1.762517 -0.6619316 1.9872419 2.3917124 1.0405222 -0.79095525 0.56943816 0.57389313 0.044398405 0.6675227 1.8249086 1.1919677 1.525651 0.046595722 -1.1250901 -0.5737482 1.0412589 1.0950903 -0.26221412 -1.3411843 -2.5962296 2.8265843 1.4498771 -3.0244474 -1.0366921 2.3708327 0.55894697
atmXe -0.087739244 -1.5858974 1.8857776 1.4321928 -0.4347763 -0.20191778 -1.2756166 -1.4719895 0.3745098 -0.70587736 -1.4647988 -0.66465074 0.11557964 -0.70265377 -1.2223315 -1.0594717 -3.5565548 -0.5009128 -0.83652824 -0.85201585 -0.07668817 -1.2885529 1.2421141 -0.19719636 3.9524615 0.46930915 0.7279648 -1.8249284 -1.4607478 0.4205141 1.0652876 0.061231993 -0.6327578 2.3692439 -1.0883467 0.012041438 2.4163923 -2.6087625 0.5493822 0.48485774 -1.4080145 0.75303227 0.99284285 -1.5188544 1.9647881 -1.6930609 1.7523466 -0.33507675 0.40956333 0.38424996
pelmESlisPQebete. 1.9961963 0.4218201 -0.41522855 -0.7700529 1.8492254 -3.218984 -0.28048047 0.7107473 0.32003328 0.78546256 -1.1023464 -2.3139234 -0.23947422 -1.1266166 0.98208123 1.8932148 -1.0477418 2.982658 0.3212874 2.1983168 1.1099685 -1.6907266 -2.5623503 -2.6788495 -2.56414 0.07076839 -0.03298601 -0.7695148 0.41277292 -0.65509087 -1.57272 0.7941816 -0.6795467 2.7461863 -2.410046 -1.512694 0.8780021 0.56773543 -1.1310163 0.386506 1.1678396 0.56455886 -3.3021507 -0.27759534 1.0175298 0.14148186 -2.1830425 -3.3220208 1.3714864 0.03444594
ttNlX 1.1658025 0.37433684 -0.39900076 -0.42786372 0.7853735 -3.027268 -0.29800758 0.24820712 0.93572754 0.4678414 -0.585434 -1.8501871 -0.22135055 -0.8022913 0.48116714 1.1304015 -1.311797 3.0876486 1.0077025 1.1642504 1.0283602 -1.6963186 -1.9395721 -2.2140646 -2.2600574 0.4006323 -0.36436328 -1.0526274 -0.29575926 -1.1249472 -1.9616051 1.1417004 -0.7490258 2.4029577 -2.4721682 -1.8280867 0.75175935 1.5415694 -0.6000608 -0.3021666 1.9376112 1.1801715 -3.5108914 0.570771 1.152448 0.15098949 -1.3065535 -4.028906 1.8429459 -0.10099025
