1868 120
yetmdelEwi 0.9653618 0.80379134 1.2783334 0.9678587 0.73957866 -1.7436664 1.3479116 -1.8814605 -0.38596806 -0.6985865 0.09300595 -1.0331321 -2.89426 1.0516306 -1.8632581 -0.088803574 0.25203872 -1.0893834 0.45742616 0.678376 -0.148624 0.53413844 -0.33075565 -1.4119766 0.6763007 1.6666417 -2.4975538 1.1423483 -0.59837687 0.10636395 -0.42889827 1.7858943 0.28452322 3.2306538 1.1654023 -1.67657 1.3152283 -0.21339828 0.6092918 0.17450674 -0.075974725 0.98407096 0.20197505 -0.9284904 -1.417704 -1.8423233 1.9752498 1.0042433 2.0062966 -1.4595947 -1.8572414 1.8525574 -1.0279356 1.6655031 3.1927862 0.43442902 0.9303026 0.580155 -1.1824745 2.036406 -1.4099374 -2.2733984 1.0460739 0.4826459 -2.2310088 1.8907077 0.8490691 -0.7589412 1.5804427 -1.5537844 -1.1758153 -0.32359672 0.8440012 0.90277535 0.37908444 -0.71858937 0.71740663 2.9070294 1.3129644 0.61581427 2.3549225 0.6636126 0.53401244 -0.23060305 1.4482771 -0.14369333 0.108072534 0.45780402 -1.5898923 -1.1801848 -1.203609 2.9100971 -0.07662596 0.15790793 -1.2139516 1.6817371 0.34258583 -0.8065008 -0.8431388 1.9894195 -1.4622912 -1.0531702 0.8157493 0.61895907 -0.6803006 1.2087072 -0.06519985 1.5343847 1.451992 1.3535376 -0.4638191 -1.1874233 -3.1679592 -0.3211137 -3.2824006 -0.677828 0.9674143 0.29005775 1.1504208 3.140263
wEmnitX 0.71069455 1.5864599 1.8326039 1.4243746 1.2347933 -1.0080748 1.4706788 -1.217719 -0.7106946 -0.60534596 1.6492716 -0.92593807 -2.3640575 1.035325 -1.1471691 -0.30658174 1.7424707 -0.5870399 1.666739 0.6751616 0.17643201 1.3419051 -1.4175708 -1.6328053 -1.5486372 1.7980784 -2.2517517 0.6378222 0.53101325 -1.225359 -0.20727836 0.6957661 -0.41573462 3.4739163 1.9014233 -0.6379443 2.6255445 8.5550804e-05 0.85481733 1.6597229 -2.743825 -0.019344907 1.7962273 -0.89587355 -1.0218151 -2.684652 0.29658872 -0.0781498 1.2352533 -1.7333933 -2.6592615 0.8329354 -0.40517658 1.2421527 2.4507964 0.7008854 0.11936614 0.52449393 -1.0503714 1.2903829 -2.1891909 -2.5155416 0.71354866 0.7198277 -2.3540335 0.69863194 1.103003 -1.1123549 1.8547735 -1.9827183 -1.814332 -1.361034 1.2205492 1.5646499 -1.1339115 0.394601 0.85861236 1.1673628 0.76165575 0.760528 2.7323635 0.41923168 1.1855547 -1.8419061 0.5173538 -0.8988627 0.73080647 1.9149059 -0.7837783 -1.0541642 -1.0832713 2.3651218 0.97455394 0.23369817 -0.7120976 1.1184131 2.2289321 -1.3679368 -0.84684056 1.2133434 -0.033528887 -0.5424613 0.15403816 -0.3854811 0.9456327 0.92566293 0.44889784 0.9314628 0.43918997 0.8014124 0.19996932 -2.4618092 -3.3368435 -0.98697424 -2.717906 0.008956862 0.29198495 0.3138911 1.6564648 1.9486898
aribet -2.6308467 0.6861573 -1.1418228 0.77938706 0.7045226 -2.1648386 -1.8358629 -2.6457417 -1.4205519 -0.6688279 1.4586165 -0.5688603 -1.9408227 -2.1345637 -1.8347007 -0.6158821 -0.54311705 -1.1837893 1.6140329 -0.7042469 -1.0315171 -0.17718688 0.75704664 -1.9823412 1.0779514 1.6419234 -2.2687967 0.82295287 -1.9827274 1.5080702 -0.4575801 3.1212041 0.7328652 2.0345423 0.7886869 0.67331785 1.887464 0.94159764 0.4964014 -0.7764273 -0.94317836 -0.3048707 -2.6832278 -2.3459494 0.5523115 -2.5081828 2.4175127 -0.61679864 2.1866462 -0.25217208 -2.1357875 2.8735209 0.35378385 0.35145792 3.1924605 1.0525556 -0.5718202 0.25956118 0.43210903 2.9637427 -0.65564126 -1.1713341 1.8802004 -0.59211284 -2.3506598 1.3450891 0.24376912 0.05570556 2.1514428 -2.0921004 -0.45471105 0.09551923 0.52247965 -1.2338488 0.25924954 -1.1452667 -0.936192 2.8479269 1.6393659 1.6672417 1.5483913 -0.041711204 0.11285662 0.4205631 -0.066432536 0.081748225 -0.89483327 -0.055102263 -0.4720088 -0.12232525 -2.7403536 2.7473724 -0.9942364 0.43324748 -1.3494983 0.5622356 1.8350511 -0.777182 0.31146508 0.7392578 -0.52403575 -1.3060405 1.1549007 0.11396557 -1.0292038 1.898282 1.0036103 2.544016 2.0593693 1.4329028 -0.41391632 0.5506553 -2.936123 -0.17803344 -2.7048056 -0.32716826 1.4411386 -0.9560858 1.3311327 3.8348634
ateqi 2.2491677 -0.504474 2.1309948 0.70030427 -1.675601 1.2525886 0.9710926 0.8569865 -0.20452131 -1.5927156 -2.0530038 -1.987398 1.0656468 1.6027207 0.018344156 0.15144463 -0.007209951 1.3940629 0.22998261 1.7844827 0.15627614 0.6175296 0.11506234 0.38797453 -1.8370001 0.13022056 1.5903517 -1.7452706 0.82812506 0.57062644 1.1069865 -0.94059634 -1.9514757 1.0548676 -2.459904 -2.0489268 -1.2111838 0.20046687 -0.056554127 -1.5267435 1.9397618 1.5669358 0.55756193 1.7974428 -1.8483711 0.38252416 0.8437122 0.71820265 -3.2069693 -0.31696305 2.6849527 -1.6539584 0.54264295 -1.5575789 -1.4821877 -0.65273094 1.2638793 1.0734141 -0.8378462 -3.8041792 1.7065874 -2.2858543 0.3639007 1.6189566 0.47791117 0.2764463 0.3647822 -1.9116387 -1.5090846 -1.6775253 -0.8396498 -0.6516911 -0.14981367 1.613454 0.37983978 2.9470558 -0.47593087 0.3956463 -0.807988 -0.5411664 -0.9197439 -0.75504917 0.44874144 0.6659477 1.1530861 0.30856818 -0.42016742 1.0868093 0.12212546 -1.7278906 1.120595 -1.1977549 -1.2255759 -1.0125905 -1.5871388 -1.7197366 0.8947255 -0.4030131 2.7408001 0.19163778 1.7957453 -0.5564276 0.30449554 1.1503378 -0.5934531 2.065925 0.72053844 -3.590269 -1.1047668 1.5135359 -0.6657954 3.4389036 -0.11964494 -1.5796257 -0.4339559 0.29954076 0.964572 0.31501883 -0.57902193 -0.042019743
belElEke 0.23861197 -0.49177933 -0.15531202 -0.859664 -0.8604226 1.5544889 0.03036397 1.6498363 -2.2378893 0.023936832 -2.4698186 -1.6739589 1.9886786 0.043523833 0.5287536 -1.5192549 0.26553434 1.519955 -0.53029925 2.4802492 -0.036917876 0.50133705 -0.41323194 1.5525322 -1.961016 -0.084812865 0.47532037 0.570398 0.2724585 -0.44121888 0.41227707 -1.1689754 -1.9361519 -0.6672839 0.3265487 -0.83131063 -3.2673807 -0.5742515 -0.93855107 -1.5339382 1.3126496 1.4220984 -1.6788021 1.6906265 -1.264446 1.8101507 -0.16024023 -0.8073167 -2.8103404 0.85652137 1.6649073 -1.8526757 2.799941 -2.1813233 0.07993093 -1.3183752 0.59580934 1.29225 0.38929677 -2.8851688 0.4298549 -0.56976515 1.0121746 -1.3146073 0.5256361 -0.41567189 1.8498962 1.4297887 0.3387929 -1.7424874 -0.14658563 1.3343283 -1.3409939 -0.22111323 -0.069679216 2.4710212 -1.707444 -0.0004177338 0.3842035 -1.8540778 -2.9598956 1.2389153 -0.47894076 1.0920548 -0.2588907 1.1507988 0.018676342 0.19413666 -2.0080779 -0.6661987 1.8865441 -1.3865166 1.2131686 -0.94678116 -0.03687414 0.28882354 1.0267646 -0.38700804 1.5472742 1.8887459 -0.019202378 0.1362338 -2.1280172 1.4381675 0.3554173 0.18738025 -0.7907924 -2.0190303 -1.1701313 1.3194684 -0.0029704785 1.7971888 0.17613797 -1.4399023 -0.85688 1.7291847 0.9483676 -1.1441143 1.0574858 -1.182117
mdetEwi 3.3057723 -1.5702249 2.2114146 0.4313569 -0.18156591 -0.41921723 1.8368851 -0.3718717 -0.14796148 -0.90311533 0.5446833 -1.1119244 -0.69774514 1.2941523 -0.024472859 0.20023386 0.5940626 1.5364271 1.8244361 0.78864187 0.048971873 -0.74680585 -0.78066474 -1.9935585 0.3525717 0.5631009 0.5632635 -2.911729 0.78860855 1.9222574 1.4158049 0.60705787 -0.07058386 1.0455709 -4.4897885 -2.1826007 -0.64395034 0.99208105 0.96231925 -0.781006 0.9960838 1.6836559 3.490717 -0.8563499 -1.2015574 -1.569682 1.2158226 0.3287338 -1.2960837 0.03392027 1.2424215 -1.6335179 -2.6529481 -0.30050805 -2.2089534 0.5332175 0.13911425 -0.66982037 -0.5711828 -1.9413587 2.1967082 -3.916507 0.42925873 1.9461174 -0.9768845 1.7939701 -1.0848492 -3.0311022 -1.1468161 -2.1086476 -2.5144918 -1.1014156 0.42528397 2.2159934 0.7333249 0.8555339 1.3488028 1.4247143 -1.1742686 1.3772557 2.138199 -2.0634818 0.5941484 -1.157717 1.4969304 0.08079073 -0.97252476 -1.1453964 -1.097086 -1.2937064 -2.3000417 0.013627786 -3.3618233 0.51282585 -3.3198233 -2.021396 1.7275954 1.0587035 0.6855467 -0.28967884 2.0672243 -2.152493 3.1440353 0.2500998 -0.78472507 0.8239916 1.8292577 -2.569021 0.09161019 -1.1522549 -1.2884951 2.5357566 0.5899379 -1.0591522 0.20930822 -0.6162266 0.931078 -0.19894245 -2.8465407 0.72033846
terikelEwi -0.9090964 1.195058 0.91536474 0.13084331 -2.6876972 1.3701587 -1.7690606 0.32934675 0.10568224 0.8126108 0.25590897 -0.38783845 -0.017856838 -1.9815803 0.9860681 0.5894229 2.711584 -1.4546628 0.49866265 -1.1257415 2.9340522 1.0566298 -1.9474698 1.1938212 -1.3869364 -1.1338738 -1.375387 -0.18908684 0.6605159 -1.2745017 -1.4455595 0.13608104 1.0136483 -0.016114641 0.20866881 -1.1734861 0.3620766 0.87118566 2.5203035 1.7861831 1.0687265 -1.3452102 1.971499 2.1360188 -0.99214983 0.5768301 -1.7941828 0.39998665 1.4592903 0.32614914 0.73310465 -1.9029317 1.5094405 1.2256838 -0.3992439 1.2026566 0.12035859 1.889682 -2.6656637 0.23219205 -3.1319458 0.49626386 0.33688438 0.6218723 -0.865593 -1.048649 0.43628448 0.06889159 1.2473516 -0.5415957 -0.34234297 -1.9502082 -0.24843018 1.6965944 -1.0960337 0.30081034 0.53477836 -1.1634986 3.0667014 -2.2236385 1.0524094 1.7432033 0.20098619 -0.81968284 -0.8670285 0.118870586 6.0943065 0.45179805 -1.4005682 -0.50499296 -0.9771226 -0.23032843 0.039189637 0.63652337 2.5815787 1.363065 1.1578251 -1.3443561 -1.0744488 -1.6997584 1.7068905 1.4780934 0.15718438 -2.1000307 2.8103263 0.9506039 -1.2592736 -0.639392 -0.55016917 -2.8739152 1.0423352 -0.95582473 -3.7374332 1.0092015 -0.30823597 -0.44532007 -1.7317895 0.5473971 0.6253194 0.010635415
SmlE -0.7433494 0.24775454 0.38792127 0.94965553 -1.7309307 -0.39944622 0.7052879 -0.32641363 -0.9072266 0.72144175 0.9197537 -0.69526654 -3.4892004 -1.8952655 -2.186312 0.6196223 -0.018462248 -1.2696581 1.9150304 1.3388392 0.30688626 -0.88323075 0.67344034 1.0986134 0.63865846 1.2441698 -0.8144564 -1.2727057 -1.7441446 3.319169 -1.6590877 1.2979869 0.9335647 2.0626519 -1.8200184 -2.0251875 0.15213473 1.2465237 -0.21401122 -0.024250587 -1.343427 -1.4973046 0.45867738 -0.043948792 -0.17781249 -0.4770653 1.9446232 -0.9102659 2.718859 -0.9708933 0.2917717 1.0583236 1.2198197 -0.7604326 2.4745355 0.48081598 2.024469 1.1189213 -0.7282748 1.0111455 -3.1901631 -1.21223 0.9555943 0.33134526 -0.29321468 1.2639672 -2.1860056 -1.3733169 0.58115673 -3.494393 -0.38131577 -1.396607 1.3344575 -0.20400475 1.758357 0.6840387 2.1084392 4.27258 -0.049610566 0.42594916 0.13198033 0.53061783 0.8176712 -1.445659 1.5682002 -1.9034779 -0.1780896 1.1158144 -1.1753508 -0.44949982 -0.09076927 2.7766848 -0.6807227 -0.2091563 -2.2732682 1.0370263 3.5175939 0.70825535 0.76160765 1.4645038 1.0079508 -0.86025167 1.6454748 0.47010615 0.46222132 0.6718633 -0.15869889 1.929038 1.4202148 3.3364878 -0.51687336 2.087817 -3.0828786 0.34623942 -0.36231807 -1.208171 0.42811298 1.564955 -0.47328538 3.743417
qE 0.766398 0.8505225 -2.427888 -0.34866768 0.09606887 0.058944773 0.49226344 0.37263107 -0.704945 -0.5714635 1.3618205 1.3680959 0.2839738 -1.7848419 0.38525373 -0.2787532 0.37346762 1.20635 0.7857936 -0.21104938 0.8698584 -2.477163 -0.8653757 1.144061 -1.1130115 -1.0046889 -0.7478506 -0.7802797 1.4695357 0.57962394 -1.9427593 0.30588406 0.75255674 0.98441714 0.14531443 0.6582162 -0.66215104 0.25088504 0.58256596 -0.64005476 1.5858992 -0.5586439 1.3500053 0.8142728 -0.02982465 -0.63016665 -1.0272316 0.9251447 0.19068694 -2.9304833 0.9265951 -1.2980772 0.9245594 -0.20524254 0.333593 1.3172086 1.3392484 0.27329212 0.34213415 -1.4191421 -1.5591193 0.6231077 0.05956959 -1.9288213 -0.09866522 -0.46315858 0.9036146 -0.9960941 1.1540921 3.0178318 -1.5514818 0.025081657 -0.66300064 -0.0102007305 -0.21068963 -0.14985886 0.28674704 -0.45787993 -2.4068778 -0.28694245 0.69136274 1.8101431 -1.0400991 1.1889304 -0.681757 1.2611091 -2.2921345 -1.6409644 -0.6606675 -0.72607666 0.87249166 -1.0498853 -0.52704346 -0.67374057 0.89936996 -0.84793985 -1.5438461 -2.2732549 -1.4070046 0.27213353 -1.0238634 0.6019635 -0.2529632 -2.6469073 -2.5462856 0.3549031 -2.281309 0.1916006 -0.6968925 2.2426753 1.4943701 -0.22888747 -0.9417053 0.14720976 -0.2640434 0.5297369 0.9062123 1.2481298 1.6210204 0.9020345
Sklte -0.022372374 3.2859547 1.7590469 1.3535004 -1.7728337 -0.3210075 0.5346802 -0.7479912 -0.29397875 -0.5240979 -0.27835464 -0.901913 -0.7197791 0.07044555 -1.0736343 -0.5607963 1.9064041 -1.583599 0.18390153 0.8157355 0.30665627 2.1972373 -0.022751866 -1.3314122 -2.3046894 0.011615232 -3.880067 1.2614574 -0.522666 -1.7825 0.29389444 3.0540974 1.132118 1.9760762 3.272572 -1.3960851 0.6372606 0.58523494 1.3421178 -0.31404558 -1.330514 -1.4177479 -0.04311758 -2.9005716 -1.7284602 -2.355261 -1.7855939 0.11345122 1.1661129 -1.1882552 -0.95898914 0.61365235 1.0147427 0.75909996 1.6134057 0.64819354 -0.38111788 0.7836846 -2.300386 1.0079099 -1.5188701 -1.7425562 1.3669809 0.31743664 -2.625148 -1.5199709 2.1377242 1.3737401 1.4044656 -0.024689449 -0.8831687 -0.80511755 1.4483926 1.3115833 -1.9646524 -0.69348145 -1.2014366 0.5222061 0.9060874 -0.89817566 1.2104692 0.71302015 0.70072645 -1.0445806 -1.6721317 0.1573001 1.0749732 1.31432 -0.4705576 -0.31443408 -0.8409448 2.404705 1.7682749 0.92945737 -1.0999879 1.573045 1.0990618 -2.2092676 -0.60095507 2.0048575 -1.3092573 0.16134596 -0.43848103 -0.39641762 1.1128242 0.31912118 -0.8369285 0.06727674 0.94376236 0.8745399 0.47965604 -2.9008439 -4.6332555 -0.22138576 -0.7618058 -0.07448845 -1.6062566 -0.09661468 2.7919064 3.350105
wi 1.057956 -0.59260184 1.7142864 -1.609055 -0.10099523 0.112552606 0.8333626 0.28869563 2.6488225 -0.02006889 -1.1420332 -3.7933638 -1.2156451 0.6254805 -0.98501784 -1.6017632 -0.33024183 1.5041623 1.0114105 0.2581719 -1.7425554 -0.8357247 0.5679482 1.7365978 -0.9747581 3.2926328 -0.48201975 -1.0263454 1.6206032 2.6041164 -0.15077396 -1.1197867 -1.0669802 0.9563754 -2.369249 -2.2986922 -1.858719 -2.0186868 0.8120605 -1.6493733 1.0021517 1.146908 3.2057679 0.6659188 -3.0065436 -0.5424883 -1.4573793 -0.5491419 -2.4386215 2.1527126 3.1924844 -3.6190295 0.6120649 -1.379547 -2.4917374 -0.3216209 0.21544439 0.67772496 -1.8237774 -2.2977762 -0.64123064 -3.194623 2.602755 0.57733595 -0.17532788 0.6545734 0.53463924 -2.0516994 -2.7446263 0.60984963 0.054711383 -0.4531509 0.0065408573 1.139219 0.004063667 0.5199472 0.4565068 -0.5840802 -0.79529107 0.3867053 -1.4916849 -0.5315543 -1.3848312 1.3577448 -1.5161014 1.2876064 0.8893398 -1.2015166 -0.50616 0.15058812 -0.07790043 -0.26159498 -0.65210384 -2.2208567 -0.63015586 -1.6407495 2.1080384 -0.47238103 2.9310877 1.0646472 0.034902997 -0.4083127 -0.8091414 1.1136684 -0.90516925 0.2939635 0.6369327 -3.3329334 -2.209726 0.49997738 -1.0678852 2.4182863 -1.0532179 -0.89319146 0.3597405 1.1921798 1.2089616 0.83534056 -2.2781198 -0.081395715
wESi 1.907964 2.0747483 0.5073401 0.5493172 1.8796966 3.3577056 0.32956 1.5141784 0.16050263 0.40473282 0.6728592 2.214914 -0.21423401 0.023383744 1.2275292 -0.415919 -0.009199062 3.2689257 -1.1968342 -2.4293983 1.1661158 -2.1390953 0.25886086 1.0127841 0.23576224 -3.0995996 2.4620206 -0.3657107 -0.34403718 -0.5061721 -0.60064644 -2.9432867 -1.5689555 0.7185806 -0.35946947 2.874091 1.3308575 -2.5522196 -0.6306926 3.2426977 2.237309 2.000491 0.91627795 2.2944646 -0.05549251 -0.039819792 0.83873886 3.0103734 0.60027534 1.1874049 -0.14613155 -0.57187945 -0.53028953 2.028871 0.9750002 1.8772271 -0.13719927 -0.448611 0.42402473 -2.148368 -0.6718593 0.7889421 -0.96731246 1.0238552 0.5354496 0.619852 0.82562876 -1.6894099 -0.26377124 0.6510444 0.09600264 2.1967657 0.24020435 -0.4133742 -0.42168316 1.5080856 -0.0055146255 -1.4563048 0.37153658 0.7481296 2.1220639 0.6628654 0.3038243 -0.5902607 -1.1070232 0.80709255 3.6027281 2.3475235 0.43300706 -0.76436025 2.3021455 -2.054012 0.48388025 0.07918489 1.8843449 1.798489 0.13210471 -0.23699467 0.45025182 -1.6763382 1.0370892 2.304585 -0.1835008 -0.47469437 1.0129104 0.0430162 0.09547623 -1.1904384 -0.83814794 -0.83178556 0.53625816 0.27743065 0.7789379 -0.111092046 -0.37388465 -1.8515146 1.8033797 1.725329 0.93712384 -1.7968637
wES 1.8321319 0.2753404 -1.3224536 1.0793643 0.60420954 3.0930405 -1.9864079 1.4554838 -0.70945966 0.7446095 0.090134 1.8985387 2.7481213 -1.5503058 1.1130444 0.42311275 0.48506674 0.82576203 -2.274766 1.2562584 0.24105921 -2.4231954 -0.3470399 1.6850927 0.7404438 -1.6925795 -1.5125659 -2.2328396 0.8289635 0.506325 0.04260822 -2.1270564 0.22069755 0.63154256 -1.7535468 0.034870677 2.1672766 -1.6789889 0.098647535 0.7524325 1.3950942 -1.480189 0.7382755 2.104663 2.4145885 1.5405204 0.51367134 0.73840714 -1.3693538 1.3986235 1.3049649 0.8450685 0.75812405 3.4974325 -2.0868812 -0.7537246 -0.971318 -0.75890964 0.5776094 0.09015558 -2.714127 1.4008558 -0.42488363 0.71416867 0.31056553 -1.2189412 1.782103 -1.174677 -1.8718191 1.4176638 0.5628951 -1.7720379 -1.6097966 0.6971029 -0.18258196 -0.8500418 -0.6215325 -1.0767435 0.13514386 -1.9520878 0.53409725 0.5987046 -1.0280037 0.9845176 0.5265327 1.5600597 -2.2261512 0.5358491 2.6205392 -3.2750463 -0.6645629 -2.5472488 -2.0547025 1.2397819 1.0502019 1.8545487 0.57395625 -2.038539 -1.1835375 2.311959 0.38922134 -0.91318715 -2.0590868 0.6060993 -0.30452678 1.3533556 0.62923795 -2.3011405 -0.6846773 0.25405633 1.399609 -1.3600711 2.438426 2.1855 -1.4932052 1.501259 2.5337532 -0.23122086 2.1100748 1.6748588
qEwi 0.17840193 -1.3279811 -1.6218125 -0.9576668 3.1496935 1.065575 0.9190724 0.42706206 -0.84987015 -0.23569103 -0.46708122 2.499209 0.9880985 -0.29043633 1.5392677 -2.773163 -1.0897018 2.0737963 1.123448 -0.86776656 0.115149446 0.95139164 0.15713812 1.6351594 1.1666056 -0.8984181 1.2953422 -3.444453 2.5441604 -1.2994576 -1.5631689 2.3647609 -1.6434646 -1.9280785 -0.6099344 -0.02550556 1.6923991 1.2355139 1.372992 1.7239928 -0.36792216 -0.56439537 1.433096 1.9505441 3.310337 -0.1442788 0.23310845 3.0953038 1.8175356 -1.4793681 -0.6992493 -2.325793 -0.547871 0.39928314 -0.09228459 2.0065806 -1.2106675 0.38957497 0.8512194 -1.0719948 0.20654768 1.1331816 -0.20002288 -0.0174648 1.5844831 -0.3894877 2.6644335 0.31687218 -1.0136709 0.8193584 -2.3914464 -0.17258795 -0.59714675 -1.8102286 -0.14475954 3.0899436 -0.9225935 0.27037036 -2.7706447 -2.1603851 -1.187086 2.5987086 1.01535 1.4335746 0.9627199 1.4673116 -0.52136827 0.46810278 -0.18994991 0.42371047 0.27600685 -1.9104216 3.1243677 1.6746372 -0.9949068 0.49226353 -0.9161742 -2.1055403 0.10238346 1.6149893 -0.44991347 1.224108 -0.720853 -2.755436 -1.2719606 0.31987002 -0.09749381 -1.2876025 0.10902305 0.71989244 2.3505425 -0.7668683 1.1789364 -0.3329956 -0.15208739 -1.030869 0.89402705 1.2994314 2.5064611 -0.4449428
yetmdelE 2.567984 -2.872073 -0.9932697 0.78629255 -3.9611561 0.13391519 0.57987905 -1.5696385 0.58436483 -0.6562169 1.5037713 -0.29871956 0.9012008 2.059567 -0.5349282 0.88181794 -2.2865233 0.586904 -1.2406453 2.7535913 -0.4204422 1.1848892 -1.0073467 -0.38462234 0.26524648 1.7255007 1.5169315 -1.576598 1.5623771 0.17498635 2.0700274 -3.0421617 0.74432164 -0.6160052 -1.3646802 -3.493138 -0.18662854 0.27085808 0.77295816 -3.0609872 1.9731525 0.2832244 2.8135595 -0.13221163 -2.4868188 0.7342424 -0.5667947 -1.4063883 -0.8203613 -0.42864954 2.599914 -2.7475805 -0.68732697 -2.7593179 -1.9609202 -0.6555173 0.2903774 1.3437048 -2.836228 -3.8849914 2.6421247 -2.3783305 1.9772106 0.6605763 0.57040787 0.31432605 -1.6620138 -3.8589032 -0.5682115 -1.1231856 0.19595377 0.24078627 0.66352856 2.7828946 2.0159624 3.9809673 0.3339291 1.1965253 -2.2551923 0.98473084 -1.6521648 -1.4785119 0.0016977288 -1.0742719 0.97237444 0.8810007 -0.12431458 -0.18340953 -1.3700709 -1.8050083 1.2016174 -1.8424772 0.5927408 -0.0035076197 -0.07265112 -0.7549801 2.819136 0.013342524 0.3661333 3.2470717 0.3538353 -2.765305 0.6819901 2.2491987 0.1316038 1.3835791 2.8592458 -1.4602506 0.12365497 -0.38791424 1.0985088 2.0233948 1.0001873 -1.3629408 -0.1978728 1.0865201 1.7442942 0.4902119 -1.3356562 -0.80628186
aqebetEwi -1.2908561 -0.6806356 -0.633326 -2.419038 0.3194176 -1.3029724 -0.24905917 1.67067 -1.8360416 -2.2944593 -1.694607 -1.5840081 0.41748115 0.82141536 0.54919344 -1.5767819 1.814021 1.4041052 -0.67927384 1.852287 -0.5186976 0.6512254 -0.14364854 -1.1176146 -0.002165833 -2.405212 -0.47859067 3.5717604 0.14824663 -0.5402706 1.526413 -1.2005695 0.074999355 0.40993744 2.3456507 0.68884164 -0.51914424 -0.8483714 -1.4396958 -0.21468867 0.12244166 -0.10925184 -2.441142 1.6129981 -1.3598523 1.8789104 -0.47322693 -0.08403129 -0.11483844 -0.43965173 0.35926506 -0.006959157 0.89856327 0.64751697 1.0186871 -0.06655567 0.5818463 0.9694239 0.7107112 -3.2964804 -0.52058053 2.8381054 0.5393149 -0.61050415 -0.91594476 -0.0985268 1.0993191 3.7142293 0.8335016 0.6914515 2.011105 0.6193614 -1.22301 0.24788918 0.18249018 0.44353864 -1.3058048 -1.5457395 0.9249879 -2.220159 -2.3713477 1.4881921 0.4222628 2.411163 0.8111482 -0.9554331 0.4288754 1.0941004 -2.5665636 -1.3717312 2.1559598 0.123138115 3.0696962 1.239732 2.5239599 2.0076783 0.26897994 1.1042285 -0.89117837 0.4482728 0.46604338 2.200584 -1.0648205 0.3627191 -0.8913177 2.0456448 -0.94107336 2.201656 -2.440479 -0.21516822 0.41103664 1.3344053 -2.3089888 -0.43824548 -0.15154573 1.7307572 0.37862924 -1.8494602 0.5658256 -2.2091978
l 1.7396793 1.9439411 -0.17205285 -2.2443528 -1.3304276 -0.054353815 -1.0575337 0.4585747 -0.087510034 0.68422025 -1.4709405 -0.7181536 0.690649 -0.030332953 -2.209566 0.120907195 -0.6366014 -1.0045767 -0.7452771 0.15899597 0.9678131 0.36644217 0.10744471 1.8415322 1.1541556 -0.19893265 -1.0860057 -2.9995859 1.237988 1.9922898 -1.078085 -1.3550014 0.48454228 -0.4010896 -0.065721 1.15859 0.336961 -0.57017374 -0.7264026 0.775138 -1.2612343 -0.34459847 -0.93497217 -1.1292611 0.21506886 0.805037 -1.1405885 0.13370658 -0.49731058 0.72982913 -0.3634964 -0.091999665 0.060187943 0.68614936 -1.5112753 1.2040919 -0.30561438 -1.1333199 0.7278984 -1.7552358 -1.5433824 -0.6708743 -1.890125 -0.34535712 -1.2652831 0.6773603 0.49775547 -1.2457561 0.3955192 -1.487849 -0.20605531 -1.2906011 -1.7266923 -0.42344308 -2.3583694 -0.7291795 -1.1307073 0.29309985 0.9701664 0.46708798 -0.07375587 -0.15155718 -0.8748028 0.6642606 -0.7862439 0.43535635 -1.5512342 -0.1664694 2.028198 0.22820765 0.3742014 1.2489234 0.47162285 -0.23242562 1.580661 2.043464 -0.774325 0.65195465 -0.25588948 -0.5596479 -0.70511794 -0.056726832 -0.061549507 2.2398415 -2.0779822 -0.96049243 -0.12798043 -0.30451736 -1.14751 0.058805093 1.2461213 -0.8589226 1.0047066 -0.06653086 -1.7817976 -0.17452425 1.3694954 0.0479514 -0.21668975 1.0633922
qEre 1.5714633 -2.7587671 0.32945004 1.9995737 2.5180612 -1.6964158 -0.43426028 -0.7705505 2.4596906 -0.30988586 1.3991487 -0.16395997 -0.9009352 -0.43645075 0.46252236 1.9730387 1.7249768 0.84442717 2.3936064 0.72184813 0.37341544 2.4500818 -0.82658374 -3.9446776 -0.9750942 0.94478357 1.0725461 -1.9262706 2.1484025 0.68190074 3.0356147 -0.009431809 -1.4557484 1.6094338 -1.1527345 -0.98130864 0.23388003 1.0663893 1.377474 -1.5881894 -1.3670719 1.0266159 3.992721 0.6765228 -1.4545159 -0.66221946 2.626554 0.021392224 0.11834724 1.7039734 1.2713189 -0.09663474 -2.060833 0.76547605 -0.80069804 3.0828733 0.47113702 -0.9806548 -2.3017638 -0.17898971 0.02951934 -1.1409174 0.67361146 3.1773036 -1.9985557 2.6976452 -1.9252002 -3.4489417 -1.5747021 1.0655779 -0.5306708 -1.1497684 1.6537372 0.61653465 0.3625477 -1.1536198 2.2227 -0.7384156 -2.1553154 0.41025245 2.4913452 -1.7917477 0.0029688359 -1.320837 2.2808812 0.8769043 -1.8714694 0.34210494 1.188185 -1.1296779 -1.4431988 -1.27822 -1.1896675 -0.36124083 -1.9349858 -1.9160252 0.48936382 -0.93020564 2.4221785 -1.9189063 0.84998286 -2.7208881 1.9437273 -0.54741484 -0.3485841 -0.15176 4.0930867 -2.9769974 -0.08050434 1.2000898 0.6946418 3.2519507 -0.49609542 1.4936074 0.68181676 -1.891623 2.1785398 -0.40507835 -2.9781897 -1.1661159
tedxelEwi 0.1027689 2.210813 0.5799173 -0.2215855 -1.509134 1.788388 1.9030126 1.9179524 -0.38666314 -0.5051852 0.25347155 1.0481075 -0.17255655 1.234668 0.33663657 1.7931411 1.0389657 -0.5148674 0.15425996 2.5054579 0.09291856 -0.113666 0.95348287 -0.37727758 -2.7702804 -0.10184655 -0.6120357 -1.6472182 -0.12006311 1.2041707 1.7697581 -1.1310775 -0.040733952 0.747821 0.122145 -0.3790463 0.71745205 1.9551396 0.079322614 1.534128 -0.8761854 1.1430469 2.2521863 1.1534505 -1.4520708 -0.57643616 -1.0475041 0.8346747 -0.072217345 -3.252719 -0.2595341 -2.8889692 2.2449756 1.1364667 1.3585669 2.0469248 -0.7672655 0.46007743 -1.6584743 1.0257245 -2.4242024 0.1605871 -0.91264325 1.4725482 0.18195225 0.5363609 0.1676776 -0.26482627 1.6718991 0.69256413 -3.5851932 -0.78340185 -1.2346156 -0.23274225 -0.76561475 0.62663144 0.45024186 -0.9513592 0.16186145 2.3122804 2.0587108 -0.603041 0.63294053 -4.473161 -0.98949885 -0.45428082 1.2152996 1.011799 0.50641876 -1.2114625 3.2951753 -1.238358 0.3271773 1.2005849 0.32727888 1.5778849 0.070547484 -1.71273 -0.72040004 1.2917368 -0.56910133 0.1932929 0.4949478 -1.002045 2.2940242 0.3340182 -0.49878868 -0.7587028 -0.9895507 0.55826056 1.062247 -5.3893194 -2.6153667 -0.36931404 -1.7414591 -0.9310929 -3.0448031 3.3201776 0.31006977 2.9027517
pqr 0.8645103 1.097553 1.8983469 -1.1613421 -0.9410794 2.9391565 1.0142298 2.3317416 0.7029285 -0.040491186 -1.0269586 -1.2245488 -0.07801666 0.26834378 0.9086948 -1.4953322 0.9489167 0.4804767 0.6547863 3.6835828 -0.70555526 0.5007714 0.5003179 -1.189741 -2.0646205 -1.1652628 1.1002647 -1.1418127 0.76310176 0.39034882 0.21154568 -0.88158673 -2.1819413 -0.19084807 1.0670686 -2.0567155 0.050954722 -0.6476822 2.6672637 -1.5283315 2.2681947 2.5324426 -0.9036141 -0.21424381 -3.3509216 1.6383451 -0.3589101 1.3002927 -1.1892203 1.2120537 3.103358 -0.4179588 1.0650454 -2.124754 -0.8768801 -0.34489214 1.064091 1.3952894 0.099550076 -1.3138996 2.2654681 -0.54501593 2.4253056 0.50238365 0.31174392 -1.3247161 0.67945087 -0.55525136 -2.802092 -1.4199351 0.118320696 0.996647 -0.40847787 -1.1168684 0.66218024 2.322606 -0.8624494 0.90320486 1.2098675 -3.8786974 -3.3327315 -0.91891927 -1.2895457 2.2918744 0.31818363 0.6369648 -0.54185945 -1.3427527 1.4567372 -0.50384384 1.7182646 -2.5510828 0.3754963 0.040454112 1.722795 -0.77452326 -0.75450826 1.3835346 0.022631824 1.273811 -0.363478 -0.12202472 -0.7953947 1.1769786 -0.0031977165 -0.7197766 -0.76759964 -1.4892814 -1.0934567 1.6248891 1.805242 0.9451866 0.29724908 -1.242649 -0.17659575 2.5143943 1.7881944 -0.33506244 1.7523396 -0.80056953
qe 0.8759207 0.6629369 0.7450682 -1.410035 0.2456196 -0.45708302 2.8210545 1.19618 -0.40707603 -2.1281748 0.21279506 -0.10877793 -2.564337 1.9915748 -1.435222 0.39399818 1.7113415 0.9689869 -1.8674537 0.15530588 1.0944818 0.5795889 -2.0269287 0.6526436 -0.35623825 -1.8569313 1.5381778 -0.63645583 0.97479284 -0.9775577 0.5362555 0.27282256 -0.89391124 1.4163193 1.2993181 -0.28525198 1.6838638 -2.5699863 0.9509275 3.2118344 -0.6474795 -0.25563616 2.0930657 1.7503066 0.09846582 -0.1580829 0.78864515 1.7339096 0.6565111 0.9141743 -1.0172912 -1.1871588 -0.49983573 2.0829263 0.5176553 -0.08494364 2.229496 0.6916121 1.4462519 -0.41741905 -2.3555849 1.6166896 -2.5019588 1.0303237 0.8106357 0.10763402 -0.36298183 -2.6850498 -0.23259823 0.0184608 -1.9141637 -0.9464304 0.5558996 0.14401416 -0.3396937 1.3437041 1.4426113 -2.5286655 0.04464173 0.013614708 2.4363067 0.7953755 -0.24645935 0.74555784 0.019869233 2.2846718 3.1614084 -0.13851908 0.50171965 0.16144662 1.0660639 -1.6487644 1.9740231 0.3959937 2.9118052 0.8803883 0.4468072 -0.9690514 0.0378255 -1.1924115 -0.35044512 2.7167716 0.009913696 -1.6193949 2.5302222 -1.2171425 0.23345478 -0.009421907 -1.5122747 -1.4106269 1.0513064 -1.9334446 -0.6090956 -1.8466957 -0.6987013 -0.84385115 -1.0939997 3.1256337 0.2642937 -2.4164364
yete -2.658513 0.065919064 -0.39579535 -0.7236407 1.6215705 -2.2384663 -1.905449 -3.1402364 -0.029313352 -1.6344173 0.20434761 -0.6795494 -3.1044326 -1.3503842 0.09782232 0.25615215 0.2692276 -0.38481742 2.1568947 -1.6507488 -1.179383 1.7654644 0.38281345 -1.2622066 0.6934057 0.15682173 -0.79450643 0.5734683 -3.1716158 1.1621954 -0.8996218 3.2896774 -1.1349833 1.5075041 0.6737742 0.28389534 0.627607 -0.42574623 -1.6881226 -0.52025765 -0.9889558 -0.7301359 -1.0428274 0.2047641 2.1541584 0.011017269 4.244856 -1.7565244 0.42107534 -0.08175635 -2.7746258 1.7028444 -1.4451714 0.35003528 3.229191 -0.94279057 -1.3916646 1.0385249 0.38681865 2.2391222 0.80685586 0.09347913 -0.67751175 0.49866107 -2.5316758 -0.05945727 -0.19826125 1.2624283 0.20737554 -1.61094 -1.8178788 -0.969266 1.904894 -0.9346283 0.36124134 -2.6153226 -1.8869821 2.807708 0.7902324 2.598763 0.12496917 -0.756573 -1.8488567 2.2780974 1.219443 0.41997272 -0.8480664 -0.3985928 -2.2320468 2.0225415 -2.649997 3.5903919 0.73056114 0.84560484 -3.2555118 0.011490114 1.0978537 -0.60714686 0.26333246 -0.34991372 2.9042823 -1.5111135 3.7726562 -0.46906972 -2.1568396 -0.44256592 0.20385247 3.4565883 1.5178272 1.961384 -0.93701017 0.4167226 -1.1007975 1.4383307 -0.7971022 0.110691756 0.30309403 -0.0593511 0.26411262 1.9438429
smle 3.1241539 -2.8055809 0.91698647 1.0202386 1.0427395 -2.0634239 1.9837213 -2.494416 3.1176438 -2.1968415 1.4677619 -1.552046 0.54117507 0.14913043 0.36432192 1.3050987 0.29384437 -0.6040708 0.84611046 -0.28199863 1.0328166 -0.32029006 -0.95135343 -3.641148 -1.7847197 0.96116954 2.9325035 -1.3465958 -0.87785006 2.076112 0.69127405 -1.4317667 -0.6197552 0.42090443 -2.2947643 -2.935702 1.8243101 1.3353869 1.2567574 0.68132573 -0.3901047 2.5907502 2.1281743 0.53056496 -1.5238074 -2.746255 -0.2954652 1.276697 -0.18628809 0.67964643 3.3745368 -1.4429177 -0.83389103 -0.5509265 -2.8773668 -0.39279208 0.18651041 1.8466648 -0.101407364 -1.1254517 1.9241513 -2.3099942 -0.7226376 1.7124623 -0.048284415 1.7860305 0.068156905 -4.4127836 -0.24472614 -1.0931767 -0.67917705 -2.7270296 0.7192156 1.8979917 -0.48776352 0.1373903 0.9148747 -0.2696197 -0.7712787 1.9807037 0.032208044 -0.08834515 0.9549139 -1.8230865 2.0680752 -2.333632 -2.6591609 0.92051274 -0.51999587 -3.0841432 -1.8389106 -0.78333366 -1.8792217 0.69405836 -3.9252439 -3.1057582 -0.06637598 3.5862188 2.4485168 -2.025535 0.6900058 -1.9566145 0.21795769 0.06652702 -0.62259233 1.485221 1.3044097 -2.256662 0.5353993 -0.5824466 -2.2392244 -0.4724015 0.5294604 -1.4219004 0.70113283 0.3470605 1.5329032 -0.5141498 -2.7440321 2.3742948
ble -1.550262 -0.4023747 0.530049 1.6462785 -0.8793279 -2.4719791 -0.59175193 -1.1983302 -0.16002278 -0.7803079 2.0991051 0.15752223 -0.985761 -1.776612 -1.0085269 0.4929269 -3.0001378 -0.879823 -0.63056016 -3.5432372 -0.20397305 0.10706297 1.4829363 -2.5177817 2.2508898 -0.85644096 -1.9682271 0.018075626 1.0028814 1.9058652 -1.1331221 2.1542494 0.5802324 -0.22670855 -1.7544348 0.8561011 1.2656212 3.2935915 0.4829044 0.25282967 0.98257196 1.4170115 -0.27184278 -0.34883282 0.3154569 -2.2568133 2.6728346 0.5800876 2.7993522 -0.17321542 -2.701611 0.28287283 -0.984915 0.99573195 0.8067872 1.9307493 2.6177607 0.19678731 -1.9104263 2.2817893 2.8744383 -1.2327548 1.311119 2.1401067 -0.21036993 1.7880832 -1.0252477 -0.38957062 0.60640764 0.6031124 0.16555528 0.5563571 2.2643483 -2.0416715 0.20903556 -1.3803893 1.2153304 1.3525778 -1.0547652 2.2542353 1.8886901 1.2000221 0.62224317 -1.7729244 -0.48628744 0.28821284 0.79635 -2.076041 -0.7418169 0.68423384 -4.1489434 1.8114053 -2.7028697 1.4820517 -2.789349 -0.64169514 -0.059980344 0.06289873 -0.40061346 -0.073302485 2.2237604 -2.4541852 3.2187595 -0.18100797 -2.8866336 0.2682609 -0.8275286 0.54178 3.4719296 -0.4571094 -0.5341768 0.1640161 -0.61416423 0.25460735 -0.41451788 -3.6029694 -0.101028934 0.7545741 -2.9914432 4.448273
tedeqeli -1.5012802 1.7643378 -2.5861974 2.5142913 -2.6942902 -1.5394502 0.4343277 -1.9322549 -0.7371222 -0.43179217 1.7535369 1.2330112 -2.049549 -1.3823144 -0.4418808 0.24154769 -0.4660799 -0.84401625 1.8273973 -2.7471426 0.69433755 -0.94136804 0.48684993 -1.8212004 2.3459868 0.28093386 -1.7613716 -0.30331257 -2.8286395 0.88992256 -1.675889 1.838809 1.365479 1.2396696 -0.81869465 1.0299718 1.8609618 -0.56990623 -1.0318215 -0.3321876 -1.2058405 0.9311315 -0.5288432 -1.0801874 3.3118799 -1.0025498 1.2214795 3.5141318 1.6177462 -1.7589979 -0.405032 1.8054065 -2.7657855 -0.20142928 2.1267037 0.27031672 0.46045408 -1.3703293 -0.67320246 2.9243743 -1.2792116 -1.3582541 0.718821 1.0923743 -1.1970485 2.835363 -2.8796024 -0.010636012 -0.43548408 -0.5876878 -2.823045 0.30134675 -0.3064795 1.1362474 0.127122 -1.5697267 0.7459654 1.200355 2.8556993 2.4303253 3.4689732 -1.2350522 0.21206662 1.3642403 -0.41726503 -0.106999606 0.42374757 -1.1574346 -2.444196 0.34216222 -2.4159894 2.474145 -0.7479906 1.2823824 -3.3738296 -1.8587984 -0.353049 0.112423144 1.3878074 -1.6125678 -0.29062894 -0.4223527 1.2590406 -0.27642688 -1.3447876 3.2101781 2.012728 2.2545931 1.8371103 -1.857082 -0.77012974 2.6323404 -1.4218947 1.8366446 0.42928624 -0.7244886 1.8345488 -1.2847253 -2.2677555 2.467462
trqye.yetmde -2.0147967 0.07561222 -0.2394503 -2.2197638 -0.16130163 -0.1263495 0.38054737 1.4162104 -1.6668354 -0.051974904 -2.110284 -1.4644413 1.3476305 -0.6102649 0.51866776 -2.418901 0.4591981 0.6459986 -0.57426554 1.0275716 0.44671246 -0.4982474 0.21560247 0.5089633 -0.9795642 -1.886979 -0.38461515 2.0331597 -0.5446184 -0.3289121 0.56150883 -1.1676435 -0.4625086 -0.35234946 2.2795444 -0.67191535 -0.83334273 -1.2053826 -1.8238975 0.80708843 -1.0031166 -0.16742416 -2.7269757 1.962797 -1.4866174 -0.15738404 2.3486173 0.14980046 -2.2403193 0.5225282 1.2011871 -0.73826396 2.6274886 0.7141469 -1.0246568 -0.6225757 1.0503585 0.45683214 -0.69993544 -2.063917 0.83947825 0.6148845 1.2212096 -2.4118996 1.056752 -0.8040878 0.41064963 3.4266498 0.7353664 -0.91293955 -0.13311607 1.0089413 0.17403156 0.37593344 1.0363237 1.0553731 -0.93744195 -0.2795405 1.5749611 -0.6833289 -1.7929629 1.6026454 -0.4221758 2.1836677 -1.3658006 -0.76855755 -0.5431315 0.17492884 -1.4434042 -1.7745638 3.3445249 -0.7447353 2.9444463 -0.15388428 1.6324365 1.743384 -0.7416973 0.92408377 -0.5820895 0.18930005 -0.9607267 1.0664604 -0.8163134 0.5697369 -0.58575624 0.07478361 -2.747129 -0.17852841 -1.1816813 0.41973048 0.9347312 1.2026964 -0.28318056 -0.38739085 0.07023894 1.6917816 0.0957661 -1.8180891 3.3537822 -2.4871995
kemxr -0.8713665 0.44163424 0.95655286 0.93550235 1.1637013 -1.829868 0.07795079 -1.319979 0.48939112 -0.5118842 1.2119565 -0.121826775 -0.9785015 -0.77929544 -1.0037113 1.1272147 -1.3214914 -0.3579677 1.4242078 -1.2202597 1.1472889 1.0667005 0.5105021 -1.2678487 1.2092618 1.9965464 -2.1020286 0.91518456 -1.461144 -0.5954863 -0.22794883 4.7614346 1.9223126 -0.43670002 -2.539315 0.8582594 0.13846411 3.187695 1.5614009 1.2945328 -2.1924026 1.0599965 -1.8644745 -1.9728009 1.5339193 -1.8882476 2.0617955 -0.2592249 3.3194234 1.8329558 -1.174299 2.660111 -2.449337 0.11408509 3.7401495 1.047545 -0.41568786 0.104535155 -0.05438812 2.2210355 1.3211657 -1.1105566 0.03243054 -2.1496794 -1.6778998 1.2742233 -3.016831 -0.38371268 2.7162702 0.061934907 0.37615538 1.0307281 -0.7670186 -1.4346519 2.052071 -2.5010366 -0.3534126 2.1763108 0.63108975 -0.56893176 2.9822004 -2.0520744 -0.60118484 0.042312562 0.11515466 -1.8711488 -1.6085047 -0.78645176 -0.70297426 -1.4156221 -0.5697403 2.5704184 -0.42601132 0.35028642 -2.2481887 0.395128 -0.3538877 -0.5547115 0.57699275 -1.315282 1.0899208 -1.0082548 3.808825 -1.3984977 0.18211687 0.36952567 1.1709008 4.6415896 0.46392354 1.6345488 -3.1243675 0.2452351 -1.490629 0.23785523 1.4892616 -0.36185923 0.15081762 -1.1370528 0.19579853 3.2860527
ateqiSitkemEli 2.3330843 -2.974785 0.15958953 -1.9393482 1.4576567 0.15553582 -1.2262118 -0.88062406 -0.503137 -0.4532208 -2.3927135 -1.2801759 2.153697 1.3699231 1.4543765 -1.1553833 0.34561363 0.84407234 -1.6302247 3.217456 -0.21477477 0.5680244 1.1002549 1.2202635 -1.906436 -1.6401187 1.6912909 -0.81949985 -0.45323932 0.041964877 0.45911476 -1.0358303 0.5380773 0.67417914 -0.49314728 -3.5655055 -1.7058871 -0.49004263 0.053351223 -1.9623806 2.6012592 -0.052646495 -0.95437497 2.374073 0.011290148 0.6211773 0.48018432 0.5822753 -3.2370474 -0.27083564 2.1844337 -1.917636 1.4801528 -0.7149931 -1.7142081 1.1270232 0.75184405 1.4808975 1.011672 -2.8573294 0.400354 -2.7977598 -0.006171363 0.106295295 -1.2291182 -1.792343 2.145492 -0.7365383 -2.505435 -2.2001805 -2.0303876 0.7131997 -2.143951 2.0317075 -0.05669733 1.846238 -0.53163004 -1.215561 0.017402763 0.48323765 -0.99873304 -1.2134088 1.3547282 1.1405143 1.8492498 -1.1018789 0.956197 1.8490576 0.96184516 0.40191782 0.93017024 -3.4005132 -0.38743225 -0.25422326 -0.66924495 -0.1332906 -0.5016647 2.1241271 2.8784807 0.14796314 -1.2912453 0.73884636 -1.4570223 0.684575 0.8535906 0.48716387 1.380599 -4.632654 -1.7921047 0.4335661 0.6440516 3.8908565 -1.1998521 -3.2737982 1.4051031 1.6356887 -0.91819656 -1.4890214 -0.3042835 -1.9222391
kde -0.29898745 -3.725771 2.3937287 2.600494 0.62543416 0.08231774 0.008053959 -2.916426 0.95096993 -1.1021711 0.486963 -0.99659085 -3.73452 1.7950863 2.4962533 1.4285861 -2.4840968 -0.11159093 2.8918073 2.4543216 1.5673426 -0.3349643 -1.5783545 -2.939013 2.552413 2.9604778 1.0075519 -1.2283742 1.4226067 2.7251897 -0.82184374 -0.26935342 1.4025146 -1.0324205 -3.228544 0.49305618 -1.217676 -0.4346898 2.9955623 -1.5196965 -0.9785417 0.49921829 0.81758255 -0.40859264 -0.071780875 -1.9998208 -0.10406882 2.5060318 1.0060375 -0.9189344 0.37358972 0.44686192 -2.3016405 1.5269196 -0.8010255 0.62013936 -1.4050574 0.30884364 -1.1425318 0.92584795 2.0376813 -2.7093153 -0.68030214 1.858468 0.04086195 0.12698315 -0.098519154 -2.3713245 -1.6170003 -1.8507653 -2.094757 -0.61817265 0.41326413 0.5061105 -1.7674065 0.36271203 1.5444608 1.6603959 -1.1982591 1.2278205 3.8067675 -1.5132972 -0.2832684 -1.891198 2.2057946 0.48617667 0.31577757 -0.64378446 0.31247127 -0.7662512 -3.2909734 0.4485759 -2.3158388 -1.8504208 -1.6388701 -1.9640547 0.45554885 -0.6808318 1.6997612 -2.4646893 3.3046353 -2.75168 3.131452 1.6631721 -0.89971966 2.2616186 1.4655267 -0.7249695 -0.19642861 -0.29296124 -0.7018205 0.48307732 1.6345502 -1.4897118 1.5918177 -0.40713048 0.28600866 -0.26162642 -3.0176435 1.7857364
yetmdelEwiateqi 1.1486083 -2.8377812 2.3636866 0.34611508 0.26044133 0.9925168 1.2867544 1.3905684 0.781981 -2.3121104 -2.8620744 -1.6835929 1.816669 0.044102523 0.6966867 1.1132253 0.36498988 0.35571843 -1.8112557 3.6299148 2.2034805 -1.0163456 1.2067319 -1.1681502 -2.9700694 -0.7683652 0.2080068 -1.8719763 1.1324234 0.40757886 3.0746558 0.0819725 -1.4402274 2.1750576 -0.43068853 -0.9045719 -3.9188385 -0.77926046 1.5338999 -0.39260736 2.1801963 0.4055063 2.0925653 -1.3326113 -2.2942097 0.82377005 0.0065083234 0.52964604 -3.3139837 0.28929415 5.3781695 -1.595997 -0.6095785 -0.6028086 -2.2987702 -0.71218395 -0.571311 0.15650636 -0.811698 -3.4831266 -0.44606173 -1.5487956 -1.1963735 0.051344804 1.168369 0.5315092 1.1501074 0.19400263 1.7920287 -1.7067131 0.3919586 1.7738082 -2.3099916 2.490605 0.2875282 1.5069182 0.13316818 1.5061859 -2.6353464 -0.36790666 -1.2585597 0.95265394 -0.1018476 -1.035685 -0.63608557 -1.1624681 0.009932922 -1.3022172 -0.540661 -1.5235821 -0.48997986 -1.4284844 0.013838217 -0.28674424 -2.7878313 -1.270999 1.645991 -0.6038669 1.2581124 1.0134993 1.9913712 -1.2866845 -2.0365064 4.143534 -2.342857 -1.3078717 0.83421093 -2.905848 -1.0202866 1.408992 0.5126094 2.5714145 0.47154486 -2.6724477 0.16642816 1.7375627 1.6738976 -0.5583546 -0.88649297 -3.0408702
qEresmle -0.046517625 -0.50658727 0.022263067 -0.13312854 0.6277345 -0.66845226 0.7032447 -1.4042993 1.7657943 -0.45744216 0.42903417 -1.1519011 -1.5468758 0.73758566 -0.4418405 1.5165683 -1.1177834 1.8006221 1.6982714 2.7419057 -1.4360937 -1.9538226 -2.6524613 0.6150047 0.98650587 1.581448 -0.019592393 -2.603104 1.1993523 2.1396198 1.9117342 0.87540793 0.087908514 0.870469 -1.6580526 2.0782878 2.1674871 2.8714192 -0.49950966 0.60155064 0.6259966 1.8726008 1.6231599 0.5891963 0.6471302 -2.8845317 3.6366024 2.268939 0.8396569 1.0252925 0.96338874 0.3305535 -3.8776608 -0.43136922 -0.79273903 -0.6747491 -0.46579635 -0.0062142974 1.5150034 1.1177285 0.65838903 -1.2936726 0.014354534 0.96454555 0.9339059 0.31140944 -1.5795677 -0.6967593 0.13019271 -0.6143735 1.3303149 -1.3705612 1.3105692 2.391896 1.2743332 -2.1728227 0.8941247 0.64882773 -0.7956862 3.9652653 1.8750066 -4.2623086 0.16803566 -0.93830884 0.31190816 -0.41193098 1.4614711 -2.3298268 0.13006134 2.4643774 -3.1535711 2.56626 -2.6509166 -0.37868795 -0.81357616 -3.3411946 -0.04577301 0.6800542 1.2286326 -2.5063012 1.7384588 -3.5813444 3.1345403 -1.635346 -1.8350993 0.41211352 4.155812 0.5402624 0.9108016 -1.1386462 -0.6016796 1.5110952 -1.1511631 -1.5319095 0.7171813 -0.92520773 0.85814315 2.2731068 -2.2717667 2.084091
atiyete 1.6249846 0.6095646 2.8495305 0.19499248 0.28766695 0.24072738 2.5592947 -0.915361 0.96153295 1.2079856 -0.32297087 -2.0043638 0.5071776 -1.1135551 -1.407313 -0.45019472 -1.3842423 -0.22162777 -1.3585558 1.7702892 0.3506802 -0.8217257 -2.17993 0.7679684 0.4055285 0.9925329 1.4506867 -2.397541 1.7240613 0.45012903 1.8723437 -1.4517612 -0.5709684 0.59394056 -5.1172695 -4.546702 -2.427447 1.2754886 1.5620857 -2.340246 1.5090188 1.5045161 3.1994703 1.0689029 -1.8897371 -0.25558782 -0.5595997 1.9129891 -2.7312813 -1.5747045 1.6798588 0.900195 0.47434944 -1.9249943 -2.0795648 1.6330551 -0.47740918 0.23192412 -4.1380944 0.86656266 2.8574214 -1.4736338 -0.8697786 1.716113 1.0546749 0.81952524 0.77283525 -4.2002788 -2.173818 -1.7437668 -0.620492 -1.4821587 0.4610359 2.8833263 1.0897883 3.9402745 2.3283694 0.9694543 -1.8370863 -0.7063547 -0.6706407 -0.7661306 1.9925816 -0.06560615 1.2395662 0.95924044 -1.5383663 -1.4784566 -0.6786384 -1.9548126 0.21369724 -0.6643344 -3.0303462 0.5173006 -2.1109066 -3.1088688 -0.07576322 0.9103577 1.2917366 1.3104153 0.69621897 -3.146227 0.63791716 1.1739122 -2.4401863 -0.34343034 1.9056289 -3.134168 0.45964283 0.62779385 -1.3934021 1.9108025 -0.34723037 -0.13623868 1.5460885 -1.3207422 2.1380816 -0.12947574 -1.0816339 0.44665375
mXli -0.14820938 -1.4314759 3.2687283 -0.713977 -0.53502816 -0.8276573 -0.3191095 -3.9661093 1.4326153 -2.3724706 1.1176887 -0.10281861 -1.1375401 -0.4776406 0.40814143 2.4842906 -0.474239 1.0949355 0.49133658 1.9028773 -0.793156 0.66270155 -1.5265851 -0.3421494 0.23311378 -0.14984319 1.1337293 0.6815366 -1.0498794 4.018279 1.4463501 0.7291121 -0.6946661 1.5140333 -2.5782673 1.2123455 1.6830189 1.9120065 2.195982 0.33672625 1.591325 -0.6376103 1.2422708 -1.3489277 1.0030375 -0.83759874 2.4112267 -1.3536383 0.34510496 0.39390197 -1.2746243 -1.8117186 -3.679073 0.282244 -3.1749947 1.6931502 -1.0492342 -1.5637807 -1.5271189 1.4583888 0.5039993 -1.4544027 0.34310326 -2.2067158 0.06467247 2.6795776 -2.628198 -3.127247 -2.0355892 -0.63314325 -0.97555614 -2.2036612 -0.7543169 1.1874063 -0.5691849 -2.1699946 2.3911145 2.1944687 -1.0205183 2.7530997 2.65079 0.15189047 0.63551486 0.8164741 0.2684863 0.33995056 -0.049360592 -0.5628285 -0.41262165 -0.85436255 -3.0094965 0.7025556 -2.70306 0.15056193 -3.1540594 -3.0489473 -0.7774978 -0.937252 -2.3556063 -1.9756451 2.0912764 -2.0641298 2.7630649 1.9431417 0.73408175 2.1527328 3.7044728 -1.2090534 -0.762782 -0.77995336 -2.4121606 1.9596238 -0.71441716 -0.9106686 0.87547946 -2.974909 0.2871446 0.07456119 -2.3559992 0.61894727
wetemtr -2.0143168 -0.65350497 -1.1538842 1.5122069 1.428673 -1.5576533 -2.7802935 -2.676746 -1.3356907 0.20186788 0.75343406 -0.67459446 -2.2415717 -1.9837234 -1.050163 0.118661135 -0.6466698 1.3904327 3.058717 -0.80948216 -0.7919007 0.38183287 -0.51690465 -1.0511307 0.9316961 1.2768803 -0.97403896 0.8255786 -2.4379952 1.8933029 -0.8006677 2.6554737 -0.46698993 1.2837 0.5772746 0.37889785 0.16185407 2.338997 -0.76117295 -0.52035147 -2.4360912 -0.10588372 -1.309279 -1.7680228 0.5658375 -3.3885128 2.7536724 -0.52541536 2.8834963 0.39395788 -4.0371876 3.1992533 -2.1470892 -0.7090727 3.60105 -1.8774277 -1.1135927 -0.62956715 0.1440425 3.3789415 1.3754548 -2.0178547 1.4502418 -1.4540516 0.7575725 1.1113666 -0.68518245 3.330671 -0.17810035 -1.7388755 1.070213 -0.4361119 -0.95002633 -1.4259189 -0.51570964 -2.078727 -0.13856044 3.0707636 2.7785077 1.0890778 -0.4865952 1.204652 -0.014993848 -0.5045116 -0.61132914 -0.07628739 -2.3122308 -1.0493737 -2.4483721 1.4362539 -0.11387733 2.4723797 0.58526045 0.7560221 0.3363653 1.560446 0.8155358 1.7970958 -1.0996231 -0.4138105 -1.8439797 -1.2431107 -0.791915 -0.85919076 -0.3269939 1.6162275 -1.0146546 1.3242037 2.800301 1.1679808 -0.90343636 1.907931 -0.38140404 -0.4342773 -0.36509797 -1.0226234 -0.5068543 -1.530627 0.5619885 1.9343622
dskemxr -0.9737276 0.2994537 -1.0909764 -1.138021 0.2706196 -0.17301929 0.60724527 2.7342224 -1.0680028 -1.1732663 -0.72402084 -1.5169413 2.1488428 -0.6475366 0.21014929 -0.8207311 0.27962482 1.6166286 -2.1345742 0.5693553 -0.62517333 2.3496768 0.5875874 0.61464006 -0.117335446 -0.7030411 0.22430344 0.41294098 0.6937782 -1.0468488 0.50938964 -1.2511284 0.4849168 1.38627 1.8234054 -1.2102854 -2.1816533 -1.0946457 -1.0533495 -0.33702514 1.0936894 1.5577434 -2.9098742 -0.57179844 -0.39953855 1.2665536 -0.22076826 0.9350474 -2.7223828 -0.27024007 1.0968407 -0.48049667 2.3584104 -2.6052887 -1.9552348 -1.4052951 0.04709501 0.96901697 0.015689252 -3.1744652 -0.43655995 0.68636996 2.7356129 -1.7787251 -0.98954785 -0.61783606 1.4693884 -0.24631909 0.23042262 -1.1314625 0.2306256 2.4657533 -1.3438786 -0.8447364 0.32755536 1.3184348 -1.3437064 -0.8165293 -0.092696644 0.50644594 -1.5990307 0.31191164 -1.0255026 1.8930279 -1.96555 0.3424408 -1.8021026 -1.9214498 -1.481638 1.2240816 3.1883812 -1.8455452 0.51842463 0.72616225 -0.1765195 -0.3139231 2.1702466 0.24759635 1.3891785 0.46366483 0.064997174 1.2802615 -3.1337614 0.8570762 0.7138915 -0.33184385 -2.0857198 -1.2757031 -1.4183153 0.619729 1.1633877 1.2592024 0.8993315 -1.0381428 -1.5934459 0.64387476 0.34349063 -1.6428757 2.0334704 -1.7124802
qEriteyli -0.3886057 0.1827179 -0.52073836 -2.3100002 -0.016582552 1.3891007 -0.50583154 0.86973935 -0.5797368 0.026766678 -2.2826629 -0.29699305 -0.3073373 -0.4826505 -0.9079161 -1.588249 0.5348895 1.9189572 -1.7087094 2.4718916 -0.8062899 0.777258 0.6796256 0.5037651 -0.79326373 -1.5085351 0.9442815 0.67806685 0.41660315 0.02518566 0.30330226 -1.4372998 -1.4503508 0.3068953 1.5851909 0.08618826 -1.8379824 -1.8766986 -1.4890528 -1.9261541 1.3566363 1.3480991 -3.3023558 0.9959526 0.2412532 2.0809739 0.057583444 0.25541356 -2.9898467 0.79736406 0.7571489 0.6636333 1.887753 0.28873536 -0.8953768 -0.8013551 0.6982007 0.66458493 0.18340595 -2.4787958 -0.1386252 -0.6416267 0.7577182 -1.2913345 1.4152822 0.030392867 0.78727305 2.7132733 -0.008471076 -1.0873104 -0.6528186 1.7545458 -1.7501904 -0.043239933 -0.5533021 0.92850363 -2.181586 -0.4425364 0.4821282 -1.8606713 -3.259076 2.4990277 -0.39833176 1.1118524 -0.051318973 -0.17564791 0.089704715 -0.6856446 -2.0772529 -1.1913842 1.5027204 -1.1692557 0.65880984 -2.1307256 -0.27369958 -0.11270815 -0.093173794 0.10558667 0.18174267 0.86187637 -0.32204506 -0.25416636 -2.2370687 -0.031472486 0.65078074 0.36366695 -1.3383621 1.1102058 -0.87958694 -0.52530915 -0.6902897 -0.05832048 -1.8315918 -0.32249495 -2.097253 2.546694 0.62868834 -0.49555376 3.0594432 -2.3925998
tlmenkeli 2.067798 -0.8168592 0.56527567 -0.6778388 -0.70315945 0.42934972 -0.30595258 0.7248159 0.36401245 -1.3582786 -2.248416 -0.31356704 3.0088816 -0.8614438 -0.22318503 -0.44078195 -0.25423947 -0.35851747 -1.0463202 2.0381453 0.045420367 1.6235979 -3.2736137 0.8203486 -0.39465314 -0.38497773 0.11360568 -0.15566023 -0.8988025 0.27587074 0.35593495 -0.5104605 0.3799625 -0.4937937 -1.1653287 -1.8691435 0.087132476 -1.045134 0.990987 -1.5632604 1.3747985 2.55861 0.3377331 1.9229981 -2.675722 0.49051782 -0.24610943 1.1097172 -1.9116993 -0.29245642 1.3880249 -2.6108158 2.5064654 1.3959368 -1.464131 -1.0996199 1.1243043 -1.3885026 -0.5581498 -2.2727256 0.38002434 0.68240863 2.5009503 0.9674749 0.64217275 0.78885716 2.842138 0.59619194 -1.0488964 -1.5871216 2.0719202 2.254101 -2.6295748 -0.4083815 1.8813299 2.8692338 -3.451555 0.086658485 -0.7001932 -0.57793367 -4.1663003 -0.78880256 -0.2072097 1.9857613 -0.44711554 0.9728259 -0.62150425 -0.096699856 0.7112782 -2.6875007 1.8026142 -1.3642529 0.6687332 -2.2740796 -1.4006059 0.38327965 0.99599516 -1.2220366 1.4518712 0.92484623 -1.0858618 0.4943731 -1.1670889 0.80605155 1.1475097 -0.2722802 -0.13274318 -2.6431007 -0.68520516 -0.8973409 -2.496874 2.3140411 0.026909228 0.3995199 -1.2137516 0.5571963 0.1702956 -1.1218224 1.5932274 -1.5161973
abyetli 2.0793355 -0.07748794 -0.19061331 -0.36603904 0.44939798 1.4806359 1.3224884 0.3301634 -0.6833644 -0.044381548 -2.2795897 -1.3184134 0.7581711 0.6882193 -0.34150743 -0.92676586 -1.7307258 -0.32716775 0.88596183 2.8576846 0.82742965 0.7696901 0.035950694 1.2548085 -1.9118729 -0.16147636 -1.7746681 0.13167201 3.3643856 -0.2054617 1.8063806 -0.251512 -0.109267466 0.9640792 0.39425012 -0.5576105 -2.6418474 -1.3831089 0.12980552 -1.37566 3.6684878 0.7554423 -1.9146872 1.9361545 -0.34504768 0.64339566 0.007394514 0.29583383 -3.6958976 -0.59736425 0.9882872 -0.32298753 2.479233 0.16199595 -0.2362289 -0.5677573 -0.9999762 2.109816 -1.6238638 -2.2772615 1.6381073 0.3374019 0.75624615 -1.5592537 1.5235261 -1.4266268 0.8758246 0.89590836 0.1260135 -0.35689956 -0.10152951 2.9787025 -0.16939045 0.7140138 1.4231757 0.9163144 -1.2162588 0.69056123 1.2243859 -0.22948658 -2.3748026 0.7784788 -0.8454744 2.2444909 -0.075881615 -0.29119596 -0.68867046 -0.13639799 -0.7893889 0.42564824 2.023166 -3.5649137 0.35480046 -1.598981 0.669228 0.17449266 1.7909875 -0.48531955 -0.31062466 2.381091 -2.342605 2.230575 -1.698305 1.8703994 -0.60811156 2.5047603 0.18058825 -1.5858562 -1.7886604 0.77799016 -1.2043949 -0.052260056 0.39899036 -2.6219475 -1.5835 0.74344736 1.2069843 0.61761296 -0.010821525 0.1332236
mklisye 1.8806262 -2.611498 1.9372796 1.4499984 -1.0980611 1.0451165 2.6149974 -0.7315447 -0.48427042 0.5279535 -3.488829 -0.8562861 0.14015768 0.78141636 0.38899267 -0.7872815 0.46127498 0.4727889 -0.34603003 3.0747762 -0.5229452 0.32372016 -1.9588457 -1.5490892 -1.97618 1.2866424 0.4609 -1.4987295 2.8936265 2.3462596 3.399733 -2.5398102 -1.454168 0.58584005 -3.367924 -1.2408378 -1.7697192 2.0054898 -1.301893 -3.1755092 1.0166119 2.6661227 -1.1330339 1.6464733 -1.0019269 2.0335517 -1.7699108 0.47369912 -2.4130986 0.8709409 3.954302 -0.90065974 0.81989896 -0.79972935 -1.8243091 -0.30926055 2.4251835 -1.1285192 -0.44446436 -3.8699312 1.3382607 -2.320942 0.27864674 0.8720804 0.59435123 -1.6080526 -0.24986443 -1.7534854 -1.5969236 -1.9966974 0.7807629 -0.3362385 -0.9264011 2.23501 0.8936867 0.94440955 -0.03862241 -0.04988167 0.0798367 0.12911728 -0.98904616 1.32807 -0.33355018 0.64238775 0.6858245 1.0715344 -0.40809736 -0.4674171 -1.746469 -0.7217825 0.8196817 -2.3004816 -1.1615382 0.014843416 -2.470163 -2.505431 2.8666246 1.1140243 0.5524954 0.8199525 1.501125 -1.0938319 -0.29453465 2.2806673 1.6708814 1.5039432 -1.4332591 -4.761708 -1.1745415 -0.6609939 -0.21873397 2.8289242 1.8133974 -1.4128488 0.011747357 0.10117158 1.3468236 -1.0549849 0.16440244 0.30017686
deletenkeli -1.9005566 1.3956741 -1.9584392 -0.70199734 -0.28258666 -1.0310116 -2.1658206 -1.5642772 1.1475694 1.6409776 -0.2839634 -0.6408354 -3.6153476 0.90630484 -2.5042934 2.416978 -1.2697761 1.0787318 -0.10645476 -1.4972492 -0.8069184 -0.7051956 1.9854451 -2.9242692 2.470446 1.2630867 0.46550843 -1.169218 -1.004955 3.874548 -0.6899598 1.0455877 0.6990372 -0.63063395 -2.963652 -0.34210396 -0.6207081 -0.12044434 -0.10573547 0.05028273 1.0550771 -0.30703822 0.46971828 -2.7303927 1.7097691 -3.4795194 3.531564 0.57042366 0.45097393 -0.86861557 -0.25900233 2.4301567 -2.4455414 0.8760917 -1.5506364 0.9358825 -0.3414692 -1.3420411 0.0022220057 0.34145865 2.0016286 0.1922888 -0.716533 0.13642077 -1.7962875 2.1377668 -1.7414466 -3.5818946 0.2868684 -0.17083244 -0.11936076 -2.005964 -0.17931187 0.50716126 -0.36058044 -2.96589 -0.20706269 2.7354841 -0.5342986 2.3109205 2.8405836 -0.14712025 1.6308887 -2.110204 1.3721093 0.54348505 -0.5835102 -0.9349836 -0.40142518 -1.5106201 -0.86406136 2.9085941 -0.23910138 1.3352474 -1.6865208 -0.33231813 1.1117321 -1.1333681 0.5892105 -0.8662842 0.972778 -1.5667329 2.6369588 -2.7300348 -0.3694231 1.185698 2.3928301 0.98780555 2.5245078 -2.2740028 -1.3349097 2.504749 -1.2541989 -0.7448033 1.4871808 -3.435608 0.42146283 0.4664567 0.28957698 2.5881867
nkbli -1.9587466 -1.5437813 0.90574837 0.53662187 1.4478525 -2.173828 -2.7784505 -3.3829768 -0.9483621 1.308107 -0.20721467 0.5638413 -2.287595 2.2849395 -0.2079132 2.2021046 -1.3168893 0.47247478 1.1506554 -0.6426782 1.8488215 -2.7374325 0.23725206 -0.8493284 2.1024249 2.544309 -0.54501414 0.40555543 0.39007488 2.4469635 3.6644013 1.4288625 0.11810913 1.0813814 -3.540055 -1.0368263 1.5345854 1.7633486 -1.4804896 0.6140287 -0.29078904 -0.19875792 -0.27368772 -2.0253768 0.73540044 -1.0306675 2.5856812 -0.117584385 -0.42292973 0.9571862 -0.91983867 0.5133944 -3.0391681 -1.5109403 -0.25377485 -0.76548934 -1.3956013 0.025883893 -1.7253015 -0.6954239 -0.6688407 -1.887206 1.1126741 1.5335524 1.3049068 1.8511895 -0.6587191 -2.9717884 0.8106791 0.011229332 -2.0981686 -2.7048197 0.7417988 0.5660267 -1.2401536 -0.1488121 1.0330505 0.77620053 -3.0176916 2.095218 3.2109349 -2.4111485 -0.19852303 -0.03434928 -0.035203677 0.17019533 0.021973282 -2.6239817 -0.76519513 0.19456169 -0.18477774 1.5468287 -3.8096845 0.69494474 -2.692623 0.10580352 -0.6483845 0.60907614 -0.25550705 -2.4598894 2.61455 -1.9461757 2.483732 0.01734445 -0.8246901 0.30768406 0.38902593 0.5066892 1.9492304 -0.6399866 -1.5842097 1.8972676 -0.7649389 -0.1313099 -0.9350218 -1.6686136 0.6559704 -0.40159693 -4.2956047 3.5972822
mlidns 3.3416827 -0.81033045 3.1157837 0.7161434 -0.8360226 0.23170915 0.81299067 -1.4416641 2.4878902 -1.7925655 -1.4826766 -0.14774984 -1.2601242 0.7396419 0.41754 0.60202414 -2.029725 -0.27172232 0.7989918 0.8268869 -0.44207624 0.9974459 -0.6080169 -3.0931695 0.4579306 2.036278 -0.8076162 -1.9249655 2.1056225 0.89935714 0.86391795 -1.1012194 -0.78930604 1.4261227 -2.3674948 -2.8839817 0.26132348 0.13924487 2.4747508 1.4739302 0.8544745 1.0306929 3.9165757 -0.17663668 -0.895748 -3.269137 0.7434143 1.3262997 0.17324968 -1.2144092 1.5652679 -0.5894648 -0.8254833 -1.3222362 -2.5721018 1.7033136 1.8375592 0.5177827 -0.40160653 -1.8493811 1.6249648 -3.5771625 -0.87032324 1.3126922 -0.45707044 1.4375026 0.5479678 -3.4110496 -3.7779827 -0.8156051 -0.038240213 -3.026994 -0.23175693 0.97096485 1.9883568 2.5122235 0.5374573 -0.50586057 -1.0560495 0.30526593 1.8941271 -4.115648 0.6159845 -1.258056 0.9686688 -0.8543977 -1.5008316 0.7998399 -0.5984865 -1.3614787 -0.37503505 0.7269222 -3.7603734 1.8378794 -4.015988 -1.6816584 2.1024597 0.59690124 -0.15775701 1.1670963 1.6116171 -3.3580832 -0.08838923 2.4723651 -0.095420584 -0.41883087 2.3858473 -2.7384336 1.3414011 0.78466874 -0.6100844 3.403882 0.85310215 -0.9107724 0.09204508 0.89007455 0.8999148 0.5967997 -2.2111647 -0.4560413
twteNtkeli 4.3774714 -0.9360971 0.4496547 1.2291379 -3.059962 -0.74260944 1.9089779 0.6989996 1.7493086 1.5291425 -2.3109353 -2.933843 0.4850587 -0.5914894 1.7191473 0.62976885 -0.59224784 3.0611963 1.4615648 3.0021188 0.99776304 -0.922169 -0.5913526 -1.1523129 -2.291065 2.5553715 -0.72335184 0.17742154 1.558359 1.5501982 1.0370531 -0.5498758 -0.66907316 1.0855523 -2.5383372 -3.808116 -2.5767615 1.0328279 0.3956349 -0.101761535 3.2873123 2.4935884 1.9320679 -0.435455 -1.4187254 0.12564555 0.07515234 0.4132113 -1.089009 0.056643378 2.4615908 -0.96801573 1.4169735 -1.0642921 -1.8807193 -2.7672327 0.5883007 -0.277415 -0.21631294 -2.5804758 1.897542 -2.0885203 1.6106001 1.83387 1.6801653 0.6179356 -1.5874908 -3.9877887 -4.609867 -2.7771797 -0.36212024 -0.9617315 -1.163743 2.8955567 0.66778916 3.3788145 0.3695273 1.2506742 -2.4631932 -0.20982009 1.1437775 -0.45138285 1.3434267 -0.051945075 0.8424373 -0.60854375 -2.2036407 0.48977205 0.22210027 -0.8344584 -1.7616993 -1.2335428 -1.9280037 -0.81007147 -1.572618 -0.15742005 1.0537623 0.68029255 1.8654093 1.0125451 0.178383 -3.7696404 1.5240908 2.5715542 -0.27498606 -1.2519826 1.039388 -3.657066 0.6253086 -0.5669515 -0.8962964 2.1203492 -0.9765951 -1.045838 0.2951778 -3.1610804 2.5258954 0.29131162 -1.4348493 0.6793596
sbewyenkeli 2.1570184 -1.2348244 1.2778643 -0.13471924 -2.5873842 2.1860852 1.5366608 1.6650169 0.17787857 -2.5179548 -3.210741 -0.8959942 1.5571604 -0.18257722 0.10988211 -2.006783 0.3518352 2.3619988 0.80185103 3.0853238 -0.015063065 0.98451173 -1.6650184 -0.84554875 -1.1029962 0.06619723 -0.8495898 -0.9684965 1.4488355 0.8064794 0.950484 -2.0006576 -0.60319173 0.20502762 -0.039795086 -1.6357756 -2.75524 -1.9587009 -0.9919538 -1.7330867 3.3260632 -0.11885794 -0.5416446 2.818752 -2.6846652 1.4647741 0.35592574 -1.6936861 -3.5243664 1.1298394 1.2040368 -2.184297 1.5226148 -2.2470818 -4.6059623 -0.25480527 0.32525337 0.8871374 -0.6138615 -2.683536 2.5850785 -0.23308516 1.6750544 0.5399549 -0.56822324 0.8116522 1.6897609 -0.1257651 -0.32873967 -1.2239455 -1.3032961 -1.7381887 0.8080754 1.4499393 -0.5204481 1.0475417 -1.2659518 -1.0513859 -1.0140443 -1.2386127 -1.1002951 -1.2216176 2.2245564 0.73515725 0.7048322 -0.40449914 -1.9166788 -0.17379862 -1.6277705 -3.3556263 1.4141275 -3.1195545 -2.2668035 -1.0756611 -1.499646 -0.68852544 1.1831706 -0.4759583 2.2451856 0.5342544 2.3266962 -1.7917573 -1.1227748 0.53956556 -1.1987232 1.0396433 0.7934147 -2.7421145 -0.42569867 1.0461065 -0.042872652 0.9675611 1.0351801 -2.2177656 0.62518305 0.7596335 2.7866518 -2.4895651 -1.727192 -1.2285798
adEtrqli 3.5340965 0.5371887 1.308699 -0.1765414 -2.382122 -0.44511172 -0.86249954 0.8361856 -1.1452703 -1.3906914 -3.1801536 -1.756082 1.7362878 0.26746947 0.6772954 -0.08735137 2.0668235 0.6211192 -0.9274735 1.2645594 -0.2730752 0.21349657 -0.7755252 1.4884555 0.92091256 -0.89370817 1.3369051 -0.11766522 1.8628627 -0.372439 0.39572567 -2.304718 -4.398361 1.1642032 -0.21137929 -2.340587 -1.4311565 0.24014078 -0.30087006 -0.32151106 0.7156907 3.5269566 -1.4148716 -0.34273264 -2.482187 -0.9676847 -1.0944567 -0.9556253 -3.4500763 -0.5127225 1.9095156 -0.0812801 2.991342 0.81307 -2.4014833 0.22028522 -1.2837616 1.3147055 -0.5120856 -2.6871765 1.3804144 -1.7710441 1.2900774 -0.05311186 -0.08383345 0.75252825 0.5913125 0.051605135 -0.37655205 -0.13320397 -0.61702293 -0.51309764 0.21957546 0.176031 0.29948717 2.8706758 -1.1122938 -1.4899708 0.96202487 -2.7853353 -1.4053296 0.12168433 -0.99454784 -1.6730615 -0.017721623 -0.95363957 -2.0921643 1.3243791 -1.8417908 -1.7320077 0.6268175 -2.7069924 0.918144 -0.67727774 1.3602111 -1.3124255 1.3490803 0.23495471 1.5017226 1.3353673 0.57973284 0.53056914 -0.94728726 1.1542673 -1.6440898 1.0557245 1.6525975 -4.36885 -0.8307397 0.862714 -0.17452726 3.13601 0.88695014 0.74720836 0.20583409 2.6136456 0.49838012 1.003197 0.918891 -2.4936166
brtEye -0.51045823 1.5066073 1.6881648 -0.6970566 -0.72251576 0.6431688 1.3268903 0.28719223 -0.8630795 0.69191283 -0.6800042 0.6965997 -2.3888984 -0.36911383 0.24827941 -0.9523193 4.241981 -0.796347 0.39075083 1.2844251 0.5437894 0.7315822 -1.3119485 0.5455035 -3.6994953 -0.7506647 0.09344496 1.2732229 2.0289447 -5.0374365 -0.85371125 1.6891226 0.9300601 2.2224357 5.20131 -1.5110558 0.27746135 -0.78964835 -0.1570076 2.2293296 -1.761539 -1.0347159 2.1404417 -0.7862927 0.19250134 -1.0788195 -0.21955355 -0.2731969 1.2739184 -2.4485016 -1.0688334 -2.3545542 0.006025367 1.8288256 -0.82111245 0.44280055 -2.2136552 0.6446823 -1.7113799 -0.010425198 -2.620707 0.17761444 1.3297291 2.245627 -0.77377254 0.82145715 -0.6155465 0.17934772 -0.32759658 0.6176528 -0.87925506 0.563002 3.9723368 2.0172074 -1.055536 0.6419806 1.7479407 -3.0913403 -0.58978426 0.13582647 -0.17152886 -0.31619874 0.89152545 -2.723748 -0.9654309 -1.5798057 1.3757118 1.7824255 1.2471848 -2.7548883 -0.04863646 2.8273823 3.283792 1.3788917 -1.784454 1.1201956 3.1104739 -0.7958172 -1.165625 2.8906302 -1.1695924 0.16021997 -0.9595544 -0.72519773 1.5618894 -1.1358516 -0.61510587 0.5192399 -0.08461735 -1.5814062 0.8262835 -3.535749 -2.0281317 -2.255478 0.5690083 -0.38493145 -3.660575 -0.14153762 3.37947 2.5078666
tNlxe -0.5748918 -0.5535426 1.2305361 -0.9047973 -2.0963197 -0.5866257 0.48037094 -1.745796 -1.203562 -0.59874314 -1.1450074 -0.3930619 -0.54140586 1.7370228 -1.5601894 -1.8001571 1.4546734 0.55609643 -0.57620895 -0.293394 0.57341367 3.0211403 0.06745035 -0.83019054 -3.8280983 1.3106945 -1.7789791 0.37486947 2.0310066 -2.1094708 -1.2198858 0.1714554 1.936884 1.2467413 4.2430425 -2.6524622 2.3215055 2.1104102 1.7491208 1.5766491 -0.73241436 -1.9646066 1.4251341 -1.902002 -1.1264303 0.804751 -1.7133805 -2.2384741 0.73826295 -1.2107058 -1.2322979 1.0168201 1.3687676 -0.42058843 2.6043134 -0.8548132 -1.732923 0.5526703 -2.8795035 0.8167226 -0.7809691 -0.89535344 0.97145104 -0.62753814 -2.4802284 -1.2396345 0.35178605 0.7358746 1.4633843 -0.46356365 -1.3470788 -0.20171173 -0.40823945 1.0910838 -0.66948855 -0.16295218 -2.003728 -1.3522118 2.95778 -0.039094154 2.654572 0.7828353 -0.5349713 -2.13012 -0.98364776 -2.3527062 1.4370812 0.8293469 1.1276132 -1.3104463 -0.23872025 1.3478248 2.8404896 -0.31782 -0.06328324 1.1696706 0.3964801 -2.2836165 -0.32614633 1.8945773 0.17837173 -1.9103453 -1.0664941 -0.112046145 0.5390465 2.1425874 -0.7438971 0.42521748 -1.0001042 -1.8839262 -0.00031880208 -2.3382564 -4.9607368 1.7278634 0.64311886 0.9162264 -1.5384624 1.0600091 1.1586738 4.178965
arEr -2.6138966 3.3001616 -0.08670895 -0.1358651 -0.7367657 -1.8957971 -0.65479153 -0.7352768 -0.5770887 -1.6304046 0.1265277 -0.536089 0.727266 -0.49934235 -0.51672447 -1.1104046 3.079292 -4.2261147 -1.4945289 0.9359215 -0.13715163 1.5884385 -0.38317198 -2.3888364 -1.6451964 -0.032624137 -4.3532963 0.66328317 -0.2483346 -2.224419 -1.7450238 1.7359409 -1.4516466 0.8367529 1.1416686 -1.6077745 1.1438797 2.7003386 -0.60165924 0.172338 -2.3530967 0.8383781 0.42957816 -2.213603 -3.184803 -1.1964065 -2.4327068 -0.47046307 0.57897043 -3.8700287 -0.058473315 1.6034694 -0.49064016 0.07666557 0.98664665 0.123908855 -2.766037 0.2524663 -4.494424 3.1548965 -2.6145036 -1.23054 2.8818154 -0.49594873 -2.0968053 -0.07723085 1.7481598 0.550055 0.5824203 -1.236705 -0.39206335 -1.8541374 -0.9480944 2.1948519 -1.3835229 -0.12780353 -0.75966585 0.1259678 1.3700696 -0.5818451 -1.258205 -0.4775618 -0.055138703 -0.26501834 -0.9321366 -2.3545208 1.8426026 0.4943288 0.30214262 -0.66048586 -0.51745 0.25747782 1.1830426 0.10228119 0.81276447 0.35278457 1.6684663 -3.9040265 -0.3656875 0.9349471 -1.3761612 -0.49349245 1.1873343 -1.2370648 2.0264132 -0.31147066 -2.5282936 1.4571167 1.6009091 0.32789233 -1.5733782 -2.8304145 -1.8225064 -1.1298654 -0.58075774 1.1135504 -1.8204495 0.5518574 1.9229329 1.377914
atE -1.201591 1.4330716 -1.1994666 0.12223918 -1.4302895 -0.28142613 1.7868993 -0.4877456 1.261811 -1.3048419 -0.6937434 -0.3631372 -1.2255206 -1.8169687 0.24263276 3.365682 3.2808552 -2.120849 -0.73401725 -0.34770525 0.76109105 -1.228219 -1.2610455 -0.3060574 -1.1877027 1.9032804 -0.07747199 -1.0625312 -2.878513 1.7588269 0.57510394 -1.9857862 0.8232705 0.65748227 2.2641134 3.1271033 -2.0067546 0.2893414 -0.68275577 -0.7458314 1.3889732 1.339094 -0.9860886 1.2149106 1.7441684 -0.1602332 2.2905104 0.13445224 -0.89283884 -1.2468002 -0.16997963 -0.85180706 -1.6936085 2.5927117 1.656786 2.7751389 -0.3235815 3.2648656 -0.9092138 -1.2099222 0.07791548 -0.3729678 -0.92001474 -0.82823884 0.9164567 -1.5366405 -0.21105577 -0.40504387 0.9969092 0.008790835 -1.4716824 0.07954143 0.26796967 -0.014071098 -0.93437 -0.3684877 0.682222 -2.5028949 3.2899833 -1.3635985 1.0694139 -0.54024655 0.47590485 0.008233843 -0.7393482 0.3799666 -1.9244714 -0.17599057 0.9971014 0.64731216 1.4364332 -0.0708679 -0.29384062 -3.468118 -0.1059443 0.6389042 0.025824465 -0.097232886 -0.4468821 0.58646744 1.2895384 1.5367206 -0.90934116 1.540823 1.7580352 -0.71082264 -1.94655 -0.28374013 -0.90933627 -2.0819225 0.29663473 0.86353457 2.8324955 1.4246159 1.6875094 0.047792837 -0.6403502 -2.2726953 0.2229477 0.6971339
yi 1.9595058 0.585321 1.6210433 0.54814726 0.6298423 2.7656763 1.7401733 0.8175356 0.66133624 -0.76201236 1.5682613 1.8694527 -1.1310614 3.3488178 0.16256313 -0.5850291 1.3351814 1.5478419 -0.3019641 0.39370233 2.027757 0.90636015 -0.08923575 1.5549285 0.96365535 -0.23148021 2.1685066 -0.010591618 0.7730308 -1.9409865 -0.51762897 -1.7735014 -1.2392913 -1.0598208 1.3130625 0.7125641 2.0119188 -2.1521158 -1.8631382 1.6931932 -1.2838764 1.3834689 1.7086337 3.0153577 -0.4613137 0.9673214 0.4318145 2.1560884 -0.9401465 -1.3238479 -2.0852165 -2.2953835 -0.31226623 1.4535639 -0.5263515 -1.3498858 0.5267632 0.19125058 -0.43121862 -0.90406173 -1.8148522 0.7401264 -1.6794487 2.1753652 -0.10476941 -0.1758611 0.004043383 -3.1488311 -0.5324848 0.95063 -1.8344505 -0.3750753 -0.109808005 0.32557395 0.00054323615 0.1973233 0.9186421 -0.18074995 -1.7200524 0.85425097 0.43282762 1.117789 1.8479946 -0.26521426 -0.5100719 -0.2925707 3.2426202 1.3308583 -0.34141314 1.1244538 0.0707512 1.0256798 1.7137189 -0.6810691 3.1201358 -0.05565981 -0.854705 0.50732 -1.108662 -0.45162913 -0.89547884 1.7102665 -0.8299176 0.39935055 0.6292985 -0.43842387 -0.09371638 1.8447134 -1.1155704 -2.631936 1.8251294 -3.7360942 0.18382716 -0.88431805 -0.26197943 -1.2581787 0.11247801 -0.16927159 -0.1967257 -1.8685579
SEre 2.0044467 0.6776523 2.970275 0.99904835 0.4378167 2.1325357 -1.0083685 1.5955486 0.36128825 0.19157268 0.5091054 1.1217474 -0.71817803 3.416736 0.82696325 0.14462344 0.24563994 0.072022274 -0.006960599 -0.7540857 1.957944 1.3798206 -0.9699631 1.5817918 0.23325977 -1.0378215 3.2662804 1.069647 0.9209778 -0.7196127 0.47986075 -1.6619431 -1.3503349 0.8499998 0.26896584 2.2881165 1.8671582 -1.9505037 -1.6788735 1.7234112 -1.5785252 0.45179173 1.3028361 2.9376607 1.0886444 1.9660988 0.5860084 2.9471684 -1.2798346 0.07831862 -0.5592024 -0.770037 -1.1300551 0.58513165 0.52389747 -0.7727089 0.9584091 -1.5031229 0.4489312 -1.5801759 -2.5567882 1.7945217 -2.7063982 2.0466077 0.54581136 0.64553404 -0.12840584 -0.3211332 0.52258563 0.91038567 -1.014063 0.5268053 0.06021191 0.039684594 0.25100526 1.2692509 0.85264146 -0.18985307 -0.40197793 -0.86059326 0.9831243 -0.5401024 1.0597545 0.6909059 1.2396274 1.3719927 3.224234 1.656634 0.13583641 -0.9172325 1.025266 -0.93453693 0.7519992 0.8544745 1.1046019 1.8246155 -1.8760215 1.6391258 -1.5529983 0.2526394 0.72206473 1.9075508 -0.36107287 -1.3217429 0.12977397 -1.0366302 1.4105971 -0.98110324 -0.7234326 -0.2901838 -0.0508155 -2.2127466 -0.49749872 -2.547676 -0.5781259 -1.9772369 -0.53025025 0.6199746 -1.1347196 -2.6596565
qewi 2.116908 1.3060791 2.6611288 -0.8108625 1.90637 0.2580783 0.8970495 -0.76741415 0.43444648 0.3485014 0.41839 1.673444 -0.8045205 2.7462623 0.607083 0.16744696 4.191143 1.3475338 0.67070985 3.5313725 1.54408 0.105858535 -3.0937426 1.4537337 -1.6290184 -0.89401126 1.8871436 0.6008074 1.8125027 -1.4076566 -0.91290426 -0.21081728 1.6106503 1.0115057 1.3687515 0.37932247 1.0607018 0.6367425 0.8116009 3.492532 -2.2624512 -0.46567595 3.189985 0.89812094 -0.11343229 0.05867123 -1.3413407 1.5677302 0.9684658 -1.9614779 -1.0892135 -1.0199692 0.3606081 -0.49571422 -1.0260042 -1.1980792 -0.24951561 -1.3590053 -2.2238927 0.06569489 -2.1184595 -1.5538912 -0.28212982 -1.1388949 -0.78602207 -1.3373159 0.6149914 -0.6157728 1.0465841 1.2593802 -0.013041065 -0.40566394 1.4224919 -0.4170649 -0.63370484 0.4441837 1.8732033 -0.85342133 -1.486007 -0.26997176 1.8516631 0.10741886 1.1350619 -1.351975 1.1470579 -0.6888173 2.8310602 0.5226763 -0.34912592 -0.9831462 -0.16757768 -0.13837346 3.203961 -0.2987898 0.54222006 1.1009862 -1.2418405 -2.7354374 -2.4508746 -0.5523305 -1.6930846 1.4785804 0.14085545 0.10584524 0.9372818 -1.831609 0.6105184 0.060854334 -0.048249938 -0.9322715 0.46933103 -2.8976696 -0.78682363 0.63417375 -2.8592546 -0.13673879 -0.8020295 3.7190075 1.4941093 0.88463736
tpEteNteli 0.07548558 -0.041608065 -0.7673721 0.5826524 2.4006617 -0.27943617 -1.7752113 -3.3950489 -1.5834161 1.3371285 -0.2500297 0.33297417 0.12899889 -4.105147 -1.2325435 -1.4846556 0.96660244 -1.4190938 1.5433882 0.24538366 -0.23604874 0.5395693 -1.0788946 -1.5741684 0.8939325 -0.040325165 -2.6633713 0.6576029 -2.3920803 -1.2843119 -1.1496216 2.3364358 1.6812675 1.6364795 0.6033106 -0.69525975 1.5196558 0.40883476 -0.8506125 -0.45264292 0.21031533 0.13357908 -1.7681686 -2.607457 1.1832645 -2.1916072 1.4799031 -1.51474 -0.27201575 -1.4639794 -3.0790482 1.0083447 2.1659884 1.5001942 3.1095412 0.9029596 0.5250306 0.5182983 1.3567275 3.7788098 -2.1134315 0.77929175 1.457416 -3.7416036 -2.752143 -0.59071976 1.22191 1.108392 3.1253867 -2.061303 1.2898386 -1.0356727 -0.10336935 -1.3725449 -1.701902 -3.2584703 -2.1714396 2.973997 3.6520302 -0.1967921 0.08809461 -0.72099096 -1.3110684 -2.3135352 -1.5671878 -1.5469722 1.5560093 -0.7434904 -0.51065785 0.99564976 -1.5153205 0.2468093 0.8402713 -0.5557153 -1.0559614 -0.5650757 -1.356389 0.6512755 0.68566763 1.4248105 1.4682758 -0.4640971 -0.42132834 -1.4510125 -1.4617621 0.19329627 0.22509342 0.2600723 3.415362 1.8612409 -0.542127 -0.5307633 -1.7338566 0.63649 -1.545505 0.68820894 -0.8349399 -4.1138277 2.7931116 3.2553926
Sklte.lxeye 2.5371249 3.6167367 0.16284037 -0.48067313 -0.0773852 -0.14314131 1.1591842 -1.8927456 -1.8973311 1.7552191 -0.8083541 -1.7646192 -2.306247 4.6498795 -1.3558279 -1.6336693 2.2769516 -1.4065373 -0.6092331 1.9320521 0.7751895 1.6740882 -1.0816429 1.1096029 -1.8859534 -2.8046227 -3.102528 -0.24695304 3.590662 -0.4724794 -1.593497 -1.4525324 -2.039069 1.4791586 2.2381206 0.13724534 2.4194236 -0.34458578 -1.2717249 3.4776042 -3.0852559 -4.02924 0.74278015 -0.50379294 -3.173234 -1.8881035 -1.7345651 0.2736199 -0.02264344 -0.8135102 -1.8914396 -2.3632865 0.58396417 0.6967522 0.31288475 0.07793101 0.8486146 0.80543256 -1.1066046 0.38828912 -3.2933388 -0.66133434 -0.9771826 1.9969776 -0.5643417 -0.23197931 0.40075496 -0.84774315 0.06525686 -0.35996622 -0.4709752 -0.15246381 1.7124804 0.507217 -3.4967966 1.1033208 -0.5343362 -0.8169723 -0.8055647 -0.7151803 0.5701016 -0.2979556 3.3973064 -2.951475 -0.980926 -0.46628767 3.9990783 1.231228 0.5971804 -0.1817236 -0.27714935 1.7750221 3.3049178 -1.5560193 -1.9201118 0.67225254 1.635516 -0.70137614 -0.8791769 1.5390214 -0.97323656 0.05641201 -1.76169 -0.79832286 1.3844383 0.90929353 -2.3884525 0.6684607 0.46477443 -0.14104849 -0.6555184 -2.7845914 -4.0119624 -0.83113676 1.596375 -1.676606 -2.7941058 1.7587117 0.9314292 1.275244
SkltesskemXer -0.7672344 3.6882837 1.8000926 -0.7476417 0.078480475 -0.4167392 0.532706 -1.157706 -1.0831658 -1.9202434 -0.7581953 -2.1913579 -2.2974079 2.4316385 -0.9931445 -1.2517223 2.5685682 -1.4404198 0.55478156 2.3848112 -0.8482362 0.77704114 0.36888558 -0.26993045 -1.575108 -0.0125142075 -3.816867 -0.4576539 1.775879 -3.2543237 -0.17913336 0.81831074 2.3342705 3.5202162 3.784483 -0.34126955 1.6389741 0.7511657 0.11288258 2.6684556 -3.2951736 -1.2068527 1.9619721 1.0779638 -2.7908194 -0.01881971 -2.3675365 2.148942 0.552239 -1.6723272 -1.6783462 0.16661209 -0.62042964 2.0275946 0.011492862 1.0158376 1.2192969 -1.2304443 -2.2109387 -0.24782811 -3.5623324 -0.6547898 1.8255988 1.0947803 -1.2114522 -2.5860393 -0.32277963 0.03668037 2.130689 -1.0264629 -0.86444515 -1.141564 2.143063 4.115762 -2.9395845 -0.5059499 -1.0036253 -1.5527546 0.22763391 1.3531721 2.419067 0.81623083 2.6858916 -1.223744 -1.2775285 -2.3937447 1.0700436 0.80306715 1.3166937 -0.5982772 0.30073482 2.5717478 2.9267888 0.97047544 -0.70067877 2.263202 0.9101841 -2.6986744 -0.3694781 0.49739873 -1.5821452 -1.1323913 1.0550095 -1.0699844 0.6056148 -0.95174813 0.44288796 0.5007774 -0.89765835 -0.25312155 2.332097 -1.9950049 -1.7841169 1.3549978 0.5374195 1.746671 -1.3590403 -0.502165 1.2644452 4.1274133
adeqeyitbre -3.2384083 1.7048125 -0.871552 -0.9045341 -1.2989185 -0.5329671 -3.3072307 -2.449386 -1.2037581 0.8748642 -0.42871404 -0.7019714 -2.0548012 -1.6225717 -1.2518564 0.9260472 2.0594268 -2.2786527 2.2827778 -1.3326733 -1.216952 0.68781215 -1.3153787 1.6146209 -2.175673 0.77333015 -5.4651575 0.47983614 0.5314994 -0.811062 0.86412925 1.9416035 -1.1549466 0.2395616 2.0330172 -0.06758012 -0.27989748 -0.23220117 0.9318507 0.43148878 0.9046215 0.5126217 -2.7773356 -2.8571162 -0.04583415 -1.0360091 0.6806504 -1.8687587 1.4777621 -1.1679807 -1.3857461 2.2452123 0.69715947 2.0675623 2.743718 0.4946185 -0.47583815 0.28499788 -0.19185497 3.9869945 0.74354017 -0.85294574 3.4155412 -0.48873806 -2.340571 0.42716506 1.9754819 2.5015259 3.7510686 -0.73485744 -0.96255255 2.219555 -0.59782237 -1.2515996 -0.41317725 -0.30343252 -1.7720116 1.5139693 1.6297227 -1.3154867 0.5981563 0.20226525 -0.2935159 1.0064908 -0.051793527 -1.2019645 1.1437054 1.2136085 -0.6385293 1.3386049 -1.6653997 1.7532874 1.7411835 1.1990768 -1.0043132 1.8331438 1.0577112 0.10444214 0.95307696 1.6863368 0.93898344 -0.80885834 -1.6075584 -0.18433541 1.1740301 -0.008680281 -0.42687142 -0.6917551 1.0623229 1.3712833 0.56463367 -0.52106375 -2.7246876 -0.8457811 -1.0002813 2.9695997 0.13302359 -1.1348566 0.3360051 3.215198
dkelikeye -1.7074523 3.5787792 -0.45285863 0.09634339 0.08645457 0.70195544 0.7138775 -1.7085545 0.4647231 1.4329996 -2.771802 -2.290763 -0.41866145 -1.3055515 0.22537123 1.3419796 1.5662906 -2.8864732 -1.2847565 0.059741184 1.1227567 0.22764476 0.010849854 -0.4166165 -1.3984269 2.0589292 -4.6418037 2.230942 -0.6329417 -1.4291881 -0.70424914 2.4097424 1.9881027 4.065561 2.5555422 -0.2821121 1.7971038 2.7630384 0.43964812 -1.6471891 -1.8682723 -0.9668589 -2.9157908 -0.4766773 -1.0539516 -1.0183237 0.44516122 -1.3794714 1.3248638 -0.8562189 -1.0067809 1.8262695 1.1580493 0.2660895 3.1539783 -1.1366203 0.2296103 1.5288314 -1.6955807 1.8125119 0.31626028 -2.2289417 2.9114323 -1.0309557 -3.43175 -0.71940005 -0.30238134 2.0597446 0.81533647 0.23056889 -1.7976283 0.8394954 0.95758253 -0.38337448 -0.35766706 -2.9400387 -2.198802 -0.063041 2.607123 0.09826337 -0.37169552 -0.1845401 2.6076043 -1.6841348 -1.0687218 0.062583365 1.2704622 1.0470984 -1.6865375 -0.13383986 -0.83638257 0.46553993 0.61119634 -0.6321628 0.3609777 1.2957996 2.381175 -0.6021788 0.20209299 1.4898914 1.6736515 -0.13750139 -0.8290236 0.21193714 -0.29936644 1.0234541 -1.0257275 0.6990162 1.6600243 -0.42678267 -0.23810509 -2.105191 -3.7526653 -1.7284241 -1.9753207 1.9561886 -0.5697511 -1.3101233 1.6495547 1.7132572
sskemxr -1.9222322 0.19454566 -1.3861682 -0.41078195 1.106452 -0.41781116 -1.26444 -0.59035766 -2.0422802 0.4036396 0.13196121 -2.0259855 -0.4970607 -2.4228628 -0.9119049 0.61489636 0.19595098 -2.3299253 0.09810714 -0.9755984 -1.0270153 1.7411611 -0.10655808 -3.3022804 2.5584843 2.0138927 -1.8477311 3.1802366 -2.548066 1.3349388 0.45541602 1.8247366 0.7458694 2.0476944 2.3875687 0.9621804 -1.1928468 1.9212995 -0.027028633 -1.7603804 -1.1353936 -0.6780251 -3.4566383 -1.6773843 -0.4521135 -1.0879872 0.5375477 -1.446565 2.2701817 0.64650387 -1.3943229 3.1113188 1.0626366 1.0205243 3.7506726 0.09430943 -1.6928355 -1.1604626 1.8528157 2.8299403 -1.6057341 -0.97041094 1.3933258 -3.0954132 -2.6326156 1.0278174 2.0779476 2.2575648 1.2461679 -1.8225576 -1.0413759 1.5720569 -0.3991232 -1.8652846 -1.038399 -1.4245545 -1.8224605 0.8364572 1.9840839 0.82623583 -0.39570022 0.88750684 -1.9329615 -0.73878837 -0.83025324 -0.17291172 -2.3986912 1.5809392 -1.7000399 2.0702572 -3.1735332 2.9038806 0.055862196 0.5495725 -1.9478984 0.23114133 0.15985602 1.187563 1.1710527 0.0041944715 -0.33643666 -1.7042886 1.0186912 -0.66956073 2.2470756 1.2294127 0.13034385 1.8602558 2.474871 1.4233358 0.43168294 0.40740576 -0.82499766 0.20097606 -0.22738376 -0.88733447 0.66977227 -0.24655984 0.44669992 2.9848495
ameqemeteye 0.10202307 0.84503305 2.422993 0.028466908 0.39495185 1.3359905 2.3397443 1.6700495 -1.5365044 0.86504674 1.1105624 0.49686942 0.0051481486 2.7524233 -0.46413738 0.5306736 0.041123405 -0.76583564 0.43663713 1.3623377 2.166649 2.665022 -0.27911413 0.7537651 -1.8518198 -0.973513 -1.3280593 0.16491227 2.6259315 -1.5851187 0.83605146 0.31560117 0.08562735 2.013586 1.1593683 -0.8495925 2.2045264 0.18477918 1.881714 4.273104 -0.91562104 0.69400114 1.6720915 -0.2134416 -0.6618598 -0.38191727 -2.1560464 1.2156212 0.09585164 -1.8031547 -1.2930882 0.48708114 -0.7113758 -0.033339523 0.29798338 -0.27241194 -0.33706614 0.8172023 -2.139317 -1.1355656 -3.4638546 -0.17185447 1.2824801 0.63052994 -0.09810091 -1.3783088 0.16947046 -1.9215277 0.72144914 0.20619692 -1.7959332 -1.5708759 2.752817 0.6721802 -0.09672098 0.43826133 0.7950567 -1.9333663 -0.2850836 -0.6717944 1.7160174 0.32599515 2.4186654 -0.42617455 -0.29826173 0.7530849 0.1618219 2.8704853 0.29883644 -1.4169376 0.9391957 2.8633218 0.8560558 -0.8843024 0.45235503 0.36453563 2.5162327 -0.6574654 -2.0091152 -0.17327133 -2.043591 2.5159893 -0.5866547 -3.0101786 1.7650926 -1.2323166 -0.691784 -0.002115338 -0.8806472 -1.0301474 0.700349 -2.3807278 -1.7438157 0.923648 0.48341393 -0.47166497 -0.81057644 0.99992263 -1.0147396 1.3001336
pte.Eye 1.1125914 1.7990562 2.0269527 -0.43201387 1.7911142 0.39597932 1.1834507 2.591243 0.30777422 0.6689988 0.30922878 1.0739751 -3.0571861 2.9718523 -0.29738542 -0.30126747 1.0545042 -0.018749664 1.8089447 0.79265416 3.089207 1.0978165 -1.0077858 0.7062127 0.61346257 0.0260996 0.3168446 1.7566078 2.7378592 -1.847998 -0.9578738 -1.1374071 -1.7024614 0.7723952 1.6247315 -0.043311983 2.7525237 -0.6571458 1.8460505 2.144078 -1.0148196 0.8744825 2.3804352 1.0755526 -0.8377912 0.30003998 -0.42094138 1.618175 0.9137638 -0.21877548 -1.0627124 -2.3979788 0.67320895 -0.119644806 -0.60129637 -0.96470886 1.3366172 -1.7742887 -0.36702028 -2.3283165 -3.1480138 -0.41985437 -0.3760939 1.3682331 0.4124607 1.857889 0.5792884 -2.7437615 1.0463755 -1.6929942 -0.6518417 1.02284 -0.09445719 1.9478712 -1.4076332 -0.43481323 1.4771911 -0.18506788 -1.2548993 1.0908536 0.99970925 1.0237362 0.7046718 -0.13232157 -0.012223693 0.9475822 1.2389499 -0.13748015 0.35008332 -0.98033464 -0.67714566 0.81431365 1.0529318 -0.22328588 0.037218373 1.4871457 -0.91378284 -2.1143785 -2.2125127 0.8076195 -1.3528433 0.86985654 1.5571625 -1.5163068 3.5126667 0.53416497 0.32777247 -0.2277387 -2.3589659 -2.069358 0.34641773 -3.9455054 -0.9240848 -1.2776042 0.11576816 -0.6097548 -0.82333356 1.2667173 1.7124599 0.065333605
adilxeyye -0.37088814 1.9066975 3.786164 0.3026601 -1.6327755 3.1833189 2.364465 0.89373565 1.0112603 -1.6001295 -0.42986444 1.8391321 -1.7172923 3.1650095 0.3440146 0.03995554 3.3542683 -0.6842354 -1.2501029 0.08565098 3.2389657 1.2398155 -1.2397385 -0.52619416 -1.1204305 -2.3790927 -0.720548 -0.55873275 1.551446 -2.1838613 -0.76516926 -1.3556143 0.18625359 2.1958232 3.4473648 -0.38498592 2.7238903 -1.0724617 -0.27387923 1.7326478 -3.184979 -1.1467575 2.7505713 -0.5581759 -1.6235191 -0.5748099 -0.536456 -0.031284533 1.898514 -0.86124676 -0.8267085 2.204034 -0.49042067 0.15907212 -1.1226828 0.21829958 1.4921064 -0.87244785 -1.8025045 -0.9338458 -2.3456976 -1.1151141 0.43150762 -0.3475385 -1.7961222 1.2137705 1.9456118 0.76163465 0.3756395 -1.3770822 -2.3015287 -2.1731455 1.4867963 2.783814 -0.35453767 -1.2100323 -0.5956054 0.22407398 -0.93833935 -0.7759189 0.41801855 0.7325303 1.5116037 -2.3153143 1.2304949 -0.04415027 1.3772258 -0.009468161 1.1402233 0.3311382 1.0085822 2.0906026 0.3111053 -0.43868434 -0.39276674 2.5342696 0.90797806 -1.5629196 -0.36485714 -0.36813894 0.7287415 0.9399123 -1.9578352 0.4159324 2.9757502 -0.985033 -1.8224056 -1.2173705 0.1446245 0.18314011 -0.026581246 -3.042645 -1.6755072 -1.6213721 0.8115886 -0.13312082 -2.5015945 1.009847 0.2293951 2.7861521
tmNteleb 0.35737452 0.3741356 2.212502 3.8819973 -1.9067405 -0.27620018 2.6468773 -1.813346 0.8699438 0.82445663 -0.89223486 -1.171631 0.5157994 1.0734929 -0.8365005 -0.31614155 -1.5274601 -1.309069 -0.43065763 -0.34839764 0.44578528 2.3762634 -1.6971011 -1.8546255 -0.035645608 1.9855795 -0.26690847 1.7652757 1.4111878 -2.294815 1.0234187 -2.5365665 1.639178 0.6897375 -1.1861681 -0.3099268 0.015550482 -0.099822916 -1.7931345 1.064063 0.2737024 1.4101892 -1.3297138 0.44250348 1.6419146 1.284648 1.8573409 -1.4497745 -0.19493118 -2.8712308 -1.391563 3.784683 -1.947259 0.7098993 -1.6188087 3.9900901 0.0345948 0.5964333 1.6484823 -2.9233773 -0.54221404 -2.3135042 -1.894651 3.0704365 -0.31357935 1.4273028 2.2153218 2.4344668 2.1128333 -1.3354137 1.1955632 0.21273082 -0.9264336 0.09942131 1.7337339 -1.5527611 0.8545216 1.3544542 -0.39761832 -2.5141037 -1.3443776 0.007869 1.0937983 -0.66157305 3.6609254 -0.78972036 -0.22590497 -1.8746986 -1.3278275 -0.8556138 -1.218872 1.7699616 -1.5823036 -3.2408364 1.5417435 1.2648082 -1.9858322 -0.099038675 -1.6246606 -0.40043077 1.5265412 0.07004728 0.134026 1.523119 3.8799424 2.0883982 -0.92228955 0.08846581 0.32752612 1.0468934 -2.6731167 0.06549995 1.2991856 0.28219873 -4.06312 0.6026026 -0.31447205 -0.50845754 -0.11644957 1.1162666
mXe -0.20033859 0.45658842 -1.3796036 0.21429946 0.054263905 -1.4484936 2.4034083 -0.6802101 0.78138113 0.6153124 0.35384312 -0.77454376 -3.031163 1.0187083 -0.23752247 3.316862 1.3787097 -1.2313749 0.16525836 0.39752543 -0.4508748 -0.35221553 -0.50064844 -0.3015014 -1.8587984 2.2411191 0.52109474 0.5219858 0.3468205 -0.23140873 -0.17478572 -1.3532443 -0.4480263 1.991007 -0.44754112 2.964824 0.21684562 0.6906112 -1.8626024 -1.5784765 0.27685013 -0.5054201 1.1823959 -0.348373 -1.79995 1.9577713 0.13671951 1.5935026 -1.6248529 0.5803724 -1.3052088 1.4650531 -0.23827004 2.8078895 1.2215316 2.2441359 0.25571916 3.722087 -2.4703517 -3.2536829 -0.8645194 0.6552494 -0.7963158 1.2979782 1.4266533 -0.8189719 1.3745967 2.221585 2.5681145 -1.6297754 -1.0048623 0.44008902 1.3438922 -0.8344498 0.46956417 -0.7924536 1.9373313 0.8533487 2.584485 -3.0036228 1.8628976 -0.77311856 -2.047498 -1.1070484 0.6894173 1.6442591 -0.33821088 1.3518792 1.6965357 -1.9250379 -0.9562232 1.3175448 -1.9868282 -1.813896 -0.40447393 1.3036025 -1.1504774 -1.8178289 -1.3358291 -0.15029047 1.1650704 0.17386456 0.08546333 -0.4322423 1.3790805 -0.14534791 0.02222733 -1.4398941 -0.19167086 -2.0313947 -2.1037657 0.22633621 0.6533714 0.43895662 0.7530093 0.8362676 -1.1648471 -1.1915236 0.6046619 1.4463291
wetNyiNqeli 0.5549557 -0.12068736 -3.2969885 -0.56532586 1.1902254 2.6159852 0.14920919 1.2157402 -0.29032975 0.4636266 0.42851588 0.6551887 2.6455886 -1.2406503 0.18549019 0.32603344 -0.18591581 0.8871076 -1.4339336 1.103767 -0.95674235 -5.001672 -0.76080894 -0.46937665 -0.7341871 0.08211054 -0.35633272 -1.7827699 1.86302 -1.2589978 -1.4865022 -0.87969387 -0.36297762 -0.2601088 -1.4503871 0.37661532 1.9056648 -1.8076373 0.21609628 0.500226 1.8662745 -0.44680923 1.2999464 3.24451 1.0645584 0.31204006 -0.91840607 2.3131 1.2454032 2.0886686 0.067690395 -1.2109265 -0.26713654 3.95828 -0.06559407 1.7378572 -1.6970394 0.33762133 -0.8828794 -0.14234598 0.12501076 0.67140746 0.372069 -1.3256541 0.65336525 -1.8971125 2.1311657 -1.0156014 -0.76433194 1.2133282 0.49270132 -1.5729045 -0.78960234 1.8207213 -2.368508 -0.058722805 -0.2188191 0.4702006 0.8866402 -0.5130623 1.2256399 3.3193338 -1.179729 0.33312532 -0.834725 2.119974 -2.4907568 0.5535043 0.480051 -2.3430278 -0.48825318 -1.0944319 -1.6004324 -0.028641647 0.4435078 1.4468769 0.84855264 -1.5757266 0.55373216 -0.5772516 0.37828496 0.105116025 -1.5881988 -2.530155 -1.8925488 0.60253423 -1.2739722 -0.20174417 -1.4372036 0.8332341 1.5307976 -2.1199095 -0.74249905 0.8261776 -0.27580902 -0.7152144 3.2849445 -0.6486296 1.0577272 -0.0643204
smlEwi -2.1801958 0.9520426 -0.35449585 3.980375 -2.1428237 0.27104524 0.3687776 -0.8669418 0.6530132 -0.6017742 -0.97531945 -1.7312075 0.097092904 -1.6361896 -0.21240856 -1.5411286 -0.20856996 -1.118622 -0.6886596 0.45072696 0.90524846 0.73352575 -1.6693233 -0.0076691434 0.19052295 -0.7567568 1.4672351 0.47455525 -0.9707875 -2.481373 1.1888236 0.33263853 1.5287579 1.5650957 3.899767 1.4414653 -1.38411 -0.2117555 -2.392714 -2.435277 -0.7336437 -0.27717775 -2.0410643 1.3500853 0.58439285 -0.012672361 1.9415076 -1.6051792 0.5817344 0.54111606 1.4568584 1.381773 -1.5059737 2.2632844 -1.0325023 1.9906985 -0.03193343 0.3773306 0.67483854 -1.4332631 -0.4277147 -0.33462548 1.3327366 -1.0042553 -0.24526508 -2.0095341 0.054656666 0.30882692 0.49472427 1.7914422 -0.5204359 1.5102628 0.025607482 1.4855796 1.1003668 0.22064787 -0.44774783 -1.0111312 0.13654792 -2.2894206 1.5051593 -1.1041666 1.1749971 0.59508914 0.6742781 -1.9049746 1.187404 -1.9294729 -1.0697324 2.383281 0.33024782 -0.81217134 0.8160159 -3.2123659 3.329547 1.2566823 -2.0045917 1.3996699 -0.43419743 0.1743573 1.7241292 0.09550043 -1.3425796 0.17415895 0.8626081 0.36568624 -1.2547174 0.6862241 -0.5149222 -0.05821181 0.662323 0.48437607 -0.19775255 1.7547281 1.601703 -0.08406434 1.5863932 -3.032217 -0.2984974 0.7388626
at 1.6408654 0.84349954 0.6341106 -0.9379466 0.33579475 -0.40235728 2.1976817 0.3283986 1.0656786 -1.4374455 -0.43507472 -0.33789405 -2.1670144 0.81138897 -1.9018315 2.7156672 -0.36303058 -1.4131588 -2.3400514 -1.0304012 -0.80104595 0.06582353 -1.2255052 -0.90428644 -1.6492007 2.4992034 -0.60768646 -0.23788401 -1.4348037 1.9495137 0.7472416 -2.0162702 0.44079664 0.18288213 -0.8420712 2.8651175 0.034719482 1.100333 -0.39913526 -1.5494336 0.5117345 0.3649144 -1.2415035 0.4493219 1.7786664 2.163572 2.9011693 0.056389723 1.5293009 -2.403025 -1.2575555 1.1192837 -0.7322779 3.8008657 0.4549648 2.5354645 -1.2609928 0.7048132 -0.13875966 -2.7659142 0.33880445 -0.48791635 -0.79776585 2.764705 1.008652 -0.67938596 3.0187323 0.61505705 3.1074717 -1.0130885 -1.566172 -0.6213214 0.3886331 -0.66181135 -0.6103637 1.0761335 0.33064 0.101699196 1.4191161 -3.5277064 0.06548067 0.3260035 0.47325873 -0.03261841 -0.6598854 0.6297982 -0.46119472 1.1329457 0.33480534 1.2024322 0.107143536 2.566471 -1.3196573 -2.4318075 0.5903241 0.059593495 -0.66928726 -0.24779792 -1.5990862 0.5428709 0.5108173 1.4016266 -0.31716803 0.9586614 0.31708136 1.0868231 -1.441822 -1.789716 1.6038508 0.06483484 -2.1748888 -0.30607185 2.7587051 0.0059315576 -1.734456 1.2962211 -2.2608616 -1.5080438 2.3675241 0.4207179
SEreyi -2.1113372 1.7189407 -1.7952732 -0.5708081 -0.05297786 -0.34908044 3.0832863 1.3171751 -0.9176372 -0.53050673 0.04050523 -0.48937863 0.053406596 0.4690818 -0.29019687 0.22229081 -1.336739 0.94002324 0.77003986 -0.4361298 2.2214365 -1.9492174 0.64565617 -2.248133 -2.3726873 -1.0929294 1.4233307 -0.8387133 -2.2650456 -1.4678186 2.647403 -0.26777667 0.9641283 0.8661045 0.2367615 0.8928727 -0.24119031 -1.5816772 -1.2095289 -0.07708601 2.5179076 0.15798916 -0.20784912 3.7119355 0.8502616 -2.6279821 -0.014585408 1.0392762 0.26794368 -1.1503425 3.1778402 -0.83065665 -0.8142528 0.6869782 0.07970767 3.757151 1.8260648 -1.0835003 1.0388259 -0.029838633 0.108277366 0.22822076 -2.4114552 -1.4880646 0.08754674 -1.3448806 1.5913233 0.26450887 -0.4042856 1.2539804 0.812659 0.05738174 -0.1807516 -0.7104944 -0.5828021 0.8768455 -1.5707276 -0.72044235 0.36410058 -0.10694942 3.224893 0.4460067 -0.46739554 1.6604204 1.3485844 2.717615 -0.86912894 0.98933613 -1.1780543 -0.9208795 1.7785432 -2.093619 -0.065563895 2.0973117 0.30977842 1.4286933 -1.7878131 -0.64827895 0.14087294 0.72527385 1.321316 -0.60440594 1.0642427 -2.5189238 0.14457718 1.4392341 0.92721766 0.83792436 -3.6046624 1.8423718 1.777859 -2.444273 -0.41910848 2.1487048 -0.58628184 -1.5480165 1.9286947 0.08710259 0.6406627 -0.7293888
tdxelEwi -2.5268893 -0.1229072 -3.8216846 -2.1654274 1.2361164 1.3439846 2.2274418 2.5717552 0.05042557 -1.1152443 0.6354952 1.8987302 1.9769007 -1.5078595 0.41663826 -1.4199712 0.34788015 2.070248 1.7475842 0.62990856 1.6551565 -1.4010181 -0.6898388 -0.6106063 -3.4469092 -1.49511 1.8879542 0.13688262 1.001335 1.7089705 0.1969824 -1.8409184 -2.9956436 -1.863411 -0.9716551 0.38032338 2.8941584 -0.3055326 -0.64287937 -1.5665591 -0.44637358 -1.2015865 -0.46702382 3.0664952 -0.19101924 -0.92733544 1.3195761 -0.5691206 0.35475153 -2.512214 0.81381476 -0.33310053 -0.14925663 2.403858 -1.0194962 1.301745 -0.67184675 0.6114924 -2.3210266 -1.5671217 -0.96419793 0.38871706 0.05178766 -4.024518 0.8480408 -1.0233228 0.04367274 0.7569263 1.6866809 3.2874851 -1.7524549 0.09637446 1.4414908 -0.6669698 0.31015527 -0.14939925 -1.6182985 0.7015426 0.23150861 0.87956053 2.6790009 2.3556278 0.6874663 -1.1947714 -2.0011854 1.7812403 -2.6334672 -1.5660006 -1.6930488 -0.7066814 0.569151 -0.16083187 -1.2285589 0.9562485 -1.2158803 -0.5494066 -0.34978828 -0.8630905 -0.601552 -0.52398956 0.60988575 1.3011414 0.9597203 -3.3955154 0.86554235 -0.21606466 -1.3035014 2.531142 0.2240446 -0.6662315 0.23398699 -0.42758784 0.1630354 -1.3109536 -0.60761666 -1.1492405 -0.41829702 2.8965986 1.1228472 2.1626263
SEri -2.187771 -0.20851187 -2.4171796 -0.56363803 -0.20576462 2.4922163 0.025503762 1.5502346 -1.600454 -1.5027928 -0.81976086 0.3226138 2.7803342 -0.9870889 0.98647714 -1.3183163 -2.0986445 3.5894337 -1.113559 1.120974 0.48091665 -2.934375 0.5825219 -0.20720364 -0.08549044 -0.4723477 -3.5133188 -1.7212569 0.3562097 -2.0300448 -0.4135881 -2.2882996 -0.8035656 2.809038 -0.8058932 2.4283803 1.7213918 -0.028548168 0.36909923 -2.4852092 1.8180579 -1.5510817 -0.11321472 4.3939667 3.2074716 0.60807705 0.61384904 1.2380629 0.866351 -0.66712266 0.6973367 -0.7766101 -0.036001146 3.8076503 -0.72726685 1.8952684 -1.4380772 -0.04104883 -1.109258 -0.2857093 1.6265836 -1.4959718 -0.968718 -1.3720636 2.177987 -2.6472275 1.1860591 -1.233061 -0.36937195 2.2912514 -0.7769864 -0.0009295001 -0.6872721 1.4993953 -0.17545281 0.72219455 0.59410447 -0.11384749 -0.5239414 -0.91270834 2.5252678 1.8620512 0.297252 1.1984794 1.8769375 3.2681544 -2.2976375 2.0018632 -0.29159385 -2.5669682 1.3174086 -0.4331617 -1.616314 2.269309 -0.087965146 -0.72132474 -0.91629475 -1.7841133 -1.1318463 1.1985449 0.81624186 0.119121045 -1.4233067 -3.8802145 -1.5147556 0.7140336 -0.8754775 0.7583628 -1.0606287 1.3309624 0.9086749 -0.94170105 -0.652298 0.33975866 -1.275758 0.24610329 1.4419938 -2.8917956 1.629924 1.017345
li 2.5099385 -0.79282 -0.6292135 -0.9562599 -0.89079744 -1.489731 0.21143126 2.1228318 1.4400172 0.6878244 -1.5719571 1.6208417 -0.23565206 -0.2993808 -0.70300806 0.15766132 -2.0233 -0.50278044 -0.9344882 -0.2613276 -0.9531644 0.5294353 2.3667061 0.30733997 0.58490044 -0.8636406 -0.9528692 -3.4813094 1.5624903 2.9950373 -0.43219963 -2.8784919 -1.1234235 0.8102689 -3.3506548 -0.20143315 2.1933973 0.50245714 -0.3655125 -1.0731021 2.6056237 1.6671067 -1.5396006 -2.6356585 0.21105762 -0.35221225 -0.50165087 0.7379179 -1.3333784 1.5964229 -1.4044932 0.21044667 -0.83935565 -1.2703665 -1.2188323 0.6556478 -2.9304693 -1.1232944 -0.7369371 -2.6463056 -0.69155943 -0.6679222 -1.6704047 0.88319063 -0.74992645 -0.9013991 -0.16966864 0.70088106 2.822198 0.42800677 -0.056734435 -1.2265091 -2.0419579 -0.03129622 -3.217319 2.6241493 0.0058299312 1.5166965 -0.37515667 -1.4889743 -1.101119 1.0091107 0.0374125 -1.3600484 0.044649154 -0.18220842 -2.351694 0.58855605 2.1518712 0.61058635 1.1667486 -0.26514062 -1.2953782 -0.64662975 -0.55779535 1.4670678 0.17909592 1.1172184 0.31635445 -0.5831695 -1.8336828 1.6263858 0.2639936 -1.518114 -4.1314383 -0.18301506 2.4857073 -0.8392928 -0.3394037 0.32080442 1.7715359 1.1291819 -1.5729314 -0.9706088 -1.093305 -0.8298787 2.4809744 0.54916114 -0.22355431 1.1133323
s 1.7958351 0.5786853 0.8377107 -0.12998472 0.26586056 -0.57331675 -0.8804795 -0.060769193 -1.2661666 -0.8265257 -2.700961 -1.3193842 2.6010375 0.4923682 -0.44019285 -1.3451935 -0.09664355 -0.3912308 -2.3935678 0.3308632 0.6498763 -2.650137 1.8451048 1.0843567 0.2733081 -0.9956509 -0.349504 -3.239502 -1.6202761 2.6708407 -0.917302 -0.38008782 1.3098973 -0.97386277 -0.9348091 -0.9373033 2.3706641 0.23560385 -1.0699095 0.31915388 0.31788963 -0.28044876 -2.3706698 0.5659837 0.7722725 0.077538855 -0.8330924 -0.16730143 1.941475 2.0916586 0.08385899 -2.1657412 -0.4939651 1.8871744 -1.5410131 0.25242463 -1.9197271 -1.6897599 0.8665657 -0.6593388 -1.2845839 -1.7971256 -2.6756413 0.71347284 -1.019207 -0.14262244 1.2074162 -0.8784504 -0.67331123 0.29948556 -0.86738074 -1.7472684 -0.49343073 -0.3102773 -2.3874536 2.856384 -0.58450985 1.2776991 0.5896164 -0.9278314 -2.3955998 -0.66336316 1.4787986 -1.6204624 -0.63665086 0.9752825 -1.7202678 -0.47176042 1.8589634 0.686551 0.016275054 -0.40741053 2.2467456 -0.59319955 -0.037344582 0.108507715 0.96469206 0.64839035 -0.72497576 0.7676228 0.4396202 0.08751265 1.1585048 3.309838 -0.81260645 -0.19939898 2.4621499 1.3566839 -0.89705575 0.92952013 -0.014326349 0.18035145 2.934348 -0.13177384 -0.5553949 -1.5997906 -0.80364716 -0.6998831 -0.47115928 0.23505376
lE 0.5843174 1.5761656 -2.6795473 -0.51772577 0.19346163 -1.0977128 -0.34351534 1.3294656 -0.057210695 -0.98486644 -1.1590315 0.69858474 1.3717662 0.523951 -0.7030906 -0.3521782 -1.8581904 -2.480385 -1.1348462 -0.7554587 -0.60457784 0.36343265 2.1964543 -2.9948053 1.1437298 -2.7761257 -1.4624445 -2.3772376 0.4851013 2.0282636 -1.7915237 -1.2329621 -0.18411738 -0.1210725 0.33207867 -0.5505542 1.181543 -0.9372814 -0.76842403 -0.7122733 2.1485648 0.5611344 -1.4132407 -1.7440603 -0.6333394 1.6721351 0.018183297 -2.099435 -1.2206169 0.9457785 -1.5391736 0.10110633 -0.74564904 -0.52668345 -2.9508536 0.124028675 -1.1027877 -0.7767775 0.1550917 -1.0163348 0.25823334 -0.9294394 -0.34388125 0.4453652 -1.2301534 -0.37800637 0.6339446 0.25045052 1.3860584 -0.4333745 1.7736777 -0.76183 -1.2976296 2.49563 -0.12653032 0.47167382 -1.4595249 -1.1539351 0.2915182 -0.6233989 -1.0152888 -2.6316743 2.7449584 -2.991103 -0.7186602 -0.5712867 -1.4973626 -1.5876774 2.8096323 1.4933988 1.5619398 -0.38875175 2.1977074 -1.4065692 0.7716631 0.29646164 -0.5309517 0.43799484 0.048437443 0.73156273 -0.4715518 -1.2434496 -0.65439516 0.18398286 -2.686397 -0.77634007 1.4065461 0.6098749 -1.300994 2.2856197 2.2634332 2.6804013 1.8581358 0.69744295 -0.912631 -0.4285849 0.47109178 -0.5123969 -0.112985276 -0.6229888
xrpxN -2.0698924 -0.43229645 -1.4567529 2.0234234 1.2667078 -0.5054365 1.0231684 -0.25313324 0.40883893 -1.0461003 0.5181666 -2.4118688 0.7283362 -3.289064 -0.5265692 -2.0246212 1.1042504 -2.018818 0.43038332 -0.23466574 -0.19146223 0.6552412 1.1077919 -0.31511694 2.1471844 0.17420411 1.5955333 1.058206 1.7352796 -1.6569134 0.459107 -0.30070555 -1.1663724 -0.16613953 -0.6950811 -1.6061735 -0.39226097 -0.9997177 -2.1417797 -1.2745606 -1.6952434 -1.5150571 -2.269763 3.6413786 3.492701 -1.5070605 2.5811632 -1.964225 0.5351445 -0.97457176 -2.252429 1.5592965 -0.48839855 0.91651005 -0.2328726 1.2825423 1.7291952 0.17275664 0.14265008 -2.4989042 0.39898923 0.57905483 -1.4254518 -2.2221947 1.9410053 1.6942244 -3.1089172 2.6193786 2.598922 -1.0728847 1.2217947 -0.129227 0.22532283 1.4438691 0.76685107 -0.8858388 0.51936287 -1.5886352 -1.7498065 -1.7284213 -1.488533 0.20824572 1.1556613 -0.34244367 2.1056325 1.2733366 0.36905518 -3.2629063 -2.436215 0.21074443 0.4033696 3.5590403 0.2034487 -1.6650804 0.23712796 1.5101677 -2.515934 -1.0257901 1.1867298 -2.4705608 0.8042134 -1.931542 1.9343332 -0.7705841 3.2010872 0.603913 -2.9023702 0.25477824 1.7354989 -1.0600444 -0.048526455 -0.75295943 0.43921235 0.031100815 -4.06955 2.3284345 -2.0891044 1.6022668 0.66152966 -1.4007868
mrebqE -0.72417796 0.16685794 -2.4989054 1.5037158 1.9576917 -1.4981927 1.5434295 2.3251183 -1.1892926 -2.6441617 -0.49757636 0.1456148 -0.29749322 -2.676612 -1.4018384 -0.83122945 1.076012 -1.1058922 -0.30573916 1.001294 0.39347786 -1.5613469 -0.024033535 -1.067646 -2.3136837 0.4820377 0.4599891 -1.0745196 0.123164915 1.3961135 0.80050266 -0.21242149 -0.85365134 0.12799598 -0.26887226 1.2070932 3.0846202 -0.37110344 -1.8768257 0.42686063 -0.7448261 -0.2504183 2.8098859e-05 0.34286198 1.2998054 -1.774374 0.72830254 0.3388949 0.44701418 -1.4729865 0.38433686 0.28941226 0.67777646 0.91928196 -1.3485934 3.451326 0.29306665 1.5983256 -1.7404432 -2.4457383 0.04349396 -0.16851257 0.8770931 -4.001748 -1.3254045 -1.5454036 1.4268091 3.112635 2.5999327 2.0246375 -0.85083896 -0.8847778 0.036895975 -0.91252244 -3.450186 2.802055 -1.1817242 -0.1466203 0.055400573 -1.0722675 -0.52922696 0.022018408 1.9892923 -1.1280954 -1.3816844 1.5303532 -1.9329705 0.40208423 -1.6439223 0.7388348 1.5200615 -0.34208456 0.9230889 -1.5717325 -1.8021499 0.86397606 -0.94701904 -1.8444442 -1.8661386 0.783834 2.2803183 0.50765824 1.4055322 -2.803939 0.70541203 0.7035509 -1.0538913 1.8631996 -3.2029252 0.58029175 0.25454208 0.15468796 0.87642324 0.86691844 -1.7773819 -0.41750097 -0.38767514 0.59924734 0.91358846 1.3624834
xSxslitEwi -0.89932984 0.74807656 -1.0889089 -1.6125239 3.0372627 -0.39866093 1.7171187 0.5909847 -1.8840166 1.1150799 -3.8373203 -0.9449349 -1.8200599 2.0767334 -0.76016814 -0.61599547 -1.316531 -0.08982423 0.027752012 0.28764084 0.17543684 0.020474244 1.9432968 -2.1369324 -1.024494 2.005867 1.9021068 -0.09408987 0.91295314 0.5169228 0.058238834 0.2701934 0.08573315 1.5860819 0.561798 1.2907292 -0.53003854 1.2599202 -0.53771645 -0.46942133 -1.5036132 -0.138906 -0.9728041 1.6283233 0.35524747 -0.10566868 1.5534673 1.0338514 0.90702754 0.39431548 0.21653235 0.26453298 -0.6540179 -0.1978992 0.15265583 3.1512463 -0.20858957 1.3686239 -0.09722445 -1.4130117 -1.3031491 -1.3921845 0.7042797 0.80568975 2.0381541 -0.27629572 3.4887497 3.1275678 -0.8480607 -1.5561167 -1.0005223 -0.8880899 1.4218242 -2.012216 -0.20345095 -0.6284634 -1.1212506 0.811355 1.7724947 -0.96378875 1.6321243 0.06709944 1.5230852 -0.4141089 -0.07786949 1.7100911 -1.33607 1.4812127 0.72169626 -2.9009645 -0.8170484 1.9179004 0.16859598 -0.900666 -1.9727372 3.1070602 0.007573836 1.4902202 2.0771337 0.76327497 2.2763333 -0.7754367 0.97024757 0.17244644 3.686594 1.6455662 0.87215817 -3.1442876 0.6516746 0.091640264 -0.99523103 -1.024229 2.3394723 1.2423276 -0.3822182 0.66222316 -0.6055799 -0.2805973 1.51266 -0.42569396
mxe 1.2687316 -0.89203995 -1.3104599 -1.910482 0.797594 -0.94561857 2.8779943 -0.58008754 0.0076013245 -0.37898335 -0.72114474 -1.0351716 -3.3217957 0.34849283 0.08071699 0.8769916 -0.20212469 0.13380893 -2.480527 -0.6916637 -0.88733965 -1.1054561 1.6529403 -0.51578605 -0.3771379 2.6629434 1.6306865 -0.6620684 -1.4766569 -0.57824343 0.12764893 -0.98280174 0.96302545 1.5381811 0.7265948 3.7906847 0.60757184 0.7818142 0.6848022 -2.3274214 0.38817227 -0.54099095 -0.8633105 -0.8317144 -1.5756915 2.4216344 0.2097839 2.2507806 -0.51962245 0.55689937 -2.5392594 -0.32269806 0.5830732 1.3535577 1.8228534 1.4617276 -2.216679 1.3127358 -0.30323207 -2.367799 -1.7078146 1.3400584 0.48714042 2.5620878 3.3507204 -1.7999008 0.27804926 3.5224435 1.2106258 1.7624924 -1.2828004 0.099840835 1.906072 -1.0265359 1.0956568 1.469077 1.9459025 -0.36436513 0.99435353 -1.3377967 -0.7959274 0.4371077 -0.5052245 1.914097 -0.7581066 2.1977096 0.31119198 1.4526993 0.2578156 -0.5580182 0.98399466 0.18772349 1.3669627 -1.4237726 -0.12835787 -0.09972747 0.104434475 -0.82493746 -0.69806045 1.0444415 -0.44823697 0.5483047 -2.3759882 -0.0026673966 -0.9800627 -1.4504995 -0.95710105 -1.4388435 -0.38822925 -0.22263621 0.11624729 -0.37889332 3.2324333 0.4056927 2.1443045 1.7322229 -1.6034464 -1.563195 1.9980614 -1.529177
pestE 1.2038537 2.344344 -0.7001005 0.24796583 -0.7049585 -0.5447207 -0.9992149 0.43630922 -0.79034716 0.2734492 0.7106459 0.60448223 0.2480643 -0.33402044 -2.6649356 0.28251338 1.3052101 -2.2666676 1.2008383 -0.37096044 3.3084612 1.079632 -0.28402475 2.4100711 0.51524657 0.6937761 -0.4853437 -2.1779025 1.5514392 0.6628592 0.3893064 0.7472951 0.03435491 -2.376843 -0.3593877 1.4216801 0.7762818 1.1567453 -2.0030003 -0.25592947 -1.7001568 0.7762596 0.056186754 -2.6069171 -1.5773494 2.8061295 -0.35963807 -0.21783917 -0.15540165 0.32445017 -0.712132 0.39024732 1.9409415 0.7322621 -0.8110948 0.74029493 0.76627463 0.21227212 -0.74386245 -1.8515881 -2.1014037 1.7405756 -0.5524177 -0.9972418 -1.5182431 -0.018868696 0.7297641 0.6800329 0.2837065 -0.18599518 -0.34028292 0.4800189 -2.112597 -2.8252206 -2.6398613 2.1024597 0.28155756 0.51959485 0.9056373 -2.030126 -1.3071271 -0.77344525 -0.07898069 -1.1379462 -0.8575216 -0.67886204 0.029196715 0.7163716 1.5396312 1.974341 -1.3313707 0.41363105 1.8033191 0.031721562 2.8936245 1.16789 -1.8105052 -1.6352943 -3.7555928 -0.46058708 -0.85331184 0.78433454 0.80782324 0.35517153 -1.0431182 0.1317504 1.7157696 0.05760117 -3.0957417 0.04694313 -0.017206779 0.05823995 1.378977 2.058851 -2.535525 -1.1083796 -2.0566785 1.0505875 -0.8875808 1.5274208
