1902 20
yetmdelEwi -0.12003673 0.19817232 -3.7370691 2.535343 -4.7156115 0.3625425 2.157203 -3.477269 -0.88166857 0.08161225 -1.8614876 1.8151841 -1.5388927 0.4467508 -3.6070473 -1.6353327 -4.9327264 -0.6946315 2.479756 4.2644463
wEmnitX 0.6717556 1.3534684 -5.797036 1.3266408 -5.9183726 -1.2610022 -0.19379188 -3.0321946 0.8591062 0.8716501 -2.414335 2.4038374 -2.6403692 2.1780026 -2.8825035 -2.8445625 -4.842636 -4.127181 1.8723845 5.8883114
aribet -3.4037821 -1.2632643 -3.5269291 4.391257 -8.415366 -2.841459 4.209107 -3.4059796 -4.91165 1.0236453 -1.4927413 -0.22522417 -3.2879918 0.89223725 -2.3833342 -3.2142918 -1.6264615 3.3947823 2.7397327 4.425671
ateqi 4.665916 1.0400393 -2.7411833 -5.12391 3.8619015 7.6202736 -3.0466406 -1.6589004 1.7610441 -2.6099818 0.39465964 0.09626967 4.401152 -1.027875 0.47344515 1.3730534 -3.4403262 -1.1320285 -0.7686189 -2.9712942
belElEke 2.4616647 -1.2354897 -1.7419353 -3.4066641 -0.20589752 2.868732 -5.6553597 -0.32307866 -0.25074947 1.5921323 -1.047947 1.4593505 5.756539 -2.0717583 1.3181742 4.278754 0.67180514 -5.449517 -2.5622742 -6.6868134
mdetEwi 3.34411 1.0594286 -3.1462054 -2.040747 4.9085846 6.701645 2.2582595 -7.065522 -0.56535155 -7.19536 -1.4652307 0.09276927 -0.076106295 2.3382823 0.6835946 -0.762431 -5.6256943 2.6736422 0.06261676 1.7408621
terikelEwi -1.1644894 4.2300677 -0.1971585 -2.185923 -2.0285366 -4.871618 -4.4234033 1.9204965 2.178145 3.9762926 1.789767 1.2277678 -1.9468842 -3.2356827 -3.985875 -1.6117795 0.058421846 -2.7266257 2.909701 5.351699
SmlE 1.0778334 -1.2145915 -2.3992772 2.3331242 -5.768389 4.098375 0.93879664 -3.9537718 -2.595894 -1.5236946 -0.214251 3.1942518 -1.1737177 1.3223473 -1.0365688 -3.889116 -0.39728737 2.26751 4.723412 7.904437
qE -6.9401765 1.6294342 2.018961 0.42546427 4.9754405 1.202744 -2.8762755 1.8665727 1.0917599 2.5542846 -0.76945597 -2.234704 0.112361155 1.3647424 -2.1810303 -0.42340735 -0.61102754 -1.9556665 -0.95755786 -0.159702
Sklte -2.4941142 2.3828876 -7.775913 3.6005495 -7.63512 -2.3605647 -2.310883 -3.4583242 0.105383605 3.1128542 -2.0729356 1.8882036 -1.7814003 -3.644031 -2.515916 0.034952052 -2.748109 -5.2674704 1.1030083 4.528371
wi 6.0682654 -2.5198648 -0.16307236 -6.1532702 8.230428 3.299066 0.5498446 -3.0243795 1.571223 -2.9397523 -1.1490997 -0.5421625 3.5844169 4.383732 1.4498689 -0.54417884 -3.0446823 2.3036115 0.5830538 -5.121653
wESi -1.3741157 0.053253114 3.8712304 -7.672701 2.7991922 -1.4263023 -1.5054351 4.152858 1.9902259 6.5093455 3.5237432 -1.8190358 0.005756653 7.390875 -2.623584 -1.0025674 1.2750328 -0.63246113 2.2373724 -1.6414013
wES -2.6729734 1.0311922 3.2167196 7.2722697 0.19404879 4.593463 2.320674 2.4678025 1.8654375 1.759861 4.4659214 -6.834404 1.9166491 -2.106797 -2.30165 0.7863964 -4.497572 -4.142216 -1.0354676 -2.5246403
qEwi -5.427089 1.4982827 -0.5000336 0.6037462 -0.2680897 3.1931317 -3.033326 3.202277 2.9279027 4.473575 0.7365541 0.95731884 3.651513 0.6208499 -7.0199695 3.170925 -0.6421036 -0.48637387 -3.3320997 1.7219484
yetmdelE 7.7488995 0.70261437 -0.14113021 -4.311178 1.999008 5.7176785 -0.84435207 -5.3159113 2.691969 -7.0587115 -3.445834 0.09908582 1.6105635 1.2253419 -0.52809674 -0.25372317 -3.4465268 0.044848524 -2.355792 -4.168494
aqebetEwi -1.7719873 0.15409625 -1.2078245 -1.6486224 -2.752333 -3.1327653 -1.1611611 0.51073545 -3.3497033 1.8316107 -0.19746353 4.8093877 6.7664165 -2.468484 2.6248176 3.451006 6.5204453 -4.142297 -3.267633 -2.760076
l 0.4395209 -1.6242967 3.1299658 3.196894 1.050993 0.9452616 3.0520306 0.57558066 2.014231 -4.2368703 2.8762612 3.3440979 -0.44212165 1.9051192 -3.2371087 4.988278 4.2611437 -2.7207851 -2.3950186 2.9923933
qEre 4.4027166 4.464282 -0.67298573 -0.9801762 7.539879 3.4233716 2.7120275 -6.0300674 -1.1217065 -3.8664162 -1.7149303 -1.1604245 -0.050894357 1.7471961 -1.5169889 -4.1266804 -4.731427 4.8936872 2.4599552 2.0731068
tedxelEwi 0.43824264 5.6940923 -3.6621838 -2.5296948 3.2156408 -2.5044508 -4.5916576 -1.8440576 3.3747547 3.9065526 -1.3522683 3.5049589 -0.74926406 3.1500251 -3.226561 -1.4468571 -6.026716 -3.3981097 -0.9233021 4.7688546
pqr 1.9358714 0.6689362 -2.4124258 -3.6154656 4.596094 2.5239656 -2.2299569 0.9702862 3.040372 -3.151283 -3.562177 1.4305042 4.743504 -1.7665638 0.2826023 3.3638558 1.4723036 -3.485457 -3.16986 -8.788748
qe -0.7191589 1.6092765 2.0715692 -3.9032867 3.3508043 0.47281054 -4.1956654 3.6303022 3.756994 2.8996418 -0.43164697 5.862327 -2.1023438 2.520853 -4.7629514 -2.0742688 -1.6049439 -3.606697 4.156603 1.5457841
yete -3.0641024 0.073762275 -2.9990015 4.167132 -5.7857103 -3.1262817 3.2609122 0.9969165 -2.5522535 -1.8883684 -0.28358024 -0.59972334 -3.9379663 -0.39678264 -1.5743386 -4.1148624 -3.934514 7.7973433 5.6166267 4.054215
smle 4.084676 -1.0225723 -2.7674918 -0.280958 6.7887526 5.976956 3.0155697 -4.88378 1.4890555 -6.506803 -0.9533826 1.3321694 2.2568235 0.9635956 0.76932347 -6.3633504 -7.774187 1.5516169 -2.5364666 3.1095617
ble 0.5043439 1.510442 -2.1233022 5.4619265 -1.0890515 -0.14527054 5.8562846 -3.4466994 -4.6266456 -1.9767563 0.26518804 1.8599253 -5.56953 4.929554 -2.436788 -1.1053265 -3.988659 7.138765 0.6215345 4.6732726
tedeqeli -5.24256 -3.2335331 -2.3867629 2.5364163 -0.7660182 -0.6123654 4.467858 -6.0243163 -5.956056 -2.8557248 -0.875219 0.22503662 -2.0486798 -1.1234488 -1.3289464 -2.673182 -3.1529338 6.8157673 3.712928 6.5180297
trqye.yetmde -2.7447302 -3.2593417 1.6919237 -0.93893766 -1.6172098 -1.5386673 -3.7210617 1.1255684 -3.9509614 1.183539 -0.9652565 1.2682483 5.19201 -5.0356135 0.2535654 5.650636 1.7907021 -6.1672325 -1.3044115 -5.4783278
kemxr -3.460531 -0.2805691 -0.91591215 8.009994 -3.793765 -0.058310844 5.217377 -3.5199385 -0.1948699 -3.1316571 -0.093630485 -2.3044012 -5.5433407 0.337892 -2.4560397 -3.6209652 0.8683422 3.7607973 3.2683938 6.879978
ateqiSitkemEli 8.189673 1.3640952 -4.3722744 -3.4197772 3.0010319 4.361435 -2.8424096 -1.6982433 -2.908821 -1.3426484 -1.343676 -2.7587543 7.377575 -0.15870523 -0.64346004 3.3984146 -0.8818539 -5.981704 -4.9081254 -3.7416615
kde 3.0808928 2.407526 0.2144924 -0.54390866 1.3776269 1.3699778 2.5702233 -6.136514 -0.97998494 -7.638888 0.6326783 -0.5085662 0.52943224 2.0537367 0.7503882 -0.86188453 -9.398486 5.249772 1.0126567 5.612742
yetmdelEwiateqi 6.081471 1.5820462 0.36488008 -6.2441983 7.663413 4.3017955 -4.9216504 -5.6690407 1.3185322 -2.4729688 2.4036684 0.6023598 2.5283413 -3.4513319 5.1201 2.1108475 -2.068433 -1.9011649 -3.275259 -5.006624
qEresmle -0.045595806 0.91269463 -2.8799798 -0.6411618 2.527074 0.79445416 4.1750298 -6.7528377 2.7230582 -6.3517594 -2.3785617 1.8387336 -3.1521628 4.321411 -1.1379492 -2.5917273 -4.2487626 7.5067244 0.9631793 4.4911547
atiyete 5.705943 1.0260755 -0.28820562 -0.72593755 7.186703 9.536169 1.6461533 -7.6962514 2.3171706 -3.9751043 0.20774512 -0.9170788 2.7364755 3.4543626 -0.66748345 2.320883 -7.5468426 0.20233114 -1.4058188 -1.5381675
mXli 0.20611468 1.2823778 0.1077666 -0.8140367 2.4188237 4.626054 0.6211623 -7.5809374 -1.2093649 -4.502914 -1.4487537 -2.9945946 -5.3505316 3.888596 0.1978064 -4.979165 -8.089104 3.0298274 1.1642171 3.7842543
wetemtr -3.8662539 -3.3743255 -2.4133081 4.590233 -7.622334 -1.8868067 3.8778038 -4.434179 -2.1760635 -1.1605761 -3.4439282 4.0801244 -3.7182117 -1.3475882 -1.0138558 -4.52935 -0.40582156 5.1235886 1.3906859 1.2411803
dskemxr 2.8520713 -3.4987752 -1.5887364 -1.37049 3.0997016 2.3080046 -2.8297606 0.7067774 -1.5422813 3.3908584 -0.5427832 3.4178877 3.9412591 -3.0284038 -1.5863065 2.508434 2.3890197 -4.6938915 -1.6068282 -6.5047197
qEriteyli 1.1851448 -3.768249 -2.2328813 -1.5655602 -3.144146 -2.1997468 -1.3584441 -0.63044816 -0.33641648 2.9619224 -1.1325291 1.329402 5.6498203 -3.1776333 0.2719701 4.281305 1.2283597 -4.561615 -0.74363214 -7.4755974
tlmenkeli 3.9903748 -0.7694432 -1.1200094 -5.4592457 0.30978245 3.252017 -2.1113768 -2.9889603 -1.3741785 1.567009 -0.7466881 -0.31349322 4.57504 -4.3381433 -1.8570565 1.9318373 -1.9787153 -2.8223627 -0.056457546 -7.0102177
abyetli 5.3752165 -1.1511265 -0.8022902 -0.65925914 2.0730684 -0.61058974 -4.825479 -0.19914758 1.2527848 1.5273237 -0.32753873 1.0459293 8.591291 -4.047614 0.68275976 4.4823294 -0.88913494 -1.4838461 -0.93184614 -5.7811947
mklisye 5.014373 -0.0038159508 -0.69635427 -1.7651857 5.084412 8.451055 -2.6942773 -5.45828 1.4047996 -5.2999396 -3.5367985 -0.8426222 6.6999836 -2.436777 2.287769 -0.20925143 -3.4259334 -3.6848352 2.8031387 -3.5442278
deletenkeli -0.12775142 -1.3923887 -2.0286734 0.22182183 -0.12347625 -0.32125825 6.496365 -7.547295 -0.30457535 -1.682895 3.0658965 -1.6456922 -5.2749863 -0.2487189 -1.2109483 -3.8054657 -5.9560566 6.7391667 3.0311482 3.8877149
nkbli -1.8366065 1.2503151 -3.406931 2.443779 2.4248095 1.2194996 5.5057235 -6.0628953 -0.3165985 -5.3734775 -0.5879685 0.27945158 -3.2929564 3.0305157 3.0650148 -3.147401 -6.4859953 4.0231004 4.9137664 3.9541829
mlidns 3.934319 2.9793348 -3.0259151 -3.1418526 3.0501018 7.109963 3.5227137 -9.057899 0.8830066 -5.2097344 -0.092923135 -1.332985 2.963225 1.4153185 3.349938 -2.8183992 -4.191074 2.1164694 -0.82045096 0.16187227
twteNtkeli 6.5702524 2.571308 -2.7300656 -3.3518023 4.5136 8.609641 1.0447133 -5.256339 -2.0614285 -5.670537 -1.369754 1.42386 3.1808193 -0.4097329 2.3280017 -1.2484573 -5.87726 1.0105648 0.39647344 -3.7602684
sbewyenkeli 1.405241 0.19319314 -2.8253999 -2.3676538 3.65951 7.5189447 -3.0266464 -4.3519545 0.55949205 0.5507871 -3.1354315 0.082366675 7.5240545 -1.3064758 0.6247515 -0.023775693 -5.639653 0.82486963 -3.7716339 -6.39131
adEtrqli 5.1657963 -3.4120572 -1.6631094 -2.293787 1.8085817 6.920738 -3.0181038 -4.39163 -0.24690327 -1.677781 -0.9737433 2.0694237 4.9651647 -0.20123905 0.4633254 5.6531024 1.3671559 -0.25460044 -0.8099571 -5.060158
brtEye 0.55824447 0.9098861 -9.101081 -1.475379 -1.9244884 -0.12262101 -7.451098 -2.5244164 0.55362725 4.9075656 -1.5866852 2.0454965 -4.2410746 -0.71881205 -0.25347218 0.19040732 -2.4927723 -9.672739 5.159225 3.0129533
tNlxe 0.43529305 1.1239125 -11.171741 1.0370253 -5.5054092 -5.017302 -0.6020849 0.0035697059 -0.055821296 -0.1054669 -2.0425487 4.2746778 -1.2652764 -0.66938394 -3.1300244 2.5904121 -1.163422 -5.0209165 1.4252175 5.796429
arEr 1.1526006 2.8055863 -5.2477264 2.62962 -8.1801605 -4.980798 -1.7922975 -0.4706565 -2.8610685 4.074044 0.9774302 3.115192 -4.4977264 -4.024229 -2.0802226 -1.0828129 -3.7868712 -4.1733203 0.84851176 3.045764
atE -5.4693556 2.3955402 3.365515 -2.8893142 1.5576867 -4.8303795 -4.3975916 -3.0080073 0.46349388 -1.6687752 3.1079812 0.96141666 -5.481817 -5.9041815 5.402346 0.4608081 1.2267089 -0.13649392 2.194775 -1.0641457
yi 0.41602272 4.3513093 3.1153243 -2.5688517 2.13485 -2.3317504 -4.472032 2.2041333 6.83772 2.5960808 2.235765 2.613151 -3.7683911 5.6532702 -1.6458379 3.0793726 -1.0945406 -4.284445 0.46912047 0.044154882
SEre -1.4858177 2.1936238 2.3454034 -8.264268 0.4873918 1.7203832 -5.6938763 3.1203806 5.2712584 0.5858108 1.6890334 0.9310469 -3.7861824 6.092471 -1.1870764 0.8136113 0.5345032 -3.900307 -0.7462732 -0.7101333
qewi 0.8489748 0.023283212 -0.9916957 -0.7468955 -0.46171913 -1.4719647 -6.389298 -0.6503379 8.032014 2.1652439 -0.5827171 1.3584627 -0.18458134 2.7291315 -3.3557122 0.89472264 -0.7840902 -6.749082 2.3931656 5.4108505
tpEteNteli -2.6461518 -1.7746612 -0.35795227 5.785858 -10.849755 -5.603612 -0.5373724 -2.7210262 -6.6308794 -1.0968984 -3.2253926 -1.2804 -4.109875 -0.70856404 -2.4177575 2.0842595 -0.36296633 0.582966 1.5109628 3.0550175
Sklte.lxeye 0.84061176 1.8423837 -4.6294217 -0.17481703 -3.3288884 -0.7065931 -4.49548 -4.343739 2.3079457 3.119201 -0.5503785 8.000663 -4.772951 3.4858985 -2.0098836 2.893645 0.6894536 -8.976026 -1.4753889 6.030894
SkltesskemXer 3.372242 2.4870708 -9.0336485 1.1145552 -5.2319527 -2.2159274 -4.894902 -3.30423 3.4187129 5.767001 -0.5778353 2.53179 -3.7059298 -1.180725 -6.265075 1.0361342 -3.0444126 -5.0863633 -1.8009994 4.963983
adeqeyitbre 2.6117406 -0.09285111 -6.4845896 5.937724 -6.665589 -5.619034 2.0146074 -4.0753536 -4.71689 1.7064389 -5.089476 0.73279923 -0.21889673 -3.4640896 -2.7442703 -1.8352188 0.08500248 -1.6312081 3.2153327 0.8138624
dkelikeye -0.8747531 -4.279818 -7.7225833 2.4277525 -8.326648 -4.901064 0.6974902 -1.9223559 -2.934009 2.538132 -0.6772817 -0.9267914 -3.190694 -3.1413882 -4.2310476 1.167554 -2.9927444 -4.348867 0.693331 2.575331
sskemxr -2.8519602 -4.324392 -3.9378972 7.4341483 -9.493328 -4.578115 3.7568882 -3.3680112 -3.3226123 2.8143406 -0.719762 -0.36704776 1.8095042 -0.6317708 -0.21220325 -0.20950079 -1.9264475 2.4183517 2.959655 2.8456008
ameqemeteye 0.92068875 4.1564045 -5.3791656 -0.3870955 -1.6844045 1.8740273 -3.3897512 3.1382763 5.2568216 3.9161003 2.7015674 4.271566 -2.452612 2.849537 -2.966363 0.5695103 -2.5790455 -4.836052 1.6212487 4.0130363
pte.Eye -1.7097831 5.564358 -1.5758392 -2.8112283 3.726854 0.3792746 -2.5436099 0.4698032 6.6748548 2.956805 2.30997 2.1092756 -2.5306287 2.4721496 -0.93640476 -2.1828377 0.4378362 -8.160703 -0.44237354 3.9753582
adilxeyye 0.27572682 0.7247706 -4.909101 -1.4343885 -1.626534 -3.3879957 -2.1546764 -0.1430018 7.777371 1.3299186 0.42746484 3.6083298 -5.707386 -0.010473264 -2.3663366 -1.2147236 -3.4003966 -8.247824 0.40232816 2.3446312
tmNteleb 0.33859095 -3.3199449 1.0028579 5.7529325 -2.192922 3.7275505 -3.8745685 -2.22469 -0.039785456 1.5473028 4.9676704 -0.19356616 4.8440194 -5.2666316 8.6610985 -4.738328 5.1227484 -3.4393826 4.587524 2.228379
mXe -1.0635526 2.126209 -0.058750182 -2.772012 0.964849 -3.9447691 2.282334 -0.50048465 0.75400275 2.42623 6.336423 1.6274859 -0.7415354 -7.724958 2.8033516 -5.8279753 -0.6896781 -1.723892 2.7163198 -0.1792199
wetNyiNqeli -7.6990404 3.0736153 7.152925 -2.0041306 1.1774036 3.2331917 2.780491 0.75823545 1.1047672 5.349248 4.219767 -4.688057 2.610917 -0.40236324 -5.113336 -0.5428585 -2.7683277 -0.5993275 -2.6893146 -3.595392
smlEwi -2.8004508 1.2889097 -0.41072342 3.1656544 -1.6509409 -4.2879667 -5.023264 1.0643529 -4.233833 0.5390889 -1.6112295 -4.6063457 5.781177 -5.936644 1.4263587 1.0509912 3.762169 1.1835219 4.3395834 0.67262906
at -2.4594264 0.55640686 2.6094506 -1.7220646 2.1576092 -3.0640752 -0.39222652 -5.915902 1.7974484 2.631392 10.085066 0.88597155 -0.46473813 -6.409576 5.549565 0.88775307 3.8336692 -0.47346583 -2.9413788 1.5778488
SEreyi -2.3187065 1.5487244 2.5934572 -0.5676367 1.7336959 1.9714034 -6.121832 2.6552958 4.661465 5.576402 1.3487277 -2.1250875 6.999979 1.6997695 3.0720515 -5.838207 -0.9183503 5.1729383 -0.6421967 -3.0005734
tdxelEwi -8.962565 -2.3089182 3.1228566 0.19756106 5.188685 -0.9417992 -6.024619 -2.0502548 6.8021064 4.307313 -1.000216 -0.62355065 -1.9732046 -0.16864735 -2.8877337 -1.7586533 -1.6886817 2.4311297 -3.8097017 -0.8382342
SEri -5.268609 5.6413693 2.4059677 3.4765856 7.961274 -3.3658273 1.6035352 3.6746244 2.8523633 4.987415 3.106987 -4.134521 5.0731344 -0.45081455 -3.0685601 1.0900699 -2.127824 4.8688974 -2.5585415 -3.2512496
li 1.6648124 -3.828777 2.2576008 1.8458172 8.596159 4.9619637 4.7285695 1.6145236 2.0845332 -1.4059652 6.3650937 0.33924007 0.52440584 -3.0455556 -5.148597 -0.73701024 3.752081 0.531123 -5.056938 -0.062318016
s -0.18474899 -0.6830221 2.368265 0.63944 0.60738146 2.2301238 -0.5169692 3.257088 0.87724495 -8.474856 2.8820465 -5.588383 0.02279267 -1.9127021 -2.7095134 4.5059276 -2.1995952 -3.3711665 -5.7397056 0.66799474
lE 6.9929314 -3.4892914 2.1050928 2.1605651 -1.1276317 -1.4684232 2.357862 0.9818314 0.75099146 -3.445622 1.0093764 -3.1101606 2.097411 -3.1597605 -7.838298 2.337808 3.4919057 0.54475456 -5.4802685 -2.129446
xrpxN -2.8662636 -4.494521 1.2750802 5.5354047 1.6820321 -2.2911124 -2.4316864 2.8420014 -2.32309 -1.3337585 -3.3155437 6.5223055 2.913422 -4.9403167 1.7406952 -7.082305 4.730192 -1.966651 3.0887299 2.4740765
mrebqE -7.151906 -5.8553405 -1.9186045 1.9287871 2.9381468 -0.17325069 -4.3537903 -0.31477344 3.8309093 3.6110747 1.3679867 -3.5287442 2.1418157 -3.8336282 -0.5214137 -2.1934981 2.1562562 -2.7625175 -3.842121 1.7631074
xSxslitEwi -1.5028158 -4.2941585 -6.491204 -6.1871824 -1.2603781 -3.0876954 1.7333786 -0.73243135 3.9958467 1.3652221 5.3135047 0.5721152 5.9565253 -0.7915781 4.7227387 -2.6623585 -1.6688623 1.6820354 -0.72903794 0.6128073
mxe -3.1943257 4.1103616 6.587822 -4.1646066 -4.3655443 -4.9791846 0.11088982 -5.8271303 -1.5276909 5.706967 3.053303 -0.6136176 1.4256881 -3.7242098 1.0701755 -3.608956 0.80324006 -0.17985679 -2.7655945 -4.70331
pestE -3.6429868 0.83272165 -0.5117897 -3.1291533 -0.2122608 -2.8990693 1.1790373 2.67831 -2.1114504 -4.7590666 4.6885343 1.4320537 -3.317554 -0.12284832 -3.2179937 5.562787 7.5265384 -7.1737385 -4.283705 5.5411944
lEwi -3.8740425 -5.899531 2.5420241 7.697451 -3.310168 -5.0988774 2.563319 -2.883385 -0.980983 3.5161896 -0.8496871 -1.0341945 0.45575613 3.0550728 -0.7422499 -0.8262849 -1.1805964 5.822901 5.847738 1.4887474
yetmde -3.1000218 -3.6381927 -5.847628 3.5652158 -4.8901634 -2.3240163 -1.8296751 2.7905393 -1.9757402 -2.2094223 -5.0702567 0.6712001 0.57169193 -7.3026733 -0.35762668 -2.0595417 5.50136 1.5181185 -1.0073376 -3.8951976
1 -3.144385 -2.3934095 -0.9568829 2.710278 2.9548492 -2.3506994 1.2644708 -2.4456313 1.9042468 3.2672753 3.920102 -1.260688 3.2761133 -1.3709008 2.119008 7.0900354 5.373392 0.30264327 6.132272 -4.580653
te 0.85734814 -3.29175 2.5920882 2.96117 2.5382872 0.29172072 3.9506109 2.9640424 0.6787608 0.08816835 2.685103 -6.9968314 -1.0657597 0.4300369 -4.015853 0.3576964 2.0205333 -3.952777 -7.018612 -6.089798
t 4.2458186 -1.4431018 1.281801 -0.36755905 -6.852127 3.6230001 7.469796 0.6440414 -2.4189184 -3.4754436 4.598566 -3.6750731 1.2277027 7.5957108 -1.4898578 3.0795 5.2458434 -4.3556046 -3.7762218 -1.4942873
kelw -4.5015903 -6.0135045 -2.1155384 1.3453089 -3.9953566 -1.3300602 1.1597573 1.0020163 0.33415398 2.2214808 1.2325705 -0.32884708 3.1781266 -5.4996457 2.3520737 -6.0261054 3.9203465 -11.026797 -4.215052 -1.6174712
tedxeli 2.0916388 -3.438037 -0.8724182 4.6999764 1.7596211 3.3399932 -6.7081866 0.5111554 6.681261 4.720188 -3.2159083 3.932772 2.0637956 -0.2588348 -3.5409458 -6.9246492 2.7828498 -2.3780003 -0.20497857 1.2425473
ye -0.2871357 -3.7361104 -3.1337914 -2.1935222 1.551963 -1.4924601 2.2377012 0.5655551 0.6292586 -0.28298387 5.3947067 -1.3524292 4.4722743 -4.090073 -1.2516215 -0.8325093 1.3015844 -2.112553 -3.9533165 4.0165277
lX -1.5325375 1.7512832 -0.2908133 -3.7881508 -4.1928606 -2.2347424 -0.6911353 -3.678906 -1.4514867 1.2272135 0.09329301 -2.7247913 4.939867 -3.4689271 4.799301 -5.409519 4.13677 0.402109 -2.1311622 -2.3015172
pElmES 0.11720883 -3.351518 -3.1240227 2.8906891 -0.13082524 0.47390863 -6.597762 0.24805936 1.3268223 2.1007636 2.711215 0.2517565 -0.04188783 0.82642853 -0.5493636 3.3621304 -0.33900172 4.845398 -1.7357509 1.5734642
ant -0.9610735 -5.536865 -0.28518838 3.4765306 -1.8086686 2.0147555 -4.957961 0.7367068 -0.5517024 -0.70056486 -0.7784472 0.12879774 4.9678483 -0.62941974 6.141524 -3.4676425 5.890222 -3.6189237 5.5790744 2.501438
SEni -0.39422438 -1.58033 1.8948256 2.940604 -1.4666998 2.6535373 -1.0194588 -5.0474534 2.483906 0.5193649 4.8274117 2.1059914 3.4168298 -2.9906063 7.642753 -2.6104312 4.192625 0.13537735 5.2371464 2.7344766
wkite 0.7554736 -1.2023563 1.0045317 4.8149657 -1.7403712 2.7130382 -2.6796465 -2.555866 0.9301362 0.8673382 2.031545 0.033353224 5.8029265 -3.2695885 7.739335 -3.7394016 5.3968763 -2.0192478 7.3191724 1.6815183
yikidke 0.6896184 -1.1457613 -3.301583 1.1215855 5.4567184 -1.4968023 -1.3132168 1.1970648 0.48750895 -1.3357646 0.63285315 -1.8839945 4.433352 0.93670154 2.6570895 5.446904 3.631845 0.8592726 6.517838 -3.803704
apEte -1.9102435 -4.8104243 0.9389416 -1.8586066 6.6267223 2.317348 -1.3931255 1.1912088 1.9887897 4.0821557 5.7031536 -5.734473 -2.2633662 -0.62126535 -3.970291 1.4366919 2.5452065 1.3766202 0.98184806 -2.0198302
wetrri -6.1504583 0.5394888 3.4528987 3.3603327 -0.033320706 1.1510507 -1.4088988 4.7678933 1.5242935 2.6114566 -1.9451514 0.095438175 3.819477 -0.87057745 -3.99172 0.44016856 -4.3209 1.2597631 1.8622298 -5.0597315
qetrri -9.028643 1.1573255 1.0606985 3.360814 1.7923903 2.3344295 3.1577673 3.492709 2.4057343 3.6883142 5.201137 -0.8929229 3.3129911 -6.7668424 -1.7452713 -3.6630611 -4.9698453 2.8019948 -1.911111 -2.23433
kdite 1.90121 2.3389838 -2.0864172 6.2140765 1.4212694 1.352345 -1.3013301 -0.09610944 -2.8010592 0.34888613 0.41581607 -2.0265622 3.8133833 1.5193547 -0.20463505 0.38485435 0.92311734 -3.0116346 -6.458482 3.2166317
blye -4.0895 1.0518616 1.3172305 -1.2194574 3.0992146 1.6537488 -1.4891896 -0.4989378 4.381165 4.9630485 -2.5024211 2.8692768 4.880555 0.7023362 -3.1817725 -3.923503 3.4629164 -0.4858352 1.3379203 -0.6614756
mete -0.8164335 -1.4500194 -3.7168353 -1.4008985 2.0707488 3.0753682 -0.47087094 1.6132812 -0.47105247 -1.6748157 -2.5818455 -3.0206583 2.20033 2.058069 -1.6132038 2.504735 -0.19755125 -1.3235369 1.984359 -2.7534907
mlekeyEs -2.6896367 0.11082404 2.4810293 7.2440057 -0.7457328 -8.521858 -4.0926676 0.5388558 6.1595626 0.57256234 -0.8793972 -0.42415622 -2.2099056 -1.7945448 4.27501 0.3296881 4.251218 -0.1269184 -1.1615156 -7.312634
....s 1.2541565 -2.3723452 -1.1083952 2.423561 -2.372134 0.5355455 -6.490994 0.84117275 -1.1806176 -1.8548623 1.5784711 1.0447382 -1.099406 -0.0071281726 -0.350132 4.5937133 1.740887 4.874191 -1.6454548 0.54244053
kiSri -3.1144516 -2.4594553 2.140124 0.08079616 0.7666123 -3.8399618 -5.4742885 -1.7597766 -3.275479 -2.58399 0.08503211 0.16747075 1.5608548 1.4699767 1.2250963 4.192495 -0.029751047 2.360484 -0.96488017 4.03102
. -3.278094 -1.1715838 -1.5558323 0.873808 -1.5423633 5.1083174 -3.6827378 -0.3981126 -2.8576992 2.699406 1.7681776 -3.7108326 1.0119077 -4.474878 1.1076505 -2.402254 2.5856917 3.4049354 1.951897 -0.97314185
XlXili 6.949533 4.0007567 -3.0819168 1.9158548 1.8931496 -2.8628373 -2.5190637 -2.6091127 3.646036 0.005864058 2.6753616 -0.33830512 1.183214 -3.348585 -0.19804072 1.8072298 3.628751 3.6642182 -1.4916558 -0.7967832
trqlXli 4.3802595 0.75834525 -5.7752724 2.1053684 0.27452174 -8.408666 0.38532123 -3.4328377 2.4202473 2.1759872 3.8258193 -2.3270037 3.2423117 0.35093513 0.5299128 1.4207352 1.3307236 1.7814808 -3.6311157 3.5869086
trq 3.3620884 1.0593413 -5.435202 3.9569967 -0.6366384 -6.4158297 1.1943599 -3.778108 1.9717418 2.4868746 4.6666427 -2.621719 4.2114153 0.09187184 1.3838347 1.3452978 -0.21168919 1.3644496 -4.150361 4.12635
apN -4.089549 0.32994512 1.3999505 -1.1658453 0.7018103 2.4951487 -1.0834849 -0.114731245 3.7200403 3.5865815 -1.9632163 1.9880911 4.668397 0.81131506 -2.6381085 -3.0051355 3.3362439 0.19113335 0.17245525 -0.7017496
keN 3.4004595 1.6390761 6.229652 3.179545 -5.488203 1.943324 4.37641 1.6161637 -3.527447 -0.2939726 5.7983904 0.38818204 1.6976238 1.1732965 0.055666845 0.64991546 3.560238 -5.004408 -1.7414465 -1.6746231
perite 2.1935854 -0.77488464 1.1241119 3.7115135 1.3723048 -5.87077 -4.439088 1.3850149 -0.62126124 -0.22286071 -0.7995971 -1.9368485 5.776816 0.7748288 2.4393926 -4.4474716 -0.31876257 0.18153238 -0.68131405 3.4678197
piSiXekes -2.6812115 3.1997511 3.6658738 -3.77849 -2.6980422 -3.1989238 2.490493 -3.7589808 -0.8003552 1.9490272 2.7618308 -0.9112925 0.17877871 -2.150396 0.79016817 -2.082928 1.1193306 -1.4886794 -2.8782306 -2.990285
teketi -5.0190897 -0.32581937 -4.771538 2.2872865 -3.7962148 -0.16175786 3.8422186 0.09118926 3.262259 1.5172379 2.8264282 0.83225864 2.7364142 1.8489543 2.7231574 3.4091134 4.4944997 -0.543951 -4.6250014 -4.398417
SSEr -1.4926989 -5.8111844 0.91798025 0.2117181 0.21606897 -5.8333015 -2.8461413 -2.7344093 3.2302454 4.8370895 3.356422 -3.5106542 1.5331411 -1.0841893 -0.50662434 -0.790089 -3.846788 1.0274187 -1.1343901 1.068578
adblis 2.621997 -0.47722426 0.58231294 4.76976 2.216049 -4.721441 -4.464756 1.0862007 -0.58722204 -2.400772 -2.497773 -2.3046343 4.0821548 0.99135244 1.3106923 -1.2002001 0.31547078 0.13973625 -0.8558662 2.2106402
tmdelEwi -0.5519774 -3.2049818 -4.543762 -0.42614096 3.2911453 -1.6067389 -2.4988003 -1.9554015 2.3772302 -1.9127364 2.7262385 -3.9534035 2.4793458 -3.6228006 -1.579203 -0.43679205 6.4588795 -0.6960362 -5.5354295 5.485442
axid -3.461128 -2.6210747 0.6201268 0.13209489 -0.028335653 -2.2986944 -1.8196617 -1.7965459 -4.1283197 -1.6942805 2.2417119 -1.7134343 1.1621479 2.3984528 1.3133891 7.5953484 1.0801631 -0.287425 0.58472234 2.694079
kiN -4.5379624 -2.4637501 1.1388586 0.91634125 0.21378456 -1.3222578 -0.6798202 -1.3084722 -3.8485732 -1.3495667 2.6743107 -1.425369 1.4650499 2.461193 0.66736877 8.087565 2.1761224 -0.83698326 0.82921 2.0968535
nbrlis -5.7927513 -2.2481775 0.17528674 0.5907557 -1.5459164 0.11663373 2.5093346 -0.9175634 -2.45873 -0.7321875 3.372808 -0.8568085 1.9518058 3.7360992 0.40857658 9.103533 2.8831933 -1.2238942 -0.4475952 -0.19566397
belebeltEr -5.955985 -1.9349693 -1.7426013 1.4786832 -3.0669787 0.71479493 4.3839927 -1.0992787 -0.45719445 0.28514242 4.245781 -0.76861465 2.4661756 3.7963634 1.3233917 8.519976 3.5609405 -1.81955 -0.71399367 -1.892941
kditelEwi 1.2794473 -3.1939719 -0.96702987 -0.36421198 -0.9543775 1.6484511 -3.997428 0.12861611 1.3296915 -1.3788829 3.5225654 0.16865441 6.1037073 -4.1479273 -0.11225317 -0.50684166 3.2184198 1.8681645 2.7266593 6.233012
dbretelEwi -2.5908952 1.4141966 4.0376253 -3.715993 -3.35615 -1.8222805 1.0024234 -5.1084943 -0.17549323 2.258207 1.7050552 -1.3349905 0.6011611 -2.4214268 0.60311353 -1.7431993 3.526089 -1.1998769 -1.6644083 -2.9786499
temeykdi -2.8731828 -0.2047177 3.3123667 -2.2219605 -2.4107387 -0.01494507 -0.8683054 -5.8337526 -0.77778304 2.0649407 0.5492027 -2.8574235 0.36720964 -2.9117932 1.0009844 -1.2727171 6.2498736 -1.3830776 -1.2929951 -2.7317636
.....aSrli -1.6579418 0.47154152 -3.8793237 4.6998982 0.24795724 2.964315 -4.374305 -1.1768863 -6.1984644 2.5819016 1.4763186 -2.4540207 -0.21622041 -1.4643409 2.1993303 1.3732384 2.946638 2.3741763 1.928016 0.875424
pSixrkes -2.3256307 2.520353 1.8143973 -3.0051692 -1.9415847 -3.1978724 1.5866828 -0.8149818 -1.2881117 0.9098212 2.6024675 2.5057955 -0.5312523 -0.74408406 0.8581266 -1.0368267 -1.6821493 0.31875357 -3.8743975 -2.0379477
tetelitreli 4.9805613 2.312078 -3.7452116 2.4205143 1.2012476 -3.0693758 -2.0774813 -2.0625436 3.6956162 -0.75634795 2.6630766 1.1165324 0.35330817 -1.827627 1.2483188 2.384332 1.7510062 2.2743163 -1.4527013 0.37323043
tereke 3.7764726 1.0025328 0.4510072 2.2414181 2.3806937 3.5257678 -2.834131 -0.25341645 6.537589 1.0751941 -2.7961495 6.744043 2.6090705 1.3753204 -3.741443 -1.7755167 6.348748 -1.4782604 0.40436718 -0.54131836
Sklw 5.9526615 2.0066469 0.26487747 2.8550746 2.021666 2.795921 -4.427204 0.022060176 5.7535152 0.81667966 -2.2926884 5.8656173 1.7379788 0.9144448 -2.98183 -1.1230505 5.8223953 -0.34778035 0.059341583 -1.1235025
weXEke 7.252482 2.9112194 0.70662886 2.4745603 2.2212574 0.9125963 -4.0869465 0.16001381 4.9959993 -0.13744752 -1.4278748 4.8605475 0.5319956 -0.7840708 -2.7417855 0.023794552 5.5544395 0.20331068 1.6648117 -2.2475355
Xt.temeylX 7.071084 3.991664 0.13068095 2.1685297 1.0018806 -0.11170999 -3.640981 -0.40189552 4.474546 -1.561819 0.22584525 3.3040576 0.10100484 -2.6731815 -1.9869983 2.1550984 4.9210014 2.1202505 0.34877524 -1.8255737
lqEye -3.947104 0.12002663 1.2834206 -1.316825 -1.6191398 3.2739663 -4.1293736 -3.101381 -3.455513 0.26819032 -0.597294 -4.4591384 -0.957031 -2.7295697 1.6117814 -0.11535554 7.66151 0.28740165 2.5854542 -3.1592064
StelEwi -2.7452605 -0.4857234 2.8572197 -1.8777214 -2.5917492 0.5018805 -2.539935 -5.19023 -0.7617836 1.220314 -0.40263993 -3.5518079 0.058406398 -2.50456 1.4912121 -1.3628598 6.595159 -1.0814614 -0.07324271 -2.701073
temeylX..qEye -1.0942799 0.5495109 -3.4696808 4.894789 0.4227233 3.3299842 -3.3150113 -2.1957417 -6.529769 3.595322 0.73606855 -2.2277493 -0.33589435 -0.45125282 1.8507198 -0.21804838 3.110491 0.76040703 -0.5013225 0.17814356
mteli 2.9015882 2.369616 -4.131822 5.6594543 -0.13051306 -6.6157804 1.617695 -2.7021616 -0.24737044 3.4398727 3.0648744 -1.8809221 3.3530514 0.35364154 1.5450352 0.66532683 -1.3536013 0.9495676 -4.6928754 1.4971465
peleklia 0.69085646 1.1508058 -2.1307151 5.9387665 0.12184358 1.4824766 -0.43501604 -1.7910753 -7.4460635 5.0413575 -1.3547809 -1.7794129 2.7952118 1.3130528 -1.664617 -0.5028812 2.7045224 -1.0276258 -3.3440177 -0.78732693
prSn 1.4035181 1.3619349 -1.0742797 5.6886687 -0.72346336 -0.13560195 0.07395519 -2.1210792 -6.9593735 5.607757 -0.4556379 -2.3437693 3.813471 1.5754049 -1.2150292 -0.66120905 2.2193325 -1.0504622 -4.127241 -0.7062323
lXlEwi 1.5968854 1.7026563 -1.6127914 5.8247223 -0.5784428 -1.1334819 1.498656 -2.1539195 -5.456408 4.8916864 0.23339479 -2.1794627 3.8331714 1.6457212 -1.1008672 -0.33997566 1.798651 -1.1271331 -4.673304 -0.40478793
yiwl..wi -3.1279652 -1.2140664 -2.6223717 1.3258679 -1.2270628 4.5345917 -4.2851896 -1.1545205 -4.9740024 0.95652974 1.3060035 -2.9905279 -1.0454674 -2.7157514 2.4706275 0.40387744 5.942114 2.8425841 3.8027263 -1.4520742
tmeylX 3.8304183 2.0689244 -4.1525273 2.4183805 0.68059 -5.6730285 -1.3960608 -1.7442728 2.6061609 0.35294574 3.0204592 -0.7649898 1.0674647 -1.6323401 0.9549752 2.069219 0.3296847 2.8425488 -2.2598872 1.3368906
abesye 2.1001775 2.0813556 -2.7800446 6.0833774 -0.071293265 -5.3844275 1.5715724 -3.0801175 -1.8989161 3.9824286 2.7333417 -2.4002485 3.7397814 1.1141882 0.42194748 1.1956851 -1.237781 0.27502573 -5.3065944 1.3350182
mrxeli -1.8404473 -0.63875014 -4.3333793 4.190502 -0.37573206 4.5096574 -4.665611 -0.6962573 -5.9321527 2.0525606 1.4066516 -2.2957754 -1.1915503 -1.9907407 2.648876 0.48007244 4.1979814 2.5281549 2.5323272 -0.10910675
kwt. -3.8323572 0.03384173 -1.6417972 -0.046445467 -1.6359063 3.5833158 -4.2347727 -1.8384029 -3.6332335 0.62212807 0.5017302 -3.8126676 -0.36771506 -2.6983323 2.8341625 0.50208986 6.170234 2.222386 3.0288985 -2.1244256
akdiye -0.60007435 0.5584222 -0.08741224 0.7059805 1.1090804 1.6589903 0.4710195 -0.6043993 4.3142705 3.039849 -0.95433366 3.6781292 3.6111948 1.3999255 -1.2545758 -2.705969 2.360194 -1.812016 1.3851943 -0.5575617
widelXye -4.322142 0.23037915 1.1340843 -0.56669724 1.3084447 0.84288335 0.5102895 0.38735956 2.1316686 2.920249 0.24306564 1.4456464 4.243873 -0.14002228 0.7603474 -3.078467 0.75921804 0.54251164 1.310956 -1.4565315
bekelXye -1.9171482 -0.5988001 0.54126334 -0.77362984 -1.6420538 1.2753922 -0.21304949 -3.241748 -0.21248963 1.0169853 0.39785287 -2.3256 0.4468495 -1.7209872 2.3785198 -0.87859035 3.6008534 -1.5076758 2.0397463 -2.7770085
apelEye 4.1545415 1.6561079 -1.7063954 1.5423067 1.0297798 -0.5208142 -0.13142422 -0.7804316 3.1938796 0.015997631 1.7419285 2.1257749 0.21091272 -1.5954223 0.6186178 0.5085049 0.72631085 0.3956545 1.0575815 -1.7525934
pXEye 0.1014105 0.7471792 -2.1045482 3.9573815 -0.029969545 1.6737179 0.9839778 -0.9942268 -4.194481 3.90267 0.62684256 -0.9586733 1.1013478 0.18309288 0.5725214 -0.8295188 0.95595354 -0.81544083 0.056630675 -1.4061173
tebwe 2.732393 -3.0336447 1.6560769 4.171254 2.246346 4.037042 3.3760574 3.1013467 0.26246166 -2.8481798 4.1385937 -0.72915757 0.17617026 -1.6325687 -3.7975028 1.9745823 -0.43184724 -1.604018 -5.6590686 -2.2542138
xe 1.0610297 -4.4046183 1.9354935 5.4821978 -0.46432745 0.7158046 6.6991677 4.0509295 -2.8743608 -3.3168716 3.9862602 0.5548405 0.57449603 3.6103446 -3.2357924 5.7281375 0.64372116 -4.895412 -2.4757757 -1.1176419
2 -0.7726214 4.8300276 4.2823443 1.1178269 0.12729824 1.0262622 4.2347627 1.2134925 -3.1930401 -1.5973264 4.846155 -3.2038698 -0.3318379 -0.9182945 1.4025155 -0.7732434 3.3029134 -5.5646377 -2.9698246 -2.2545369
dE 2.6048188 2.4156826 5.371219 0.71842426 -3.962924 0.17775957 2.439932 0.914803 -4.0687504 -2.022123 4.1059785 -3.5859277 1.1437892 -0.51125574 1.4859039 -0.14683938 4.1035357 -5.066476 1.9153199 -1.6222066
ate -3.1558158 -0.0014650386 2.660237 -6.096117 0.87646115 -0.6091432 -2.0721135 1.2968093 -0.34136897 0.19430935 6.321961 2.143409 0.81072 -2.1373737 5.3059764 -3.2142563 -0.6218211 0.114892274 0.007038701 1.5235857
mlElEwi 0.2954901 -0.79179937 1.523915 1.9081813 -2.1567717 1.1499234 -0.4899786 -2.8149366 2.6782224 0.28351954 4.892627 2.1513689 0.8467608 -3.6016016 5.367261 -2.5718355 0.2958395 -0.54961956 4.9218073 1.9079608
Nqeli -5.410033 3.8090992 2.5623457 -0.11015074 -0.93418974 1.0428375 2.2876189 4.5391607 0.20250763 0.38399905 3.7831318 -2.2321117 1.8338073 2.6703432 2.1168776 1.6407447 -3.375589 1.8248825 0.6595801 -5.0796404
terikeli -1.930185 0.23034468 2.758684 2.8460128 3.8954582 1.4049734 -2.400542 0.8435553 0.8651415 3.9707346 -2.3421924 1.8983845 2.9262583 -1.4592781 -4.2310243 -5.555789 -0.159817 -2.3211129 -1.0824804 0.79763556
SSimete -2.0210333 -1.5896128 -5.8720818 -0.7740922 2.3479192 0.23009022 -7.5219884 1.7162327 -2.8359985 4.424119 -2.6529694 1.0156521 -0.62481236 0.7626663 -2.384449 -2.3754103 1.1765994 0.46702364 -4.479144 0.19222963
yed -3.361925 -0.9580691 -3.5162785 2.493587 -3.0656872 -1.5827372 1.1972141 0.27491286 4.321756 0.86934423 1.9266521 1.3607049 2.6040106 -0.11017498 3.6695058 -1.1401978 3.6957753 -0.25812823 -6.7633076 -3.7216992
mnE 0.73018515 -2.9640167 1.382115 0.5541179 -1.3850455 2.1937573 -3.6103125 0.944812 1.1721631 -2.0647993 1.8569542 -0.84872633 5.7587166 -1.9211684 1.1818218 0.28620642 3.167016 0.97662836 6.3420906 3.0151422
tlt -3.1917045 -0.6526426 -3.355816 1.6935731 -2.794831 -1.975812 1.0210849 0.1615461 4.227042 0.5700268 1.7988156 1.3520589 1.9379126 -1.4028473 4.0380015 -1.744761 3.036491 -0.5008472 -6.2162514 -3.41946
qEleb -1.9660672 -2.0633368 1.1568538 -1.8073182 1.0395257 -4.196538 2.8910143 -3.2983031 1.0514591 3.4502785 4.2402325 0.4438121 1.1852248 -1.7397716 2.5781028 1.1904111 1.034738 -1.9486696 3.9067397 -2.749027
mrs -2.3844264 -2.5478961 1.697417 -3.1502163 0.47377592 -4.1359515 3.316279 -2.9093122 1.0224918 2.4600575 5.9456744 1.463074 0.107431486 -3.0994244 2.969745 0.5374502 -0.22436659 -3.081473 2.6236064 -1.5082645
diket -2.4905803 -0.4056518 2.7394357 -2.6347866 2.8084989 2.2108243 -4.48199 1.1713507 -2.7341917 2.0752108 3.1142468 1.731167 3.1949809 3.616966 5.6221523 -2.689727 1.0542324 1.8889222 0.9538444 0.62289864
kdiyEsmli -1.7454157 0.57829654 5.118442 6.6870394 1.3377317 1.1680346 2.6735878 -2.3685522 -0.8378708 0.5379336 3.8324893 2.7963433 2.3190649 1.9185848 2.7191458 2.592862 -1.7037652 1.5513684 -2.5117064 -1.2995201
16 -2.7956126 -0.7277897 -2.4617975 0.54530287 -2.4511604 -1.9597512 1.0117693 -0.1701094 3.6619189 0.66566086 2.8729775 1.9148417 0.94096005 -2.8196394 4.1775584 -3.0915642 2.6233935 -1.0896432 -5.701325 -2.820501
bi -0.07461591 -0.76999 1.6820256 2.3271606 -1.5211419 1.345452 0.65993726 -1.1335012 2.961142 -0.4747961 5.849622 2.863729 -1.2597073 -3.739393 4.4280715 -2.3254192 -0.00042809822 -1.3461777 2.932596 0.22392674
Ames -1.6776819 0.003839882 -0.9374725 -0.08785303 1.423998 -1.7837684 1.7377679 -1.6712016 0.46055445 2.0847888 2.9845982 -0.97545165 0.6127465 -1.0501662 0.91197705 3.6135232 5.481524 0.11674661 4.806564 -3.4414408
dEtlxe -3.998957 1.0410583 2.325386 -5.7317595 2.1800146 0.32248122 -3.893669 2.567254 -1.21933 0.24396189 5.2379456 1.9942973 1.6467712 -0.032308947 6.081545 -2.9444754 0.30877125 1.714832 0.54689306 1.2724172
kdiqEreye -1.7982227 -0.795119 3.6659722 -0.7881007 4.8176265 3.557648 -1.879379 0.22531489 2.225528 5.0771933 5.7342978 -3.3737996 -3.4842954 0.9343472 -3.3779442 2.5984128 -0.9494258 1.6567584 1.1606951 -2.3595908
A..tEwi -1.1049522 -3.2247164 -1.0882856 1.6943413 1.8668416 -3.3479195 0.96579564 2.6071599 0.75422484 0.7418947 2.55697 4.795795 1.8963364 2.992561 2.7082527 -2.0390573 -3.4639845 -3.5753644 -0.71404296 1.7992067
...rEskl -1.6576704 -2.3537068 -0.38743007 1.2535704 1.499969 -2.8378458 1.6530418 3.90689 0.7752926 1.374871 2.2114868 4.108774 3.1553283 3.3531756 1.5596149 -2.9005268 -4.080679 -3.9381158 -1.2633877 1.8637885
abryeterikelEwi -1.9291769 -4.242272 -1.0047435 -1.306594 4.9195333 1.8528587 -1.0782949 -0.8225802 1.2726992 3.7334127 5.126576 -5.417109 -2.1017172 -3.1945786 -3.6963203 1.1824956 1.8323988 0.13078478 -1.2057754 -1.0131115
antxSxslis -0.86266947 -4.176505 -1.8366195 2.089667 2.0074954 -4.3089824 0.37758884 1.4347148 0.52913797 -0.5367954 2.8891125 5.3714523 0.11008662 2.7100809 4.64682 -0.9207595 -3.2811184 -3.784761 -0.12545694 1.9170907
qE....eyetdxelEwi -2.4773326 -2.3573506 -0.41162834 0.9468937 1.1472088 -1.2649846 2.3020077 3.8761127 1.6016003 1.398173 1.9375937 3.5542428 4.05772 3.9550138 1.2820877 -3.7681909 -3.556537 -3.9483037 -2.0422618 0.99047524
SlEtey -2.5499442 -6.386364 -3.3724751 -1.4384389 5.3939004 0.18143028 -0.62989813 -0.34792602 0.9216563 2.120078 5.293126 -5.8205557 -0.69290006 -3.7440581 -3.5765917 1.0510956 3.410834 -0.8392253 -3.2593844 0.39726326
qEwiPtsnye -3.6887531 -2.7934964 1.70873 0.20178151 1.401669 -2.9002767 3.2685032 3.047229 2.6675148 2.163837 2.4929755 1.8445265 4.953541 3.705053 0.59597296 -3.3609397 -4.7082553 -4.492351 -2.1240869 0.18888798
Seriqetrri -1.0894768 1.2485317 4.2812448 0.9863885 4.471045 3.467015 -1.4055237 0.7346504 2.2794132 4.0207467 5.433399 -2.352872 -3.0937798 2.362839 -2.9789243 3.7535138 -0.89690584 1.782844 0.55989593 -2.1568518
pEqe -3.6783078 1.019941 2.4898784 -6.3129625 1.556376 0.1353303 -3.028128 2.1335442 -1.0103377 0.23600982 5.9217896 2.1014886 1.2163421 -1.2616761 5.7842436 -3.3306668 -0.3070809 1.0521233 0.5179587 1.2605578
mrbqE 0.54659915 -2.9347494 -1.8918254 -0.13775614 0.746632 -0.6604903 -5.524373 -0.23273015 -0.29495838 -1.8534153 0.5660355 -1.7940427 3.700217 -1.8229166 -0.9167293 0.75831467 3.197813 1.4864634 -1.6690127 5.365223
.1(?) -3.8496044 -1.237484 -1.6790504 1.5376279 -2.6521451 1.0784553 4.2775807 0.0918434 0.020659566 -0.13127582 3.9612677 -0.7186088 1.8650309 2.6340544 0.101973765 6.099207 2.219373 -1.805483 -2.5103116 -1.2692047
bSxrkes -1.0761274 -0.507041 1.1839452 -2.676678 -1.4480721 -0.8826528 -0.01240105 -0.5005011 0.5410244 -1.0981884 4.0647073 1.8843737 -1.4683684 -3.331616 2.4530218 -2.904387 -0.35913774 -1.6297164 -2.6772041 0.33385986
SXekes -1.6906296 -0.8040396 -0.44163662 -1.2361951 -2.147624 -2.4105692 0.6001861 0.1405362 2.670255 0.08281749 3.5993454 2.0798411 0.4810011 -3.4604545 3.7686946 -4.7471795 1.100108 -1.5506313 -5.0999074 -1.9653533
yikidbitelEwi -2.3857703 -0.7867105 -1.4976574 -0.54440325 -1.9859607 -2.2722754 0.5733291 -0.41799036 3.6097069 0.18358107 3.5676222 2.2801476 0.37129945 -3.8507833 4.290354 -4.0260406 1.8414774 -1.0535501 -5.7069373 -1.879578
59 -4.3321104 -0.42041755 -3.7620966 2.569359 -3.139435 -1.0586368 0.9273879 0.52652067 3.9596577 0.40348506 1.4939061 1.3521078 2.7332969 0.9685763 3.2883906 0.5839002 3.7771065 0.5676397 -6.740962 -3.4457757
1(?) -3.394271 -0.72626126 -2.9047139 1.7047102 -3.5147874 1.3901898 4.365534 0.0058176955 1.6926999 0.75222903 3.3451016 -0.13117306 2.2438533 2.5701349 0.67639965 3.860134 2.5096095 -1.8192946 -4.391275 -2.457792
bXeyedlis -3.522834 -0.5568565 -2.4251182 1.4425428 -3.2797914 1.5308074 4.6485324 0.3668548 0.7507085 0.2585482 3.9468846 -0.5844195 1.9925201 2.5854132 -0.04669023 4.9483204 2.5596051 -2.0039814 -3.2788167 -1.8586649
kiSrisqtile -4.0717726 -2.2739193 0.23951575 0.6564117 -0.9282256 -0.39279228 1.5052093 -0.770327 -2.7844203 -1.5038731 3.3033037 -1.4075117 1.0812278 2.3849332 0.1252216 7.6543064 1.6120352 -1.3761281 -0.51189005 1.3090484
atmXe -0.22300866 -1.1419209 1.5011307 1.1907086 -0.7064216 1.0708089 1.1278589 0.62232745 2.3247948 -0.79934555 5.77217 2.839862 -2.9021127 -4.3159213 1.8233147 -2.4602053 0.3626432 -1.2075933 1.3726292 -1.0881001
pelmESlisPQebete. -1.9851934 -2.5790186 0.74492884 1.7568507 2.6729434 -5.2821555 -4.5012937 -1.1203629 -3.7941368 -2.4604454 0.34834227 -1.1406188 2.3273537 2.3200564 2.8122032 3.7171457 -0.69628453 1.2582202 0.50400317 4.3502626
ttNlX -0.71050084 -2.959218 1.0667317 2.5835114 1.851888 -5.725889 -4.2025805 0.33821374 -2.600031 -2.6199367 -0.7014537 -1.8253248 3.255468 2.7309086 2.8764076 1.0329403 -0.46627906 0.49086127 0.124816194 3.5933676
keqye 1.6247504 -1.4767954 0.2451806 6.1296945 2.39323 -4.6805296 -3.983922 1.4221886 1.4764225 0.14296573 -2.6128657 0.5944483 4.5405726 1.6488006 2.0443325 -4.8968487 0.85849506 -1.2503197 -0.29548404 2.9059107
tedxelEwiSESENteleb 1.0181329 -0.39003313 0.34376538 5.9290414 3.5053654 -2.7702646 -4.7953806 0.317956 1.5132089 1.806524 -3.4239917 2.5741692 3.6825302 0.31517562 -0.27360505 -5.205767 1.1999851 -2.116102 -0.8841031 3.472406
tMeye -1.1668857 0.8181338 3.6605303 2.755133 4.0526032 1.5295486 0.80792 1.8006283 0.2930063 4.8792214 0.7595941 1.035719 3.7608976 -2.3485522 -5.4411054 -3.4810936 -1.3420063 -0.81668824 0.39684463 -1.0117087
SEriwetrri -1.276402 0.7670142 3.931502 3.3110173 3.1513097 2.4452586 1.2700728 3.7554972 -1.0276501 3.667136 1.7422584 0.19513087 3.2103052 -1.2446378 -4.9112587 -1.9951819 -2.3808544 -0.08401255 0.31061074 -1.6569225
biSixrkes 0.046795335 -1.4914591 0.81472236 1.3390645 -0.55590945 1.5315654 1.562204 1.4908664 1.9051619 -1.5767817 5.476446 2.7903025 -3.6178396 -3.8133724 0.7243266 -1.5147784 0.31964287 -0.7958967 0.34287935 -1.4590386
SiXekes -0.37483823 -1.0054684 1.5949073 1.7597797 -1.1571708 1.8318331 1.0133822 -0.45901573 2.4670389 -0.30443928 6.0828495 2.6718526 -1.9434953 -4.1415267 3.0354507 -2.4142172 0.19073671 -1.0435798 1.9375317 -0.40255722
mlitEwi..ASEre. -1.8694857 -4.2950745 2.4520361 -0.50671047 0.826396 -6.366814 0.9259682 -0.9440579 2.2442703 4.4282107 4.5441623 -3.1087897 2.9661498 1.3274868 0.40826508 -0.96632797 -5.5102215 -0.61586934 -0.717967 0.41334054
knmre -0.28019667 0.48401484 5.3449044 6.4896536 0.59417284 1.011526 2.2866282 -3.686642 -0.43730775 0.60690856 4.2331357 2.4498105 3.5336509 2.2252436 3.8363166 1.7005554 -0.34268203 1.5662229 -2.698173 -0.7464742
kditeqebetEwi 0.9889437 -1.9951943 2.4510455 2.0548017 -1.2219347 2.5026991 -1.7471097 0.79853064 1.2651892 -0.8959744 2.6209083 -0.43699202 5.814163 -0.7313288 2.5646348 -0.20096232 2.9126394 -0.08701269 7.010335 1.7894739
mns -1.5163492 -5.414346 1.4189844 -0.17072386 0.5922454 -6.0342574 -0.850093 -1.5866623 2.4078774 4.4714665 3.8554547 -3.862727 2.3448362 1.2626951 -0.17760636 -0.40787265 -4.9656353 0.1425538 -1.3281304 1.0293877
SteaqebetEwi 0.20658627 -0.5190262 3.8634837 3.9263263 -0.5956745 2.2415028 -0.33374557 -1.4173589 0.98538744 0.0043798108 2.7413106 0.5356529 4.7720156 1.2881099 4.6206465 0.088950306 1.5897541 -0.4750191 5.1307564 -0.026816783
tmNte 0.33572054 0.4425807 4.389884 4.9582176 -0.7251362 1.3676525 0.028023308 -3.103149 1.0389049 0.13293932 2.813608 1.2260462 4.749875 2.3390424 5.4212556 0.381225 0.63630337 0.5402567 2.8300376 -0.3732892
brmeteyetmdelEwi -0.17642121 0.6267161 4.4803085 5.1525774 -0.2666393 0.8836829 0.8591347 -3.588055 0.3823047 0.4141014 3.1851137 1.6916082 4.6818147 2.1978693 5.479482 0.12810285 0.7041874 0.7673942 0.9633396 -0.4042058
.d 0.022036204 0.78393084 4.3815055 6.079424 -0.18907994 0.452925 1.2368082 -5.0238748 0.517336 0.81262624 4.016123 1.7967916 5.0152555 1.88439 6.162769 0.7211758 0.5196285 1.4879879 -0.47599563 -0.13181998
wretXn -3.8489292 1.4395081 4.2772956 5.7184987 1.2009162 1.686895 3.3897157 0.2975799 -0.5679202 0.29374778 4.159428 1.8992425 2.7308495 -0.039914515 1.2976748 1.856485 -3.3347933 2.0626452 -2.4705212 -1.3417151
pXrsteaxdeye -0.83008516 -3.9757156 -0.2379006 4.196598 -4.3486366 0.070449315 -2.02636 3.0879178 -1.344455 -0.65154 -1.7727832 -1.014638 3.5963898 -2.701942 5.5385046 -6.1196246 5.6544585 -5.520965 2.6280365 -1.8473138
tmNtelEwi -4.6376276 1.9624208 3.6010659 4.6359153 1.7725194 1.5830381 3.6441646 1.6543174 -0.067862384 0.93327 3.9297774 1.0031219 2.7919667 -1.205519 0.35586044 0.6477644 -3.4696443 2.0090756 -1.561991 -1.4881241
antxSxsliteb -1.685959 -4.7556095 -0.21941127 0.7045316 1.8581066 -4.1629643 -4.597805 -2.5755095 2.9095426 5.554716 0.3443593 -4.347547 1.0233356 -0.23878318 -2.7859142 -0.006190077 -3.406248 1.1654418 -0.9380134 0.17357647
mliye -7.013049 1.0026947 -0.33726338 1.6452358 4.8166018 1.0124375 1.9264446 4.0746794 2.735353 2.3964958 1.6856538 -0.98881316 2.5889125 -3.0378554 -3.5514355 -1.666498 -2.1875165 0.47878373 -1.0061167 -0.9584014
kdiqErEyetedxelEwi -7.967628 1.0098468 -1.5330385 0.95365405 5.6460853 0.07340407 0.40555772 3.2522092 4.203529 2.1107247 0.5354853 -1.1515191 2.2317555 -4.0146317 -2.9659672 -2.866446 -0.827572 -0.11219253 -2.0682561 -0.7596642
kttrelebmrebqE -6.695634 -3.744173 -3.0265472 2.3898187 2.6769514 -3.6844745 -0.6806611 4.507707 3.8547926 0.42124426 -0.9303781 0.110715516 2.0466988 -4.7550654 -0.8371174 -3.566366 3.5934107 -4.141181 -2.586364 0.22393943
qErEteb -5.6720233 -4.8635974 -3.11892 2.499886 1.0648636 -3.3989897 -0.9523388 5.308584 2.1636183 0.011794631 -1.3875474 0.8157517 2.1007278 -4.318244 -0.083955094 -3.789222 4.6063237 -5.5894456 -2.580423 -0.48226026
yirEXetelEwi -2.924377 0.977088 4.8246346 6.22789 1.0223256 1.6857892 3.021418 -1.3467566 -0.85251236 0.32209012 3.995305 3.0527 2.2135391 1.2859969 1.8369243 2.683559 -2.6863813 1.9734782 -2.8279817 -1.4542831
pXEmeye -2.8643308 -2.3664863 3.112888 0.22937231 1.0975639 -4.768329 3.0053084 1.910102 2.818366 3.079243 3.2941027 0.77757347 4.6292653 3.4662268 0.67022485 -2.7431974 -5.1921096 -3.4405966 -1.6791011 0.2900071
bSixrbxes -1.9306167 0.14412448 2.1849504 -6.511007 0.96165746 -2.1058993 -0.92716616 0.23047996 -0.5107968 0.9214036 7.0374103 1.7037975 0.50429624 -2.2524872 5.3692355 -3.1785123 -1.2116865 -0.9709263 0.14740314 1.0290715
yikidbitemlE -2.1292396 -2.241815 1.1395628 -2.8793108 0.35862577 -4.2510962 3.560251 -3.1912427 1.0162824 3.0741735 5.203522 0.9766383 0.35506693 -2.53636 2.5484066 0.5466723 0.7386958 -2.3762183 2.9568596 -2.382712
XSxslis 0.39531174 -3.068023 -2.1606913 -0.78174204 4.774221 -2.5929558 -2.140398 0.09404695 -0.27270797 -3.1234748 -0.34513578 -0.81470644 2.7005787 1.2597704 3.525341 2.6571903 -2.9850452 -0.7175703 3.1667712 -1.020754
tereqebxeli -0.874533 -1.3608286 2.2976465 -0.3697752 1.4220177 2.24452 -3.3801131 -0.05238052 -3.0554736 2.0030682 1.637635 1.262954 3.034311 4.3605895 3.8617294 -1.5033549 1.0608363 1.463384 0.1869715 -0.0274518
awSE...teli -1.7665582 -0.9723208 2.8791718 -0.68875974 1.5130757 2.6493404 -4.0835247 0.4489001 -2.556385 1.5341233 1.7889102 1.063007 3.1474397 4.485917 4.967574 -2.159595 0.66643816 1.3005617 0.14040016 -0.29639646
Srireqetelis -2.5955482 -0.3983397 2.4434907 -1.5214753 1.9842257 2.3876834 -4.340439 0.6410818 -2.4221847 1.7616804 2.0537684 1.2158014 3.4843216 4.1191926 5.6421165 -2.42058 0.9139282 1.6247026 0.4977823 -0.2016065
krErEli 0.15316224 -1.6360074 -2.412849 -0.45018783 4.920168 -0.6896833 -2.3144846 0.46686986 -0.08271671 -2.3281205 -0.8012726 -1.5581743 3.7819302 1.0281346 2.2039263 3.4073286 -1.398964 0.06315752 3.2363396 -2.013419
bSiXebxes -1.7639346 -2.1998022 1.8203388 -5.764022 0.28821254 -3.8087518 2.3679495 -2.3615894 0.19743656 1.8104646 7.081315 1.62724 0.10239042 -3.2921236 3.4993708 -1.9370419 -0.48687214 -2.664506 1.0460681 0.052261535
bSitkbxes -3.2777185 0.915218 2.1703136 -4.503595 2.857378 1.2958225 -4.6175528 2.1407328 -1.8418311 0.91723067 4.831866 1.8382607 2.3194158 1.4642048 6.4148116 -2.4946027 0.87863284 1.856677 1.2542953 1.3996347
yetekelEwi 0.82208633 -2.3917003 1.7363145 0.3390731 0.78834945 1.8299729 -2.1104615 -1.2505763 -3.5524647 1.8679453 1.6676797 -0.16214962 2.1194572 4.3384776 2.8935976 -1.6998498 1.7349958 0.20159054 -1.2383319 -0.16344738
aspestEli -0.7343714 0.34654263 -1.3977537 3.6367955 1.5406392 0.07943922 1.0340543 0.93839765 0.27014387 0.7699742 1.5142397 -2.7434306 0.28242004 1.0693393 0.36887604 4.8795123 6.315804 -0.68990546 5.4403076 -4.8618283
amElX 0.4146679 -3.3079576 -2.57851 -0.7747844 3.6196103 -3.2634983 -1.2151985 -0.13992637 -0.060043365 -3.124587 0.6841449 -0.3355403 2.9738429 1.3302566 4.6713505 2.6155457 -3.39727 -0.7127521 3.4498227 -0.6477145
areqis 0.6705555 0.9031649 -2.822463 2.9899685 3.3108807 1.7561271 -1.3393449 1.9446745 -0.34877792 -1.0910277 -0.42351636 -3.117659 2.333887 1.630529 1.1468714 3.9654434 3.1666458 0.1985449 4.594612 -3.956603
a..kye -1.6862861 -1.668368 0.74033797 -0.6244509 1.3195035 -3.850534 2.894948 -3.2751853 0.89998037 3.318654 3.8780053 0.040574178 0.7699997 -1.1822753 2.4993896 2.1766322 2.2506223 -1.6880926 4.427318 -2.9305089
nni 0.26139182 -4.201812 -2.4573865 1.5560058 1.3767312 -4.7727556 -0.70479715 1.0883797 0.47204792 -1.8590542 2.4181373 3.7654061 0.8291919 2.2089639 5.472516 0.44056195 -2.9657533 -2.2325034 0.5939774 1.478323
teter 1.2560965 -3.7927978 -2.1756854 0.44931948 2.5672483 -4.8151245 -1.0899309 0.31014344 -0.64783627 -3.4077694 2.5423355 2.0339422 1.4435054 1.3707744 6.1629524 1.9757004 -3.280391 -1.2603972 2.280387 0.76788145
yiqrekye -0.34786195 0.5267407 1.153189 1.9732846 2.5116193 0.77111983 0.57413566 0.51536465 0.9587495 3.4441016 0.14739704 1.863619 2.572808 -1.1793925 -2.6589057 -3.0184767 -0.715222 -1.8376968 0.755095 -0.08715937
sqtike 0.35951465 -1.5509049 0.06915111 2.0543244 0.47973192 -2.9877424 -0.7213332 0.58391196 -0.3702632 -0.5170959 0.20946425 -0.72642976 2.0373945 0.9938493 2.57921 -1.3972132 -1.1259611 -1.1662664 1.1928562 1.2188733
ptsnEye -2.5080197 -0.77431166 -0.13944519 0.39362636 0.9984777 -0.48677883 -0.22060484 0.9321206 1.8677791 3.5800912 -0.981528 -1.4402971 0.9397515 -0.13256986 -4.1628814 0.0010892728 -2.5279374 0.18731837 -0.10121254 -2.7692635
kditrye -0.14761367 -0.108811565 0.01636831 2.8506725 2.0832326 -0.07288267 -0.73657423 0.32938108 1.0255882 2.918674 -0.90321165 1.9225882 2.1053522 -1.0368825 -0.99074996 -4.05916 -0.29711294 -2.4260876 0.96496314 0.93279123
styeSiye -5.0012774 0.28292117 -2.3907983 1.1719673 2.5121434 -0.68033576 1.8677192 1.5622414 3.8110154 1.8244275 1.1578931 -0.24959949 1.1800325 -2.31508 -0.08207494 -2.7486103 0.3719598 -1.6428187 -0.83091086 -0.7644027
pedeqinye -1.1418775 -0.77832144 0.53035223 -0.36845422 3.2396493 2.3611524 0.73967516 -0.18958631 2.2119093 3.5738826 4.739347 -1.1072581 -1.6574126 -0.18797562 -0.58406407 0.7767702 -0.21117777 -0.08182472 1.552862 -1.7433753
tyekibxEye -2.2457945 -1.3787515 -1.3196236 0.3654459 0.27150676 -1.1351045 -1.9576241 -0.6769402 1.8836429 3.9142907 -1.4122683 -2.0525293 0.55475754 -0.18244869 -3.2021434 -0.32272035 -2.3194287 0.15178432 -0.3789345 -1.4050524
beliye 0.6071985 -1.5802794 -1.9423023 -0.25846627 2.6212094 -0.50532424 0.71592975 -0.26224077 0.54735035 -0.9282369 0.600688 -0.51337165 2.0203433 0.650373 2.2913318 0.7125591 -2.1154525 -1.3038497 2.767918 -1.6480515
Xdeximeye -2.5001462 -1.1192278 -0.7927153 0.6334169 0.8414805 -0.8406584 -1.0860071 0.4248565 1.5559322 3.7700696 -1.5438131 -1.2034286 0.62978625 0.18684806 -3.5707963 -0.04155693 -2.5496855 -0.3068053 -0.396611 -2.4984918
x.lEnk 0.22751221 -2.4934194 -1.9492751 -0.60230404 0.3454266 -0.4417693 -1.8277166 -0.48796 0.6585532 -0.6760999 1.1766196 -0.9812102 1.8508546 -1.3915493 0.17631742 -0.6201552 1.4089925 -0.1488965 -0.5067918 2.7846844
bEqterel 0.44287026 -2.4763544 -1.4103289 -0.31740004 0.38145372 0.43323085 -1.8919487 -0.069527276 0.719799 -0.3581681 1.3662101 -0.015118194 2.6499293 -1.2934433 -0.40026617 -0.33290917 1.7191257 0.2552545 1.5903993 3.104002
mkesmeN -1.1810918 -1.5225993 -0.29037005 0.31838557 0.3006618 -1.3695028 0.19952986 -1.1894693 -1.676934 -0.22347997 2.1313143 -0.44670764 0.38239586 1.190199 1.8134122 2.6305213 -0.6101439 -1.1296872 1.3888324 1.4293724
pelmES 1.4055113 0.31340766 1.1973168 1.8817085 2.3851862 -0.13332674 -3.6568086 2.8765638 2.46838 0.27639776 -3.210175 -1.2020968 1.1575562 2.6010818 -3.586522 -2.49512 3.1138837 -1.7690653 -1.2406138 0.7171429
bs 5.806268 -4.520988 -2.2558906 1.9531245 0.45290485 0.31887814 1.9843714 4.224229 0.21269372 -3.0061812 3.6574254 -2.9135787 -0.1241104 3.8340147 -0.17276464 1.3774161 2.4976692 -1.4169562 -0.8643787 -1.0945302
pilqe 0.60120416 -1.0067797 1.8841164 2.6188185 1.9513198 0.39969966 4.6785765 3.2414956 -2.2725763 -1.0447289 4.130936 -0.12199974 -0.39904347 1.902532 -0.19242175 -1.1759921 1.0168056 -2.216631 -5.8012524 -0.89002055
SE -1.6200923 3.0989954 1.9086989 2.1252656 0.03690652 1.8870199 3.2707703 3.480062 -3.5504627 -2.426403 4.239883 -6.2387857 -1.4973627 0.13494647 1.2663144 2.1980755 -0.0360671 4.0991373 -0.9928948 -6.327986
5 2.893665 -0.660198 2.9708326 -2.0788782 -4.5631075 0.9728078 -0.39148986 0.68749833 -4.145341 -0.9914209 2.206532 -2.980981 2.4558797 2.530092 -0.94426566 0.3037039 4.0183578 -2.931289 0.4111061 1.0207317
aSEri 4.188529 -7.1998105 1.6053627 2.800621 -3.4225733 -0.6741953 0.045192104 3.051446 -0.05574123 -1.0358611 4.068927 -1.3106974 -0.7059085 1.2570411 0.35674098 -2.48657 0.8559978 -0.9419316 -5.0130157 -2.4952776
mlEqErebr -0.30742252 -1.8398176 2.722224 -3.2722137 0.44744715 0.30172306 2.7887087 0.6164373 -0.37037355 -5.6183805 0.94627124 -1.7906939 0.06248298 0.42644632 -3.0847418 1.710507 1.0677127 0.22389087 1.1248454 0.4196503
tewisti 0.07326895 -1.9699458 2.5810723 -2.1175303 -2.8074396 -0.83982325 -0.7095366 0.34404528 -2.5142121 -2.3657176 0.51966697 3.0907955 0.21662267 3.1945786 2.4332778 1.0943046 4.3763804 3.571917 -1.0310621 -2.290584
qer -2.1722598 0.74228966 1.3132309 -0.604763 -1.2387292 -1.051039 -3.4128985 4.95142 -3.5654256 -0.36229822 -1.128919 -1.0996038 1.0948476 2.8064578 0.6300393 -1.3443234 -1.981851 0.9805333 -3.9562156 -2.3462403
yni 1.6631602 -3.4779596 2.073634 5.197564 -1.1589228 1.6873866 0.015694981 2.2126973 -1.9576892 0.6316936 3.8830945 2.2866778 -1.5368991 -0.38925445 0.04547629 -1.5538607 -1.1038512 0.16261216 -5.0914836 -3.4539855
dbrete 5.112427 1.9558979 -3.815106 0.29938793 1.6136339 1.3176111 0.4158701 -2.6932342 0.9347746 0.91646326 2.668329 -4.274238 1.5376109 -1.8602935 -1.0807981 -2.2583756 8.198513 -0.87527156 -3.3919318 -0.16940504
wetNyi -4.6822457 2.888637 2.6694129 -0.73441845 -0.8645327 0.32210916 0.040675756 2.8947256 0.9475477 -0.64975554 2.155908 -1.0393599 0.12607451 2.7027931 2.4918776 2.1907697 -3.4269037 1.2738045 0.9863264 -3.406065
mEkelEwi 0.7989314 -0.04031722 2.3909562 -1.2660668 -0.55029655 -1.2399251 -2.6127377 -0.72218895 -1.8104895 1.2204697 0.06209114 0.7842723 -0.33781505 -1.5205469 -2.162634 0.36289647 0.8913618 1.075011 -0.84171396 -0.57457584
yetere -0.629688 -0.3688818 -2.089965 -0.630683 -0.03533299 -0.44792622 -2.7566018 1.8902999 -1.6725755 1.9252589 -1.4952984 -0.07850846 -1.1751072 1.4613955 -0.6226999 -1.665147 -0.8825398 -0.99852914 -2.2963889 -1.6153874
leb 2.290654 -1.2520515 -0.060236603 1.2510079 0.123747766 -0.09923796 4.169103 2.1561315 -0.35876167 -3.1543982 3.9671097 -3.9095547 -1.759375 0.7595004 0.96552867 -0.98585814 1.4804056 2.178096 -4.2914495 -2.9277515
lw -0.8393458 0.2627372 2.591675 -1.0611801 2.5704114 -0.1360878 -0.06919373 2.2535372 -0.67480004 -3.210406 1.7423036 -5.045385 0.47458804 -3.2904706 -0.53938395 -2.595148 2.7632415 -1.2872078 0.14064766 0.044767573
trEs 2.8510416 -1.4748425 0.6104274 1.4840963 -2.5082238 0.13132665 3.016947 0.7376864 -1.3391838 -1.542322 2.820135 -1.9319952 0.35159582 2.8782206 -0.97828317 3.982519 2.4500186 -3.5279593 0.9701639 -0.30187008
arE 3.2452335 -1.938338 0.00253356 2.053798 -2.820982 0.24761324 2.4269693 0.91923356 -1.1878848 -1.279138 2.5394464 -1.4660479 0.6837695 3.6992774 -0.9221859 4.1757164 2.3313787 -3.1040547 0.46447757 -0.32477328
txe 1.6725898 -4.429264 -0.049826495 2.4530027 1.3012846 -0.21330582 0.60818946 2.3982673 -0.21294232 -0.610122 2.7271078 -1.6494659 -1.5870804 2.9950442 0.5703367 -0.6466895 0.54315436 -0.38030785 -5.4022593 -1.9701997
dxe 0.64022124 -1.838548 3.503218 -1.7146896 -0.9911199 0.21753798 3.450165 1.0390857 0.6318174 -6.127673 1.7772232 -1.2765745 -0.022983309 0.7300176 -1.437883 1.4351261 0.55888385 0.30377743 2.080435 -0.22578785
pe -2.3432465 3.390456 1.1326158 0.6658357 2.3098216 0.42303672 2.9521556 1.5284379 0.9433477 -0.30400735 1.8420204 -1.5841006 -2.3801022 -0.8480836 -2.437632 1.5046232 4.166892 -1.8591424 1.3840084 -3.0583766
10 3.2976506 -0.1946355 3.4905586 1.3366579 -5.2376738 0.77290756 0.9520357 0.6316959 -1.920287 -0.13827276 2.9726608 -0.8224805 1.6797907 1.6810882 0.4780036 0.5894952 2.1801822 -2.2969403 1.2232801 -0.7741654
tbE 3.1683474 -4.63574 1.154873 2.394437 -2.398588 -1.2504263 0.11441782 2.7238798 0.0971559 -1.3782223 2.8641574 -1.1065992 -0.9826072 1.1453468 0.2739702 -1.6992819 1.167079 0.044524692 -5.4688277 -2.4186356
qEris 2.7590907 2.0955954 -1.2696531 -0.017026601 0.37595558 -1.9399118 0.6800415 6.866648 -2.1282532 -1.8006682 2.0870647 -0.049044445 0.5667772 2.1335196 0.19269909 0.066755414 1.8830063 0.41791362 0.42973217 -2.6536174
6 1.5028881 4.5801406 3.1359708 0.15055282 -1.3472852 -0.44021302 1.6549376 0.3892897 -1.7501752 -1.0652689 3.4847267 -2.6136255 1.1194918 -1.2230954 2.4691265 -2.2585506 4.0231676 -3.4192812 0.19248644 -1.1651938
kw 0.04803423 2.2014487 3.1973333 -0.92928314 0.68767405 -0.5158241 -0.3279005 0.24536313 -1.1740199 -2.9832563 2.5817277 -6.2454495 -0.43085375 -3.1402936 1.6495425 -2.9035573 4.132887 -3.0312827 0.28904554 -0.9704061
aSy 5.0740814 -1.9432939 -0.9718811 3.218633 2.2760174 3.1795037 0.9935899 3.5753305 1.9912877 -2.1133554 2.8503497 -1.0353333 0.80084366 -1.1415277 -2.4448798 0.5092372 0.5489374 1.3026607 -2.2929573 -2.4922252
12 0.7447867 4.410921 2.760851 0.9150981 -0.90694356 1.1954795 4.20053 1.2841631 -2.275626 -0.86512023 4.3862696 -0.19244872 0.65860504 0.041154947 1.6799544 -1.0225173 2.4999907 -3.877774 -0.9815217 -0.86173123
mrxe 5.8013234 -1.4121295 -1.8592362 2.071898 2.6056917 1.865114 0.85468507 5.3954387 1.6000295 -2.7607656 3.811436 -1.1761857 0.9903099 -0.3166941 -1.7222903 0.48959762 1.6833881 1.9752835 -0.7345194 -2.184705
pki 0.8051185 -2.386102 1.8039612 3.4677508 3.2421367 2.1775181 1.853313 2.4735003 -1.1985097 -0.021471117 2.773336 0.24010082 -0.7116162 1.5736394 -1.3357466 -0.38844866 -0.46943802 -0.5948161 -5.2876506 -2.1737626
xbxeN 3.8008645 -0.6365961 -1.7196488 -0.8726631 1.9949025 0.04390846 2.503531 7.0214925 0.4071378 -1.9384859 3.9664016 -2.0047052 3.0064638 1.8159342 -2.248122 -0.8100787 2.624009 1.8593236 -0.6005636 -0.4289247
atmi 1.8358114 4.681 3.240343 0.08638949 -1.5652448 0.02955676 2.4720895 0.3873026 -1.9026309 -0.95899147 4.0102386 -1.5750813 1.2666003 -1.0811735 2.4176245 -2.4123735 4.2308393 -3.7331486 0.17096598 -0.65737474
axe 5.6244254 -1.5065255 -1.8392819 2.7962334 2.472972 3.0026586 0.6420632 4.5336156 2.0824955 -2.4830794 3.459467 -1.1767073 1.3106 -0.5977239 -2.168863 0.97675604 1.1564891 2.1015306 -1.1464844 -2.091994
xbxN -1.231596 0.151327 2.8229187 0.039706837 0.37881523 -0.16573587 -0.51830816 4.0699754 -2.1564996 -1.195799 -0.5925828 -2.1022785 3.3257084 2.096215 -1.9155219 0.15569673 -1.5587684 0.5743413 -2.9242976 -0.72302455
aritewil -0.96069044 2.1119514 2.097383 2.2295077 -0.38589737 1.4041477 4.7953305 1.958241 -2.440144 -0.6255329 3.6940124 0.27224547 0.06561554 0.9370173 -0.57532096 1.6610848 0.40002543 -3.611714 -3.1271496 -1.2577726
ri -2.9988952 4.245916 0.85597086 1.4858974 -0.22210424 1.780313 1.864173 3.8790445 -3.5186987 -0.7051844 2.4650233 -5.260257 0.48705396 -0.91996187 -1.2634879 2.6856368 0.77791816 2.2098467 0.77578497 -4.8564973
tdxe -1.111958 0.5710177 2.8054473 -2.005472 0.21839549 -0.91827106 0.116716675 2.6525588 -0.12899463 -3.6932082 0.47213918 -3.198538 2.4443974 0.58942693 -0.98945427 0.073709585 1.1787822 0.6563893 0.07393674 -0.44239601
krErE 0.606453 -1.0630515 1.7692902 0.65625656 -0.42018372 -2.1162255 -2.1710193 0.34863323 -2.2811205 -0.5577316 -1.9960246 1.1319243 0.9842058 0.009565545 0.89843893 -2.657022 0.41312352 0.91814864 -0.30259427 -0.81854844
xbxeNkdi -4.043217 -1.9161894 -0.41554764 0.27389434 1.0363784 1.7009047 -1.4161978 3.3233666 1.2941915 3.3910472 2.4637916 0.3042067 3.9171553 1.3987592 0.82416743 -2.5744135 -2.6637728 1.9858105 0.73531055 0.75601625
qEreN -1.8370456 -5.0433073 -1.4300251 -2.0867925 0.13982263 0.4040984 -2.060732 2.9795434 1.2043058 3.5740306 0.2272836 2.7340157 -0.5455275 1.4384418 -4.888075 -1.8148949 -0.38372514 1.2450407 -2.352785 -1.7280303
pXrste -2.9036243 -2.7833061 3.4614012 1.7172296 0.0591562 -0.5031044 -1.902358 4.5207844 -0.8671312 0.59238285 -2.6925333 -1.4125754 2.8749435 1.5982739 1.1138071 -6.6051397 1.6643927 1.0285643 0.6928745 -2.1391125
plSn -0.17236374 -0.26404545 1.4880887 -1.6747407 -0.8536057 0.049024474 -2.548604 0.32272166 -1.9765754 -0.5041219 -0.26291254 -0.52056974 1.1333351 0.24268211 -1.6229222 0.68121827 1.7075996 0.26315746 -0.9591164 0.7354514
treye -1.1587316 -1.1853735 1.8974296 3.1770077 -0.7917356 -4.779146 -1.8695832 0.03758944 4.0482063 0.36568442 0.67106616 -0.9484004 -1.0101687 -0.39349312 1.9951879 0.11781521 0.86548877 0.19463708 -0.96352786 -3.4314327
krErElEwi -1.4976522 -4.797852 -0.24018237 -2.864447 0.72622794 -0.27188903 -2.448717 2.919595 -0.3526138 1.1819961 0.14147657 1.4344023 -0.7561797 0.2484945 -4.5766726 0.12467207 1.230947 1.3239625 -1.5883101 -1.412075
mlEwi 0.18591942 -1.6533927 2.681421 4.744676 -1.116722 1.834099 0.09017656 2.3564956 -4.5378942 0.8027263 4.2850285 2.4867532 -2.8731856 0.37133974 0.28894386 0.32627293 -1.7036022 -0.33326024 -2.6023574 -3.798629
temeylX 1.9294055 1.9735123 -2.1845608 -0.9310617 1.0708326 0.3326349 0.12079753 -2.68635 0.32307136 2.1533477 1.0461408 -3.0306711 1.6068299 -2.4261956 -1.8340691 -2.3682597 7.837638 0.26897714 -1.9084208 -1.0247391
are.ke -1.1036216 -1.3604423 2.1561108 -1.6549654 -0.5608221 -1.0022206 -2.2059479 0.677913 -2.4335444 -2.6180322 -0.5790389 0.83362764 0.18839343 1.8803058 1.0637857 1.1801364 4.7657948 3.7000785 -2.072971 -1.4285173
bqEl -0.16633788 -0.30527875 -1.8497607 3.2657323 -0.8295079 -1.3209783 -2.7821202 1.1455327 -1.7041086 -1.6249502 0.52735806 0.4747976 -1.8432819 1.4646095 4.5589356 0.27937347 0.20364977 -0.8764867 0.34036717 -1.8939394
.... 0.15964349 -0.32293046 -0.1715082 0.26590574 -0.2708551 -0.25287217 -2.0937052 0.122202575 -0.6130517 -0.6665513 0.034950837 0.109506145 -0.21873301 -0.049583983 -0.10375156 1.1920762 0.5821769 1.2340469 -0.7747327 0.53247416
N............. -0.011309387 -0.2036115 -1.7805988 2.5053523 -0.26734358 -0.8665589 -1.9969028 0.5105134 -0.8083087 -1.0981014 0.038678266 0.47251275 -1.4598715 0.87543994 3.3497036 0.22861776 0.15669174 -0.62582576 0.53129286 -0.8136531
tmNtelis -0.8574917 -0.47865042 -0.8413332 2.1428754 -1.7797642 -1.0573161 -3.0977156 2.8981676 -2.8942058 -0.940359 -0.20597377 -0.46277767 -2.1251266 2.859033 3.5753818 -0.6944113 -0.62902176 -1.2352545 -1.7109976 -3.4836667
txrn -0.96151686 -0.3942363 -1.0824956 2.7320461 -1.7094039 -0.8823449 -2.6555557 2.8342438 -2.5196965 -1.4165559 -0.15541072 -0.17985949 -1.9653105 2.7147622 3.941117 -0.3367124 -0.40079504 -1.4902457 -0.9300887 -3.1947372
nLeM -0.39503583 -0.23145393 -1.1164715 3.1778426 -1.5499595 -1.0536624 -2.6123977 2.4652703 -2.4472482 -1.4011346 0.12814856 -0.018569496 -2.05783 2.661478 4.303506 -0.17157336 -0.29051083 -1.4950569 -0.19050737 -3.0329278
bedewitel -0.3670602 -0.13051452 -1.611198 3.3187594 -1.197437 -1.1279272 -2.561635 1.8304821 -2.0934658 -1.8309736 0.2086189 0.30684847 -2.0482361 2.2252033 4.5154076 0.06472771 0.0113932295 -1.2683129 -0.009703558 -2.6614192
mxtebedetelyetmdelEwi -1.5641596 -1.5347086 -2.127638 -0.797223 0.45639256 -0.38677987 -4.9781466 2.393887 -2.4004557 2.776692 -1.3774971 -0.7504185 -0.9793363 1.674478 -1.8212348 -1.3103452 -0.6309055 0.13181223 -4.148662 -1.500177
tEbeN -3.7336383 -0.10179092 -1.4698305 -0.1199904 1.3537111 1.1098098 -1.3045552 1.9612008 0.2760611 4.390087 2.7015083 -2.3001366 0.36632606 -3.3220003 -2.5656798 -1.956379 -2.9706473 2.4010196 -2.1674004 -1.6701123
tedxli -3.3370495 -0.6524287 -2.171998 -0.6132236 1.6980408 0.71668965 -2.6063635 1.9771551 0.055010427 4.6829863 1.3561968 -2.2666254 0.7357196 -2.3831341 -3.3550282 -1.7823657 -2.5642946 2.2359064 -2.7277834 -1.3487202
.....mqEltemEme -0.05391538 -2.3407114 -1.9543121 1.9411368 0.14467251 0.541598 -2.8206184 0.20098236 1.0780556 1.7128078 2.177676 0.095622756 -0.41297558 0.33873862 0.19098333 0.6899109 -1.2065047 2.4150484 -0.95518994 0.21814586
SSimetel -1.4353591 -0.38848493 -1.3440546 0.35493666 -0.76607585 -1.1834667 -4.5295033 2.7853587 -3.3221595 0.6513657 -1.4258463 -0.34074986 -1.773429 2.4900815 1.2301749 -1.9165461 0.09534774 -0.53811896 -3.7525415 -2.5855865
peLye -4.1454735 0.84035736 -1.1468211 0.23378648 0.8086461 0.64882195 -0.4105334 1.9721231 0.07642175 3.8045459 3.5378613 -2.5373678 0.5615658 -4.0488224 -1.2700015 -2.087517 -3.311529 3.075082 -1.7161156 -2.3451376
qetNyinqeli -4.4578366 2.4795284 0.2253219 1.41968 -0.57096726 0.5512045 1.202929 1.9542542 -0.89329857 0.46754584 2.884843 -0.67836964 0.7617877 -3.0471609 1.2065111 -1.5756961 -2.3187058 2.0555696 -1.685808 -2.0564406
WES -3.4985802 2.3644512 -0.12556137 1.0451657 -1.0648376 0.14036931 1.7992427 1.8056146 -0.8531959 -0.45605153 2.6046202 -0.15669501 0.94888854 -2.0800538 1.3501589 -0.64966214 -1.8816266 1.1577846 -1.3906008 -1.6978792
pElmES.....XlEme -1.0912844 -3.093658 -3.1545188 1.8335615 0.3011369 1.4290723 -2.3864613 1.5573865 2.0082638 3.8347216 3.1317756 -0.11864493 1.1699108 1.1009448 0.3261332 -0.65362155 -3.0529196 2.6122928 -0.49604115 0.25800043
mk..........retel..........te 0.21443664 -0.32362768 -1.7051798 2.9554882 -0.48159525 -1.1947806 -2.4846866 0.6855664 -1.2703757 -1.2433205 0.29434735 0.294419 -1.668733 1.2496529 3.9286911 0.4652745 0.15407369 -0.71158034 0.5203326 -1.3426412
...........amSxiye -2.8653529 -3.1381145 -2.6111062 1.3628275 0.5968303 1.9491664 -1.9001176 2.6481724 1.8750862 4.5169744 3.3289413 0.14147489 2.93026 1.9621098 0.9935544 -1.7127414 -3.2965019 2.3300164 0.065412894 0.22129028
t............bliye -3.7264585 -2.9591005 -1.5815362 0.6778731 0.87418914 2.169019 -2.0793629 2.983331 1.7865493 3.9673111 2.6229937 0.611236 3.3440378 2.1080766 1.1145432 -2.030688 -2.935857 2.1429055 0.1611285 0.3025897
tesk -1.1330321 -0.15638468 -0.8655407 1.5085518 -1.768563 -0.91003686 -3.51867 3.4064608 -3.5733945 -0.3886884 -0.27099463 -0.66497046 -2.226912 2.9747517 2.9253507 -1.4214995 -0.58175313 -0.914425 -2.576822 -3.8893352
.ye..ye 0.594855 -0.765262 -0.2237326 1.1942118 -0.935806 0.03936662 -2.5442708 0.86171806 -0.69864017 -1.2686286 1.1851352 0.53124326 -0.31633395 0.19241804 0.28122246 1.9933592 1.1955092 1.8579112 -0.772859 -0.2605503
ktkelis -0.6527682 0.27810505 -2.639252 -0.088703744 1.1939603 0.37965432 -4.6683917 0.31212673 -3.4120576 1.8740679 -2.301111 1.08156 -0.33263355 0.18636702 -0.11900141 -2.618505 4.307385 0.5538951 -2.4789205 -0.15666556
bEkemetel -1.0895779 0.900992 -4.713347 0.42423862 2.9861207 -1.4012396 -3.7626643 1.0107583 -1.831988 3.1253986 -1.496059 2.9089682 -0.0986332 0.7700892 0.5580888 -3.5807614 2.4711134 0.94048846 -1.9869537 0.5035175
tNkdeqEwi -2.8026576 3.1978447 0.41284996 0.6509851 -0.32135007 -3.296899 2.6211145 3.148464 -0.7345441 0.99978894 1.5838145 -1.3035076 2.4267 0.06695399 1.0077316 0.032398675 -1.768903 0.0064229793 2.2378855 -3.5193033
tdhelEwi -1.7538459 3.4853227 0.42125705 0.76456326 0.8110709 -4.0684047 3.4158301 3.837329 -2.3468404 1.5133674 1.3862356 0.021565916 2.4096956 -0.31073755 -0.21904172 -0.5080667 -0.8931939 -0.21191967 1.8587446 -3.2565055
abeleqebr -1.6715871 2.8746154 -0.89201576 1.0269108 1.7462295 -3.8957472 2.9834394 3.6084125 -1.2711915 2.4127996 0.89027125 1.3719691 2.344656 0.29399428 -0.2606878 -1.5245814 -0.41905123 -0.62224376 1.6287636 -2.7009969
mXlEke -1.0157487 2.3570738 -1.8067101 1.4057381 2.9059198 -3.7657273 2.3214595 3.6344986 -1.1740327 2.6021929 0.37659997 2.6920602 1.6517456 0.8308103 -0.1848063 -2.3819265 0.24691029 -1.031178 1.2445674 -1.9141924
tErebre -1.3607712 2.245138 -3.0439556 1.7584219 3.4871151 -3.3548934 1.0666777 3.0293326 -0.5585577 3.027371 0.1710522 4.4787602 0.759521 1.2223607 0.36067498 -3.0213182 0.29585928 -0.88247657 0.94321775 -1.1660633
yiqte -1.301852 1.518456 -3.8388815 1.754384 3.5580454 -3.0315561 -0.12376458 2.745562 -0.6467775 3.473293 -0.17254099 4.3737416 0.38119024 1.1860123 0.64682657 -3.374474 0.2942389 -0.5457335 -0.027729223 -0.61779267
mniti -1.4001273 1.3888011 -4.6315923 1.0919006 3.6428468 -2.9931552 -1.2504765 2.5233538 -0.5256296 3.4396336 -0.3606562 4.3029866 0.1446957 1.2470202 0.82951397 -3.4953413 0.3980833 0.030713195 -0.88031507 0.006610441
bEkelXl -1.272463 1.0069264 -4.99534 0.7432445 3.348432 -1.9683952 -2.8781736 1.8920408 -1.3466507 3.3737147 -1.1495383 3.6789925 -0.21524598 1.3263458 0.8037734 -3.828181 1.2821443 0.7123681 -1.574614 0.24242423
asmiyetedxeli -2.3504934 3.4107566 0.3364675 0.6032514 0.49435064 -3.7775412 3.5438507 3.608067 -1.7164302 1.4211426 1.6056384 -0.8857655 2.4125042 -0.1818573 0.2519324 -0.17829591 -1.4387279 -0.23657401 2.2168176 -3.6711285
kdi -0.38016537 -0.8310916 1.8640622 -1.0951933 -0.37443793 -1.0216897 -0.6321718 0.77085626 -1.4609115 -0.34409332 -0.51056165 -1.4896759 1.7982079 0.6640207 -1.5830764 0.15760973 1.6035432 0.2178277 0.43639207 0.053660803
atmtl 1.7907307 1.8158107 0.06464098 0.0013374157 0.50199294 -0.6072791 -0.10358092 1.1183264 -1.2783014 0.8889099 0.38524777 0.9210459 -1.0733845 1.486098 1.0281616 -0.35059896 1.109075 -1.1563846 1.3706158 -1.6285279
wSiteye 0.64663225 -0.64276487 -0.6474804 0.8028515 -0.7705173 0.47352242 -0.04389866 0.3695284 -0.25179976 0.08881164 1.4742898 0.52267045 -0.17022508 0.17040637 1.0398518 0.52425796 -0.07182603 0.18253109 0.53182787 -0.7307806
wyekiye 0.3494601 -0.5134935 -0.5935842 0.75451607 -0.33824173 0.24553652 0.3374806 0.081369564 0.36709195 0.011116656 1.0965396 0.44048712 -0.222666 0.15132149 0.88264835 0.12164715 0.043580227 -0.019395646 0.31280527 -0.72634846
medEye -0.02840822 0.07399365 -1.2048848 -0.2510765 0.33690384 0.94169974 -1.498853 -0.36089024 -1.5710129 0.9659403 -0.80351686 0.24631171 -0.16201714 -0.1210764 0.4168694 -1.6674672 1.9782753 -0.5768936 -0.5742812 -0.37645388
slebN -1.1358949 -0.7127152 -1.5707437 -0.31414092 0.99609536 0.4233944 -1.6835773 0.50966424 0.22406982 2.742286 -0.16914137 -0.23786464 -0.127863 -0.33911863 -1.7946215 -1.0138036 -0.7687353 0.37518272 -1.2756457 -0.74778223
antEspy -0.9281573 -0.9301554 -1.604151 -0.5993861 0.7043175 0.5066029 -1.9714972 0.6152743 -0.17808694 2.186963 -0.3415039 -0.11297545 -0.5118494 -0.045444608 -1.6000273 -0.7295143 -0.7375586 -0.36199242 -1.5671995 -0.71025246
yiqereye 0.17392698 -0.03798681 -0.6064763 -0.2335709 -0.051512714 1.0310905 -1.433286 -0.4956237 -1.7218441 0.54616344 -0.7686691 -0.40072796 -0.14131357 -0.4246571 0.24241133 -1.1727543 2.0572193 -0.28970924 -0.40352297 -0.4985368
mte 0.41309655 0.55577517 2.0183034 -0.3206272 1.2930568 -0.4601984 0.95229715 0.111707784 0.10657573 -1.925464 2.4183664 -4.501002 -0.702377 -2.3160753 0.31642357 -1.8245444 3.063673 -1.961158 -0.07148266 -0.8153328
Stmdes -2.850184 3.5928533 1.464408 1.8612536 1.0588684 0.39741868 1.2256314 0.8382955 0.97298527 0.13156386 0.4437764 -2.7714894 -1.2222301 -0.7351932 -1.6043242 1.35741 1.9642498 -0.58473855 1.051673 -3.77348
bxe -0.73904824 -0.7506962 0.5376124 -0.19466305 0.57850677 -0.04643242 1.7298427 1.4158142 -0.5711392 -0.34530613 0.8250814 -0.44248173 2.336817 0.45789623 -1.9994688 -1.5722723 1.1478617 -0.39070103 -3.570348 1.2923406
....... -2.82413 -0.1845368 -1.6745323 1.0154396 -1.0854088 0.43023458 1.8798916 -0.5342351 1.3728468 1.9960517 1.2759402 0.34940952 1.3231131 1.0098802 1.4130192 1.8850833 2.8468006 0.09857725 0.9095032 -2.9777808
d 2.3235748 -2.3671854 -0.018576417 1.7895128 -0.911401 -0.5569119 0.90548843 1.3315225 -0.5364054 -1.6716957 0.78636545 -0.7285331 0.2640234 2.3973353 -0.6236767 2.1357527 0.5982165 -1.5713979 0.53399944 0.08313744
mStrq 0.63885 -0.71050596 0.29160193 -1.3206792 0.9237043 -0.5377567 3.2060592 2.8621993 -0.29072538 -0.5769671 2.4143586 -1.3423117 3.1492991 1.2754666 -2.2052648 -2.0338213 2.373678 0.24166514 -2.783101 1.3391672
Sdrte 0.009987653 2.1190333 2.3773692 -0.5133987 -0.026426865 -0.8910474 0.1631235 -0.80234367 -0.5035605 -0.97904813 1.3473368 -3.6775398 -0.3759425 -1.9201959 0.8369719 -1.4828166 2.5893989 -2.0833058 0.46884435 -1.0758488
mde 2.9867225 -0.70019746 0.3596103 0.73385674 1.827161 0.88411725 -0.7426756 0.998869 0.026834238 -2.040732 0.86793935 -2.2309601 -0.39956385 0.27607208 -1.3460059 -0.049129903 2.7217598 -0.5635922 -1.5827122 0.6300002
penn 0.31918368 -1.0046486 0.9393098 -2.9400458 -1.0857139 0.6562361 -1.6115419 0.440927 -2.7630713 -0.075901635 0.61885226 -2.0138562 1.7240764 1.5638348 -1.7419053 0.0123406695 2.9223325 -0.71939504 -1.5330263 1.3957926
we 1.5521513 2.744181 2.1342752 -0.27202478 -0.49753526 0.2787957 2.6135862 0.2437632 -0.62317634 -0.6000132 2.793841 -0.40633845 0.38788387 -0.70380795 0.8719277 -1.4913253 2.649987 -2.1846206 0.49688974 -0.012812168
qEri 1.4969435 -0.8795122 -0.6505206 -1.0716038 1.4478204 -0.3336437 2.7867727 3.3673396 -0.018337896 -0.8059892 2.4671168 -1.4345345 2.334564 1.9278259 -1.7777572 -1.4662132 2.3855224 0.4722274 -1.4491662 1.0148898
yini 1.8244653 -2.5109735 -0.2647621 1.5832804 -1.3730165 -0.8792094 0.29725248 1.3556067 0.29191476 -0.4413563 1.9062723 -0.8064135 -0.8563012 1.380176 0.38224247 -0.6184467 0.60857564 0.7829751 -3.6303186 -2.077747
k 3.9059794 -1.3741412 -1.7857445 0.38527164 -1.012219 1.318405 0.47413465 0.29476434 1.2531465 -0.20678137 3.9007835 -1.5960653 2.805972 -0.75548506 1.1785883 -1.9461156 2.7367146 0.7112072 1.4547527 0.99908656
y(i)ni 0.9311853 -3.082691 -0.14012787 1.4794146 1.5303568 0.26999438 -0.09147762 1.000872 0.07503282 -0.42760447 1.2220871 -1.6787833 -0.84993666 1.5948223 0.16968532 -0.4386015 0.43826398 -0.8811289 -2.803387 -0.67318696
twd 2.199808 -1.140343 1.4178095 1.6551322 1.101859 -0.38998535 2.8553045 0.6595993 0.44219276 -1.2703949 2.2043638 -0.36468938 -0.62983733 0.85816324 -1.1765597 0.566847 2.5663502 -1.619955 -0.08438298 0.27008846
tmi 1.2790983 0.7820851 1.24151 -0.099960096 -3.100576 0.7301729 0.23315087 -0.11758838 -1.3782616 0.7003096 1.9328815 -0.5377254 1.5586009 1.4281489 0.7085684 -0.07221814 1.7246245 -1.2784486 0.012051243 -0.15705013
krEr 1.5070004 1.632766 -1.0074157 0.11106754 0.09383704 -2.189218 0.43206668 3.3884327 -2.2305443 -2.0143251 1.4086001 0.8079942 -1.4790977 1.5734334 1.1233974 1.0238711 2.4819868 -1.1021562 -0.41520312 -1.3919938
tE 0.16591795 0.845067 0.5805476 -1.5149117 -1.1605668 0.19817777 2.9680488 -0.28996527 1.6600546 -1.8616625 4.655911 2.2425714 -2.0853753 -1.4093297 -0.37644625 1.1160626 0.61462265 -2.6010306 -0.29990315 2.0291831
wEs 2.2682838 -2.1555848 -0.8391288 1.2874004 -0.8617773 -0.21223137 1.454182 0.9343866 -1.1171488 -1.6451457 1.1026679 -1.2848734 0.11625824 2.8178349 -0.52724034 3.1555767 1.0198747 -2.2562058 0.5452109 -0.026754465
ptrEs -0.40053356 -1.2586166 0.78124183 -2.3976228 1.4812769 0.49792093 1.5067849 0.5997499 -0.08672064 -2.989876 1.1269922 -2.6689491 -0.35364035 -0.91806215 -1.7100227 0.4951602 0.9327689 -0.4420563 0.44928196 0.33678502
ar 0.2039817 0.124340005 1.9502088 -0.51634866 1.4095315 -0.42769188 0.09535005 0.16609459 0.119354665 -1.8747288 1.9518852 -4.1808157 -0.55071497 -2.7555227 -0.2721237 -1.9547061 2.2626317 -1.5195634 -0.09574982 -0.6745982
aSeri 2.4501135 -1.336309 0.9291776 1.6816494 1.4345548 -0.91457677 1.9365882 1.3755127 -0.054527387 -1.1015295 2.1628866 -1.0085387 -0.63192856 1.0966549 0.19108269 -1.4784783 2.3123326 -0.9651169 -2.0269916 -0.16316791
NyiNqeli -1.1520091 1.5849042 1.37487 1.9424907 0.42144522 0.3968583 1.4590626 1.739547 -1.3931432 -0.73366624 1.0569409 -1.6541567 -1.0142114 0.61773825 -0.6974266 2.0643854 0.4375658 0.34957218 -0.63144714 -3.4017465
Sdrete 0.7465046 -0.35277927 0.60221857 -0.041969787 -1.9203639 0.5340491 1.4690173 0.4893132 -1.7403758 -0.8263873 1.6186788 -0.98624784 0.51686674 0.9325937 -0.48573083 2.1333175 0.6737093 -2.3277514 1.2192394 -0.13044994
tEqEye -0.5302171 0.6782994 0.51384324 -0.3633271 1.6873848 -0.09251522 1.2312936 1.1046603 -0.72105646 -1.5063657 0.8372871 0.18177499 -0.8225449 -0.58644325 -1.674231 1.3790551 2.5359132 -0.5757704 0.44454962 -0.14176244
tbEyet 2.2887714 2.800818 0.57230455 0.9004548 0.6939477 -1.4624945 -0.26089498 2.8307233 -2.9469957 -0.22848839 1.1752502 1.071636 -1.9578286 2.3191147 1.3051393 -0.06550629 2.5901506 -1.2367039 1.2655586 -2.7207062
md 2.4615383 2.4766283 0.005747369 0.5910926 0.5158523 -1.6093992 -0.16677392 3.1981368 -2.9322844 -0.6334323 1.242554 0.9563482 -1.9106234 2.2213817 1.132787 0.0666211 2.5746818 -1.0485578 0.96604323 -2.527353
ebetEwipqr 2.3395975 2.371067 -0.41845638 0.40319258 0.4311187 -1.8606462 -0.023722392 3.3042312 -2.7472303 -1.0246801 1.0796857 0.76181334 -1.7217761 2.1263802 1.25158 0.3448106 2.391044 -1.1000729 0.5986881 -2.2239847
SEtn 1.9262215 1.8122729 -0.9812868 0.09646963 0.35105625 -2.2549503 0.044703163 3.5535386 -2.3317297 -1.9407281 1.2884189 1.0916374 -1.6782204 1.6240343 1.1363333 0.73977596 2.601919 -0.95412385 0.019402651 -1.502178
pqrlitxrEr 0.89065266 1.4183053 -1.2291352 0.06070205 0.18346587 -2.146466 0.5532341 3.1565986 -1.9457188 -2.2984915 1.4634619 0.9145 -1.4767346 1.3343681 0.9666671 1.4862385 2.4732523 -1.3293066 -0.60574543 -1.0571784
yetmdeqebetEwi 0.34862942 1.3846159 -1.1534755 0.08558787 0.40183803 -2.0598948 0.7343606 2.9550958 -1.6806672 -2.4680562 1.3938348 0.98363173 -1.6325896 0.9488521 0.8973669 1.9098597 2.7321427 -1.6204518 -0.6337273 -0.89312977
nibeliltE -0.33322775 -0.6641111 0.13235396 -0.89388776 0.5592626 0.1254046 2.118581 0.48902902 -0.09072509 -1.7007059 4.385602 1.3163661 -2.0033412 -1.3420404 1.1010219 0.9169711 1.6004727 -1.7712871 0.5120345 0.33621705
temey 1.4329189 2.325813 0.06368095 0.27411422 0.13066877 -1.0389932 -0.06547829 -2.3921025 -0.39842197 1.3823717 1.061792 -2.5597913 -0.03072503 -1.9221784 0.2891941 -1.309429 5.1410246 -0.88565916 -0.35303223 -1.8918815
pes -0.09912842 1.1425228 0.53165364 -1.3235683 -1.227095 0.34588265 2.8930943 -0.13515344 1.587336 -2.1913292 4.1509824 1.8543596 -1.8329371 -0.8408693 -0.7485161 1.5053854 0.6392561 -2.7162056 -0.7818642 2.3652947
qERis 1.8403002 3.1737528 1.2741488 1.186079 0.6541327 -0.5955206 -0.7785242 1.7318193 -2.1797206 0.46309042 0.69861156 1.5088079 -2.2466378 2.5011928 1.1089221 -0.31164345 3.051986 -1.7036837 1.7480316 -2.8642707
terikelEwipqr 1.1544895 3.3449922 1.9527073 1.129855 1.0023019 0.1844737 -0.80329764 1.1100571 -1.0337124 1.0163805 0.50835836 1.5289491 -2.3431897 2.1398096 0.5990121 -0.6844526 3.265464 -1.8984951 2.3110783 -3.0152822
...yitkide -0.74640363 0.9411939 -0.92274195 -1.0474133 -0.28297862 -0.2882973 1.4058962 0.38924742 0.23261574 -1.6560602 1.7784911 0.0030180567 -0.38411766 0.8981741 -1.7235525 2.0142088 1.7620262 -2.6054416 -2.234274 1.7507215
krinkrEr -0.7657057 1.2453418 -0.72867733 0.33760104 0.89827186 -1.614118 1.4204324 1.7747668 -1.1648103 -2.3396838 1.4910718 0.9416153 -1.7772038 0.30760175 0.23411793 1.9673147 2.8986893 -2.0387843 -0.22394922 -0.82635206
pXEme 0.6657911 3.3368657 2.1176002 0.95639247 1.18487 0.6424109 -1.0267162 0.81239516 0.2026024 1.6058946 0.22133455 1.5296397 -2.3514087 1.7169659 0.042508185 -1.1632737 3.2721262 -2.0048182 2.4440267 -2.9234288
ni 1.1631422 -1.3525325 0.37336594 -2.3438969 -0.6355123 0.8301772 -1.1525604 0.4888913 -2.711855 -0.4708287 1.2864947 -2.667476 1.2178304 2.47989 -1.2830501 -0.37906915 3.6932206 -1.4127046 -2.2066286 1.6077656
r....s 0.31164986 3.6125665 2.2186222 1.1512935 1.2847887 1.341311 -0.9231019 0.7662809 1.0915083 1.9991426 -0.11153209 1.3301729 -2.2386155 1.3724141 -0.4568072 -1.1870471 3.4813313 -2.035969 2.7066653 -2.9253716
SSe -0.29163846 3.8304586 2.2923024 0.8902344 1.4627031 1.6248618 -0.87528425 0.6948521 1.7937785 1.8193313 -0.21660124 1.2649343 -2.3092923 0.9664803 -0.89896095 -1.3291024 3.3728793 -2.0207558 2.7989504 -2.841968
Sdmdekde -1.2021365 3.7012193 2.3207178 1.073653 1.5972339 1.6789795 -0.3130236 0.6478777 2.6503146 1.5158085 -0.3890845 0.43464807 -2.128068 0.13627155 -1.7300466 -1.0141906 3.4610937 -2.0741105 2.6945238 -3.0657926
stElis -2.2427256 3.6635695 1.886431 1.2857485 1.455191 1.1272695 0.4749286 0.8856163 2.0964394 0.6650488 0.08586761 -1.5593529 -1.6745251 -0.6807952 -2.2035127 0.52768844 2.7734368 -1.4135408 1.6578683 -3.0949442
mlEtEN -1.2085731 -0.21111318 -1.3926332 -1.3293581 1.6772412 -0.38602138 -0.53380895 0.54575527 -1.5785375 -1.1172205 -0.14119461 -1.1819746 -0.16827829 0.88232654 -1.6894089 1.8227979 3.0448935 -1.2203782 -1.7995908 1.0327212
wet -0.79868835 1.0606122 1.1339372 1.570084 0.21126111 0.5232892 1.5844811 1.2571739 -1.2493929 -0.4601324 1.0783454 -1.1773314 -0.86666715 0.6416414 -0.54861736 1.5470942 -0.013914607 0.37179962 -0.79813397 -2.8448951
tewiNye -0.6840669 -0.4463128 -0.3785589 -0.15353563 0.8434805 -0.52041644 1.3546132 1.1490417 -0.8282129 -1.3833743 2.5443747 0.43712795 -0.9705585 -0.18693651 0.37863308 1.210601 1.7777524 -1.5895355 0.11476514 -0.40464923
NtewitrEr -0.83257604 1.0702274 -0.12093347 0.18552138 1.2598535 -0.5509554 2.7730112 1.5584148 -0.49401116 -2.1195261 2.0000653 0.16443777 -1.6423831 -0.06888885 -1.0537529 2.1666179 2.803585 -1.9543765 0.33921546 -0.7785807
qEret -0.5006543 0.13400154 2.2996821 -1.1097546 0.26425624 -0.97508055 -0.48487863 0.9633215 -0.05188529 -2.5016546 -0.10318387 -1.6262019 0.7904515 0.7194216 -1.1897455 0.9949395 1.5486987 0.69981503 -0.082291804 -0.28165066
mXeye -2.0084715 3.4957683 2.204883 1.2425786 1.5426915 1.3233306 0.31867203 0.70985514 2.3326643 0.9758027 -0.25776935 -0.6871955 -1.6045591 -0.26813495 -2.1666358 0.0010306448 2.8317714 -1.5642173 1.9609027 -2.9460793
yet 2.0825374 -1.1460013 0.44158065 -0.063107155 2.1788006 0.44049224 -1.0004148 0.7362939 -0.376827 -1.3898836 0.64983463 -1.7021441 -0.53472304 -0.038202737 -1.335 -0.29658335 2.8824015 -0.013324862 -1.0534638 0.42342055
wes 0.400312 2.6038485 1.5222248 0.8557592 -1.534466 0.20167293 0.79079103 0.8974203 -1.6044341 -0.6431364 2.2879784 -0.8065996 1.0810125 0.060839277 1.8926566 -0.80458057 1.5837274 -2.249619 -0.36411193 -0.9113741
aqe 1.807761 2.8441296 0.43694234 0.3348115 -1.6549312 1.2818687 0.47645748 -1.4093254 1.0188718 1.7456533 2.6042726 0.37610358 -1.0802253 -1.3232352 0.63272136 -1.4928848 0.65943223 0.7688929 -1.6539394 -3.4845884
N -0.3251004 3.3195786 0.4542308 0.18101759 0.5149159 2.5573354 0.5674687 1.7116622 2.938335 1.6899632 1.9943379 -2.2746832 0.7538512 -0.13990973 -0.5719984 -1.5789677 -0.6337792 1.6665037 -0.60287464 -3.9002402
ken 2.2924824 -0.06287128 2.893869 0.15826303 -3.304636 0.4991718 0.05533396 0.6161998 -1.8516264 -0.48931387 1.8521684 -0.952924 1.2686412 0.8210242 0.34638745 -0.82304645 1.4143323 -1.1619818 1.0484462 -0.47642255
SEr -2.6332576 2.2206216 1.8041312 -0.96330595 -0.43354833 1.631176 -0.20333567 1.3028998 1.2592692 0.8207285 0.23196808 0.008918377 2.8259943 1.2421439 0.5543374 -1.728157 0.6611774 1.260145 0.662365 -1.624255
xrpx -1.9347508 1.7235913 0.66392815 -0.7825853 -0.8622554 2.1475759 -1.1369898 1.9381672 -2.0751157 1.1309061 1.8528836 -3.604681 1.7792838 -3.020351 -0.47495255 -0.7387954 0.7217776 2.5826468 1.0143121 -1.4045281
teke 1.3734509 -1.4149023 -0.240559 -1.3512611 0.040635068 0.7583207 -0.5185642 0.48802713 -1.9288514 -0.5621565 1.4189026 -2.7157383 0.8555035 2.6330051 -0.75025874 -0.5966843 3.3052895 -1.560819 -2.4222057 1.4319625
q 0.6015074 0.9467912 -0.58235 -0.17997661 0.15814286 -0.4058849 0.41250694 4.970757 -0.41486824 -0.7332324 1.5174519 -1.3764495 2.1506705 1.0591918 -0.3571378 -0.50015503 0.05574351 1.2227929 0.030972285 -1.349348
belilEke 2.742233 -0.18018523 1.8263725 0.9826695 -1.1209754 -3.856236 -1.8089538 -1.1349392 -2.670653 -0.89327663 -0.6384464 2.7978985 -0.5069461 0.20226447 3.0772843 -2.4634135 -0.586931 -0.07928228 0.78471184 -1.3202717
nte -0.8790295 -4.0382404 -1.5990336 -0.23181173 2.0314102 -0.24175534 0.07117778 2.0616937 -1.2695866 -0.25554162 0.98161805 -1.4292821 -1.0738053 0.8293734 -0.36579704 1.0507652 1.692951 0.18683414 1.9501108 -2.3924837
SlXS -0.29734677 -0.1505979 0.75311655 -0.19624904 0.22031397 -0.28499115 -1.46069 0.5406835 -0.8428043 -0.5116295 -0.18954125 -0.14816727 0.60478735 0.031600084 -0.7384238 0.4485543 0.9371994 0.40538225 -0.763201 -0.013949237
twdtE 2.3806732 -2.1237316 2.6810465 0.92801017 -3.2312465 -0.41861603 0.0761577 1.222598 -0.21099536 -0.9334737 1.6935184 -0.7101218 -0.37532392 0.60448635 -0.08485798 -0.7513354 0.54712254 -0.7675496 0.20161985 -1.6572531
Sq 0.19624434 -0.4315695 1.3352938 -0.21962449 0.38856563 -0.36081493 -2.7191632 0.5435706 -1.4734696 -0.1395873 -0.42690024 -1.503949 -0.24688064 1.0891455 -1.2863513 0.9665034 2.262389 0.9089185 -1.3106748 -0.680192
tebwetel -1.3951143 0.4267573 2.1233432 2.2959337 0.008823206 1.1571658 2.9148674 1.4581654 -1.665622 -0.69935197 2.18919 0.39213264 -0.99985874 1.8843312 -1.4571385 3.5170686 -0.39119554 -1.7214433 -1.0054151 -2.0474567
arEme -0.2662529 -2.4429154 1.3747048 -1.1893731 2.2919815 -0.28475857 -0.407852 0.33900172 -0.05838238 -1.1088258 1.4280466 -1.4154975 -1.4917182 -1.4670275 -2.0026479 0.44187608 2.388966 0.34443045 0.6138548 -0.42538103
treb 0.3319673 0.48558903 0.5179807 0.6955843 0.12155823 -0.5867731 -0.006246552 1.487062 -1.7320102 -1.5332763 1.691295 -2.7466123 -1.3630456 1.1810338 1.6963772 0.74332356 1.4614124 3.0753 -1.6538383 -3.5041454
yntke -1.8147815 1.0837134 3.1829016 -0.8722045 -1.8529842 0.42674893 -1.9095736 3.0214624 -1.2712417 -0.8453587 -0.2139629 -0.82559484 2.8144326 2.0126324 0.7084314 0.29369065 -1.3755082 1.1545845 -0.04984842 -1.4194168
atEliteb 1.0429988 0.20633015 0.6686141 2.7344928 1.0202085 0.22484964 -2.0871046 3.2762332 3.187225 -0.0934824 -2.1846163 -0.94644105 0.4218512 2.6448574 -1.6566526 -2.552658 3.098664 -2.432734 0.48778254 -0.58545125
qErete -1.0025668 -4.485887 -0.9239115 -0.97393036 2.102319 -0.11341918 0.07813712 1.8242594 -1.2095896 0.010166894 2.0183077 -1.333195 -1.7173498 0.23303984 -0.7582728 0.72928596 1.63203 0.3493751 1.4702108 -2.5467794
beltEre -1.4580494 -0.15264207 -1.8502603 0.9406671 -0.6549953 0.046151742 1.4360325 -0.2544082 0.842748 1.3519913 1.2713863 0.15332018 0.85370547 0.9998378 1.3564874 1.6064304 2.443354 -0.13557614 1.0734409 -2.8419333
Sqekiteleb 2.1421227 -0.5208895 2.7781937 2.7570996 -1.5369363 -0.79754454 0.05682359 3.207668 -0.15445492 -2.660435 -0.83504355 -0.85689634 1.2664769 2.1327846 -0.0324062 -2.2740147 2.411072 -2.0238295 0.95678335 -1.05625
ptrEti -0.7933495 1.1459674 3.0644052 -0.36563128 -3.145803 0.3701212 -0.4566956 1.9265603 -1.5917238 -0.80490017 1.4959046 0.12208158 1.3435104 2.2556794 2.1590958 0.7988344 0.18376115 0.74740607 2.3363786 -2.800227
pilqeteleb 2.3105462 -2.8381114 2.092765 0.9241712 -2.69384 -0.565489 -0.026021628 1.4303248 -0.040063057 -0.89715177 1.7574222 -0.53467584 -0.35859266 0.40846947 -0.16115396 -1.1108676 0.56380105 -0.38928574 -1.3204563 -1.4160922
pmete 0.8447753 3.7501528 -0.043812107 0.75631654 0.7089166 3.2339976 0.36392197 1.1626664 2.956042 1.9224734 1.767153 -1.6460942 0.19862606 -0.8599749 -0.9961524 -2.2348826 0.005896471 1.6601621 -0.9775688 -4.465925
xteri 1.1835043 0.12959391 3.2038245 -0.30960485 -1.1412898 -1.7634853 -1.8890773 -2.0652664 -1.577698 2.3646526 1.470591 1.4914801 -0.592229 -2.529833 -1.2021674 0.2931688 1.0524067 1.1761281 0.045080274 -0.87327284
a... -0.03177739 -0.21040955 1.2828041 -0.051865153 -0.31887352 -0.44224057 -0.8127062 1.2029514 -2.0156643 -1.5261464 0.7875211 -1.4048065 -0.7599634 1.4467674 1.7587676 0.8458833 2.4297295 3.2816503 -1.4780312 -2.4499798
yeSE -0.17975406 -0.35996917 1.2698374 -0.80824006 -0.4989757 -0.58532256 -0.88092124 0.66472846 -1.7963808 -1.3987062 0.48104286 -0.5399173 -0.44532722 1.4416693 1.468479 0.8380651 2.5107229 2.8158855 -1.1309694 -1.8087974
bili 0.83291006 3.0600598 0.99824786 -0.3674884 -2.180694 0.46360502 0.84863776 -1.7698834 0.43454975 2.358095 2.8743389 0.43319193 -1.0815171 -1.3798742 0.89190763 -1.4082481 0.52036583 0.9407586 -1.6154314 -3.5154402
btE 2.7426014 -0.2965722 -1.0425755 1.0007083 0.66908824 0.62962055 0.061424777 4.3378415 0.37797958 -1.5779278 2.4281385 -0.93660873 1.511715 -0.032919753 -1.240225 0.15066953 0.90098476 1.6560405 -0.23652829 -1.8295547
piSixrkes -0.83376426 0.030240756 1.4948426 -2.070146 -1.2628723 0.28771585 0.27823332 -0.2994477 0.6549167 -0.15602498 3.3612003 1.4400113 -0.76644325 -2.5184689 0.76431507 -1.6617546 -0.34184635 -0.78786564 -1.578511 0.33088577
yetebxe -0.02803309 1.0007201 -0.02437635 -0.38149524 -0.12485683 -0.7276222 0.48706436 3.441936 -0.4485841 -0.032073468 1.4499515 -0.99922276 1.9053509 0.86110127 -0.11518022 -0.5075385 -0.16592798 0.9428396 0.12451767 -1.2913874
pil -1.6377136 1.1325222 1.4766515 1.8126658 -0.043138873 1.0997423 2.6081426 1.2152857 -1.9305161 -0.47846735 2.1870492 0.28348264 -0.78968614 1.5166271 -0.5726323 2.688051 -0.0170284 -2.2228742 -1.1847384 -1.748489
qetelxe -1.8630054 0.9211938 1.2944167 1.8634493 -0.022602791 1.2266959 3.1129682 1.301915 -1.874298 -0.64001906 2.1454623 0.090106376 -0.7978262 1.6745745 -1.1322217 3.4250224 0.07279421 -2.333066 -1.1924306 -1.7571028
ati.ye -0.37236536 -1.0153002 1.3588295 -0.6863594 -0.7370396 -0.4646906 -0.6635647 0.2564951 -1.2163923 -1.1439812 0.27552888 1.0513396 0.25196585 1.3238789 0.8254734 0.42900357 2.2685328 1.6028997 -0.736681 -0.9695334
xbxe -0.5158242 1.5343254 3.160769 -0.75219125 -0.16873091 -1.2611837 -0.61800766 -0.0074388254 -0.8548475 0.5061085 0.0061700875 -3.7053797 2.16395 -0.55381125 -2.150398 0.25087178 1.973731 -0.0037698152 -1.0275464 -0.77574867
Smedeli -0.3151723 -0.13057981 0.7976909 -0.16774099 0.2091473 -0.2627883 -1.3713087 0.47145292 -0.80999637 -0.50833756 -0.15775827 -0.20849143 0.65150523 -0.023089875 -0.69542855 0.4142297 0.8884772 0.38886735 -0.76843387 -0.13616368
wEStE -0.6934036 -0.06923425 1.9778832 1.1816229 0.6663669 -1.952248 -1.3784213 2.5682046 -1.0863259 -1.5302911 -0.9951007 -1.6757288 3.2315912 0.8542384 -0.25497594 -0.48212838 -0.74228346 0.13329014 -0.15044345 0.14744395
betewi -1.5523574 -1.2672185 0.23455255 0.9935445 -0.65010303 -1.8682487 0.007714818 1.0976149 -1.8493651 -0.36243752 -0.02103778 0.6144502 0.17961515 -0.47672263 0.23719582 -1.0802907 1.907227 -2.2672622 -0.47737733 1.557986
n..... -1.7569962 -1.183522 0.4262903 0.5767723 0.2259106 -2.315112 -0.37717372 1.5244012 -2.345392 -1.1500556 0.43558013 0.9456656 -0.055178843 -0.5983291 -0.18920013 0.015760044 3.0607333 -2.3024862 -0.666061 1.8972566
bwteli 0.813927 -2.4052012 0.93421054 2.3188913 -0.68443143 0.45849314 0.41032168 1.5677913 -0.7057522 0.30265626 1.9731637 1.2896279 -0.13551877 0.2378728 -0.37365174 -1.4101603 -0.5371186 0.16526937 -3.716193 -1.5560864
yinitxebtE 1.5785488 -3.3030665 1.4526988 1.3671207 -1.952066 -0.3894734 -0.00016328535 1.6221783 -0.28000128 -0.48439518 1.8877027 0.2980496 -0.45742655 0.27848035 -0.13526641 -1.6122423 0.21536194 -0.1470076 -3.0419998 -1.3581048
tdbtE -0.11323247 -0.06102362 2.8707895 2.1132848 -0.9159495 0.9958554 2.4565508 1.3836161 -1.7183634 -0.84972423 1.5602577 0.525109 -0.64378965 1.7814609 -1.5034323 2.737287 -0.4847483 -1.1817263 -0.0818398 -1.8801832
mStr 1.0176278 0.83038074 -0.6677205 -0.07989036 0.15874185 -0.5505465 0.34441832 5.3950114 -0.31342813 -0.9761042 1.8803642 -1.5153178 2.2322264 1.1881573 -0.7443367 -0.43590316 -0.031478193 1.4501393 -0.2009103 -1.4196838
arEl 0.57928467 -0.103131734 3.2198389 1.7106051 -1.2458398 0.89146227 2.0023403 1.4035813 -1.8682892 -0.9712733 1.5228562 0.41841662 -0.15299538 1.5853745 -1.2710794 1.9033006 -0.19495209 -1.0504342 0.26241907 -1.451538
rEt 1.3937881 -0.012694818 3.440923 1.1920587 -2.0424895 0.66924495 1.2306247 1.2427009 -2.1708586 -0.8557491 1.360489 0.082044944 0.34487757 1.122017 -0.8566246 0.6538611 0.26308897 -0.69231224 0.7996329 -1.1292609
mx 1.8322176 -0.61734194 2.3917053 -0.01985062 -1.3968681 -1.7017173 -0.2821007 -2.4083738 -0.687404 2.625555 2.9901838 1.929941 -0.6827933 -2.7603388 0.51555306 -1.0552157 0.61607695 0.34287697 0.83150226 -1.5489975
teliti 2.2818758 -0.80985916 0.57127744 2.9644468 1.9057746 3.1479192 1.310812 1.8443489 0.9544164 -0.87460905 1.7303498 0.9125607 0.29075643 -0.41534066 -2.3451612 0.9130566 -0.114906326 0.7921717 -2.4014754 -2.1724648
pilqeteliti 1.2953674 -0.70605856 1.3000692 3.1820264 1.6150689 2.875499 1.1087314 1.3577005 0.33433583 -0.035891082 1.6613681 1.6017436 -0.2691849 -0.30154866 -1.9129785 0.61265844 -0.8057418 0.54901433 -3.0564811 -2.6453576
mi 2.3277571 -0.5491017 3.2614367 0.8518248 -3.0527775 -0.029621944 0.28557065 1.0731169 -1.527127 -1.0461783 1.4376192 -0.5909391 0.9557519 0.5479197 -0.06654963 -0.3680705 1.0114602 -1.2406436 1.8014532 -0.6765723
arEtrEtxe 2.4548385 -1.7160497 3.0187838 1.3352917 -3.160066 -0.31768894 0.32114482 1.2791733 -0.4363221 -1.2127182 1.4573944 -0.4644839 0.005091593 0.667961 -0.048395798 -0.48104766 0.44993457 -1.0228031 0.8869032 -1.2467345
txelE 0.8428764 -1.6278155 1.6236271 3.1307867 0.76703817 1.754389 1.3360534 1.5398599 -0.57356364 0.42717457 1.8844635 1.777435 -0.0478664 0.15898505 -1.4101233 -0.36947295 -0.9723554 0.27312052 -3.6841643 -2.1793559
pxrs 0.89882433 -1.6522301 0.8641797 2.6512465 0.035122786 -0.826015 -1.0802239 2.3894014 -1.1134852 -0.5904452 -1.6644324 -0.41997898 3.0093453 1.1967958 -0.8982101 -2.2242732 1.499062 -0.10028861 -4.174635 0.85084456
SdrtelX 0.2091841 1.7513982 1.1601171 -0.23293632 -0.19757117 -0.5526316 -0.5832892 1.4067076 -1.0578128 -2.0849166 1.4357275 -2.7706482 0.539751 -0.87817454 2.010734 -1.6654571 1.9593768 -1.6613135 0.2363186 -0.74570113
pbx -0.15327089 0.70340717 1.9822177 0.0035729138 -2.4928 0.034060676 -0.14867774 1.1886717 -1.4517692 -0.7850959 1.4136999 0.23050001 0.6386684 1.480637 1.6023731 0.7137517 0.67903215 0.42758998 1.7323003 -2.2816098
armte -0.36183238 1.31685 1.3025192 -0.68411195 0.53508294 -0.36576605 -1.0374752 1.4857185 -0.8104319 -2.1922884 0.80917764 -2.9366937 0.6222234 -1.1459867 1.1357542 -1.5066859 1.5044287 -1.1663283 -0.09076921 -0.15636925
dbrete...lye 0.9176452 2.0963411 0.07200516 0.31730795 0.18215363 -0.33725557 -0.23569258 -2.4312766 -0.9773362 1.6142273 0.42665553 -2.4135091 -0.056472074 -1.6088794 0.3773745 -1.8618737 5.179909 -1.2011224 -0.13843323 -1.7846014
Steli 3.5322847 -0.82661736 -1.9410766 1.1634645 -1.0659642 0.47409475 0.51062036 0.023655184 1.8420577 0.16456446 3.8541787 -1.0647311 3.6102371 -0.62270606 1.1215916 -0.9556396 1.4098704 0.5130776 1.5439909 2.181981
meteli 2.40766 -0.8744837 -1.9618305 1.2398847 -0.3634392 0.05833085 0.61712795 -0.5169873 1.8867049 0.30153567 3.9154878 -1.5261896 3.7673376 -0.9143355 0.1852053 0.13103297 1.4316262 0.12594597 0.11641734 2.828689
kditele(wi) 1.9303095 -0.49059704 -2.1156104 0.75260735 0.1259994 -0.2828956 1.0521116 -1.3390324 1.8450903 0.43362412 3.1598413 -1.8716751 3.4811797 -0.9853013 -0.9600737 0.4211428 1.7805558 -0.33677214 -1.2343081 3.1878355
SEye 1.246965 0.19952017 -1.9529243 -0.051139034 0.77881646 -0.06866892 1.0081619 -1.5701699 0.17680894 0.66351324 1.7036853 -2.100733 1.4557474 -1.0489734 -1.0694976 -0.699624 3.7077103 -0.65437376 -2.1366568 0.8530902
.txelEwi 0.6493335 0.8029869 -0.5687162 -0.63505304 0.43627742 0.5757608 0.03459474 -2.1718686 -1.4443882 1.2574483 0.17919503 -2.7253988 0.15176861 -1.1607498 -0.34496802 -2.1501648 5.454086 -1.331686 -1.0741931 -0.80911183
...reNdpp....ye 0.8006749 1.209027 -0.3071148 -0.2248819 0.1962799 0.42497098 -0.029916354 -2.323663 -1.574014 1.3862475 0.22125264 -2.6779513 0.024500502 -1.1489427 -0.029929932 -2.233236 5.313617 -1.3495163 -0.72223395 -1.2723651
ap...yetmdelEwi 1.812013 2.4603739 -0.4762326 0.16773872 0.23067325 -1.3072661 0.208961 -2.2967165 0.20040797 1.2752335 0.97245294 -2.3301268 0.042443525 -1.7349095 0.026030287 -1.2187812 4.976284 -0.43405434 -0.18788841 -2.0334816
adEte 3.9719234 -1.3855456 -1.6768799 -0.053655878 -0.7586453 1.5575002 0.032305207 0.59186125 0.68349993 -0.23405889 3.2767425 -1.4938846 2.1491957 -0.11898938 0.86214507 -2.5520773 3.2092588 0.5200434 1.2772216 0.78170747
trs 2.1520278 2.6947298 -0.58488715 -0.281628 0.21387915 -1.5549152 0.5042248 -2.2966313 0.65079814 1.3193135 1.0997512 -2.431961 0.2474001 -1.8478281 -0.330206 -1.1190356 5.1166396 -0.06303179 -0.33470213 -1.861129
akdiyetedxelEwi 0.8100864 1.8563167 -1.0352731 -0.7652295 0.83252674 0.25114414 -0.29326856 -0.6234462 1.3669115 1.6422626 0.2884824 -0.8639814 1.2380393 -1.3600495 -1.9998598 -1.0791457 3.6313384 1.3228307 -0.50211746 -1.3397884
elEwi 0.107778676 1.91612 -0.5076856 -1.1019413 0.92223287 0.8291357 -0.43184757 -0.65434337 1.4455948 2.138466 -0.027509425 -0.8989765 1.6466292 -1.2462245 -2.4224758 -1.2675307 3.625335 1.4237795 -0.5310244 -1.2308673
terik -0.8172131 1.6930916 0.18149236 -1.1723285 1.0458249 1.3438107 -0.6915217 -0.40646037 1.0846392 2.1881266 -0.5746226 -0.98884904 1.6527364 -0.90967983 -2.4945874 -1.6382743 3.2446613 1.2715312 -0.2787598 -1.202972
beni -2.3629916 2.274484 1.6674002 -1.2194977 0.042322785 1.8578125 -0.27499804 0.7498313 1.1739938 2.1626492 -0.27905086 -0.3264275 2.9404159 0.4819763 -1.2519449 -2.024213 1.7965213 1.500971 0.10192262 -1.6888698
eyi -2.581693 2.3198824 1.7220855 -0.9770635 -0.27753443 1.8382106 -0.31023392 1.3254436 1.0849674 1.55816 -0.03541031 0.047915567 3.1333146 1.0378945 -0.17824394 -1.9485403 1.0668789 1.5972751 0.66915643 -1.8396038
...eteliyetelEwi.... 3.5852342 -1.06902 -1.7006427 0.61481905 -1.0826656 0.8255746 0.3903926 0.18883643 1.3000741 -0.0017947252 3.8150465 -1.187132 3.1506472 -0.40912092 0.7776222 -1.4604162 2.0567648 0.48623508 1.5275109 1.5997097
...yiwllEwi 4.2422037 -0.88876307 -1.8156533 0.3882466 -0.4159846 1.865331 0.08405776 0.40286946 0.7475696 -0.46972978 2.6089122 -1.8118945 1.6131573 -0.14083649 0.49528065 -2.3925984 3.3023725 0.42007375 0.14453612 0.091097206
ptrEtis -1.3807298 0.73558766 1.5831693 -1.2985243 0.94840264 -0.5533729 -1.3116043 2.1956465 -0.79083776 -2.3641071 0.073909424 -3.246034 1.4360105 -0.64120805 -0.023053467 -1.149504 0.9610967 -0.11930265 -0.22535333 -0.18696669
b.......... -1.3073347 -1.0330807 2.1233923 0.71544087 1.3601359 -0.098562956 -1.7127959 1.4061868 0.1244507 1.0768702 -1.5049913 -1.1271535 0.4150827 -0.81414 -1.2057875 -2.0676599 1.1218028 0.49699134 0.28155854 -1.4129977
ret -1.420317 0.33404517 1.7909293 -1.6136104 0.7937389 -0.96102846 -0.8171137 2.4221048 -0.5174809 -2.1226842 0.14530523 -3.2855299 2.1254764 -0.1465171 -0.44787246 -0.86183435 0.5945024 0.28284794 -0.11211306 -0.22754109
mleqerebr -1.506199 0.37208912 1.9146718 -1.6836429 0.4580102 -1.0803379 0.1400256 2.4237149 -0.5089628 -1.8436582 0.39178318 -3.1815388 2.035678 0.41395038 -0.57845527 -0.8680543 0.47833082 0.28390536 0.11410003 -0.5858037
pipn -0.29170695 0.84426033 2.5125299 0.020790715 -3.1548798 0.15264204 -0.25404805 1.4925629 -1.7772079 -0.91344595 1.5724758 0.3674505 0.78112924 1.9992237 2.0453727 0.9086441 0.5337746 0.5116728 2.2926116 -2.886815
pli -1.2594441 1.2428257 2.9869912 -0.6669716 -3.072595 0.3993957 -1.2105366 2.1983852 -1.2654979 -0.9523967 1.154996 0.1421361 1.9885728 2.0298445 2.0841491 0.49244976 -0.260577 1.093286 1.9739228 -2.3102431
pxilX -1.5363046 1.2844273 2.9688227 -0.683086 -2.5664568 0.2970866 -1.363224 2.543514 -1.2709818 -0.60686207 0.7752237 -0.39275005 2.4502006 1.9878596 1.7084397 0.48332268 -0.22809027 1.0490042 1.4964746 -2.2063968
pipl -1.6652755 1.208539 3.041218 -0.74168575 -2.3097599 0.4298605 -1.5720024 2.9899526 -1.3955431 -0.7306837 0.19026847 -0.55238 2.8306124 2.1338184 1.1682893 0.23309235 -0.8414697 1.1357679 0.6667674 -1.9270545
mesrekelis. -1.7238965 -0.20182721 -1.748122 1.0353905 -0.929159 -0.11515522 1.4354311 -0.43790796 1.0147632 1.2965827 1.2447757 0.3248371 0.9977969 0.8908553 1.3437884 1.6299851 2.4430373 -0.003958738 0.77186626 -2.9411378
Steli....abli...teweteb 4.4539227 -0.38894236 -1.6788572 0.6308237 -0.19763218 1.7113216 0.055449132 0.43025514 0.4840767 -0.55521446 2.063523 -1.7349495 0.92470825 -0.114237174 0.34095693 -2.3689227 3.110305 0.25672883 -0.5465476 -0.27314883
............. -1.9651262 -0.34430724 -1.8314527 1.1812713 -1.135242 0.06809204 1.5847225 -0.4703707 1.2591534 1.6187543 1.5155389 0.5087969 1.1012408 0.95130116 1.2762177 1.7558975 2.7047164 0.07719813 0.5170316 -3.0222955
