1868 100
yetmdelEwi -0.97545874 1.4373242 0.5404948 1.8963029 -3.335589 -0.24469905 2.2253566 -0.3150714 0.95493704 -0.80882883 1.936606 2.6444182 -0.98756856 -1.6116937 -3.180471 0.32255977 0.4634783 1.2702634 -2.1999996 0.5250923 -1.0535443 0.6034609 0.13606843 1.7434609 0.89167464 0.53331184 2.019083 -1.5509328 0.75470495 -0.19543219 2.2786252 0.1427458 1.7230202 0.8113013 -0.0010421465 -1.0692911 -1.3264916 0.34436917 0.24938697 3.5610743 -0.9112291 1.7462832 -2.3121214 -0.6398047 -1.3890104 0.87724286 2.144256 -0.3658534 -0.6475434 1.7252797 -1.8325069 1.072183 -1.4035496 0.98364294 0.6036276 1.1933875 -2.400745 -1.3523208 0.44568193 -2.5016637 -1.1112599 3.1691577 -1.3553796 -2.3711617 0.69493216 -1.9060624 1.5652099 3.0621133 0.5677803 -0.7834914 1.8946114 1.8646115 -1.8508643 -1.8785902 1.7862672 2.6022384 0.40440753 1.2029033 1.3316394 0.35214522 1.2164257 -2.7570267 2.822335 1.8463048 1.3620497 0.38964084 -1.5386596 -1.0640005 -0.22308573 1.159144 -0.6549105 -0.45863947 2.2757144 -1.4409053 0.6910554 1.8832946 0.24833778 1.1898792 1.2995875 1.6997409
wEmnitX -0.77826196 0.71663517 0.024943935 3.4360418 -1.9319748 1.454783 1.0919876 -0.7163403 0.6639288 -0.22668156 -0.1438261 1.8149495 -1.2917469 -1.1997681 -1.6637222 0.5261476 -0.36183876 2.118985 -0.6625778 0.1345332 -1.4214911 0.55685586 0.44012085 -0.06320943 1.5830634 0.8497841 0.34920004 0.4258061 -1.1204469 0.327989 1.5937043 -0.40221092 0.5154223 1.0837971 0.26618835 -1.3237883 -1.858045 -0.22394907 -0.11115652 4.266403 -0.2592061 1.968769 -3.634252 0.22913274 -2.0876265 0.6114442 2.0091686 -0.7546574 0.73100406 0.8033209 -1.5010964 -0.21997446 -1.5581913 0.5186027 1.1649125 0.046803523 -1.4493172 0.62631637 -0.02100524 -2.5886312 -1.3559884 3.0548782 -2.5027883 -3.7249818 0.44618398 -2.2342415 1.5519468 0.7672578 1.0821742 -2.0244546 1.68691 0.30346265 -2.4357073 -1.7579488 2.3834581 2.2772703 -0.63111037 -0.5998972 3.2708483 -0.22274707 0.65936816 -2.6291254 2.7638805 0.90286005 0.34381407 -0.60769296 -0.57678944 -2.1044757 0.0042766673 0.83608526 -2.2331748 -0.07231517 2.3083422 -1.7251883 0.87411284 1.9009492 -0.84311664 0.7185886 2.2726383 1.9623234
aribet -1.9558848 1.9545231 -0.8205748 1.3948991 -3.0583935 -0.9603878 2.1871552 -0.48582837 -1.1985435 0.21578741 1.5921422 1.2962385 0.1704621 -1.1491086 -2.102881 -0.9442917 2.133129 0.5201736 -3.4265282 -0.903899 -1.8709807 0.17134248 0.5140245 -0.62020934 1.2716534 0.99600995 2.3193278 -0.8326441 1.2402247 0.2211186 2.9038572 -0.23361187 0.15561944 0.42815968 -1.7337117 -2.5776985 -0.7268992 1.1124309 0.8758633 2.0202506 -1.9206325 1.2418426 -0.64921427 -0.809311 -1.8970406 -1.454068 2.2582736 -0.7273152 -1.1852876 1.2285984 -0.62835604 1.196731 -1.3984201 0.7398407 1.5649133 1.3720938 -0.84784234 -1.9191003 -2.1707282 -2.064137 -0.78066325 0.70002216 0.073407955 0.1157608 -0.26875696 -0.77219284 3.1018639 2.0341017 0.6215013 1.6418121 2.4197805 1.0323193 -1.693444 -2.9176817 -0.6032989 3.843324 1.2881122 2.2052522 -0.11112683 0.39112827 1.4416076 -1.844388 1.6370475 0.56012315 0.9218669 -2.1572242 -3.2602077 -0.8696288 -1.1345471 1.5267626 -1.5827638 -1.4347891 2.5666964 -4.6036105 1.313212 0.17677245 2.297263 1.4934348 2.7383776 2.5370154
ateqi 0.054075304 -0.16528943 -1.8093363 -0.35812828 0.29779506 1.0198605 0.36877328 -0.529184 1.6316117 -0.04693954 2.0542738 -0.14935459 -0.72313595 -1.4864812 -0.23208983 -0.6107132 -1.8006293 0.10102864 -0.036849808 -1.4681908 -0.567709 -2.3644564 -0.12775245 1.0341364 -0.6324586 -1.0147356 0.12535185 -2.4386668 2.3954723 -0.86503685 -2.627143 0.8658522 -3.7213943 1.1030602 -0.42111662 2.1807578 -0.7724559 0.770767 0.9207855 -0.5925686 2.1578226 1.0222269 -1.3974098 0.74853754 2.152752 -0.09972555 -0.9963196 0.9065993 -1.3249458 -0.26708725 -0.6906737 -0.7902617 1.6722025 -1.8273505 -2.2821028 -1.5458308 -1.2910609 1.4346426 1.2938569 2.4474761 2.9543629 -0.83376586 2.686191 -1.4905267 0.7213907 -1.8642702 -0.5184125 1.4383749 1.4545019 -2.5141706 -1.7362087 0.68580776 -1.3443344 1.2948351 -2.7000396 0.917443 -2.9843018 -2.1001081 1.6838025 -0.1320053 0.9478341 -0.30328947 2.244802 -3.7616212 1.6184745 1.9026563 0.074665815 -1.0901294 1.2176938 -0.2271102 -0.004658371 2.354123 -2.5837934 1.8845859 0.8529038 0.43242183 -0.99868727 -2.1424704 -1.6999408 -0.65897214
belElEke -0.7838807 -1.0359838 -1.197813 -0.30057016 0.81911814 -0.006661012 0.42424175 -0.9459558 0.76670897 0.62659585 2.2479868 -2.075779 -0.26594234 -0.5393266 -2.7981627 0.44855332 -0.43796843 0.09361793 -0.38185826 -0.7899229 -2.8463185 -0.488977 -0.4349122 -1.1228892 -0.023914438 -0.00046319433 -0.25155443 -0.9996467 0.31962484 -0.49265668 -2.4260287 2.5073829 0.081360705 0.51855856 -1.3609709 0.5027905 -0.5166189 -1.4065089 0.101757474 -2.6769278 -0.36000097 0.048628744 -1.9987072 1.1977816 2.225422 0.21779814 -1.492673 0.35850736 0.4043451 -2.3104293 0.82586485 -0.3706081 1.517897 -2.7625473 -1.448031 -1.687917 0.030269556 -0.794996 2.9535336 2.1211123 0.3917196 -2.0259674 2.847585 0.13847761 -2.3597884 -0.31075814 -0.17749423 0.761168 -1.3577833 -0.98871946 -1.4749304 1.6638147 -0.367015 0.4771741 -1.7491707 1.215293 -0.2286986 -3.482332 -0.7161412 -1.1605741 -1.1922529 -0.4376004 2.2292647 -0.5401245 0.6456061 0.83320665 0.27174857 0.19942214 1.9519529 -0.13888173 0.20258906 3.0381765 -2.123827 3.8598983 1.4718057 0.2979691 0.051768173 -1.1664468 -2.614821 0.7278617
mdetEwi -0.5477779 -1.4267193 0.10177647 -1.4945157 -2.3981109 1.9716724 1.3839581 -1.5480611 2.2693076 -0.8386212 0.91027635 1.3111776 -1.4980606 -1.6999612 0.0012904509 -2.0868387 -1.80501 0.11451643 1.2102442 0.14037298 1.0246799 -2.7155397 0.55040115 1.8489122 -1.5452876 -2.6639516 1.8041886 -1.8841043 3.042884 -0.1836743 -1.7160664 -2.2161903 -3.314 -0.8173569 2.0815735 1.3876601 0.66611737 2.716197 1.7676563 2.4973657 3.2001388 0.029945754 -0.88369477 -0.4537989 -0.56629986 -1.7692096 1.7033157 2.3983126 -0.9266587 0.7060442 -1.8061286 -0.37423253 2.181498 1.7919989 -1.5728595 1.3203366 -1.1585796 1.4018675 -0.5582066 0.59737545 2.1584027 1.158404 1.6523107 -3.626092 2.6435611 -2.8502476 0.5761406 1.1852462 3.6582632 -1.9602551 0.4317045 -1.7218121 -0.34706172 1.6031159 -1.8657279 0.30999556 -4.287668 0.27741197 2.3149009 1.1861053 2.4644108 -1.4937295 1.100701 -4.028171 1.2078394 1.2478625 -0.839059 0.3066124 -1.0138203 0.06318599 0.5573341 0.35497072 -1.466006 -1.102606 -1.5167178 0.61844546 -0.2601367 -1.5549856 -0.7009128 -0.8710003
terikelEwi 0.999768 -0.43759477 -0.78563863 2.3072844 0.93543017 0.12070475 -0.87027276 -1.923955 -1.9696124 -1.6588829 -0.57232785 1.0789473 -0.46057272 2.4199214 -0.10374515 0.25380746 0.6466552 -0.7720626 0.5264179 1.1289544 0.94306827 -0.12625393 0.60850275 -0.45815095 2.2468925 -0.53414595 -1.9090537 1.0956734 -3.6119554 -1.6696539 -0.97365177 -0.12520675 0.3352714 2.037828 -1.1878548 -1.6220918 -2.9532335 -0.20815778 -1.1802007 1.119735 0.63330245 1.5214094 -0.5667492 0.74398667 -2.3133204 3.1023004 -0.7526273 -1.7975043 1.7356789 0.076973714 -1.1034508 -1.6851294 0.4406693 0.8894232 -1.243773 -1.5154778 -1.2034624 -0.6163816 -1.629649 -1.419262 -2.6192102 0.25775328 -0.15680169 0.11021034 1.348684 1.1514264 -1.3142059 -3.760522 0.9400002 -1.8332871 -2.1045365 1.4752904 -2.9149942 -0.8471035 1.5647768 -2.2467496 1.0055015 0.31144053 2.3374906 -0.24515142 -2.2064273 2.4221773 -0.7334138 1.8789232 -3.0095196 0.15101203 1.08523 -1.9603564 -2.2285857 -0.4077569 -4.5737567 0.414832 0.9692639 0.37073392 1.0670516 -1.0159308 -0.1602045 1.8261533 0.26079208 2.6100464
SmlE -0.7801877 2.7891731 1.9671278 4.347118 -1.7647159 0.7392717 2.7243977 -1.7755902 -0.5475665 0.15239751 2.3998373 3.7935894 2.5918546 -0.035153374 -1.631159 -0.5402988 1.9968572 1.959735 -3.8407629 -1.585647 -1.8905125 -0.11081788 0.7420008 -0.2795448 1.8618364 -3.2717483 2.407648 0.48975128 0.43000934 0.48681444 1.3474538 0.19244026 -0.9104033 -0.0063545783 -0.6532481 -1.278024 -0.36322206 1.247297 0.41186172 3.0731804 1.6040485 0.14839467 -1.1980219 0.77424324 0.42193982 0.56465244 -0.3607564 0.013542829 -0.36932018 2.803875 -2.044921 0.3919896 -0.8205142 0.6100844 -1.6904429 4.0243835 -2.1464665 -0.5637218 -1.6264439 0.35676414 1.1564145 1.1929897 0.92349803 0.8097728 1.9107492 -1.4692274 0.61986595 2.7812347 2.4376607 -0.8996946 3.480354 0.58343464 -1.8030101 -0.88945746 -1.0664073 2.0676422 1.3793757 -0.37669688 1.6798964 -0.45482245 0.88824034 -2.5762327 0.088248596 -1.6479424 -0.4438895 0.67468655 -0.40477085 -1.3404428 0.35761946 0.6763822 -2.4807444 -3.1557486 0.1753169 0.018864164 0.42806575 1.0381472 1.3763826 -0.4468269 2.4259 1.705474
qE 0.4506726 0.038712647 -0.40749282 0.5262913 2.1627553 -2.4879236 -0.95792824 -0.49444318 0.07243195 1.3470397 1.3770082 -1.0126121 0.21807963 -0.06890316 1.8106284 0.40942603 -0.29028636 0.91069674 -0.7385927 0.45239934 0.8854094 0.16973227 -1.4347178 -1.276378 -0.59468263 -2.2806103 -1.409321 -1.6938457 -2.6670592 -1.7613302 0.3954069 -0.8213279 1.1363324 1.258094 -0.8725914 1.2857628 -2.0644753 0.34169862 2.9451668 -2.3280547 1.1030266 0.63942516 -0.8934324 1.8323495 0.5413123 -0.29956463 -0.511573 -1.1961342 0.5544247 -0.2791773 1.1654729 -0.5814642 -2.0153792 0.67567986 -1.8991659 1.051813 -2.5671506 -1.8093839 1.8028269 -0.19982645 -0.42030177 1.2708334 0.4353518 -0.9581518 0.01488674 1.0968434 0.59931 -0.038476124 -1.9804007 1.5596175 -2.5645752 -0.3362083 1.1805278 1.7569443 -1.1323947 1.0513208 -2.17466 0.08618078 -0.94133735 -0.5510095 0.49202052 -3.103016 0.727286 1.1923621 -0.8019932 2.1598604 -0.1723422 -0.12588236 -0.24586287 0.2920027 -0.48259923 0.45606038 -0.76673883 -2.0481691 1.86031 1.9154822 1.5381643 1.708666 1.1515849 0.7043165
Sklte -1.729729 0.49163055 -1.4142762 2.031236 -1.605558 0.17155716 0.34526774 -0.15635979 -1.3821324 0.516239 -0.77489185 1.4647353 0.026217613 -2.1868017 -1.9220128 1.0794761 -0.8128945 0.8910334 0.587955 0.72500706 -1.4945544 2.4977262 -0.5440836 0.12691326 1.8340554 1.6849066 -0.47819507 2.1853867 -2.6762283 -0.70971954 2.6691515 0.5044357 2.4371333 3.2349813 0.065002464 -2.4697711 -1.9276366 -1.5906774 -0.3824879 2.9705417 -0.42779773 2.127129 -2.4548645 -1.0965612 -2.0450065 1.0024325 -0.10438345 -0.073717505 0.4945692 -0.78774434 0.46430904 1.4132462 -1.5239176 0.028697226 0.9768765 -1.9232249 -2.5191514 -1.3485075 1.144183 -3.545221 -2.1267586 0.50826025 -0.1029433 -0.43981934 -0.55124253 -1.0945575 0.7782252 -0.85411704 -0.72757375 -2.6650145 0.19913489 1.4588057 -2.2371845 -3.3673067 0.19042677 1.9694612 1.9680231 -1.6668909 2.4228494 0.8026195 0.4219299 -2.083975 2.215596 3.1077225 -0.38290545 -2.3524122 -0.9814473 -1.8804439 -0.5867734 1.0598954 -3.9726236 1.040918 1.9772799 -0.2580257 2.3100493 -0.27691558 -2.5949004 1.1618925 2.6943493 2.2063804
wi 0.46031785 0.4248446 -1.0817368 -2.744115 0.039112747 0.67780477 -0.32793638 -3.527936 1.242102 -1.1554691 3.4394722 -1.0444249 2.2893045 -0.11639256 -0.7823699 0.7661722 -1.0186524 0.2379499 0.90995765 -0.3493411 -2.881178 -1.6570886 0.17600352 -0.34100753 -0.037555687 -0.18496856 2.3596277 -3.158108 1.2165982 -0.27437395 -3.7906733 0.12222436 -1.6693861 1.5016869 2.7159548 2.3309476 0.21291676 -0.0069000684 0.048680365 -0.55358016 2.7485936 0.1576855 -0.365296 -0.41227996 0.53906643 -2.6073785 -2.4503584 0.25678727 -0.77899396 -0.22724292 -1.5349387 -2.2311513 -0.5490778 1.5501857 -0.68383527 0.7487507 -0.52651805 -1.9422731 1.8932333 2.080963 0.77007765 -1.8642853 2.834843 -1.964419 0.13009685 -2.0538447 -3.4285057 -0.6800801 2.5322773 -2.8040783 0.70143336 -0.52964777 -0.63313574 3.6332958 -1.7469623 0.6715605 -0.8954339 -0.85484636 2.5132887 2.002095 1.8092049 -0.6735649 0.50768244 -1.9745693 -0.49133 2.388247 -0.72241557 -0.7081023 2.039664 0.707073 -0.25234976 1.1189022 -1.8283492 2.5802705 -1.00941 0.11926645 -0.117771424 -2.9368966 -1.0362983 -2.600013
wESi 2.3679357 -0.4222026 1.3629816 2.0843503 1.2275809 -1.5133058 -2.1301858 0.9522161 -0.22401468 -1.2664584 2.29386 -1.5608044 -2.5749567 3.2350173 2.8133872 0.23522647 -1.8636483 -0.90246236 -0.905494 0.5434746 -0.25515458 -0.49801847 0.80869335 -0.74477303 -1.2280476 -1.3562928 -3.4790926 1.0744674 1.0363625 -1.5015148 -0.6954689 -0.5738522 0.87596357 0.6492258 -1.7458316 0.29969424 -1.6070759 -0.051002298 0.12413601 -1.1710405 -0.1504426 -1.5735393 -0.13430455 1.1188437 -1.5111264 0.31118235 -1.9908651 1.6045245 1.7612982 1.1080558 0.5791194 -3.2817106 0.33755907 0.78048503 -1.7520429 0.9276092 2.6513875 0.9695586 -1.1670408 1.7604299 -0.49323744 1.7255895 -3.1218772 -1.3078301 -1.3090124 3.3970737 -0.058307264 0.57572097 1.21938 -0.05034027 -1.0187523 0.36206663 -0.24453075 1.5590686 2.0370686 -1.6130552 -1.4446132 1.7304238 1.4468405 -1.4007267 -1.4202214 1.7989014 1.2537074 1.6554579 -0.17286596 4.0325384 -1.5938494 0.73894405 2.6698396 -0.6798432 0.5827003 -0.481959 -1.0996855 1.1261432 2.2728183 -0.7183366 -1.832117 -0.20400184 -3.2048616 -0.48483706
wES 0.48188335 -0.798836 0.9142768 -2.6244934 4.551227 -1.2519407 -3.7150161 0.50186354 1.0277467 -0.4254305 -1.7342598 -0.6910622 -2.502292 -1.5331707 0.8949066 -1.2086041 0.48057008 -0.9389715 0.29802337 -2.1706696 -1.7798228 -0.6118245 -0.76559186 0.33734474 0.022797974 0.13501747 -2.171741 0.1666752 -0.6202112 -0.31018806 -2.7158933 0.7875426 0.02052508 1.7920077 -1.3154951 -1.4209517 -2.8798757 -1.1846025 1.7601662 -0.15066531 -0.025617786 0.77714473 0.113183714 -1.8299918 -1.4519732 -0.29116607 -0.28347725 -1.2314351 -0.5975884 1.9537071 0.13869809 -1.4645 1.8938864 0.36416283 -1.0626034 2.5377846 -0.3325275 0.6470963 1.2053564 3.2510343 -1.9547011 1.3521863 0.27923203 0.9491287 1.6845033 1.0817317 2.3380148 0.05169693 -0.7873066 2.6680765 -1.6740519 0.24862693 -1.3783501 0.31196544 -0.6355173 0.09117322 1.0218296 1.8270637 0.11843031 -1.5083802 0.50634503 2.4090812 -0.94709164 2.7692752 -1.052867 4.089559 2.1793494 0.34225932 0.06689431 -1.2942499 1.3351811 0.9613251 0.010672111 0.083736405 2.9109652 1.401963 2.1554656 -2.5610673 1.9301997 1.0296541
qEwi 0.013966331 -0.48933935 -1.1104525 0.15174712 0.5186128 -0.884984 -2.6776857 -0.007894092 0.8798193 0.723024 1.6105057 3.0992863 -1.6163058 -2.3057914 2.5536654 0.3160143 1.3168131 2.9728627 0.23674943 2.810924 0.23127837 0.42278093 -1.5527911 -0.30056134 -0.45778906 -2.458849 -2.1170828 -0.6610182 -2.9454105 -0.7563611 -1.7303703 1.1413934 1.6125745 -1.5666251 0.4262631 0.6140531 -0.1776801 -0.19074923 3.620332 -0.3085035 0.43073368 -1.9521317 0.15340306 -0.01805793 2.3149168 0.10962239 -2.0967977 -3.2207778 1.8579638 -1.1467733 0.9351145 0.14987989 -4.403174 0.5432209 -0.65261537 0.2730418 2.355122 -1.371591 0.84893405 2.436778 -0.63155115 2.6632252 0.7013093 -1.4761709 1.718106 1.7399708 2.380079 -2.2575936 0.24081114 -0.68270475 -1.6860335 -0.9113646 -1.7219753 -0.21333198 0.8855456 -0.09236839 0.69503075 0.9044854 0.45673853 -3.5332747 -0.09778507 -0.84989697 0.05091518 1.8246257 -0.29156446 -0.381163 -0.7709084 0.6179033 1.7379115 -1.5547554 1.6549208 0.27205044 -1.4792911 -0.6610527 1.4678345 -1.952634 0.604986 0.60702115 -1.9532733 1.5760121
yetmdelE 1.2250477 0.8443031 -0.89536816 -3.4968178 -0.018595926 1.7277844 -1.0302562 -2.4345617 2.578065 -2.777182 1.9061786 -1.0232087 -0.73324126 -2.857265 -0.6462368 -0.927218 -1.1291951 -0.52314377 1.7722048 1.2085612 2.0462196 -0.079226166 -2.3505013 0.16366589 0.39909396 -2.3385074 0.517617 -1.7605289 1.2007374 0.4891559 -4.616992 0.4232882 -2.2562778 -3.9470088 -0.14335908 -1.0426748 2.1036239 1.3701864 0.13950333 2.1114476 3.0171099 -1.1516367 -1.5081444 1.4010603 1.8303396 0.45965213 -0.6907315 -0.69928014 0.6919307 0.9492945 -0.19137773 -0.2605897 2.042953 -0.84537697 -2.8865087 -1.931016 -0.542987 0.8809663 0.1900261 3.3023493 0.45934364 -0.53188694 2.0818708 -0.7707988 0.3630919 -0.9022765 -1.2851982 0.98695755 2.707503 -4.925414 -0.9748981 -2.4002144 0.74945265 2.0875638 -3.2516298 0.97029966 -1.5376892 -0.3927567 1.6908972 0.44097668 1.2663329 -0.08634764 2.2452266 -4.0224023 1.2851806 2.2482638 0.18283044 0.61611575 0.517995 0.2775056 1.3072938 3.82143 -2.787398 3.157727 -0.24766573 0.5457637 -2.6658025 -1.6477754 0.024065726 1.8480915
aqebetEwi -2.936686 -0.17553048 -1.4856671 1.809966 -0.8562045 -0.34026498 1.0712912 1.6542323 -0.57610524 0.15944713 2.0097525 -2.5976014 -1.4596609 1.9264331 -1.945807 0.60400933 -0.6594054 -0.9337551 -0.22139627 -0.031810503 -1.4925784 1.7171919 0.6136511 0.43351883 -1.525616 1.7831112 -0.42611068 1.5176674 -2.0776794 -1.5056299 -0.561405 0.7375578 1.5889065 -0.2168969 -2.9769568 2.0581353 -0.13368139 -2.484186 -1.9929032 -0.5665619 -0.40846398 0.34229317 -1.4422524 1.5916201 3.0046244 1.3719615 -0.41352642 -1.5885527 1.0765485 -1.5796714 -0.30756748 0.1465171 2.1350555 -1.5558414 -0.42272305 -1.1640732 0.94387096 0.40335736 2.429532 0.068767905 1.2323265 -2.0124865 0.7813703 -0.57904077 -1.8545972 0.24005154 -1.0173899 2.147269 -0.47221595 1.4796668 -1.7930768 2.718891 1.9806631 -1.2810502 2.0754027 2.1591992 0.7861201 -1.3699181 -1.7106788 -1.0513052 -2.6378417 0.4196922 0.33533743 1.6907588 -0.19083413 -1.9016627 0.85375404 -2.2430174 0.3276128 -1.0577204 0.25476357 1.3614938 -0.26658744 1.1947595 2.6119592 0.75409544 3.1563556 2.304262 -1.2220851 1.1083384
l -0.09283947 -1.4831103 1.4874367 -0.8882629 1.7030705 -0.31343934 -1.7109021 1.0203243 -1.3925312 1.2100444 -1.0583786 -2.5328138 -2.8156981 0.95469266 -1.6978524 1.903723 -1.1684774 0.048341118 0.8033593 -2.854431 -0.54140204 2.4369924 -0.6280942 1.3594663 0.27212176 0.659754 1.0843464 -3.2626472 -0.13517228 -0.8865471 0.55896336 0.7099237 -1.2367173 1.634392 0.39850032 0.24846454 1.0624503 -0.7783729 0.2556773 -1.699154 -0.056692995 -0.04232371 -0.31146604 -0.45314828 0.6036664 2.4007347 -1.6694466 0.74881756 1.7475555 0.34428072 0.098777846 -1.6658139 0.5553432 2.213116 -0.6337266 2.1530447 -0.69665956 -1.8069363 -0.27272338 0.36567062 0.52661556 2.5500395 -1.247446 0.38882688 -1.0566951 -1.2312378 -0.031640425 1.5689213 0.71273816 0.9826083 -0.29526275 -0.25106052 -0.45277518 0.11600225 -0.25042328 -0.9927178 0.46787015 -1.2631027 0.24640642 0.65584344 0.9014491 -2.0396755 -2.1709774 0.46985784 -1.133875 0.66891533 -0.6383501 0.36997065 0.3812133 -1.5041661 0.6477095 1.4941236 -0.44418466 1.5600882 -1.7060038 0.8690349 0.3831524 -2.0038223 0.13687538 0.46737266
qEre 0.3585048 0.028798915 1.0425782 -3.4729302 0.1934762 0.8811135 2.1832483 -3.2087634 1.989375 -0.6337071 0.20255564 1.3122672 1.0371845 -0.8062767 1.3244724 -2.052963 -0.016937444 0.8763552 1.8768376 1.6389691 4.628397 -2.3818388 0.18689942 0.4006347 -1.218602 -0.8850976 1.5052489 0.83695424 2.4500477 -0.05868177 -0.07566473 -0.82858515 -4.59874 0.7055992 3.5290792 1.2605321 -0.6693231 4.520877 1.5867054 1.3637389 2.042908 0.48545346 1.7012093 -0.077747785 0.039445266 -1.2162331 1.5104336 0.66275734 -0.69030684 0.18130565 -0.6697701 -0.509672 2.8322718 1.7618598 2.0608292 1.1472237 1.00653 2.3601282 -1.2273284 1.6059752 -0.2695784 1.3600042 -0.48519048 -2.0993054 4.644033 -2.5650692 0.8436112 0.1828672 4.534723 -1.6539968 -2.0490654 -1.9066945 -0.930779 2.3302648 -0.7305001 1.5256319 -0.27851132 2.4955077 2.4863505 2.0749023 0.36611128 1.4107027 1.792754 -2.7540777 1.5293164 1.7488023 2.6210432 -0.37842572 -1.7049373 1.0936191 0.6595762 -0.61644167 0.8064274 -3.3847594 -0.51528823 0.31209975 1.1501081 -0.10674946 0.9811425 -1.891837
tedxelEwi 0.8265979 -1.6999618 -0.5905198 3.59126 2.126417 -3.173551 -1.0109763 4.9170485 -0.037238896 1.4852705 -1.792787 1.6814829 -1.2302153 0.9137601 0.590118 1.1627055 -0.92680055 1.1747419 0.8525006 2.17283 1.6246948 0.1784361 -0.304086 -0.10931671 2.850638 -2.0759802 -3.0643618 3.4074953 -1.6111513 -1.0061296 3.560134 1.0645988 0.646968 2.8856084 1.3699007 -0.20721021 -0.70193666 -0.25019112 0.5487467 2.4010098 -0.12393389 1.3355154 -1.5732429 -0.69117236 -1.6656337 2.5806406 0.16178328 0.97929627 0.6654172 -0.30596018 -1.2338488 -1.6527447 -2.2148325 1.0625211 -0.19801855 1.0873761 -2.2386537 1.3594711 3.1866612 -0.43707055 0.21708553 2.0638366 0.19363695 -1.1551822 0.39961103 0.35249195 0.9006344 -1.2053833 1.1973307 -2.728382 0.46463397 -0.067122765 -2.3426921 1.3704362 -0.030210555 -0.5298735 -1.0292783 -1.4553047 0.40012634 0.60975254 0.78683615 -2.0610318 2.3957825 -0.8157256 1.1381172 1.0228201 1.7250482 -0.3049616 -1.7891569 -1.8432508 -2.5970438 -0.91345966 1.0236738 2.0998633 0.5941718 0.33401585 -1.961246 1.1272548 -0.47583655 1.8478113
pqr -1.2895962 -1.1634499 -0.20552956 -1.0260489 0.4822108 0.0492365 -1.7312334 -0.9979234 2.578992 -1.408958 2.7645068 -1.5320466 0.37119225 -1.4658186 0.13819355 -0.43957335 0.32883015 -2.9956968 -0.33796257 -2.246049 -1.7203618 -0.89889073 -0.85181636 -1.1256719 -2.2636464 0.7638792 -0.6869883 -0.9087403 1.1273661 1.3685952 -2.3037853 1.3332138 0.6431712 0.75968903 -1.6215063 3.1538396 -1.3183504 -1.5660901 -0.738056 -1.3324162 1.1920478 2.1300483 1.1583194 1.2040857 -0.12847619 0.64166033 -1.5170772 -0.932646 -0.7916933 -1.4787133 -0.6289183 0.6233484 0.036773596 -1.3331245 0.25079125 1.041159 0.36997285 2.1176534 4.1991053 1.0293001 -0.08686768 -3.6702769 2.3812494 -1.075198 0.5723176 -1.2267135 -0.51388454 -1.5435288 -1.3244622 -0.9604228 -2.6955519 -0.693944 -0.7196168 1.3011972 -4.5676594 1.2344986 1.2137184 -1.3634721 -1.6239059 -0.06771723 -0.7861992 1.9886862 2.5820587 -1.4908798 -0.5362758 1.264032 1.9009821 -0.6438195 0.47999454 -1.6690881 1.2368356 2.3666651 -3.4367101 4.3079495 -0.70331496 -2.9053504 -1.0010659 -0.18040648 -0.5485344 2.6501791
qe 2.2898154 -2.6081853 -0.7951449 4.2705197 1.4570874 1.3222287 -0.18143193 0.5134021 2.9255416 -0.7077225 1.2034172 -1.2416835 -1.4556763 3.3981628 0.07192308 1.0674214 -1.1471694 1.8350315 0.95002323 1.0364655 -0.5931086 0.8255665 -1.6759762 1.444898 0.0013539572 -2.5644913 -0.43757933 1.5973704 -2.1780174 -1.359697 -1.0009195 -0.78257036 2.7150533 1.6173397 -1.2057292 0.6729789 -0.9277779 0.2610251 0.8363328 1.8028977 1.2973144 1.2909827 -1.1105605 1.0322946 -0.79498553 0.1733545 -0.4599362 -0.13566487 1.5434062 -0.6194132 0.93674177 -1.614857 -1.7752551 1.1548787 -0.8334458 0.81341076 1.030204 0.08560009 -0.5133784 -0.44783548 0.20983052 3.9488873 -1.6359589 -2.1443543 -0.83140826 1.871626 -2.685453 -2.9322603 -0.16688493 -0.7281863 0.533344 0.4754795 -1.34008 0.102403775 5.290889 -0.3124284 -1.769579 0.6614109 0.42164925 -1.3429612 -2.0497682 0.1753674 -0.42594993 1.9816171 -0.19444112 2.5264103 3.0775073 0.8660019 0.44041532 -0.2443524 -0.07777384 1.1466539 0.77657384 2.3520885 -0.023738649 -0.3994846 -0.85132986 0.33176324 -1.592677 -0.053738285
yete -0.55501544 2.008763 2.4043727 2.3423805 -3.2702713 -0.18439764 1.4238858 -2.279623 -0.8996283 1.2854205 1.6139065 1.1190046 2.3904989 0.1420513 -2.2007585 -0.34780994 0.88159794 0.4246208 -2.7582796 1.3705845 -0.7416506 -0.42159554 0.28052303 -0.40129653 -0.30474344 3.240671 1.2316208 0.7695227 1.1229832 1.8644546 2.6695967 -2.5706363 0.87165344 -0.7592307 0.90531945 -3.2490945 1.0429939 -0.5945542 -0.25494042 1.7785162 -1.0341653 0.16931638 0.83931214 -1.6777227 -1.8237203 -2.2041578 2.8176377 -1.4997762 -3.2014487 0.6333882 0.3138991 -0.36394975 -0.06814298 1.9476812 0.55273813 -1.4429914 -0.2009125 -0.82983667 -4.1912003 -0.5560366 0.41520467 2.442721 -2.2206993 2.171142 1.7778412 -0.12439106 5.1448226 2.347151 1.3951092 2.5683315 1.7847514 -0.18462172 2.3797402 -3.4976327 -1.8959959 1.2479465 0.7590286 2.5784647 0.7344909 -0.77430093 -0.73394287 -2.3497417 0.20053785 0.14685076 -0.02746766 -1.6713827 -0.7283362 -1.0993892 -2.1920135 0.19085656 1.0165046 -1.6385391 1.1662298 -1.9617381 0.12716115 -0.41484678 1.00786 -0.21115181 1.7609847 -0.15001635
smle 0.4187553 -0.3570038 -0.03959346 0.040140666 0.40745297 1.0503448 -0.10028884 -0.9612189 1.806129 -1.9099119 -1.1305177 0.2482891 0.097823136 -1.3050156 2.031331 -0.4696812 -2.915589 1.3159928 2.8544378 -0.41752955 2.7665884 -3.6683826 -1.4396713 2.5102654 -0.5366929 -0.15740642 0.8306914 -0.46195972 3.5762258 -0.35445523 -2.0411484 -1.0527903 -3.7630017 -1.7656184 2.977249 1.2795463 1.6184057 2.1642268 -1.9547957 4.062566 1.2649968 -1.0168425 -0.6443053 1.4174932 -1.4819152 -2.999455 2.3612785 2.1301453 -2.6305928 0.28908536 -1.2130138 -3.0521493 1.1773874 3.3191736 -0.8323947 2.1526859 -3.1004043 -0.15927367 0.7226124 0.52910584 1.9092562 0.61779094 1.2010459 -2.2427561 3.7441387 -2.8424163 -0.47825447 2.6356559 2.6253033 -0.72499555 -1.0731694 0.36572874 -1.1497313 -0.75985515 -3.5292027 2.356943 -5.295727 0.20024398 1.8650784 1.6169327 2.5833788 1.7254744 0.5150168 -3.4921064 1.4744171 0.4206156 0.7235655 -0.6918547 0.48935604 3.1983066 0.6883667 -0.8030035 -1.1204325 -1.1221583 -2.0122705 -0.94569886 0.253598 -0.8820439 -0.37363496 0.0121258525
ble 0.74033386 -0.1312087 -1.5377104 0.3263139 -4.1300564 -1.1273345 1.6600319 -1.2490122 0.7840927 0.41784757 0.22693047 1.6487026 0.302803 -0.009425681 1.4370596 -1.3495153 2.4722855 -2.9221334 0.8318803 -0.43173975 1.6101887 -0.76069164 1.1318673 1.2204107 -2.346274 -0.23673704 3.599627 -0.96891177 2.6182296 -1.6186978 3.321928 -1.0721998 -3.4472456 -1.5902379 -2.1517045 -3.46863 -0.97948915 2.1490593 -0.87943316 3.1414843 0.5484253 1.0498189 2.6882489 -1.798872 -0.114285365 -1.2950528 -0.19728191 0.32254645 -1.7139864 0.21609978 -0.59113556 0.3794855 -0.53477114 2.4471827 -1.298363 1.7967721 -0.19360708 -2.1314533 -2.3182344 -3.2938879 0.18275821 0.88965875 0.4642774 1.9580928 2.870023 -1.278001 2.1740773 2.0563848 1.8277999 1.605916 0.78519154 1.1162596 -3.3775425 -2.043774 1.7474246 0.396404 -1.0485684 3.5542438 1.1100315 -0.5118959 1.994887 -2.71758 -0.24030486 -0.006163195 1.3610344 -1.5595543 -2.258086 0.7511911 -4.426691 0.76904774 -0.2888035 -2.5555766 0.8101563 -2.4450743 -0.9598847 1.0818725 2.4699938 -0.089668415 2.072654 0.09592682
tedeqeli 0.25966457 1.6250327 -0.028181206 -0.039023057 -5.023279 -1.4774247 4.6714654 0.25196657 -1.6443458 -1.4220128 0.04833282 2.4930527 0.6221522 0.04916989 -0.25066483 -0.41429546 0.2882427 2.3074818 -2.1941636 -0.57778966 -0.43414047 0.08608474 -0.41832837 1.6962388 -0.66504526 -0.38408643 3.1722791 -0.99989146 1.4429975 -2.2375288 3.8165019 1.0110935 -0.6177456 1.3775042 -0.46380275 -3.1130726 -0.26782972 0.31160504 1.458135 3.7448463 -0.37493 -0.16278195 1.0662981 -1.1162431 -0.6910961 -0.18093252 3.6856194 -0.30678394 0.61972314 0.59713274 1.0520931 -0.23265755 -0.5889225 3.3532696 2.7345202 2.1074545 0.14466405 -0.5539828 -2.566533 -0.45859948 3.200598 0.9475152 -0.09327519 -0.3227917 3.2901442 -0.35176376 -0.31072357 0.72918445 -0.31665638 1.9224503 1.6573862 -0.21984088 2.0114987 -1.2372905 0.46844167 1.2644646 -1.3855938 3.9251277 0.7642291 0.4184318 2.2818344 -0.25948012 -1.5957016 0.23468645 1.1314898 -1.6549507 -3.2806656 -0.18393178 -2.0950627 0.78922874 -1.6299511 -2.8372464 1.676318 -2.317567 0.37453133 -2.9341686 1.0362593 0.7263677 2.5279696 -1.5166397
trqye.yetmde -0.81667566 -0.5483807 -1.0837041 0.14464428 0.11785536 -0.34634826 0.8485477 1.2264041 1.8421813 0.27883324 0.7115018 -1.8702675 -0.086286455 -0.671225 -3.975044 1.0439397 1.2152299 -0.3514124 -0.71327907 -1.4327633 -3.7568343 0.9188606 -0.19586726 -1.223451 -1.1055558 1.891846 -1.6431417 -1.3911598 -1.424281 -0.7396026 -0.00034703128 1.8530695 0.47274557 -0.08292683 -3.157243 2.1150913 0.09335087 -1.5243982 -1.4242803 -2.0443242 -0.6317739 -0.7954923 -0.47751507 -0.25970277 2.1400213 -0.35492912 0.13911523 -2.330977 0.54338175 -2.111639 0.93129027 -0.16120917 1.0601134 -3.165707 -0.17775881 -2.5946624 0.48072052 -1.4927053 1.3664845 0.2307498 0.68286604 -2.0726097 1.8900641 0.7737443 -2.4873507 1.4022276 -0.020621335 0.6991929 -2.1848145 0.11834602 -0.95536566 1.8276129 0.8934703 -0.22917807 1.7513063 1.6012876 -0.9040679 -1.6279914 -1.7889956 -0.4685873 -1.2402601 0.337665 0.88191706 1.4535743 0.21696463 -1.9465168 2.081039 1.5119922 -0.17685989 -2.4549797 -0.96408373 1.66709 0.69846797 1.977895 1.7386025 -0.661534 0.20685832 2.5797184 -2.5882392 1.534729
kemxr -0.95492315 0.5222285 -1.7462696 1.9457427 -0.9386641 0.40268996 2.9937644 -1.8331195 -1.2043195 2.2157755 0.72631264 3.0393298 0.7860198 0.5323734 -1.8723785 -0.124685735 0.9975677 -0.04717062 -2.0106297 -0.90248525 2.3629537 0.43008763 2.2552538 0.06450854 -1.7488757 0.2313746 2.3867466 1.8986533 2.8621585 2.508167 0.44789287 -1.2354363 -0.58116615 1.9996676 0.005313555 -0.9571225 -0.26260993 3.5291502 1.3950884 3.4521887 0.8675331 0.6328962 -0.057395775 -1.1256384 -1.882318 -1.3530846 3.1643395 0.357663 0.8895526 1.4443578 -2.0612087 0.46300265 0.29371965 2.1593516 1.3042547 2.174076 -1.0331556 -2.5485322 -3.4258149 -3.220536 0.6580322 -0.31912583 -1.3400427 0.32235062 1.5793501 0.17590636 1.7369329 2.7973413 -1.695268 2.1347892 2.837245 -0.8939863 0.8173948 -2.6638045 -0.93760747 0.010305619 1.7801753 2.1581469 -0.8771176 -0.19808833 1.799384 -0.3860197 -1.0298369 2.105398 1.706925 -2.0805619 -3.5741944 1.606563 -1.2596415 1.2855685 2.3052084 -2.1963851 1.3674327 -3.9252617 0.2582142 -0.5601809 1.0958611 0.5206837 2.481672 1.1352925
ateqiSitkemEli 1.1553522 -0.4495003 -0.49208334 -3.1172757 2.5579283 1.4743582 -0.37353128 -0.86947834 2.6954734 0.65186673 0.3423653 -1.6843127 -0.11971134 -1.8783036 -2.590595 -1.8070307 -0.5426766 -1.032898 1.6966941 0.59416586 -1.4252962 -0.08821647 1.2343526 0.836228 -2.1791143 -1.1249443 -0.9366764 -2.3236182 -0.68969357 1.1494651 -0.50600076 -0.7530455 -3.2279677 -1.1497645 -0.060493506 1.1245759 -1.4165671 0.6409208 1.5686965 -2.8178697 -0.6563168 -0.42420495 -1.9501874 -0.11455383 -0.44348806 0.31673476 -3.0964143 0.15824258 -1.1001493 -0.08007712 0.024143737 -1.1845574 3.504316 -2.8181005 -2.7738373 -0.38217977 -0.8439521 2.2622573 2.327192 3.9327376 1.3386827 -2.1200194 2.8631694 -2.2009647 -1.1358691 -2.0423396 -1.4688283 -1.6227822 0.33172354 -2.4730718 -2.104628 3.2043538 -1.247371 0.17983639 -2.7901134 0.32956302 -3.3132184 -3.6061652 -0.710282 0.12543717 0.47167668 2.0455706 3.6104057 -1.1242678 -0.28167376 -1.4158143 -0.8891002 -0.61180586 3.1323068 0.352709 0.6827105 2.199405 -1.8857995 -1.0881155 -1.0444722 0.692965 2.5647285 -1.4740219 -4.5441346 -0.1536055
kde 0.9139264 0.22378962 -2.0746152 -0.40789065 -2.852454 1.8237131 0.37273473 -2.7523477 1.8373343 1.492632 -0.25031462 1.3087312 0.6134718 1.2567158 -0.92313445 -0.45116425 -0.20656256 1.6551329 1.5096025 0.1539455 3.9577672 -3.0125656 1.2849017 1.8132083 0.94459325 -1.0363245 0.045244448 -2.755941 3.2163057 -0.11889543 1.1469557 -0.34568882 -2.0050237 -0.38914686 0.89647603 0.19360101 -0.65177757 4.637231 -0.83817434 2.6328816 1.0328897 2.5640233 0.23214415 -0.9935153 -0.95710397 -1.0515263 1.5561286 -0.7958787 -1.5555719 2.0814893 -4.0080624 -2.2954874 0.2892077 1.2273158 0.5884412 -1.0388159 -0.10109023 0.8531112 -0.8323747 2.224479 3.6636798 0.13437106 -0.77112716 -4.0863175 0.6412368 -3.9405892 -0.7217979 0.6678038 4.9605246 1.4376258 -0.42943004 -2.849099 0.21598238 1.193751 -1.6334629 -0.6434832 -4.547672 2.43405 0.95565003 0.7492881 1.8675606 -1.6877534 -1.2247566 -1.9072938 0.17920712 1.0680963 -0.9920254 0.52595 -2.6698613 -0.03987828 0.6248317 0.6808533 -0.23164698 -3.587873 -3.0560477 -0.9315366 0.16662067 -1.9851799 -0.29210725 1.6347994
yetmdelEwiateqi -0.8634765 -1.1786627 -0.5583645 -2.688244 2.0286787 2.2910535 0.8506008 -2.1336558 2.444823 1.8033204 -0.6346625 -0.33482707 0.5142358 -2.2228653 -1.1311803 -0.16696835 -1.5727396 -1.528948 -0.48828822 -2.599599 0.37855318 -1.431707 -0.64856017 0.8085771 0.011438808 0.54945207 0.5498101 -0.791114 0.37836578 -1.1223865 -2.2088852 0.9122403 -2.900122 -0.21825281 2.619099 1.6384064 0.579209 -1.7529194 1.0723381 0.73377436 1.1065592 -1.1605337 -1.3894489 1.6243708 1.7272964 -0.7484701 -1.4599557 3.5734665 0.46039268 -2.3936603 -0.72118616 -0.03377425 1.7179091 -0.41026765 -1.9920033 -1.6153207 0.62387055 2.4712133 3.2889712 1.7303298 2.8774674 -1.9231173 4.4632425 -1.6797873 0.7082072 -2.5638103 -0.8625054 1.3988503 0.36467063 -2.426597 -1.9019518 2.1914341 -1.6409254 1.8769948 -3.0487273 0.6071261 -3.7955728 -2.6832008 0.34320605 2.7022774 -1.1575929 -0.3596082 -0.6536723 -1.3116255 0.2648181 3.752323 0.46163994 3.3149981 -0.46207252 -1.5122759 -0.9593857 6.6491766 0.2856366 2.1727016 1.4115893 0.66288364 -0.016398344 -3.9113834 -2.890408 0.9635017
qEresmle -0.68367153 0.09214468 -1.2272236 -0.43347007 -0.48178616 0.76046693 0.30119044 -1.0552399 1.7210761 2.3081257 0.8500296 0.29793885 0.15043223 -0.55320555 -0.23849647 -1.3583813 0.37412655 0.4785424 0.31109524 -0.47596884 2.0767365 -4.075563 0.19057779 1.5434865 -0.050392877 -0.47709897 1.7007982 -0.9874761 1.3990085 0.46754882 1.5828294 -0.30214933 -2.4325614 -0.6182689 1.5261948 -1.7643027 2.9730134 4.612875 0.7920696 4.7246914 0.21195927 -2.0335605 0.85454905 1.5302762 -1.7835006 -0.6276372 4.315327 1.7034242 -0.33884284 0.111488774 -0.55883086 0.89397836 0.3409764 2.0155938 -2.0330734 0.41094255 3.0528157 -2.4628344 -2.2254233 0.3962708 2.3615928 -0.1413679 -1.1999812 -1.8549967 2.6148522 -1.8076328 -0.9104389 2.4425592 2.6986845 -0.85197914 -0.15268052 -3.1321812 -0.696688 0.3745174 -0.10438279 -0.30255696 -1.8507953 4.5723767 2.5420432 -1.064342 1.8284683 -2.254633 0.726383 -3.3383653 2.5068808 -1.1939102 -3.166909 -1.4756302 0.0988019 -2.521472 0.42853954 -1.9679058 2.5230076 -1.8877922 -1.0510138 -0.09022731 1.0629779 -0.29127634 -2.8843527 -1.2325648
atiyete 0.76148444 -2.706689 1.0602843 -0.5893021 -1.4374686 1.036548 -0.87616676 -2.9715571 2.719122 -0.7771047 1.7610775 1.1533968 1.1156542 0.072019264 0.93800324 -1.294561 -0.89586294 -0.0068522706 3.437908 -1.7093271 0.44297934 -2.0731459 -0.68974036 1.2862995 0.010037101 -1.5658337 0.30127296 -1.42468 1.3461925 0.35359755 -4.505651 1.8316534 -2.5821903 -0.11196794 -0.06201781 1.1178057 -0.7927758 -0.6486638 0.75864303 2.095884 0.26729253 0.24156873 0.1632495 1.0177387 1.9436225 -1.1929078 1.6312034 1.3635559 0.7689847 0.07075196 -1.0812659 3.793932 3.0373094 -0.117582925 -1.1900553 1.4360993 -3.694896 2.9903505 1.3068407 2.6263201 2.477488 -0.4090593 1.4086362 0.71487945 2.948171 -4.0810704 -2.5497274 1.9550729 3.7562537 -1.7851378 1.5629925 -0.09082091 -1.405853 2.3287296 -1.477136 0.67955947 -4.9337606 0.17530301 2.1359146 3.112364 2.3730786 -2.2197673 3.4810762 -2.5490844 3.211263 2.7685952 0.2443814 -0.005777379 2.4609168 0.20669612 0.7496153 1.6280415 -2.684723 -0.8824863 -1.4090672 -0.7584996 -2.5159092 -2.4054608 -0.7312382 -1.4406056
mXli 0.8188533 -1.1274586 -1.7822868 -0.8879954 -1.4248521 2.6504595 -0.29387248 -0.29739952 2.2287164 -1.3581287 1.2497404 3.721304 -0.45403284 0.40347013 2.2103112 0.10379087 -0.42538574 0.2116921 2.7775807 -1.1836671 1.4869181 -2.7826092 0.84745485 -0.26348183 0.901351 -0.4706752 2.7985616 -1.145677 1.6509424 0.3538616 -0.21712023 -2.1681657 -2.5592256 -0.11899924 3.44224 -0.90146893 -1.3532435 2.1381824 1.8614029 4.7776656 2.9403293 -0.8493755 -1.8006765 -2.0933046 -0.0842121 -2.1219454 3.2640796 0.20804328 -2.453206 2.399312 -0.62079144 -2.567985 0.25283965 3.0132492 0.390249 -1.083254 0.9748555 1.325451 -2.559965 2.1965315 -0.042453554 0.55603975 1.1016613 -1.1204472 0.5740602 -1.904282 0.7508116 2.624269 1.0781373 0.963193 1.587611 -0.5781178 1.0773773 0.2089465 -1.7234304 -2.802564 -2.06704 2.430194 1.938212 -0.8237432 1.4539939 -0.40195528 1.6236211 -3.1866977 3.0925364 1.3278843 -2.1401107 0.14781934 -1.7294065 -0.77853185 -2.068674 -0.3965247 2.1077964 -1.9700857 -3.076778 -0.2546725 4.3363643 0.3994656 0.88152254 -0.624046
wetemtr -0.96076226 0.6167085 -0.7882985 1.9139965 -3.5905192 -2.147955 3.6227276 -1.7694155 -0.12999178 -1.4701514 1.6389662 3.2306824 0.017888324 0.28801978 -4.0655184 0.63738406 2.666081 0.49558818 -2.2931168 1.1660951 -2.2076228 -0.7755307 1.493774 0.6453874 0.32312855 1.264528 1.7086629 0.04213981 0.18220234 2.034139 2.5269325 -1.7952307 0.39896795 -1.048631 -0.79607064 0.5329763 -0.8719174 1.4335984 0.020493388 1.8723563 -3.6283162 0.41040817 -0.1622651 0.41937035 1.9494582 -1.2446449 2.911611 -0.99217063 -1.1316848 -0.76643723 -0.93734425 2.1828597 -1.4743011 -1.8715836 2.0271873 0.6051091 -1.7014118 -2.7408311 -1.8288475 -1.3429313 -2.2399614 -1.4138932 -1.1521587 1.1060424 -0.9411656 -0.08329165 2.6673605 -0.07733312 2.5059848 1.5553693 0.67880154 -0.88046414 0.055955574 -3.0213866 1.5531769 1.666295 0.95897985 0.35228616 -1.4818238 -1.7806047 2.2299879 -0.02255309 1.40772 -1.4606171 0.829827 -2.4373791 -1.93253 -0.8661636 -0.15885933 0.3800612 -1.0412568 -3.5086632 2.8999453 -3.8115456 1.2939068 -0.97213936 3.0873291 -0.6313522 3.73755 0.43864542
dskemxr -1.3071837 -1.5324783 -1.4703106 -0.38734633 1.1773365 -1.3171307 -1.2348087 0.23590662 0.8563109 -0.27026382 1.4176332 -1.385437 1.3728442 0.60428405 -1.6200106 0.28383526 -0.124482766 0.018856356 -1.9193822 0.49845952 -1.2910966 0.9063348 -0.88769394 0.9453358 -0.7506959 -0.30781904 1.7836916 -2.3123264 0.31072018 -0.101217814 -2.712384 1.2841339 -0.7973978 1.4998344 -2.4365866 2.192238 0.17511414 -3.5483837 0.1463238 -1.9347899 0.21245621 0.46459377 0.29257 -0.9509693 2.0583165 1.6113797 -1.5056784 -0.31028888 0.34668297 -1.9808497 0.03466801 -1.6601688 1.0132148 -1.9544941 -0.023291616 -0.7470182 2.2855906 0.5162471 2.2157762 0.9206329 0.21331388 -0.7546821 2.2265062 -0.11134403 -3.17088 1.3765022 -0.3212328 0.2802419 -1.2477974 -1.2083439 0.43448275 1.520461 0.48807102 -0.20067641 -0.5807393 2.4520075 0.20122224 -3.7417493 -3.4409802 0.7292354 -0.82431847 1.1850814 2.5047076 1.1066897 1.5100633 0.091110736 0.35914168 1.064401 1.6893265 -0.5483064 -1.3970487 1.9473075 -1.4120321 2.3064187 0.7579839 2.3255363 -1.0802372 -2.2801993 -1.5068668 1.824743
qEriteyli -0.27261528 -0.9444774 -0.87598544 0.08064744 0.19010784 -0.10305792 1.454181 -0.84594506 0.9871663 -0.7275714 2.13034 -1.3721713 -0.40409374 -1.1843743 -1.7679411 0.7019876 -0.36317876 -0.9010638 -0.36095217 -1.2075955 -2.0968919 1.1726018 0.83736724 -0.75380105 -0.5482596 0.40072718 0.82992905 -0.716896 -0.7922478 -0.42232415 -0.17053688 2.3679676 0.8881991 0.899833 -0.50319743 0.35232738 -1.8313998 -2.5451381 -1.8720406 -1.4199371 -1.4484062 0.17231539 -0.8221959 0.18539585 3.7139833 1.0531231 -0.7052033 -0.38934273 0.92099875 -1.1561131 1.9479266 -0.7314603 -0.5956018 -3.961883 -0.5710439 -0.17390272 0.4309086 0.15821894 2.380406 0.26274842 -1.068663 0.20314224 1.5345504 -1.1057869 -3.5235803 1.0399132 -0.7444028 1.0248148 -2.0812445 -1.0208646 -1.5157194 1.806764 0.40958682 0.87745786 -1.3974714 2.0044594 0.064877495 -3.0388732 -1.9039 -0.17135306 -2.526544 0.33699372 0.15535338 1.5768559 0.8344124 -1.3281249 1.0384353 0.976484 1.2232354 -1.4791179 0.13646524 3.1799407 -0.4649956 2.4988816 1.3565283 0.31446657 2.561217 0.73164564 -1.7552438 -1.2439337
tlmenkeli 0.81203425 -0.01581288 -0.5185268 -0.58868015 1.6727965 -0.8963343 -0.4940101 -0.26529157 1.4395632 0.2038456 2.8075218 -2.7841914 -0.59403276 -1.4727508 -0.25451446 1.388706 -0.5502031 0.49368346 -0.5561053 0.5645331 -1.3816013 -2.1954775 -2.4543483 -1.1376034 -1.1762829 0.94909436 -1.9032933 -1.3248544 0.107821785 -2.8887255 -4.341319 2.1083815 1.1377568 0.6157745 -2.314438 2.5000417 1.9945347 0.9642789 -2.1313295 -1.5186452 -1.483897 1.5878682 1.0334027 -0.8919803 0.78074354 -1.0064353 -1.0800233 1.7941749 -0.30848312 0.055805515 1.0958449 1.0299224 0.4423463 -1.1115932 -1.500702 -3.3241632 -0.60495913 1.9463702 1.8287443 2.4489076 -1.0443773 -1.3631684 0.92387956 -0.9368862 -0.42561954 -1.7702246 0.28563026 1.1509172 0.8367474 -2.3790205 -0.40124246 0.83099186 -1.0271888 2.7085023 -0.61501884 1.3282636 -0.4810416 -3.3303103 -0.02247673 2.322304 -0.5500022 1.7594671 1.8008866 -2.1182566 -0.7352855 0.5931895 0.94580513 1.3393391 3.8677816 1.1948178 -2.3289723 2.732615 -1.0882403 2.7744427 0.6945304 0.47428223 2.2226408 -0.036918435 -1.862874 0.19705907
abyetli -0.3092474 -1.1957296 1.3042542 -2.0289066 0.37804237 -1.060219 -0.36740297 -0.72413814 -0.20024475 0.23870063 2.7047284 -0.69532543 -1.9634831 -1.7741398 -1.0639913 2.0807414 -0.010496995 0.09910313 -1.5654936 0.08489675 -3.3069584 1.6361666 1.1924998 -1.2321262 0.4747476 2.513498 -0.8974242 -0.371107 0.11589757 1.0348842 -3.7643604 1.2087419 0.48212394 0.15393811 -2.6584888 0.1565773 0.27704063 -2.9896321 -1.4917161 -1.7370462 0.5099593 0.7586466 -0.35838893 1.6369221 2.7066433 -1.0443952 -0.72331214 -0.2840864 -1.0393839 -0.9719455 0.17985052 -1.4373631 0.6796561 -0.40881282 -3.4472451 -1.4480773 -0.063771255 1.3239125 1.4574493 0.8943115 0.32844707 -0.88615113 2.2062807 0.5139432 -1.7438273 -0.32819328 -2.025203 -1.1205225 -1.6722407 -2.8986092 -1.6339233 1.1638523 0.25117862 0.44136536 -1.4887024 1.1943895 -1.8102331 -2.1666763 -1.9172457 2.3184803 1.7339603 -0.086238876 1.418788 -1.6528448 1.2613322 2.2737756 0.35237214 -0.046599273 -0.16284002 -1.2062068 0.10169568 2.149356 -2.6730077 1.915777 1.987038 1.1525885 0.6540709 -0.44392562 -3.9590335 0.37567002
mklisye -1.1638798 -1.5300999 -0.62472904 -0.6159466 0.5999657 3.0401175 -0.345642 -1.368536 3.0704405 -0.098689884 0.77793956 -0.8001181 -0.62216395 -1.5649 -1.467797 0.060157694 -4.0501113 1.9265815 0.95459163 -0.13537332 2.2083957 -1.8537809 0.55873317 0.71100646 -0.4563987 -0.23670103 0.5216307 -3.4203482 1.4363937 1.845703 -2.5724702 2.241623 0.22718549 -0.9533758 1.0806643 3.2993615 -1.2069865 1.3025678 -0.7886245 -1.1354336 3.0131004 -0.55593866 0.054419044 -0.900443 2.4931602 -1.2122387 0.44247714 0.4724258 1.3765197 -1.8707998 0.49672043 -2.0265691 4.6600766 -1.2182755 -2.8496437 -0.72236425 -1.1525578 1.7308888 1.287039 2.9147537 2.0169966 -0.3548654 2.9422965 -2.1076443 0.7084262 -2.675486 -0.49291703 2.4580295 -0.99188423 -2.0007398 -1.1306125 -0.45329502 -0.7510661 2.3926105 -3.6651297 1.5468973 -2.0584667 -1.1388044 0.99424064 1.8184842 -0.23213491 -1.2499173 1.7009511 -4.1439366 1.4596759 0.70765376 2.1162841 -0.20387648 0.8741574 1.1746211 -0.16642082 1.4970169 -3.630691 2.6050682 -0.22308074 1.5204399 -0.97670877 -4.210411 -4.033673 0.25939828
deletenkeli -1.4617279 1.1026654 -2.9249656 -0.85033834 -1.7537946 0.5379094 2.387395 -1.4734823 -0.27514645 0.01827943 1.8991009 1.7357434 0.02033365 1.013994 2.117031 -4.085639 1.3886324 -0.5244594 -1.0675533 1.9144292 1.3471835 -0.09867753 1.415948 2.9433553 0.60902506 -2.774163 1.7915993 -1.7034643 2.7026207 -0.6941815 0.75222224 -2.482945 -0.23871513 0.14701423 1.3606019 1.5813993 -0.45939758 3.0885177 -0.8894068 2.0569835 -1.4966543 -1.0794044 2.002231 -0.36261746 -0.802358 -0.63719714 2.5361595 0.66578984 -2.566927 0.8408753 -1.3267688 -0.009686963 0.66985637 4.2286253 -0.06307514 -0.56294006 -1.5160912 -3.0236583 -3.1876342 -1.7245051 1.8186693 1.2421309 0.13783273 1.0331386 1.4399981 -0.48177382 0.3100409 2.3664346 0.7520836 1.1114285 3.2703283 -0.9008941 0.097097866 -1.4890248 -0.29487976 1.5508922 -1.1382918 4.89256 0.42773739 -0.78567713 1.7583036 -2.6902742 0.59258026 -2.483325 2.0929327 1.3353232 -1.2525191 -0.5996453 -1.5390996 -0.27717087 -1.7972151 -2.6500518 0.34345093 -2.6771019 -2.8213105 -0.38357696 -1.8505018 2.028586 3.584312 -0.34186804
nkbli -0.59205556 0.63273174 -2.1782503 -1.3723592 -1.5647062 -0.79036 -0.507916 -1.7691857 0.67647475 -0.63007504 -0.57328683 4.46151 -0.9265078 1.8584237 0.84074134 -2.98342 -1.5967207 0.85799354 -0.48757908 0.8626561 -0.49347427 -0.60898757 0.92206466 1.9420449 2.730058 -0.068587445 2.436889 -0.78851783 2.71778 2.9313712 1.6657208 -1.7904263 -4.60386 -0.97331166 0.38683578 -0.5213414 1.0553014 3.8363688 0.6866664 4.1021185 1.0664883 0.1512067 -0.8512759 -0.43644223 -1.3297105 -0.2919561 0.6789763 -0.30060965 -0.5532046 0.8802704 2.3515747 0.6529132 0.49451333 2.1944594 -0.09511597 2.3655066 0.75536203 -0.018497527 -3.68675 -0.9888425 0.7913498 0.67150366 -0.76993257 -1.0430759 0.97131187 -0.5143017 0.85446995 2.6358178 3.1439896 1.6931958 0.5056105 -0.75378555 0.41834587 -0.9556307 -0.8946791 -0.15639769 -3.37878 4.5752497 1.5016881 1.9685484 1.1120937 -0.49287415 -0.13953476 -2.2093713 1.7312185 -0.06410709 -2.6004126 -0.63360965 -2.0179124 -1.1323972 0.7453943 -2.8512568 0.9138716 -2.3199506 -3.8030896 0.6244863 -0.6313074 -1.1692908 0.60210365 -0.88521266
mlidns -1.5429487 -1.2351543 -0.5066797 -3.708113 0.11674649 0.71557635 -1.5307611 -0.8835582 2.5622997 -0.9978073 0.72397137 1.0780716 -0.35433432 -0.47578833 0.22483 -0.74153966 -2.3367708 0.76507133 -0.3074936 -0.44530085 1.860154 -3.1007304 -1.7304457 0.37543908 -0.371662 -2.4787152 4.3045373 -1.3608875 1.1380006 -0.76582944 -1.9612285 -0.4600185 -3.9633095 -1.5599463 1.5763838 1.5610069 -0.59638304 1.4880381 -1.4174564 3.4530854 1.2312582 0.4245103 0.64079523 -0.44948155 -2.2863462 -1.3995028 2.0067482 2.167101 -0.5612665 0.3141164 -1.7571446 0.560453 2.0132713 0.16552952 -2.5429611 -1.2467146 -1.3594495 2.1809177 0.68018854 1.7386326 3.721523 1.1877328 1.2257272 -2.2556221 3.5520728 -4.071048 -0.6163863 -0.7912491 2.6742039 -1.7965523 1.2792529 0.75021344 -1.0322715 1.9787749 -2.184398 1.1672802 -1.5632393 -1.0870612 1.9439617 -0.49357477 3.0530746 0.9447792 -0.005720877 -3.8703434 1.1844498 2.2953355 -2.1634345 -0.2734371 -1.8944577 2.4206522 1.6835327 1.2368088 -1.8121281 -1.239095 -3.0006394 1.2096466 -1.6792736 -2.3036287 1.257684 -1.6349391
twteNtkeli 1.1110383 -0.40914628 -1.7131355 -2.4247847 -1.3756106 -0.07002555 -0.45068035 -2.191791 2.1153793 -0.04993664 2.4574013 2.9412565 -2.653218 -2.294327 -0.62002033 0.36474568 -3.7734761 0.08221715 0.70766824 0.1609476 -0.25647452 -4.339701 -0.8322644 -0.5539169 0.84106946 -2.6307256 2.0246103 -0.59292495 2.3750455 -1.4046761 -2.8427808 0.68582404 -1.5761486 -2.0568025 1.7298882 0.17865975 0.18687761 0.82281226 0.3821914 -0.33271334 1.9552045 -0.9532089 -0.8044139 -0.59875613 -1.3249415 -2.7787368 -0.6890542 2.2326365 -0.08300928 2.6855392 -2.2844198 2.0205119 3.4066632 1.467924 -1.5062578 1.6209705 -1.7024524 1.0868576 0.5262087 3.2504573 2.9013863 -0.50033426 0.4906117 -1.5975307 2.356072 -1.8117825 -2.4089713 3.180201 1.1883717 -4.311426 -2.2178702 0.21899687 0.06379267 2.6670809 -1.7301453 3.355135 -3.6444442 -2.2471428 0.17677943 -1.7147638 0.7643176 0.25621465 2.0452733 -1.4157777 0.7308087 2.9659865 2.620596 -1.6820378 -0.09905194 -0.9667874 -2.2820196 1.7117684 -3.1152613 1.5762829 -2.7879772 0.21217404 -2.56089 -2.8488083 -1.400684 -0.8165222
sbewyenkeli 0.520404 -2.1604269 -2.5230641 -3.4917028 0.1670786 0.56471854 -0.88815635 1.8698028 2.1447163 0.6388357 1.2799518 -1.0017369 -0.75958353 -0.24110444 -2.027802 0.9577294 -2.1716216 2.3365366 3.0651953 -3.2959337 -0.58576274 -3.47668 2.1451907 0.13383132 -1.8924073 -2.5562966 0.9758989 -2.3550367 2.1764898 -1.2121003 -2.1150303 1.2691201 -1.1497709 0.49094194 0.6295325 0.6117415 -0.28247365 -1.460386 -2.101381 -0.42619854 2.3844142 1.6913295 -2.2684627 2.8014271 2.0828369 -0.90621006 -0.45190972 1.4337032 -1.4224684 -2.5586815 2.0041602 -0.61357236 2.7643468 -1.750296 -1.079548 -0.14059244 0.27712 -0.39567888 2.1929746 1.4199344 1.1990649 -0.6688148 2.809722 -1.4899441 -1.3840544 -1.8277925 0.18365648 -0.43620977 2.6095314 -3.9104707 -1.1948777 0.2406984 -0.64671385 3.3636708 -2.0036614 -0.19174713 -1.4729468 -3.2173111 -1.3926666 0.8522518 -0.351394 1.9864262 2.9637768 -2.2499251 0.9849115 1.8215847 1.4305316 0.28472453 0.09536659 -0.055040155 0.91589993 2.8698912 -3.340556 0.96650094 1.8813725 0.91616446 -0.31808928 -1.2103835 -1.907374 0.37927324
adEtrqli -2.3020773 -2.1415575 0.3925121 -0.5317921 2.1968515 -0.47921026 -0.40860388 -0.7684291 0.014139221 -2.7263508 0.6192063 -0.9868167 -0.22927132 -3.278285 -0.90479547 -0.613991 -1.2294178 -1.3295704 1.8184913 0.69233674 -0.28200752 -0.972157 -1.1183404 -1.6117654 0.83751756 0.089003526 0.08626258 -0.049805157 2.576179 -3.046662 -3.1006691 1.426445 -1.8077949 3.7221591 -0.5351372 1.0860863 -0.36153987 -0.20948035 1.9335027 -2.659835 1.1243849 -0.5777331 -0.7183709 -0.4712813 1.6754774 0.36563978 0.3895927 -1.3601234 -2.9897475 -3.0738158 0.51370454 -0.25346392 0.6552124 -2.7673492 -3.0881188 -2.0588653 -1.2334994 -0.029426547 3.0683787 2.8099298 1.5141529 -0.6946985 3.3856664 -0.61752033 -2.6005657 -0.4717459 -1.5307995 0.4172698 2.6164804 0.6943764 -0.094556406 0.81718546 -0.75194234 3.6679013 -1.4731473 1.4910054 -1.437639 -3.391696 -0.42163754 0.4154855 1.4096476 0.5207566 1.9975781 -0.8695442 -0.9511937 0.07350492 1.775049 -1.4241279 0.21308947 -0.75783956 0.16377863 2.8656425 -1.8700678 2.199191 1.9297316 -0.30916184 -0.95802057 -0.3465414 -2.3496616 -0.2900434
brtEye 0.89352906 2.2168639 1.5605222 -0.34378147 0.7304575 3.6461918 0.15999079 -2.0739658 -0.47406027 2.4678013 -4.928308 2.694803 1.7278466 -3.3744066 0.7332734 -1.057929 -2.3208652 2.1137216 2.4563284 2.0776267 0.10025681 3.3691916 -1.2143209 -0.16995965 1.3744676 -0.07864425 -0.8812545 2.7638671 -4.065939 -0.21224003 2.618251 0.5681981 2.6596448 3.1342998 -1.1232884 2.2430043 -2.551447 0.56290436 -2.7802465 4.940609 -1.2924429 2.6301694 -1.6619707 0.995357 -1.4465169 2.7420573 0.087975405 0.2644206 -1.439274 -1.2804083 1.0730277 -2.6303616 -2.121357 -1.2887452 -0.042384803 -0.0863552 -0.79967326 2.032868 1.0918957 -3.469974 -0.94185054 1.8103352 -2.733161 -0.6724951 0.9184128 0.16299935 0.5066099 -1.3231194 -0.020440465 -4.19608 0.3685437 1.7182075 -1.636373 -1.7421156 2.7620068 0.7140873 1.5408475 -3.0693064 1.3510509 0.09665495 -2.5670693 -1.094024 1.4667494 1.2902161 1.1494579 -0.014613923 0.5156172 -0.4736668 0.9359268 -1.7190088 -3.4855754 0.9466917 -1.8080515 -0.11295483 -0.17023315 -0.001990782 -0.8918313 3.226187 0.6204236 0.08729628
tNlxe -2.2891314 1.2771655 -3.426621 0.8772927 0.50612545 1.5578322 -0.21218053 0.6453052 -1.584701 2.874452 -0.6971418 3.116064 0.3038934 -2.5047836 -1.3699927 0.5485725 -0.82085127 -0.7137674 0.25684005 2.197387 -2.9154088 3.0520163 0.2707954 0.9861179 -0.07851874 0.2992265 -2.1089642 0.77686256 -5.4138274 -1.8790002 2.6288698 0.94447803 0.847001 2.0388498 1.6447686 -1.515972 -1.472406 -3.1235292 -1.9712329 1.6423335 -2.5844674 2.1200716 -3.042672 -1.1664252 -0.6417079 1.0698454 2.4132836 -0.94771785 0.780587 -0.99791014 -0.34567004 1.0551159 -0.40073875 0.82682616 1.699486 -0.359004 -1.6900827 0.26315776 -0.9894605 -3.4886653 -2.8724332 0.34761143 -2.4708498 0.5114697 2.2623687 -1.6466408 -2.0153596 -3.6334085 0.51396185 -4.261036 2.7447588 0.061746463 -0.9372342 0.23172961 -1.2033135 0.90314543 1.5063573 -0.23857252 2.1152549 0.03651413 -0.39965054 -1.2197446 2.5437448 1.3440158 -0.7151824 -0.9465342 0.07507106 -1.2991863 -1.7170906 -0.17949934 -3.1467104 0.17829923 -0.28673184 -0.9583105 0.29008192 1.7739962 -0.8559636 2.951708 1.2180402 2.2262352
arEr -0.9063482 -0.5287053 1.2219268 -0.44801512 0.75418955 -1.1984168 0.96139187 -1.0020702 -1.8569562 1.9904642 -0.9521984 1.8220105 -0.6100758 -2.658169 -2.2602909 1.9629385 -2.0335202 0.9039434 -0.13617845 2.481591 1.4138833 2.6393886 2.0838335 -0.14249898 1.8664653 1.237863 1.4247607 0.23931994 -2.5614061 -0.84329474 0.5013745 1.6868396 0.30968615 2.041067 0.8536484 -2.2831473 -2.4117994 -1.6776925 -1.7382225 2.3521354 -1.9951227 1.9177549 -3.277799 0.959278 -3.607252 -0.7910301 1.1281285 -2.1433887 -1.3127397 0.012719542 -1.5319701 1.0655208 -2.210182 1.5868381 2.453419 -2.286966 -1.1239895 0.5933699 0.056574415 -2.8467014 0.690284 -1.2365532 -1.0347773 -1.6440393 1.0542104 0.91181004 2.2393181 -0.46191278 -0.98609424 -2.0578802 -0.17683937 2.4122963 -1.9503983 -1.4574156 1.06711 -1.4564184 3.0812721 -2.7752728 -0.95211035 1.0188061 0.80027467 -2.1527252 2.0653973 0.6358627 -0.9624159 -2.602892 0.59768695 -0.3539313 -1.5897689 0.60032177 -5.1983967 0.8594838 1.7177916 0.039517596 3.4937901 1.6152556 -1.740827 -0.05208728 2.577262 2.7642744
atE -0.07743616 2.332584 1.0832703 0.42412534 -0.34987023 -0.8427102 -1.9017365 -1.0499575 1.0452532 -0.93001175 -0.929649 -1.3702438 1.603324 3.7296844 -1.5297871 0.59250927 -1.4009296 -0.97780275 -0.2818767 -2.2442975 0.8007683 -0.52552885 -1.0882419 0.9194444 -1.6671361 2.4258456 -2.302845 2.3963416 -2.4809158 -0.9377411 0.91048974 0.30674967 0.7098167 1.0090698 -1.0773555 1.067012 -0.62573874 2.200836 -1.5978764 -4.049429 -1.2990278 2.0536852 -1.6482023 -1.7795389 0.8719831 0.21058828 2.0615718 1.417767 -0.5149216 0.64909583 -0.67187876 -1.129305 -1.268925 -1.3640413 1.1482286 0.36454073 -1.5407926 -0.9713894 -4.456513 -2.9962354 0.6678425 -0.5434072 2.252186 0.9976461 1.4800087 -0.19682436 0.93808603 -0.65526927 1.6047873 3.294605 -0.9260126 -0.5720992 -0.23265633 2.099216 0.11308295 1.0426067 -2.2250752 -2.793385 -3.3460681 0.6749277 1.4219943 0.6329661 0.3490947 0.5074497 -1.3450567 -0.48569828 2.7899516 -0.52794546 -1.8549216 -0.8750861 -0.9782872 -1.2512752 0.9308339 2.0305276 -1.0909303 0.19016619 0.1595726 1.0608976 -0.67242527 0.13366102
yi 1.4211953 -2.7803695 2.313464 3.2898974 1.0268774 1.041965 0.197032 1.7051288 1.383198 -1.4729837 -2.1260483 -2.22348 -2.30094 1.6599684 2.0687225 1.6881183 -1.0254594 -0.09439376 0.39904138 1.4979794 0.33221632 1.5360905 0.08984227 -2.5819497 0.45429632 -0.6095516 -1.5472462 -0.74646276 0.18144919 -0.46530566 -1.2678325 0.7798808 0.77780336 0.15056229 -1.0263441 2.0694337 -0.80383855 -0.058494322 -0.9030059 0.9690015 0.24402614 1.0478504 -0.79993767 1.2348117 0.35189012 3.8470812 -0.4945113 0.44377574 0.52579856 0.83605486 1.6303312 -1.6149658 -1.017839 0.44867745 -0.15439487 -1.3879368 0.29588652 0.29367384 0.8507545 0.44554082 -0.6384317 3.9004436 -2.4385998 -3.0794196 0.8468631 0.4648272 -1.9972998 -0.33913004 -0.15672752 -0.56101954 0.52135813 -0.5337545 0.050232057 -1.437749 3.2063081 -1.9204121 -0.4773777 0.51183635 2.3686872 -3.736395 -2.2195919 0.640688 -1.016661 1.0321208 0.8707761 1.4701636 1.9578462 1.2180858 1.0792772 -1.3249718 1.0118107 0.48919308 -1.1037614 1.5811547 -1.3386314 1.6321831 -2.020398 1.9223143 -2.232024 -0.7011196
SEre 2.0286822 -3.0462477 0.5947203 3.0898476 0.8469479 -0.57897085 -0.0710674 1.663291 -1.2950228 -0.37691274 -0.11271628 -2.3277307 -2.0611293 2.155785 2.224791 0.797547 -0.72007805 -0.4086733 0.2594197 -0.025785396 0.3930544 0.22005883 -0.82280314 -1.246669 0.07478187 -1.6129608 -0.8798044 -0.2295719 -0.9477059 0.77032924 0.94036824 0.16745217 2.2463322 0.1683261 -1.8460735 2.3223622 0.1748398 2.3570402 0.9081429 0.2962184 2.6485062 -0.6510497 -0.66346735 1.7922016 -1.5514843 2.2347844 -0.51771545 1.4664614 0.9811707 0.21778716 0.29069936 -2.6252573 1.4223174 -0.8817545 0.06090358 -0.2200497 1.6314068 2.750767 1.4602429 1.556268 0.11507729 3.8214562 -3.3066719 -2.0760896 -0.4460498 0.16258396 -1.4890239 0.4474307 -0.80335474 -1.2247208 -0.74168646 -0.1837667 0.59545934 -0.24339491 4.4287157 -2.375596 -2.178633 0.81124514 0.9872565 -2.9252667 -0.4090688 0.6663127 -1.0857329 1.5936414 -1.0172983 2.263706 0.3989755 -1.0406591 2.6946704 -0.61754423 1.3265443 1.8086684 0.39094383 3.6304598 -1.6158136 -0.02008339 -1.7910352 1.4722477 -1.236129 -0.74885476
qewi 0.99817157 -1.8296714 2.1672738 0.2452001 0.4066842 1.4025384 -2.0939796 -0.16044332 0.8740588 0.93102175 0.5110943 3.7686934 -1.0020524 1.1550883 -0.56649256 2.3609822 -1.0041916 1.6819211 1.4203883 1.4664093 0.13471797 1.039102 0.6144383 -0.9667084 0.72721696 -0.47868505 -1.579182 1.4357502 -2.0737438 0.92991835 1.5164626 1.0612746 2.157244 0.1347453 1.4244609 3.5887644 -0.8917377 -0.077073395 -0.52364045 1.1282992 1.4155766 1.1468599 -4.037386 -0.5110135 -0.59933895 2.801423 1.5861537 -0.63832897 1.0187448 -0.92905843 1.9478223 0.20944378 -2.49917 2.0027034 0.16277681 -1.1043836 2.1572015 1.2644112 2.084473 -2.313985 -1.4358299 2.7956831 -3.1622822 -1.0831037 -1.0465809 0.7067406 -1.1594411 -1.5665865 0.4047688 -1.3806702 -0.47405136 -0.15456782 -1.4978222 -0.51957667 1.9735237 -2.42906 -1.0012133 0.64795125 3.281756 -0.24319297 -2.2350917 -2.325118 -0.9147302 2.5732965 -1.5271746 0.31509003 0.9084728 -1.5895811 2.1790078 -1.5629504 -1.5573848 -0.19438219 0.8066146 0.47122064 -0.7571915 2.2347271 -2.1574314 1.3673385 -1.7417928 1.8616431
tpEteNteli -1.4804013 0.7123148 -2.632627 2.2514603 -3.5715394 -0.54600936 1.6683006 -0.4615825 -2.2404146 1.3445529 -1.740042 0.63467103 1.7879118 -2.7641287 -2.9635575 -1.3052391 3.4259226 0.57210016 -1.8735998 -0.6260269 -0.22127043 1.9000093 2.574792 -0.6002691 3.0729754 0.09796969 1.0388373 0.8256281 0.80925566 -0.5759939 2.311726 -0.73162323 2.6145804 -0.8839907 -1.6280303 -2.0388927 -1.4901061 -2.2261586 1.746614 1.1343657 -3.800382 -0.4969622 -0.82126135 -0.80940694 -2.3155518 1.7122016 0.110152915 -1.6483394 -3.0143511 -1.2854321 0.60874015 0.9720944 -2.7639909 0.17527382 1.7838299 0.54093874 -1.3471075 -3.389546 -0.16811444 -2.0495245 -2.88265 -0.68762815 -0.99822104 -1.181578 -0.8041594 -1.3923547 1.89558 1.0568401 -0.22414011 3.5564785 0.71803486 -1.0480953 -0.72695625 0.020192074 -1.4259114 0.7939514 2.66973 -2.0579777 -0.23652282 2.0313144 -0.6439207 0.33469892 2.1667173 -0.045751568 -2.519774 -3.5508554 -4.12355 -2.8538277 -0.7168753 1.6752199 -1.2199793 -0.39302665 2.3677695 -1.7155913 1.1203133 -0.418442 2.9394505 2.2822566 0.8684663 1.2223194
Sklte.lxeye 0.5866972 -1.751994 1.4848467 3.0393379 0.72481394 3.158122 0.40958914 -1.4880846 -1.2937859 1.4532608 -4.0191073 0.3991155 -0.5956793 -1.5666367 1.0164692 1.7876172 -1.4813645 2.0539112 2.0681434 1.3208654 -1.9492385 4.6311183 -2.1767116 -2.1450076 2.3802161 0.18385853 -1.699347 2.0965593 -1.8423086 -1.7348036 1.6950245 1.1392598 0.06138778 3.7409034 -1.3765934 -0.82060176 0.078589305 0.3293477 -1.3089983 1.503095 0.38643193 2.7550573 -3.7491596 0.35819513 -0.123914205 0.80493337 -1.057394 -0.43333155 1.6959163 0.403122 -0.5665219 0.5927586 0.23072903 2.8214061 -2.680364 -0.26044688 -0.13659053 -0.92058057 1.2314044 -1.2052459 -0.28911984 3.475596 -4.487549 -3.2683752 -1.7454182 -1.954872 -2.077553 -0.68969727 -1.4579409 -2.4456565 2.0773451 1.1069342 -1.3013564 -0.06410309 2.4269073 -1.4906349 3.2961097 -0.8841118 2.6299894 0.5810096 -0.0029163356 -2.9343379 2.4081123 1.1003319 -1.3639072 0.7485148 -1.1086885 -0.8359963 1.1371874 -1.7370838 -4.683528 1.3036772 2.253062 2.579757 -2.616724 1.4679207 -1.9200469 1.2661276 3.1155639 1.6810447
SkltesskemXer -2.5994961 0.54587996 1.4553114 2.7071521 -3.0492907 3.8785417 -0.7494113 0.6213021 -0.03272609 2.1501114 -4.5377817 2.3600805 -0.2067217 -3.2863402 -1.4690489 0.3978885 -1.5044459 0.89174044 1.2313228 -0.7257543 -0.44775432 1.644103 -0.31976333 -0.15537891 0.79702926 0.5143957 -0.9279207 0.3885805 -3.8919237 -1.1853057 -0.29153323 0.45705628 1.4616772 3.4777694 2.4405382 -1.4409176 -4.4130006 -2.2459412 -0.7393829 1.9682772 0.9964199 3.249798 -3.520271 -2.126334 -0.15105382 1.1904405 2.7351856 -0.44304985 0.5938451 -2.4182186 0.888875 -1.4600511 -1.3656172 1.3534797 0.1112279 -0.4113451 -2.375785 -0.34528098 -0.1931995 -2.3686402 -1.8718051 1.7246388 -4.074432 -1.3556293 0.7084115 0.31731093 -0.8106948 0.16235062 2.0159612 -3.972848 0.11075081 1.9767109 -1.6583802 -1.7210519 1.9564885 -0.34814337 0.72262615 -2.7811203 -0.11772003 -0.25409353 -0.7802459 -1.9711716 2.3471425 0.87666035 0.19451489 -0.5643317 0.28039926 -1.9839313 1.103295 -0.70815295 -3.0554533 -1.9367692 3.5701594 1.7836124 1.9335065 1.5109782 -5.124116 2.271384 -0.14311333 2.8022814
adeqeyitbre -2.6576762 2.70042 -0.69826 0.4813386 -1.6733911 -1.7224187 0.004535442 -0.25522012 -1.2872887 0.012229734 -1.7473688 2.3571382 1.6722462 -1.4465774 -2.4719136 -1.1641126 1.4437304 -0.5930882 -0.3310367 0.37894952 -2.9250312 -0.005745891 2.330706 -2.4035466 1.0450462 2.5181086 0.964982 -2.2583458 -0.4705847 2.0167887 2.4503198 1.1297101 1.973196 3.6109314 -0.98113346 -4.814513 -1.6218544 0.81958044 0.6383611 0.4261063 -1.2264366 3.5840716 0.6736105 -0.93781155 -3.0012655 0.75069207 2.5546575 -1.6039357 0.24190849 -1.8843465 -1.1665564 1.1328521 -0.22726797 -0.03511999 -0.0033525762 -0.8524939 -1.9278853 -0.5414835 1.008628 -2.4631443 -0.98115396 -0.24512833 0.9177119 0.25914842 -0.26124495 1.0399331 2.2056959 -1.9356637 -1.2481393 0.19084859 1.6927334 2.8924775 -1.1303293 -2.0829492 0.18737297 2.2775648 1.8842489 -0.8480269 0.71896946 1.2082957 1.5062472 -0.10768514 1.520525 -0.78043437 -1.2923893 -3.8301911 -2.1529288 -1.1501862 0.8566182 1.8501029 -2.9478288 0.72549504 0.04630546 -1.9530464 -1.8213613 -0.8576519 1.6596476 1.4448664 2.7980149 2.301592
dkelikeye 1.4746743 1.9962944 -0.5338114 0.6008772 -0.47727934 -0.045704138 0.5584689 1.0167824 -1.151393 -0.17806186 -1.4075854 0.6206441 0.6292141 -1.6804287 -1.522528 0.59909946 0.966582 1.2115775 -0.7755497 -2.1705542 -1.7459152 -0.6430883 -0.38056818 -0.13437872 0.14983122 2.777736 0.10958305 0.3444956 0.46327424 0.5235756 3.2882097 -1.30037 0.54368675 3.5499496 -0.30534855 -2.4633899 -1.2770015 -0.9316043 -1.5236412 2.3608143 -4.6538754 3.3148768 -3.0140579 -0.6554604 -1.9784099 2.5084956 0.7811582 -2.761896 0.60653824 -1.5952121 0.5149184 1.3163977 -0.52091724 -0.44050646 1.981629 -0.15892842 -2.3298712 -2.045218 -1.289647 -3.508215 0.40626574 -1.3886453 -0.5009331 0.17005846 0.59090185 -2.3154018 2.2668622 -1.2885697 -1.7130626 -1.1881777 0.7058378 2.4167264 -2.9545298 -4.236755 0.020838575 2.6621578 2.4475584 -1.284388 -2.6859908 2.9476004 -0.05380637 -1.4033532 1.9313499 1.7344234 -1.5481992 -0.88284224 -3.4131954 -2.5916765 -2.3377295 -0.4626302 -2.2167037 -0.400024 0.6485066 -1.0163409 0.9605576 -0.2282501 -1.1779729 0.06935974 1.9835719 2.6599724
sskemxr -4.156639 2.1386201 -0.62672406 1.1830525 -2.6713643 0.5519545 3.3966901 -1.3154839 -0.8447427 -0.0075586876 1.7275751 0.27625158 -0.25834236 -1.8526931 -1.0232006 -0.22399966 3.6191814 0.48174578 -1.5013744 1.190636 -3.4310865 -2.2052927 -0.8972727 -1.0265996 1.488364 0.53586084 0.23868273 0.48401412 1.8091556 -1.2369525 2.8848007 0.3931559 0.25526422 3.3033605 -0.40667996 -3.9643433 1.4259046 -1.4439614 0.47749832 0.2654393 -2.2977734 -0.5880256 0.93238026 0.7053578 -1.4137164 -0.67744184 1.4138743 -1.0007437 -0.4418349 0.34089574 -1.6128322 0.46901834 0.15751871 -1.2896327 2.5275977 1.0756338 -0.4706642 -1.0418913 -2.9234056 -3.023184 -2.694247 -1.3503913 -0.5241812 -0.26013198 -0.93652916 0.75419617 2.7445035 0.7277706 1.697392 2.8892365 -0.58513254 0.11866077 0.57596076 -4.6460295 1.169935 1.9023824 2.7686625 -0.89741766 -1.6334884 1.6674685 1.3108217 -0.35743845 1.1382403 1.4342015 1.5963336 -2.7924025 -3.4663777 -1.4381549 -0.7121614 1.0425844 -0.25793844 -1.6076742 0.4754012 -2.9428046 1.7819179 1.9341811 2.6649885 0.44639188 3.0536466 2.161882
ameqemeteye -0.30650505 -0.3888421 -0.21942666 1.1043969 1.8900014 1.8358567 -1.1834235 -0.026917402 0.89138174 1.3397231 -0.9270219 2.4636717 -3.107916 -0.021209989 1.4040315 0.17490025 -2.699899 2.0712893 -0.07755051 3.570289 -1.3202536 1.0468167 0.3345778 -0.65324074 0.6092762 -1.2965649 -1.724689 0.2691615 -2.9831214 -0.7559539 -0.31001836 0.20842795 0.24617365 1.5160565 -0.2813077 -1.3896569 -0.25838056 -0.8028876 -1.3261322 3.8691816 1.2428262 2.109944 -2.5606356 -1.5783067 -0.8731852 2.8484027 -1.2277561 0.36702645 1.3069059 0.73158413 1.52866 -1.8719712 -1.2807684 0.21089931 -0.9624358 -0.6016802 0.34647593 2.4253657 -0.597197 -0.67837465 -0.6642285 1.7011685 -2.4937665 -2.6012433 1.4553323 -2.5657268 -1.0713974 -0.83314455 -0.23539948 -2.9517393 -0.8284573 0.9039521 -0.82675594 -1.024814 2.2732942 -1.8595928 -0.36512023 -1.3949986 1.6117457 -0.6627723 0.2503184 -3.8828297 0.3889795 1.6555647 -1.202731 1.8798335 2.0728164 -1.0891087 1.3977592 1.6559885 0.35595658 1.1761674 2.7548773 1.3567773 0.83377326 0.8210821 -2.9698417 3.4801033 0.2085571 0.9494721
pte.Eye -0.09457035 -2.5262892 2.2999353 1.9140556 1.9528644 2.0900927 -1.0116441 -1.4181651 0.7241652 0.23842694 0.69712377 -0.28528744 -1.1390436 0.2690758 1.0693072 1.0681243 -1.4645923 0.8817311 1.8702356 0.6304666 -0.09678356 1.3117331 -0.14012936 2.2337182 0.8976936 -0.49494618 -1.6364332 1.7835028 -3.1251225 -1.2313721 0.5752205 1.0969285 0.06773401 -0.4753845 -0.081660494 0.5937386 -0.17929094 -1.5827188 -0.7868884 1.9099282 1.6228988 -0.29440337 -0.6479777 0.83994955 -0.7473345 4.597854 -0.25598004 -0.5429668 0.66808957 -0.87565416 -0.9061883 -1.1027949 -2.019916 1.3009778 0.71783 -1.6907557 -0.30123293 2.7259731 -0.64740866 -0.4106879 -2.2667034 3.1703446 -3.2906826 -2.862282 -0.24909443 -1.2027888 -0.33202747 -1.6452713 0.037843786 -1.3166199 0.119753264 0.8878052 -0.44336864 -0.86281306 3.5108504 -0.9592822 -1.9058248 -0.5415901 1.1587719 -3.1528175 -0.3126713 -2.1189506 0.7613017 1.9500425 -0.031583898 2.7446618 -0.15724728 -0.33039954 1.3754544 -2.5449097 -0.26868495 -2.2715702 0.60897684 2.495519 -1.3999766 2.0529835 -1.8230907 1.0021902 -1.141034 -0.6699052
adilxeyye -0.21584725 -1.2075703 0.4176261 3.0759485 -0.5317948 1.1527383 -1.6913445 0.8351289 0.29808277 2.7820547 -1.5460724 1.9876735 -0.08608354 0.91760284 0.63322514 1.9175186 -4.169829 0.01499761 0.7909409 -0.15571848 0.85488135 3.5440629 -1.8348557 1.3369542 1.093311 0.10736739 1.04661 1.5579106 -5.0412083 0.7834492 1.138899 -0.44983134 0.1364678 3.7481308 0.9502142 -0.6674789 -1.2040377 0.25301912 -1.1578773 2.023782 -0.41345143 2.7611442 -4.064659 1.4657055 -1.2359463 2.961837 -0.20027016 0.52728343 -0.68547297 0.89930665 1.386683 0.55487037 -1.8315443 -0.4137377 1.3712124 -1.3273546 -0.26122367 0.9720967 -0.6354316 0.8534172 -0.5834163 1.4630421 -2.04417 -3.3330054 -0.8163278 -0.79301167 -0.4692387 -1.7711385 1.849916 -2.3184314 -0.7971494 -0.59239036 -2.7864382 -2.1838684 2.0672286 0.8261659 1.5887439 -1.4986362 2.7663078 -0.70304745 1.8094102 -0.14750981 0.5498303 -0.47303614 -1.0926259 2.3334813 -0.34068403 -0.50124454 2.581364 0.30325297 -1.3418839 0.13502103 -0.9628738 2.3597734 -0.3286728 2.7007868 -3.076214 1.8480681 -0.041214854 2.284743
tmNteleb -0.04906373 0.18797894 0.7701188 -0.91886073 -1.3669116 0.61581314 -0.34274885 1.0286818 1.0351658 1.6278878 -1.2568009 -0.6569235 -2.816903 -0.48706546 -1.7803748 -0.07712965 -1.1347805 -0.5947301 -1.003076 -2.9556613 1.3253496 2.169815 -0.9880559 -0.8622919 2.0511258 3.0846796 -0.3415587 -1.311163 1.0660828 4.401264 1.3205458 -0.39450878 2.989621 0.8970456 0.027827293 2.447605 0.8499313 2.5031276 -1.8805304 -2.417351 -2.105115 -0.37203512 1.4626065 2.4559581 2.3884268 1.2111193 2.218339 2.073585 1.8974577 -0.30762738 -1.0554212 -3.3587842 1.0856545 0.76689607 -2.7050755 1.4168959 -1.7694402 -0.006098604 -0.5659149 -2.3273137 2.073943 0.6742211 1.2214776 -1.470194 1.6078008 0.60751027 0.49802938 2.986484 -1.0663601 0.3186759 -0.25271073 3.3469 -1.0317069 -1.6656089 1.2169312 -0.81874824 -0.01327702 -2.3011825 -1.1454215 1.9771976 2.2583814 -1.260301 -1.2631763 0.03758534 4.068555 -0.5786454 -0.39133772 0.26358297 -2.023975 3.7950392 0.5751026 0.31948876 -0.37098375 0.04658443 -2.1671853 1.2193348 1.6964784 2.1275423 0.8717299 -1.8351042
mXe 0.58195037 2.0697944 -0.030960111 -0.41342536 -0.12063541 -2.6692586 -0.043422963 0.8244625 2.0447702 -0.92172855 -0.6566897 0.18330514 -0.22171539 2.0456789 -1.2510473 -0.9381546 -3.3771703 -2.279171 -0.7246354 -4.617401 1.116373 1.5695765 0.19561687 1.2536035 0.8155341 1.7070118 -1.9143022 2.491131 1.4303746 0.35839468 -0.70646673 -0.14471225 0.70123315 3.3674572 -0.928542 1.0389563 0.9522892 2.0236216 -0.06211183 -2.7859287 -0.38014135 -0.26272 -0.59111273 0.5063349 1.1445932 0.6510212 0.71246856 -1.0324554 0.26317325 1.5061343 -1.4112314 0.7305074 1.4969324 -2.0406404 0.32461187 -1.3738016 -1.934063 -0.25681022 -2.9230862 -0.25533924 1.1281922 1.2563767 -0.41458318 -3.3339334 1.4237553 0.49513084 1.9304272 -1.5234408 -0.74617064 0.5464555 -1.5897195 0.052632127 -1.0527403 0.121066354 -0.20480976 0.666827 0.13640498 -2.063945 0.04963386 1.5968442 2.4206903 -0.675717 -1.0622033 -0.362094 1.74343 1.72212 0.13453832 -1.3415169 -1.418514 -0.1686531 -1.7443292 -0.6152598 3.1964152 0.10906499 0.036738027 -0.6734018 1.059593 1.6214358 -0.88335377 2.6392002
wetNyiNqeli 0.7121216 0.8659577 -2.5958185 -1.4033786 2.5380938 -1.6387305 -2.3384855 -0.30182788 -1.3107095 -1.7482694 -1.0595024 0.085496016 -2.251862 -0.9068446 2.0836027 -2.1929827 1.3139712 0.1747627 -0.8117052 -2.075187 -1.3432217 -0.99474156 0.10567423 -1.0735686 -0.31803563 -1.3042954 -1.6349139 -2.2204797 -2.3350384 -1.2898571 -1.7609725 -0.6458013 2.6558018 -0.61686045 -0.3007909 -0.049818795 -5.6236405 -1.1280953 0.43303373 -0.86917865 0.7405193 -0.56672305 -0.5403809 -0.02350336 -0.5429503 -0.46886542 -1.3959526 -1.0869085 1.7622541 0.25249913 -2.195669 -2.0663557 -1.3283309 1.7294046 -2.0918293 1.3646933 -0.48673925 -1.0538185 0.45648983 1.5923469 0.7891962 2.0535262 -2.2264073 -0.13467877 0.8456477 3.6629727 2.2731788 -0.123005055 -0.5322096 2.3600652 -2.9514205 0.628799 -2.013242 1.7191877 -1.1350076 0.90365607 -2.361718 2.4194338 0.63853896 0.13099417 0.24755982 1.4096441 -0.0056466484 2.4033873 -0.2731909 2.0344782 0.755734 1.9150072 1.0663854 -0.9189253 -0.42129183 -0.51737046 -2.165035 1.4414818 0.5961282 1.3421559 2.159853 -1.8840141 -0.9842729 1.0673506
smlEwi -1.2454594 0.20579034 0.43405685 0.6734328 -1.4427743 -1.861935 0.8165644 0.28504717 -0.662298 -1.181748 -0.6034763 -3.426388 1.9968852 0.45216277 -0.44420508 0.31892845 2.3051229 2.852838 -0.27399868 -1.1512514 -1.021985 1.09148 -2.09687 -1.6280918 1.2569057 1.9564712 -1.4617668 -0.26020855 -0.45750043 1.9457585 0.5905861 -0.87397707 -1.0420785 -1.9934826 -2.200545 1.4719976 -1.8717321 0.18807071 -0.5874379 -2.0908966 -2.3153694 3.163683 0.32411224 -0.13810118 -0.4527719 0.72023094 3.5992608 -0.043540023 -1.3513843 -0.89040303 0.3731034 -3.4089408 2.4288034 -1.7471638 -0.5750576 -0.47712374 0.0419592 -0.6103227 0.06877608 -1.5033822 0.76497203 -0.6675299 0.18848093 0.7974145 0.8482484 2.3879762 -1.8382999 1.5191399 1.4093935 -0.50405383 -2.3866022 0.5227266 0.083359525 -2.1746542 0.8542118 -0.380602 0.30483794 -0.016165622 -3.5499203 -0.24590981 -1.398731 3.1207228 0.051554438 -0.35993427 -0.56787854 -2.2024992 0.3688917 -0.4251261 -2.348108 -0.37827525 -1.3389715 -2.0221808 0.008240878 1.7241123 0.66930115 0.82911104 2.9336896 0.82547003 0.006201685 -2.2336018
at -0.67141634 2.5969865 1.1834219 -0.13262725 -1.4369057 -1.1173223 -2.620385 0.20360209 1.8890479 -0.08884908 -0.86683065 -0.79826987 0.38859567 0.4432776 -1.7914248 -1.0101126 -1.4881822 -2.620981 -0.7857066 -2.0174963 -0.9001674 -1.5318519 -0.50762796 2.0038223 1.0442625 3.087744 -0.5667441 0.97740865 -2.1757226 -0.59701973 -1.085234 -0.09037915 2.0414972 4.2967753 -0.15778667 2.7308311 2.0629833 -0.75308007 -0.23890558 -3.020946 -2.463422 -1.3066908 0.7342817 -0.30012986 0.8104815 1.1478087 -0.23893504 -0.14267643 0.5246527 2.1807766 0.04261633 1.3961624 -0.454643 -1.2959241 -1.3580084 -0.6025227 -0.89074135 -2.5788746 -3.1604605 -3.530134 2.25317 1.5636781 0.50131065 0.4161946 0.6803752 -0.8245994 2.8438594 -0.53707486 -1.0135446 1.2816573 0.688423 -1.0670406 -1.5095203 1.1505631 1.2201705 3.3110025 -2.1587045 -1.5356929 0.119593285 -0.016168999 3.0292935 0.00264213 0.14256117 -0.8816931 1.5519991 -0.3014277 0.20085417 -0.6594713 -0.0048895124 1.803291 1.6876177 2.7201726 1.7010506 0.3168614 -1.4857115 1.8890994 2.4056845 0.46080214 -2.31529 0.89095694
SEreyi -0.4247768 -1.4923831 -1.6190879 0.6295599 -0.394507 -2.704406 -3.6404111 1.9253815 0.75747913 0.475219 2.4257457 -0.13775595 -1.2199382 1.3019844 1.0238256 0.7660299 1.4583007 -1.7636858 -1.3103832 1.5783435 -1.0561622 -1.0680578 -0.6801332 0.21783699 -1.46464 -1.0215763 -4.0577784 1.181972 0.23369773 -0.52778715 0.5856048 2.3098726 0.20973976 -1.9663204 -1.6560419 0.20149416 -4.169421 -1.9624949 1.166274 -3.211402 1.7407793 1.5957394 -1.8009719 -0.781518 1.3700625 -0.24144143 -2.5175784 0.82700545 1.037808 -3.0154138 -1.5874494 -2.823366 -0.37907332 1.0561615 0.99080336 0.9264962 -1.8308481 -0.59279764 -0.41342956 2.331534 2.4158435 -0.5286961 -1.0234624 -1.8820388 -0.09348265 2.0374627 0.76097 2.072892 0.9484731 1.2947904 -0.47594035 1.411174 -2.1000218 0.9365955 -1.6041822 2.9645162 -1.448556 -0.41983163 2.2293394 -2.1240063 -0.10807662 -2.2115884 -1.5244317 2.4406865 0.50673676 -0.18153068 1.197888 3.1246526 0.23216526 1.2826151 -0.24442098 -0.3092825 2.149248 0.3778063 1.6266716 -0.49080977 0.8351352 1.1362257 0.042938907 -0.9562174
tdxelEwi 2.7462983 -2.2509663 -2.1452825 0.4636676 1.1304436 -0.8057958 -0.67379755 -1.5568453 -0.1846518 3.2726963 1.1810985 1.1211041 -0.11130639 0.14438766 0.7721719 2.5286148 -1.2543007 0.88706684 -2.4265344 1.3710711 -2.2295415 -0.13485587 -2.6809595 -2.422721 -1.4317088 0.8119045 -0.69207525 2.5160894 -1.6341165 -0.13484287 0.9088012 -0.39396143 1.2162969 0.46610022 0.459895 3.1286728 -1.2706131 -0.10353486 -0.22676055 -0.7725226 1.7872639 -2.091495 -1.1871866 0.18024138 1.2869576 1.209091 -1.5115383 1.5706848 0.10864306 -3.5853968 1.0868686 -3.4885547 -1.1306046 -0.69260037 -1.3145419 -0.59726274 -0.70204735 0.9563918 -1.164579 -1.6085088 -0.96695334 1.2515298 -1.9005803 -0.5163571 2.794948 4.17772 2.4387238 -0.32144335 0.59931487 2.616385 -3.857784 -1.9709507 -0.5115823 1.0455226 -1.1844134 1.3173637 -2.8445814 1.7850695 1.09464 -1.5054518 -0.16756359 -3.0782278 0.92179537 -1.2044656 0.46943578 0.9976212 0.26417467 0.8599473 0.06450284 -0.04116964 -2.7140918 0.02029665 -1.3721083 -0.7249735 -0.3347687 -1.0392678 0.38787007 2.3957973 0.89372146 1.1181375
SEri -0.01691509 0.28730655 0.021040717 -2.2459064 3.7106256 -1.4938498 -1.2351124 -0.69515026 -0.29156688 2.4683142 -0.78764343 -2.0093436 -1.0087844 -2.6024292 1.7997485 -0.85287476 0.29186723 -0.30275956 -1.4395349 -0.6906492 -0.6694333 -2.4649806 -2.1511934 -2.5382206 -3.5370886 -0.9816744 -1.2749169 -0.5872802 -3.0844805 -1.5668675 -0.5668995 0.1495561 0.8697056 -0.18344598 -1.8331952 1.9567901 -4.351973 -2.8332827 0.69519424 -1.195846 0.0027508477 -1.096735 -0.8324646 -0.999952 1.7573367 -1.290447 -1.370052 -1.0606554 -2.1704814 0.9823912 -0.50881296 -2.28687 -0.09743259 0.024409393 -0.25064892 0.77626485 -1.9130509 -2.4935975 -0.5230897 0.7844352 -0.25327006 1.5460451 0.3203701 -0.9838228 1.7631836 4.703339 3.649641 -0.075260155 -0.5056342 2.218451 -1.4953623 1.0408666 -1.2144244 0.6329188 -0.5738066 4.697041 -4.127977 1.7642274 1.492356 -1.8028141 0.6739702 0.22273244 -0.10303793 2.1186776 -0.2076153 3.1322951 0.6492147 1.693425 0.08407281 -0.97502 0.04767964 0.29728547 0.7606549 -0.63065016 3.0881073 -2.024898 -0.4591605 -1.1474466 0.7133249 0.61203265
li 1.4996912 -0.17221297 -1.5830885 -1.3215449 0.42358014 -1.5720202 -1.4739788 1.0179586 -4.240676 0.63764757 0.076418646 1.1948783 -0.5150482 1.075047 0.49975798 0.8958496 -1.444376 -2.6361625 -0.5623741 -2.0136058 1.1391827 0.9248485 -0.3480042 0.8913335 -1.4136478 -0.83515716 1.8012391 -0.854189 -0.6796489 0.3517339 -1.1629715 1.8733941 -3.8649154 2.4063632 -0.01387359 0.36114985 2.7117784 -0.21120155 1.6368456 -0.45255244 0.4394581 -3.202925 1.7139581 1.8216307 3.0177774 2.2018795 -1.6980555 0.31493387 -0.8944539 0.040636014 1.0667036 0.25141132 1.0701863 0.026649406 -2.9762194 0.49788344 -0.6155413 -1.141643 -1.2169551 2.2655847 0.27471474 2.095115 -2.2712574 -1.6913676 0.028286135 -1.6381212 1.5252247 2.3203893 -1.097312 -0.85495794 0.20635742 -1.8769363 0.08346874 3.0686102 -1.06801 1.0247458 -0.79205793 0.017937306 0.47220856 -0.3201055 0.74081445 -0.94161946 0.02861984 1.9415404 0.12747258 -0.31670713 -0.46954358 0.07452372 1.8300796 -0.99929947 0.6040294 2.520018 -2.6381617 -0.0052110865 -1.6868074 0.7387194 1.0376574 -5.3504996 0.29356462 2.7644732
s -0.12709962 1.7088989 1.4089266 0.35305437 0.37891936 0.099513784 -5.176212 0.23465672 -2.349956 2.616721 -0.6305954 0.4311028 -2.230718 0.37268373 -0.5771657 -0.17891002 -0.19012262 -1.4408449 2.4116037 -2.279146 -1.3799629 0.98857516 -2.8157992 1.824503 0.87582433 0.8843878 -0.14089446 -0.87235814 0.7934208 0.36033624 -1.3905898 1.1085978 -0.79272133 -0.6229124 0.16378228 -0.054179907 1.6250155 -2.3433437 0.62596 -0.76473343 1.0898073 -0.72182035 0.472238 -2.6735914 0.8638951 -0.36981848 -0.40119985 2.8009787 -0.16932076 -0.55376303 -0.17223476 1.6778322 -0.04478995 1.9546404 -0.43902475 1.0276425 0.13194658 -0.5479539 0.14269246 0.6585735 -0.29208693 2.8504193 -0.12111089 -0.052955102 0.46024796 -2.1899552 1.9148371 0.62008256 -0.8375713 2.3444426 0.063871235 -0.3244641 -2.0146046 0.89058214 -0.7289151 -0.1554694 -0.58762306 0.04147757 -1.6838973 -1.2206314 1.0054128 -0.9469361 0.048292022 -0.57670295 -1.0130515 -0.99267 -1.5304509 2.2472525 0.58893824 -1.0650553 -0.08112702 1.8056997 -2.719173 1.5512193 0.011053516 -2.1041813 1.4294963 -2.3787704 0.10998636 0.8002755
lE 0.1618351 1.0584239 1.1012504 -1.9550823 0.8481412 0.29385573 -0.87847614 0.3525056 -0.059466574 0.74504143 -1.6309159 -1.4197305 -2.3749053 -0.46872 -0.738721 1.479245 1.4758674 -1.7884872 1.1154195 -1.3412513 0.6493376 2.4496634 0.4786159 1.9592724 -0.32456192 3.1892154 2.793735 1.9325403 -0.5582795 1.3275001 0.9632602 -0.027650675 -2.3478134 1.3348566 0.10784034 0.4925315 4.2945766 -2.6910226 -0.12070404 -2.7121375 -1.1509812 -0.20566797 -0.8551887 -0.12992075 1.8498867 0.8184968 1.1202534 1.222784 0.31562674 -0.9131752 -0.36013195 1.6623127 0.016304294 1.7228045 -3.1380682 -0.630559 1.2183754 0.81121737 0.77032954 -0.45112538 -0.70335513 0.63052714 -0.78716516 -0.3143297 -1.167802 -0.46925533 0.4069434 1.5097067 -0.705856 -0.7485039 -0.51037765 -0.59099084 -2.1669862 3.2930834 -2.5991101 0.7380476 -0.35287791 0.5312026 -2.348423 0.51858526 -0.48050138 -0.49270394 1.7676808 -0.11699949 -0.30326408 0.045705825 0.84457874 0.47109735 -0.3308143 -1.1063346 0.8583485 -0.33858865 -2.5971136 -1.5688314 1.0270134 0.79893583 2.5027068 -3.455022 3.1554403 0.62653476
xrpxN -0.6431849 -0.39947635 -0.8628778 1.4750754 0.5455604 3.2222962 2.8551373 0.64734805 -0.6493222 -0.66136587 -1.1751069 1.1389998 -0.7243007 2.4259071 -2.114182 0.63828903 4.229998 1.9741833 -0.1449145 -1.7835108 1.1308342 0.18861023 -1.9367982 -0.62098813 2.7185109 -1.6895561 2.8096604 1.0299611 -1.1299437 2.1614132 0.15768754 0.2190646 -0.39961722 -3.1058679 0.42575246 3.5078669 1.6255188 0.080350034 0.408031 -1.1137676 -3.5741127 0.55769235 4.4387164 1.375189 3.0110514 -0.7557436 2.028486 0.63078016 0.14238091 -2.4094207 -0.21339518 -1.5980965 -1.3755525 0.21274434 -1.3896114 -2.4436622 0.8165487 -2.053447 -0.8893299 -2.0663652 2.0683808 1.8967903 0.8495768 -0.10238394 0.852431 4.1815834 1.9121463 -0.5416909 -2.1249702 -0.9572137 -2.7439604 2.8089082 0.45737806 -1.3688521 1.9020993 1.6907146 -0.3589398 0.26077646 -1.115418 -0.81579685 1.1480203 0.7370104 -1.8237274 -0.46039683 4.3264313 -1.0307285 1.7555311 -0.20307516 0.51274675 2.0531073 0.45497787 0.11814982 1.2459204 0.62046534 -0.17134616 0.359984 0.053846393 2.74578 1.6188784 -0.96378416
mrebqE 0.34827158 -0.75352466 -1.539643 0.641038 -0.5094595 -1.2226286 -1.6145647 0.35114285 -1.4521489 1.554596 -1.5657724 1.4410927 0.9041953 0.72890913 0.34657937 -0.9604077 0.6644361 2.884214 0.06661737 1.4252753 -1.7062746 0.547182 -1.478879 1.8677232 -0.1824784 -0.62638664 0.47187504 1.0164088 -1.9132204 1.3627713 -0.6041889 -0.37111858 -2.1942382 2.1597245 -0.42650083 1.4921452 1.4936455 -2.6889577 -1.2487311 -1.945197 0.69307554 -0.11820648 -1.61711 -0.6754723 1.843765 -0.22693105 0.2925565 -0.5633355 1.3625903 -2.4461648 -0.83263576 -3.3444452 -1.2379228 -2.423707 -3.0154114 -1.6221457 -0.47513688 -2.3720052 -1.0516863 -1.0208887 -0.15914164 0.7082644 -3.1413183 -2.1614592 1.5951356 3.192692 2.5642877 0.19776736 -2.5785263 2.0306292 -2.1261876 2.4972906 -1.0910615 2.0710123 -2.0759957 3.9687576 -0.53069067 1.2355328 -0.56242263 -1.952514 0.9566267 -4.4787235 -0.6853196 0.5542299 0.06220996 -2.414223 0.4015347 -0.9174995 -0.27134296 0.9246303 -1.121104 1.1395186 -1.839517 0.039284367 0.5658766 -0.9796908 2.6797671 1.3727577 -0.55795246 0.53330034
xSxslitEwi 0.24813215 -1.6196827 0.49858785 -0.3590806 -0.43540314 -0.54793775 -1.914523 0.3443719 1.3178898 2.520324 1.0048766 3.1396682 -1.5991578 -0.42228314 -2.6639621 0.31426245 -2.9090633 -1.8971661 -1.9778042 0.39775833 -1.3883674 1.4520229 -0.46737397 2.4062238 0.8959879 2.395955 -1.4357929 3.18518 1.9275062 1.9834174 -0.8617822 2.8129525 0.50582004 1.0798875 -0.6624874 1.8964175 0.14503066 -0.69737214 -1.7517914 -1.624507 -0.39566454 -1.9711533 -0.0647192 -0.63504136 1.8417696 -1.3669538 0.97452044 0.04726684 1.6205282 -1.2082416 -2.2950583 -0.60077506 -0.83955806 1.4190015 0.09798537 0.3798357 1.9588392 -0.09223395 -1.9520758 0.013800686 0.252283 -0.6927957 -1.5439223 -3.3047132 -0.24756476 -0.12276049 2.2093892 -2.552418 1.4956412 -0.3785753 -1.7418015 0.9880914 -3.9522748 -0.5687178 -0.2414982 3.470479 2.0866003 -3.297381 -0.20973422 0.93673795 2.096348 -0.3128013 -0.049633764 -1.0421134 0.07275008 0.33882424 -1.173048 2.3976552 -2.1410244 1.1521131 -0.41519955 -1.541977 0.6205322 -0.40214327 0.58766806 -1.9949753 1.3319187 1.1492988 -1.1281525 -1.9667999
mxe -0.8984674 3.0194533 0.63506 0.018312167 -0.7897766 -4.1350565 -0.7223541 3.378906 1.6867933 -1.3847305 0.4957224 0.5935497 2.5562057 0.057886243 -0.8056489 -0.07235709 -1.8591597 -1.7479621 0.90190625 -3.547971 0.33475515 -0.77321154 -2.085927 -0.7565519 -0.5193532 3.5299778 -1.3279848 1.9111319 -0.54732215 -3.1699166 -0.639186 0.8607752 0.72996736 2.3514636 -0.41469675 3.347498 0.7171667 -0.063828744 1.8553897 -3.3140059 -0.8257379 -1.6188232 -1.6374654 -3.1677356 2.9344175 -0.5877448 -0.0075284773 -1.0224434 -1.6639837 1.8270229 -0.7338988 4.0898037 -1.4232925 -0.6633286 0.8922519 -0.2740593 -0.6747843 -0.45848736 -1.4481536 -0.025432391 0.4511152 -1.7050935 0.0570705 -2.7916524 0.10652741 1.4065241 2.665263 -2.417516 0.057809323 0.90943146 -0.978675 -1.5616677 -1.3330451 0.58955526 -0.03244388 1.0347782 0.02481637 -2.128695 -1.5614414 1.8165854 1.0168608 0.53102124 -1.2229471 -1.038714 0.6735382 1.0441614 0.40678003 -1.1861014 2.6430821 -0.83398515 0.97078574 -1.0284961 1.5979639 -0.7074553 -0.78009 0.123501375 3.017722 0.30472714 -1.006968 1.0889301
pestE -0.6920498 0.19505021 2.3170593 -0.31443807 -0.27533194 -2.6074848 -3.3425312 1.5125833 -1.7098007 0.6067264 -2.2422762 -0.79435885 -0.57118 3.190902 0.44826752 1.3562015 -0.6435129 0.43688753 0.47521332 -0.6122418 0.20314658 1.4400874 0.55575836 1.5361314 0.6010781 1.1032122 -0.42053914 0.67224544 -1.6762116 0.4102168 1.1396754 -1.1959883 -2.6108868 0.57912326 -0.21986762 0.41643426 3.7145047 0.85385805 0.46227273 -1.6686109 -0.35408896 0.32256052 -2.7081907 -1.6534402 0.85707253 3.3703477 -1.3793406 -0.52521384 3.9610698 -0.061716348 -1.03562 -1.2643008 -0.53763753 -1.3313205 1.2329503 1.1414213 0.029103024 -1.9053694 -0.8898101 0.10337952 -1.8396529 1.675839 -1.0868515 0.8953224 0.51936495 0.8127217 0.06047983 -0.12056677 -0.5614405 2.2630973 -0.8749928 0.97005105 0.37507778 0.20262338 -0.12555867 -0.79004997 3.6631227 -1.7211198 -0.060178075 0.12719269 -1.4505984 -4.636169 -1.1498487 1.0942063 -2.1210942 -1.0424062 -0.74149656 -0.08354275 0.9028107 -1.8639008 -1.1500453 1.9688306 0.25908238 1.7050778 1.3671111 0.9776093 -0.18415388 1.153847 -0.8688059 2.6344802
lEwi -2.116507 -0.16441485 -0.25826287 1.8698958 -1.8711975 -1.0868933 2.4005353 -0.4108731 -1.3246576 -0.6544887 1.7959622 0.9966163 0.11191448 1.3133423 -0.2890887 -2.2619271 4.1496744 -0.45139024 -2.441799 0.7962327 -1.295645 -1.5475563 1.5605818 -1.0099114 1.522937 -1.3150947 0.19811755 0.30399114 2.6233888 0.08196912 3.2253559 0.17683284 1.3768712 1.7957282 -1.8796477 -2.9157126 0.96455693 -0.3472048 0.60989404 -0.68950695 -2.465409 -2.4906912 3.6332967 0.72112364 -1.765409 1.2354816 0.79304785 -1.697719 -2.0401075 0.17167172 0.9834162 -0.41206393 -1.0579004 1.0135034 -0.1537186 1.5691069 1.4511985 -1.3150574 -3.5298145 -1.718852 -1.1138575 -0.49759793 -0.28179738 0.0064559276 -2.3818958 1.4364454 2.6373386 1.3384285 0.2303362 6.2630663 0.10851709 -0.75183386 1.0151302 -2.4996362 1.7539066 -0.39833906 1.7344152 1.4013842 -2.3979619 0.31693515 1.6412171 0.20211188 -2.132949 1.2226504 0.31538996 -1.3363087 -3.0816765 -0.87853074 -0.15824254 1.9079185 2.037365 -3.2752626 0.37003878 -0.9435975 -0.7848076 1.7787181 3.3938196 1.2818538 1.1312037 -0.06796145
yetmde -0.21652918 0.17000173 -1.0489935 -0.31868458 -0.98459613 -0.7858765 2.8988879 0.020634 -1.518568 -0.90623 0.08832659 0.56620663 0.44861376 0.11787832 -2.7519226 3.1423838 1.8162206 0.90528923 1.017965 1.959532 0.074903674 1.9765048 -0.1831675 0.31705913 -3.4812448 2.9630032 1.1047231 0.821743 -1.5047324 3.4454308 1.4241984 -0.785123 -0.04906853 -1.1453377 0.7744219 2.3222673 -0.1690067 -2.384906 -0.58995974 -1.4736927 -1.6838967 0.28325006 1.0601462 0.15291119 3.268584 -0.7884927 1.1312708 0.31094277 1.1537116 -3.8622262 -0.381961 0.18984812 0.5446124 -0.34259072 0.35703522 -2.317413 -3.2144725 -2.443127 0.3698712 -3.238687 0.39803815 -1.4256188 -1.0697435 2.868487 2.0445108 2.0459292 2.0397804 -0.0033969495 -1.2902371 -1.6053653 -0.8013662 1.8234394 1.8613533 -2.8931756 -0.6043315 0.27941772 1.6041018 -0.6022812 -1.6549814 -1.6731621 -0.29254064 -0.29920012 0.58044195 1.5805782 0.39597964 -5.608486 -0.14693269 -0.567176 -0.97881013 0.54798734 -0.75237197 0.6888116 -0.15021358 -0.11670546 2.0186133 -3.1100645 -0.096506715 -0.9009574 3.1675878 -0.860585
1 -1.0172406 0.42896232 0.13302675 0.35442355 -0.16578653 1.2514633 2.2897654 -1.2106456 1.391111 1.2301402 -1.1813638 -4.2365894 -1.6535888 -0.3694604 -2.7503004 1.0355211 -1.381593 -0.38067594 -1.5333143 -1.615902 -1.3967081 0.71480286 0.9803959 -0.5897652 -1.3145294 0.31658703 1.6105908 -0.7569295 -0.20642708 -0.40123662 1.3504548 1.7314166 3.5263016 0.96412855 -2.2821078 2.238319 -0.7306815 -2.3333898 -0.44143668 -1.5295011 -0.021369105 -1.9136482 1.88795 -1.977848 -1.2761441 0.009138679 0.30741677 1.2915583 -1.6473919 -2.274704 0.4441655 -1.7896473 2.8386657 -0.9189358 0.21459213 2.0132759 -0.64217955 -1.3969414 -1.9017313 0.5428583 1.1002539 0.8372913 -0.1785319 0.06658167 -0.6708441 -1.5156294 0.69061404 0.5320711 -0.4657853 -0.82696706 -0.99854773 -1.9866594 -0.87547606 -1.1661954 2.293287 3.9334807 -1.1220621 -1.0018479 0.9071323 0.6329201 -0.20195517 1.0122422 -0.057492007 1.0656837 0.66926384 0.7398723 2.6045983 1.7595072 0.042610258 -2.35602 1.701242 0.8384418 1.2640184 -0.6045114 0.85135645 -1.2748982 1.4172668 -0.8423683 2.1812403 -1.3698997
te -0.17928334 1.317557 0.5477228 -4.729694 2.7353702 -1.4656607 -2.701658 0.8718386 -0.896757 0.42631653 0.42085108 -0.8846442 -1.3664851 -1.6315576 0.39768228 -2.205235 0.52347004 -0.7637769 1.5457805 -0.44725537 -1.1725283 0.902954 -0.14018236 -0.388583 -2.3036306 0.8579868 1.4336798 0.11323345 -0.8946965 1.3087384 1.219305 1.015169 -1.0177944 2.3286624 -0.67989916 -0.6724554 1.1072388 -3.2953005 -0.3442699 -2.0307844 -0.2830439 -1.1439652 -1.1905824 -2.0769823 1.0012671 0.4712098 0.7284604 0.38967872 0.75173473 1.1118437 -0.02675444 -1.0496436 1.2487962 0.6959027 -1.3656923 1.6543784 -0.60948443 -0.57893884 1.2229662 0.19360451 -0.71101856 0.5254452 -1.5230203 -2.5205238 -1.6096869 -2.3170428 1.1733288 0.8887002 -0.9800313 2.1067593 -0.8148686 -1.1645108 -2.1565864 1.8677607 -1.8632964 1.772178 0.9526556 2.0092273 -0.7320602 1.1785889 1.406659 -0.8197858 0.7144549 3.4548392 -1.176183 -0.63623244 1.2043643 0.78386897 0.5792111 0.6833141 0.40150735 -0.25544697 -3.8423495 -1.3950375 1.8474885 0.3411165 2.7798464 -4.3819265 1.1383148 -0.20903963
t -2.54702 1.1503593 -1.2651856 -1.4839258 -0.64535403 0.11866619 -0.69123274 2.010567 1.9530325 1.9192228 0.33156908 -1.4628328 -0.6383315 0.6437666 0.44769585 -2.1333606 1.1265085 -0.42841253 2.9809666 -1.8623043 0.2303978 3.8688922 -0.20475157 2.915597 -1.0781485 1.6778339 -1.5142801 -0.6472802 2.0373068 1.1336145 1.9742005 0.3584596 -2.3599696 0.83952034 1.9336817 -1.2243389 2.5968742 -3.395581 -1.0406768 -0.5905434 -0.8853119 0.39361587 -1.510789 -0.45565522 -1.3976445 2.097771 -0.64673007 2.1202629 2.8703163 1.7095618 0.47024602 0.67583764 0.79814416 2.0049837 -0.22325258 2.2194035 1.3960708 -0.020059422 -0.8590214 1.3898978 0.53214663 1.0370082 -0.88499427 -0.86209464 -4.10849 -1.16347 -2.0340197 3.0185354 -1.6331841 2.616502 -0.7856223 -0.40859884 1.4001746 -0.17822532 -0.27167654 -2.61606 0.9062579 1.0577438 -1.6124175 2.401368 0.9756292 -0.75623006 -1.4930607 1.5634972 -0.5321501 0.886863 -2.0207024 0.5168633 1.987032 -0.5010782 1.3812802 -0.7091336 -0.07478756 1.4913541 -0.34695467 3.1620467 0.7231856 -3.3656707 1.7918978 -2.9986296
kelw -0.48155376 1.5434631 -0.869939 1.0045668 1.3153728 -1.3917593 -0.15759262 2.6744246 0.07478326 -2.598696 0.6807841 1.9918776 -0.66281766 0.856115 -1.7666963 3.1981888 -0.23770896 3.3754866 0.5245219 -0.33929852 -0.4343478 -0.83489233 0.83824843 0.8614907 1.0057 0.18405855 0.9499223 1.6631317 -1.0006264 4.0235505 -1.4927526 1.1049724 -1.3752779 -1.3960867 0.544156 3.4326937 2.878404 0.08480422 0.09465537 -0.20334359 -2.450373 -0.55660915 1.8653733 1.5660477 3.4152348 0.7122958 -0.5176532 -2.514877 4.2629776 -1.1559857 1.3802513 0.8929578 -0.8236971 -0.45080906 0.212241 -2.166694 -2.7724113 -0.48965442 0.3617357 -2.6406307 -0.34424993 1.5658494 -0.9210191 -1.5360887 -0.5194349 -0.55135584 2.2394075 2.4672282 -2.3187141 0.27661675 -2.7579706 2.531951 0.1731543 -3.218086 1.367619 2.8087502 2.8647993 -2.757254 -1.5605578 0.44008303 2.6542602 -3.0245416 -2.1010768 0.041000225 1.6995176 -3.0445702 -0.4966407 -1.441351 0.9538688 0.8961438 -0.90115285 0.3158884 -2.697159 1.3504791 0.833533 1.8577533 1.5820944 3.5866885 0.47733092 -1.139287
tedxeli 0.6966306 -0.41523698 -0.43635756 0.80695593 0.53849053 4.85793 -0.3237498 -0.47620106 4.2202406 3.5674446 1.6530206 1.2116839 -0.98727703 1.4516208 -3.3397655 0.7827382 -1.946969 3.2515864 1.9234251 2.571542 0.55342305 3.5028734 -4.0358977 -1.5977482 0.32846016 -1.0298318 -0.29932368 0.9316037 -1.5346318 0.8840168 0.55085003 -0.2624114 -2.26303 0.95559627 0.20869921 2.246386 -0.21236773 -2.430077 1.3038975 -2.5597906 0.8279976 1.3452156 0.09418222 1.7330055 0.47600335 0.16566402 -1.4851289 -0.34715554 0.43240124 -2.4904397 3.1631913 -3.381063 -1.3644052 0.4965758 -2.8571162 1.6265594 -1.3671359 1.7013574 -2.83019 -0.041373238 0.33452496 1.3417383 -1.7561282 -2.0860267 -1.9132242 -0.277625 -1.2143689 -0.2969738 0.1937114 -0.30291614 -0.71750975 1.713044 -1.916709 0.49067363 0.954703 0.049348418 -0.3833057 0.6957244 -0.23431523 -1.1581224 -0.33482668 -2.3837886 0.37768242 -2.0036716 -1.5680828 -0.090917535 1.1425267 0.17061332 2.2172892 0.8270528 -0.5526927 1.641737 -3.171659 -1.6444451 0.12342739 2.0984187 0.4962954 3.5380208 0.40839458 3.2112772
ye 0.99123347 -0.20264378 -0.22045247 -0.03982546 -0.99482435 0.15790392 -2.6032684 -0.706331 -3.4982593 0.8548092 -1.1003188 1.4874443 0.4889922 2.3044555 -0.44827148 0.46334723 0.7457188 -1.9282945 -1.9910822 0.42645845 -1.3323859 -0.8531931 1.1642808 1.5098735 -0.16479678 1.9834065 0.2165256 3.5877476 -0.62505996 0.80484396 -1.8075558 4.3235955 -4.1633825 0.11173812 -0.2675337 -0.3465969 -0.14660922 -3.0214615 -2.0486944 -0.24532488 -0.8325887 -2.827021 0.9895024 -0.5461291 1.7546959 0.1584291 -0.64901704 0.07864094 0.079007216 -1.1515146 -0.6982563 0.084039465 1.119328 1.2353506 -1.1990675 -2.511509 0.10611683 -0.5384062 -1.3271925 2.3264496 0.53780293 -0.06999589 -2.0973938 -1.7611035 -0.9320648 1.6835824 4.437772 0.40509558 -0.21376689 -1.3130071 -0.84377134 0.99203175 -0.1616103 -0.016918162 0.39065507 4.510658 2.1722345 0.20670453 0.80207765 -0.9322664 -1.5106815 0.15854247 0.34941155 -0.26541248 -0.040257834 -0.006949408 -1.8423402 0.76476675 2.547074 -1.5216396 0.20359738 1.1465367 -0.008673799 0.17098129 -1.4072534 -1.7484658 1.0999376 -0.09710013 1.0694758 0.9937134
lX -0.9052562 1.1689504 1.5495585 1.0403296 -2.2150428 -2.0686946 -1.2115053 3.5052788 -0.9264128 -0.38316092 -0.21149312 0.67413366 0.9266936 0.6133788 -1.3961372 -0.18631421 -1.7677404 -1.2691286 0.89729434 -2.6103296 -0.87211865 -0.13296206 -3.352313 -0.7413327 0.02632967 2.9011762 -0.04625913 1.4326519 0.7416523 0.25948048 -2.1863189 0.80868226 1.5418442 -0.261122 0.06141504 3.7080517 -0.33955365 0.09705981 -0.20402165 -1.9576476 -0.2483704 0.36621007 -0.0011424908 -2.6252897 3.318513 -2.7971184 -0.46263298 1.5770521 -1.0484915 -0.5103415 -2.438945 1.6062678 0.12063171 0.8895201 0.26191995 0.095769815 -1.5256382 -0.59849393 -0.025472824 1.27242 1.6898952 -2.0652447 -0.63635176 -1.9006339 0.023928845 1.3734586 2.502104 -1.2497957 0.9423368 -0.15321882 -1.1666256 0.91479814 -1.6801016 -2.3639765 1.207572 0.48970643 0.34597218 -1.44122 -0.36659473 1.3193545 1.2767142 2.5843253 -0.48402697 -0.23903754 1.5734658 -0.0201995 0.10825725 0.45141062 2.1566556 -0.09611993 1.6124216 -0.30175662 1.0742496 1.047305 0.33975756 -1.3962747 1.4677469 0.880024 -0.2554335 1.6385629
pElmES 0.84926105 -1.8290086 0.18989162 1.3790861 -1.1567295 -0.7936771 1.0037069 1.0852426 0.94668597 2.5017722 -0.8501437 -0.059673417 -0.13884933 -0.74134696 -1.0510131 -1.2041268 0.9321938 -0.47352672 -0.16845295 2.248522 -0.76786256 1.3413332 -1.6669617 -1.547061 -0.015574232 -0.6205083 -0.7722773 0.42906386 -1.9220514 -0.5447195 1.4840434 -0.17466271 0.62435395 2.6402178 0.0672668 -0.6874156 1.6551845 -0.88779277 0.4274231 -2.2802148 -0.45650664 -1.488094 -0.55580467 -1.0458591 1.4808813 0.41060826 1.0363824 1.2362933 -0.58010405 -1.4759207 -0.9360178 -2.476887 -0.6276005 -0.85075456 -0.23508413 0.023494268 1.8551527 -2.8702254 -1.9327003 0.7304674 -1.418818 -0.044684432 -0.45904204 -0.05802949 0.7093481 0.88763106 0.6679927 0.09833242 -0.3237013 0.8082362 0.108104475 -0.5114799 -0.31121993 -0.12196723 -1.8682133 -0.68686676 0.316186 -0.6781965 -1.0173239 -1.730666 -0.0035741623 -0.28803882 -0.754636 1.2316985 1.781227 -2.0864222 0.06876334 0.9849934 0.21023116 0.33011717 -0.9669427 0.31106108 0.9341835 -0.2713702 0.39779028 -1.2457454 -0.1760305 -0.01238111 0.54053015 0.45056978
ant -0.5716097 -1.029179 0.24269587 -1.5022216 0.78889126 1.7988898 0.12868235 0.87798864 -0.19008434 -0.22869463 0.41795304 -2.3972766 -1.2365309 0.35029873 -0.8391753 0.25629273 2.0185578 0.9697877 -0.62836593 -1.6550797 0.8122165 -0.07600858 0.3789253 -2.2574577 0.3450079 0.32813865 1.1492224 -0.86228937 0.62709713 4.5134597 1.5178738 -0.92742366 1.0933837 -1.3200028 -1.5521107 0.8885131 -0.7883984 1.4434952 -0.72129095 -1.0861329 -0.45118448 0.97231287 2.5527382 2.6465507 1.8008608 0.7501709 0.40746108 0.99793607 2.0547934 -1.4964476 -1.3411578 -4.5750566 1.5678728 0.9343055 -1.6824876 0.6271622 -2.495218 0.24117461 0.6461023 -2.6530683 1.9767292 0.21931611 0.96503264 0.13882807 1.5810338 1.5154812 -0.26763898 2.2525136 -1.0332663 -1.3107268 0.8271656 5.0776486 2.1629977 -1.7864205 0.8414615 -0.049798906 1.1223017 -1.1280111 0.56478447 0.16513878 0.26781678 -1.424437 -0.27103153 1.1653882 3.1518939 -1.5050368 -0.5354586 -0.80264217 -0.46425262 3.2052276 -0.044705186 0.760089 -0.29496977 -0.3753925 0.6571231 0.18746993 -0.07470716 2.3697948 -0.033756223 -1.0992383
wkite -0.8159595 -0.5127354 1.2085631 -0.7828283 -1.0014849 0.4245595 -0.32201666 0.98730487 0.48863688 0.09570558 -0.16216312 -1.8644397 -1.9991864 -0.05848216 -1.5434961 0.8446482 -1.338906 -0.68119866 -1.5967458 -2.2459884 1.6752751 1.005278 -1.2439203 -2.1147704 1.4288582 2.6810958 0.11903214 -0.9174827 2.0913951 4.0617347 1.690078 -1.5539682 3.7198455 -0.052671265 -0.88235795 2.318617 -1.0143642 3.1271763 -0.7547916 -2.0736885 -2.3505075 1.0234127 2.6094446 2.4411097 0.9868468 1.2303542 1.7404917 2.4704115 0.28829104 -0.45618075 -1.2340447 -2.8269072 1.997179 0.66191304 -2.6348758 0.6247674 -2.1910295 1.3337215 -0.4059256 -1.4522786 2.4124098 0.4021224 1.102241 -1.3570977 1.3053962 0.99126095 -0.23743576 2.4610891 0.80035865 -0.16941214 0.29101706 3.0339727 -0.25143307 -1.5284426 2.483317 -0.88498634 0.40454817 -2.6210828 -0.67767876 1.7610459 1.8313938 0.15148206 -0.3498594 -0.5888052 4.6195903 0.77542186 -0.9582647 -0.43184182 -1.8487899 3.6899157 0.6397166 -0.31061593 -0.58077824 0.28118315 -1.8821863 1.3369255 0.08481825 1.545413 1.0558244 -1.8710625
SEni 0.062586315 -0.52544826 1.7002612 -1.034751 -1.4223998 0.3318933 -0.45609063 -0.26994133 0.55060965 1.5575248 -1.3844666 -0.29710928 -0.7359603 -0.7646412 -1.3973763 -0.21490291 -2.2170405 -1.4266044 -0.9458673 -2.4987538 0.8076825 1.1899415 -0.95066786 -0.76957834 2.6800814 2.460362 0.58794856 -0.45294973 0.97306806 2.3423595 0.7904655 -1.1533688 3.7437718 1.67099 -0.9494666 1.6833291 0.48368078 3.4950995 -1.0539883 -1.434404 -2.009559 -0.27782303 2.2781558 0.7979169 1.2463021 0.8491736 2.5382388 1.6780833 -0.9005282 0.13740152 -1.1883814 -1.7528648 1.1204126 -0.22081058 -2.3460684 0.2946218 -0.80312526 0.82720846 -1.1331644 -1.768186 2.27454 0.64761996 0.73114794 -0.43980274 1.3478994 0.5697478 -0.022971002 1.4460845 0.29231906 -0.39019337 -0.19093816 1.7620513 -0.8478587 -1.480954 1.6515491 0.3110185 -0.08458318 -1.7509859 -0.77875584 0.8291177 3.0725746 -0.35990208 -1.2654011 -0.6112883 4.7662034 1.6953393 -0.5199354 -0.001828415 -1.0127828 2.9145184 1.0882955 0.7663553 -0.21114573 1.1185757 -3.1577659 1.4933686 -0.15110435 1.6042747 -0.44601735 -0.63326097
yikidke -0.7680798 -1.474592 0.62639713 -0.6928483 0.3096771 0.22489505 2.2750375 -0.37842497 0.54475206 0.99328107 0.17028503 -3.8107712 -1.3526345 -1.4766431 -2.2878928 1.2528043 -0.42231277 0.2244444 -1.6607107 -0.5131047 -0.9780498 1.5852035 0.5314109 0.24380739 -0.17720729 0.78904396 0.10782253 -0.6646464 0.87473047 -0.45234865 1.0110933 1.9404188 1.8695046 0.8289174 -0.30845356 1.8905584 -0.35855377 -2.0284145 0.4366774 -2.4560697 1.7009069 -1.5063976 1.2382499 -1.8418875 -0.97049934 -0.3574337 -0.8885582 2.7976727 -1.8458358 -2.0131938 -0.47641268 -1.6556629 2.0572987 -0.24731223 -0.41262946 2.51662 0.8706639 -0.14229226 0.64438593 1.36926 0.42615172 0.0034851942 -0.40104944 0.72594273 0.7910754 -0.7094035 -0.6505494 -1.0440439 -0.43051875 -0.25811815 -1.2000475 -0.599019 -0.5422611 0.7928907 -0.12823492 1.8457943 0.21524876 -1.0463299 1.2369497 1.2928648 -0.7220862 1.5165254 0.50907516 0.230745 -0.71873474 1.26699 1.4734282 1.6658846 -0.10708684 -0.19460787 2.0065265 1.113264 0.6198406 -1.9555856 1.1070663 -0.9797122 0.65730286 -0.46308488 0.32864794 -1.1611197
apEte 1.1112797 -0.99067116 -1.3349433 1.2851064 -0.338271 -3.2750008 -0.639028 0.56361395 -1.9403055 -2.091179 0.70566064 -1.0767272 -0.26728678 1.3817111 0.10630117 1.4007051 1.0682384 -2.454736 -0.7100552 0.28556502 -0.5328324 -0.19128259 1.1911117 1.0615292 -0.14439066 -1.2224262 -0.8471175 -0.5356156 -0.46554527 -0.84594125 -1.0542276 0.08071277 -0.6743261 2.2818835 0.06765785 0.2523486 1.6062036 -1.5931473 1.7783697 0.1324019 2.5075574 -3.6581194 0.0058051557 -0.3335554 0.1396635 0.19736339 -2.1244085 -0.26530412 0.021816608 -0.28962943 1.8687367 -1.5700498 1.0771385 -3.6507242 -2.6901047 0.67437303 1.0446253 -0.31611001 -0.7274997 1.3684187 -2.5274162 0.11733318 -2.020065 -0.59774613 1.3115038 0.9633809 0.10984184 1.2706674 -2.193046 2.7405152 -0.8490275 -0.38519037 -1.2308068 2.5113602 -2.1769843 1.0899963 -0.42748535 1.6126335 2.1107662 -1.8792667 -0.6703311 -1.7505395 -1.0656031 2.404705 -0.19777247 0.85945725 1.0161105 -0.34716767 0.19577856 0.8038607 0.080147505 1.2135473 -2.41703 -1.1057398 -1.0115825 -0.33571744 1.2998267 -0.6074326 0.35476634 -0.26501584
